10
-1
-4
-9
1
10
-8
-2
-9
7
-12
7
-113
-4
4
-168
-237
824
-275
-177
713
22
-1225
862
-1193
837
891
989
-814
123
-640
647
118
-351
-695
-581
-196
-365
-663
290
192
-350
190
19
-687
-78
34
-408
-79
128
67
-16
-252
-9
-9
-46
470
197
-73
425
-64
501
-280
527
-1012
-55
250
-1054
-12
366
1088
66
497
-178
-106
86
-195
1155
1220
-64
-563
-300
-378
-215
272
11
-480
-124
90
465
566
1299
1063
409
-505
-164
449
-65
-545
316
-386
-86
-325
418
-199
-57
-339
19
675
-55
-177
998
542
407
384
552
892
-107
-791
-358
-864
111
-505
155
-902
551
1
-45
251
-638
-1500
-138
977
-137
248
-625
91
734
-282
-990
-148
578
-1381
-9
-1476
-525
-484
252
-81
1266
-346
317
541
-1305
617
167
29
60
-464
-120
84
78
457
78
-422
1153
374
-217
-386
280
-114
590
-345
-9
239
178
-280
585
-160
-51
1042
-384
-692
89
299
43
-42
786
-726
-182
69
-364
-912
10
-296
27
10
626
113
-788
77
46
-249
-213
-165
-1093
-1246
197
-135
530
109
736
-86
-132
-1051
1291
-946
59
228
-707
66
216
645
-59
-266
645
-576
-316
87
27
996
35
-560
-85
1226
-256
-71
-32
-276
1500
-521
-306
133
461
-328
