583
1000
-703
-1000
-960
-593
-718
-797
-607
159
-208
-551
-1000
1000
1
-860
555
-312
173
-760
-311
-34
1
1000
-726
1000
572
-286
361
-834
123
466
133
1
1
1000
261
-848
433
961
1000
25
37
-230
1
227
75
-13
-767
-793
-647
-703
-907
-538
1000
-449
-1000
290
-338
-1000
978
-902
750
125
-276
-787
1000
-1000
825
-457
328
-1000
269
583
963
-209
-420
774
-649
378
-917
-1000
11
-66
-1000
883
181
720
-392
-854
454
372
781
503
109
-398
1000
-324
199
847
-826
1000
1000
224
313
-22
-918
-1000
-118
-1000
-141
1000
436
-1000
1000
-1000
-1000
146
1000
-1000
1000
685
489
-542
864
565
-201
835
-1000
860
961
394
-159
-717
643
-395
-816
-373
-1000
1
1000
-593
-152
89
-876
-957
377
-240
653
-271
-1000
146
-1000
-1000
466
202
-38
-760
-495
999
367
-1000
-1000
-678
245
717
-326
-1000
380
-296
486
251
-212
-162
1000
-342
192
-527
-714
231
186
341
-64
427
596
-76
-343
22
-122
-1000
257
-684
-187
-499
-957
-29
207
603
724
314
-3
-1000
358
1000
172
670
35
-938
-889
-56
845
-727
863
-48
841
1000
451
-405
-83
-1000
825
-579
1000
326
1000
-817
-1000
517
-1000
-255
-1000
29
-100
362
-96
773
411
212
-896
976
343
1000
222
111
-312
901
162
89
1000
-43
-882
-766
-626
-1000
1000
1000
74
-995
-1000
-1000
-901
1000
-105
946
-1000
-509
1000
525
1000
1000
-511
-566
-1000
-767
1000
-1000
945
84
-11
456
1000
-124
-226
-1000
-536
1
1000
1000
-1000
902
-1000
1000
1000
-236
-1000
-961
-162
717
1000
819
515
435
-159
632
-126
1000
-88
529
1000
-793
-438
-279
1000
1000
1000
-439
-903
532
1000
15
1000
1000
489
287
159
641
744
759
-1000
-491
-681
251
519
-1000
-657
-1000
-1000
-741
-353
1000
-1000
-450
333
856
-560
-934
-78
1000
65
-644
-793
375
-803
80
321
315
348
153
-193
379
-63
208
1000
-640
-1000
-751
754
-526
-1000
185
-920
659
-827
-470
-288
200
139
201
548
-150
-4
750
-37
-784
332
-659
-869
-902
-747
-102
-635
1000
565
289
405
384
-1000
-938
1000
-848
781
532
501
1000
1
-394
902
1000
-334
-768
-822
-354
-723
-1000
142
-380
210
258
953
-789
118
-553
-51
380
-745
-504
664
-1000
809
-237
1000
375
643
253
1000
-1000
-586
-181
-960
-58
1000
-1000
201
-623
-150
872
-1000
89
-511
854
46
-547
261
286
252
-233
-317
-320
569
669
-1000
199
-1000
1000
-1000
822
-510
506
148
-695
-621
1000
403
54
394
-860
1000
147
-466
183
-489
-1000
-727
-134
-140
1000
663
-328
-1000
-656
-426
1000
-890
646
1000
838
1000
-323
544
546
375
-662
-1000
-72
747
1000
-163
-1000
650
-686
254
-1000
-213
-864
373
-1000
1000
-1000
321
-780
251
36
182
566
-825
959
-1000
35
-829
488
-1000
-91
85
74
421
-59
380
-1000
52
-1000
-224
370
-527
1000
92
226
1000
815
63
1000
-16
-554
1000
-4
-876
-1000
-281
-1000
89
474
-1000
-971
-56
1000
1000
266
954
622
1000
712
-1000
-1000
-409
268
-922
1000
835
1000
-1000
-1000
694
-347
-71
-1000
-767
-92
533
-492
