-789
328
-472
-1100
-1101
-219
-1004
-1123
-1106
130
-428
-610
-1125
-1216
-1219
-347
-1355
1065
-1073
51
168
764
1010
1009
-231
258
1364
-486
-1128
928
-488
419
722
-563
1124
921
-111
-360
-13
589
934
121
769
59
500
-211
-1015
-1156
-672
422
-650
418
869
-486
833
1179
-854
-320
5
301
1131
817
598
-457
998
409
206
538
25
-866
-172
1573
-269
284
-1701
-841
384
1100
-1018
448
-1664
128
1668
1107
-675
417
-954
-1135
687
-883
-546
215
7
-307
-578
-807
302
900
1419
-832
-666
-386
553
740
-1656
-1299
202
1052
-136
-398
-1681
-1348
1455
514
-400
664
46
-54
197
717
-1009
1281
368
-437
-1114
988
285
737
-220
-964
-648
-300
-254
-877
365
308
-381
-300
-1112
297
-665
-1172
-578
885
-1435
-1086
-661
502
901
-880
-770
337
1106
-1164
46
319
1027
458
-722
-1471
-422
1453
317
-383
-183
464
-601
854
1228
-739
385
-774
1019
60
662
-24
516
-516
172
581
90
56
-804
271
31
511
820
-188
-149
-527
1226
543
588
-196
-1387
919
668
321
1196
-359
-1820
-9
-20
880
346
-583
-305
638
1134
155
-1243
571
-1291
-824
-210
56
-164
-520
-1096
47
-805
300
1132
817
-1162
841
-789
1055
1480
771
-602
1292
566
339
906
-857
-1807
-991
701
-1734
484
174
-369
-1017
121
-617
100
90
-1050
-120
-964
667
1066
616
-691
-1047
-39
862
1113
393
-298
-364
-432
-1093
380
-48
495
-39
859
1001
-484
-1451
-554
-330
-371
-467
-428
403
1539
-294
-868
1451
-1099
-1300
-838
62
677
-621
-425
-187
-191
179
-374
1148
