54
-29
-7
-15
25
46
-12
-15
-1
8
70
35
-49
-61
-25
-1500
-918
1500
-1500
-249
-352
-706
1024
137
-1500
-1500
324
205
-216
-1084
161
-175
1485
1485
428
-803
-1320
-1500
1021
-1500
235
-158
748
-1485
-1485
1357
1181
672
1468
-990
166
1485
-172
-1263
868
195
722
-550
139
-1140
1335
-1470
1470
1470
1164
1030
1485
1485
1485
742
1457
-311
-503
1468
-668
1470
461
1470
-1401
1470
427
-171
-1455
-957
-295
-1401
-1500
1500
1290
714
-146
-929
528
495
867
-702
-1453
753
1238
1342
668
112
1373
929
522
-396
-1500
1133
-1500
-1500
-338
564
-1485
1485
-1485
1455
1455
-1415
-763
333
-579
575
604
-995
1071
-292
-166
833
1303
1485
-1500
-1310
-1371
1500
-426
840
-424
-533
954
-951
-1197
-381
-214
-776
1500
475
-1000
-587
275
209
-187
-1459
289
1470
-953
941
1485
641
433
877
117
415
-808
-79
-1485
1500
1485
1500
-698
835
-598
703
688
-475
902
-1356
1028
-335
-1485
-1096
-195
-1300
-733
759
1470
1319
458
1382
1440
-293
-145
526
271
761
804
-386
1485
-189
1485
-153
-1485
-87
-223
-1485
1270
-183
-511
-1500
1296
1500
229
-1271
-352
143
-297
-684
1485
1485
812
-927
-930
1500
-1319
-485
1144
122
-662
-1427
1326
1500
1500
58
-1323
-67
301
-1455
-373
114
-709
513
1500
636
1336
1401
689
