-473
203
-286
-667
-666
-130
-615
-688
-1054
85
-259
-373
-689
-730
100
-219
-847
660
-702
34
114
501
649
649
-144
160
840
-297
-693
572
-259
225
375
-287
595
494
-61
-197
-8
362
528
70
423
35
1192
-116
-511
-577
-435
272
-419
271
-323
-298
498
697
-496
-188
14
180
673
484
359
-269
595
245
124
-256
26
-518
1416
970
-152
198
-1598
-517
226
642
-643
288
-690
86
1032
687
551
1840
-646
-696
421
-516
-307
124
9
-179
-559
-469
184
1467
855
-1410
-419
-235
353
1494
-1060
-1773
166
668
277
-1811
-874
-826
897
320
-258
457
33
-31
135
462
-604
806
233
-258
-673
595
168
449
783
-579
-344
-161
-155
-775
228
199
-232
-191
-659
179
-396
-685
-335
522
-945
-637
-374
287
1024
-1737
-467
323
685
-1774
21
894
632
438
-439
-904
-256
898
197
-236
-226
280
-363
527
751
-456
230
-479
623
40
411
-15
328
-317
111
361
60
32
-496
166
24
316
507
-117
-87
-323
960
340
448
-120
-1518
548
404
196
767
-227
-1880
-8
-18
566
157
92
-126
-368
506
542
-804
1796
-793
-122
-125
-550
-98
-309
-662
23
-473
383
625
350
-591
426
500
565
737
390
-285
592
296
186
739
-555
-1128
-616
442
-1068
284
110
-683
-607
72
-368
75
65
379
-144
-643
462
642
344
-699
-585
-22
514
662
235
-172
-217
-251
-648
237
-25
-1212
-20
741
592
-265
-813
-313
-193
-215
-269
-251
245
950
-174
1069
869
-677
-809
-526
41
431
-385
-266
-110
-121
111
-225
746
