-828
1000
-908
-1000
-209
-440
-784
-920
365
739
-249
-1000
-1000
1000
253
-822
235
-371
-592
1000
575
369
1
1000
-888
1000
572
-504
-342
-834
123
466
133
1
1
1000
1000
-93
228
377
1000
580
37
-282
-918
222
873
802
-169
325
-1000
-703
-490
-91
757
-449
-1000
-1000
-353
-607
-918
-928
1000
699
245
-575
1000
-930
1000
-1000
-736
-1000
4
1000
1000
893
-533
259
-1000
1
-812
307
-453
-1000
-976
883
498
1000
317
-488
-356
-502
282
531
-382
-2
1000
-180
199
847
-1000
1000
1000
224
313
-22
-918
396
-477
-1000
-141
997
436
-1000
-548
534
-352
146
1000
-198
1000
674
489
-542
-11
1000
-116
906
-836
1000
860
-1000
-35
6
-10
-566
-1000
602
-1000
-1000
543
-820
1000
820
-786
-884
377
-754
504
665
-514
1000
-717
-1000
-160
-854
-513
-955
-54
1000
558
-612
-1000
759
245
-371
-576
1000
672
480
-182
-816
-1000
827
365
-342
-372
40
15
30
186
341
1000
427
596
-740
-343
22
-122
-1000
-288
-684
-187
-368
-317
-29
207
119
1000
314
-307
-1000
358
559
172
560
35
-1000
-889
151
845
-184
540
-278
1000
1000
451
-821
158
-1000
825
-369
465
1000
391
-1000
272
517
-888
-697
-699
29
-100
362
-256
666
-669
-415
-1000
626
343
1000
222
-82
-977
1000
779
-379
1000
800
-1000
-778
-469
-836
623
456
-47
-51
-312
-638
-1000
1000
344
-94
-1000
-384
1000
972
1000
932
-973
-885
-1000
-1000
366
-1000
751
-571
-738
-247
887
1000
-613
182
-765
-779
830
1000
-367
917
-640
749
74
-556
-1000
-736
-561
1000
1000
819
682
-367
-159
632
842
-1000
1000
-1000
331
484
-1000
-279
1000
93
900
-600
-382
-927
1000
-378
1000
1000
218
-1000
159
404
1000
759
-1000
-338
-1000
-317
519
-1000
-85
212
-822
-750
-493
1000
-484
-582
-207
1000
-560
-260
-476
407
368
208
-1000
375
-510
-853
-409
315
348
307
-193
379
829
-686
582
242
-1000
-105
956
-526
27
185
-963
1000
-390
580
490
709
139
201
548
-1000
-409
509
-565
-468
621
-634
-869
-902
-608
363
-1000
884
326
-407
1000
1000
-881
-973
1000
-848
459
532
501
159
994
-427
902
954
177
-1000
83
-129
-1000
-1000
-407
-317
-847
663
1000
392
1000
-104
-57
-1000
-159
-1000
-119
-1000
-1000
-543
1000
375
229
247
893
-1000
-1000
-865
-726
154
988
-896
-110
-739
-150
872
85
-996
-554
1000
46
1000
204
-247
216
1000
-583
-191
1000
669
-1000
199
-1000
1000
-1000
822
-481
-219
148
-602
-370
349
244
879
-655
-1000
1000
-863
670
-473
560
-1000
295
-134
-461
1000
1000
-114
-1000
88
-111
1000
-1000
-38
1000
604
1000
-542
544
896
-159
-961
-741
77
1000
907
-1000
-1000
1000
-686
731
-859
-443
-1000
373
-1000
1000
-523
1000
-531
1000
118
182
115
-1000
1000
-505
338
932
546
-1000
396
519
-463
334
-228
160
-955
-256
-404
252
370
-758
1000
546
-1000
1000
373
63
1000
318
237
1000
-255
-192
-1000
284
-831
-71
501
-1000
-752
-141
829
-31
-104
1000
996
1000
712
-1000
-743
-835
679
-891
650
715
1000
-1000
-1000
1000
1000
173
-1000
115
-1000
430
-560
