-828
1000
-908
-1000
-209
-440
-784
-920
365
739
-249
-1000
-1000
1000
253
-822
235
-282
-592
1000
575
369
1
1000
-888
1000
572
-504
-342
-834
123
466
133
1
1
1000
261
-57
745
961
1000
25
37
-230
-277
227
267
-13
-169
-32
-1000
-703
-872
-91
757
-606
-1000
-1000
-368
-472
-974
-928
1000
1000
245
-575
1000
-636
825
-1000
-1000
-1000
-319
859
902
781
-420
550
-649
-590
-812
571
-247
-1000
-666
883
-528
1000
-675
-488
229
-502
513
531
383
-2
1000
-180
199
847
-826
1000
737
224
313
-22
-918
-302
-196
-1000
-897
997
436
254
198
-1000
-352
146
1000
-393
1000
410
489
-542
-11
1000
-116
906
-450
860
1000
-739
-35
6
-10
-395
-816
760
-1000
-1000
1000
-593
615
183
-652
-735
377
90
516
195
-1000
894
-717
-1000
493
-854
-891
-648
2
1000
367
-1000
-1000
811
245
-371
-824
1000
1000
-398
-182
-1000
-1000
-433
365
-342
-521
40
-117
64
186
341
1000
427
596
-740
-343
22
-122
-1000
-288
-684
1000
-368
-933
-551
207
119
1000
707
-613
-1000
358
559
172
560
35
-822
-889
-56
845
-184
863
-278
1000
1000
815
-927
-444
-1000
438
-369
-314
751
634
-1000
-1000
376
-1000
-697
-699
29
-100
362
-256
666
-135
-651
-1000
915
505
1000
202
-754
-873
1000
-29
-379
1000
536
-1000
-1000
-839
-1000
712
456
684
-518
-312
-1000
-811
1000
523
-94
-1000
-384
1000
972
1000
-31
-973
-885
-707
-1000
205
-660
751
-571
-738
-247
887
1000
-603
182
-765
342
830
1000
-1000
902
-393
1000
1000
-637
-1000
-736
-182
1000
1000
819
682
-367
-159
632
-126
-1000
1000
-458
715
-350
-1000
-279
1000
597
1000
-654
-313
528
1000
-254
126
1000
329
5
159
20
1000
759
-1000
-809
-1000
-607
519
-1000
-321
-412
-662
-420
-493
1000
-1000
-450
572
1000
-993
-1000
-151
102
368
208
-1000
375
-166
-328
-409
315
348
314
-193
379
-63
-247
582
123
-414
-105
98
-526
143
-239
-963
1000
-579
1000
212
709
139
201
548
-1000
-4
509
-565
-887
1000
-659
-869
-1000
-747
-102
-931
623
565
-687
1000
1000
-881
-938
1000
-848
1000
532
501
1000
1
-447
744
954
-211
-1000
-976
-524
-1000
-1000
-1000
-380
-847
663
1000
392
1000
-104
-57
-489
83
-764
-119
-1000
346
-543
966
375
1000
1000
1000
-1000
-93
-1000
-960
-103
1000
-100
-110
-623
-150
872
85
-996
-511
1000
46
305
204
-247
216
1000
-583
-191
1000
669
-1000
199
-1000
1000
-1000
822
-481
-219
-1000
-1000
375
-722
403
914
394
-1000
1000
-565
529
-473
-229
-1000
149
-1000
-461
1000
456
-114
-872
209
-1000
1000
-1000
377
1000
604
1000
-323
544
896
-272
-662
-1000
77
879
1000
-666
-1000
1000
-686
875
-1000
-986
-864
82
-1000
1000
-523
321
-1000
1000
401
182
285
-1000
1000
-505
338
-298
546
-1000
-91
667
-955
421
-56
380
-1000
-757
-144
674
370
-758
1000
546
-1000
1000
373
201
1000
633
179
945
-255
-192
-1000
-18
-561
437
501
-1000
-971
-141
829
-35
-104
1000
996
1000
712
-1000
-743
-153
533
-1000
650
715
1000
-1000
-1000
1000
1000
173
-1000
115
-1000
430
-560
