-525
223
-313
-738
-740
-146
-679
-761
-1163
96
-288
-413
-762
-807
107
-240
-935
730
-758
39
123
543
709
704
-157
175
931
-326
-766
635
-302
270
447
-341
695
579
-69
-227
-8
405
625
86
473
41
1319
-126
-612
-640
-479
304
-463
301
619
-329
561
787
-557
-209
13
205
760
547
405
-304
670
277
142
-290
27
-582
1571
1071
-171
221
-1786
-576
255
721
-662
297
-710
90
1069
711
600
2000
-697
-754
461
-561
-331
140
12
-197
-610
-507
202
1623
943
-1558
-464
-261
388
1654
-1175
-1960
183
736
306
-2000
-969
-911
994
356
-283
504
37
-38
153
511
-669
892
258
-284
-743
662
190
493
865
-643
-379
-177
-161
-800
239
208
-247
-195
-728
195
-428
-757
-370
579
-1064
-719
-420
326
1154
-1959
-525
366
773
-2000
31
1008
701
484
-487
-998
-284
993
217
-260
-251
313
-403
586
813
-494
263
-517
678
46
457
-19
355
-350
122
400
64
39
-548
184
26
355
564
-126
-99
-358
1061
373
496
-132
-1681
610
447
215
816
-245
-1999
-6
-18
615
173
102
-142
-406
561
601
-888
394
-876
-135
-139
-607
-107
-342
-731
29
-521
424
691
407
-653
470
530
628
806
431
-310
674
326
203
818
-617
-1245
-684
488
-1179
321
119
-739
-660
79
-415
71
68
360
-140
-615
441
709
394
-790
-659
-22
568
741
263
-192
-239
-282
-718
243
-23
-1246
-21
787
638
-326
-987
-386
-234
-261
-327
-281
272
1052
-194
1185
965
-729
-866
-558
48
461
-414
-296
-121
-134
122
-250
834
