-349
-1620
-1064
-159
-473
0
-169
-127
142
-302
-647
0
-129
-119
-280
-477
-249
0
-138
142
-576
-4
117
0
166
-86
3
-89
-33
0
68
68
-24
-201
275
0
-230
25
531
116
-289
0
261
-89
-95
142
58
-725
-347
142
66
25
-318
0
509
-99
-549
-84
980
0
425
14
372
-75
937
0
-380
-192
340
-130
430
0
-66
-3
-437
91
1539
0
-438
448
-741
-435
-553
0
-127
-135
240
-324
-918
0
-64
141
397
-840
-116
0
-37
643
-405
-775
-405
0
184
705
-233
-776
309
0
-352
25
-518
-208
127
0
-2000
1827
-143
-109
-1150
0
-331
265
404
198
-247
0
-325
240
25
77
371
0
-63
-100
22
-1203
745
0
-405
92
45
-100
403
0
245
-435
-1407
-307
1736
0
-839
335
-1462
-1046
210
-602
172
221
1297
-111
163
0
184
-37
43
-36
228
0
219
428
395
-313
-129
0
59
10
-355
-146
25
0
78
-43
-127
-156
49
0
125
25
-207
-312
-109
0
648
47
-1377
-886
577
0
170
-65
-1171
276
-31
0
373
-61
-1682
-275
169
89
-140
1482
-333
-607
-159
0
-29
-483
575
58
1448
0
137
70
969
365
314
0
311
128
361
114
41
0
116
-392
924
-740
-1321
0
-194
-146
-204
9
392
0
289
-523
-304
-571
-192
0
-35
136
307
87
75
0
-226
80
311
328
179
0
-15
70
-500
-139
148
0
-465
54
-823
-252
-810
0
-647
25
361
72
123
0
5
-630
1968
-884
1863
0
-454
-82
-24
-134
314
0
