-284
-1284
-861
-128
-395
0
-157
-120
133
-278
-608
0
-111
-103
444
-416
-278
0
-119
122
-490
-4
-1272
29
141
-19
-1808
-78
-142
0
64
79
-58
-173
254
5
-35
25
509
110
-271
-46
251
-83
-87
133
56
-411
-304
431
57
25
-435
-520
509
-99
-549
-82
979
0
425
14
371
-73
1960
0
-364
-180
319
-119
404
0
73
-3
-1751
78
1845
0
-409
419
-695
-408
-518
0
-122
-129
269
-310
-585
0
29
129
358
-756
-104
0
-34
765
-1603
-704
-368
0
184
705
-233
-773
309
0
-328
25
-492
-198
117
0
-1735
1604
-123
-95
-1744
0
-303
243
361
172
-649
0
-269
211
25
67
-165
0
-56
-88
1187
-1064
701
0
-386
88
43
-92
384
0
230
-409
-1323
-289
1633
0
-773
303
-1404
-1004
194
-555
172
221
1296
-111
163
0
184
-37
43
-36
682
0
215
410
378
-301
-125
0
130
10
-337
-120
25
0
73
-35
-114
-16
42
9
121
63
-195
-294
-101
0
635
46
-1901
-867
554
0
164
-63
-2000
265
-29
0
370
-61
-1646
-267
166
87
-128
1339
-307
-560
-147
0
-624
-416
500
52
-669
320
1476
-120
922
-1481
300
1885
293
164
672
875
38
-365
112
-360
835
-668
-1217
0
-171
-128
-180
9
347
0
256
-462
-269
-536
-363
637
-28
118
266
175
70
0
-185
65
235
408
148
0
-15
64
-417
-116
-14
606
-447
52
-791
-288
-778
0
-647
26
365
73
119
-310
5
-558
1808
-814
1718
8
-439
-79
-24
-125
298
0
