-1342
546
-806
-1697
-1920
-745
-1520
-1631
-1589
-674
-650
-1703
-1698
-1699
-1736
-69
-1698
1590
-1679
957
260
1436
1528
813
-362
-288
1399
1013
-1751
1400
-751
-1731
1448
1637
1635
-1626
254
-69
-1614
155
-1353
165
1164
78
722
-1078
-1560
270
-1057
483
-1035
675
1413
-808
1375
1837
-1312
-501
3
257
1703
1225
-41
-683
1495
611
-485
1283
24
-1335
987
-323
285
417
-1761
-1262
535
1637
-1451
624
-267
179
1681
1565
-1051
644
-1492
-1592
-185
-1292
557
-798
261
-461
-859
-1202
-390
-220
523
-1267
783
-596
804
1085
-1310
-900
297
-208
-1462
-615
-913
-1650
706
-558
-631
1039
58
321
303
1115
-1495
777
524
1582
-1653
1445
-1262
-1644
23
-440
1524
-830
-345
-251
484
407
-542
-411
-707
431
-382
-838
-1110
1340
-1574
-1190
-1010
-4
1353
-1313
-1098
446
1440
-1055
54
-1289
1527
629
870
1419
637
152
485
-605
-291
704
-922
1332
1869
-1141
584
-1193
1548
-402
990
-39
738
-777
245
856
136
68
-1155
590
-1736
787
1252
-299
-1619
-822
1883
832
911
-304
-1698
1396
1014
486
1763
-539
-1777
-17
-43
1681
37
-1771
1655
1023
1809
-1561
-877
773
1178
-843
928
604
-384
-731
-399
359
-1125
402
1704
1178
-1692
1212
-1200
1584
1722
885
-919
1753
779
-64
1302
-927
-1582
-1441
1032
-1208
771
-318
-604
-1800
1066
-1000
-844
-434
-1732
-190
482
1129
1534
623
455
-1520
-1518
1263
1602
563
-431
-513
1121
-1590
603
-88
793
-72
-46
1606
-145
-155
-1505
-1540
1599
-1036
-611
583
1086
-427
-1030
1835
-1831
-1554
-1388
106
665
-43
-639
-280
-659
247
-777
634
