-436
1910
889
-798
-119
-610
-684
-1042
86
-367
-627
-672
95
-205
603
-636
-600
96
453
-396
-124
145
760
-260
508
1862
201
-416
-327
-1790
236
-158
-11
1833
56
365
25
1031
-100
-498
-416
256
-908
260
-284
439
612
-1160
-167
380
629
460
338
-257
225
113
-234
27
-468
868
-138
-848
-1438
-465
579
-583
269
-628
74
630
522
1082
-1329
-663
-1043
-308
131
6
-14
-461
-1955
1377
-141
-1317
-51
-1187
1409
-805
-1673
-1256
238
-1809
-871
-701
270
-55
397
23
-24
400
-553
741
213
773
547
155
408
719
-86
289
-131
-646
190
164
-159
-587
168
-369
-612
466
560
-559
-311
817
-1465
-445
314
655
-1705
1107
570
394
-398
-816
811
190
638
-1696
-8
512
1593
-463
239
-487
39
388
-13
297
-287
321
61
33
-481
-94
306
450
-101
-72
-286
300
-194
-112
-1398
506
173
2
-227
-1852
-8
591
145
87
-117
-333
510
-697
1551
-828
-111
-475
-96
-298
-644
26
957
1020
323
525
395
-400
631
330
-245
503
161
667
-502
-1016
-551
-962
320
-762
217
-685
-342
-1385
679
336
189
597
618
304
234
-985
489
559
196
-146
-192
-554
580
-23
-1103
-21
540
-261
-806
-313
-190
394
-304
211
822
-752
276
-628
-627
-482
34
898
-236
-96
-109
96
653
