-368
-1712
-1123
-167
-500
0
-176
-133
148
-314
-673
0
-129
-119
-280
-477
-249
0
-147
154
-625
-4
125
0
166
-86
3
-89
-33
0
68
68
-24
-201
275
0
-255
25
553
118
-301
0
308
-105
-111
165
65
-819
-347
142
66
25
-318
0
509
-99
-549
-84
980
0
425
14
372
-75
937
0
-380
-192
340
-130
430
0
-67
-3
-446
93
1570
0
-456
466
-771
-453
-576
0
-130
-138
245
-331
-937
0
-65
144
405
-857
-118
0
-37
630
-397
-760
-397
0
185
710
-235
-781
311
0
-375
25
-552
-220
136
0
-24
184
-143
-109
-1150
0
-345
276
969
206
-257
0
-339
255
28
81
387
0
-67
-108
22
-1305
807
0
-421
96
47
-104
419
0
260
-462
-1495
-319
1844
0
267
45
-1463
-1046
210
0
172
221
1297
-111
163
0
184
-37
44
-36
228
0
219
428
395
-313
-129
0
60
10
-362
-149
25
0
92
-51
-149
-182
60
0
128
25
-211
-318
-111
0
648
47
-1377
-886
577
0
170
-65
-1171
276
-31
0
381
-62
-1716
-275
169
0
-143
1512
-340
-607
-159
0
-30
-493
587
59
16
0
140
71
969
365
320
0
311
85
361
114
41
0
118
-400
943
-755
-1348
0
-194
-146
-204
9
392
0
301
-545
-311
-595
-200
0
-36
139
313
89
77
0
-226
80
311
328
179
0
-15
71
-510
-142
151
0
-485
56
-857
-262
-844
0
-288
26
375
74
129
0
5
-631
844
-884
1901
0
-492
-90
-24
-146
341
0
