583
1000
-703
-1000
-209
-593
-718
-797
-595
310
1
152
-1000
1000
1
-860
533
-312
173
-760
-286
-34
1
1000
-726
1000
572
-286
361
-834
123
466
133
1
1
1000
261
-848
106
961
1000
25
37
-230
-277
227
267
-13
-512
-274
-829
-1000
-907
-538
1000
-24
15
290
-338
-1000
978
-902
750
125
-276
-787
1000
-1000
825
-457
328
-1000
269
87
963
362
-420
774
-470
115
-917
-1000
11
-66
-477
546
328
720
-196
-854
1000
113
268
531
-308
-398
1000
-324
199
847
-826
1000
1000
224
313
-22
-918
-1000
-118
-1000
-141
1000
436
-1000
1000
-1000
-1000
146
1000
-1000
1000
685
489
-542
864
565
-201
835
-1000
860
961
394
477
-818
80
-302
-816
245
-1000
274
1000
-593
642
368
-1000
-281
377
-426
653
381
-1000
146
-1000
-1000
-160
390
-38
-760
-495
999
367
-1000
-1000
-678
245
717
-326
-1000
-1000
-136
-108
251
-212
297
551
-235
677
-527
-817
83
186
341
-64
427
596
-76
-343
22
-122
-1000
257
-684
-187
-125
-957
-29
207
603
1000
314
-3
-1000
358
1000
172
670
35
-938
-889
179
845
-727
863
239
1000
1000
451
-405
-83
-1000
825
-579
1000
326
1000
-817
-1000
517
-1000
-255
-335
442
-1000
1000
-292
825
812
452
-1000
976
343
1000
222
111
-312
901
162
89
1000
-43
-882
-766
-626
-1000
1000
1000
74
-995
-1000
-1000
-901
1000
-105
946
-1000
-509
1000
525
933
1000
-1000
-428
-672
-1000
1000
-1000
858
-63
16
456
1000
-380
-226
-1000
-536
-396
1000
727
-367
902
-1000
1000
1000
-556
-1000
-961
-162
854
1000
819
515
355
-52
186
196
374
-88
694
1000
-793
-438
340
1000
740
1000
-439
-903
-1000
1000
-43
1000
907
489
231
159
641
744
759
-1000
-491
-681
251
519
-1000
-657
-773
-582
-741
-353
1000
-1000
-450
333
856
-560
-821
562
820
514
-644
-793
375
-803
-328
-409
315
348
153
-193
379
-198
-133
1000
-192
-1000
-1000
1000
-526
-1000
185
-920
659
-579
-470
212
200
139
201
548
-130
-4
750
-565
-784
332
-659
-15
-902
-747
-102
-567
1000
565
289
405
384
-1000
-938
936
-848
1000
532
501
1000
1
-307
902
1000
-334
-768
-822
-354
-723
-1000
142
-380
210
258
953
-789
938
-553
-57
-489
-516
-1000
-119
-1000
293
-237
1000
375
477
832
853
-1000
-586
-1000
-960
-58
1000
-438
248
-623
-150
643
-517
-633
-511
956
46
-336
261
286
252
1000
-681
-320
569
669
-777
199
-1000
1000
-1000
718
-516
506
148
-695
-621
1000
403
54
394
-860
1000
147
-466
88
-489
-608
-437
-1000
-140
832
663
-328
-1000
-656
-1000
1000
-577
900
1000
838
1000
-323
160
546
174
-662
-1000
77
549
1000
-666
-1000
1000
-686
254
-1000
-1000
-864
373
-1000
1000
-540
321
-780
732
401
182
566
-1000
959
-1000
35
-156
488
-1000
-91
85
-1000
421
-59
380
-612
-220
-881
-271
370
-374
1000
546
226
1000
815
63
1000
368
-554
1000
-4
-876
-1000
-281
-1000
89
474
-1000
-971
-56
1000
-204
266
566
981
1000
712
-1000
-1000
-409
419
-1000
1000
653
1000
-1000
-1000
1000
-347
-71
-996
-767
-92
533
-492
