-473
203
-284
-668
-665
-129
-615
-688
-1054
84
-259
-372
-689
-730
101
-218
-847
660
-702
34
114
500
650
649
-144
159
840
-298
-693
573
-259
226
375
-288
595
494
-61
-195
-8
362
528
70
424
35
1192
-116
-513
-578
-435
273
-419
271
-323
-298
498
697
-495
-188
13
181
673
484
359
-269
595
246
125
-256
25
-518
1416
970
-154
201
-1614
-522
230
651
-642
288
-689
87
1033
687
551
1840
-646
-695
422
-517
-308
124
10
-180
-560
-469
183
1466
855
-1410
-419
-235
352
1493
-1060
-1772
166
669
277
-1809
-874
-826
899
320
-258
456
32
-31
136
462
-604
805
233
-258
-672
596
169
447
783
-579
-345
-161
-155
-776
228
200
-231
-191
-660
180
-396
-684
-336
523
-945
-637
-374
287
1025
-1738
-467
322
686
-1774
22
895
633
439
-439
-904
-256
898
197
-236
-226
281
-364
527
751
-455
241
-479
624
39
411
-15
328
-316
111
362
60
32
-496
166
25
316
507
-116
-88
-323
960
340
450
-120
-1518
548
404
195
766
-228
-1881
-7
-18
566
157
93
-126
-367
507
542
-804
1795
-794
-121
-124
-550
-97
-310
-662
23
-473
384
625
352
-591
427
499
564
723
383
-279
603
292
182
740
-554
-1127
-619
442
-1067
284
110
-684
-608
72
-369
75
66
380
-145
-643
463
641
352
-713
-595
-24
513
663
235
-172
-217
-251
-648
240
-24
-1224
-20
751
598
-276
-844
-328
-199
-222
-277
-252
245
949
-174
1069
871
-677
-810
-524
41
430
-385
-266
-110
-120
111
-223
747
