138
-1
-5369
-110
-18
145
2
-9960
-124
-1
104
24
-1498
-118
1053
-6845
4976
-8588
3495
-4974
9980
1351
-3639
-3788
8968
3128
6131
-4255
7732
5721
-122
-4644
343
7522
9472
9920
5383
-6020
-1091
1164
-4677
9990
-9960
9990
-4496
-3646
-10000
-6216
-5453
9707
-6013
-1210
5505
3400
-2895
-319
-9170
-183
-313
4269
545
-218
6629
114
9189
-818
-7234
4057
-5354
-10000
1382
-571
-3587
-1824
-7146
4975
-3376
-6327
3562
-8965
5823
813
6322
1485
3784
-1056
-1115
231
1857
-7825
1301
10000
1526
395
998
-1116
4522
-5407
-4500
9435
4915
-853
-1349
-452
-1456
-9100
-3034
-3104
-8886
3495
1185
9990
8706
8
-1262
3022
196
6303
-1391
-757
9952
-1667
-1712
-5718
-307
-8489
8440
-52
35
856
-9951
-8563
-235
6332
-575
-2079
7582
110
5767
464
7085
-606
3765
-9361
-821
525
980
-8624
9426
6502
-1023
2562
2313
-7936
2687
-9960
-2634
-4461
9960
7983
768
545
-6729
3588
7636
-5250
3802
360
-1241
-4645
-1788
-523
-2829
5923
-9970
-5593
-3810
9960
-9960
4050
1032
7906
871
-2452
1000
527
-865
-2419
-1772
-2901
-9627
4821
-5918
-6641
3165
8763
3283
-7441
7446
-4006
-9970
-489
2966
633
-9970
-3841
1823
-5671
3388
294
-9334
-994
-3779
-1283
1057
4436
-6997
-3362
-8107
-6650
-131
6724
-9960
164
7318
-10
-3300
695
-534
-3907
-346
1225
-9970
-6720
-550
604
4426
-10000
-2500
-4584
3561
-815
-3175
-2706
906
