-828
1000
-908
-1000
-209
-440
-784
-920
365
739
-249
-1000
-1000
1000
253
-944
314
-202
-592
1000
500
369
1
605
-888
1000
572
-504
-342
-834
123
466
133
168
159
1000
-749
-57
485
961
1000
25
314
-230
-277
919
456
-13
-169
325
-985
-575
-872
-91
757
-449
-1000
-677
-368
-585
-918
-928
1000
1000
245
-575
1000
-930
825
-1000
-736
-1000
-524
8
902
893
-492
1000
-1000
299
-812
-651
-247
-1000
-666
883
-528
1000
-675
-488
229
-1000
513
531
658
-2
279
-180
199
985
-976
1000
1000
182
576
-22
-918
-982
-196
-1000
-141
1000
436
-1000
650
-1000
-352
146
1000
-198
1000
410
964
-542
-376
1000
-116
906
-450
860
1000
-739
-323
-15
-10
-395
287
1000
-766
-1000
1000
-238
615
-104
-786
-884
377
-754
1000
700
-514
957
-717
-1000
-160
-854
-891
-777
112
1000
327
-1000
-992
303
264
-372
-824
578
1000
480
-182
-816
-982
257
365
-342
-372
40
15
30
186
341
1000
427
596
-740
-343
22
-122
-1000
-288
-684
-661
-368
-317
-245
207
119
1000
84
-307
-352
358
559
172
560
35
-822
-889
-56
845
-184
863
-278
1000
1000
200
-807
-234
-1000
1000
-301
473
1000
251
-1000
-1000
517
-241
-917
-699
29
-37
362
-256
666
-120
-475
-1000
1000
343
1000
222
-476
-977
1000
-284
-379
1000
869
-1000
-778
-878
-1000
-203
1000
337
-518
122
-1000
-1000
1000
1000
-478
-1000
-384
1000
5
1000
1000
-973
-840
-1000
-1000
1000
-1000
751
-571
-738
-247
887
1000
-603
182
-765
342
830
1000
-1000
358
-640
1000
1000
-371
-728
-1000
-441
1000
223
77
682
-367
499
1000
-126
-1000
939
-1000
715
-350
-1000
-279
1000
239
1000
-600
-313
-305
563
-378
744
1000
329
-542
159
1000
832
-126
-982
-1000
-1000
-317
519
-1000
-85
761
-662
-750
-493
1000
-1000
36
-370
1000
-560
-125
-151
102
368
208
-1000
654
67
-522
-409
315
348
307
-193
379
-63
-247
582
123
-414
-105
956
-526
27
185
-963
1000
-579
1000
212
709
139
201
548
-822
-4
509
-565
-493
621
-1000
-745
-1000
-747
-106
-293
1000
-857
74
1000
1000
-881
330
1000
-1000
1000
532
-228
1000
1
-447
628
954
-211
-1000
-976
-669
-1000
-1000
-1000
-380
-847
319
1000
-847
1000
-845
-57
-489
83
-1000
313
-1000
-301
-543
1000
375
-346
247
1000
-1000
-586
-1000
-595
-103
1000
-100
-110
-112
-150
872
58
-996
-511
1000
46
-107
204
-247
216
1000
-583
-191
389
164
-1000
199
-905
1000
-1000
645
-481
-920
636
-1000
-370
349
403
840
394
-860
1000
-600
529
-473
-229
-1000
-243
-24
-461
1000
15
-114
-1000
747
-528
1000
-1000
377
1000
604
1000
-323
544
896
-159
-662
-741
77
549
1000
-1000
-1000
1000
-686
731
-391
-1000
-340
373
-1000
876
-523
321
-1000
1000
401
182
678
-1000
1000
-505
338
-298
1000
-424
-91
667
-319
421
-56
950
-1000
-470
-546
252
370
-758
1000
546
-1000
803
252
63
1000
318
237
933
-1000
-192
-1000
-920
-1000
437
310
-1000
-971
-141
829
-35
-104
1000
1000
394
161
-1000
-743
425
533
-1000
650
-155
1000
-1000
-539
897
236
420
-1000
115
-1000
1000
-560
