583
898
-703
-1000
-209
-593
-349
-797
-595
310
1
152
-1000
1000
1
-860
1000
360
-187
-32
312
-34
1
1000
-726
1000
572
-504
-342
-1000
123
466
133
1
1
1000
1000
-848
106
961
166
25
37
-343
-1000
227
871
-13
-767
-793
-709
-703
-907
-538
1000
-449
-1000
290
-338
-585
-9
-1000
750
125
196
-787
1000
-1000
825
-457
328
-734
4
87
963
-209
-420
774
-649
378
-812
-56
523
-66
-1000
883
446
1000
-518
-854
1000
113
268
531
400
-398
1000
-324
199
847
-826
1000
737
224
313
-22
-918
-302
-118
-1000
-141
1000
436
-1000
1000
-1000
-1000
146
1000
-1000
1000
583
489
-542
864
565
-201
835
-20
860
1000
394
-35
-818
643
-395
-816
245
-715
-1000
1000
-593
615
183
-1000
-884
377
-426
653
381
-1000
146
-1000
-1000
-160
390
-38
-760
-495
641
367
-1000
-1000
295
245
717
-326
-280
681
468
-182
-566
-212
-162
833
-342
77
-527
15
-410
186
773
-64
427
596
-552
-343
22
-122
-1000
-288
-684
-187
-125
-957
-29
207
603
1000
314
-3
-1000
358
1000
172
560
35
-938
-889
-56
845
-184
863
-278
1000
876
451
-807
-83
-1000
825
-369
1000
751
1000
-1000
-1000
517
-1000
-221
-535
29
-100
362
-446
716
890
212
-1000
976
343
1000
222
-476
-816
1000
799
-95
719
-43
-1000
-766
-626
-917
623
456
-25
-627
-312
-1000
-901
1000
59
441
-1000
-509
1000
201
1000
1000
-267
-701
-1000
-1000
1000
-1000
858
84
-797
456
335
477
-358
259
-536
1
722
1000
-367
1000
-640
919
1000
-556
-1000
-665
-162
1000
1000
819
87
-367
-159
632
-126
355
-88
-458
715
-793
-1000
-279
1000
456
1000
-600
-353
-305
1000
-99
991
1000
489
-904
159
641
904
759
-1000
-574
-1000
251
519
-1000
-657
-773
-829
-741
-137
1000
-1000
-450
-370
1000
-560
-1000
-151
106
514
-644
-793
375
-803
-328
-409
315
348
153
-193
379
-884
824
-37
-208
-1000
-786
429
-526
27
-293
-920
1000
-579
1000
212
200
139
201
543
-822
-824
509
-565
-784
332
-659
-869
-902
-1000
-102
-635
1000
565
289
405
384
-1000
-938
1000
-848
1000
532
501
1000
1
-447
902
1000
-334
-1000
-822
-524
-1000
-1000
-162
-380
-1000
258
1000
392
938
-553
-57
-489
-516
-1000
-119
-1000
433
-237
1000
375
643
-165
872
-1000
-586
-1000
-960
347
1000
-100
27
-623
-150
872
-517
-996
-511
1000
46
-336
261
286
216
1000
-583
-1000
906
669
-1000
199
-1000
1000
-1000
822
-510
506
148
-695
-621
1000
403
54
394
-860
1000
147
-466
88
-489
-1000
-547
-134
-461
1000
663
-114
-1000
-243
-528
1000
-577
732
1000
604
1000
-323
544
546
174
-662
-741
77
549
1000
-666
-1000
1000
-686
731
-1000
-1000
-864
373
-1000
1000
-540
321
-1000
732
401
182
566
-1000
959
-856
274
-829
488
-1000
-91
85
-321
421
-59
380
-583
-571
-881
-271
370
-527
1000
546
226
1000
815
63
1000
368
-554
1000
-4
-428
-1000
-281
-1000
89
474
-1000
-971
-56
829
-204
266
558
622
1000
712
-1000
-1000
-1000
533
-1000
1000
653
1000
-1000
-1000
1000
-347
-594
-1000
-767
-92
533
-1000
