-285
-1286
-861
-128
-395
0
-160
-122
136
-284
-620
0
-111
-103
444
-416
-278
0
-121
124
-500
-4
-1298
30
141
-19
-1808
-78
-142
0
64
65
-24
-177
251
0
-57
25
520
112
-277
0
266
-89
-95
145
59
-436
-304
431
57
25
-435
-520
509
-99
-549
-82
979
0
425
14
371
-73
1960
0
-364
-180
319
-119
404
0
73
-3
-1751
78
1845
0
-426
437
-723
-424
-540
0
-122
-129
230
-310
-585
0
29
129
358
-756
-104
0
-33
744
-1559
-704
-368
0
184
705
-233
-773
309
0
-328
25
-492
-198
117
0
-1736
1605
-123
-95
-1745
0
-303
243
361
172
-649
0
-269
211
25
67
-165
0
-57
-90
1211
-1086
715
0
-365
82
40
-86
363
0
230
-409
-1323
-289
1633
0
-773
303
-1404
-1004
194
-555
172
221
1296
-111
163
0
184
-37
43
-36
682
0
215
410
379
-301
-126
0
132
10
-341
-122
25
0
74
-36
-116
-16
43
9
119
62
-191
-288
-99
0
635
46
-1901
-867
554
0
164
-63
-2000
265
-29
0
370
-61
-1646
-267
166
87
-128
1339
-307
-560
-147
0
-637
-425
510
53
-683
327
1545
-121
929
-1491
302
1898
293
164
672
875
38
-365
114
-367
869
-696
-1242
0
-174
-131
-184
9
354
0
256
-462
-269
-536
-363
637
-28
118
266
175
70
0
-189
66
240
416
151
0
-15
64
-417
-116
-14
606
-447
52
-791
-288
-778
0
-647
26
365
73
119
-310
5
-367
1845
-831
1753
8
-436
-78
-24
-127
302
0
