595
1000
-219
-1000
-209
-593
-1000
-797
-595
310
1
854
-607
1000
1
-860
533
-312
309
-760
-286
-34
1
1000
-726
1000
572
-77
361
-834
15
-287
133
1
1
703
165
-848
433
1000
1000
25
37
-855
1
227
397
-13
-767
-793
-562
-883
-907
-46
1000
-586
-1000
383
-338
-1000
978
-902
791
125
-276
-787
1000
-1000
825
-457
328
-1000
205
695
963
-1000
-456
774
-163
378
-176
-1000
11
1000
-970
883
181
720
-781
-854
1000
182
-74
503
-308
-422
1000
309
199
847
-826
1000
1000
224
1
-22
-918
-1000
-197
-1000
-51
825
436
-679
1000
-1000
-1000
146
1000
-1000
1000
1000
213
-542
864
565
-396
408
-1000
1000
961
394
-35
-818
643
-395
-816
245
-715
1
837
-741
615
777
-702
-988
377
-240
653
-205
-1000
146
-1000
-1000
1000
821
-38
-503
-565
1000
-317
-619
-1000
-678
-58
889
-326
-818
380
-296
-108
251
-212
-162
833
-342
192
-527
-714
83
1000
319
-64
427
596
231
-482
22
-122
-1000
257
-1000
-187
-125
-957
-192
1000
1000
1000
314
41
-1000
358
627
172
670
35
-938
-889
-56
845
-727
863
-48
841
1000
451
-1000
-1000
-920
503
290
1000
326
1000
-570
-1000
-513
-1000
-255
-1000
29
-100
362
-96
773
411
212
-896
976
343
493
222
-639
-146
901
162
1000
924
-43
-882
-735
-825
-1000
1000
1000
211
-995
-1000
-1000
-155
1000
-105
946
-1000
-509
1000
596
933
1000
-267
-483
-672
-1000
1000
-1000
552
1000
1000
456
1000
511
202
-1000
-53
1
1000
172
-745
902
-1000
918
525
-530
-1000
-961
-162
854
1000
920
515
435
-159
632
-126
1000
-88
529
1000
-793
-438
-279
1000
1000
1000
-439
-932
-167
1000
15
1000
574
1000
287
159
641
744
759
-1000
-491
-681
251
519
-1000
-657
-773
-582
-425
718
1000
-918
-450
333
394
-693
-1000
350
648
65
-644
-793
375
-803
80
321
315
348
153
-193
379
-63
275
624
-640
-1000
-751
754
19
-1000
185
-920
405
-579
-470
212
786
139
201
548
-130
-702
838
-867
-784
332
-659
-869
-902
-747
-102
-635
1000
565
289
405
384
-1000
-938
1000
-848
1000
532
501
1000
1
-447
902
1000
-334
-768
-822
-354
-723
-1000
142
-380
210
258
953
-789
519
-553
-51
380
-745
-504
-119
-1000
809
-413
1000
848
643
832
1000
-1000
-1000
-1000
-960
-881
1000
-1000
201
-73
-684
-323
-517
199
-1000
956
46
-336
261
286
252
1000
-317
830
569
669
-1000
-61
-1000
1000
-560
822
-510
285
148
-695
-621
1000
403
54
394
-860
1000
147
-466
183
-489
-1000
-727
-134
-140
1000
663
-328
-1000
-656
-426
1000
-768
515
1000
592
435
-673
544
546
605
-662
-1000
266
608
1000
-666
-1000
954
-686
254
-551
-1000
-1000
373
-1000
1000
-1000
1000
-780
1000
140
1000
-112
-1000
959
-1000
35
-912
233
-1000
-91
85
-321
421
-59
300
-612
52
-346
-271
-214
-527
1000
-94
-403
1000
1000
-4
219
597
-1000
1000
-4
-876
-1000
-281
-302
-1000
-104
-1000
-971
-56
1000
-204
266
480
622
1000
182
-6
-1000
-1000
-585
-1000
1000
835
1000
-1000
-1000
428
-347
616
-959
-785
-92
533
-492
