10
-10
-9
-9
10
10
-9
-1
-9
7
-13
7
-117
-4
4
884
-316
-540
-334
-380
902
69
280
370
-822
-373
171
-169
99
203
-1164
-179
215
-643
32
244
-113
241
-110
363
-36
-191
84
82
120
-41
73
-673
-106
29
173
-40
112
-25
-27
-107
144
96
-142
-157
-25
1378
-131
-409
137
-166
-153
-216
81
579
833
-668
714
-216
-228
117
-23
171
213
149
30
367
-418
-453
552
35
-578
-367
266
592
-379
-454
566
757
280
183
754
-108
-578
478
234
323
-557
709
-118
342
70
-54
61
-95
120
236
1425
-63
782
565
457
-180
-887
-244
-93
54
267
262
-591
91
1425
52
-458
-44
1303
-162
-30
-248
410
-779
-33
639
-724
-826
-230
252
141
-9
295
353
101
-343
-158
277
35
162
775
168
810
322
56
-253
-614
233
168
157
-165
158
-752
420
-466
-234
-739
641
191
22
437
-23
-265
350
-263
1354
-313
-100
660
-1286
-223
219
515
102
-101
148
37
-438
148
-351
-145
-26
174
51
10
-217
220
-549
-62
173
109
-808
-276
-703
787
-142
193
-282
-63
-32
-216
-231
-87
-286
-291
-153
368
-85
-90
58
61
796
152
188
-193
352
182
50
111
269
-137
-199
798
25
236
-57
-287
138
-161
-167
-207
22
62
