-828
1000
-908
-1000
316
-334
-989
-874
365
739
-249
-1000
-1000
1000
253
-822
235
-1000
-1000
1000
575
455
1
1000
-888
1000
572
-504
-342
-834
123
466
133
1
1
1000
261
-57
745
961
1000
25
37
-230
-277
227
267
-13
-169
325
-889
-1000
-872
-91
757
-449
-1000
-968
-368
-585
-918
-928
1000
1000
245
-575
1000
-930
825
-1000
-736
-1000
4
859
902
893
-420
550
-649
299
-812
-651
-247
-1000
-666
30
-528
1000
-957
-631
229
-502
513
531
506
-2
1000
-180
199
847
-826
1000
737
224
313
-22
-918
-302
-196
-1000
-141
997
436
-1000
198
-1000
-352
146
1000
-198
1000
-599
489
-542
-11
253
-90
906
-450
860
1000
-739
-35
6
-10
-395
-816
760
-1000
-1000
1000
-593
615
183
-614
-884
377
-936
1000
700
-1000
957
-717
-1000
-160
-854
-891
-648
265
1000
-299
-982
-522
1000
245
-371
-824
717
1000
480
-182
-816
-982
257
-208
-342
-372
40
15
30
186
808
1000
427
596
-740
-153
22
-122
-1000
-288
-684
-187
-368
-317
-29
207
119
487
497
175
-1000
358
928
172
560
35
-822
-889
-56
845
-184
863
-278
1000
1000
347
-807
444
-1000
825
-369
1000
751
634
-1000
-120
517
-786
-384
-1000
29
917
362
-194
666
-135
-651
-1000
915
343
291
222
-790
-977
129
-284
-379
1000
869
-1000
-461
-1000
-836
623
456
-172
-114
-312
-1000
-728
1000
249
-94
-1000
-384
874
972
1000
1000
-973
-885
-1000
-1000
85
-1000
751
-571
-738
-247
887
1000
-603
182
-765
342
830
1000
-367
902
-640
1000
1000
-556
-1000
-736
-561
1000
1000
819
373
-267
-159
632
42
-1000
1000
-608
715
-1000
-556
-279
1000
104
387
-600
35
-305
563
-378
744
1000
165
-622
159
641
1000
759
-1000
-1000
-1000
-317
519
-1000
-85
-87
-662
-750
-493
1000
-1000
-450
-370
1000
-560
-1000
-151
102
191
208
-884
375
-401
-328
-409
315
348
307
-193
379
-63
-247
582
123
-414
-105
956
-526
27
185
-963
1000
-579
1000
212
709
139
201
548
-822
-4
509
-565
-493
1000
-659
-869
-1000
-747
-481
-1000
1000
565
-444
985
1000
-881
-938
1000
-848
1000
532
501
1000
1
-447
902
954
-211
-1000
-976
-524
-1000
-1000
-1000
-380
-847
663
1000
392
1000
-104
-57
-489
83
-1000
-119
-1000
-301
-543
1000
174
-715
247
1000
-1000
-586
-377
-960
-1000
852
-100
579
-512
-150
872
85
-996
-511
1000
46
305
204
-247
216
1000
-583
-191
1000
669
-1000
199
-1000
1000
-1000
822
-481
-219
148
-1000
-370
349
403
410
279
-168
1000
-621
470
-817
116
-1000
149
-134
-461
1000
634
-114
-1000
259
-528
911
-1000
377
1000
604
1000
-323
544
896
-159
-662
-741
77
549
1000
-666
-1000
1000
-686
731
-1000
-1000
-864
373
-1000
1000
-523
1000
-1000
636
190
182
285
-348
1000
-505
592
-298
604
-1000
516
667
-404
421
-56
380
-937
-716
-381
252
157
-79
1000
546
-1000
1000
373
63
1000
318
237
-168
-586
-567
-1000
-690
-851
437
87
-929
-539
-141
355
-487
-60
1000
1000
1000
712
-1000
-824
-153
353
-1000
650
576
896
-1000
-1000
1000
1000
173
-1000
115
-1000
430
-560
