-828
1000
-908
-1000
-209
-440
-784
-920
365
739
-249
-1000
-1000
801
-242
-822
235
-282
-592
1000
185
369
1
226
-888
1000
572
-504
-342
-834
123
480
133
1
1
1000
659
-57
850
961
1000
25
1000
-230
-277
227
976
-13
-169
325
-1000
-703
-872
-91
90
-449
-1000
-677
-368
-548
-918
-928
1000
1000
245
-575
1000
-930
825
-492
-1000
-1000
-950
455
902
1000
-532
-564
-881
299
-812
-651
-247
-1000
-666
883
-528
1000
-675
-488
229
-502
513
531
383
-2
1000
152
-421
662
-619
1000
737
-1000
-698
-131
-1000
-1000
-196
-1000
-897
1000
436
254
198
-1000
-352
146
1000
-393
809
410
489
-542
-637
1000
-116
906
-396
860
1000
-739
-126
517
-793
150
-816
1000
-546
-1000
1000
978
615
289
-786
-884
377
-754
1000
700
-514
957
-717
-1000
-160
-854
-891
517
2
1000
367
30
-573
811
246
-371
-824
972
1000
-404
-182
-1000
-982
257
365
313
-885
292
212
30
186
314
183
427
360
-740
3
22
-253
-1000
-149
-684
451
-368
-278
-824
460
252
1000
707
-613
-781
358
559
172
560
35
-822
-889
-56
1000
-476
863
-278
1000
1000
815
-927
-444
-1000
438
-369
-314
751
634
-1000
-1000
376
-1000
755
-699
-198
-302
362
677
402
-135
-651
-1000
915
343
1000
222
-476
-977
647
-29
-379
1000
1000
-1000
-864
-59
-836
623
456
-25
-908
-312
-530
-688
1000
454
-180
-1000
-384
1000
626
1000
-345
-973
19
-926
-1000
437
-1000
751
-571
-141
-247
887
1000
-603
182
-342
-43
757
1000
-367
1000
-204
1000
1000
103
-1000
-736
-296
1000
1000
819
682
-367
-159
632
-146
-1000
1000
-696
926
-538
-540
-279
815
597
1000
-600
-798
-305
1000
-378
769
1000
329
-633
159
20
1000
759
-1000
-209
-1000
-317
539
-1000
-463
-412
-662
-750
-493
1000
-1000
-450
-370
1000
-560
-1000
-151
102
368
208
-1000
375
-166
-328
-409
315
348
307
-193
379
-808
-247
582
123
-414
267
956
-526
27
53
-963
927
-1000
1000
528
341
349
201
-363
-1000
-4
509
-565
-844
621
-407
-737
-902
-747
570
-1000
816
565
-407
985
1000
-881
-938
1000
-848
1000
532
911
1000
1
-447
902
954
-20
-1000
-1000
-276
-833
-1000
-126
-62
-847
-270
1000
109
1000
-104
-57
-489
83
-1000
-119
-1000
-867
-543
1000
375
430
-1000
778
-1000
-586
-1000
-761
-103
1000
-372
653
-623
-8
872
85
-996
-511
1000
46
305
396
-329
216
1000
-583
-191
1000
669
-1000
199
-1000
1000
-1000
822
-481
-219
-1000
-1000
345
-722
403
632
452
-410
438
534
188
-473
-591
-760
149
-134
-461
1000
476
-114
-1000
772
-1000
690
-1000
377
1000
604
1000
-323
544
896
-159
-662
-741
77
549
934
-1000
-911
464
-1000
731
-1000
-1000
-864
373
-1000
1000
-523
321
-1000
1000
-176
182
285
-1000
1000
-733
71
-298
368
-1000
-377
667
310
437
-56
1000
-1000
-757
-546
674
370
-758
297
546
-1000
1000
373
201
1000
633
179
945
408
-192
-1000
-18
-489
437
501
-1000
-971
611
185
-35
-104
912
722
920
712
-1000
-743
-332
533
-545
650
715
1000
-1000
-1000
1000
1000
828
-1000
547
201
430
-560
