-828
1000
-908
-1000
227
-440
-784
-920
365
739
-249
-1000
-1000
801
-242
-822
235
-282
-592
1000
185
369
1
226
-888
1000
572
-504
-342
-834
123
466
133
1
1
1000
261
-57
745
961
1000
25
37
-230
-277
227
267
-13
-169
325
-1000
-703
-872
-91
757
-449
-1000
-677
-368
-585
-918
-928
1000
1000
245
-575
1000
-930
825
-492
-1000
-1000
4
859
902
893
-420
550
-649
299
-812
-651
-247
-1000
-666
883
-528
1000
-675
-488
229
-502
513
531
383
-2
1000
152
-84
847
-826
193
737
224
313
-22
-918
-1000
-196
-1000
-897
997
436
254
198
-1000
-352
146
1000
-393
1000
410
489
-542
-11
1000
-116
906
-450
860
1000
-739
-35
6
-10
-395
-816
760
-1000
-1000
1000
-593
615
183
-786
-884
979
-754
1000
700
-514
957
-717
-875
-160
-854
-1000
-354
2
1000
367
-407
39
811
548
-371
-824
1000
1000
-404
-182
-1000
-982
257
365
-342
-885
40
212
30
186
282
183
427
360
-740
3
566
-253
-1000
-149
-684
451
-368
-1000
-551
-445
119
1000
363
-613
-1000
358
559
158
560
35
-822
-1000
-56
1000
-476
863
-278
1000
1000
815
-927
-444
-1000
438
-369
-314
751
634
-1000
-1000
376
-1000
755
-699
29
-100
362
578
666
-135
-651
-1000
915
343
1000
222
-476
-977
1000
-29
-379
1000
684
-1000
-864
-626
-836
623
456
-25
-996
-312
-530
-688
1000
224
-94
-1000
-384
1000
626
1000
-345
-973
19
-926
-1000
437
-1000
751
-571
-141
-247
887
1000
-603
182
-342
-43
757
1000
-367
902
-640
1000
1000
-556
-1000
-736
-561
1000
1000
819
1000
-367
-159
632
-146
-1000
1000
-640
715
-1000
-833
-279
815
597
1000
-600
-798
-305
1000
-378
769
1000
329
-633
159
20
1000
759
-1000
-809
-1000
-317
969
-1000
-463
-412
-662
-750
-493
1000
-1000
-450
-370
1000
-560
-1000
-151
102
368
208
-1000
375
-166
-328
-409
315
348
307
-193
379
-63
-247
582
123
-414
-105
956
-526
27
185
-963
1000
-1000
1000
762
709
349
201
548
-1000
-4
509
-565
-887
621
-659
-869
-902
-747
-102
-1000
1000
565
-407
985
1000
-881
-938
1000
-848
1000
532
501
1000
1
-447
902
954
-20
-1000
-662
-310
-1000
-1000
-266
-62
-1000
663
1000
82
1000
-104
-57
-489
83
-1000
-119
-1000
-301
-543
1000
375
229
-499
775
-1000
-586
-1000
-1000
283
1000
-100
81
-623
-150
872
85
-996
-511
1000
46
305
204
-247
216
1000
-583
-191
1000
669
-1000
199
-1000
1000
-1000
822
-481
-219
-1000
-1000
375
-722
403
914
394
-1000
438
534
188
-473
-229
-1000
149
-134
-461
1000
1000
-114
-1000
259
-528
1000
-1000
377
1000
604
1000
-323
544
896
-159
-662
-741
77
549
934
-1000
-911
1000
-1000
731
-1000
-1000
-864
373
-1000
1000
-523
321
-1000
1000
390
182
285
-1000
1000
-655
71
-298
368
-1000
-91
667
-321
421
-56
1000
-1000
-1000
-546
674
370
-758
297
546
-1000
1000
373
201
1000
633
179
945
-255
-192
-1000
335
-561
437
765
-1000
-1000
-141
829
-35
-104
1000
996
1000
712
-1000
-743
-153
533
-1000
650
715
889
-1000
-1000
778
1000
828
-1000
547
201
-223
-560
