-403
171
-244
-567
-111
-522
-582
-898
74
-318
-584
-623
83
-188
560
-597
26
93
426
556
-121
135
714
-250
486
-204
189
304
-227
415
-52
-163
-10
302
59
360
26
1014
-100
-492
-368
232
-359
231
-254
423
591
-421
-160
157
571
414
306
-230
207
104
-207
24
-421
792
-127
166
-1356
-439
546
-545
245
-585
72
587
505
1684
-573
-626
-462
-264
109
8
-155
-398
156
1248
726
-1199
-202
303
1274
-906
-1514
566
214
-1605
-773
-626
244
-220
390
25
-23
395
-512
686
200
-218
504
147
382
680
-491
-133
-130
-660
195
169
-162
-560
159
-352
-583
446
-773
-521
-304
780
-1448
-392
273
574
-1494
748
537
373
-373
-768
761
164
-201
-190
240
449
636
-385
196
-408
28
348
-11
280
-268
307
53
25
-421
141
269
430
-98
-72
-277
289
381
-102
-1318
467
164
653
-194
-1599
-7
481
133
78
-108
-308
462
-670
1497
-661
-105
-458
-81
-262
-564
24
325
534
299
-502
361
482
617
327
-242
494
157
606
-453
-919
-511
-873
287
111
-691
-612
-311
67
57
317
-118
385
525
278
-572
-479
419
535
190
-139
-179
-529
211
-24
-1010
-19
494
-236
-726
-280
-171
-242
-212
204
811
-150
738
-588
-697
-454
30
-331
-220
-91
-101
92
619
