-561
236
-333
-786
-787
-157
-682
-762
-1164
96
-289
-415
-795
-841
-846
-250
-976
759
-775
40
124
554
722
717
-161
179
949
-335
-782
646
-335
294
502
-386
780
636
-72
-234
-8
412
638
87
482
40
1346
-131
-627
-654
-489
309
-474
307
631
-336
571
803
-575
-214
9
209
775
558
410
-310
683
283
145
881
26
-602
-119
1107
-175
226
-1772
-590
255
736
-705
314
-1131
95
1137
756
636
296
-643
-803
490
-598
-349
147
12
-206
-641
-532
200
1620
943
-1560
-466
-264
396
1687
-1199
-2000
187
750
311
-1807
-1168
-935
1015
360
-279
493
35
-38
149
500
-699
891
258
-301
-773
689
198
512
883
-658
-396
-187
-164
-818
244
210
-252
-200
-768
209
-460
-812
-400
618
-975
-735
-448
347
1225
-598
-551
245
804
-1363
33
1050
715
493
-499
-1018
-292
1013
221
-265
-125
325
-412
597
846
-515
273
-540
704
45
466
-19
362
-358
124
405
65
40
-559
188
27
360
573
-129
-102
-366
1082
379
506
-130
-1629
622
454
218
834
-250
-1261
-6
-19
624
217
-355
-189
401
695
101
-908
399
-895
-140
-143
-620
-111
-351
-746
28
-544
208
731
501
-703
524
572
679
934
482
-365
815
364
222
637
-605
-1277
-701
499
-1203
332
120
-249
-687
83
-433
73
69
370
-146
-654
458
753
432
-873
-728
-22
604
788
279
-207
-255
-300
-764
258
-24
-1323
-24
835
677
-349
-1049
-396
-239
-267
-337
-290
282
1077
-201
1211
988
-746
-885
-569
49
468
-422
-310
-126
-140
126
-261
868
