57
-29
-7
-15
28
48
-12
-15
2
8
73
35
-49
-61
-25
-1500
-918
1500
-1500
-249
-349
-699
1014
136
-902
-1240
318
258
-212
-1062
161
-175
1500
1500
428
-750
-1232
-1485
953
-1447
235
-279
749
-1500
-1500
1358
1181
672
1500
-990
168
1500
-174
-1276
877
195
722
-551
139
-678
1349
-1485
1500
1471
1131
1030
1485
1485
1485
742
1472
-314
-508
1483
-675
1500
471
1500
-1429
1500
435
-175
-1485
-977
-301
-1373
-844
1500
1264
247
-147
-938
533
500
876
-716
-1485
771
1264
1370
668
112
1373
929
522
-1141
-1500
1222
-1500
-1500
-322
537
-1485
1485
-1485
1500
1500
-1458
-1099
342
-579
575
604
-995
1307
-295
-168
841
1316
1500
-1500
-1284
-92
1500
-418
840
-424
-847
955
-952
-1140
-363
-204
-739
1470
470
-990
-581
272
207
-191
-1490
295
1500
-974
906
1485
616
416
844
112
399
-777
-76
-1485
1500
1485
1500
-698
835
-678
717
702
-485
920
-1384
1048
-880
-1500
-1118
-199
-1326
-747
775
1500
1345
468
1410
1485
-299
-139
506
261
732
773
-224
1500
-182
1500
217
-1485
266
-214
-1485
1222
-174
-487
-1485
1234
1485
233
-1297
-360
145
-303
-684
1500
1500
773
-883
-691
1500
-1500
-457
1079
115
-624
-1346
1250
1485
1439
59
-1336
-68
502
-1485
-381
116
-723
523
1500
636
1336
1401
689
