-525
223
-313
-738
-740
-145
-679
-760
-1163
96
-287
-413
-762
-807
107
-240
-935
730
-758
39
124
543
709
704
-157
175
931
-326
-766
635
-302
270
447
-340
695
580
-69
-227
-8
406
625
87
473
41
1319
-126
-612
-640
-479
304
-463
301
619
-328
561
787
-557
-209
13
205
760
548
405
-304
670
277
142
-290
27
-582
1571
1071
-170
221
-1786
-576
255
721
-662
297
-710
90
1069
711
600
2000
-697
-754
461
-561
-331
140
12
-197
-610
-507
202
1623
943
-1557
-464
-260
388
1654
-1175
-1960
183
736
306
-2000
-969
-911
994
356
-283
504
37
-38
153
511
-669
892
258
-284
-742
662
190
493
865
-643
-379
-177
-161
-800
239
208
-247
-195
-728
195
-428
-757
-369
579
-1064
-719
-420
326
1154
-1959
-525
367
773
-2000
31
1008
701
484
-487
-998
-284
993
217
-260
-251
313
-403
586
813
-494
263
-517
678
46
457
-19
356
-350
122
400
64
39
-548
184
26
355
564
-126
-99
-358
1061
373
496
-132
-1681
610
447
215
816
-245
-1999
-6
-18
615
173
102
-142
-406
561
601
-888
396
-875
-135
-138
-607
-107
-342
-731
30
-521
424
692
393
-628
454
530
627
806
431
-310
674
326
203
818
-616
-1245
-684
488
-1179
322
119
-739
-660
80
-415
73
68
360
-139
-615
441
709
394
-790
-659
-22
568
741
263
-192
-239
-282
-718
259
-24
-1328
-19
815
659
-326
-987
-385
-234
-261
-326
-281
272
1052
-194
1185
966
-729
-866
-558
49
461
-414
-296
-121
-133
122
-250
834
