-1434
583
-138
-1959
-384
-398
-1784
-1914
-1830
-1998
-750
-1483
-1936
-1960
-565
-80
-1959
1791
-1212
1368
299
1688
1757
954
-437
-354
1923
1228
-724
1698
-851
-1081
1633
1847
1844
-1844
-1554
-694
-1914
-1915
-97
188
1249
83
772
-1166
-1683
300
-1153
468
-1148
625
1471
624
1645
1002
-1023
1536
0
301
1883
1355
-50
-759
286
-118
-560
1464
22
-586
1130
-372
297
-303
-1872
466
564
1508
-1566
667
-293
187
1806
1679
-1237
78
-1756
-1878
-221
-1522
-279
-906
289
-252
-974
-1688
409
-258
600
261
894
-692
985
1337
-805
-1114
360
-55
-207
-723
-1071
-351
443
-1014
-748
1220
62
376
352
1307
-1658
854
576
1749
-1833
1596
-604
-1598
18
-551
1849
-1011
-393
148
542
453
-615
-470
-805
483
-434
-953
-1261
1510
-1822
-1350
-1147
-7
1624
-1731
-653
467
1340
-1136
68
-1640
1867
-1494
1009
1698
732
175
565
-714
-354
843
-1111
1561
1851
-1346
-387
-1405
1818
-474
1091
-47
814
-864
266
959
157
77
-1395
334
-1959
99
1356
-324
97
-1138
1741
935
989
-333
-1958
1514
1221
525
2000
-569
-1785
-29
-50
1856
41
-1678
1214
1152
600
-1392
135
891
1356
-981
1065
686
-1004
-881
-1053
424
-1355
480
1883
1301
-1883
1337
-383
1755
1917
194
-1029
349
866
-79
1469
-1815
-1792
-1632
1163
-1758
872
-1146
160
-1379
1203
-1000
-1001
-514
-1732
-224
473
841
1738
703
510
-1726
-1098
1431
1842
-51
-499
-595
1284
-1836
494
-103
911
-95
-60
1848
33
-174
-1691
-1763
1774
-1196
-1240
149
1115
-1668
-1227
1959
-1959
-1329
-1490
107
712
-1118
-501
-348
-1955
298
-921
1616
