10
-9
-9
-9
10
10
-9
-1
-9
7
-15
5
-134
-4
7
930
-333
-568
-352
-400
999
77
310
409
-911
-414
189
-187
109
225
-292
-198
238
-713
36
244
-113
241
-110
363
-40
-209
92
-107
132
-45
81
-745
-118
32
173
-40
112
-25
-27
-107
144
96
-142
-157
-26
1450
-138
-431
144
-184
-169
-239
89
641
923
244
792
-239
-253
129
-25
189
236
165
32
386
-440
-477
581
35
-578
-367
266
592
-379
-454
566
757
280
183
754
-108
-578
478
273
377
-649
826
-138
360
74
-57
64
-100
126
248
1500
-66
823
565
457
-180
-887
-244
-98
57
281
276
-622
91
1425
52
-458
-44
1303
-162
-30
-248
410
-779
-33
639
-724
-826
-242
265
148
-9
310
353
101
-343
-158
277
34
158
751
163
785
322
56
-253
-614
233
177
165
-174
166
-792
152
-491
-246
-778
675
209
24
283
-25
-292
368
-277
1425
-329
-105
695
-1354
-235
230
542
113
-112
164
41
-485
156
-370
-153
-27
183
54
10
-228
232
-578
-65
182
115
-851
-291
-779
872
-157
214
-313
-70
-36
-239
-256
-97
-312
-317
-167
401
-92
-95
61
64
838
160
208
-214
389
202
56
117
283
-144
-210
840
25
236
-57
-287
138
-170
-176
-218
23
65
