-828
1000
-908
-1000
-209
-440
-784
-920
365
739
-249
-1000
-1000
801
-108
-822
235
-282
-592
1000
673
369
-437
226
-888
1000
572
-504
-342
-834
123
466
133
1
1
1000
261
-57
745
961
1000
25
37
-230
-277
227
267
-13
-169
325
-1000
-703
-872
-91
757
-449
-1000
-677
-368
-585
-934
-820
1000
1000
245
-575
1000
-1000
492
-1000
-736
-1000
4
1000
902
910
-420
550
-649
299
-812
-651
-247
-1000
-352
883
-1000
326
-249
-488
758
-502
513
362
383
-2
1000
152
-395
847
-826
1000
737
224
313
-22
-918
-1000
-196
-1000
-897
997
436
254
198
-1000
-352
146
1000
-393
1000
410
489
-629
583
1000
-116
906
-450
875
1000
-1000
-35
6
-10
-395
-816
760
-1000
-1000
1000
-593
615
183
-786
-884
377
-754
1000
655
-514
671
-717
-1000
-1000
-38
-891
-354
2
1000
-94
-407
-363
811
245
-440
-814
944
1000
-404
-50
-1000
-982
257
365
-342
-885
40
212
-296
186
1000
-1000
427
564
-740
3
22
-122
-1000
-536
-1000
451
-368
-278
-925
110
119
1000
707
-613
-1000
358
559
172
560
35
-822
-889
-879
1000
-476
863
-278
1000
1000
260
-807
-444
-1000
825
-369
465
751
634
-1000
-1000
376
-1000
317
-699
29
-100
362
395
666
-135
-651
-1000
915
343
1000
222
-476
-977
1000
-29
-379
1000
684
-1000
-864
-626
-836
623
456
-25
-996
-312
-530
-688
1000
224
-94
-827
-384
1000
626
1000
-655
-973
19
-926
-1000
437
-1000
751
-571
-738
-247
887
1000
-603
182
-765
342
830
1000
-367
902
-640
1000
1000
-556
-1000
-736
-561
1000
1000
819
959
568
-159
632
-778
-502
403
-458
715
-1000
-670
-279
815
597
1000
-600
-313
-305
1000
-378
769
1000
329
-633
159
20
1000
759
-1000
-809
-1000
-317
519
-1000
-463
-412
-662
-750
-493
1000
-1000
-450
-370
1000
-560
-1000
-151
102
368
208
-1000
375
-166
-328
-409
315
348
307
-193
379
-63
-247
380
-44
-414
-105
1000
-526
-422
-2
-654
1000
-157
1000
316
412
139
201
548
-1000
-4
943
-565
-887
621
-659
-869
-902
-747
-102
-1000
1000
565
-407
985
1000
-881
-938
1000
-848
1000
532
501
1000
1
-447
902
954
-20
-1000
-976
-846
-1000
-1000
163
252
-847
663
1000
392
1000
-104
-57
-489
83
-1000
-119
-1000
-301
-543
1000
375
229
-499
900
-1000
-586
-1000
-1000
-103
1000
-100
-110
-623
-150
536
622
-996
-306
1000
554
305
-1000
-136
216
1000
-583
-1000
1000
669
-1000
-915
-1000
1000
-941
547
-710
-306
-1000
-1000
375
-722
403
914
394
-1000
438
534
188
-473
-229
-1000
149
-134
-461
1000
1000
-114
-1000
259
-528
1000
-1000
377
1000
604
1000
-323
544
896
-159
-662
-741
77
-837
934
-1000
-1000
1000
-299
1000
-1000
-1000
-387
373
-1000
1000
-523
321
-1000
1000
390
-174
285
-1000
1000
-655
71
-298
368
-1000
-91
667
-321
421
-56
1000
-1000
-757
-546
674
73
-378
1000
546
-584
1000
373
-65
68
633
179
945
-255
-192
-1000
-18
-561
437
501
-1000
-971
-141
829
-35
242
545
996
1000
712
-1000
-1000
-153
533
238
650
715
1000
-1000
-1000
1000
1000
828
-1000
103
131
430
-560
