-1090
450
-655
-1500
-1503
-304
-1397
-1561
-1522
420
-593
-1568
-1559
-1563
-1594
-482
-1878
1464
-1603
1059
240
1410
1500
768
-336
367
1959
-702
-1659
1334
-724
-1241
1885
1603
1601
-1586
-139
-476
-16
777
-444
152
1082
75
701
-1013
-1435
255
-931
577
-901
598
1244
-706
1195
1691
-1229
-464
6
427
1625
1173
-35
-665
1431
582
-468
705
24
-1200
1080
436
-374
387
-1628
-1165
499
1520
-1416
613
-1541
176
1644
1535
-969
601
-1379
-1600
960
-1266
-796
307
1
-445
-837
-1169
424
1242
1958
-1155
-921
-539
761
1021
-1228
-1800
275
1450
-1342
-561
-1644
-1827
655
-511
-578
956
58
-78
282
1032
-1373
1773
493
-599
-1522
1336
-1211
-1582
-285
-418
1476
-362
-323
-1079
469
395
-516
-385
-1212
411
-952
-781
-1034
1258
-1919
-1459
-890
671
1204
-1182
-1027
444
1467
-1029
58
-1208
1521
656
607
1413
-366
151
442
-543
-259
651
-851
1202
1766
-1067
552
-1114
1461
249
926
-31
693
-726
238
807
126
72
-1163
372
-73
733
1163
-271
-214
-755
1742
767
875
-290
-1621
1345
978
468
1658
-503
-1666
-9
-34
1587
-176
-1768
1467
909
1605
-1374
-817
732
650
-1029
-278
610
-221
-682
-405
343
-1053
383
1639
1182
-1688
1213
-1146
1521
1959
1722
-872
1959
750
442
1217
-858
-1466
-1331
962
-1119
683
-276
-527
-1419
947
-881
-758
119
-1559
-706
444
283
1500
869
-960
-1451
-1031
1214
1582
557
-420
-502
1107
-1561
559
-72
733
-61
-38
1483
166
-979
-1546
-1636
1669
-390
-605
571
1056
-419
-474
1839
-1554
-1840
-1186
322
947
-884
-604
-261
-259
239
-514
1583
