583
1000
-703
-1000
-209
-593
-718
-797
-595
310
1
152
-1000
1000
1
-860
1000
360
-187
-32
312
-34
1
1000
-726
1000
572
-504
-342
-834
123
466
133
1
1
1000
261
-848
106
961
1000
25
37
-230
-277
227
267
-13
-767
-793
-647
-703
-907
-538
1000
-449
-1000
290
-338
-1000
27
-902
750
125
-276
-787
1000
-1000
825
-457
328
-734
4
87
963
-209
-420
774
-649
378
-812
-56
523
-66
-477
883
446
720
-518
-854
1000
113
268
531
-308
-398
1000
-324
199
847
-826
1000
737
224
313
-22
-918
-302
-118
-1000
-141
1000
436
-1000
1000
-1000
-1000
146
1000
-1000
1000
685
489
-542
864
565
-201
835
-1000
860
961
394
-35
-818
643
-395
-816
245
-715
1
1000
-593
615
89
-1000
-884
377
-426
653
381
-1000
146
-1000
-1000
-160
390
-38
-760
-495
999
367
-1000
-1000
-678
245
717
-326
-1000
380
468
-108
447
-212
-162
833
-342
77
-527
-1000
239
186
341
-64
427
596
-76
-343
22
-122
-1000
257
-684
-187
-125
-957
-29
207
603
1000
314
-3
-1000
358
1000
172
560
35
-938
-889
-56
845
-184
863
-278
1000
876
451
-807
-83
-1000
825
-369
1000
751
1000
-1000
-1000
517
-1000
-221
-535
29
-100
362
-446
377
163
212
-1000
976
343
1000
222
-476
-816
1000
162
-95
1000
-43
-778
-766
-626
-917
623
456
-25
-627
-312
-1000
-901
1000
59
441
-1000
-509
1000
201
1000
1000
-267
-701
-1000
-1000
1000
-1000
858
84
-797
456
335
477
-226
-358
-536
1
836
1000
-367
902
-640
1000
1000
-556
-1000
-736
-162
1000
1000
819
87
-367
-159
632
-126
355
-88
-458
715
-793
-1000
-279
1000
689
1000
-439
-1000
-305
1000
-99
469
1000
489
287
159
641
744
759
-1000
-491
-1000
251
519
-1000
-657
-773
-829
-741
-137
1000
-1000
-450
-370
1000
-560
-1000
-151
106
514
-644
-793
375
-803
-328
-409
315
348
153
-193
379
-63
-133
582
-192
-1000
-105
956
-526
-211
185
-920
1000
-579
1000
212
200
139
201
548
-822
-4
509
-565
-784
332
-659
-869
-902
-747
-102
-635
1000
565
289
405
384
-1000
-938
1000
-848
1000
532
501
1000
1
-447
902
1000
-334
-768
-822
-354
-723
-1000
399
-380
210
258
953
-789
938
-553
-57
-489
-516
-1000
-119
-1000
433
-237
1000
375
643
-165
872
-1000
-586
-1000
-960
-58
1000
-100
27
-623
-150
872
-517
-996
-511
956
46
-336
261
286
252
1000
-583
-1000
569
669
-1000
199
-1000
1000
-1000
822
-510
506
148
-695
-621
1000
403
54
394
-860
1000
147
-466
88
-489
-1000
-547
-134
-140
1000
663
-328
-1000
-656
-426
1000
-577
732
1000
604
1000
-323
544
546
174
-662
-741
77
549
1000
-666
-1000
1000
-686
254
-1000
-1000
-864
373
-1000
1000
-540
321
-780
732
401
182
566
-1000
959
-856
338
-829
488
-1000
-91
85
-321
421
-59
380
-612
52
-881
-271
370
-527
1000
546
226
1000
815
63
1000
368
-554
1000
-4
-428
-1000
-281
-1000
89
474
-1000
-971
-56
829
-204
266
558
622
1000
712
-1000
-1000
-1000
533
-1000
1000
653
1000
-1000
-1000
1000
-347
405
-996
-767
-92
533
-427
