-638
-351
-154
-216
-659
-262
-178
170
-467
-167
-180
-162
-369
-642
-344
-231
241
-969
-4
200
245
-127
-198
-132
-51
95
96
-35
-294
410
-389
33
825
175
-447
-48
-161
-165
250
93
-522
210
91
34
-460
658
-128
-709
-108
419
549
19
482
-99
1214
-490
-243
461
-170
554
-101
-9
-692
129
495
-598
626
-1039
-607
59
-185
-199
369
-479
-1327
-95
214
611
-1422
-179
-60
966
-610
-1169
-610
244
762
-253
-839
409
-525
27
-597
-310
191
-34
106
-201
-146
-1261
-650
391
56
302
-360
-495
300
42
116
564
-95
-140
24
-435
1214
-683
152
74
-165
677
359
-577
49
188
100
-279
61
105
-154
284
226
295
290
-146
215
243
-48
57
-48
301
301
588
541
-431
-178
84
11
-454
-229
36
155
-85
600
-332
101
181
-9
-297
-474
-154
-219
61
-1368
694
523
196
-71
-1327
346
-40
551
-63
-983
-415
246
-411
733
-101
-193
-224
-31
-503
599
61
333
213
111
1501
567
488
482
136
571
179
65
-354
-85
1217
403
-414
-281
-213
-326
9
571
370
-670
-381
-731
-256
-54
200
438
123
108
-351
126
482
509
278
-19
102
384
-212
-77
-627
70
-417
-333
-1067
-449
45
582
120
205
67
-821
-243
-1344
1386
-642
-116
-33
-216
509
