-361
-1679
-1101
-164
-490
-192
-145
160
-341
499
-133
-120
-279
-476
-256
-162
169
-692
-4
140
172
-90
3
-93
-35
70
70
-24
-209
293
-270
25
589
124
-319
-35
-116
-121
184
70
-368
151
69
25
-339
509
-99
-549
-84
981
425
14
372
-76
938
-404
-204
361
-139
457
-71
-9
-483
101
1702
-523
537
-889
-520
-663
-142
-150
265
-345
-1016
-70
159
449
-948
-130
-45
740
-466
-896
-466
189
724
-240
-797
317
-407
25
-598
-240
148
-24
184
-143
-109
-1150
-345
277
969
206
-257
-339
255
28
83
387
-71
-116
22
-1416
874
-487
110
54
-118
483
275
-491
-1590
-340
1960
-213
47
80
-118
218
175
227
1323
-113
166
188
-38
44
-37
233
223
437
403
-319
-132
63
10
-385
-167
26
112
-65
451
-236
72
134
26
-223
-339
-115
629
47
-1435
-922
601
173
-66
-1197
282
-32
413
-66
-1899
-305
184
-164
566
-393
-685
-182
-31
-503
599
61
16
149
74
1030
389
341
337
93
392
122
45
-263
-402
947
301
-307
-198
-149
-208
9
400
301
-545
-311
-595
-200
-40
151
340
99
87
-251
90
344
363
199
-15
81
-588
-163
172
-527
60
-911
-279
-897
-306
31
415
83
144
5
-669
895
-938
969
-555
-102
-24
-164
386
