-430
1947
-259
-599
-117
-600
-670
-1023
86
-360
-608
-651
87
-198
577
-622
-588
95
446
-386
-122
141
746
-254
497
1960
212
-438
-344
-1885
232
-156
-11
1795
56
376
25
1055
-103
-510
-407
254
-890
258
-180
439
613
-1160
-165
380
629
459
336
-257
222
115
-234
29
-467
869
-137
-851
-1437
-467
579
-584
265
-628
75
631
545
1128
-1384
-692
-1088
-306
130
7
-15
-461
-1998
1405
-146
-1344
-51
-1140
1353
-774
-1606
-1205
225
-1739
-836
-672
262
-56
389
22
-24
392
-565
754
218
790
559
162
425
752
-89
300
-139
-686
201
171
-168
-602
171
-378
-628
471
559
-556
-310
816
-1466
-435
307
642
-1672
1083
572
395
-398
-817
811
187
624
-1663
-10
502
1594
-461
240
-487
38
394
-11
301
-292
328
60
29
-473
-90
301
454
-101
-72
-285
300
-192
-111
-1401
509
174
-109
-224
-1838
-9
585
147
90
-119
-342
520
-727
1614
-862
-115
-495
-88
-279
-610
23
906
985
311
508
382
-385
645
338
-250
513
164
681
-513
-1037
-562
-982
309
-947
204
-648
-329
-1412
694
344
193
610
605
302
229
-965
478
557
202
-148
-196
-563
578
-21
-1102
-20
541
-261
-790
-311
-186
384
-316
220
857
-783
289
-639
-640
-492
35
917
-236
-95
-109
95
653
