-828
1000
-908
-1000
-209
-440
88
-920
365
739
-249
-1000
-1000
801
-242
-822
235
-282
-592
1000
185
369
1
226
-888
1000
572
-504
-342
-834
123
466
133
1
1
1000
261
57
745
961
724
25
37
-230
-277
227
267
-13
-169
325
-1000
-703
-195
-91
757
-449
-1000
-1000
-995
-585
-918
-928
1000
1000
245
-575
1000
-930
825
-492
-1000
-1000
-950
455
902
1000
-532
-183
-1000
299
-812
-651
-247
-1000
-666
883
-528
1000
-675
-488
229
-502
513
531
383
-2
1000
152
-421
662
-619
1000
737
-412
313
-22
-1000
-1000
-726
-1000
-897
1000
436
254
198
-1000
-352
146
1000
-393
809
410
489
-542
-637
1000
-116
906
-396
860
1000
-739
-35
-145
-347
150
-816
760
-1000
-1000
1000
-593
615
289
-1000
-884
377
-754
1000
700
-514
957
-717
-1000
223
-530
-891
-354
-309
1000
367
-754
-363
811
245
-371
-558
1000
925
-404
-494
114
-548
257
357
-477
-1000
40
212
30
186
282
183
427
-442
-864
3
166
-253
-1000
-149
-684
451
-368
-278
-551
207
119
1000
707
-613
-1000
358
559
172
-133
-85
94
-1000
258
1000
-914
1000
-924
1000
1000
815
-927
-372
-1000
438
-369
-314
751
634
-1000
-394
376
-1000
755
-699
29
-100
362
578
666
-135
-651
-1000
915
343
907
222
-1000
-977
586
-29
-667
1000
1000
-1000
-864
-59
-836
623
346
-61
-908
-101
-530
-688
1000
454
-180
-1000
-384
1000
626
1000
-345
-973
19
-926
-1000
437
-1000
751
-1000
-141
-454
376
552
-121
182
-380
-43
1000
1000
-367
902
-640
1000
1000
-556
-1000
-590
-766
1000
337
819
682
-798
-744
632
-146
-1000
1000
-458
715
-1000
-740
-279
815
597
1000
-600
-798
-305
1000
-378
769
1000
329
-633
159
20
1000
241
-1000
-809
-1000
-317
969
-1000
-463
-408
-662
-750
-493
1000
-1000
-450
-370
1000
-560
-1000
43
102
368
208
-1000
375
188
-512
-695
-174
348
307
-848
379
-63
-247
582
123
-414
-105
956
-526
27
185
-963
1000
-1000
596
762
709
349
201
548
-1000
-4
509
-565
-887
621
-659
-869
-902
-747
165
-479
1000
565
-368
985
1000
-881
-938
1000
-1000
1000
331
501
1000
1
-447
902
954
-20
-840
-976
-524
-1000
-1000
-126
-62
-847
663
1000
392
1000
-104
-57
-348
83
-1000
-426
-1000
-301
-543
1000
375
454
-499
778
-1000
-586
-1000
-1000
-103
1000
277
653
-623
-150
872
85
-996
-511
1000
46
305
396
-329
216
1000
-583
-191
1000
669
-1000
199
-1000
1000
-1000
822
-481
-219
-1000
-1000
375
-722
403
914
394
-1000
438
534
188
-473
-229
-1000
149
-134
-461
1000
1000
-114
-1000
259
-528
1000
-997
377
1000
604
1000
-323
544
1000
-159
-662
210
77
879
934
-1000
-911
390
-1000
280
-1000
-1000
-864
733
-469
1000
-523
321
-1000
1000
390
182
285
-1000
1000
-655
71
-1000
-200
-803
-91
1000
-321
421
120
1000
-411
-1000
-370
674
370
-758
297
546
-1000
1000
647
201
1000
633
-168
945
-255
-192
-1000
-18
-561
437
501
-1000
-971
-141
829
-35
-104
1000
996
1000
712
-1000
-743
-153
533
-1000
650
715
1000
-1000
-1000
1000
1000
828
-1000
547
201
430
-560
