10
-1
-4
-9
1
28
-8
-2
-9
7
-178
6
-6334
-4
4
-446
-7293
-9364
-393
-189
55
1601
3843
6824
6224
794
-8361
7542
4679
366
-2753
5955
7002
8832
17
9270
743
4484
6701
7136
211
-971
778
23
-349
3515
8170
-5384
-3833
1033
-2534
-17
-7436
6963
2727
-452
-702
1270
-269
911
455
1195
-239
6573
2327
7077
398
-1143
-10000
397
-2094
-9801
-5777
750
-1239
7
3430
-648
960
-63
-355
3669
2364
-7643
-1982
208
-9123
-732
-1142
-392
665
950
-81
-8848
-60
-53
29
-49
-592
706
3195
-2637
-695
-1838
5545
-32
1242
13
-7007
4625
323
6224
-237
6
1697
2061
9473
-269
-3814
6214
4697
7339
-254
-958
-8732
-6797
1099
77
-336
-10
194
-106
769
-107
193
-468
5870
5057
-212
-2454
-653
-7032
-9608
-4371
1186
-382
4201
-9602
-58
-8816
7647
162
-4497
-2213
-500
1401
9848
-3682
-5803
7546
-2273
-7713
117
-3437
2484
37
4423
-6354
-416
-887
-78
-9420
-2190
-9
61
-2520
8476
8
-6326
-3869
-2131
-171
-3339
1982
-9424
657
-7408
5432
-4269
-2946
-3791
-1914
-109
-3789
8144
-1131
-4817
8599
-10000
614
5957
5141
-236
-5893
3417
-12
-6819
-6355
697
3716
-357
97
-58
776
620
-125
-1162
-3411
2844
-465
30
-4160
1012
-8355
137
691
-791
679
-1069
-282
729
-9052
9999
-5051
1233
3627
-2974
8949
-240
1852
-3569
6153
6263
58
5115
