-409
174
-248
-579
-113
-521
-583
-898
73
-320
-597
-635
85
-192
571
-610
27
95
435
567
-122
137
729
-255
497
1523
191
314
126
-170
-53
-165
-9
2000
60
367
26
1034
-102
-502
-377
236
-366
236
-261
431
602
-1134
-162
374
583
424
311
-237
209
107
-212
25
-431
807
-130
170
-1384
-448
557
-556
250
-598
72
600
504
1685
-1327
-639
-1004
-268
110
9
-158
-406
159
1274
741
-1221
-207
311
1299
-925
-1546
578
216
-1638
-789
-638
248
-224
397
26
-24
402
-523
701
203
-222
514
151
390
695
-501
-137
-134
-673
199
171
-164
-572
163
-359
-595
453
-788
-531
-310
796
-1479
-400
278
586
-1524
764
548
380
-381
-784
777
168
-205
-196
244
457
650
-391
200
-416
31
357
-12
284
-275
311
54
25
-429
144
272
439
-100
-73
-282
294
387
-104
-1317
477
168
664
-196
-1633
-8
490
130
80
-108
-310
464
-685
1528
-675
-108
-467
-82
-269
-576
23
333
-302
303
-513
368
-342
629
332
-247
505
159
617
-462
-940
-511
-890
292
113
-706
-626
-317
69
57
324
-120
393
535
284
-583
-489
427
546
194
-141
-183
-539
215
-23
-1031
-18
504
-238
-733
-283
-172
-243
-216
211
824
-153
277
-600
-712
-463
31
-339
-225
-95
-103
94
631
