-537
227
-319
-754
-756
-151
-680
-761
-1164
96
-289
-415
-779
-823
-827
-245
-956
744
-760
39
122
543
708
703
-158
175
931
-327
-766
634
-327
289
492
-376
765
624
-71
-227
-8
404
625
85
472
41
1319
-128
-612
-641
-479
303
-464
301
619
-329
561
787
-561
-210
9
205
760
547
403
-304
669
277
146
886
26
-606
-120
1114
-171
221
-1736
-577
254
721
-677
302
-1086
92
1091
726
611
287
-713
-769
469
-573
-332
140
12
-197
-612
-508
202
1621
943
-1558
-466
-263
388
1654
-1175
-1960
183
735
310
-1806
-1166
-933
1014
360
-284
503
37
-38
153
511
-685
908
263
-293
-758
675
194
502
865
-645
-388
-182
-161
-801
239
206
-247
-195
-736
201
-442
-780
-383
595
-955
-734
-438
339
1201
-585
-539
240
788
-1573
32
1029
701
483
-489
-998
-286
993
217
-261
-121
319
-403
585
812
-496
263
-518
677
44
457
-19
355
-351
122
399
64
39
-548
184
26
353
562
-126
-100
-358
1061
372
496
-132
-1681
610
446
214
816
-245
-1235
-7
-19
614
172
-272
-143
324
561
74
-890
391
-877
-137
-139
-608
-110
-351
-746
29
-533
205
717
475
-680
488
551
652
883
465
-351
771
338
206
600
-570
-1201
-660
469
-1133
325
119
-244
-673
81
-424
71
66
356
-140
-628
440
723
416
-838
-699
-22
580
757
268
-197
-244
-288
-734
248
-23
-1271
-23
803
650
-327
-988
-388
-234
-261
-329
-288
278
1072
-199
1207
985
-731
-866
-558
48
459
-414
-297
-121
-134
121
-251
834
