-526
222
-313
-738
-741
-147
-679
-761
-1164
96
-288
-414
-762
-807
107
-240
-935
730
-758
39
123
543
709
703
-157
175
931
-326
-766
635
-302
270
447
-341
695
579
-69
-227
-8
405
625
86
472
41
1319
-126
-612
-641
-479
304
-463
301
619
-329
561
787
-557
-209
12
205
760
547
405
-304
669
277
142
-290
26
-582
1571
1071
-171
221
-1736
-576
254
721
-663
297
-711
90
1069
711
600
2000
-697
-754
461
-562
-331
140
12
-197
-610
-508
202
1623
943
-1558
-464
-261
388
1654
-1175
-1960
183
735
306
-2000
-969
-912
994
355
-284
503
37
-38
153
511
-669
892
258
-285
-743
662
190
493
865
-643
-380
-178
-161
-800
239
207
-247
-195
-735
197
-432
-764
-374
584
-1064
-719
-420
326
1154
-1959
-525
236
773
-1541
31
1008
701
483
-487
-998
-284
993
217
-260
-120
313
-403
585
813
-494
263
-517
678
46
457
-19
355
-351
122
399
64
39
-548
184
26
354
564
-126
-99
-358
1061
373
496
-132
-1681
610
446
215
816
-245
-2000
-6
-18
615
172
102
-142
-406
561
601
-888
393
-876
-135
-139
-607
-107
-343
-731
29
-522
423
691
407
-653
470
530
628
806
431
-310
674
326
203
804
-608
-1225
-673
480
-1161
321
119
-239
-660
79
-415
71
68
359
-140
-615
441
709
400
-803
-670
-22
568
741
263
-192
-239
-282
-718
243
-23
-1246
-21
787
638
-327
-988
-386
-234
-261
-328
-281
272
1052
-194
1185
965
-729
-866
-558
48
461
-414
-296
-121
-134
122
-250
834
