-361
-1678
-1101
-164
-490
-184
-139
154
-327
-701
-132
-121
-286
-487
-254
-147
154
-625
-4
125
166
-86
3
-89
-33
69
69
-24
-205
281
-255
25
553
118
-301
-30
-106
-111
166
65
-354
145
67
25
-325
509
-99
-549
-84
980
425
14
372
-75
937
-380
-192
340
-130
430
-67
-3
-446
93
1570
-465
475
-787
-462
-588
-133
-141
250
-338
-956
-66
147
413
-874
-120
-40
669
-421
-808
-421
185
710
-235
-781
311
-383
25
-563
-225
139
-24
184
-143
-109
-1150
-345
276
969
206
-257
-339
250
27
81
387
-68
-110
22
-1332
823
-421
96
47
-104
419
260
-462
-1495
-319
1844
267
45
-1463
-1046
210
172
221
1297
-111
163
184
-37
43
-36
228
219
428
395
-313
-129
62
10
-377
-158
25
96
-56
375
-196
63
128
25
-211
-318
-111
648
47
-1377
-886
577
170
-65
-1171
276
-31
381
-62
-1751
-281
169
-149
1574
-354
-632
-165
-31
-503
599
60
16
140
71
969
365
320
311
85
361
114
41
-263
-402
947
301
-307
-198
-149
-208
9
400
301
-545
-311
-595
-200
-36
139
313
91
79
-231
82
317
335
183
-15
71
-510
-142
151
-505
58
-875
-267
-861
-294
29
399
79
138
5
-643
859
-900
1920
-492
-90
-24
-146
341
