-1468457058
737139662
-754955325
-2147483648
1187251361
2147483647
549309132
2147483647
-69412006
390038301
2147483647
-1919517658
427440690
-970431134
-870202015
327520807
-275576700
894719766
-115702649
-1754128932
-1588598258
-1716170472
2147483647
2147483647
2147483647
1826931302
-1802941983
826387867
1999692507
-32590155
301227243
-37237824
378471457
366009738
1538211680
-1435070706
-441527170
2147483647
640448849
2147483647
1172381534
0
608277106
700775841
-212388712
1571830793
-1276353659
296667223
-105751600
-683764281
146815943
335313961
-975919127
2147483647
-1592527935
1531756011
2147483647
-786378936
-2147483648
2147483647
1818901236
2147483647
-2147483648
2147483647
2147483647
-345128154
-928054576
-1129911141
401851469
-2147483648
450561456
-1285183533
2147483647
971270436
623978238
-2147483648
1231307629
-2070854471
393995271
-939914085
1129680666
449574036
-707348732
2147483647
2147483647
-1746096421
1453609268
-733653082
-1371994825
536329856
864684388
-4869056
926546543
-693925870
-670768851
2147483647
-2037464267
-252889709
1280435863
-1895501284
-2013824934
-2147483648
-2147483648
-2147483648
75353295
2147483647
-51371041
1837374782
-1382293875
1484495171
-1057328143
859429264
-1664830521
158179148
-602293837
-1351433454
-2122894888
-2147483648
-469904872
2147483647
-50778453
-601349440
711118138
-84256671
-2147483648
-759603499
-668231518
-1048166657
1268925944
141797233
170559317
-1485596117
1686470301
2147483647
-880047796
-1743391987
-2147483648
182587028
-1049753093
641040782
2137660571
747434859
-1480229258
-1238609263
-2147483648
2147483647
-1352108366
2147483647
-898434176
-2147483648
-369484557
-1537374912
885303111
-2147483648
1378400625
2147483647
440155502
-205380534
2141762193
953049719
-2147483648
-1286487652
-2147483648
-2147483648
2147483647
-1749755619
201915943
-100070704
-2147483648
-1034437903
1946283249
-2147483648
-1180247727
-2147483648
-1021709244
-1706605127
-1360527432
2147483647
114278543
2147483647
65250341
-205401644
833902796
-236170603
-1236499739
-389493699
-2128442420
1819852604
2147483647
-2147483648
-330698775
2147483647
-1920294985
727336488
2147483647
219654338
-2067573937
1882974645
-908843328
-2147483648
1619249282
-635637462
263963591
949181605
-427300338
-2147483648
-251581988
460441391
-1139492622
1249549823
2147483647
1881670873
684660987
2147483647
2147483647
-571817113
-2147483648
-1198324402
1455712279
-1942210956
2147483647
-136740911
-92876076
1136278101
151439287
1914930902
-2093288517
2147483647
-1155063937
-1582271405
1006095208
-152642773
-2147483648
-1956623315
-2147483648
540974548
-1499958726
-852926213
2147483647
1470698143
-368609412
520490003
1525092529
-733057985
-2147483648
958112896
-881340650
340583377
1054102701
-1851492488
-1153196434
-149219111
352251053
-1164745908
281426907
-930143071
-2147483648
991853281
-1809677070
-995073916
-99794384
594203420
-557597561
-2147483648
-1557283919
1320244443
2147483647
517410670
2147483647
49164782
193812996
-1554998350
-207213503
-687232299
-574489559
-2147483648
469368389
1227878307
-1891484976
-783578875
-712715695
-380876989
-395831804
-2147483648
-1342458566
1820725184
-1922406000
2147483647
-778236844
-2147483648
-2147483648
-424214763
2102899285
2147483647
-1725241288
-1926036103
-1929200010
-436389869
-1802149544
1558274906
545659001
-2147483648
529906357
1398217432
1585865809
1186803978
1635198538
-1108385434
-2147483648
2147483647
1700198379
-612436081
0
-2090905783
1833664883
-983072684
755597669
-833506689
-108753498
2051640509
-2147483648
-1873167997
803233657
-1541459987
-257566915
1275406032
114852784
-612312324
-925985417
-294681626
-2147483648
1317596019
846960072
-2147483648
416443814
1847948931
-1659958705
1830446925
1579864392
-1320129785
289938605
-1633648379
1937786804
-408152203
-1272471890
850364299
-1080890220
-1066865289
-124709225
-1977158233
-2147483648
742931770
600176445
1592854025
-1594132641
0
1964495262
-716402846
249594213
-1615270135
486242273
1109564751
685457186
-1869394042
-2147483648
-808345018
-909599915
1665988787
1164505228
2147483647
-1364515417
-1098283336
1961806780
2147483647
2147483647
-1726761474
1703798693
-174208354
-404683016
-325081962
-879092796
1333128733
-1778313434
-1439086771
2147483647
211804790
-2122637209
688100655
2147483647
179039537
-796264278
329761939
691101327
-81650758
-1484153127
9375593
-719239236
-394957279
659254239
2000065281
2147483647
1598802970
1060550337
-22415236
-37397569
-1043545613
-2121818444
1977899326
712551682
-2147483648
2147483647
-115153168
0
373340407
2147483647
-2147483648
611617869
237819858
-2142733710
1101016768
2147483647
-202858020
2147483647
1359157272
228388752
806580050
1209023847
477984262
967668039
-318047624
-2147483648
-654369498
-1969968472
1548706856
-1441023236
-1317607216
719990611
-2147483648
458120
1413567407
2147483647
-529976725
2147483647
-1304055667
2147483647
1522320341
1771213723
68622690
-927335203
-1020169171
1102302210
453033743
625120706
-1444458721
2147483647
-1689210410
2147483647
-492950976
-1444639551
-588936337
1403394556
1451415
2147483647
2147483647
-2147483648
273085630
3215037
2147483647
1006464127
1318254230
1537935065
2047064170
1133563783
-588784306
-1339716996
2147483647
781632194
649947680
1204603879
599213720
400093944
-1568494336
-2147483648
1142529974
725481356
-806568778
-2147483648
1414722178
374018999
-2147483648
-2147483648
-1709913204
-1316790148
755966178
869949014
-2147483648
511735235
2147483647
-541219616
-671552142
-1969219520
-194278658
55671015
731323892
-279636119
2147483647
2147483647
-1596642305
2147483647
-2147483648
2032736621
1434160526
-2147483648
-1948978774
-1888289678
-2129114605
1512512860
2147483647
-1793369003
419111977
2147483647
-182105621
1647481193
1264058
227767256
611783252
2147483647
651940482
953148880
352503312
72181287
-1311392272
2147483647
-1528202589
-788734053
-692099315
-826542942
-1557334412
2147483647
-629117903
2147483647
303843014
237726675
343277145
2147483647
-2147483648
-1148176997
-2147483648
991455513
-136745895
-772009393
858615256
-2147483648
-2147483648
2147483647
1106304080
2147483647
2147483647
-726988319
1289230378
1484256309
-2147483648
620719533
-1614214331
876300967
1420388544
-496886239
-2147483648
470099083
327075201
755690599
1147589615
-402195120
-2147483648
1328004803
744548755
-134639352
-2147483648
2147483647
2147483647
1720397864
-1371081716
-128960424
2147483647
98326118
-399911946
1038428191
20129172
-429274201
2147483647
2147483647
550730354
-1427746018
-1690592868
-1291020184
574110269
321438746
-924717479
282768902
-1192848779
1272775278
-2147483648
-396883658
125448184
681124752
149088793
221419118
-1311839308
352985998
2036442676
-1732523737
-2147483648
-2147483648
-906025030
2147483647
2147483647
545560109
-1694267479
472712660
-2147483648
1614321283
1052118841
2147483647
-731563003
309288179
2147483647
1523969763
-444981482
-153997455
-2060535706
2147483647
1601306127
1298988589
-1101844945
140436026
-153027557
-2147483648
67187208
2088891820
-2147483648
-627880522
1882255604
271802495
2009261283
1198854509
778262560
-2147483648
535626668
-2098535304
2073055437
-1708356484
-1215355029
88540705
-2147483648
1916045071
1100479841
957389320
-2147483648
-594637594
808480879
141869289
246807023
1522931748
2147483647
-216033498
1018398954
-937996658
2147483647
456445900
2081878207
-271553711
759844298
-2147483648
2147483647
-1270930446
834883888
194480401
824117689
-865024673
957676988
437800888
2147483647
-1225410849
-317917872
347307943
-650930733
229967644
723535584
-2147483648
993646482
-1593296241
1214886818
2147483647
-702333029
-907969390
1965173948
-593841385
-983964470
-2147483648
1557667253
-2138602517
2147483647
2147483647
1255965720
-867650319
962843293
2147483647
555624431
374784143
1968449296
-1122282310
328094004
2147483647
-264521033
-2147483648
2147483647
568694857
913772880
80886778
1202323081
2147483647
-2132706275
-1354020206
1133227145
633864450
-2147483648
-680207257
-2147483648
2147483647
-1157957328
-13828335
-149413118
-2147483648
2134183773
1875568865
-1428163619
-268809646
-2147483648
-1950479815
1610669988
-2147483648
2147483647
1123440201
728005712
2118682091
1584670348
-512797430
-921090715
-145637779
-219068428
731640396
-247721590
-1640053889
2147483647
5647000
-1144968301
1542007902
2147483647
-2006280398
920954026
-2147483648
-1626772512
-2147483648
2147483647
-2147483648
821278023
-2147483648
298845722
-724566366
-34262893
731324989
1328883866
-221029763
-570472324
-2147483648
2147483647
-1042906250
-883089363
-2147483648
2147483647
356600906
2147483647
2147483647
-1563954635
-2147483648
2147483647
-659089224
895145860
2147483647
71192883
-224577651
63278374
424367228
742765132
1893403919
2147483647
832102158
2147483647
-2147483648
-94859516
2147483647
1721606792
-2147483648
1895538135
-39284328
2043248269
2147483647
2147483647
438957626
-2147483648
1623476229
-1905996522
-1860246707
1442918025
-567141938
1368722845
529053166
1067260190
-2147483648
228948448
45089326
465811003
578401838
2147483647
225668819
290900949
-10487616
-2277075
1082136612
1017613220
2147483647
-2147483648
-1056577246
1356693304
1024998304
-1560770810
1409561095
298549928
-2147483648
1255367008
2147483647
-558832047
1693604471
959872981
1053956341
-1926678138
-964310980
-150015901
-1914211502
2147483647
-1521334727
-1557091168
-290351769
-2147483648
-970003492
-1025600597
2147483647
2147483647
-217349605
-2009115621
1271509093
-2147483648
-87104369
-1058992913
1437185782
-2147483648
-1495208859
2147483647
-2147483648
-877465711
-2147483648
1681198572
-201890973
-2147483648
2090838327
-2147483648
-705274234
1550202574
-1104753215
350329526
523964186
468577970
771562033
1637998473
-1787704676
-1660508673
-373039718
-93632020
-1662245559
687136203
1215024428
-2047265578
1264875434
-2147483648
-491054444
-1159189036
-566772099
-1185028277
2147483647
769096054
1209039639
-713783037
-2095941047
1389307487
263127419
-892482120
-1257676887
-609526596
1602800111
2147483647
1003656681
1774210661
1712225326
1831731450
1214955637
-262705477
-2147483648
2147483647
40706014
-536877413
-1161365215
-1708397537
-300753901
246884786
682549702
-761723929
-2147483648
-47096167
1055208130
-356216858
1126752504
-713412117
2124099490
-582342920
-644572271
1494790257
756760897
458400480
-2147483648
-2011357879
2035205990
-638243004
113482414
-454057306
-2147483648
-2147483648
0
-1861104845
-592143270
53819904
-1033493864
1991392833
838364754
714400322
-1665415811
-516125496
1687651952
1191980148
472843501
620111577
2147483647
-1810558526
-1718567210
664843459
2147483647
-2147483648
-1983123853
1569345580
268734411
1799844275
2147483647
147648302
362136822
1045238130
-2147483648
-2147483648
-2079302347
-1316353184
-546082040
-2147483648
2147483647
-2147483648
-1258729086
244121593
-2147483648
1231714392
1774352077
-538106698
1243476072
-907932878
-1493572300
0
384137600
-907528879
-2037392007
529278350
-1727262727
-1658030370
0
0
622578937
-2147483648
-710105354
0
817618465
194814225
2147483647
-2147483648
384944280
2147483647
-1054544161
-540159722
-519782438
-1286933141
1160180781
336877447
-222168116
-876916946
-173681195
1927387118
1292150833
-1595440904
-1742916190
-1346699642
2147483647
-2147483648
-107070813
705558154
-2030263025
2147483647
-1709223203
97541555
-2147483648
1943790516
-145434604
1813380720
-2063549029
-904359270
-438570705
853234798
1578068590
-1186446828
-530332320
607114221
-2147483648
-387210260
-825065631
-48857424
-13523101
619348010
1372976955
-1019793576
527937033
2112183973
2147483647
492359848
1254132235
-1273224498
-463386810
-764279323
1679366910
371108566
2147483647
-992948730
-2147483648
-2147483648
2147483647
102176220
-1163833572
2147483647
-371507958
722594315
2147483647
-2147483648
-1523150416
-1796113116
-2147483648
-1882123806
-793333468
83689359
-31761639
-1251729533
283971020
-2147483648
850212071
493791011
177232153
-1177285306
32430002
2147483647
2069717195
1451595421
946153189
2147483647
968934095
521715336
-2120794227
647956167
1994620268
2147483647
-418047408
2147483647
545578431
-1358172640
-1294655820
-2147483648
576087909
-218276624
-1757886166
-2147483648
-2147483648
-1681975719
-1510865182
512810443
-197074906
1656607916
914139326
-170107811
-700888589
66064395
-2147483648
-2147483648
1482986559
-660701443
715047778
-2147483648
1099662761
-1602038360
1221454199
1805370757
29071076
478143207
-436264963
2147483647
343901940
1757107212
-816590664
1416403931
2147483647
435875433
-2145092427
-2147483648
-1044106295
947259966
-1453984749
-249313814
2110611120
-2147483648
266044135
2147483647
-2120796249
-1732493629
-740062179
-1222301251
580625571
-451693053
2147483647
733671847
939096249
-2147483648
1995368884
864232785
51552761
2147483647
-1831885805
-618815015
1783462520
-990791005
-574884724
-2109404732
-946970550
231831847
-581175603
415566321
1270917047
1752796774
383656170
1669088697
238417604
1094951221
-2055401608
2147483647
-1718820237
2147483647
1910911487
2006955680
525710507
2147483647
-1707624387
2147483647
-247592350
1684612025
2147483647
-1159247590
1569759560
1828765021
2147483647
1441192673
-1631092024
-1840536850
-919406684
9364242
-2147483648
-2147483648
-878756661
-512785718
-2147483648
692719905
1735424056
-1405213698
592825104
-316918021
-1689224043
415404118
2147483647
-806750128
2147483647
2147483647
-1354968011
-1957901052
-811576485
-2147483648
-266001437
-1015035318
-2147483648
-2147483648
-1360311803
-2147483648
-2147483648
-252434062
-876371475
1075584202
2147483647
778653106
-556637130
395395081
1390909141
-1210076694
362498049
2058252200
-506387375
1260348133
-1343776433
1964786370
1867086402
-705916325
1883428494
-333845732
-26520875
2147483647
2147483647
433952691
-273650686
-2147483648
-2147483648
178074211
-979273043
1573051190
-1434394365
197353674
-484278173
1125662149
119779996
2147483647
-463139499
749900405
-2147483648
527812984
-1039494281
1252189191
-1073440857
-608963007
1814142947
-604847850
473036322
2147483647
2147483647
-241094604
2147483647
-1277278612
1693936957
-892526051
473233685
-1974140900
-911457997
2147483647
-1968620843
-42582294
-1038927196
-1870903636
2147483647
610866721
718597004
-1494759331
592256595
-2147483648
574453009
-598774068
-1521767745
2147483647
-1131034340
-1548452198
-1595892180
-172766581
879047382
1265568470
-402476854
-801539449
-1843277204
22962487
838560688
-368320374
625017696
-1143035207
2147483647
-1672238167
1481594842
-1453603667
1417336466
-1856101201
-176765187
-2147483648
-579185626
-2147483648
1747668960
298781242
-1382193933
-1333574396
1190408023
-1871395911
266858255
-2147483648
-1022189734
1025721185
2147483647
-694831667
2023784766
-2147483648
-1222837110
-1333889519
-2147483648
-715425883
-2147483648
-847770336
1187793558
2147483647
-1916388363
-311106435
-1009074885
-995401179
-872175128
-2147483648
349542006
-1133755046
615331857
-1483415680
2147483647
647083784
728449707
-324370836
-2147483648
-2147483648
-1361843404
2147483647
-2147483648
967657247
-1478785714
2147483647
726694084
578243835
2074184589
1191537233
-477981836
-2147483648
714789929
1695570898
2147483647
2147483647
-1412230764
2147483647
-2147483648
-1885132999
1117493870
-2147483648
1607898261
-260506757
2147483647
-2071782375
561956279
1930397978
-2147483648
-1451354082
-2147483648
-1175979685
689617316
-1111755500
-1319746202
302484653
-697527176
982769504
-20058196
-1939026414
556869006
1575271343
373422973
-1791275653
747167236
-2147483648
897633738
427263412
-1700962825
-263158791
625920637
142333872
-510168026
-1427639766
-941406449
-2147483648
77246089
-1394263650
524026119
-2147483648
1687478569
-1138136020
1571482282
-2147483648
854435349
-600418494
585727808
-333574723
-2002542275
-1879728935
-1161643197
-1065382096
435881933
746916616
-1641265049
2099260189
2147483647
-99209470
-1953442322
0
-700434583
-2147483648
2147483647
-1848571497
-1397510876
1163181036
-1679745839
647106853
-1019085672
-148789828
487758206
1398568948
-1133746385
2147483647
1429098239
-1009487824
2147483647
-1103597384
-1436757228
371600709
-507769270
1141105410
1050052932
1945582351
-572040912
194728463
283450361
16081090
1008635876
1955984915
-2147483648
1222667461
1871010914
2055755288
-1979746112
-193386960
1220931047
229486634
-1272094973
2147483647
-2090609696
-368623921
-918679125
2147483647
-1285117974
-134178617
1658479736
2025573032
1282252265
-1962625677
-631082376
-1134837178
2147483647
1385901431
-71726255
-458391768
-1362126692
-421374609
1742817613
636961929
-1629219416
-1386396647
-2147483648
-116606296
-548463039
-281870326
-673006146
-614960363
-2081486766
-2147483648
600346406
-2147483648
2147483647
-935291237
-1542467493
317692838
1808744399
1066399876
1337936847
-843349053
1965353593
996373608
-211890039
-1034205370
1996650819
-938651996
-2147483648
2147483647
143694290
-1166473698
1897089220
-2147483648
2147483647
2147483647
412093113
-968370368
-1176134745
485600214
130560657
-947406660
-1875156150
-1176764008
508066582
56254776
931636984
2147483647
1101772056
-2147483648
211625484
2147483647
-2147483648
661016380
1416806965
-304344936
-933700700
-2147483648
-1046764766
-369983984
