132
532
83
128
-20
779
728
57
-101390891
2124736190
958
-61
485
467
-307
745
764
536
955
317
512
-892
761
937
-71535319
-74
1323821171
-687
-52
-658
-591
410
-902658861
-315
-212
-1746525306
-220
-984
-1491276070
-842
537
-753543642
2147483647
159462799
611
-723
653
-906
-775114047
-920774961
342
-363
-869055120
240
852
-12
836
-1923785737
539
246
-174
932
702
104
-563
12
567
-291
158
344
-34
-415
21
-932
622
384
694
756
451
-817
617
-849
-742
-924
193
-791
730
43
181
859
952451750
435653411
-714
-601
-881
-49
423
-929
772
-100388829
467
-1395190921
757
890
519721695
606
-935
25
129
-991
-334
-894
-388
-704364808
225
16
-74801540
796
58
847
333
-565
91
250
356251406
-824
-968
643
-1939773279
-702
186
-141151756
-758
-421
-576135722
482
304
282
-645
153
682
-410
-314192654
-835
665
-243
-268
-672
540913404
1181216782
855
922
-644
89
-828
691
3
-581
639
421
40
-884
-594
-589
-351
274
-286
-888
-291
-558
-708
-392
419
989
79
851
910
-936
-690
856
804
240
368
-9
624
646
420
-886
-11
18
-38
337
505
-998
590
258
307
-830
488
465
818
-299
629
45
-543
-132
-830
707
593
-383
-475
569
-117
-437
550
-417
60
-304
634
-321
-983
976
211
395
465
234
-278
683
-180
-914
-337
-387
522
-845
-297
814
-564
805
-680
307
664
272732692
-339294603
611
-645
-230
-285
-809
-759
853773943
70
2147483647
970
520770509
-589
550994534
-501
-81429860
-405
864
-189
-1937918839
949
138203763
449
-147
-913979953
1312411040
922
444
-258
-888
-562
-94
316
122
-152
454
931
-336
360
-858
-451
-866
-269
530
-861
250
-370
914
-972
371
-934
94
198
990
-461
261
914
-331
-1328954119
224
583
386
52
284
-722
-477183561
919
1001086238
-383
-285562153
-2147483648
-75725943
157
291
-1195173290
1128439033
544745001
455575862
-796
845
187578809
620
388
624
506917902
-887283041
-282
-374233418
-131
-435
465158364
685
1712191398
75
-1529172274
-560
-1547236235
-957
1097984676
-383
372241991
626
291
-810
-1781336285
-401
841
-986948387
-939924402
2146029831
-173260605
125
47
178
-396
-984304339
200
703
-553
879505405
1325150522
-395
346
-984
-685
-628
-727
520
-686610048
-821
-348862566
601
944
766
405
-671
922
254
-240
-232476191
-1145250597
-623747432
-111
259
-763
120200916
114
778
558
15
-118238097
-976
54
-384
-397
-32
355
99
31357729
-958
-1571735256
-812
104
346
642
439313963
419
-78
290280215
-220
-913260386
694
461
435
764
445
154
636
657
-664
-814
-235
229
-269
298
650
143
-914
-7
348
957
-684
-131
-26
-193
-217
-342
-589
322
33
-977
769
-404
-508
-981
-258
-895
949
843
-949
144
450
397
-163
-319
-223
-611
-427
95
100
-522
-757
-521
-909
548
-333
75
45
198
-151
-227
-650
-719
694
523
733
-703
300
156283092
-350
-643
1273337498
-378704501
896
-446
331
-808
852
-286671838
218
-658
657
-56
-429
-778
-299
-391
-219
-282184534
474
957
-966
208
1076889502
282
-355063272
-257
-599
-484
451
2147483647
47
-428
938444310
-744
-33
987
-461
-469
931
-373
798
28
-705
680358721
-347
-881
-217
-492
-145
1738157044
-904
-508050226
-1235611229
20
-224
-140
-204
-1084479293
558
-878
855
-635
269139783
415129567
585733116
-41
44
-525
189
-463
58
-701
98
-957
-196
970
-245
374
593
-14
-969
-618
266
557
-795
921
-526
785
-1434658120
-253
907
-430
428
-99
-284
-611
291
-817
-177
882
-961
-367
-440458290
1359567818
506
-30105184
-501
-627
-772
-985
-220
505178850
123
-879
-233
-679
-2147483648
-750
649
91
502
806
331
-54
1186928140
-1446217472
-843
-911
-920
359
-962
-290
322
849703994
-2147483648
134
-542
-443
553
503670704
-280
-924
-725
-925
-403
-55
-360
120
115
882
-818
-535
815
-479
946
26
765
-282
238
-203
296
557
352
-256
672
82
33
29
687
-333
578
295
-543
-94
856
-293
309
-721
-916
207
329
53
-820
-353
-192
-408
471
112
-225
-764
585
879
283
331
-796
-3
311
-86
796
-970
999
-140
579
33
979
652
-586
1088423772
-1002804126
35
-393
-87
-346
-256
798
-365
-590
-418
570177228
-466576658
-125
-853
495
-473
323
-1873161188
635
23136636
-369
-902112307
699
-28870883
-46
414731187
417386739
2147483647
-657
663
-568
-172
-18
667
763
675
656
160
141
278
-191
-182
-15
-813
-733
284
694
880
403
-696
572
646
16
195
160
414
-640
761
292
257
-688
547
-824
-131
666
-172
268
24
489
-648
-2122848217
980
549
1013879673
-320
-279
-863
970
688
693
369698360
639631655
448721950
174
-3
333
-736
359
573
1291940562
517
-121
47303130
-738472584
-100544045
1105244783
-364
-931894058
-578
-568
232
-1813106417
28554539
322564736
223
707
-134798065
-1425554976
-74
-192982695
-245
126
-498
432
624080191
-105
767
-614
-1007825308
-731
-502688731
-775
-910
2147483647
518
-96
-267202058
-627410162
-911
773
382729550
-269
358
370
-161213405
-317
402148753
-562
981
186
709
448
-800
-143
-1058823301
-174
-998
-538
-383682548
149
-415
-648
-322
-205
22
391
991
106
-817
105
904
-309
-182
-699
-853
-8
-826
-416
-43
183
-293
-505
-855
-694
171
-653
662
-461
349
-508
-391
-780
-969
163
-266
-294
322
-840
-635
-101
933
-451
842
-373
528
-993916904
208
-1126259378
811
-820
773
470
239
955
-292
-540
243
998
-458
-768
-1333089648
966
978
-263
-535
-70
-41651355
731
-2147483648
-223
-590268888
526265918
-918
580
477206387
763
-437
-389
-946
-108
21
193
-920
525043081
-180
948
917
-109
733
-2147483648
-815
731
-102624077
-764
31957126
-299
1744158886
-61
362
699
-718
-439
728
150
-743
-877
866
-786
-923
307
244
883477321
-117
803
-220
-881349536
-765
-192
466
-18
650
372
376
-639
-132
-580
497
-133
-960
285
-73
937
149
544
-748
-122
793
-506
-859
-594
795
-805
-651
-628
345
-599
-683
921
855
921
128
580
99
45
257
-249
-432
603
-592
459
-827
-473
927
317
700
388
78
-746
-637
349
-585
-13
-828
671
-85
-551
178
-890
-719
773
781
793
438
-567
870
120
311
-440
946
-891
-148
166
-929
-658
411
343
318
939
182
-731
-735
988
-669
539
-385
-886
618
-362
783
-416
-367
-103
-263502229
-393232695
-631
-1051334702
-95
-394
551
459
1018777646
-782
788
362
-58
173
-473
117
1480411009
-720
886
516
-22
-456
-911
576
-374
274
-575
29
-20
-749
878
478
-889
207
-971
-829
-685
-218
-167
-861
3
423
989
940
-640
-381
-639
207
-135
-613
-20
943
910
301
-703
-759
351
917
740
-871
-666
-99
-292
-212
217
925
917
496
856
258
-519
-382
309
398
-412
-544
512
94
-762
-102
218
-897
50
382
-907
-571
196
313
-289210817
827
711922846
-989
38
-600327851
880
963
-31
-421
401
-558
-2123874198
-773
-323
29664599
-542
-412081729
347385364
-712
-508
-492
-440
289
224
-876350252
-609
881
-415784951
-550
-1145059066
1487715180
-282118756
-626047578
-48
1211846036
-934
644
395898229
886
-835
-390365175
-97
-488
824
793482512
2147483647
-2147483648
688
-1802481295
-100809642
-840
-595
-1226320254
908
-419
-1159708336
-158116600
1297093379
-1675655235
188886595
286
639313361
524
11
358070968
-182
303858149
261
-738147734
742129935
1093484790
-532539191
-1424879123
338
-12
-791
-2147483648
-1195954797
-286
2147483647
156
2147483647
-2147483648
27
524
535
895
-220
-443
50
-104
362
-734
-678
-471
-12
289
-473
-405
-441
-691
-883
-268
381
344
987
83
794
163
-14
-555
199
-706
-657
345
177
946
-209
-669
334
428
937
-500
324
-382
825
593
-611
-643
-908
829
323
-924
324
18
-859
-252
551
-533
366
-660
574
390
-955
-874
-690
-766
-295
902425417
-280
-694190776
-193532686
-211
-937481790
4790138
788395508
474391155
658
145
-2147483648
317664939
-735
2147483647
-314976974
887801125
-940
156045959
-61207157
607
-1433437193
1827314685
286
252063816
22123038
-37
-168
629
159020439
-466
111
-538
-10
-209
99
388
843
-468
-192
123968017
-244
-821995772
-99
284
797
756
-231
-137
258
-174
-510
412
594
-618
487
277295470
856
831
208
-987
-99
412
763
-516
-707
-737
627
603
687
-176
591
-267
456
727
394
547
144
-753
-207
-607
761
-597
291
-51
-414
47
-216
31
-121
114
702
86
590058811
731
-538
-173
397
-168662748
-155
-288
617
-258
-386
-622
345160432
2084275505
-1154503141
446
-458
-867
-801
337
231
656
234
-756
322
81
-652
33
717294695
-714
661409176
468
415
551
224624538
924
-356
744
1711489733
665
886
440
-953
-528
349
417
927
788680732
-403
-273
1657207407
-519005417
-144810231
-565
340
-656
731
-222
255
-519
-420
-788
-509
468
764
979
55
358
661
-218
-609
660
156
465
-576
162
-260
47
116
705
-664
993
-179
99
879
419
-243
-1204982371
-26
411
979
731
-836
474
-483
90
747
154
48
481818665
159
573
-204
-932
-35
-3
-744
-152
822
-416920522
706
728
-113
2147483647
190
-128
-861
196
513
484
-598
-783
654
-209
555
-86
-404
-330
-21
-913
79
836
49
-208
-930
-845
-346
-664
-749
-857
-595
420
320
-11
864
792
306
-469629791
666
-1649954840
833
-444
154016694
-534
-147
50
689
928
-70
403
163
-685
-554772693
364
841
168
985560128
949
-673
293118956
888
-671
-668
289611649
-1420448953
272379557
986
