132
532
83
128
-20
779
728
57
769
385
958
-61
485
467
-307
745
764
536
955
317
512
-892
761
937
503
-74
-705
-687
-52
-658
-591
410
244
-315
-212
791
-220
-984
893
-842
537
325
-621
-52
611
-723
653
-906
-317
589
342
-363
125
240
852
-12
836
-803
539
246
-174
932
702
104
-563
12
567
-291
158
344
-34
-415
21
-932
622
384
694
756
451
-817
617
-849
-742
-924
193
-791
730
43
181
859
273
-677
-714
-601
-881
-49
423
-929
772
-695
467
810
757
890
-899
606
-935
25
129
-991
-334
-894
-388
-351
225
16
-629
796
58
847
333
-565
91
250
-649
-824
-968
643
-956
-702
186
299
-758
-421
575
482
304
282
-645
153
682
-410
935
-835
665
-243
-268
-672
165
554
855
922
-644
89
-828
691
3
-581
639
421
40
-884
-594
-589
-351
274
-286
-888
-291
-558
-708
-392
419
989
79
851
910
-936
-690
856
804
240
368
-9
624
646
420
-886
-11
18
-38
337
505
-998
590
258
307
-830
488
465
818
-299
629
45
-543
-132
-830
707
593
-383
-475
569
-117
-437
550
-417
60
-304
634
-321
-983
976
211
395
465
234
-278
683
-180
-914
-337
-387
522
-845
-297
814
-564
805
-680
307
664
-133
-738
611
-645
-230
-285
-809
-759
163
70
-78
970
565
-589
360
-501
432
-405
864
-189
-664
949
-258
449
-147
-407
-986
922
444
-258
-888
-562
-94
316
122
-152
454
931
-336
360
-858
-451
-866
-269
530
-861
250
-370
914
-972
371
-934
94
198
990
-461
261
914
-331
-663
224
583
386
52
284
-722
230
919
-736
-383
569
-13
-666
157
291
437
250
-449
-240
-796
845
-71
620
388
624
-411
-847
-282
-698
-131
-435
-358
685
985
75
-342
-560
-600
-957
793
-383
-808
626
291
-810
-430
-401
841
-743
533
946
-804
125
47
178
-396
-919
200
703
-553
-551
559
-395
346
-984
-685
-628
-727
520
261
-821
160
601
944
766
405
-671
922
254
-240
-445
57
-348
-111
259
-763
-274
114
778
558
15
-192
-976
54
-384
-397
-32
355
99
675
-958
525
-812
104
346
642
-860
419
-78
-588
-220
197
694
461
435
764
445
154
636
657
-664
-814
-235
229
-269
298
650
143
-914
-7
348
957
-684
-131
-26
-193
-217
-342
-589
322
33
-977
769
-404
-508
-981
-258
-895
949
843
-949
144
450
397
-163
-319
-223
-611
-427
95
100
-522
-757
-521
-909
548
-333
75
45
198
-151
-227
-650
-719
694
523
733
-703
300
-471
-350
-643
-908
-567
896
-446
331
-808
852
875
218
-658
657
-56
-429
-778
-299
-391
-219
608
474
957
-966
208
504
282
-671
-257
-599
-484
451
-468
47
-428
-273
-744
-33
987
-461
-469
931
-373
798
28
-705
-668
-347
-881
-217
-492
-145
-64
-904
-143
-382
20
-224
-140
-204
230
558
-878
855
-635
-918
619
-92
-41
44
-525
189
-463
58
-701
98
-957
-196
970
-245
374
593
-14
-969
-618
266
557
-795
921
-526
785
800
-253
907
-430
428
-99
-284
-611
291
-817
-177
882
-961
-367
334
151
506
490
-501
-627
-772
-985
-220
946
123
-879
-233
-679
-586
-750
649
91
502
806
331
-54
943
-629
-843
-911
-920
359
-962
-290
322
-529
826
134
-542
-443
553
887
-280
-924
-725
-925
-403
-55
-360
120
115
882
-818
-535
815
-479
946
26
765
-282
238
-203
296
557
352
-256
672
82
33
29
687
-333
578
295
-543
-94
856
-293
309
-721
-916
207
329
53
-820
-353
-192
-408
471
112
-225
-764
585
879
283
331
-796
-3
311
-86
796
-970
999
-140
579
33
979
652
-586
-749
-96
35
-393
-87
-346
-256
798
-365
-590
-418
-794
-577
-125
-853
495
-473
323
592
635
417
-369
667
699
-399
-46
-551
560
-894
-657
663
-568
-172
-18
667
763
675
656
160
141
278
-191
-182
-15
-813
-733
284
694
880
403
-696
572
646
16
195
160
414
-640
761
292
257
-688
547
-824
-131
666
-172
268
24
489
-648
-527
980
549
-1
-320
-279
-863
970
688
693
137
-125
327
174
-3
333
-736
359
573
385
517
-121
-160
908
-465
-237
-364
-256
-578
-568
232
-701
860
463
223
707
-493
809
-74
-828
-245
126
-498
432
-853
-105
767
-614
-138
-731
-382
-775
-910
-988
518
-96
407
-182
-911
773
964
-269
358
370
-173
-317
421
-562
981
186
709
448
-800
-143
-855
-174
-998
-538
-443
149
-415
-648
-322
-205
22
391
991
106
-817
105
904
-309
-182
-699
-853
-8
-826
-416
-43
183
-293
-505
-855
-694
171
-653
662
-461
349
-508
-391
-780
-969
163
-266
-294
322
-840
-635
-101
933
-451
842
-373
528
-733
208
195
811
-820
773
470
239
955
-292
-540
243
998
-458
-768
34
966
978
-263
-535
-70
423
731
194
-223
669
-357
-918
580
-431
763
-437
-389
-946
-108
21
193
-920
435
-180
948
917
-109
733
-858
-815
731
730
-764
-438
-299
-97
-61
362
699
-718
-439
728
150
-743
-877
866
-786
-923
307
244
704
-117
803
-220
5
-765
-192
466
-18
650
372
376
-639
-132
-580
497
-133
-960
285
-73
937
149
544
-748
-122
793
-506
-859
-594
795
-805
-651
-628
345
-599
-683
921
855
921
128
580
99
45
257
-249
-432
603
-592
459
-827
-473
927
317
700
388
78
-746
-637
349
-585
-13
-828
671
-85
-551
178
-890
-719
773
781
793
438
-567
870
120
311
-440
946
-891
-148
166
-929
-658
411
343
318
939
182
-731
-735
988
-669
539
-385
-886
618
-362
783
-416
-367
-103
-562
-542
-631
1
-95
-394
551
459
471
-782
788
362
-58
173
-473
117
700
-720
886
516
-22
-456
-911
576
-374
274
-575
29
-20
-749
878
478
-889
207
-971
-829
-685
-218
-167
-861
3
423
989
940
-640
-381
-639
207
-135
-613
-20
943
910
301
-703
-759
351
917
740
-871
-666
-99
-292
-212
217
925
917
496
856
258
-519
-382
309
398
-412
-544
512
94
-762
-102
218
-897
50
382
-907
-571
196
313
335
827
-490
-989
38
-433
880
963
-31
-421
401
-558
783
-773
-323
58
-542
197
-876
-712
-508
-492
-440
289
224
124
-609
881
294
-550
-851
189
-789
98
-48
730
-934
644
406
886
-835
241
-97
-488
824
364
-26
-846
688
-842
-221
-840
-595
307
908
-419
-753
-352
50
871
-554
286
677
524
11
926
-182
932
261
-511
876
709
-352
-656
338
-12
-791
-661
-820
-286
-861
156
-948
-680
27
524
535
895
-220
-443
50
-104
362
-734
-678
-471
-12
289
-473
-405
-441
-691
-883
-268
381
344
987
83
794
163
-14
-555
199
-706
-657
345
177
946
-209
-669
334
428
937
-500
324
-382
825
593
-611
-643
-908
829
323
-924
324
18
-859
-252
551
-533
366
-660
574
390
-955
-874
-690
-766
-295
-17
-280
651
305
-211
763
161
770
312
658
145
425
-303
-735
876
95
-64
-940
-101
-202
607
212
-482
286
654
487
-37
-168
629
849
-466
111
-538
-10
-209
99
388
843
-468
-192
915
-244
942
-99
284
797
756
-231
-137
258
-174
-510
412
594
-618
487
-785
856
831
208
-987
-99
412
763
-516
-707
-737
627
603
687
-176
591
-267
456
727
394
547
144
-753
-207
-607
761
-597
291
-51
-414
47
-216
31
-121
114
702
86
940
731
-538
-173
397
151
-155
-288
617
-258
-386
-622
243
67
14
446
-458
-867
-801
337
231
656
234
-756
322
81
-652
33
-814
-714
223
468
415
551
-665
924
-356
744
632
665
886
440
-953
-528
349
417
927
40
-403
-273
-37
607
-721
-565
340
-656
731
-222
255
-519
-420
-788
-509
468
764
979
55
358
661
-218
-609
660
156
465
-576
162
-260
47
116
705
-664
993
-179
99
879
419
-243
-766
-26
411
979
731
-836
474
-483
90
747
154
48
578
159
573
-204
-932
-35
-3
-744
-152
822
-497
706
728
-113
-799
190
-128
-861
196
513
484
-598
-783
654
-209
555
-86
-404
-330
-21
-913
79
836
49
-208
-930
-845
-346
-664
-749
-857
-595
420
320
-11
864
792
306
-575
666
-566
833
-444
-418
-534
-147
50
689
928
-70
403
163
-685
-206
364
841
168
709
949
-673
633
888
-671
-668
-649
245
362
986
