-1000
1000
-908
-1000
-178
-440
-546
-1000
365
739
-249
-1000
-1000
801
-242
-822
235
-282
-592
1000
185
369
1
226
-888
1000
572
-504
-342
-834
123
480
133
1
1
1000
659
-57
542
1000
1000
25
1000
-239
-277
227
976
-71
-169
325
-1000
-703
-872
-91
90
-449
-1000
-677
-368
-548
244
-928
1000
1000
245
-547
1000
-930
825
-492
-1000
-1000
-950
455
902
1000
-532
-564
-881
299
-812
-651
-247
-1000
-666
719
-528
1000
-1000
-488
952
-502
513
531
383
-2
1000
-33
-421
662
-619
1000
737
-1000
-415
-131
-1000
-1000
-196
-1000
-897
1000
436
254
198
-1000
-352
146
1000
-393
809
410
489
-542
-637
1000
-116
906
-396
860
1000
-739
-35
222
-347
150
-28
760
-659
-1000
1000
978
615
-339
-786
-884
377
-754
1000
700
-514
957
-717
-1000
-160
-854
-891
-354
2
1000
367
-407
-363
811
245
-371
-824
1000
1000
-404
-182
-1000
-982
257
365
313
-885
292
212
30
186
6
183
427
360
-740
908
-306
-253
-1000
-234
-684
451
-368
-278
-1000
-39
252
1000
707
-613
-781
358
436
172
560
35
-822
-889
-56
1000
-476
863
-278
1000
1000
1000
-927
-444
-1000
981
120
-314
1000
634
-1000
-1000
376
-1000
755
-699
29
-100
362
578
666
-135
-651
-1000
915
343
1000
222
-440
-977
1000
-29
-379
1000
1000
-1000
-864
-59
-836
623
456
-25
-908
-312
-530
-688
1000
454
-180
-1000
-384
1000
626
1000
-345
-973
-626
-926
-1000
437
-1000
751
-571
-141
-247
887
929
-603
354
38
-43
757
552
-367
902
-204
621
1000
-556
-1000
-627
-834
1000
1000
974
682
-367
-159
632
-146
-1000
1000
-458
715
-1000
-1000
-279
815
597
1000
-600
-798
-305
1000
-378
769
1000
329
-633
159
20
1000
759
-1000
-209
-1000
-317
539
-1000
-463
-412
-662
-750
-493
1000
-1000
-450
-370
1000
-560
-1000
-151
102
368
208
-1000
375
-166
-328
-409
315
348
307
-193
379
-808
-247
582
123
-414
267
956
-526
27
53
-963
927
-1000
1000
762
709
349
201
548
-1000
-4
509
-565
-887
621
-659
-869
-902
-747
-102
-258
1000
496
-407
887
1000
-881
-938
1000
-848
1000
532
501
1000
1
-447
902
954
-26
-1000
-976
-1000
-1000
-116
-126
-62
-974
663
1000
1000
1000
-104
-57
-489
83
-1000
-119
-1000
-867
-543
1000
375
430
-499
778
-1000
-586
-1000
-1000
-103
1000
277
653
-623
-150
872
85
-996
-1000
1000
46
205
-423
-329
216
877
-583
-191
1000
669
-1000
199
-1000
1000
-1000
822
-481
-219
-1000
-1000
375
-722
403
632
452
-410
438
534
188
-473
-591
-1000
149
-134
-461
1000
772
88
-1000
259
-1000
690
-531
377
1000
864
1000
-323
544
896
-159
-662
-741
77
549
934
-1000
-911
464
-1000
731
-1000
-1000
-864
373
-1000
1000
-523
321
-1000
1000
390
182
285
-1000
1000
-655
71
-298
368
-1000
-91
667
-321
421
-56
1000
-1000
-757
-546
674
-276
-758
297
329
-1000
-170
373
309
1000
633
179
945
-203
-192
-1000
-18
-561
437
501
-1000
-971
702
829
-35
-104
912
996
1000
712
-1000
-743
-332
533
-545
650
715
1000
-1000
-1000
1000
1000
828
-1000
547
201
430
-560
-828
1000
-908
-1000
227
-440
-784
-920
365
739
-249
-1000
-1000
801
-242
-253
50
-282
-592
1000
185
369
1
226
-888
1000
572
-504
-342
-834
123
466
133
1
1
1000
261
-57
745
961
1000
25
37
-230
-277
227
267
-13
-169
325
-1000
-703
-872
-91
757
-449
-1000
-677
-368
-585
-918
-928
1000
1000
245
-575
1000
-930
825
-492
-1000
-1000
4
859
902
893
-420
550
-649
299
-812
-651
-247
-1000
-1000
883
-528
1000
-675
-488
229
-502
-472
531
383
-2
1000
152
-84
847
-826
193
737
224
313
-22
-918
-1000
-196
-1000
-897
997
436
254
198
-1000
-352
146
1000
-393
1000
410
489
-542
-11
1000
-116
906
-450
860
1000
-739
-35
6
-10
-395
-816
760
-1000
-1000
1000
-593
615
183
-786
-884
979
-754
1000
700
-514
957
-717
-875
-160
-854
-1000
-354
2
1000
367
-407
39
811
548
-371
-824
1000
1000
-404
-182
-1000
-982
257
365
-342
-885
40
212
30
186
282
183
427
360
-740
3
566
-253
-1000
-149
-684
-135
-368
-1000
-551
-445
119
1000
363
-613
-1000
358
559
158
560
35
-822
-1000
-56
1000
-476
863
-278
1000
1000
815
-927
-444
-1000
438
-369
-314
751
634
-1000
-1000
376
-1000
755
-699
29
-100
362
578
666
-135
-651
-1000
915
343
1000
222
-476
-977
1000
-29
-379
1000
684
-1000
-864
-626
-836
623
456
-25
-996
-312
-530
-688
1000
224
-94
-1000
-384
1000
626
1000
-345
-973
19
-926
-1000
437
-1000
751
-571
-141
-247
887
1000
-603
182
-342
-43
757
1000
-367
902
-640
1000
1000
-556
-1000
-736
-561
1000
1000
819
1000
-367
-159
632
-146
-1000
1000
-640
715
-1000
-833
-279
815
597
1000
-600
-798
-305
1000
-378
769
1000
329
-633
159
20
1000
759
-1000
-809
-171
235
969
-1000
-463
-412
-662
-750
-493
1000
-1000
-450
-370
1000
-560
-1000
-151
102
368
208
-1000
375
-166
-328
-409
315
348
307
-193
379
-63
-247
582
123
-414
-105
956
-526
27
185
-963
1000
-1000
1000
762
709
349
201
548
-1000
-4
509
-565
-887
621
-659
-869
-902
-747
-102
-1000
1000
565
-407
985
1000
-881
-938
1000
-848
1000
532
501
1000
1
-447
902
954
-20
-1000
-662
-310
-1000
-1000
-266
-62
-1000
663
1000
82
1000
-104
-57
-489
83
-1000
-119
-1000
-301
-543
1000
375
229
-499
775
-1000
-586
-1000
-1000
283
1000
-100
81
-623
-150
872
85
-996
-511
1000
46
305
204
-247
216
1000
-583
-191
1000
669
-1000
199
-1000
1000
-1000
822
-481
-219
-1000
-1000
375
-722
403
914
394
-1000
438
534
188
-473
-229
-1000
149
-134
-461
1000
1000
-114
-1000
259
-528
1000
-1000
377
1000
604
1000
-323
544
896
-159
-662
-741
77
549
934
-1000
-911
1000
-1000
731
-1000
-1000
-864
373
-1000
883
-523
321
-1000
1000
390
493
78
-1000
1000
-655
71
-298
368
-1000
-91
667
-321
421
-56
1000
-1000
-1000
-546
1000
-61
-758
297
546
-1000
1000
131
201
1000
633
179
945
-255
-192
-1000
335
-561
437
765
-1000
-553
-141
829
-35
-104
1000
996
1000
712
-1000
-743
-153
533
-1000
650
715
889
-1000
-1000
778
1000
828
-1000
547
201
-223
-560
-1000
844
-183
-1000
-55
-1000
-1000
-858
365
739
-249
-1000
-1000
1000
357
-822
235
-282
-592
1000
575
226
1
-382
-888
1000
684
-504
-342
-834
123
466
692
1
1
1000
295
422
-347
705
1000
-1000
442
-230
-741
-173
-80
-325
584
924
-1000
-684
-872
-1000
1000
-495
-1000
-378
-728
-585
-918
-466
1000
1000
404
-575
1000
-408
825
-1000
-736
-1000
4
859
580
893
-987
1000
-569
625
-732
-1000
-268
-819
-666
1000
-203
1000
-826
-488
860
-502
344
531
174
-233
758
-1000
199
847
-826
1000
737
224
313
-22
-918
-302
-196
-1000
-882
764
550
254
602
-1000
-352
146
1000
-393
793
-92
489
-61
209
1000
-116
1000
-450
860
1000
-739
306
6
-131
-910
-816
-285
-1000
-1000
807
-1000
-626
183
-1000
-884
377
-842
570
1000
79
957
-717
-1000
-160
-854
-832
-648
2
666
367
-1000
-748
1000
245
-205
-576
1000
1000
-404
-187
-980
-1000
-10
483
-394
-885
92
575
-11
186
341
1000
427
596
-740
-343
22
-122
-1000
-288
-116
445
-938
76
-551
207
119
-159
707
-128
-978
358
559
372
560
484
-790
-889
-56
845
453
863
-278
1000
655
815
-927
-444
-1000
438
-369
-314
751
634
-1000
-1000
376
-1000
-697
-692
29
1000
362
-256
650
-183
-651
-1000
492
-410
986
222
-476
-977
1000
-496
271
577
684
-1000
-864
-626
-1000
623
456
-25
-518
-312
-1000
-505
1000
224
-94
-1000
-384
1000
972
224
1000
-1000
-885
-1000
-1000
437
-1000
751
-571
-738
-424
887
1000
-603
182
-1000
342
1000
1000
-572
-309
539
1000
1000
-556
-1000
-736
-209
1000
1000
878
682
-1000
861
632
-126
-1000
738
-458
1000
-791
-1000
656
1000
597
935
-76
-759
-305
1000
-378
-1000
1000
298
-278
159
20
1000
759
-1000
-809
-1000
-317
636
-1000
-463
-412
-662
-750
-347
1000
-1000
-450
-370
1000
-560
-1000
-151
1
1000
484
-592
375
-166
-1000
-349
315
287
65
139
379
-136
-571
1000
123
-414
-16
1000
-526
27
185
-963
470
-579
1000
212
709
139
201
1000
-428
71
1000
-1000
-462
621
-659
-676
-902
-1000
-102
-577
1000
980
-407
1000
720
-485
-938
1000
-848
1000
-112
501
1000
480
-447
877
-386
-211
-1000
-976
-524
-1000
-1000
-1000
-380
-847
663
764
428
1000
-104
-57
-489
83
-1000
-119
-1000
-301
-543
1000
375
616
976
1000
-1000
175
255
-960
-329
961
-100
-110
-50
-150
872
85
-1000
-511
1000
46
781
204
-247
77
1000
-583
-191
1000
669
-1000
478
-917
1000
-1000
822
-481
-760
-1000
-1000
375
-722
403
914
394
-1000
1000
-565
529
-473
1000
-428
149
-134
-461
1000
1000
-114
-309
259
-528
853
-1000
377
1000
604
1000
-641
544
896
-159
-819
-884
77
1000
1000
-213
-486
1000
-808
731
-1000
-1000
-899
719
-1000
1000
-419
321
-1000
1000
401
182
614
-1000
1000
151
338
-298
546
-1000
-91
-78
-321
947
95
380
-1000
-757
31
674
441
-758
1000
185
-1000
1000
450
989
1000
1000
575
1000
330
-192
-960
-18
731
1000
501
-120
-971
23
273
-35
-104
1000
893
1000
712
-1000
-743
-518
552
-84
381
715
1000
-1000
-1000
1000
1000
206
-1000
219
-1000
430
-343
-828
1000
-998
-1000
-209
-440
-784
-920
365
739
-249
-1000
-1000
801
-242
-822
235
-54
-670
1000
185
514
1
226
-1000
301
1000
-280
-718
-1000
90
466
133
984
1
1000
261
-57
897
1000
937
-656
37
-163
-277
227
267
-13
-169
325
-1000
-316
-872
-91
757
-449
-1000
-677
-368
-585
-918
-928
351
1000
198
-572
1000
-649
825
-492
-1000
-793
4
859
734
569
391
371
-1000
299
-812
-70
-247
-1000
-666
883
-528
1000
-675
-488
229
-502
513
531
383
-2
1000
152
-395
847
-826
1000
738
224
313
-22
-918
-1000
937
-1000
-1000
997
224
366
198
-1000
-352
146
1000
-393
396
410
489
-542
-11
995
-116
906
45
860
1000
-323
875
-366
99
-1000
-816
734
-899
-1000
825
-894
108
183
-786
-1000
377
-754
1000
282
-514
957
-717
-175
-160
-854
-891
-259
-177
1000
367
-24
-363
811
245
-371
-824
1000
921
-404
-182
-1000
-982
159
365
-342
-885
40
212
30
732
282
183
427
360
-742
3
151
-253
-1000
-532
-684
451
-368
-278
-551
162
119
1000
571
175
-1000
358
559
172
560
686
-822
-784
-497
1000
-646
863
-547
1000
1000
-170
-927
125
-176
415
-369
-1000
751
568
-1000
-1000
376
-1000
755
-699
29
-100
362
236
666
-135
-115
-1000
915
343
676
222
-476
-1000
1000
-29
358
953
167
-1000
-493
-626
-543
623
456
-25
-996
-312
112
-1000
758
224
1000
-1000
-552
1000
626
1000
-345
-973
19
-926
-1000
893
-1000
1000
-571
-141
-247
549
1000
-603
482
-342
-43
757
1000
-367
902
-1000
1000
939
-556
-1000
-736
-561
1000
512
819
682
-367
-159
632
-146
-1000
1000
-458
715
-1000
-1000
-279
770
1000
956
-511
-835
-305
1000
-378
1000
1000
337
593
287
-321
273
759
-1000
-809
-1000
-655
1000
-928
34
-412
-662
-750
-493
1000
-1000
-1000
-887
1000
-380
-1000
-151
102
1000
208
-1000
375
-166
563
-409
315
-7
307
-237
379
244
-49
756
486
-414
-222
956
333
27
927
-387
861
-1000
1000
762
709
349
201
548
-1000
-4
509
-565
-887
621
-659
-869
-902
-747
-102
-1000
1000
565
-407
985
1000
-1000
-938
1000
-848
1000
684
391
1000
636
-447
902
954
-20
-1000
-976
-524
-1000
-505
-60
-62
-847
-796
1000
392
1000
-93
-438
-489
83
-1000
-119
-402
140
-543
440
-459
229
-499
900
-1000
-586
-1000
-1000
-103
1000
-100
-110
-623
-150
872
85
-996
-511
1000
46
305
341
-247
216
1000
-482
472
1000
1000
-1000
1000
-1000
1000
-1000
902
-326
-219
-1000
-1000
614
-494
403
874
1000
-649
438
534
188
-473
194
-1000
149
664
-461
1000
1000
-363
-843
259
55
1000
-1000
377
308
604
1000
-323
544
896
-159
-665
-1000
77
549
1000
-1000
-911
1000
-1000
731
-1000
-1000
-864
261
-1000
1000
-544
1000
-1000
1000
390
1000
815
-1000
1000
-655
51
-454
169
-1000
-91
667
-321
862
-1000
1000
-1000
-599
-1000
674
370
-758
50
546
-833
431
373
-8
1000
633
179
1000
-221
-358
-638
-18
-1000
437
282
-1000
-941
-129
829
-35
-104
1000
996
273
1000
-1000
-395
-153
661
-1000
650
715
1000
-1000
-905
1000
551
828
-1000
547
201
430
-289
-828
1000
-908
-1000
-209
-440
-784
-920
365
739
-249
-1000
-1000
1000
253
-944
314
-202
-592
1000
500
369
1
605
-888
1000
572
-504
-342
-834
123
466
133
168
159
1000
-749
-57
485
961
1000
25
314
-230
-277
919
456
-13
-169
325
-985
-575
-872
-91
757
-449
-1000
-677
-368
-585
-918
-928
1000
1000
245
-575
1000
-930
825
-1000
-736
-1000
-524
8
902
893
-492
1000
-1000
299
-812
-651
-247
-1000
-666
883
-528
1000
-675
-488
229
-1000
513
531
658
-2
279
-180
199
985
-976
1000
1000
182
576
-22
-918
-982
-196
-1000
-141
1000
436
-1000
650
-1000
-352
146
1000
-198
1000
410
964
-542
-376
1000
-116
906
-450
860
1000
-739
-323
-15
-10
-395
287
1000
-766
-1000
1000
-238
615
-104
-786
-884
377
-754
1000
700
-514
957
-717
-1000
-160
-854
-891
-777
112
1000
327
-1000
-992
303
264
-372
-824
578
1000
480
-182
-816
-982
257
365
-342
-372
40
15
30
186
341
1000
427
596
-740
-343
22
-122
-1000
-288
-684
-661
-368
-317
-245
207
119
1000
-180
-307
-352
358
559
172
560
35
-822
-889
-56
845
-184
863
-278
1000
1000
200
-807
-234
-1000
1000
-369
473
1000
251
-1000
-1000
517
-241
-917
-699
29
-37
362
-256
666
-120
-475
-1000
1000
343
1000
222
-476
-977
1000
-284
-379
1000
869
-1000
-778
-626
-836
-203
783
-25
-518
-312
-1000
-1000
1000
1000
-478
-1000
-384
1000
5
1000
1000
-973
-840
-1000
-1000
1000
-1000
751
-571
-738
-247
887
1000
-603
182
-765
342
830
1000
-1000
358
-640
1000
1000
-371
-728
-1000
-441
1000
223
578
682
-367
499
1000
-126
-1000
939
-1000
715
-350
-1000
-279
1000
239
1000
-600
-313
-305
563
-378
744
1000
329
-542
159
1000
832
-126
-982
-1000
-1000
-317
519
-1000
-85
761
-662
-750
-493
1000
-1000
36
-370
1000
-560
-125
-151
102
368
208
-1000
654
67
-522
-409
315
348
307
-193
379
-63
-247
582
123
-414
-105
956
-526
27
185
-963
1000
-579
1000
212
709
139
201
548
-822
-4
509
-565
-493
621
-1000
-745
-1000
-747
-106
-293
1000
-857
74
1000
1000
-881
330
1000
-1000
1000
532
-228
1000
1
-447
628
954
-211
-1000
-976
-669
-1000
-1000
-1000
-380
-847
319
1000
-847
1000
-845
-57
-489
83
-1000
313
-1000
-301
-543
1000
375
-346
247
1000
-1000
-586
-1000
-595
-103
1000
-100
-110
-112
-150
872
85
-996
-511
1000
46
-107
204
-247
216
1000
-583
-191
389
164
-1000
199
-905
1000
-1000
645
-481
-920
148
-1000
-370
349
403
914
394
-860
1000
-565
529
-473
-229
-1000
149
-24
-461
1000
339
-114
-707
747
-528
1000
-1000
377
1000
604
1000
-323
544
896
-159
-662
-741
77
549
1000
-1000
-1000
1000
-686
731
-391
-1000
-340
373
-1000
876
-523
321
-1000
1000
401
182
678
-1000
1000
-505
338
-298
1000
-424
-91
667
-319
421
-56
950
-1000
-470
-546
252
370
-758
1000
546
-1000
803
252
63
1000
318
237
933
-1000
-192
-1000
-920
-1000
437
310
-1000
-971
-141
829
-35
-104
1000
1000
394
161
-1000
-743
425
533
-1000
650
-155
1000
-1000
-539
897
236
420
-1000
115
-1000
1000
-560
-1000
1000
-1000
-1000
227
-440
-784
-920
289
739
-249
-1000
-1000
801
-242
-822
235
-282
-592
1000
185
369
1
226
-124
1000
572
51
-342
-834
123
466
133
480
1
1000
261
-57
745
961
1000
25
37
-230
-277
227
267
-13
-169
325
-1000
-1000
-872
-91
757
162
-1000
-677
-368
-585
-918
-928
1000
1000
245
-575
1000
-930
825
-492
-1000
-1000
4
-29
902
141
-968
550
-606
299
-988
-529
-247
-1000
-392
883
-528
1000
-675
-488
377
-502
513
531
197
-2
1000
152
-84
847
-826
193
737
224
313
-22
-918
-1000
-196
-1000
-897
997
436
254
198
-1000
-352
146
1000
-393
1000
410
489
-542
-11
1000
-116
906
-450
860
1000
-739
-35
6
-10
-395
-816
760
-1000
-1000
1000
-593
615
183
-786
-884
979
-754
1000
700
-514
957
-717
-875
-160
-854
-1000
-354
537
1000
367
-407
39
811
548
-50
-824
1000
1000
-404
-376
-1000
-982
257
-334
-342
-885
40
212
765
186
282
183
427
360
-740
3
566
-253
-1000
-149
-684
1000
-611
-1000
-551
-445
119
1000
1000
-613
-1000
358
559
-578
1000
35
-1000
-1000
-56
1000
-476
863
264
1000
1000
815
-927
-444
-1000
438
-369
-314
751
634
-1000
-1000
376
-1000
755
-699
29
-100
362
578
666
-135
-651
-1000
915
343
1000
222
-476
-977
1000
-29
-379
1000
684
-1000
-864
-626
-836
623
456
-25
-996
-312
-530
-688
1000
224
-94
-1000
-384
1000
626
1000
-345
-973
19
-926
-1000
940
-1000
751
-571
-141
-247
250
1000
-603
182
-260
-43
757
1000
-367
902
-640
1000
1000
-556
-1000
-736
-561
1000
1000
819
1000
-367
-159
632
-146
-1000
1000
-640
715
-1000
-833
-279
815
597
1000
-600
-798
-305
1000
-378
769
1000
329
-633
159
20
1000
759
-377
-809
-1000
-317
969
-1000
-463
-450
-662
-750
-493
1000
-1000
-450
-370
1000
-560
-1000
-151
102
368
61
-1000
375
-166
-328
-453
315
348
307
-193
1000
-63
-247
582
123
-414
-105
956
-526
27
185
-963
1000
-1000
1000
762
709
349
-267
548
-1000
-4
509
-1000
-887
621
-659
-934
-902
-747
-100
-1000
1000
565
-659
985
1000
-881
-938
1000
-848
1000
532
501
1000
1
-447
902
954
445
13
-662
-310
-1000
-1000
-266
-62
-1000
580
1000
870
1000
-104
-57
-489
83
-1000
-119
-1000
-301
-543
1000
375
229
-499
775
-1000
-586
-1000
-1000
283
1000
-100
81
-623
-150
872
85
-996
-511
1000
46
305
204
-247
216
1000
-583
-191
1000
669
-1000
49
-1000
1000
-1000
822
-481
-399
-1000
-1000
375
-90
403
914
394
-1000
438
534
188
-473
-229
-1000
149
-134
-461
1000
1000
-114
-1000
259
-528
1000
-1000
377
1000
604
1000
-323
544
896
-159
-662
-741
77
549
934
-1000
-911
1000
-1000
731
-1000
-1000
-864
373
-1000
1000
-523
321
-1000
1000
390
-90
285
-1000
1000
-655
71
-298
368
-1000
-91
667
-321
421
-56
1000
-1000
-1000
-546
674
370
-758
297
546
-1000
1000
373
201
1000
633
179
945
-255
-1000
-1000
335
-561
1000
765
-649
-1000
185
829
-35
-104
1000
996
1000
712
-1000
-743
-153
533
-1000
650
715
889
-1000
-1000
778
1000
828
-1000
96
201
-223
-560
-828
1000
-908
-1000
227
-440
-784
-920
365
739
-249
-1000
-1000
801
-242
-822
235
-282
-592
1000
185
369
1
226
-888
1000
572
-504
-342
-834
123
466
133
1
1
1000
393
30
745
961
1000
-159
37
492
-277
227
267
-13
-169
325
-1000
-703
-872
-91
757
-449
-1000
-677
-368
-585
-918
-928
781
1000
245
-575
1000
-930
825
-492
-1000
-1000
4
859
902
893
-420
550
-649
299
-73
-651
-247
-984
-666
1000
-528
1000
-161
-377
229
-502
1000
130
383
-2
1000
-236
-3
847
-826
193
737
224
313
-22
-918
-1000
-196
-1000
-897
997
436
254
198
-1000
-352
1000
502
82
1000
410
489
-542
-11
1000
-116
906
-450
860
1000
-739
-35
6
-10
-395
-816
760
-1000
-1000
1000
-593
615
183
-786
-884
979
-754
1000
700
39
957
-717
-469
-160
-1000
-1000
-354
2
1000
367
-407
39
811
548
-371
-824
1000
1000
-404
-182
-1000
-982
257
365
-342
-885
40
212
30
186
282
183
427
360
-740
3
566
-253
-1000
-149
-684
451
-368
-1000
-551
-445
119
1000
363
-613
-1000
358
559
158
560
35
-822
-1000
-56
1000
-476
863
-278
1000
1000
815
-927
-444
-1000
438
-369
-314
751
634
-1000
-1000
376
-1000
755
-699
29
-100
362
578
666
-135
-651
-1000
915
343
1000
222
-476
-1000
75
-29
-379
1000
571
-337
-412
-626
-836
623
456
-25
-996
-312
-530
-688
1000
224
-94
-1000
-384
1000
612
1000
-345
-973
19
-926
-1000
-845
-1000
751
-571
-141
-247
887
1000
-603
182
-342
-43
757
1000
-367
902
-640
1000
1000
-556
-1000
-736
-561
1000
1000
819
1000
-367
-159
632
-146
-1000
1000
-640
715
-1000
-833
-279
815
597
1000
-600
-798
-305
1000
-378
769
1000
329
-633
159
20
1000
759
-1000
-809
-1000
-317
969
-1000
-463
-412
-662
-750
-493
1000
-1000
-498
-370
1000
-560
-1000
-151
561
368
-253
-1000
375
-166
-474
-409
315
113
307
-193
379
-63
-247
582
123
-414
-105
956
-526
27
185
-963
1000
-952
1000
762
709
349
14
144
-1000
634
509
-565
-887
621
-659
-869
-902
-747
-102
-1000
1000
565
-407
985
1000
-881
-938
1000
-848
1000
532
501
1000
1
-447
902
954
-20
-1000
-662
-310
-1000
-1000
-266
-3
-399
663
1000
82
1000
-104
-57
-489
83
-1000
-119
-1000
-301
-543
1000
375
229
-499
775
-1000
-586
-1000
-1000
283
1000
-100
81
-623
-150
872
85
-996
-511
1000
46
305
204
-247
216
1000
-583
-191
1000
669
-1000
220
-1000
164
-1000
535
-481
-219
-1000
-1000
375
-722
403
914
394
-1000
438
534
188
-473
-229
-1000
149
-134
-461
1000
1000
-114
-1000
259
-528
1000
-1000
377
1000
604
1000
-323
544
896
-159
-662
-741
77
549
806
-1000
-1000
1000
-1000
731
-484
-1000
-864
373
-1000
1000
33
321
-1000
1000
390
182
285
-1000
1000
-655
71
-298
368
-1000
-91
667
-321
421
-56
1000
-1000
-1000
-546
674
370
-758
418
546
-1000
1000
373
201
1000
633
179
945
-255
-192
-1000
335
-561
-15
765
-804
-1000
-141
829
-35
-104
1000
996
1000
712
-1000
-743
-153
533
-1000
650
715
889
-1000
-1000
778
1000
828
-1000
547
201
-223
-560
-828
1000
-908
-1000
-209
-440
-784
-920
365
739
-249
-1000
-1000
801
-242
-822
235
-282
-592
1000
185
369
1
226
-888
1000
572
-504
-342
-834
123
480
133
1
1
1000
659
-57
850
961
1000
25
1000
-230
-277
227
976
-13
-169
325
-1000
-703
-872
-91
90
-449
-1000
-677
-368
-548
-918
-928
1000
1000
245
-575
1000
-930
825
-492
-1000
-1000
-950
455
902
1000
-532
-564
-881
299
-812
-651
-247
-1000
-666
719
-528
1000
-1000
-488
952
-502
513
531
383
-2
1000
-33
-421
662
-619
1000
737
-1000
-415
-131
-1000
-1000
-196
-1000
-897
1000
436
254
198
-1000
-352
146
1000
-393
809
410
489
-542
-637
1000
-116
906
-396
860
1000
-739
-35
222
-347
150
-28
760
-659
-1000
1000
978
615
-339
-786
-884
377
-754
1000
700
-514
957
-717
-1000
-160
-854
-891
-354
2
1000
367
-407
-363
811
245
-371
-824
1000
1000
-404
-182
-1000
-982
257
365
313
-885
292
212
30
186
282
183
427
360
-740
3
22
-253
-1000
-149
-684
451
-368
-278
-824
460
252
1000
707
-613
-781
358
559
172
560
35
-822
-889
-56
1000
-476
863
-278
1000
1000
1000
-927
-444
-1000
438
120
-314
1000
634
-1000
-1000
376
-1000
755
-699
29
-100
362
578
666
-135
-651
-1000
915
343
1000
222
-476
-977
647
-29
-379
1000
1000
-1000
-864
-59
-836
623
456
-25
-908
-312
-530
-688
1000
454
-180
-1000
-384
1000
626
1000
-345
-973
19
-926
-1000
437
-1000
751
-571
-141
-247
887
1000
-603
182
-342
-43
757
1000
-367
902
-204
621
1000
-556
-1000
-627
-834
1000
1000
974
682
-367
-159
632
-146
-1000
1000
-458
715
-1000
-1000
-279
815
597
1000
-600
-798
-305
1000
-378
769
1000
329
-633
159
20
1000
759
-1000
-209
-1000
-317
539
-1000
-463
-412
-662
-750
-493
1000
-1000
-450
-370
1000
-560
-1000
-151
102
368
208
-1000
375
-166
-328
-409
315
348
307
-193
379
-808
-247
582
123
-414
267
956
-526
27
53
-963
927
-1000
1000
762
709
349
201
548
-1000
-4
509
-565
-887
621
-659
-869
-902
-747
-102
-258
1000
496
-407
887
1000
-881
-938
1000
-848
1000
532
501
1000
1
-447
902
954
-26
-1000
-976
-524
-1000
-116
-126
-62
-974
663
1000
1000
1000
-104
-57
-489
83
-1000
-119
-1000
-867
-543
1000
375
430
-499
778
-1000
-586
-1000
-1000
-103
1000
277
653
-623
-150
872
85
-996
-511
1000
46
-57
-423
-329
216
1000
-583
-191
1000
669
-1000
199
-1000
1000
-1000
822
-481
-219
-1000
-1000
375
-722
403
632
452
-410
438
534
188
-473
-591
-1000
149
-134
-461
1000
1000
-114
-1000
259
-1000
690
-531
377
1000
864
1000
-323
544
896
-159
-662
-741
77
549
934
-1000
-911
464
-1000
731
-1000
-1000
-864
373
-1000
1000
-523
321
-1000
1000
390
182
285
-1000
1000
-655
71
-298
368
-1000
-91
667
-321
421
-56
1000
-1000
-757
-546
674
291
-758
297
329
-1000
1000
373
309
1000
633
179
945
-203
-192
-1000
-18
-561
437
501
-1000
-971
702
829
-35
-104
912
996
1000
712
-1000
-743
-332
533
-545
650
715
1000
-1000
-1000
1000
1000
828
-1000
547
201
430
-560
-828
1000
-998
-1000
-209
-440
-784
-920
365
739
-249
-1000
-1000
801
-242
-822
235
-54
-670
1000
185
514
1
226
-1000
301
1000
-185
-718
-1000
90
524
133
984
1
1000
261
-57
897
1000
937
-656
37
-163
-277
227
267
-13
-169
325
-1000
-316
-872
-91
757
-449
-1000
-677
-368
-585
-918
-928
351
1000
198
-572
1000
-649
825
-492
-1000
-793
4
859
734
569
391
371
-1000
299
-812
-70
-247
-1000
-666
883
-528
1000
-675
-488
229
-502
513
531
383
-2
1000
152
-395
847
-826
1000
738
224
313
-22
-918
-1000
937
-1000
-1000
997
224
366
198
-1000
-352
146
1000
-393
396
410
489
-542
-370
995
-116
906
45
860
1000
-323
875
-366
99
-1000
-816
87
-899
-1000
825
-614
-156
183
-786
-1000
377
-754
1000
282
-514
957
-717
-175
-160
-854
-891
-259
-177
1000
367
-24
-363
811
245
-371
-824
1000
921
-404
-182
-1000
-982
159
365
-342
-885
40
212
30
732
282
183
427
360
-742
3
151
-253
-1000
-532
-684
451
-368
-278
-551
162
119
1000
571
175
-1000
358
559
172
560
686
-822
-784
-497
1000
-646
863
-547
1000
1000
-170
-927
125
-176
415
-369
-1000
751
568
-1000
-1000
376
-1000
755
-699
29
-100
362
236
666
-135
-115
-1000
915
343
676
222
-476
-1000
1000
-29
358
953
167
-1000
-493
-626
-543
623
456
-25
-996
-312
112
-1000
758
224
1000
-1000
-552
1000
626
1000
-345
-973
19
-926
-1000
893
-1000
1000
-571
-141
-247
549
1000
-603
482
-342
-43
757
1000
-367
902
-1000
1000
939
-556
-1000
-736
-561
1000
512
819
682
-367
-159
632
-146
-1000
1000
-458
877
-1000
-1000
-493
770
1000
956
-511
-835
-305
1000
-378
1000
1000
337
593
287
-321
273
759
-1000
-809
-1000
-655
1000
-928
34
-412
-662
-750
-493
1000
-1000
-1000
-887
1000
-380
-1000
-151
102
1000
208
-1000
375
-166
563
-409
315
-7
-465
-237
379
244
-49
756
600
-754
-222
1000
333
27
927
-387
861
-1000
1000
762
709
349
201
548
-1000
-4
509
-565
-887
621
-659
-869
-902
-747
-102
-1000
1000
565
-407
985
1000
-1000
-1000
1000
-848
1000
1000
-89
1000
636
-447
902
954
-20
-1000
-976
-524
-1000
-505
-60
-62
-847
-796
1000
392
1000
-93
-438
-489
83
-1000
-119
-402
140
-543
440
-459
229
-499
900
-1000
-586
-1000
-1000
-103
1000
-100
-110
-623
-150
872
85
-996
-511
1000
46
305
341
-247
216
1000
-482
472
1000
1000
-1000
1000
-1000
1000
-1000
902
-326
-219
-1000
-1000
614
-494
403
874
1000
-649
438
534
188
-473
194
-1000
149
455
-461
1000
628
-791
-843
259
55
1000
-1000
377
308
604
1000
-323
544
896
-159
-665
-1000
77
549
1000
-1000
-911
1000
-1000
731
-1000
-1000
-864
261
-1000
1000
-544
1000
-1000
1000
390
1000
859
-523
1000
-655
51
-454
169
-1000
-91
667
-321
1000
-1000
1000
-1000
-599
-1000
674
370
-758
50
546
-833
431
373
-8
1000
633
179
1000
-221
-358
-638
-18
-1000
437
282
-1000
-941
-129
829
-35
-104
1000
996
273
1000
-1000
-395
-153
661
-1000
650
715
1000
-1000
-905
1000
551
828
-1000
547
201
430
-289
-1000
844
-183
-1000
-55
-440
-1000
-920
365
530
-249
-1000
-1000
1000
357
-822
235
-282
-151
1000
540
226
1
-185
-888
1000
572
-504
-342
-834
123
466
133
1
1
1000
295
422
-347
705
1000
-1000
442
-230
-741
-173
-80
-325
584
924
-1000
-684
-872
-1000
1000
-495
-1000
-378
-728
-585
-918
-466
1000
1000
-107
-575
1000
-408
825
-1000
-736
-1000
4
859
902
893
-420
943
-649
299
-732
-651
-247
-1000
-666
1000
-203
1000
-826
-488
860
-502
344
531
174
-233
758
-1000
199
847
-826
1000
737
224
313
-22
-918
-302
-196
-1000
-882
764
550
254
602
-1000
-352
146
1000
-393
1000
410
489
-61
209
1000
-116
906
-450
860
1000
-739
-35
-395
-10
-910
-816
-285
-1000
-621
1000
-1000
-36
1000
-1000
-884
377
-1000
570
700
-514
957
-717
-823
-160
-854
-832
-648
2
666
367
-1000
-748
1000
245
-205
-576
1000
1000
-404
-187
-980
-1000
-10
483
-394
-885
-415
637
-161
186
341
1000
427
596
-740
-343
22
-122
-1000
-288
-116
445
-938
-229
-551
207
119
-359
707
-128
-978
358
559
372
560
307
-822
-889
-56
845
453
863
-278
1000
655
815
-927
-444
-1000
438
-369
-314
751
634
-1000
-1000
376
-1000
-697
-699
29
-100
362
-256
666
-135
-651
-1000
915
-410
986
222
-476
-977
1000
-496
271
577
684
-1000
-864
-626
-1000
623
456
-25
-518
-312
-1000
-505
1000
224
-94
-1000
-384
1000
972
224
1000
-1000
-885
-1000
-1000
437
-1000
751
-571
-738
-424
887
1000
-603
182
-1000
342
1000
1000
-572
120
539
1000
1000
-556
-1000
-736
-266
1000
1000
878
682
-367
-159
632
-126
-1000
408
-458
1000
-791
-1000
496
1000
597
1000
-600
-759
-305
1000
-378
-1000
1000
298
-278
159
20
1000
759
-1000
-809
-1000
-317
636
-1000
-463
-412
-662
-750
-347
1000
-1000
-450
-370
1000
-560
-1000
-151
1
1000
484
-1000
375
-166
-1000
-349
315
147
307
203
379
-136
-571
535
123
-414
-105
1000
-526
27
185
-963
572
-579
1000
212
709
139
201
1000
-428
71
1000
-1000
-462
621
-659
-676
-902
-1000
-102
-577
1000
980
-407
1000
720
-881
-938
1000
-643
1000
532
501
1000
1
-447
930
1000
-211
-1000
-976
-524
-1000
-1000
-1000
-380
-847
663
764
428
1000
-104
-57
-489
83
-1000
-119
-1000
-301
-543
1000
375
616
466
1000
-1000
-586
-26
-960
-103
961
-100
-110
-50
-150
872
85
-996
-511
1000
46
305
204
-247
216
1000
-583
-191
1000
669
-1000
478
-917
1000
-499
1000
-322
-760
-1000
-1000
375
-722
403
914
394
-1000
1000
-565
529
-473
1000
-428
149
-134
-461
1000
1000
-114
-309
259
-528
853
-1000
377
1000
604
1000
-641
544
896
-159
-819
-884
77
473
1000
-666
-1000
1000
-686
731
-1000
-1000
-1000
719
-1000
1000
-419
321
-1000
1000
401
182
614
-1000
1000
151
338
-298
546
-1000
-91
667
-321
687
95
380
-1000
-757
-546
674
441
-758
1000
185
-1000
1000
450
989
1000
1000
575
1000
-255
-192
-1000
-18
-561
437
501
-120
-971
23
703
-35
-104
1000
996
1000
712
-1000
-743
-153
518
-91
650
715
1000
-1000
-1000
1000
1000
206
-1000
219
-1000
430
-343
-828
1000
-908
-1000
227
-440
-784
-920
365
739
-249
-1000
-1000
801
-242
-253
50
-282
-592
1000
185
369
1
226
-888
1000
572
-504
-342
-834
123
466
133
1
1
1000
261
-57
745
961
1000
25
37
-230
-277
227
267
-13
-169
325
-1000
-703
-872
-91
757
-449
-1000
-677
-368
-585
-918
-928
1000
1000
245
-575
1000
-930
825
-492
-1000
-1000
4
859
902
893
-420
550
-649
299
-812
-651
-247
-1000
-1000
883
-528
1000
-675
-488
229
-502
-472
531
383
-2
1000
152
-84
847
-826
193
737
224
313
-22
-918
-1000
-196
-1000
-897
997
436
254
198
-1000
-352
146
1000
-393
1000
410
489
-542
-11
1000
-116
906
-450
860
1000
-739
-35
6
-10
-395
-816
760
-1000
-1000
1000
-593
615
183
-786
-884
979
-754
1000
700
-514
957
-717
-875
-160
-854
-1000
-354
2
1000
367
-407
39
811
548
-371
-824
1000
1000
-404
-182
-1000
-982
257
365
-342
-885
40
212
30
186
282
183
427
360
-740
3
566
-253
-1000
-149
-684
-135
-368
-1000
-551
-445
119
1000
363
-613
-1000
358
559
158
560
35
-822
-1000
-56
1000
-476
863
-278
1000
1000
815
-927
-444
-1000
438
-369
-314
751
634
-1000
-1000
376
-1000
755
-699
29
-100
362
578
666
-135
-651
-1000
915
343
1000
222
-476
-977
1000
-29
-379
1000
684
-1000
-864
-626
-836
623
456
-25
-996
-312
-530
-688
1000
224
-94
-1000
-384
1000
626
1000
-345
-973
19
-926
-1000
437
-1000
751
-571
-141
-247
887
1000
-603
182
-342
-43
757
1000
-367
902
-640
1000
1000
-556
-1000
-736
-561
1000
1000
819
1000
-367
-159
632
-146
-1000
1000
-640
715
-1000
-833
-279
815
597
1000
-600
-798
-305
1000
-378
769
1000
329
-633
159
20
1000
759
-1000
-809
-171
235
969
-1000
-463
-412
-662
-750
-493
1000
-1000
-450
-370
1000
-560
-1000
-151
102
368
208
-1000
375
-166
-328
-409
315
348
307
-193
379
-63
-247
582
123
-414
-105
956
-526
27
185
-963
1000
-1000
1000
762
709
349
201
548
-1000
-4
509
-565
-887
621
-659
-869
-902
-747
-102
-1000
1000
565
-407
985
1000
-881
-938
1000
-848
1000
532
501
1000
1
-447
902
954
-20
-1000
-662
-310
-1000
-1000
-266
-62
-1000
663
1000
82
1000
-104
-57
-489
83
-1000
-119
-1000
-301
-543
1000
375
229
-499
775
-1000
-586
-1000
-1000
283
1000
-100
81
-623
-150
872
85
-996
-511
1000
46
305
204
-247
216
1000
-583
-191
1000
669
-1000
199
-1000
1000
-1000
822
-481
-219
-1000
-1000
375
-722
403
914
394
-1000
438
534
188
-473
-229
-1000
149
-134
-461
1000
1000
-114
-1000
259
-528
1000
-1000
377
1000
604
1000
-323
544
896
-159
-662
-741
77
549
934
-1000
-911
1000
-1000
731
-1000
-1000
-864
373
-1000
883
-523
321
-1000
1000
390
493
78
-1000
1000
-655
71
-298
368
-1000
-91
667
-321
421
-56
1000
-1000
-1000
-546
1000
-61
-758
297
546
-1000
1000
131
201
1000
633
179
945
-255
-192
-1000
335
-561
437
765
-1000
-553
-141
829
-35
-104
1000
996
1000
712
-1000
-743
-153
533
-1000
650
715
889
-1000
-1000
778
1000
828
-1000
547
201
-223
-560
-828
1000
-908
-1000
-209
-440
-784
-920
365
739
-249
-1000
-1000
801
-242
-822
235
-282
-592
1000
185
369
1
226
-888
1000
572
-504
-342
-834
123
480
133
1
1
1000
659
-57
850
961
1000
25
1000
-230
-277
227
976
-13
-169
325
-1000
-703
-872
-91
90
-449
-1000
-677
-368
-548
-918
-928
1000
1000
245
-575
1000
-930
825
-492
-1000
-1000
-950
455
902
1000
-532
-564
-881
299
-812
-651
-247
-1000
-666
883
-528
1000
-675
-488
229
-502
513
531
383
-2
1000
152
-421
662
-619
1000
737
-1000
-698
-131
-1000
-1000
-196
-1000
-897
1000
436
254
198
-1000
-352
146
1000
-393
809
410
489
-542
-637
1000
-116
906
-396
860
1000
-739
-227
517
-793
150
-816
1000
-659
-1000
1000
978
615
289
-786
-884
377
-754
1000
700
-514
957
-717
-1000
-160
-854
-891
517
2
1000
367
30
-573
811
246
-371
-824
972
1000
-404
-182
-1000
-982
257
365
313
-885
292
212
30
186
314
183
427
360
-740
3
22
-253
-1000
-149
-684
451
-368
-278
-824
460
252
1000
707
-613
-781
358
559
172
560
35
-822
-889
-56
1000
-476
863
-278
1000
1000
815
-927
-444
-1000
438
-369
-314
751
634
-1000
-1000
376
-1000
755
-699
29
-100
362
578
402
-135
-651
-1000
915
343
1000
222
-476
-977
647
-29
-379
1000
1000
-1000
-864
-59
-836
623
456
-25
-908
-312
-530
-688
1000
454
-180
-1000
-384
1000
626
1000
-345
-973
19
-926
-1000
437
-1000
751
-571
-141
-247
887
1000
-603
182
-342
-43
757
1000
-367
1000
-204
1000
1000
103
-1000
-736
-296
1000
1000
819
682
-367
-159
632
-146
-1000
1000
-458
715
-1000
-1000
-279
815
597
1000
-600
-798
-305
1000
-378
769
1000
329
-633
159
20
1000
759
-1000
-209
-1000
-317
539
-1000
-463
-412
-662
-750
-493
1000
-1000
-450
-370
1000
-560
-1000
-151
102
368
208
-1000
375
-166
-328
-409
315
348
307
-193
379
-808
-247
582
123
-414
267
956
-526
27
53
-963
927
-1000
1000
528
341
349
201
-363
-1000
-4
509
-565
-844
621
-407
-737
-902
-747
-102
-1000
816
565
-407
985
1000
-881
-938
1000
-848
1000
532
501
1000
1
-447
902
954
-20
-1000
-1000
-276
-1000
-1000
-126
-62
-847
-270
1000
109
1000
-104
-57
-489
83
-1000
-119
-1000
-867
-543
1000
375
430
-1000
778
-1000
-586
-1000
-1000
-103
1000
277
653
-623
-150
872
85
-996
-511
1000
46
305
396
-329
216
1000
-583
-191
1000
669
-1000
199
-1000
1000
-1000
822
-481
-219
-1000
-1000
345
-722
403
632
452
-410
438
534
188
-473
-591
-1000
149
-134
-461
1000
1000
-114
-1000
259
-1000
690
-1000
377
1000
604
1000
-323
544
896
-159
-662
-741
77
549
934
-1000
-911
464
-1000
731
-1000
-1000
-864
373
-1000
1000
-523
321
-1000
1000
390
182
285
-1000
1000
-655
71
-298
368
-1000
-377
667
310
437
-56
1000
-1000
-757
-546
674
370
-758
297
546
-1000
1000
373
201
1000
633
179
945
408
-192
-1000
-18
-489
437
501
-1000
-971
611
185
-35
-104
912
996
1000
712
-1000
-743
-332
533
-545
650
715
1000
-1000
-1000
1000
1000
828
-1000
547
201
430
-560
-828
1000
-908
-1000
-209
-440
-784
-920
365
739
-249
-1000
-1000
801
-242
-822
235
-282
-592
1000
185
369
1
226
-888
1000
572
-504
-342
-834
123
480
133
1
1
1000
659
-57
850
961
1000
25
1000
-230
-277
227
976
-13
-169
325
-691
-703
-897
-91
90
-438
-1000
-550
-368
-548
-918
-928
1000
1000
983
-555
1000
-930
825
-492
-1000
-1000
-950
455
902
1000
-532
-564
-881
299
-812
-651
-247
-1000
-666
1000
-528
1000
-1000
-488
952
-502
513
531
1000
-2
1000
-33
-421
662
-619
1000
737
-1000
-415
-131
-1000
-1000
-196
-1000
-897
1000
436
254
198
-1000
-352
146
1000
-393
809
410
489
-542
-637
1000
-116
906
-396
860
1000
-739
-35
222
-347
150
-28
760
-659
-1000
1000
978
615
-339
-786
-884
377
-754
1000
700
-514
957
-717
-1000
-160
-854
-891
-354
2
1000
-503
-407
-363
811
245
-729
-355
1000
1000
-404
-494
-1000
-982
-44
365
313
-885
-179
212
30
-135
282
183
427
360
-740
3
22
-544
-1000
-149
-684
451
-368
-278
-824
460
252
1000
707
-613
-781
358
559
172
560
35
-822
-889
-56
1000
-476
863
-278
1000
1000
1000
-927
-444
-1000
438
120
-314
1000
634
-1000
-1000
376
-1000
755
-699
29
-100
362
578
666
-135
-651
-1000
915
343
1000
222
-476
-977
647
-29
-379
1000
1000
-1000
-864
-59
-836
623
456
-25
-908
-312
346
-688
1000
454
-180
-1000
-384
1000
626
1000
-345
-973
19
-926
-1000
437
-1000
751
-571
-141
-247
887
1000
-603
182
-342
-43
757
1000
-367
902
-204
621
1000
-556
-1000
-627
-834
1000
1000
974
682
-367
-159
632
-146
-1000
1000
-458
715
-1000
-1000
-279
815
597
1000
-600
-798
-305
1000
-378
769
1000
329
-633
159
404
1000
943
-1000
-971
-1000
-317
539
-1000
-634
-412
-662
-750
-493
1000
-1000
-450
-370
1000
-560
-1000
-151
102
368
208
-1000
375
-166
-328
-409
315
348
307
-193
379
-808
-247
582
123
-414
267
956
-526
27
53
-963
927
-1000
1000
762
709
349
201
548
-1000
-4
509
-565
-887
621
-659
-869
-902
-747
-102
-258
1000
496
-407
887
1000
-881
-938
988
-848
1000
532
501
1000
1
-447
966
846
-26
-1000
-976
-524
-1000
-116
-126
-62
-974
663
1000
1000
1000
-104
-57
-489
83
-1000
-119
-1000
-867
-543
1000
375
430
-499
778
-1000
-586
-1000
-1000
-103
1000
277
653
-623
-150
872
85
-996
-511
1000
46
-57
-423
-329
216
1000
-583
-191
1000
669
-1000
199
-1000
1000
-1000
822
-481
-219
-1000
-1000
375
-722
403
632
452
-410
438
534
188
-473
-591
-1000
149
-134
-461
1000
1000
-114
-1000
259
-1000
690
-531
377
1000
864
1000
-323
544
896
-159
-662
-741
77
549
934
-1000
-911
464
-1000
731
-1000
-1000
-456
251
-1000
1000
-523
321
-1000
1000
390
182
285
-1000
1000
-655
71
-298
368
-1000
-91
667
-321
421
-56
1000
-1000
-757
-546
674
291
-758
297
329
-1000
649
373
513
1000
882
-571
945
-203
-192
-673
-18
-483
437
501
-1000
-971
702
829
-750
-104
912
996
1000
712
-1000
-1000
-332
-242
-545
650
715
1000
-1000
-1000
1000
1000
828
-1000
547
201
430
-560
-1000
1000
-1000
-1000
227
-440
-784
-920
289
739
-249
-1000
-1000
801
-242
-822
235
-282
-592
1000
185
369
1
226
-124
1000
572
51
-342
-834
123
466
133
480
1
1000
261
-57
745
961
1000
25
37
-230
-277
227
267
-13
-169
325
-1000
-1000
-872
-91
757
162
-1000
-677
-368
-585
-918
-928
1000
1000
245
-575
1000
-930
825
-492
-1000
-1000
4
-29
902
141
-968
550
-606
299
-988
-529
-247
-1000
-392
883
-528
1000
-675
-488
377
-502
513
531
197
-2
1000
152
-84
847
-826
193
737
224
313
-22
-918
-1000
-196
-1000
-897
997
436
254
198
-1000
-352
146
1000
-393
1000
410
489
-542
-11
1000
-116
906
-450
860
1000
-739
-35
6
-10
-395
-816
760
-1000
-1000
1000
-593
615
183
-786
-884
979
-754
1000
700
-514
957
-717
-875
-160
-854
-1000
-354
537
1000
367
-407
39
811
548
-50
-824
1000
1000
-404
-376
-1000
-982
257
-334
-342
-885
40
212
765
186
282
183
427
360
-740
3
566
-253
-1000
-149
-684
1000
-611
-1000
-551
-445
119
1000
1000
-613
-1000
358
559
-578
1000
35
-1000
-1000
-56
1000
-476
863
264
1000
1000
815
-927
-444
-1000
438
-369
-314
751
634
-1000
-1000
376
-1000
755
-699
29
-100
362
578
666
-135
-651
-1000
915
343
1000
222
-476
-977
1000
-29
-379
1000
684
-1000
-864
-626
-836
623
456
-25
-996
-312
-530
-688
1000
224
-94
-1000
-384
1000
626
1000
-345
-973
19
-926
-1000
940
-1000
751
-571
-141
-247
250
1000
-603
182
-260
-43
757
1000
-367
902
-640
1000
1000
-556
-1000
-736
-561
1000
1000
819
1000
-367
-159
632
-146
-1000
1000
-640
715
-1000
-833
-279
815
597
1000
-600
-798
-305
1000
-378
769
1000
329
-633
159
20
1000
759
-377
-809
-1000
-317
969
-1000
-463
-450
-662
-750
-493
1000
-1000
-450
-370
1000
-560
-1000
-151
102
368
61
-1000
375
-166
-328
-453
315
348
307
-193
1000
-63
-247
582
123
-414
-105
956
-526
27
185
-963
1000
-1000
1000
762
709
349
-267
548
-1000
-4
509
-1000
-887
621
-659
-934
-902
-747
-100
-1000
1000
565
-659
985
1000
-881
-938
1000
-848
1000
532
501
1000
1
-447
902
954
445
13
-662
-310
-1000
-1000
-266
-62
-1000
580
1000
870
1000
-104
-57
-489
83
-1000
-119
-1000
-301
-543
1000
375
229
-499
775
-1000
-586
-1000
-1000
283
1000
-100
81
-623
-150
872
85
-996
-511
1000
46
305
204
-247
216
1000
-583
-191
1000
669
-1000
49
-1000
1000
-1000
822
-481
-399
-1000
-1000
375
-90
403
914
394
-1000
438
534
188
-473
-229
-1000
149
-134
-461
1000
1000
-114
-1000
259
-528
1000
-1000
377
1000
604
1000
-323
544
896
-159
-662
-741
77
549
934
-1000
-911
1000
-1000
731
-1000
-1000
-864
373
-1000
1000
-523
321
-1000
1000
390
-90
285
-1000
1000
-655
71
-298
368
-1000
-91
667
-321
421
-56
1000
-1000
-1000
-546
674
370
-758
297
546
-1000
1000
373
201
1000
633
179
945
-255
-1000
-1000
335
-561
1000
765
-649
-1000
185
829
-35
-104
1000
996
1000
712
-1000
-743
-153
533
-1000
650
715
889
-1000
-1000
778
1000
828
-1000
96
201
-223
-560
-828
1000
-908
-1000
126
-440
-784
-920
365
739
-249
-1000
-1000
1000
253
-822
235
-282
-803
1000
575
369
1
1000
-888
1000
572
-504
-342
-834
123
466
133
1
1
1000
542
66
745
961
1000
-462
37
-230
-27
227
-277
-761
-169
325
-1000
-631
-112
-132
779
-449
-1000
-677
-368
-577
-918
-928
1000
1000
-226
-575
1000
-930
825
-1000
948
-1000
4
859
902
1000
-420
550
-1000
299
-812
-651
-460
-1000
-666
883
-528
1000
-675
-488
229
-502
513
531
383
-2
1000
-180
623
847
-401
1000
737
224
313
793
-918
-302
-64
-1000
-897
821
986
254
-317
-1000
-48
146
1000
-122
1000
410
489
-542
-11
1000
-116
906
-450
860
1000
-739
-35
6
-10
-395
-816
760
-1000
-1000
1000
-593
615
183
-652
-735
377
90
516
195
-1000
894
-717
-1000
493
-854
-891
-648
2
1000
367
-1000
-1000
811
245
-371
-824
1000
1000
191
-182
-1000
-982
257
365
-342
-885
40
212
27
186
341
1000
427
596
-740
-343
22
-122
-1000
-288
-684
451
-368
-278
-551
207
119
1000
707
-613
-1000
358
559
172
560
35
-822
-889
-56
845
-184
863
-278
1000
1000
1000
-927
-48
-835
438
-369
-314
581
634
-208
-1000
376
-1000
-697
-699
29
-100
362
-256
666
-135
-651
-1000
915
343
1000
554
-476
-977
1000
-29
-379
1000
684
-1000
-917
-839
-1000
623
590
-25
-280
-312
-1000
-811
1000
224
-177
-1000
485
1000
972
744
1000
-207
-885
-1000
-512
1000
-1000
751
-571
-738
-247
887
1000
-603
182
-765
342
830
1000
-1000
831
-1000
1000
1000
-637
-1000
-61
-159
820
1000
819
682
-367
-159
1000
0
-1000
800
-429
669
-350
-1000
-652
1000
597
1000
-600
-313
-305
1000
-378
126
1000
329
-633
159
20
1000
769
-1000
-809
-1000
-607
1000
-1000
-463
-412
-662
-420
-493
1000
-1000
-812
572
1000
-993
-1000
-151
102
397
208
-1000
375
-166
-638
-409
315
348
314
-193
379
-63
-247
582
123
-414
-105
956
-526
19
185
-881
1000
-1000
1000
418
565
1000
201
548
-580
-643
509
-689
-887
621
-1000
-1000
-106
-747
-102
-717
1000
864
-407
1000
471
-881
-938
1000
-848
1000
532
501
1000
1
-447
744
954
-371
-1000
-976
-524
-1000
-1000
-1000
-380
-847
663
1000
392
1000
-104
-57
-489
83
-1000
-119
-1000
-599
-543
1000
570
393
1000
946
-1000
-93
-1000
-960
33
1000
-288
-110
-792
-150
872
85
-996
-511
1000
46
305
204
-247
216
1000
-583
-191
1000
669
-1000
199
-1000
1000
-1000
742
-481
-755
-1000
-1000
375
-722
403
914
394
-1000
1000
-565
529
-473
-229
-1000
419
-1000
-461
1000
1000
-39
-872
259
-528
1000
-1000
167
1000
604
331
-323
544
969
-1000
-662
-1000
816
549
1000
-666
-1000
1000
-686
875
-1000
-986
-864
373
-1000
1000
-784
321
-1000
1000
472
182
285
-1000
271
-505
338
-298
546
-1000
-91
271
-321
174
195
380
-1000
-757
-422
674
370
-758
1000
546
-1000
1000
373
201
1000
633
179
945
-255
-192
-1000
-18
-561
437
501
-1000
-971
-141
829
-35
-104
1000
996
1000
712
-1000
-743
-153
533
-1000
650
1000
570
-979
-1000
839
1000
664
-1000
535
-1000
430
-560
-828
1000
-908
-1000
-209
-440
-784
-920
365
739
-249
-1000
-1000
801
-242
-822
235
-282
-592
1000
185
369
1
226
-888
1000
572
-504
-342
-834
123
466
133
1
1
1000
261
57
745
961
724
25
37
-230
-277
227
267
-13
-169
325
-1000
-703
-872
-91
757
-449
-1000
-677
-368
-585
-918
-928
1000
1000
245
-575
1000
-930
825
-492
-1000
-1000
-950
455
902
1000
-532
-183
-881
299
-812
-651
-247
-1000
-666
883
-528
1000
-675
-488
229
-502
513
531
383
-2
1000
152
-421
662
-619
1000
737
-412
313
-22
-1000
-1000
-726
-1000
-897
1000
436
254
198
-1000
-352
146
1000
-393
809
410
489
-542
-637
1000
-116
906
-396
860
1000
-739
-35
-145
-347
150
-816
760
-1000
-1000
1000
-593
615
289
-1000
-884
377
-754
1000
700
-514
957
-717
-1000
223
-530
-891
-354
-309
1000
367
-754
-363
811
245
-371
-558
1000
1000
-404
-182
-1000
-982
257
365
-342
-885
40
212
30
186
282
183
427
-442
-864
3
166
-253
-1000
-149
-684
451
-368
-278
-551
207
119
1000
707
-613
-1000
358
559
172
-133
-85
-822
-1000
-56
1000
-914
863
-278
1000
1000
815
-927
-372
-1000
438
-369
-314
751
634
-1000
-394
376
-1000
755
-699
29
-100
362
578
666
-135
-651
-1000
915
343
907
222
-1000
-977
586
-29
-667
1000
1000
-1000
-864
-59
-836
623
346
-61
-908
-101
-530
-688
1000
454
-180
-1000
-384
1000
626
1000
-345
-973
19
-926
-1000
437
-1000
751
-1000
-141
-454
376
552
-121
182
-380
-43
1000
1000
-367
902
-640
1000
1000
-556
-1000
-590
-766
1000
1000
819
682
-367
-159
632
-146
-1000
1000
-458
715
-1000
-1000
-279
815
597
1000
-600
-798
-305
1000
-378
769
1000
329
-633
159
20
1000
759
-1000
-809
-1000
-317
969
-1000
-463
-412
-662
-750
-493
1000
-1000
-450
-370
1000
-560
-1000
43
102
368
208
-1000
375
188
-512
-409
315
348
307
-193
379
-63
-247
582
123
-414
-105
956
-526
27
185
-963
1000
-1000
1000
762
709
349
201
548
-1000
-4
509
-565
-887
621
-659
-869
-902
-747
-102
-1000
1000
565
-407
985
1000
-881
-938
1000
-848
1000
532
501
1000
1
-447
902
954
-20
-1000
-976
-524
-1000
-1000
-126
-62
-847
663
1000
392
1000
-104
-57
-348
83
-1000
-426
-1000
-301
-543
1000
375
430
-499
778
-1000
-586
-1000
-1000
-103
1000
277
653
-623
-150
872
85
-996
-511
1000
46
305
396
-329
216
1000
-583
-191
1000
669
-1000
199
-1000
1000
-1000
822
-481
-219
-1000
-1000
375
-722
403
914
394
-1000
438
534
188
-473
-229
-1000
149
-134
-461
1000
1000
-114
-1000
259
-528
1000
-1000
377
1000
604
1000
-323
544
896
-159
-662
-741
77
879
934
-1000
-911
464
-1000
731
-1000
-1000
-864
733
-469
1000
-523
321
-1000
1000
390
182
285
-1000
1000
-655
71
-850
368
-1000
-91
1000
-321
421
120
1000
-1000
-757
-546
674
370
-758
297
546
-1000
1000
647
201
1000
633
-168
945
-255
-192
-1000
-18
-561
437
501
-1000
-971
-141
829
-35
-104
1000
996
1000
712
-1000
-743
-153
533
-1000
650
715
1000
-1000
-1000
1000
1000
828
-1000
547
201
430
-560
-1000
1000
-1000
-1000
227
-440
-784
-920
289
739
-249
-1000
-1000
801
-242
-822
235
-282
-592
1000
185
369
1
226
-124
1000
572
51
-342
-834
123
466
133
480
1
1000
261
-57
745
961
1000
25
37
-230
-277
227
267
-13
-169
325
-1000
-1000
-872
-91
757
162
-1000
-677
-368
-585
-918
-928
1000
1000
245
-575
1000
-930
825
-492
-1000
-1000
4
-29
902
141
-968
550
-606
299
-988
-529
-247
-1000
-392
883
-528
1000
-675
-488
377
-502
513
531
197
-2
1000
152
-84
847
-826
193
737
224
313
-22
-918
-1000
-196
-1000
-897
997
436
254
198
-1000
-352
146
1000
-393
1000
410
489
-542
-11
1000
-116
906
-450
860
1000
-739
-35
6
-10
-395
-816
760
-1000
-1000
1000
-593
615
183
-786
-884
979
-754
1000
700
-514
957
-717
-875
-160
-854
-1000
-354
537
1000
367
-407
39
811
548
-50
-824
1000
1000
-404
-376
-1000
-982
257
-334
-342
-885
40
212
765
186
282
183
427
360
-740
3
566
-253
-1000
-149
-684
1000
-611
-1000
-551
-445
119
1000
1000
-613
-1000
358
559
-578
1000
35
-1000
-1000
-56
1000
-476
863
264
1000
1000
815
-927
-444
-1000
438
-369
-314
751
634
-1000
-1000
376
-1000
755
-699
29
-100
362
578
666
-135
-651
-1000
915
343
1000
222
-476
-977
1000
-29
-379
1000
684
-1000
-864
-626
-836
623
456
-25
-996
-312
-530
-688
1000
224
-94
-1000
-384
1000
626
1000
-345
-973
19
-926
-1000
940
-1000
751
-571
-141
-247
250
1000
-603
182
-260
-43
757
1000
-367
902
-640
1000
1000
-556
-1000
-736
-561
1000
1000
819
1000
-367
-159
632
-146
-1000
1000
-640
715
-1000
-833
-279
815
597
1000
-600
-798
-305
1000
-378
769
1000
329
-633
159
20
1000
759
-377
-809
-1000
-317
969
-1000
-463
-450
-662
-750
-493
1000
-1000
-450
-370
1000
-560
-1000
-151
102
368
61
-1000
375
-166
-328
-453
315
348
307
-193
1000
-63
-247
582
123
-414
-105
956
-526
27
185
-963
1000
-1000
1000
762
709
349
-267
548
-1000
-4
509
-1000
-887
621
-659
-934
-902
-747
-100
-1000
1000
565
-659
985
1000
-881
-938
1000
-848
1000
532
501
1000
1
-447
902
954
445
13
-662
-310
-1000
-1000
-266
-62
-1000
580
1000
870
1000
-104
-57
-489
83
-1000
-119
-1000
-301
-543
1000
375
229
-499
775
-1000
-586
-1000
-1000
283
1000
-100
81
-623
-150
872
85
-996
-511
1000
46
305
204
-247
216
1000
-583
-191
1000
669
-1000
49
-1000
1000
-1000
822
-481
-399
-1000
-1000
375
-90
403
914
394
-1000
438
534
188
-473
-229
-1000
149
-134
-461
1000
1000
-114
-1000
259
-528
1000
-1000
377
1000
604
1000
-323
544
896
-159
-662
-741
77
549
934
-1000
-911
1000
-1000
731
-1000
-1000
-864
373
-1000
1000
-523
321
-1000
1000
390
-90
285
-1000
1000
-655
71
-298
368
-1000
-91
667
-321
421
-56
1000
-1000
-1000
-546
674
370
-758
297
546
-1000
1000
373
201
1000
633
179
945
-255
-1000
-1000
335
-561
1000
765
-649
-1000
185
829
-35
-104
1000
996
1000
712
-1000
-743
-153
533
-1000
650
715
889
-1000
-1000
778
1000
828
-1000
96
201
-223
-560
-828
1000
-908
-1000
-209
-440
-784
-920
365
739
-249
-1000
-1000
1000
253
-822
235
-282
-592
1000
575
369
1
1000
-888
1000
572
-504
-342
-834
123
466
133
1
1
1000
261
58
1000
961
1000
25
37
-230
-277
175
267
-13
-169
325
-1000
-703
-872
-91
757
-449
-1000
-677
-368
-585
-918
-928
1000
1000
245
-575
1000
-930
825
-1000
-736
-1000
4
859
902
893
-1000
143
-649
299
-812
-439
-247
-1000
-666
883
-528
1000
-675
-488
229
-502
513
531
383
-2
1000
-180
199
847
-826
1000
737
224
313
-22
-918
-302
-196
-1000
-897
997
436
254
198
-1000
-352
146
1000
-393
1000
-59
757
-542
-11
1000
-116
906
-478
860
1000
-643
-35
6
-10
-395
-816
760
-1000
-1000
1000
-593
615
183
-786
-884
377
-754
1000
700
-514
957
-717
-1000
-198
-854
-894
-648
2
663
600
-800
-1000
811
245
597
-824
1000
1000
-404
-182
-1000
-982
257
-319
-303
-885
40
212
30
186
341
1000
427
596
-740
-343
22
-122
-1000
-288
-684
451
-368
-278
-551
207
119
1000
707
-613
-1000
358
559
172
560
35
-822
-889
-56
845
-184
863
-278
1000
1000
815
-759
-444
-1000
438
-759
-314
751
634
-1000
-1000
376
-1000
-697
-699
29
-100
362
-256
666
-135
-651
-1000
915
343
1000
222
-476
-977
1000
-29
-379
1000
684
-1000
-864
-626
-836
623
456
-25
-518
-312
-1000
-811
1000
224
-94
-794
-384
1000
972
1000
1000
-973
-885
-1000
-1000
729
-1000
1000
-571
-738
-247
887
1000
-603
182
-765
342
830
1000
-367
902
-640
1000
1000
-556
-1000
-736
-561
1000
1000
819
682
-367
-159
632
-126
-1000
1000
-458
715
-350
-1000
-279
1000
597
1000
-600
-313
-305
1000
-378
106
1000
329
-119
159
20
1000
759
-1000
-809
-1000
-317
519
-1000
-463
-412
-662
-750
-493
1000
-1000
-439
-370
1000
-560
-1000
-151
102
368
208
-1000
522
666
-394
-409
315
348
307
-193
379
-63
-247
582
123
-414
-105
956
-526
27
185
-963
1000
-579
1000
212
709
139
46
548
-1000
-4
674
-518
-935
621
-659
-869
-902
-747
-102
-1000
1000
565
-407
985
1000
-325
-825
1000
-1000
1000
532
1000
1000
153
-447
902
1000
-211
-1000
-976
-524
-1000
-1000
-1000
-380
-847
663
1000
392
780
-104
1000
-874
83
-1000
412
-264
-301
-543
494
375
229
247
1000
-1000
-586
-1000
-960
-103
1000
-100
-110
-623
-150
872
85
-996
-511
1000
46
305
204
-247
216
1000
-583
737
1000
669
-1000
199
-1000
657
-1000
822
-481
-813
-1000
-1000
375
-722
403
914
394
-1000
1000
-565
529
-473
-229
-1000
149
-134
-461
1000
1000
-114
-1000
259
-528
1000
-1000
377
1000
604
1000
-323
544
896
-159
-662
-741
-570
549
1000
-666
-1000
1000
-686
731
-1000
-1000
-864
373
-1000
1000
-523
321
-1000
1000
401
182
285
-1000
1000
-505
338
-298
546
-1000
-91
667
-321
421
-56
380
-1000
-757
-546
674
370
-758
1000
546
-1000
1000
373
201
1000
633
179
937
-755
-192
-1000
-18
-951
437
373
-1000
-971
-322
829
-35
-104
1000
996
781
712
-1000
-743
-153
533
-1000
168
1000
1000
-1000
-1000
840
1000
512
-1000
897
3
853
-560
-828
1000
-908
-1000
-209
-440
-784
-920
365
739
-249
-1000
-1000
1000
253
-822
235
-282
-592
1000
575
369
1
1000
-888
1000
572
-504
-342
-834
123
466
133
1
1
1000
261
-57
745
883
1000
-138
-321
-230
-277
227
267
-13
-169
325
-1000
-631
-872
-132
757
-449
-1000
-460
-414
-472
-918
-928
101
1000
201
-575
1000
-930
825
-1000
948
-1000
4
859
902
1000
-420
550
-1000
299
-812
-651
-460
-1000
-666
883
-528
1000
-675
-488
229
-502
513
531
383
-2
1000
-180
623
847
-401
1000
737
224
313
793
-918
-302
-64
-1000
-897
821
986
254
114
-1000
-352
146
1000
-393
1000
-155
221
-1000
512
1000
-507
906
-876
860
1000
-495
-35
-129
-10
-395
-1000
760
-1000
-1000
1000
-987
615
183
-652
-40
377
-208
516
195
-1000
1000
-634
-1000
493
-854
-891
-648
2
1000
367
-1000
-1000
811
245
-371
-824
1000
1000
191
-553
-1000
-1000
257
365
-342
-884
40
192
27
186
341
1000
900
596
-1000
1000
-148
-122
-1000
-288
-684
451
-368
-278
-551
207
119
1000
707
-613
-1000
358
559
172
-122
35
-1000
-192
-56
845
-184
863
-278
1000
1000
815
-927
-444
-1000
438
-369
-363
751
634
-1000
-1000
376
-1000
-697
-699
29
-100
362
-256
666
-135
-651
-1000
915
343
1000
36
-100
-977
772
-29
-379
1000
684
-812
-864
-839
-1000
623
456
-25
-518
-312
-1000
-811
1000
224
-94
-1000
-384
1000
972
1000
1000
-973
-885
-1000
-1000
437
-1000
751
-571
-738
-745
1000
814
-603
182
-765
342
830
-34
-1000
902
-393
1000
1000
-637
-1000
-736
-182
1000
1000
819
682
-367
-159
1000
0
-1000
800
-429
669
-350
-1000
-652
766
597
1000
-600
-1000
-305
1000
-307
126
684
329
-633
-598
-729
1000
759
-1000
-1000
-1000
-14
519
-727
-463
-596
-662
-420
-493
1000
-1000
-450
572
1000
-993
-1000
154
102
368
208
-1000
375
-481
-876
-591
315
348
314
-193
781
-63
-247
582
123
-414
-105
956
-526
27
185
-963
1000
-579
1000
212
709
139
201
548
-1000
-4
509
-565
-887
621
-1000
-1000
-513
-747
-102
-1000
623
565
-407
1000
1000
-881
-938
1000
-848
1000
532
259
1000
1
-164
744
1000
-211
-1000
-325
-524
-1000
-1000
-1000
-240
-847
663
1000
392
1000
-104
-57
-489
83
-1000
-119
-1000
-301
-543
1000
353
1000
797
946
-1000
-93
-1000
-960
845
1000
-100
260
-1000
-150
872
85
-996
-511
1000
46
305
204
-247
216
1000
-583
-191
1000
669
-1000
-181
-1000
1000
-1000
822
-481
-571
-1000
-1000
375
-722
403
914
394
-1000
1000
-565
529
-473
-229
-1000
149
-1000
-461
1000
1000
-114
-872
259
-528
1000
-1000
377
1000
604
1000
-323
544
896
-272
-662
-1000
77
392
1000
-666
-1000
1000
-686
1000
-1000
-986
-864
23
-1000
1000
-523
321
-1000
1000
401
182
285
-1000
1000
-505
338
-298
546
-1000
-91
667
-321
421
-56
380
-1000
-757
-546
833
370
-758
1000
546
-1000
1000
373
444
1000
1000
179
964
-255
13
-1000
-166
-1000
437
501
-828
-971
-141
1000
-35
-104
1000
1000
1000
1000
-1000
-743
256
533
-1000
650
715
570
-979
-1000
839
1000
664
-841
535
-884
430
-560
-828
1000
-908
-1000
-209
-440
-784
-920
365
739
-249
-1000
-1000
1000
253
-822
235
-282
-592
1000
575
369
1
1000
-888
1000
572
-504
-342
-834
123
466
133
1
1
1000
261
58
1000
961
1000
25
37
-230
-277
175
267
-13
-169
325
-1000
-703
-872
-91
757
-449
-1000
-677
-368
-585
-918
-928
1000
1000
245
-575
1000
-930
825
-1000
-736
-1000
4
859
902
893
-1000
143
-649
299
-812
-439
-247
-1000
-666
883
-528
1000
-675
-488
229
-502
513
531
383
-2
1000
-180
199
847
-826
1000
737
224
313
-22
-918
-302
-196
-1000
-897
997
436
254
198
-1000
-352
146
1000
-393
1000
-59
757
-542
-11
1000
-116
906
-478
860
1000
-643
-35
6
-10
-395
-816
760
-1000
-1000
1000
-593
615
183
-786
-884
377
-754
1000
700
-514
957
-717
-1000
-198
-854
-894
-648
2
663
600
-800
-1000
811
245
597
-824
1000
1000
-404
-182
-1000
-982
257
-319
-303
-885
40
212
30
186
341
1000
427
596
-740
-343
22
-122
-1000
-288
-684
451
-368
-278
-551
207
119
1000
707
-613
-1000
358
559
172
560
35
-822
-889
-56
845
-184
863
-278
1000
1000
815
-759
-444
-1000
438
-759
-314
751
634
-1000
-1000
376
-1000
-697
-699
29
-100
362
-256
666
-135
-651
-1000
915
343
1000
222
-476
-977
1000
-29
-379
1000
684
-1000
-864
-626
-836
623
456
-25
-518
-312
-1000
-811
1000
224
-94
-794
-384
1000
972
1000
1000
-973
-885
-1000
-1000
729
-1000
1000
-571
-738
-247
887
1000
-603
182
-765
342
830
1000
-367
902
-640
1000
1000
-556
-1000
-736
-561
1000
1000
819
682
-367
-159
632
-126
-1000
1000
-458
715
-350
-1000
-279
1000
597
1000
-600
-313
-305
1000
-378
106
1000
329
-119
159
20
1000
759
-1000
-809
-1000
-317
519
-1000
-463
-412
-662
-750
-493
1000
-1000
-439
-370
1000
-560
-1000
-151
102
368
208
-1000
522
666
-394
-409
315
348
307
-193
379
-63
-247
582
123
-414
-105
956
-526
27
185
-963
1000
-579
1000
212
709
139
46
548
-1000
-4
674
-518
-935
621
-659
-869
-902
-747
-102
-1000
1000
565
-407
985
1000
-325
-825
1000
-1000
1000
532
1000
1000
153
-447
902
1000
-211
-1000
-976
-524
-1000
-1000
-1000
-380
-847
663
1000
392
780
-104
1000
-874
83
-1000
412
-264
-301
-543
494
375
229
247
1000
-1000
-586
-1000
-960
-103
1000
-100
-110
-623
-150
872
85
-996
-511
1000
46
305
204
-247
216
1000
-583
737
1000
669
-1000
199
-1000
657
-1000
822
-481
-813
-1000
-1000
375
-722
403
914
394
-1000
1000
-565
529
-473
-229
-1000
149
-134
-461
1000
1000
-114
-1000
259
-528
1000
-1000
377
1000
604
1000
-323
544
896
-159
-662
-741
-570
549
1000
-666
-1000
1000
-686
731
-1000
-1000
-864
373
-1000
1000
-523
321
-1000
1000
401
182
285
-1000
1000
-505
338
-298
546
-1000
-91
667
-321
421
-56
380
-1000
-757
-546
674
370
-758
1000
546
-1000
1000
373
201
1000
633
179
937
-755
-192
-1000
-18
-951
437
373
-1000
-971
-322
829
-35
-104
1000
996
781
712
-1000
-743
-153
533
-1000
168
1000
1000
-1000
-1000
840
1000
512
-1000
897
3
853
-560
-828
1000
-908
-1000
-209
-440
-784
-1000
365
739
-249
-1000
-1000
1000
253
-944
314
-202
-592
1000
500
369
1
605
-888
1000
572
-504
-342
-834
123
466
133
168
159
1000
-749
260
794
693
1000
25
-134
-230
-277
919
456
-13
-169
325
-985
-575
-872
-91
757
-449
-1000
-677
-368
-585
-918
-928
1000
1000
245
-575
1000
-930
825
-1000
-736
-1000
-524
8
902
893
-492
1000
-1000
299
-812
-651
-247
-1000
-666
883
-528
1000
-675
-488
229
-1000
513
531
658
-2
279
-180
199
985
-976
1000
1000
182
576
-22
-918
-982
-196
-1000
-141
1000
436
-1000
650
-1000
-352
146
1000
-198
1000
410
964
-542
-376
1000
-116
906
-450
860
1000
-739
-323
-15
-10
-395
287
1000
540
-1000
1000
229
615
-104
-786
-955
377
-754
1000
700
-514
957
-717
-1000
-160
-854
-891
-777
112
1000
327
-1000
-992
303
264
-372
-824
578
1000
480
-182
-816
-982
257
365
-342
-372
40
15
30
186
341
1000
-374
-416
-740
-343
22
-122
-1000
-288
-684
-661
-368
-317
-245
207
119
1000
-180
-307
-352
358
559
172
560
35
-822
-889
-56
845
-184
863
-278
1000
1000
200
-807
-234
-1000
1000
-369
473
1000
251
-1000
-1000
517
-241
-917
-699
29
-37
362
-256
666
-120
-475
-1000
1000
343
1000
222
-476
-977
1000
-284
-379
1000
869
-1000
-778
-626
-836
-30
969
-25
-518
-59
-1000
-1000
-426
1000
-696
-1000
-384
1000
5
1000
1000
-973
-840
-1000
-1000
1000
-1000
751
-571
-738
-247
887
1000
-603
182
-765
342
830
1000
-1000
358
-640
1000
1000
-371
-728
-1000
-441
1000
223
578
632
-642
499
650
-126
-1000
939
-1000
715
-350
-1000
-279
1000
239
1000
-600
-313
-305
563
-378
744
1000
329
-542
159
1000
832
-126
-982
-1000
-1000
-317
519
-1000
-85
761
-662
-750
-493
1000
-1000
36
-370
1000
-560
-125
-151
102
368
208
-1000
654
67
-522
-409
315
348
307
-193
379
-63
-247
582
123
-414
-105
956
-526
27
185
-963
1000
-579
1000
212
709
139
201
548
-822
-4
509
-565
-493
621
-1000
-745
-1000
-747
-106
-293
1000
-857
74
1000
1000
-881
330
1000
-1000
1000
532
-228
1000
1
-447
628
954
-211
-1000
-976
-669
-1000
-1000
-1000
-380
-847
319
1000
-847
1000
-845
-57
-489
83
-1000
313
-1000
-301
-543
1000
375
-346
247
1000
-1000
-883
-1000
-595
-103
1000
-774
-110
1000
-150
872
-461
-996
-555
379
320
-107
204
-247
216
1000
-583
-191
389
164
-1000
199
-905
1000
-1000
645
-481
-920
148
-1000
-370
349
403
914
394
-860
1000
-565
529
-473
-229
-1000
149
-24
-593
1000
339
-114
-707
747
-528
1000
-1000
377
1000
604
1000
398
544
896
-75
-662
-741
-693
549
1000
-1000
-1000
1000
-686
731
-483
-239
-340
373
-1000
876
-523
321
-1000
898
401
119
678
-1000
1000
-505
-476
-298
1000
-424
-91
667
-319
421
-56
950
-1000
-470
-546
252
370
-758
1000
546
-1000
803
252
63
1000
318
237
933
-1000
-192
-1000
-920
-1000
437
310
-1000
-971
-141
829
-35
-104
1000
1000
394
161
-1000
-743
425
533
-1000
650
-155
1000
-1000
-539
897
236
420
-1000
-189
-1000
1000
-560
-828
1000
-908
-1000
227
-440
-784
-920
365
739
-249
-1000
-1000
801
-242
-822
235
-282
-592
1000
185
369
1
226
-888
1000
572
-504
-342
-834
123
466
133
1
1
1000
99
30
745
961
1000
-159
37
492
-277
227
267
-13
-169
325
-1000
-703
-872
-91
757
-449
-1000
-677
-368
-585
-918
-928
781
1000
245
-575
1000
-930
825
-492
-1000
-1000
4
859
902
893
-420
550
-649
299
-73
-651
-247
-984
-666
1000
-528
1000
-161
-377
229
-502
1000
130
383
-2
1000
-236
-3
847
-826
193
737
224
313
-22
-918
-1000
-196
-1000
-897
997
436
254
198
-1000
-352
1000
502
82
1000
410
784
-542
-11
1000
-116
906
-167
781
1000
-739
-35
6
-10
-395
-816
760
-1000
-1000
1000
-593
615
183
-786
-884
979
-754
1000
700
39
957
-717
-469
-160
-1000
-1000
-354
2
1000
367
-407
39
811
548
-371
-824
1000
1000
-404
-182
-1000
-982
257
686
-342
-885
40
228
30
186
282
183
427
360
-740
3
566
-253
-1000
-149
-684
451
-921
-1000
-551
-445
119
1000
363
-613
-1000
358
559
158
560
35
-822
-1000
-56
1000
-476
863
-278
1000
1000
815
-927
-444
-1000
438
-369
-314
751
634
-1000
-1000
376
-1000
755
-699
29
-100
362
578
666
-135
-651
-1000
915
343
1000
222
-476
-1000
75
-29
-379
1000
571
-337
-412
-626
-836
1000
456
-162
-996
-312
-530
-688
1000
224
-94
-1000
-384
1000
612
1000
-345
-973
19
-926
-1000
-845
-1000
751
-571
-141
-513
-274
1000
-603
-252
-152
-43
757
1000
-367
902
-640
1000
1000
-556
-1000
-736
-561
1000
1000
819
1000
-367
-159
632
-146
-1000
1000
-640
715
-1000
-833
-279
815
597
1000
-600
-798
-305
1000
-378
769
1000
329
-633
159
20
1000
759
-1000
-809
-1000
-317
969
-1000
-463
-412
-662
-750
-493
1000
-1000
-498
-370
1000
-560
-1000
-151
561
368
-253
-1000
375
-166
-474
-409
315
113
307
-193
379
-63
-247
582
123
-414
-105
956
-526
27
185
-963
1000
-952
1000
762
709
349
14
144
-1000
634
509
-565
-887
621
-659
-869
-902
-747
-102
-1000
1000
565
-407
985
1000
-634
-553
1000
-848
1000
293
501
1000
1
-1000
559
954
-20
-1000
-662
-310
-1000
-1000
-266
-262
-383
663
1000
82
1000
-104
-57
-489
83
-1000
-119
-1000
-301
-543
1000
375
229
-499
481
-1000
-586
-1000
-1000
-1000
1000
-100
81
-623
-150
872
85
-996
-511
1000
46
305
204
-247
216
1000
-583
-191
1000
669
-1000
220
-1000
164
-1000
535
-481
-219
-1000
-1000
375
-722
403
914
394
-1000
438
534
188
-473
-229
-1000
149
-134
-461
1000
1000
-114
-1000
259
-528
1000
-1000
377
1000
604
1000
-323
544
896
-159
-662
-741
77
549
660
-1000
-620
234
-1000
1000
-484
-1000
-864
-45
-1000
1000
33
321
-1000
1000
390
182
285
-1000
1000
-655
71
-298
368
-1000
-553
667
-321
421
-56
1000
-1000
-1000
-546
674
370
-758
418
546
-1000
1000
373
201
1000
633
179
945
-255
-192
-1000
335
-561
-15
765
-804
-1000
-141
829
-35
-104
1000
996
1000
712
-1000
-743
-153
533
-1000
650
715
889
-1000
-1000
778
1000
828
-1000
547
201
-223
-560
-828
1000
-908
-1000
-209
-440
-784
-920
365
739
-249
-1000
-1000
1000
253
-822
235
-371
-494
1000
575
369
-65
1000
-888
1000
572
-504
-342
-834
123
466
133
1
1
1000
1000
-93
228
377
1000
580
37
-282
-918
222
873
802
-169
325
-1000
-703
-490
-91
757
-449
-1000
-1000
-353
-607
-918
-928
1000
699
245
-575
1000
-930
1000
-1000
-736
-1000
-192
1000
1000
893
-533
259
-619
1
-521
307
-453
-1000
-976
883
498
1000
317
-488
-356
-502
282
531
-382
-2
1000
-180
199
847
-1000
1000
1000
97
313
-22
-918
396
-415
-289
-141
997
409
-1000
-548
534
-485
-223
1000
-198
1000
674
489
-542
-11
1000
-116
906
-836
1000
860
-1000
-35
6
-10
-566
-1000
602
-1000
-1000
543
-820
1000
820
-786
-884
377
-754
504
665
-514
1000
-717
-1000
-160
-854
-513
-955
-54
1000
558
-612
-1000
759
245
-371
-576
1000
672
480
-182
-816
-1000
827
365
-342
-372
40
15
30
186
341
1000
427
742
-740
-343
22
-122
-1000
-288
-684
-187
-368
-317
-29
207
501
1000
-89
-307
-1000
358
559
172
560
35
-1000
-889
151
845
-184
540
-278
1000
1000
451
-821
251
-1000
825
-369
465
1000
391
-1000
272
517
-888
-697
-699
29
-100
362
-256
666
-669
-415
-1000
626
343
1000
222
-82
-977
1000
779
-379
1000
800
-1000
-778
-469
-836
623
456
-47
-51
-312
-638
-1000
1000
344
-94
-1000
-384
1000
972
1000
932
-973
-885
-1000
-1000
366
-1000
751
-571
-738
-558
887
1000
-613
182
-765
-779
830
1000
-367
917
-640
749
74
-556
-1000
-736
-561
1000
1000
819
682
-367
-159
632
842
-1000
1000
-1000
331
484
-1000
-279
1000
93
900
-600
-382
-927
1000
-378
1000
1000
218
-1000
159
404
1000
759
-1000
-338
-1000
-317
519
-1000
-85
212
-822
-750
-493
1000
-484
-582
-207
1000
-560
-260
-476
407
368
208
-1000
375
-510
-853
-409
315
348
307
-193
379
829
-686
582
242
-1000
-105
956
-526
27
185
-963
1000
-390
580
247
709
139
201
548
-1000
-409
509
-565
-468
621
-634
-869
-902
-608
363
-1000
884
326
-407
1000
1000
-881
-973
1000
-848
459
532
501
159
994
-427
902
954
177
-1000
83
-129
-1000
-1000
-407
-317
-847
663
1000
392
1000
-104
-57
-1000
343
-1000
-694
-1000
-1000
-543
1000
375
229
247
893
-1000
-1000
-865
-726
154
988
-896
-110
-739
369
872
488
-996
-512
1000
-716
1000
204
-247
216
1
-583
-191
1000
669
-1000
199
-1000
1000
-1000
822
-481
-219
148
-602
-370
349
244
879
-655
-1000
1000
-863
670
-473
560
-1000
295
-134
-461
1000
1000
-114
-1000
88
-111
1000
-1000
-38
1000
604
1000
-542
544
896
-159
-960
-741
77
1000
907
-1000
-1000
1000
-686
731
-859
-443
-1000
373
-1000
1000
-523
1000
-531
1000
118
182
115
-1000
1000
-505
338
932
546
-1000
396
519
-463
334
-228
160
-955
-256
-404
252
370
-758
1000
546
-1000
1000
373
63
1000
318
237
1000
-255
-192
-1000
284
-831
-71
501
-1000
-752
-141
829
-31
-104
1000
996
1000
712
-1000
-743
-835
679
-891
650
715
1000
-1000
-1000
1000
1000
173
-1000
115
-1000
430
-560
-828
1000
-908
-863
-209
-440
-784
-784
365
739
-249
-1000
-1000
801
-242
-822
124
-282
-592
1000
185
369
1
226
-888
1000
572
-504
-342
-681
123
383
-185
93
1
1000
261
57
745
961
724
25
37
-230
-277
227
267
-13
-169
325
-1000
-703
-872
-91
757
-449
-1000
-677
-368
-585
-918
-928
1000
1000
245
-575
1000
-930
825
-492
-1000
-1000
-950
455
902
1000
-532
-183
-881
299
-812
-651
-247
-1000
-666
883
-528
1000
-675
-488
229
-502
513
531
383
-2
1000
152
-421
662
-619
848
750
-412
313
-451
-1000
-1000
-726
-1000
-897
1000
436
254
198
-1000
-352
146
1000
-393
906
410
878
-542
-637
1000
-116
900
-396
860
1000
-739
-35
-145
-347
150
-816
760
-1000
-1000
1000
-593
615
289
-1000
-884
377
-754
1000
700
-514
957
-717
-1000
223
-530
-891
-354
-309
1000
367
-754
-363
811
245
-371
-558
1000
1000
-404
-182
-1000
-982
257
335
-342
-885
40
-7
288
56
282
183
427
-442
-864
561
-348
-253
-1000
-149
-684
451
-368
-278
-551
207
119
1000
707
-613
-1000
358
559
172
-133
-85
-822
-1000
-56
1000
-914
863
-278
1000
1000
815
-927
-372
-1000
438
-369
-314
751
634
-1000
-394
376
-1000
755
-699
29
-100
362
578
666
-135
-651
-1000
915
343
907
222
-1000
-977
586
350
-667
1000
1000
-1000
-584
-59
-836
623
346
-61
-908
-101
-1000
-688
1000
454
-180
-1000
-384
1000
626
1000
-345
-973
19
-926
-1000
437
-1000
751
-1000
-155
-454
376
552
-121
182
-380
-169
1000
1000
-367
902
-640
1000
1000
-556
-1000
-590
-766
1000
1000
819
682
-367
-159
632
-146
-1000
1000
-458
715
-1000
-1000
-279
815
597
1000
-600
-798
-305
1000
-378
769
1000
329
-633
159
20
1000
759
-1000
-809
-1000
-317
969
-1000
-463
-412
-662
-750
-493
1000
-1000
-450
-370
1000
-560
-1000
43
102
368
208
-1000
375
188
-512
-409
315
728
307
-1000
379
-63
-247
582
123
-414
-105
956
-526
27
185
-963
1000
-1000
1000
762
709
349
201
548
-1000
-4
509
-565
-887
621
-659
-869
-902
-747
-102
-1000
1000
224
-407
985
1000
-881
-938
1000
-848
1000
532
501
1000
1
-447
902
954
-20
-1000
-976
-524
-1000
-1000
-126
-62
-847
663
1000
392
1000
-104
-57
-348
83
-1000
-426
-1000
-301
-543
1000
375
430
-499
778
-1000
-586
-1000
-1000
-103
1000
277
653
-623
-150
872
85
-996
-511
1000
46
305
396
-329
216
1000
-583
-191
1000
669
-1000
199
-1000
1000
-1000
822
-481
-219
-1000
-1000
375
-722
403
914
394
-1000
438
534
188
-473
-229
-1000
149
-134
-461
1000
1000
-114
-1000
259
-528
1000
-1000
377
1000
604
1000
-323
544
896
-159
394
-1000
77
879
934
-1000
-911
464
-1000
731
-1000
-1000
-864
733
-469
1000
-1000
321
-1000
1000
390
182
285
-1000
1000
-655
71
-850
368
-1000
-91
1000
-321
421
120
1000
-1000
-757
-546
674
370
-758
297
546
-1000
1000
647
201
1000
633
-168
945
-255
-192
-1000
-18
-561
437
501
-1000
-971
-141
829
-35
1000
1000
996
1000
590
-1000
-743
-137
533
-1000
650
715
1000
-1000
-1000
1000
1000
828
-1000
547
201
430
-560
-828
1000
-908
-1000
-209
-440
-784
-920
365
739
-249
-1000
-1000
801
-242
-822
235
-282
-592
1000
185
369
1
226
-888
1000
572
-504
-342
-834
123
466
133
1
1
1000
261
57
745
961
724
25
37
-230
-277
227
267
-13
-169
325
-1000
-703
-872
-91
757
-449
-1000
-677
-368
-585
-918
-928
1000
1000
245
-575
1000
-930
825
-492
-1000
-1000
-950
455
902
1000
-532
-183
-881
299
-812
-651
-247
-1000
-666
883
-528
1000
-675
-488
229
-502
513
531
383
-2
1000
152
-421
662
-619
1000
737
-412
313
-22
-1000
-1000
-726
-1000
-897
1000
436
254
198
-1000
-352
146
1000
-393
809
410
489
-542
-637
1000
-116
906
-396
860
1000
-739
-35
-145
-347
150
-816
760
-1000
-1000
1000
-593
615
289
-1000
-884
377
-754
1000
700
-514
957
-717
-1000
223
-530
-891
-354
-309
1000
367
-754
-363
811
245
-371
-558
1000
1000
-404
-182
-1000
-982
257
365
-342
-885
40
212
30
186
282
183
427
-442
-864
3
166
-253
-1000
-149
-684
451
-368
-278
-551
207
119
1000
707
-613
-1000
358
559
172
-133
-85
-822
-1000
-56
1000
-914
863
-278
1000
1000
815
-927
-372
-1000
438
-369
-314
751
634
-1000
-394
376
-1000
755
-699
29
-100
362
578
666
-135
-651
-1000
915
343
907
222
-1000
-977
586
-29
-667
1000
1000
-1000
-864
-59
-836
623
346
-61
-908
-101
-530
-688
1000
454
-180
-1000
-384
1000
626
1000
-345
-973
19
-926
-1000
437
-1000
751
-1000
-141
-454
376
552
-121
182
-380
-43
1000
1000
-367
902
-640
1000
1000
-556
-1000
-590
-766
1000
1000
819
682
-367
-159
632
-146
-1000
1000
-458
715
-1000
-1000
-279
815
597
1000
-600
-798
-305
1000
-378
769
1000
329
-633
159
20
1000
759
-1000
-809
-1000
-317
969
-1000
-463
-412
-662
-750
-493
1000
-1000
-450
-370
1000
-560
-1000
43
102
368
208
-1000
375
188
-512
-409
315
348
307
-193
379
-63
-247
582
123
-414
-105
956
-526
27
185
-963
1000
-1000
1000
762
709
349
201
548
-1000
-4
509
-565
-887
621
-659
-869
-902
-747
-102
-1000
1000
565
-407
985
1000
-881
-938
1000
-848
1000
532
501
1000
1
-447
902
954
-20
-1000
-976
-524
-1000
-1000
-126
-62
-847
663
1000
392
1000
-104
-57
-348
83
-1000
-426
-1000
-301
-543
1000
375
430
-499
778
-1000
-586
-1000
-1000
-103
1000
277
653
-623
-150
872
85
-996
-511
1000
46
305
396
-329
216
1000
-583
-191
1000
669
-1000
199
-1000
1000
-1000
822
-481
-219
-1000
-1000
375
-722
403
914
394
-1000
438
534
188
-473
-229
-1000
149
-134
-461
1000
1000
-114
-1000
259
-528
1000
-1000
377
1000
604
1000
-323
544
896
-159
-662
-741
77
879
934
-1000
-911
464
-1000
731
-1000
-1000
-864
733
-469
1000
-523
321
-1000
1000
390
182
285
-1000
1000
-655
71
-850
368
-1000
-91
1000
-321
421
120
1000
-1000
-757
-546
674
370
-758
297
546
-1000
1000
647
201
1000
633
-168
945
-255
-192
-1000
-18
-561
437
501
-1000
-971
-141
829
-35
-104
1000
996
1000
712
-1000
-743
-153
533
-1000
650
715
1000
-1000
-1000
1000
1000
828
-1000
547
201
430
-560
-828
1000
-998
-1000
-209
-440
-784
-920
365
739
-249
-1000
-1000
801
-242
-822
235
-54
-670
1000
185
514
1
226
-1000
301
1000
-280
-718
-1000
90
466
133
984
1
1000
261
-57
897
1000
937
-656
37
-163
-277
227
267
-13
-169
325
-1000
-316
-872
-91
757
-449
-1000
-677
-368
-585
-918
-928
351
1000
198
-572
1000
-649
825
-492
-1000
-793
4
859
734
569
391
371
-1000
299
-812
-70
-247
-1000
-666
883
-528
1000
-675
-488
229
-502
513
531
383
-2
1000
152
-395
847
-826
1000
738
224
313
-22
-918
-1000
937
-1000
-1000
997
224
366
198
-1000
-352
146
1000
-393
396
410
489
-542
-11
995
-116
906
45
860
1000
-323
875
-366
99
-1000
-816
734
-899
-1000
825
-894
108
183
-786
-1000
377
-754
1000
282
-514
957
-717
-175
-160
-854
-891
-259
-177
1000
367
-24
-363
811
245
-371
-824
1000
921
-404
-182
-1000
-982
159
365
-342
-885
40
212
30
732
282
183
427
360
-742
3
151
-253
-1000
-532
-684
451
-368
-278
-551
162
119
1000
571
175
-1000
358
559
172
560
686
-822
-784
-497
1000
-646
863
-547
1000
1000
-170
-927
125
-176
415
-369
-1000
751
568
-1000
-1000
376
-1000
755
-699
29
-100
362
236
666
-135
-115
-1000
915
343
676
222
-476
-1000
1000
-29
358
953
167
-1000
-493
-626
-543
623
456
-25
-996
-312
112
-1000
758
224
1000
-1000
-552
1000
626
1000
-345
-973
19
-926
-1000
893
-1000
1000
-571
-141
-247
549
1000
-603
482
-342
-43
757
1000
-367
902
-1000
1000
939
-556
-1000
-736
-561
1000
512
819
682
-367
-159
632
-146
-1000
1000
-458
715
-1000
-1000
-279
770
1000
956
-511
-835
-305
1000
-378
1000
1000
337
593
287
-321
273
759
-1000
-809
-1000
-655
1000
-928
34
-412
-662
-750
-493
1000
-1000
-1000
-887
1000
-380
-1000
-151
102
1000
208
-1000
375
-166
563
-409
315
-7
307
-237
379
244
-49
756
486
-414
-222
956
333
27
927
-387
861
-1000
1000
762
709
349
201
548
-1000
-4
509
-565
-887
621
-659
-869
-902
-747
-102
-1000
1000
565
-407
985
1000
-1000
-938
1000
-848
1000
684
391
1000
636
-447
902
954
-20
-1000
-976
-524
-1000
-505
-60
-62
-847
-796
1000
392
1000
-93
-438
-489
83
-1000
-119
-402
140
-543
440
-459
229
-499
900
-1000
-586
-1000
-1000
-103
1000
-100
-110
-623
-150
872
85
-996
-511
1000
46
305
341
-247
216
1000
-482
472
1000
1000
-1000
1000
-1000
1000
-1000
902
-326
-219
-1000
-1000
614
-494
403
874
1000
-649
438
534
188
-473
194
-1000
149
664
-461
1000
1000
-363
-843
259
55
1000
-1000
377
308
604
1000
-323
544
896
-159
-665
-1000
77
549
1000
-1000
-911
1000
-1000
731
-1000
-1000
-864
261
-1000
1000
-544
1000
-1000
1000
390
1000
815
-1000
1000
-655
51
-454
169
-1000
-91
667
-321
862
-1000
1000
-1000
-599
-1000
674
370
-758
50
546
-833
431
373
-8
1000
633
179
1000
-221
-358
-638
-18
-1000
437
282
-1000
-941
-129
829
-35
-104
1000
996
273
1000
-1000
-395
-153
661
-1000
650
715
1000
-1000
-905
1000
551
828
-1000
547
201
430
-289
-828
1000
-908
-1000
227
-440
-784
-920
365
739
-249
-1000
-1000
801
-242
-822
235
-282
-592
1000
185
369
1
226
-888
1000
572
-504
-342
-834
123
466
133
1
1
1000
393
30
745
961
1000
-159
37
492
-277
227
267
-13
-169
325
-1000
-703
-872
-91
757
-449
-1000
-677
-368
-585
-918
-928
781
1000
245
-575
1000
-930
825
-492
-1000
-1000
4
859
902
893
-420
550
-649
299
-73
-651
-247
-984
-666
1000
-528
1000
-161
-377
229
-502
1000
130
383
-2
1000
-236
-3
847
-826
193
737
224
313
-22
-918
-1000
-196
-1000
-897
997
436
254
198
-1000
-352
1000
502
82
1000
410
489
-542
-11
1000
-116
906
-450
860
1000
-739
-35
6
-10
-395
-816
760
-1000
-1000
1000
-593
615
183
-786
-884
979
-754
1000
700
39
957
-717
-469
-160
-1000
-1000
-354
2
1000
367
-407
39
811
548
-371
-824
1000
1000
-404
-182
-1000
-982
257
365
-342
-885
40
212
30
186
282
183
427
360
-740
3
566
-253
-1000
-149
-684
451
-368
-1000
-551
-445
119
1000
363
-613
-1000
358
559
158
560
35
-822
-1000
-56
1000
-476
863
-278
1000
1000
815
-927
-444
-1000
438
-369
-314
751
634
-1000
-1000
376
-1000
755
-699
29
-100
362
578
666
-135
-651
-1000
915
343
1000
222
-476
-1000
75
-29
-379
1000
571
-337
-412
-626
-836
623
456
-25
-996
-312
-530
-688
1000
224
-94
-1000
-384
1000
612
1000
-345
-973
19
-926
-1000
-845
-1000
751
-571
-141
-247
887
1000
-603
182
-342
-43
757
1000
-367
902
-640
1000
1000
-556
-1000
-736
-561
1000
1000
819
1000
-367
-159
632
-146
-1000
1000
-640
715
-1000
-833
-279
815
597
1000
-600
-798
-305
1000
-378
769
1000
329
-633
159
20
1000
759
-1000
-809
-1000
-317
969
-1000
-463
-412
-662
-750
-493
1000
-1000
-498
-370
1000
-560
-1000
-151
561
368
-253
-1000
375
-166
-474
-409
315
113
307
-193
379
-63
-247
582
123
-414
-105
956
-526
27
185
-963
1000
-952
1000
762
709
349
14
144
-1000
634
509
-565
-887
621
-659
-869
-902
-747
-102
-1000
1000
565
-407
985
1000
-881
-938
1000
-848
1000
532
501
1000
1
-447
902
954
-20
-1000
-662
-310
-1000
-1000
-266
-3
-399
663
1000
82
1000
-104
-57
-489
83
-1000
-119
-1000
-301
-543
1000
375
229
-499
775
-1000
-586
-1000
-1000
283
1000
-100
81
-623
-150
872
85
-996
-511
1000
46
305
204
-247
216
1000
-583
-191
1000
669
-1000
220
-1000
164
-1000
535
-481
-219
-1000
-1000
375
-722
403
914
394
-1000
438
534
188
-473
-229
-1000
149
-134
-461
1000
1000
-114
-1000
259
-528
1000
-1000
377
1000
604
1000
-323
544
896
-159
-662
-741
77
549
806
-1000
-1000
1000
-1000
731
-484
-1000
-864
373
-1000
1000
33
321
-1000
1000
390
182
285
-1000
1000
-655
71
-298
368
-1000
-91
667
-321
421
-56
1000
-1000
-1000
-546
674
370
-758
418
546
-1000
1000
373
201
1000
633
179
945
-255
-192
-1000
335
-561
-15
765
-804
-1000
-141
829
-35
-104
1000
996
1000
712
-1000
-743
-153
533
-1000
650
715
889
-1000
-1000
778
1000
828
-1000
547
201
-223
-560
-828
1000
-908
-1000
-209
-440
-784
-920
365
739
-249
-1000
-1000
801
-242
-822
235
-282
-592
1000
185
369
1
226
-888
1000
572
-504
-342
-834
123
466
133
1
1
1000
261
57
745
961
724
25
37
-230
-277
227
267
-13
-169
325
-1000
-703
-872
-91
757
-449
-1000
-677
-368
-585
-918
-928
1000
1000
245
-575
1000
-930
825
-492
-1000
-1000
-950
455
902
1000
-532
-183
-881
299
-812
-651
-247
-1000
-666
883
-528
1000
-675
-488
229
-502
513
531
383
-2
1000
152
-421
662
-619
1000
737
-412
313
-22
-1000
-1000
-726
-1000
-897
1000
436
254
198
-1000
-352
146
1000
-393
809
410
489
-542
-637
1000
-116
906
-396
860
1000
-739
-35
-145
-347
150
-816
760
-1000
-1000
1000
-593
615
289
-1000
-884
377
-754
1000
700
-514
957
-717
-1000
223
-530
-891
-354
-309
1000
367
-754
-363
811
245
-371
-558
1000
1000
-404
-182
-1000
-982
257
365
-342
-885
40
212
30
186
282
183
427
-442
-864
3
166
-253
-1000
-149
-684
451
-368
-278
-551
207
119
1000
707
-613
-1000
358
559
172
-133
-85
-822
-1000
-56
1000
-914
863
-278
1000
1000
815
-927
-372
-1000
438
-369
-314
751
634
-1000
-394
376
-1000
755
-699
29
-100
362
578
666
-135
-651
-1000
915
343
907
222
-1000
-977
586
-29
-667
1000
1000
-1000
-864
-59
-836
623
346
-61
-908
-101
-530
-688
1000
454
-180
-1000
-384
1000
626
1000
-345
-973
19
-926
-1000
437
-1000
751
-1000
-141
-454
376
552
-121
182
-380
-43
1000
1000
-367
902
-640
1000
1000
-556
-1000
-590
-766
1000
1000
819
682
-367
-159
632
-146
-1000
1000
-458
715
-1000
-1000
-279
815
597
1000
-600
-798
-305
1000
-378
769
1000
329
-633
159
20
1000
759
-1000
-809
-1000
-317
969
-1000
-463
-412
-662
-750
-493
1000
-1000
-450
-370
1000
-560
-1000
43
102
368
208
-1000
375
188
-512
-409
315
348
307
-193
379
-63
-247
582
123
-414
-105
956
-526
27
185
-963
1000
-1000
1000
762
709
349
201
548
-1000
-4
509
-565
-887
621
-659
-869
-902
-747
-102
-1000
1000
565
-407
985
1000
-881
-938
1000
-848
1000
532
501
1000
1
-447
902
954
-20
-1000
-976
-524
-1000
-1000
-126
-62
-847
663
1000
392
1000
-104
-57
-348
83
-1000
-426
-1000
-301
-543
1000
375
430
-499
778
-1000
-586
-1000
-1000
-103
1000
277
653
-623
-150
872
85
-996
-511
1000
46
305
396
-329
216
1000
-583
-191
1000
669
-1000
199
-1000
1000
-1000
822
-481
-219
-1000
-1000
375
-722
403
914
394
-1000
438
534
188
-473
-229
-1000
149
-134
-461
1000
1000
-114
-1000
259
-528
1000
-1000
377
1000
604
1000
-323
544
896
-159
-662
-741
77
879
934
-1000
-911
464
-1000
731
-1000
-1000
-864
733
-469
1000
-523
321
-1000
1000
390
182
285
-1000
1000
-655
71
-850
368
-1000
-91
1000
-321
421
120
1000
-1000
-757
-546
674
370
-758
297
546
-1000
1000
647
201
1000
633
-168
945
-255
-192
-1000
-18
-561
437
501
-1000
-971
-141
829
-35
-104
1000
996
1000
712
-1000
-743
-153
533
-1000
650
715
1000
-1000
-1000
1000
1000
828
-1000
547
201
430
-560
-1000
1000
-1000
-1000
227
-440
-784
-920
289
739
-249
-1000
-1000
801
-242
-822
235
-282
-592
1000
185
369
1
226
-124
1000
572
51
-342
-834
123
466
133
480
1
1000
261
-57
745
961
1000
25
37
-230
-277
227
267
-13
-169
325
-1000
-1000
-872
-91
757
162
-1000
-677
-368
-585
-918
-928
1000
1000
245
-575
1000
-930
825
-492
-1000
-1000
4
-29
902
141
-968
550
-606
299
-988
-529
-247
-1000
-392
883
-528
1000
-675
-488
377
-502
513
531
197
-2
1000
152
-84
847
-826
193
737
224
313
-22
-918
-1000
-196
-1000
-897
997
436
254
198
-1000
-352
146
1000
-393
1000
410
489
-542
-11
1000
-116
906
-450
860
1000
-739
-35
6
-10
-395
-816
760
-1000
-1000
1000
-593
615
183
-786
-884
979
-754
1000
700
-514
957
-717
-875
-160
-854
-1000
-354
537
1000
367
-407
39
811
548
-50
-824
1000
1000
-404
-376
-1000
-982
257
-334
-342
-885
40
212
765
186
282
183
427
360
-740
3
566
-253
-1000
-149
-684
1000
-611
-1000
-551
-445
119
1000
1000
-613
-1000
358
559
-578
1000
35
-1000
-1000
-56
1000
-476
863
264
1000
1000
815
-927
-444
-1000
438
-369
-314
751
634
-1000
-1000
376
-1000
755
-699
29
-100
362
578
666
-135
-651
-1000
915
343
1000
222
-476
-977
1000
-29
-379
1000
684
-1000
-864
-626
-836
623
456
-25
-996
-312
-530
-688
1000
224
-94
-1000
-384
1000
626
1000
-345
-973
19
-926
-1000
940
-1000
751
-571
-141
-247
250
1000
-603
182
-260
-43
757
1000
-367
902
-640
1000
1000
-556
-1000
-736
-561
1000
1000
819
1000
-367
-159
632
-146
-1000
1000
-640
715
-1000
-833
-279
815
597
1000
-600
-798
-305
1000
-378
769
1000
329
-633
159
20
1000
759
-377
-809
-1000
-317
969
-1000
-463
-450
-662
-750
-493
1000
-1000
-450
-370
1000
-560
-1000
-151
102
368
61
-1000
375
-166
-328
-453
315
348
307
-193
1000
-63
-247
582
123
-414
-105
956
-526
27
185
-963
1000
-1000
1000
762
709
349
-267
548
-1000
-4
509
-1000
-887
621
-659
-869
-902
-747
-102
-1000
1000
565
-407
985
1000
-881
-938
1000
-848
1000
532
501
1000
1
-447
902
954
445
13
-662
-310
-1000
-1000
-266
-62
-1000
580
1000
870
1000
-104
-57
-489
83
-1000
-119
-1000
-301
-543
1000
375
229
-499
775
-1000
-586
-1000
-1000
283
1000
-100
81
-623
-150
872
85
-996
-511
1000
46
305
204
-247
216
1000
-583
-191
1000
669
-1000
49
-1000
1000
-1000
822
-481
-399
-1000
-1000
375
-90
403
914
394
-1000
438
534
188
-473
-229
-1000
149
-134
-461
1000
1000
-114
-1000
259
-528
1000
-1000
377
1000
604
1000
-323
544
896
-159
-662
-741
77
549
934
-1000
-911
1000
-1000
731
-1000
-1000
-864
373
-1000
1000
-523
321
-1000
1000
390
-90
285
-1000
1000
-655
71
-298
368
-1000
-91
667
-321
421
-56
1000
-1000
-1000
-546
674
370
-758
297
546
-1000
1000
373
201
1000
633
179
945
-255
-1000
-1000
335
-561
1000
765
-649
-1000
185
829
-35
-104
1000
996
1000
712
-1000
-743
-153
533
-1000
650
715
889
-1000
-1000
778
1000
828
-1000
96
201
-223
-560
-828
1000
-908
-1000
-209
-440
-784
-920
365
739
-249
-1000
-1000
801
-242
-822
235
-282
-592
1000
185
369
1
226
-888
1000
572
-504
-342
-834
123
480
133
1
1
1000
659
-57
850
961
1000
25
1000
-230
-277
227
976
-13
-169
325
-1000
-703
-872
-91
90
-449
-1000
-677
-368
-548
-918
-928
1000
1000
245
-575
1000
-930
825
-492
-1000
-1000
-950
455
902
1000
-532
-564
-881
299
-812
-651
-247
-1000
-666
719
-528
1000
-1000
-488
952
-502
513
531
383
-2
1000
-33
-421
662
-619
1000
737
-1000
-415
-131
-1000
-1000
-196
-1000
-897
1000
436
254
198
-1000
-352
146
1000
-393
809
410
489
-542
-637
1000
-116
906
-396
860
1000
-739
-35
222
-347
150
-28
760
-659
-1000
1000
978
615
-339
-786
-884
377
-754
1000
700
-514
957
-717
-1000
-160
-854
-891
-354
2
1000
367
-407
-363
811
245
-371
-824
1000
1000
-404
-182
-1000
-982
257
365
313
-885
292
212
30
186
282
183
427
360
-740
3
22
-253
-1000
-149
-684
451
-368
-278
-824
460
252
1000
707
-613
-781
358
559
172
560
35
-822
-889
-56
1000
-476
863
-278
1000
1000
1000
-927
-444
-1000
438
120
-314
1000
634
-1000
-1000
376
-1000
755
-699
29
-100
362
578
666
-135
-651
-1000
915
343
1000
222
-476
-977
647
-29
-379
1000
1000
-1000
-864
-59
-836
623
456
-25
-908
-312
-530
-688
1000
454
-180
-1000
-384
1000
626
1000
-345
-973
19
-926
-1000
437
-1000
751
-571
-141
-247
887
1000
-603
182
-342
-43
757
1000
-367
902
-204
621
1000
-556
-1000
-627
-834
1000
1000
974
682
-367
-159
632
-146
-1000
1000
-458
715
-1000
-1000
-279
815
597
1000
-600
-798
-305
1000
-378
769
1000
329
-633
159
20
1000
759
-1000
-209
-1000
-317
539
-1000
-463
-412
-662
-750
-493
1000
-1000
-450
-370
1000
-560
-1000
-151
102
368
208
-1000
375
-166
-328
-409
315
348
307
-193
379
-808
-247
582
123
-414
267
956
-526
27
53
-963
927
-1000
1000
762
709
349
201
548
-1000
-4
509
-565
-887
621
-659
-869
-902
-747
-102
-258
1000
496
-407
887
1000
-881
-938
1000
-848
1000
532
501
1000
1
-447
902
954
-26
-1000
-976
-524
-1000
-116
-126
-62
-974
663
1000
1000
1000
-104
-57
-489
83
-1000
-119
-1000
-867
-543
1000
375
430
-499
778
-1000
-586
-1000
-1000
-103
1000
277
653
-623
-150
872
85
-996
-511
1000
46
-57
-423
-329
216
1000
-583
-191
1000
669
-1000
199
-1000
1000
-1000
822
-481
-219
-1000
-1000
375
-722
403
632
452
-410
438
534
188
-473
-591
-1000
149
-134
-461
1000
1000
-114
-1000
259
-1000
690
-531
377
1000
864
1000
-323
544
896
-159
-662
-741
77
549
934
-1000
-911
464
-1000
731
-1000
-1000
-864
373
-1000
1000
-523
321
-1000
1000
390
182
285
-1000
1000
-655
71
-298
368
-1000
-91
667
-321
421
-56
1000
-1000
-757
-546
674
291
-758
297
329
-1000
1000
373
309
1000
633
179
945
-203
-192
-1000
-18
-561
437
501
-1000
-971
702
829
-35
-104
912
996
1000
712
-1000
-743
-332
533
-545
650
715
1000
-1000
-1000
1000
1000
828
-1000
547
201
430
-560
-828
1000
-908
-1000
-209
-440
-784
-920
365
739
-249
-1000
-1000
1000
253
-822
235
-371
-592
1000
575
369
1
1000
-888
1000
572
-504
-342
-834
123
466
133
1
1
1000
1000
-93
228
377
1000
580
37
-282
-918
222
873
802
-169
325
-1000
-703
-490
-91
757
-449
-1000
-1000
-353
-607
-918
-928
1000
699
245
-575
1000
-930
1000
-1000
-736
-1000
4
1000
1000
893
-533
259
-1000
1
-812
307
-453
-1000
-976
883
498
1000
317
-488
-356
-502
282
531
-382
-2
1000
-180
199
847
-1000
1000
1000
224
313
-22
-918
396
-477
-1000
-141
997
436
-1000
-548
534
-352
146
1000
-198
1000
674
489
-542
-11
1000
-116
906
-836
1000
860
-1000
-35
6
-10
-566
-1000
602
-1000
-1000
543
-820
1000
820
-786
-884
377
-754
504
665
-514
1000
-717
-1000
-160
-854
-513
-955
-54
1000
558
-612
-1000
759
245
-371
-576
1000
672
480
-182
-816
-1000
827
365
-342
-372
40
15
30
186
341
1000
427
596
-740
-343
22
-122
-1000
-288
-684
-187
-368
-317
-29
207
119
1000
314
-307
-1000
358
559
172
560
35
-1000
-889
151
845
-184
540
-278
1000
1000
451
-821
158
-1000
825
-369
465
1000
391
-1000
272
517
-888
-697
-699
29
-100
362
-256
666
-669
-415
-1000
626
343
1000
222
-82
-977
1000
779
-379
1000
800
-1000
-778
-469
-836
623
456
-47
-51
-312
-638
-1000
1000
344
-94
-1000
-384
1000
972
1000
932
-973
-885
-1000
-1000
366
-1000
751
-571
-738
-247
887
1000
-613
182
-765
-779
830
1000
-367
917
-640
749
74
-556
-1000
-736
-561
1000
1000
819
682
-367
-159
632
842
-1000
1000
-1000
331
484
-1000
-279
1000
93
900
-600
-382
-927
1000
-378
1000
1000
218
-1000
159
404
1000
759
-1000
-338
-1000
-317
519
-1000
-85
212
-822
-750
-493
1000
-484
-582
-207
1000
-560
-260
-476
407
368
208
-1000
375
-510
-853
-409
315
348
307
-193
379
829
-686
582
242
-1000
-105
956
-526
27
185
-963
1000
-390
580
490
709
139
201
548
-1000
-409
509
-565
-468
621
-634
-869
-902
-608
363
-1000
884
326
-407
1000
1000
-881
-973
1000
-848
459
532
501
159
994
-427
902
954
177
-1000
83
-129
-1000
-1000
-407
-317
-847
663
1000
392
1000
-104
-57
-1000
-159
-1000
-119
-1000
-1000
-543
1000
375
229
247
893
-1000
-1000
-865
-726
154
988
-896
-110
-739
-150
872
85
-996
-554
1000
46
1000
204
-247
216
1000
-583
-191
1000
669
-1000
199
-1000
1000
-1000
822
-481
-219
148
-602
-370
349
244
879
-655
-1000
1000
-863
670
-473
560
-1000
295
-134
-461
1000
1000
-114
-1000
88
-111
1000
-1000
-38
1000
604
1000
-542
544
896
-159
-961
-741
77
1000
907
-1000
-1000
1000
-686
731
-859
-443
-1000
373
-1000
1000
-523
1000
-531
1000
118
182
115
-1000
1000
-505
338
932
546
-1000
396
519
-463
334
-228
160
-955
-256
-404
252
370
-758
1000
546
-1000
1000
373
63
1000
318
237
1000
-255
-192
-1000
284
-831
-71
501
-1000
-752
-141
829
-31
-104
1000
996
1000
712
-1000
-743
-835
679
-891
650
715
1000
-1000
-1000
1000
1000
173
-1000
115
-1000
430
-560
-828
1000
-908
-1000
227
-440
-784
-920
365
739
-249
-1000
-1000
801
-242
-253
50
-282
-592
1000
185
369
1
226
-951
1000
572
-711
-342
-834
123
1000
619
-1000
1
566
261
-57
745
1000
1000
-255
37
-230
-277
227
267
-471
-169
316
-1000
-703
-872
-91
1000
-449
-1000
-677
-368
-585
-918
-928
1000
1000
245
-575
1000
-930
825
-492
-1000
-1000
4
859
902
893
-420
550
-649
299
-812
-651
-247
-1000
-1000
883
-528
1000
-675
-488
229
-502
-472
531
383
-2
1000
152
-84
847
-826
193
737
224
313
-22
-918
-1000
-196
-1000
-897
997
436
254
198
-1000
-352
146
1000
-393
1000
410
489
-542
-11
1000
-116
906
-450
860
1000
-739
632
6
-10
-395
-1000
27
-1000
-1000
1000
-593
615
183
-786
-1000
900
-754
1000
1000
-514
957
-717
-875
-160
-1000
-1000
-354
2
1000
367
-407
39
811
548
-371
-824
1000
1000
-404
-182
-1000
-982
600
365
-342
-637
40
212
30
186
282
183
427
360
-740
3
566
-253
-1000
-149
-684
-135
-368
-1000
-551
-709
119
1000
363
-613
-1000
358
559
158
560
35
-822
-1000
-56
1000
-476
863
-278
1000
1000
815
-927
-444
-1000
438
-369
-314
751
634
-1000
-1000
376
-1000
755
-699
29
-100
362
578
666
-135
-651
-1000
915
343
1000
222
-476
-977
1000
-29
-379
1000
684
-1000
-864
-626
-836
623
456
-25
-996
-312
-530
-688
1000
224
-94
-1000
-384
1000
626
1000
-345
-973
19
-926
-1000
437
-1000
751
-571
-141
-247
887
1000
-603
182
-342
-43
757
1000
-367
902
-640
911
552
-556
-1000
-1000
-561
1000
1000
819
1000
-367
-578
-193
-146
-1000
1000
-538
715
-1000
-833
-279
815
597
1000
-600
-798
-305
1000
-275
769
1000
329
-633
159
20
1000
759
-1000
-1000
-171
235
969
-730
-463
-412
-662
-750
-493
1000
-1000
-450
-370
1000
-560
-868
-151
102
368
208
-1000
375
-166
-328
-409
315
348
307
-193
379
-63
-247
582
123
-414
-105
956
-526
27
185
-963
1000
-1000
1000
762
183
349
201
1000
-811
-4
509
-565
-887
621
-659
-869
-902
-747
-102
-1000
484
565
-407
1000
1000
-881
-1000
1000
-848
1000
532
385
1000
1
-447
410
954
-20
-1000
-37
-310
-1000
-1000
-266
-284
-1000
663
-58
82
1000
-104
-57
-489
83
-1000
-119
-1000
-301
-543
1000
375
229
-499
775
-1000
-529
-1000
-1000
283
1000
-100
81
-623
-471
872
3
-996
-511
1000
46
305
204
-247
216
1000
-583
-191
1000
669
-1000
199
-1000
1000
-1000
822
-481
-219
-1000
-1000
375
-722
403
914
394
-1000
438
534
188
-473
-229
-1000
149
-134
-461
1000
1000
-114
-1000
259
-528
1000
-1000
377
1000
604
1000
-323
797
896
-159
-662
-3
77
549
934
-1000
-911
1000
-1000
731
-1000
-1000
-864
373
-1000
883
-523
321
-1000
1000
1000
1000
413
-1000
1000
-511
71
-298
368
-1000
-91
667
-321
421
-56
1000
-1000
-1000
-546
1000
-21
-296
297
378
-1000
1000
131
378
1000
633
179
945
-255
-192
-1000
656
-561
437
765
387
-553
-141
1000
533
-431
1000
996
1000
1000
-1000
-743
-153
533
-1000
650
715
889
-1000
-1000
778
1000
828
-1000
547
201
-223
-560
-828
1000
-908
-1000
-209
-440
-784
-920
365
739
-249
-1000
-1000
284
483
-601
600
-616
-592
1000
575
-148
1
1000
-888
1000
572
-504
-342
-834
123
466
133
1
1
1000
1000
-93
-82
377
1000
743
37
-282
-918
222
390
802
-169
325
-1000
-703
-490
-91
757
-449
-1000
-1000
-353
-607
-918
-928
1000
699
245
-575
1000
-930
825
-1000
-736
-1000
4
1000
1000
893
-533
259
-1000
1
-812
307
-453
-1000
-976
883
498
1000
317
-488
-356
-502
282
531
-382
-2
1000
-180
199
847
-1000
1000
1000
224
313
-22
-918
396
-477
-1000
-141
997
436
-1000
-548
534
-352
146
1000
-198
549
674
489
-1000
-11
1000
-110
906
-1000
1000
703
-1000
-35
6
-10
-566
-1000
602
-1000
-1000
543
-820
1000
820
-786
-884
377
-754
504
665
-514
652
-717
-1000
-160
-1000
-513
-955
-54
1000
558
-612
-1000
759
245
-371
-576
1000
1000
480
-182
-816
-1000
257
365
-342
-372
40
15
30
688
341
1000
427
596
-740
-343
22
-122
-1000
-288
-684
-187
-368
-441
-29
207
119
823
314
-307
-1000
358
559
172
560
35
-1000
-889
-56
845
-184
540
-278
1000
1000
451
-821
587
-1000
1000
-369
568
1000
323
-1000
364
665
-1000
-697
-699
29
-100
362
-256
666
-548
-415
-1000
626
343
1000
222
-82
-977
1000
779
-793
1000
693
-1000
-778
-626
-836
623
456
-47
-51
-312
-638
-1000
1000
344
-94
-1000
-384
1000
972
1000
943
-973
-885
-1000
-1000
366
-1000
751
-571
-820
-247
887
1000
-603
182
137
342
830
1000
-367
917
-640
564
74
-556
-1000
-736
-561
1000
1000
819
682
-367
-159
632
842
-1000
570
-1000
331
484
-1000
-279
1000
136
1000
-600
-239
-927
1000
-378
1000
655
-103
-1000
159
404
1000
759
-1000
-338
-1000
-317
519
-1000
-85
212
-283
-750
-493
1000
-571
-450
-167
1000
-560
-260
-476
407
368
208
-1000
375
-1000
-853
-409
315
348
307
-193
379
829
-686
582
242
-1000
-105
956
-526
27
185
-963
1000
-390
580
490
709
139
201
548
-1000
-409
509
-565
-468
621
-634
-869
-902
-608
363
-1000
884
326
-407
1000
1000
-881
-1000
944
-848
459
532
501
159
994
-427
1000
454
177
-1000
83
-129
-1000
-1000
-602
-317
-847
663
1000
392
1000
-104
-57
-1000
-159
-1000
-119
-1000
-301
-543
1000
545
229
247
893
-1000
-1000
-865
-726
154
988
-896
-110
-739
-150
872
85
-996
-554
1000
46
1000
204
-247
216
1000
-583
-191
1000
669
-1000
199
-1000
1000
-1000
822
-481
-219
148
-602
-370
349
-206
879
-655
-1000
1000
-1000
167
-473
483
-1000
149
-134
-461
1000
1000
-114
-345
-113
-111
1000
-1000
-38
1000
604
1000
-542
544
896
-159
-961
-741
77
1000
907
-1000
-1000
1000
-686
731
-859
-443
-1000
373
-1000
1000
-523
1000
-531
1000
-6
182
243
-1000
1000
-505
338
-238
546
-1000
685
736
-379
334
-228
380
-955
-256
-546
252
370
-758
1000
546
-1000
1000
373
63
1000
318
237
1000
-255
-192
-1000
1000
-831
-71
501
-1000
-752
-141
829
-31
-104
1000
996
1000
-50
-950
-743
-835
679
-891
185
715
1000
-1000
-1000
1000
1000
173
-1000
115
-1000
430
-560
-1000
1000
-908
-1000
-178
-440
-546
-1000
365
739
-249
-1000
-1000
801
-242
-822
235
-282
-592
1000
185
369
1
226
-888
1000
572
-504
-342
-834
123
480
133
1
1
1000
659
-57
542
1000
1000
25
1000
-239
-277
227
976
-71
-169
325
-1000
-703
-872
-91
90
-449
-1000
-677
-368
-548
244
-928
1000
1000
245
-547
1000
-930
825
-492
-1000
-1000
-950
455
902
1000
-532
-564
-881
299
-812
-651
-247
-1000
-666
719
-528
1000
-1000
-488
952
-502
513
531
383
-2
1000
-33
-421
662
-619
1000
737
-1000
-415
-131
-1000
-1000
-196
-1000
-897
1000
436
254
198
-1000
-352
146
1000
-393
809
410
489
-542
-637
1000
-116
906
-396
860
1000
-739
-35
222
-347
150
-28
760
-659
-1000
1000
978
615
-339
-786
-884
377
-754
1000
700
-514
957
-717
-1000
-160
-854
-891
-354
2
1000
367
-407
-363
811
245
-371
-824
1000
1000
-404
-182
-1000
-982
257
365
313
-885
292
212
30
186
6
183
427
360
-740
908
-306
-253
-1000
-234
-684
451
-368
-278
-1000
-39
252
1000
707
-613
-781
358
436
172
560
35
-822
-889
-56
1000
-476
863
-278
1000
1000
1000
-927
-444
-1000
981
120
-314
1000
634
-1000
-1000
376
-1000
755
-699
29
-100
362
578
666
-135
-651
-1000
915
343
1000
222
-440
-977
1000
-29
-379
1000
1000
-1000
-864
-59
-836
623
456
-25
-908
-312
-530
-688
1000
454
-180
-1000
-384
1000
626
1000
-345
-973
-626
-926
-1000
437
-1000
751
-571
-141
-247
887
929
-603
354
38
-43
757
552
-367
902
-204
621
1000
-556
-1000
-627
-834
1000
1000
974
682
-367
-159
632
-146
-1000
1000
-458
715
-1000
-1000
-279
815
597
1000
-600
-798
-305
1000
-378
769
1000
329
-633
159
20
1000
759
-1000
-209
-1000
-317
539
-1000
-463
-412
-662
-750
-493
1000
-1000
-450
-370
1000
-560
-1000
-151
102
368
208
-1000
375
-166
-328
-409
315
348
307
-193
379
-808
-247
582
123
-414
267
956
-526
27
53
-963
927
-1000
1000
762
709
349
201
548
-1000
-4
509
-565
-887
621
-659
-869
-902
-747
-102
-258
1000
496
-407
887
1000
-881
-938
1000
-848
1000
532
501
1000
1
-447
902
954
-26
-1000
-976
-1000
-1000
-116
-126
-62
-974
663
1000
1000
1000
-104
-57
-489
83
-1000
-119
-1000
-867
-543
1000
375
430
-499
778
-1000
-586
-1000
-1000
-103
1000
277
653
-623
-150
872
85
-996
-1000
1000
46
205
-423
-329
216
877
-583
-191
1000
669
-1000
199
-1000
1000
-1000
822
-481
-219
-1000
-1000
375
-722
403
632
452
-410
438
534
188
-473
-591
-1000
149
-134
-461
1000
772
88
-1000
259
-1000
690
-531
377
1000
864
1000
-323
544
896
-159
-662
-741
77
549
934
-1000
-911
464
-1000
731
-1000
-1000
-864
373
-1000
1000
-523
321
-1000
1000
390
182
285
-1000
1000
-655
71
-298
368
-1000
-91
667
-321
421
-56
1000
-1000
-757
-546
674
-276
-758
297
329
-1000
-170
373
309
1000
633
179
945
-203
-192
-1000
-18
-561
437
501
-1000
-971
702
829
-35
-104
912
996
1000
712
-1000
-743
-332
533
-545
650
715
1000
-1000
-1000
1000
1000
828
-1000
547
201
430
-560
-828
1000
-908
-1000
227
-440
-784
-920
365
739
-249
-1000
-1000
801
-242
-822
235
-282
-592
1000
185
369
1
226
-888
1000
572
-504
-342
-834
123
466
133
1
1
1000
261
-57
745
961
1000
25
37
-230
-277
227
267
-13
-169
325
-1000
-703
-872
-91
757
-449
-1000
-677
-368
-585
-918
-928
1000
1000
245
-575
1000
-930
825
-492
-1000
-1000
4
859
902
141
-420
550
-844
299
-812
-529
-247
-1000
-392
883
-528
1000
-675
-488
377
-502
513
531
197
-2
1000
152
-84
847
-826
193
737
224
313
-22
-918
-1000
-196
-1000
-897
997
436
254
198
-1000
-352
146
1000
-393
1000
410
489
-542
-11
1000
-116
906
-450
860
1000
-739
-35
6
-10
-395
-816
760
-1000
-1000
1000
-593
615
183
-786
-884
979
-754
1000
700
-514
957
-717
-875
-160
-854
-1000
-354
2
1000
367
-407
39
811
548
-371
-824
1000
1000
-404
-376
-1000
-982
257
-334
-342
-885
40
212
30
186
282
183
427
360
-740
3
566
-253
-1000
-149
-684
1000
-611
-1000
-551
-445
119
1000
1000
-613
-1000
358
559
345
560
35
-1000
-1000
-56
1000
-476
863
264
1000
1000
815
-927
-444
-1000
438
-369
-314
751
634
-1000
-1000
376
-1000
755
-699
29
-100
362
578
666
-135
-651
-1000
915
343
1000
222
-476
-977
1000
-29
-379
1000
684
-1000
-864
-626
-836
623
456
-25
-996
-312
-530
-688
1000
224
-94
-1000
-384
1000
626
1000
-345
-973
19
-926
-1000
940
-1000
751
-571
-141
-247
250
1000
-603
182
-260
-43
757
1000
-367
902
-640
1000
1000
-556
-1000
-736
-561
1000
1000
819
1000
-367
-159
632
-146
-1000
1000
-640
715
-1000
-833
-279
815
597
1000
-600
-798
-305
1000
-378
769
1000
329
-633
159
20
1000
759
-1000
-809
-1000
-317
969
-1000
-463
-412
-662
-750
-493
1000
-1000
-450
-370
1000
-560
-1000
-151
102
368
61
-1000
375
-166
-328
-453
315
348
307
-193
1000
-63
-247
582
123
-414
-105
956
-526
27
185
-963
1000
-1000
1000
762
709
349
-267
548
-1000
-4
509
-1000
-887
621
-659
-869
-902
-747
-102
-1000
1000
565
-407
985
1000
-881
-938
1000
-848
1000
532
501
1000
1
-447
902
954
-20
-1000
-662
-310
-1000
-1000
-266
-62
-1000
663
1000
870
1000
-104
-57
-489
83
-1000
-119
-1000
-301
-543
1000
375
229
-499
775
-1000
-586
-1000
-1000
283
1000
-100
81
-623
-150
872
85
-996
-511
1000
46
305
204
-247
216
1000
-583
-191
1000
669
-1000
199
-1000
1000
-1000
822
-481
-219
-1000
-1000
375
-722
403
914
394
-1000
438
534
188
-473
-229
-1000
149
-134
-461
1000
1000
-114
-1000
259
-528
1000
-1000
377
1000
604
1000
-323
544
896
-159
-662
-741
77
549
934
-1000
-911
1000
-1000
731
-1000
-1000
-864
373
-1000
1000
-523
321
-1000
1000
390
-90
285
-1000
1000
-655
71
-298
368
-1000
-91
667
-321
421
-56
1000
-1000
-1000
-546
674
370
-758
297
546
-1000
1000
373
201
1000
633
179
945
-255
-1000
-1000
335
-561
437
765
-649
-1000
185
829
-35
-104
1000
996
1000
712
-1000
-743
-153
533
-1000
650
715
889
-1000
-1000
778
1000
828
-1000
547
201
-223
-560
-828
1000
-908
-1000
-209
-440
-784
-920
365
739
-249
-1000
-1000
1000
253
-944
314
-202
-592
1000
500
369
1
605
-888
1000
572
-504
-342
-834
123
466
133
168
159
1000
-749
-57
485
961
1000
25
314
-230
-277
919
456
-13
-169
325
-985
-575
-872
-91
757
-449
-1000
-677
-368
-585
-918
-928
1000
1000
245
-575
1000
-930
825
-1000
-736
-1000
-524
8
902
893
-492
1000
-1000
299
-812
-651
-247
-1000
-666
883
-528
1000
-675
-488
229
-1000
513
531
658
-2
279
-180
199
985
-976
1000
1000
182
576
-22
-918
-982
-196
-1000
-141
1000
436
-1000
650
-1000
-352
146
1000
-198
1000
410
964
-542
-376
1000
-116
906
-450
860
1000
-739
-323
-15
-10
-395
287
1000
-766
-1000
1000
-238
615
-104
-786
-884
377
-754
1000
700
-514
957
-717
-1000
-160
-854
-891
-777
112
1000
327
-1000
-992
303
264
-372
-824
578
1000
480
-182
-816
-982
257
365
-342
-372
40
15
30
186
341
1000
427
596
-740
-343
22
-122
-1000
-288
-684
-661
-368
-317
-245
207
119
1000
-180
-307
-352
358
559
172
560
35
-822
-889
-56
845
-184
863
-278
1000
1000
200
-807
-234
-1000
1000
-369
473
1000
251
-1000
-1000
517
-241
-917
-699
29
-37
362
-256
666
-120
-475
-1000
1000
343
1000
222
-476
-977
1000
-284
-379
1000
869
-1000
-778
-626
-836
-203
783
-25
-518
-312
-1000
-1000
1000
1000
-478
-1000
-384
1000
5
1000
1000
-973
-840
-1000
-1000
1000
-1000
751
-571
-738
-247
887
1000
-603
182
-765
342
830
1000
-1000
358
-640
1000
1000
-371
-728
-1000
-441
1000
223
578
682
-367
499
1000
-126
-1000
939
-1000
715
-350
-1000
-279
1000
239
1000
-600
-313
-305
563
-378
744
1000
329
-542
159
1000
832
-126
-982
-1000
-1000
-317
519
-1000
-85
761
-662
-750
-493
1000
-1000
36
-370
1000
-560
-125
-151
102
368
208
-1000
654
67
-522
-409
315
348
307
-193
379
-63
-247
582
123
-414
-105
956
-526
27
185
-963
1000
-579
1000
212
709
139
201
548
-822
-4
509
-565
-493
621
-1000
-745
-1000
-747
-106
-293
1000
-857
74
1000
1000
-881
330
1000
-1000
1000
532
-228
1000
1
-447
628
954
-211
-1000
-976
-669
-1000
-1000
-1000
-380
-847
319
1000
-847
1000
-845
-57
-489
83
-1000
313
-1000
-301
-543
1000
375
-346
247
1000
-1000
-586
-1000
-595
-103
1000
-100
-110
-112
-150
872
85
-996
-511
1000
46
-107
204
-247
216
1000
-583
-191
389
164
-1000
199
-905
1000
-1000
645
-481
-920
148
-1000
-370
349
403
914
394
-860
1000
-565
529
-473
-229
-1000
149
-24
-461
1000
339
-114
-707
747
-528
1000
-1000
377
1000
604
1000
-323
544
896
-159
-662
-741
77
549
1000
-1000
-1000
1000
-686
731
-391
-1000
-340
373
-1000
876
-523
321
-1000
1000
401
182
678
-1000
1000
-505
338
-298
1000
-424
-91
667
-319
421
-56
950
-1000
-470
-546
252
370
-758
1000
546
-1000
803
252
63
1000
318
237
933
-1000
-192
-1000
-920
-1000
437
310
-1000
-971
-141
829
-35
-104
1000
1000
394
161
-1000
-743
425
533
-1000
650
-155
1000
-1000
-539
897
236
420
-1000
115
-1000
1000
-560
-828
1000
-998
-1000
-209
-440
-784
-920
365
739
-249
-1000
-1000
801
-242
-822
235
-54
-670
1000
185
514
1
226
-1000
301
1000
-280
-718
-1000
90
466
133
984
1
1000
261
-57
897
1000
937
-656
37
-163
-277
227
267
-13
-169
325
-1000
-316
-872
-91
757
-449
-1000
-677
-368
-585
-918
-928
351
1000
198
-572
1000
-649
825
-492
-1000
-793
4
859
734
569
391
371
-1000
299
-812
-70
-247
-1000
-666
883
-528
1000
-675
-488
229
-502
513
531
383
-2
1000
152
-395
847
-826
1000
738
224
313
-22
-918
-1000
937
-1000
-1000
997
224
366
198
-1000
-352
146
1000
-393
396
410
489
-542
-11
995
-116
906
45
860
1000
-323
875
-366
99
-1000
-816
734
-899
-1000
825
-894
108
183
-786
-1000
377
-754
1000
282
-514
957
-717
-175
-160
-854
-891
-259
-177
1000
367
-24
-363
811
245
-371
-824
1000
921
-404
-182
-1000
-982
159
365
-342
-885
40
212
30
732
282
