[-317, -165, -905, -300, -114, 338, 799, 203, -597, 942, -513, -397, 364, -477, -663, -317, 93, -524, -40, -595, 0, -271, -771, 534, -271, 339, -789, -433, -719, 462, -280, 711, -722, 281, 146, 264, 8, -254, -788, -795, -492, 525, -477, -634, -426, 884, -799, -979, -652, -482, 898, 937, 819, 610, 595, -344, -325, -964, -628, 823, -784, 99, -296, -291, 401, 590, 472, -921, 606, -648, -503, 643, -462, 12, 788, 663, 244, -862, -420, 34, 353, -74, -618, -655, -647, -598, -134, -408, 937, -915, -20, 899, 657, 448, -906, 164, -75, -935, 811, -57, 473, 702, 182, -687, 265, 193, -414, -849, -95, 15, -169, 70, 154, -21, -488, 794, 625, 302, -246, 273, 845, 62, -821, 565, -901, 386, 620, -233, -163, 574, -101, 399, 382, 570, -138, -838, 823, -548, -130, -226, 41, 506, -937, 364, -769, -264, 797, 465, -320, 175, 358, 637, 400, 261, -47, -962, 848, -238, 885, 277, 495, 658, -558, -6, -13, -125, -971, -984, -793, 978, -463, -300, 535, 811, -518, 316, -627, 964, -473, -802, -607, -457, 910, -400, 860, -982, 767, -903, -675, 859, -722, 46, -562, 801, -360, 894, -837, 5, -240, -762, -970, -7, 994, -701, -895, -606, -391, 841, -186, 678, 765, 114, 934, 98, 355, 248, 100, 361, 607, -516, -692, -783, -544, 370, -945, 808, -403, 551, -841, -314, -666, 377, -887, 280, -587, -247, -391, -858, 2, 468, 906, -771, -520, -704, 521, -583, 660, 737, -841, -325, -892, -846, 383, -113, 743, -999, -382, 270, -405, -665, -28, 490, -454, -348, 796, -120, 39, 885, -648, 465, -718, 55, 110, 560, 839, -297, -452, -575, 14, 171, -834, 103, -657, -454, 849, -372, 753, 126, -285, -534, 568, 389, 476, 64, -565, 163, 885, 620, 427, 264, -943, -959, -820, -240, 263, -863, -263, -929, 220, 362, -360, -18, -100, 867, 860, -471, -89, -968, 883, 536, 187, 764, 469, -898, -351, -301, 657, 408, -795, 450, -460, -53, 892, -559, -116, 250, 32, 750, -723, -730, -689, -588, -894, -465, 139, -850, -545, -738, -979, 714, -11, 831, -617, 960, -145, 35, 868, 224, -414, -230, -666, 858, 203, -274, -954, 113, -616, -696, -937, -273, -320, -685, -727, -291, -611, -366, -595, 109, 572, 808, -109, -294, 355, -787, 473, 490, -856, -437, 532, -296, 717, 118, -780, 563, -709, 507, 628, 641, 221, 915, -512, -774, 608, -812, 363, 353, 510, 375, 914, 797, -256, -199, 258, -346, 131, -137, 804, -361, 243, 7, -550, -724, -797, -736, -44, -76, -405, 819, -639, -491, -868, -943, -102, 178, 59, 4, 666, 95, -762, -620, -731, -160, 31, -72, 60, 625, 775, 75, 633, 982, -29, -391, 940, -567, 843, 376, -183, -378, -846, 967, 847, 65, 100, 142, 672, -519, 462, -648, 919, -437, -208, 300, 330, 134, -769, -779, -582, -421, 19, 403, 571, 996, 184, -79, -849, -632, -869, 803, -813, 151, 719, -509, 389, 887, 576, -119, -137, 863, -816, -431, -725, 908, 587, -557, -618, -553, -560, -791, 175, 133, -808, 742, 659, 115, -24, -744, -20, -882, 266, 589, 807, 124, -106, -808, 41, 470, -541, 455, -532, -214, 554, 332, 583, -610, 114, 546, 474, 841, -377, 494, -258, 535, -856, 258, -13, 195, -911, -323, -751, -838, -720, -638, -770, -27, 767, -404, 333, -849, 200, 307, 522, -575, -142, -920, 484, 965, -308, -860, 50, -552, -930, -574, 632, -743, 162, 688, -463, -103, -358, 643, -525, -139, 750, -588, 625, 324, -108, -174, 941, 744, 191, 386, 105, 575, -653, 799, -523, 520, -747, 36, 28, -919, -483, 92, -788, -607, -399, 387, 543, 372, 111, 380, 725, 123, -380, 273, 64, -328, 115, -954, -285, 805, -126, 229, -886, 882, 850, -855, -35, 829, 277, 89, 617, 338, -106, 263, 758, 913, -457, -679, 664, -571, -347, 764, 274, -13, 270, 846, 540, 534, -251, -518, 951, -610, -289, -974, 847, 884, 55, 733, -198, -372, -210, -314, -332, -126, 36, 662, -72, 840, -642, -559, 186, 271, -738, 280, -524, 757, -594, 491, 966, -314, 672, 952, -497, -110, -363, 234, -797, -723, 579, -830, 991, -786, -535, -920, 781, -690, 490, -676, 853, -928, 772, 304, -234, 117, 145, -329, -557, 602, 561, 734, 376, -512, -974, -289, 52, 222, 974, -105, -750, -500, 92, 757, -421, -592, -816, 362, -398, -250, 242, -315, 898, -565, 208, -312, -208, 460, -833, 68, -864, -196, 552, 133, 396, 380, 298, 937, -215, 516, -397, 211, -83, 66, -74, 946, 876, 221, 541, -470, 101, -905, 420, -627, -278, 601, 928, 832, -385, 36, 163, 758, -599, 588, -533, -65, -753, 771, 716, -215, 816, -23, 634, 195, 618, 405, 161, -55, -68, -430, 379, -345, 361, -914, 282, -584, 988, 125, -543, 952, 724, 316, -884, 535, 442, -175, 906, -45, -593, 879, 648, 321, 770, 484, 963, 304, -610, -329, 13, 925, -643, 834, -99, -120, 957, 176, -995, -437, 26, -672, 199, -232, -499, -387, -236, 357, 285, 301, 947, -539, -419, -5, 534, 628, 76, 871, -547, 511, -372, -117, 68, 380, -280, -878, -381, -153, -501, 718, 747, -101, -995, -42, 316, -639, -569, -387, 859, -834, 62, 684, 165, -673, -517, -27, 725, 136, -7, 300, 972, 773, 684, -562, -37, 650, -845, -666, 604, -9, 209, 307, -52, 520, 434, -811, -828, 877, -114, 912, -618, -39, -258, 788, 986, 363, 430, -608, -961, 505, -120, -847, -802, 214, -430, 543, -648, -43, -518, -603, -629, -327, -965, -873, 25, -408, -594, -312, 889, 508, -43, -400, -963, 28, -605, 724, 622, -255, -625, -483, -388, 105, 476, 890, 826, 294, -726, 893, 453, -111, 643, 938, 263, -211, -438, -340, -571, -548, -771, -136, -40, -74, -732, 970, 92, 730, 260, -84, -714, -317, 914, 260, -877, -939, -636, 310, 854, -129, 838, -536, 343, -345, -507, -375, 855, -428, 417, -413, 934, 570, -827, -475, 674, -63, -675, 718, 463, 834, 534, 823, -558, -260, 275, -291, 906, -43, 13, -375, 295, 470, -17, 784, -243, -36, -90, -36, 661, -665, 260, -866, -596, 847, 74, 127, -332, 915, 706, -535, -171, -10, 146, 866, 653, -460, -374, -35, -596, -332, 361, -289, 782, -202, -704, -910, -163, 822, 880, 688, -197, -137, -330, 941, 364, -886, -312, -731, -910, -652, 682, 278, 944, 926, 855, -137, 350, 231, 931, 748, -438, -897, 994, 251, -41, -588, -721, 714, -914, 269, -233, -336, -915, 486, -305, -50, -609, -913, -517, 319, 867, -178, 546, 509, 699, -503, 552, -304, -984, 334, -731, -239, 133, 994, -525, 389, -140, -654, -513, 897, -464, 593, 360, -222, -48, 552, -514, 740, 636, 656, 466, -152, 882, -889, 40, -920, -527, 10, -941, 553, 81, 337, 769, 999, -34, 485, -290, 401, 334, -972, -40, 716, 301, 292, -496, 309, 843, 826, 452, -307, -69, -403, 703, -660, -750, 503, -186, -240, -218, 200, -525, -872, -426, 255, 981, 399, -291, -772, 845, 695, 716, -988, 701, -606, 562, 163, 468, 14, -769, -133, 240, 976, 353, 755, 922, -586, -395, -226, 918, -338, 912, 814, 390, 698, 681, 314, -68, 451, -549, -672, -938, 390, -116, -690, 35, -524, -296, -457, -649, -820, 983, -381, 855, -813, -832, 118, 643, -772, -764, -326, 778, 607, -86, 54, 946, -922, 826, 757, -856, 644, 0, -253, -276, 907, -444, -801, -763, 174, 337, 797, -586, -483, -9, -279, -319, -769, -741, 329, -371, 591, -966, 818, 781, -488, 46, -895, 820, -200, 822, 79, -87, -916, -114, -45, -930, -588, -185, 616, -764, -978, -956, 145, -432, 867, -712, -291, 295, 831, 301, -102, -969, 763, 893, 706, -497, -881, -177, 816, -343, -572, -517, -929, 666, 636, -531, -336, 255, 736, 883, 666, 308, -765, -904, -713, 383, 433, 811, -621, -218, -504, -410, 453, 785, -210, -396, -1000, 310, 690, 754, 53, 645, -155, -65, 768, -673, -398, -990, 238, 579, -799, -99, -486, -195, 195, -631, 230, -693, 40, -948, -802, -665, -781, 876, -806, -21, 734, -762, -553, 877, -153, 851, -270, 633, 242, -239, 898, -540, 860, -423, 43, 649, -527, 414, 424, 849, 248, -409, -23, 838, 158, 742, 349, -56, 779, 107, 919, -155, -35, -345, 851, 35, -448, -724, 514, 49, 464, -843, -567, 296, -447, -971, 970, -405, 221, 238, -42, 201, 123, -954, 955, 198, 728, 798, 8, -619, -276, 800, 494, 427, -815, 640, -840, 911, -858, -255, 771, -48, 444, 370, 728, -444, 841, 412, 994, -350, -744, 637, -344, 430, -324, -173, 461, 142, 487, -464, -146, -205, 171, 554, 126, -47, 97, 834, 479, 358, -811, 444, 846, 202, 740, -775, -668, -313, -707, 463, -85, 906, -645, 831, -573, 64, -802, -396, 872, 828, -226, -509, 101, -242, -385, 56, 300, 681, 683, -622, 982, 380, -80, 552, -526, 757, 32, -322, 639, -572, -546, 89, -132, -630, -331, 941, -35, -172, 689, -210, -475, 594, 544, 282, -74, 528, -753, 108, -353, -958, 23, 619, 314, -391, 807, -22, -254, -918, -730, 689, -995, 164, 813, 720, -163, -7, -484, -278, -166, -284, 855, 988, 443, 365, -485, -721, -913, -85, -52, 891, 334, -710, 13, -204, 681, 974, -744, -519, -462, 420, -579, 677, -940, -4, -633, 737, 269, -44, -788, 965, 698, 821, 715, -453, 650, 96, -38, 959, 23]
[-1017415724, -1907220533, -1414594701, 1814260163, 1576327341, 15858966, -246158513, 835643591, 773427720, 134409445, 336405382, 1450500397, 1948156585, 862081960, -1153659849, -261891875, -1857103769, 1584925059, 839652503, -190686174, 1639356017, 2041215592, -1452413821, -1849657692, -1252447289, -641812911, 163668655, -1592830138, -1695868902, 1898842641, 1295960885, 2072144919, 1564384143, 2117760698, 937197086, 704272236, -516655, -1062246787, -1878666946, 1343386901, -275590406, -209504984, -405655084, 388758076, -1916524578, -1590194576, 1546321785, 1566256686, -836659074, -1157296122, 922346051, -2120058551, 1185348978, -1503501320, 1684627452, 1290920050, 1328049447, -1211734407, -1994869495, 2040922836, -1963067328, 163157217, -1212447566, 2140137241, -2112984217, -454411612, 478685045, 2026975799, 1848657879, 1019285163, -1100517574, 1368191358, -471189371, -599733341, 1970055944, 1363266576, 128055647, -596993810, -1671209943, -1489472744, -1141058178, -1579970152, -440257333, 2094107898, 552480038, 1337229871, -1951473890, 768275775, -1748996317, 1692426778, 1717226478, 1181849672, 1475330131, 702389650, -1385350104, -1814404115, -638932917, 349752694, -197968901, 1954667923, 16408788, 1801584247, -1843593159, 44467063, 613937927, -634592480, -726373581, -2129290159, -1699595516, -1705048428, 627056568, 1014040395, 2044126073, -1396094088, 1233564359, 1329685646, -1594241416, -1756680148, 1250361333, -1168436333, 1004845233, -1350001885, -745025789, -2055782263, 2002767953, 730614739, -1764241175, -1350182682, -1821120488, -326235571, 662476504, 701948871, -332780980, 1201566242, -632715282, -32004094, -205295171, 297414786, -18481300, 1303365683, 180449896, -456799068, 853040834, 2014945968, 832150147, -210374988, 1900319826, -1377255550, 1765765919, -184019676, 476650844, -324963965, 527724412, -713325551, 1085829958, -484080923, -1972219223, -583199399, 1767020039, -158255271, -1731877380, 317918798, 471205370, -1214324942, 1333016541, 982265542, -1266539370, -1203208495, -1173414376, -185225493, -960061256, 261264874, -483572798, -537990808, 223275612, 1432355888, 376803767, -749063714, 2013278943, 887017111, 302800117, 1538314346, 1913057989, -2100571960, 818724676, -1606670203, -1938019671, 688157651, -1388136782, 1826430250, 1702339725, -363225024, 2133107702, -1454576705, 251907113, 820607683, 1788191177, -1135445081, 1768823480, -595729992, -734229481, -1169061165, -1351645119, 48546608, -1632170595, 2101517704, -1112531637, 442550040, 226301029, 489534437, 1576736372, 1281875455, -1937030020, -393051289, 198110107, 500579457, -948085826, 1051501919, -68823672, -114504699, -1395729526, -1285137161, -785134584, -1294613395, -1903126823, -32187797, -1365229575, -2001609002, 1377794261, -89814087, 999758184, -1362593284, -714064612, -1546359295, -1893893015, -595969498, 712885649, -2086009043, 1252836828, -42411850, 617241818, 78395075, -1845193899, -2076813697, 1189631911, 92886868, -1587304902, -987389247, 1573834562, 372757244, 333286101, 227092438, -284160548, -1495493273, 77507663, 1249883283, -1024895498, -1839035084, -1965183820, 1776225846, 1081236790, 1890597751, -1230148470, -937069964, -1441353570, 1467440871, -1544795521, -486811724, 801795597, 397438438, -808542353, -79731890, 587053833, 684730446, 621905378, -209357710, -8310703, 1747111976, -18580336, -764906873, 677966090, 1395216721, 31973093, -560902604, -657707740, 271928122, -993150099, -1083436297, 1175463624, -208120065, -711991812, 1303890980, -1113443677, -737214597, -254778893, -1699318498, -1766944722, -2034587334, -1128015008, 1451658318, 603248695, 2009913219, 1473495158, -2080635718, 174041654, -1301923083, -1467744253, -326417185, 95310109, -1239549975, -1040245943, -1924187598, 219688577, 876099151, -1452503341, 1588873064, 70141073, 1348679901, 658451866, 939228610, 261050160, -1446708385, -1703088720, -2067558, 872642615, 2142317459, 638084805, 288257048, 917697077, -2056929536, 1601315566, 1138859290, 1036224998, 1260932318, 1744006362, -337770793, 1835488242, 2045907330, -463709909, -1980653912, 1375234025, 1184818781, -938775657, 1709025107, 591408130, 835761609, 675362250, 1809706710, -914667845, -958915064, -1779687186, -1412333384, -1884946173, -792956200, 1145674978, -1575453272, -1363389491, -1897451410, 866855550, -782155041, 1725283406, -890963612, -952250453, -1971634237, 1088320616, 1008599909, 243218476, -1448373546, 2091919602, -182403457, -992061060, -1967804963, 1420897829, 1377835702, 269446303, 1108831034, 2032658946, 1780920605, -1540501411, -115545510, -464003909, 1830498159, -1412662450, 973943977, -837224142, -1531075244, -58203891, -722680390, 902511498, 1624948503]
