-1342
546
-806
-1697
-1920
-745
-1520
-1631
-1589
-674
-650
-1703
-1698
-1699
-1736
-69
-1698
1590
-1679
957
260
1436
1528
813
-362
-288
1399
1013
-1751
1400
-751
-1731
1448
1637
1635
-1626
254
-69
-1614
155
-1353
165
1164
78
722
-1078
-1560
270
-1057
483
-1035
675
1413
-808
1375
1837
-1312
-501
3
257
1703
1225
-41
-683
1495
611
-485
1283
24
-1335
987
-323
285
417
-1761
-1262
535
1637
-1451
624
-267
179
1681
1565
-1051
644
-1492
-1592
-185
-1292
557
-798
261
-461
-859
-1202
-390
-220
523
-1267
783
-596
804
1085
-1310
-900
297
-208
-1462
-615
-913
-1650
706
-558
-631
1039
58
321
303
1115
-1495
777
524
1582
-1653
1445
-1262
-1644
23
-440
1524
-830
-345
-251
484
407
-542
-411
-707
431
-382
-838
-1110
1340
-1574
-1190
-1010
-4
1353
-1313
-1098
446
1440
-1055
54
-1289
1527
629
870
1419
637
152
485
-605
-291
704
-922
1332
1869
-1141
584
-1193
1548
-402
990
-39
738
-777
245
856
136
68
-1155
590
-1736
787
1252
-299
-1619
-822
1883
832
911
-304
-1698
1396
1014
486
1763
-539
-1777
-17
-43
1681
37
-1771
1655
1023
1809
-1561
-877
773
1178
-843
928
604
-384
-731
-399
359
-1125
402
1704
1178
-1692
1212
-1200
1584
1722
885
-919
1753
779
-64
1302
-927
-1582
-1441
1032
-1208
771
-318
-604
-1800
1066
-1000
-844
-434
-1732
-190
482
1129
1534
623
455
-1520
-1518
1263
1602
563
-431
-513
1121
-1590
603
-88
793
-72
-46
1606
-145
-155
-1505
-1540
1599
-1036
-611
583
1086
-427
-1030
1835
-1831
-1554
-1388
106
665
-43
-639
-280
-659
247
-777
634
-1342
546
-806
-1697
-1920
-744
-1519
-1631
-1590
-674
-649
-1703
-1698
-1699
-1737
-69
-1698
1590
-1679
957
260
1436
1528
813
-362
-288
1398
1013
-1751
1400
-751
-1730
1448
1637
1635
-1625
254
-69
-1614
155
-1353
165
1164
78
723
-1078
-1560
270
-1058
482
-1035
675
1413
-808
1375
1837
-1313
-501
4
257
1703
1225
-41
-683
1495
611
-484
1283
24
-1334
987
-323
286
417
-1761
-1262
535
1637
-1451
625
-267
179
1681
1565
-1052
644
-1491
-1592
-185
-1292
556
-797
261
-461
-859
-1202
-390
-220
523
-1268
783
-596
804
1085
-1310
-899
297
-207
-1462
-615
-913
-1651
706
-558
-631
1039
58
321
303
1114
-1495
777
524
1582
-1653
1445
-1262
-1644
23
-441
1524
-830
-345
-251
484
407
-542
-411
-706
431
-382
-838
-1110
1339
-1574
-1190
-1010
-4
1353
-1313
-1099
446
1440
-1055
55
-1289
1527
630
870
1419
637
152
485
-605
-292
704
-923
1332
1869
-1140
584
-1193
1547
-402
991
-39
738
-777
245
856
135
68
-1156
589
-1736
788
1252
-299
-1618
-822
1883
832
911
-304
-1698
1396
1014
486
1763
-539
-1777
-16
-43
1681
37
-1771
1654
1023
1809
-1560
-877
773
1178
-843
928
603
-384
-731
-400
359
-1125
402
1704
1178
-1693
1212
-1200
1585
1722
885
-919
1753
779
-64
1302
-927
-1582
-1441
1032
-1208
771
-318
-604
-1800
1066
-1000
-844
-434
-1732
-190
483
1129
1534
623
455
-1520
-1518
1263
1602
563
-431
-513
1122
-1590
603
-88
793
-73
-46
1607
-145
-155
-1505
-1539
1599
-1036
-611
583
1087
-427
-1030
1834
-1830
-1554
-1388
106
665
-43
-639
-280
-659
247
-777
634
-1342
546
-806
-1697
-1920
-745
-1520
-1631
-1590
-674
-650
-1703
-1698
-1699
-1737
-69
-1698
1590
-1679
957
260
1436
1528
813
-362
-288
1398
1013
-1751
1400
-751
-1731
1448
1637
1635
-1626
254
-69
-1614
155
-1353
165
1164
78
722
-1078
-1560
270
-1058
482
-1035
675
1413
-808
1375
1837
-1313
-501
3
257
1703
1225
-41
-683
1495
611
-485
1283
23
-1335
987
-323
285
417
-1761
-1262
535
1637
-1451
624
-267
179
1681
1565
-1052
644
-1492
-1592
-185
-1292
556
-798
261
-461
-859
-1202
-390
-220
523
-1268
783
-596
804
1085
-1310
-900
297
-208
-1462
-615
-913
-1651
706
-558
-631
1039
58
321
303
1115
-1495
777
524
1582
-1653
1445
-1262
-1644
23
-441
1524
-830
-345
-251
484
407
-542
-411
-707
431
-382
-838
-1110
1339
-1574
-1190
-1010
-4
1353
-1313
-1099
446
1440
-1055
54
-1289
1527
629
870
1419
637
152
485
-605
-292
704
-923
1332
1869
-1141
584
-1193
1547
-402
990
-39
738
-777
245
856
135
68
-1156
589
-1736
787
1252
-299
-1619
-822
1883
832
911
-304
-1698
1396
1014
486
1763
-539
-1777
-17
-43
1681
37
-1771
1654
1023
1809
-1561
-877
773
1178
-843
928
603
-384
-731
-400
359
-1125
402
1704
1178
-1693
1212
-1200
1584
1722
885
-919
1753
779
-64
1302
-927
-1582
-1441
1032
-1208
771
-318
-604
-1800
1066
-1000
-844
-434
-1732
-190
482
1129
1534
623
455
-1520
-1518
1263
1602
563
-431
-513
1121
-1590
603
-88
793
-73
-46
1606
-145
-155
-1505
-1540
1599
-1036
-611
583
1086
-427
-1030
1834
-1831
-1554
-1388
106
665
-43
-640
-280
-659
247
-777
634
-1342
546
-806
-1697
-1920
-745
-1520
-1631
-1590
-674
-650
-1703
-1698
-1699
-1737
-69
-1698
1590
-1679
957
260
1436
1528
813
-362
-288
1398
1013
-1751
1400
-751
-1731
1448
1637
1635
-1626
254
-69
-1614
155
-1353
165
1164
78
722
-1078
-1560
270
-1058
482
-1035
675
1413
-808
1375
1837
-1313
-501
3
257
1703
1225
-41
-683
1495
611
-485
1283
23
-1335
987
-323
285
417
-1761
-1262
535
1637
-1451
624
-267
179
1681
1565
-1052
644
-1492
-1592
-185
-1292
556
-798
261
-461
-859
-1202
-390
-220
523
-1268
783
-596
804
1085
-1310
-900
297
-208
-1462
-615
-913
-1651
706
-558
-631
1039
58
321
303
1115
-1495
777
524
1582
-1653
1445
-1262
-1644
23
-441
1524
-830
-345
-251
484
407
-542
-411
-707
431
-382
-838
-1110
1339
-1574
-1190
-1010
-4
1353
-1313
-1099
446
1440
-1055
54
-1289
1527
629
870
1419
637
152
485
-605
-292
704
-923
1332
1869
-1141
584
-1193
1547
-402
990
-39
738
-777
245
856
135
68
-1156
589
-1736
787
1252
-299
-1619
-822
1883
832
911
-304
-1698
1396
1014
486
1763
-539
-1777
-17
-43
1681
37
-1771
1654
1023
1809
-1561
-877
773
1178
-843
928
603
-384
-731
-400
359
-1125
402
1704
1178
-1693
1212
-1200
1584
1722
885
-919
1753
779
-64
1302
-927
-1582
-1441
1032
-1208
771
-318
-604
-1800
1066
-1000
-844
-434
-1732
-190
482
1129
1534
623
455
-1520
-1518
1263
1602
563
-431
-513
1121
-1590
603
-88
793
-73
-46
1606
-145
-155
-1505
-1540
1599
-1036
-611
583
1086
-427
-1030
1834
-1831
-1554
-1388
106
665
-43
-640
-280
-659
247
-777
634
-1342
546
-806
-1697
-1920
-745
-1520
-1631
-1590
-674
-650
-1703
-1698
-1699
-1737
-69
-1698
1590
-1679
957
260
1436
1528
813
-362
-288
1398
1013
-1751
1400
-751
-1731
1448
1637
1635
-1626
254
-69
-1614
155
-1353
165
1164
78
722
-1078
-1560
270
-1058
482
-1035
675
1413
-808
1375
1837
-1313
-501
3
257
1703
1225
-41
-683
1495
611
-485
1283
23
-1335
987
-323
285
417
-1761
-1262
535
1637
-1451
624
-267
179
1681
1565
-1052
644
-1492
-1592
-185
-1292
556
-798
261
-461
-859
-1202
-390
-220
523
-1268
783
-596
804
1085
-1310
-900
297
-208
-1462
-615
-913
-1651
706
-558
-631
1039
58
321
303
1115
-1495
777
524
1582
-1653
1445
-1262
-1644
23
-441
1524
-830
-345
-251
484
407
-542
-411
-707
431
-382
-838
-1110
1339
-1574
-1190
-1010
-4
1353
-1313
-1099
446
1440
-1055
54
-1289
1527
629
870
1419
637
152
485
-605
-292
704
-923
1332
1869
-1141
584
-1193
1547
-402
990
-39
738
-777
245
856
135
68
-1156
589
-1736
787
1252
-299
-1619
-822
1883
832
911
-304
-1698
1396
1014
486
1763
-539
-1777
-17
-43
1681
37
-1771
1654
1023
1809
-1561
-877
773
1178
-843
928
603
-384
-731
-400
359
-1125
402
1704
1178
-1693
1212
-1200
1584
1722
885
-919
1753
779
-64
1302
-927
-1582
-1441
1032
-1208
771
-318
-604
-1800
1066
-1000
-844
-434
-1732
-190
482
1129
1534
623
455
-1520
-1518
1263
1602
563
-431
-513
1121
-1590
603
-88
793
-73
-46
1606
-145
-155
-1505
-1540
1599
-1036
-611
583
1086
-427
-1030
1834
-1831
-1554
-1388
106
665
-43
-640
-280
-659
247
-777
634
-1342
546
-806
-1697
-1920
-745
-1520
-1631
-1590
-674
-650
-1703
-1698
-1699
-1737
-69
-1698
1590
-1679
957
260
1436
1528
813
-362
-288
1398
1013
-1751
1400
-751
-1731
1448
1637
1635
-1626
254
-69
-1614
155
-1353
165
1164
78
722
-1078
-1560
270
-1058
482
-1035
675
1413
-808
1375
1837
-1313
-501
3
257
1703
1225
-41
-683
1495
611
-485
1283
23
-1335
987
-323
285
417
-1761
-1262
535
1637
-1451
624
-267
179
1681
1565
-1052
644
-1492
-1592
-185
-1292
556
-798
261
-461
-859
-1202
-390
-220
523
-1268
783
-596
804
1085
-1310
-900
297
-208
-1462
-615
-913
-1651
706
-558
-631
1039
58
321
303
1115
-1495
777
524
1582
-1653
1445
-1262
-1644
23
-441
1524
-830
-345
-251
484
407
-542
-411
-707
431
-382
-838
-1110
1339
-1574
-1190
-1010
-4
1353
-1313
-1099
446
1440
-1055
54
-1289
1527
629
870
1419
637
152
485
-605
-292
704
-923
1332
1869
-1141
584
-1193
1547
-402
990
-39
738
-777
245
856
135
68
-1156
589
-1736
787
1252
-299
-1619
-822
1883
832
911
-304
-1698
1396
1014
486
1763
-539
-1777
-17
-43
1681
37
-1771
1654
1023
1809
-1561
-877
773
1178
-843
928
603
-384
-731
-400
359
-1125
402
1704
1178
-1693
1212
-1200
1584
1722
885
-919
1753
779
-64
1302
-927
-1582
-1441
1032
-1208
771
-318
-604
-1800
1066
-1000
-844
-434
-1732
-190
482
1129
1534
623
455
-1520
-1518
1263
1602
563
-431
-513
1121
-1590
603
-88
793
-73
-46
1606
-145
-155
-1505
-1540
1599
-1036
-611
583
1086
-427
-1030
1834
-1831
-1554
-1388
106
665
-43
-640
-280
-659
247
-777
634
-1342
546
-806
-1697
-1920
-745
-1520
-1631
-1558
-661
-634
-1703
-1695
-1699
-1737
-69
-1698
1590
-1679
957
260
1436
1528
813
-362
-288
1398
1013
-1751
1400
-751
-1731
1448
1637
1635
-1626
254
-69
-1614
155
-1353
165
1164
78
722
-1078
-1560
270
-1058
482
-1035
675
1413
-808
1375
1837
-1313
-501
3
257
1703
1225
-41
-683
1495
611
-485
1283
23
-1335
987
-323
285
417
-1761
-1262
535
1637
-1451
624
-267
179
1681
1565
-1052
644
-1492
-1592
-185
-1292
556
-798
261
-461
-859
-1202
-390
-220
523
-1268
783
-596
804
1085
-1310
-900
297
-208
-1462
-615
-913
-1651
706
-558
-631
1039
58
321
303
1115
-1495
777
524
1582
-1653
1445
-1262
-1644
23
-441
1524
-830
-345
-251
484
407
-542
-411
-707
431
-382
-838
-1110
1339
-1574
-1190
-1010
-4
1353
-1313
-1099
446
1440
-1055
54
-1289
1527
629
870
1419
637
152
485
-605
-292
704
-923
1332
1869
-1141
584
-1193
1547
-402
990
-39
738
-777
245
856
135
68
-1156
589
-1736
787
1252
-299
-1619
-822
1883
832
911
-304
-1698
1396
1014
486
1763
-539
-1777
-17
-43
1681
37
-1771
1654
1023
1809
-1561
-877
773
1178
-843
928
603
-384
-731
-400
359
-1125
402
1704
1178
-1693
1212
-1200
1584
1722
885
-919
1753
779
-64
1302
-927
-1582
-1441
1032
-1208
771
-318
-604
-1800
1066
-1000
-844
-434
-1732
-190
482
1129
1534
623
455
-1520
-1518
1263
1602
563
-431
-513
1121
-1590
603
-88
793
-73
-46
1606
-145
-155
-1505
-1540
1599
-1036
-611
583
1086
-427
-1030
1834
-1831
-1554
-1388
106
665
-43
-640
-280
-659
247
-777
634
-1342
546
-806
-1697
-1920
-745
-1520
-1631
-1590
-674
-650
-1703
-1698
-1699
-1737
-69
-1698
1590
-1679
957
260
1436
1528
813
-362
-288
1398
1013
-1751
1400
-751
-1731
1448
1637
1635
-1626
254
-69
-1614
155
-1353
165
1164
78
722
-1078
-1560
270
-1058
482
-1035
675
1413
-808
1375
1837
-1313
-501
3
257
1703
1225
-41
-683
1495
611
-485
1283
23
-1335
987
-323
285
417
-1761
-1262
535
1637
-1451
624
-267
179
1681
1565
-1052
644
-1492
-1592
-185
-1292
556
-798
261
-461
-859
-1202
-390
-220
523
-1268
783
-596
804
1085
-1310
-900
303
-208
-1462
-615
-913
-1651
706
-558
-631
1039
58
321
303
1115
-1495
777
524
1582
-1653
1445
-1262
-1644
23
-441
1524
-830
-351
-257
495
416
-554
-420
-707
431
-382
-838
-1110
1339
-1574
-1190
-1010
-4
1353
-1313
-1099
446
1440
-1055
54
-1289
1527
629
870
1419
637
152
485
-605
-292
704
-923
1332
1869
-1141
584
-1193
1547
-402
990
-39
738
-777
245
856
135
68
-1156
589
-1736
787
1252
-299
-1619
-822
1883
832
911
-304
-1698
1396
1014
486
1763
-539
-1777
-17
-43
1681
37
-1771
1654
1023
1809
-1561
-877
773
1178
-843
928
603
-384
-731
-400
359
-1125
402
1704
1178
-1693
1212
-1200
1584
1722
885
-919
1753
779
-64
1302
-927
-1582
-1441
1032
-1208
771
-318
-604
-1800
1066
-1000
-844
-434
-1732
-190
482
1129
1534
623
455
-1520
-1518
1263
1602
563
-431
-513
1121
-1590
603
-88
793
-73
-46
1606
-145
-155
-1505
-1540
1599
-1036
-611
583
1086
-427
-1030
1834
-1831
-1554
-1388
106
665
-43
-640
-280
-659
247
-777
634
-1342
546
-806
-1697
-1920
-745
-1520
-1631
-1590
-674
-650
-1703
-1698
-1699
-1737
-69
-1698
1590
-1679
957
260
1436
1528
813
-362
-288
1398
1013
-1751
1400
-751
-1731
1448
1637
1635
-1626
254
-69
-1614
155
-1353
165
1164
78
722
-1078
-1560
270
-1058
482
-1035
675
1413
-808
1375
1837
-1313
-501
3
257
1703
1225
-41
-683
1495
611
-485
1283
23
-1335
987
-323
285
417
-1761
-1262
535
1637
-1451
624
-267
179
1681
1565
-1052
644
-1492
-1592
-185
-1292
556
-798
261
-461
-859
-1202
-390
-220
523
-1268
783
-596
804
1085
-1310
-900
297
-208
-1462
-615
-913
-1651
706
-558
-631
1039
58
321
303
1115
-1495
777
524
1582
-1653
1445
-1262
-1644
23
-441
1524
-830
-345
-251
484
407
-542
-411
-707
431
-389
-838
-1110
1339
-1574
-1190
-1010
-4
1353
-1313
-1099
446
1440
-1055
54
-1289
1527
629
870
1419
637
152
485
-605
-292
704
-923
1332
1869
-1141
584
-1193
1547
-402
990
-39
738
-777
245
856
135
68
-1156
589
-1736
787
1252
-299
-1619
-822
1883
832
911
-304
-1698
1396
1014
486
1763
-539
-1777
-17
-43
1681
37
-1771
1654
1023
1809
-1561
-877
773
1178
-843
928
603
-384
-731
-400
359
-1125
402
1704
1178
-1693
1212
-1200
1584
1722
885
-919
1753
779
-64
1302
-927
-1582
-1441
1032
-1208
771
-318
-604
-1800
1066
-1000
-844
-434
-1732
-190
482
1129
1534
623
455
-1520
-1518
1263
1602
563
-431
-513
1121
-1590
603
-88
793
-73
-46
1606
-145
-155
-1505
-1540
1599
-1036
-611
583
1086
-427
-1030
1834
-1831
-1554
-1388
106
665
-43
-640
-280
-659
247
-777
634
-1369
557
-822
-1732
-1959
-760
-1551
-1664
-1622
-688
-663
-1738
-1733
-1734
-1772
-70
-1733
1622
-1713
977
265
1465
1559
830
-369
-294
1427
1034
-1787
1429
-766
-1766
1478
1670
1668
-1659
259
-70
-1647
158
-1381
168
1188
80
737
-1100
-1592
276
-1080
492
-1056
689
1442
-825
1403
1874
-1340
-511
3
262
1738
1250
-42
-697
1526
623
-495
1309
23
-1362
1007
-330
291
426
-1797
-1288
546
1670
-1481
637
-272
183
1715
1597
-1073
657
-1522
-1625
-189
-1318
567
-814
266
-470
-877
-1227
-398
-224
534
-1294
799
-608
820
1107
-1337
-918
302
-203
-1492
-628
-932
-1685
720
-569
-644
1060
59
328
309
1138
-1526
793
535
1614
-1687
1474
-1288
-1678
23
-450
1555
-847
-352
-256
494
415
-553
-419
-721
440
-390
-855
-1133
1366
-1606
-1214
-1031
-4
1381
-1340
-1121
455
1469
-1077
55
-1315
1558
642
888
1448
650
155
495
-617
-298
718
-942
1359
1907
-1164
596
-1217
1579
-410
1010
-40
753
-793
250
873
138
69
-1180
601
-1771
803
1278
-305
-1652
-839
1921
849
930
-310
-1733
1424
1035
496
1799
-550
-1813
-17
-44
1715
38
-1807
1688
1044
1846
-1593
-895
789
1202
-860
947
615
-392
-746
-408
366
-1148
410
1739
1202
-1728
1237
-1224
1616
1757
903
-938
1789
795
-65
1329
-946
-1614
-1470
1053
-1233
787
-324
-616
-1837
1088
-1020
-861
-443
-1767
-194
492
1152
1565
636
464
-1551
-1549
1289
1635
574
-440
-523
1144
-1622
615
-90
809
-75
-47
1639
-148
-158
-1536
-1571
1632
-1057
-623
595
1108
-436
-1051
1871
-1868
-1586
-1416
108
679
-44
-653
-286
-672
252
-793
647
-1370
556
-822
-1733
-1734
-380
-1550
-1663
-1590
-675
-647
-1737
-1731
-1734
-1771
-70
-1733
1622
-1679
1168
261
1465
1558
829
-367
-292
1413
1024
-1769
1415
-766
-1766
1477
1671
1669
-1658
259
-34
-1647
158
-1381
168
1166
79
722
-1079
-1561
270
-1083
493
-1055
690
1442
-825
1403
1873
-1339
-510
5
262
1738
1250
-43
-696
1527
625
-200
1311
23
-1362
1009
-330
291
428
-1796
-1288
546
1669
-1461
626
-269
178
1694
1577
-1073
657
-1521
-1623
-189
-1320
567
-815
266
-471
-879
-1228
-398
-225
533
-1293
798
-609
821
1107
-1338
-918
305
-236
-1493
-625
-933
-1683
720
-567
-644
1061
58
329
308
1140
-1525
792
535
1616
-1688
1474
-1303
-1697
25
-456
1574
-857
-350
-255
491
412
-549
-416
-723
439
-389
-1747
-1134
1366
-1606
-1191
-1011
-4
1380
-1338
-1121
457
1469
-1076
55
-1316
1558
695
890
1448
649
155
495
-618
-298
718
-941
1359
1612
-1164
-333
-1218
1579
-411
1011
-40
752
-793
250
873
138
69
-1180
601
-1772
802
1278
-304
-1651
-839
2000
849
929
-309
-1734
1424
1036
496
1798
-549
-1815
-16
-43
1716
38
-1808
1689
1045
1847
-1594
-894
790
1203
-861
947
613
-391
-742
-408
367
-1144
408
1738
1203
-1728
1234
-1224
1616
1703
873
-956
1825
770
-62
1330
-945
-1614
-1470
1053
-1234
791
-326
-617
-1843
1093
-1026
-863
-444
-1767
-193
494
1072
1572
640
468
-1558
-1558
1297
1636
573
-439
-524
1144
-1622
615
-90
809
-74
-47
1639
-149
-158
-1537
-1570
1631
-1057
-623
595
1108
-427
-1052
1871
-1767
-1500
-1342
100
646
-1005
-653
-286
-1634
253
-793
648
-1424
578
-853
-1802
-1804
-397
-1614
-1732
-1687
-716
-691
-1808
-1803
-1804
-1844
-72
-1803
1689
-1783
1016
275
1524
1622
863
-387
-310
1499
1088
-1878
1502
-798
-1838
1537
1739
1737
-1727
270
-619
-1714
163
-1436
174
1213
83
753
-1123
-1625
283
-1123
512
-1100
717
1501
-859
1462
1949
-1394
-530
3
272
1809
1302
-44
-724
1589
649
-513
1362
24
-1418
1050
-344
304
445
-1871
-1340
568
1737
-1541
663
-284
191
1785
1663
-1116
684
-1583
-1689
-195
-1371
590
-847
276
-491
-913
-1276
-415
-234
556
-1346
830
-633
855
1153
-1392
-956
315
-247
-1554
-653
-972
-1752
750
-592
-671
1105
60
343
322
1184
-1588
824
558
1681
-1756
1535
-1340
-1746
23
-468
1619
-879
-366
-266
514
431
-575
-437
-753
457
-405
-889
-1180
1421
-1673
-1263
-1074
-4
1436
-1394
-1167
473
1529
-1121
57
-1368
1622
697
924
1507
675
161
514
-645
-309
749
-979
1415
1984
-1212
619
-1266
1644
-427
1052
-42
782
-825
260
909
145
71
-1228
625
-1843
834
1331
-317
-1720
-872
1999
882
968
-322
-1804
1482
1077
517
1874
-571
-1888
-17
-44
1785
41
-1882
1756
1086
1922
-1656
-931
821
1252
-897
985
639
-408
-776
-424
381
-1194
426
1807
1253
-1798
1285
-1274
1683
1829
938
-975
1864
826
-66
1383
-983
-1681
-1529
1094
-1283
820
-339
-642
-1912
1132
-1063
-899
-461
-1839
-202
512
1116
1627
662
482
-1615
-1613
1341
1701
597
-457
-545
1188
-1688
642
-94
843
-79
-49
1705
-155
-163
-1600
-1635
1698
-1101
-649
619
1155
-454
-1093
1947
-1839
-1561
-1398
104
671
-1047
-678
-297
-700
261
-825
674
-1398
567
-839
-1767
-2000
-776
-1583
-1698
-1655
-702
-677
-1773
-1768
-1769
-1808
-71
-1768
1655
-1748
996
270
1494
1590
846
-373
-297
1441
1046
-1806
1445
-782
-1802
1507
1704
1702
-1693
265
-607
-1681
160
-1409
171
1189
80
738
-1101
-1594
276
-1102
502
-1078
703
1471
-842
1432
1911
-1367
-521
3
267
1773
1276
-43
-711
1557
636
-505
1335
23
-1390
1028
-337
297
435
-1834
-1314
558
1704
-1511
649
-278
188
1750
1630
-1094
670
-1553
-1658
-193
-1345
579
-831
270
-481
-896
-1252
-407
-230
544
-1320
814
-621
837
1130
-1365
-937
309
-216
-1523
-641
-953
-1719
735
-581
-658
1082
60
335
314
1161
-1557
808
547
1647
-1722
1504
-1314
-1712
23
-459
1587
-864
-359
-262
504
423
-564
-428
-738
448
-398
-872
-1157
1392
-1640
-1239
-1052
-4
1408
-1367
-1145
465
1499
-1099
56
-1342
1590
682
906
1477
662
158
504
-632
-304
733
-961
1387
1945
-1188
607
-1242
1611
-419
1031
-41
767
-809
255
891
141
70
-1204
613
-1807
819
1304
-311
-1686
-856
1960
865
949
-316
-1769
1453
1056
505
1836
-561
-1850
-17
-45
1750
39
-1845
1722
1065
1884
-1626
-914
805
1227
-879
966
626
-400
-761
-416
373
-1170
418
1772
1227
-1763
1260
-1249
1649
1793
920
-957
1825
810
-66
1356
-965
-1648
-1500
1074
-1258
803
-332
-629
-1875
1110
-1042
-881
-452
-1803
-198
502
1176
1595
649
474
-1583
-1581
1316
1668
586
-449
-535
1165
-1655
628
-92
826
-77
-49
1672
-152
-161
-1569
-1603
1665
-1079
-636
607
1131
-445
-1072
1910
-1906
-1618
-1446
110
693
-45
-665
-292
-1667
257
-809
660
-1370
556
-822
-1732
-1733
-379
-1548
-1661
-1589
-674
-647
-1736
-1729
-1733
-1769
-70
-1732
1622
-1678
1168
262
1466
1558
828
-367
-292
1413
1024
-1769
1416
-766
-1766
1476
1671
1669
-1657
259
-34
-1646
158
-1380
169
1166
80
723
-1078
-1561
270
-1082
493
-1055
690
1441
-823
1404
1874
-1338
-510
5
263
1737
1250
-42
-696
1526
625
-199
1311
23
-1361
1009
-329
291
444
-1869
-1339
546
1669
-1461
625
-269
177
1693
1576
-1072
658
-1521
-1622
-189
-1320
567
-815
266
-471
-878
-1226
-397
-224
532
-1292
799
-609
821
1107
-1337
-918
305
-236
-1593
-671
-996
-1798
768
-609
-644
1061
58
329
308
1139
-1524
792
534
1616
-1687
1474
-1303
-1696
26
-455
1574
-856
-351
-257
494
415
-553
-419
-723
439
-389
-889
-1180
1367
-1605
-1189
-1011
-3
1379
-1336
-1121
458
1469
-1074
55
-1316
1558
695
889
1447
649
156
495
-618
-298
718
-940
1359
1613
-1164
-333
-1218
1578
-411
1012
-40
752
-793
250
873
138
69
-1179
601
-1772
802
1277
-304
-1650
-837
1999
849
928
-309
-1733
1424
1036
496
1797
-549
-1814
-16
-43
1716
39
-1807
1688
1044
1846
-1593
-891
791
1203
-861
947
614
-391
-742
-408
367
-1141
408
1737
1203
-1726
1233
-1224
1618
1703
873
-956
1826
770
-62
1329
-945
-1614
-1470
1054
-1233
791
-324
-617
-1842
1092
-1025
-839
-431
-1719
-188
480
1043
1572
640
469
-1558
-1558
1296
1635
573
-439
-524
1143
-1622
615
-90
810
-74
-47
1638
-149
-157
-1536
-1570
1630
-1057
-623
596
1108
-426
-1052
1871
-1767
-1499
-1341
100
646
-1005
-653
-285
-1633
253
-793
648
-1316
534
-790
-1662
-1664
-365
-1490
-1597
-1558
-660
-637
-1669
-1664
-1666
-1702
-68
-1664
1558
-1645
937
255
1406
1496
796
-352
-279
1356
984
-1700
1359
-735
-1695
1419
1604
1605
-1593
250
-571
-1582
153
-1326
162
1119
76
697
-1035
-1500
260
-1035
472
-1013
662
1386
-792
1348
1873
-1339
-510
3
252
1669
1201
-40
-669
1465
601
-473
1256
25
-1307
968
-316
281
411
-1725
-1237
524
1603
-1421
611
-262
175
1647
1535
-1030
631
-1462
-1560
-181
-1266
544
-782
255
-452
-842
-1178
-398
-225
533
-1241
767
-585
788
1063
-1285
-881
292
-227
-1435
-603
-896
-1618
692
-547
-619
1018
56
316
297
1093
-1465
761
515
1551
-1620
1416
-1327
-1731
23
-463
1605
-882
-338
-247
474
401
-531
-403
-695
423
-373
-819
-1089
1311
-1543
-1165
-991
-3
1325
-1287
-1079
440
1411
-1033
55
-1263
1496
642
853
1390
625
149
475
-595
-285
691
-904
1306
1832
-1118
571
-1168
1516
-394
971
-38
722
-761
241
839
131
67
-1130
577
-1699
771
1227
-293
-1586
-805
1846
814
893
-297
-1664
1368
994
475
1729
-528
-1742
-17
-41
1648
36
-1736
1621
1005
1774
-1530
-859
758
1155
-827
909
589
-376
-715
-391
352
-1102
394
1669
1154
-1658
1187
-1175
1553
1688
867
-900
1719
762
-63
1276
-908
-1551
-1412
1010
-1183
757
-312
-592
-1764
1045
-981
-829
-425
-1697
-186
474
1031
1501
611
446
-1489
-1487
1238
1570
552
-422
-503
1097
-1557
592
-86
778
-72
-45
1574
-143
-152
-1477
-1509
1567
-1015
-599
571
1065
-416
-1007
1798
-1697
-1442
-1290
97
618
-964
-627
-273
-646
242
-761
622
-1370
556
-822
-1731
-1734
-381
-1551
-1662
-1622
-688
-663
-1738
-1733
-1735
-1772
-70
-1732
1623
-1712
976
266
1464
1558
829
-366
-291
1413
1024
-1769
1415
-766
-1766
1477
1670
1668
-1659
261
-595
-1646
158
-1380
168
1165
79
724
-1079
-1561
271
-1080
492
-1055
690
1444
-825
1403
1875
-1340
-510
3
262
1738
1250
-41
-696
1526
623
-495
1308
23
-1362
1007
-330
292
426
-1797
-1288
546
1671
-1481
636
-272
183
1717
1598
-1073
657
-1522
-1624
-189
-1318
568
-812
266
-470
-879
-1225
-399
-225
534
-1294
798
-608
820
1108
-1338
-917
303
-236
-1494
-627
-932
-1683
720
-568
-644
1060
58
329
308
1139
-1526
793
536
1614
-1688
1476
-1287
-1678
24
-450
1556
-846
-351
-256
495
416
-553
-419
-723
440
-390
-855
-1133
1364
-1639
-1239
-1053
-4
1380
-1339
-1122
457
1469
-1077
55
-1314
1558
668
889
1447
650
155
494
-618
-297
719
-941
1360
1907
-1162
595
-1217
1579
-411
1010
-40
752
-792
252
873
138
69
-1179
601
-1771
803
1279
-303
-1651
-838
1922
848
931
-309
-1732
1424
1036
495
1799
-550
-1814
-17
-44
1716
38
-1807
1688
1044
1846
-1593
-894
789
1202
-861
947
613
-392
-745
-408
368
-1148
410
1738
1202
-1728
1235
-1224
1617
1757
903
-936
1789
794
-63
1329
-946
-1614
-1470
1053
-1233
787
-325
-616
-1836
1089
-1020
-863
-443
-1767
-194
493
1073
1563
636
464
-1550
-1549
1289
1635
573
-430
-523
1142
-1621
616
-90
810
-75
-48
1639
-149
-158
-1538
-1571
1632
-1057
-623
595
1110
-435
-1049
1872
-1766
-1501
-1342
102
644
-1005
-653
-286
-672
251
-793
648
-1398
567
-839
-1766
-1768
-389
-1583
-1698
-1654
-702
-675
-1773
-1768
-1769
-1808
-71
-1768
1655
-1747
997
271
1494
1591
846
-373
-296
1441
1046
-1806
1444
-781
-1801
1507
1704
1703
-1692
265
-607
-1681
160
-1408
171
1189
80
738
-1101
-1593
276
-1102
502
-1077
703
1471
-842
1432
1912
-1367
-521
3
267
1774
1276
-42
-711
1558
636
-505
1335
24
-1390
1029
-337
299
435
-1833
-1314
558
1704
-1511
650
-278
187
1750
1630
-1072
657
-1521
-1623
-188
-1316
578
-831
270
-480
-896
-1252
-406
-230
545
-1320
814
-621
838
1130
-1365
-937
309
-242
-1524
-640
-953
-1719
735
-581
-658
1082
59
335
315
1161
-1556
808
546
1648
-1722
1504
-1313
-1710
23
-458
1587
-864
-359
-261
504
423
-564
-427
-737
448
-398
-872
-1157
1392
-1639
-1239
-1053
-4
1410
-1366
-1145
464
1499
-1098
56
-1341
1590
682
908
1479
662
158
504
-631
-304
733
-959
1387
1945
-1187
607
-1242
1612
-419
1032
-41
767
-809
256
891
141
70
-1204
613
-1807
818
1305
-311
-1686
-856
1960
865
949
-316
-1769
1453
1056
506
1836
-561
-1851
-17
-45
1751
39
-1844
1722
1066
1885
-1626
-913
805
1227
-879
966
627
-399
-761
-415
374
-1170
418
1772
1228
-1762
1260
-1249
1650
1793
920
-957
1825
810
-66
1356
-964
-1648
-1500
1073
-1257
805
-332
-629
-1875
1110
-1041
-880
-452
-1803
-198
502
1096
1595
649
473
-1583
-1580
1315
1668
585
-448
-535
1165
-1655
629
-91
826
-77
-49
1673
-151
-161
-1569
-1603
1665
-1079
-636
607
1133
-445
-1071
1909
-1802
-1531
-1371
102
658
-1026
-666
-291
-686
257
-809
660
-1425
578
-856
-1801
-1803
-397
-1583
-1698
-1654
-702
-677
-1773
-1768
-1770
-1806
-71
-1767
1655
-1781
1016
275
1524
1622
865
-373
-297
1442
1046
-1806
1445
-781
-1802
1508
1704
1704
-1693
270
-619
-1714
163
-1437
174
1189
80
738
-1100
-1593
276
-1105
502
-1078
703
1471
-842
1432
1911
-1367
-521
3
267
1773
1276
-42
-710
1558
636
-505
1336
23
-1389
1030
-337
297
436
-1833
-1314
557
1703
-1511
649
-276
187
1750
1631
-1095
670
-1553
-1657
-193
-1345
578
-831
270
-481
-895
-1252
-415
-234
558
-1346
830
-633
838
1130
-1365
-937
310
-241
-1524
-641
-953
-1719
735
-581
-657
1083
59
336
314
1161
-1557
809
546
1649
-1722
1504
-1314
-1712
23
-459
1587
-864
-359
-262
504
423
-564
-428
-738
448
-398
-871
-1157
1392
-1640
-1239
-1053
-4
1408
-1367
-1144
464
1412
-1033
55
-1341
1590
682
906
1477
662
158
504
-632
-304
734
-960
1387
1945
-1187
607
-1241
1611
-419
1031
-41
767
-809
255
891
141
71
-1204
614
-1807
819
1305
-311
-1686
-856
1960
865
949
-316
-1769
1453
1056
505
1836
-561
-1851
-17
-45
1750
39
-1845
1722
1066
1884
-1625
-913
805
1227
-878
968
626
-400
-760
-415
374
-1171
418
1772
1227
-1762
1261
-1248
1650
1793
922
-957
1825
810
-66
1356
-965
-1648
-1500
1073
-1258
803
-332
-629
-1875
1110
-1041
-881
-451
-1803
-198
502
1094
1596
650
473
-1582
-1581
1315
1668
586
-449
-535
1165
-1654
628
-91
826
-77
-49
1672
-151
-161
-1568
-1603
1665
-1079
-636
607
1131
-445
-1072
1911
-1803
-1532
-1371
102
658
-1026
-666
-291
-686
256
-809
660
-1397
567
-838
-1766
-1769
-389
-1615
-1731
-1687
-715
-690
-1808
-1767
-1768
-1806
-70
-1767
1654
-1747
996
270
1494
1591
846
-379
-303
1470
1066
-1842
1473
-782
-1801
1507
1703
1702
-1692
271
-619
-1714
163
-1436
176
1189
81
739
-1101
-1594
276
-1081
494
-1057
689
1443
-825
1432
1911
-1367
-521
3
267
1774
1276
-43
-710
1558
636
-503
1335
23
-1390
1031
-337
297
435
-1834
-1314
557
1704
-1511
649
-278
187
1750
1630
-1095
671
-1552
-1658
-192
-1343
578
-829
270
-481
-896
-1251
-413
-232
555
-1346
830
-633
821
1109
-1338
-918
305
-236
-1524
-640
-952
-1719
735
-581
-658
1083
60
335
315
1161
-1525
793
535
1614
-1687
1474
-1314
-1712
23
-458
1588
-862
-366
-267
514
430
-574
-436
-753
457
-404
-889
-1180
1420
-1606
-1214
-1032
-4
1380
-1340
-1120
455
1469
-1076
55
-1314
1558
668
888
1447
649
155
505
-632
-303
734
-959
1387
1945
-1188
607
-1241
1612
-418
1032
-41
768
-808
255
891
144
71
-1228
625
-1842
835
1304
-311
-1686
-855
1960
865
949
-316
-1769
1452
1057
505
1835
-560
-1850
-16
-45
1749
39
-1843
1722
1065
1884
-1624
-913
805
1227
-878
966
627
-400
-761
-415
374
-1170
419
1772
1228
-1763
1260
-1248
1649
1793
920
-957
1827
810
-65
1356
-964
-1648
-1499
1073
-1258
803
-330
-629
-1875
1110
-1042
-880
-452
-1803
-197
504
1094
1595
650
473
-1583
-1580
1316
1677
588
-451
-536
1171
-1662
629
-91
826
-77
-49
1674
-158
-166
-1632
-1668
1732
-1123
-623
596
1108
-435
-1051
1871
-1803
-1531
-1370
102
658
-1026
-665
-291
-686
257
-808
661
-1370
556
-822
-1733
-1734
-381
-1551
-1664
-1622
-688
-663
-1738
-1733
-1735
-1772
-70
-1733
1622
-1713
976
265
1464
1558
829
-366
-291
1412
1024
-1770
1415
-766
-1766
1477
1670
1669
-1659
260
-595
-1647
157
-1380
168
1165
79
723
-1079
-1562
270
-1080
492
-1056
689
1442
-825
1403
1873
-1340
-511
3
262
1739
1250
-42
-697
1526
623
-494
1308
23
-1362
1008
-330
291
426
-1797
-1288
546
1669
-1481
636
-272
183
1715
1597
-1073
657
-1522
-1625
-188
-1318
566
-813
265
-471
-878
-1227
-399
-225
533
-1294
798
-609
820
1107
-1338
-918
303
-237
-1494
-628
-934
-1685
720
-569
-645
1060
58
328
308
1138
-1526
792
535
1614
-1688
1474
-1288
-1678
23
-450
1555
-847
-352
-257
494
415
-553
-419
-723
439
-390
-855
-1134
1364
-1607
-1214
-1032
-4
1380
-1340
-1121
455
1469
-1077
55
-1314
1558
668
888
1447
649
155
494
-619
-297
718
-941
1359
1906
-1164
595
-1217
1579
-411
1010
-40
752
-793
250
873
138
69
-1180
601
-1771
802
1278
-305
-1652
-839
1921
848
930
-310
-1734
1424
1035
495
1799
-550
-1814
-17
-44
1715
38
-1808
1688
1044
1846
-1592
-895
789
1202
-861
947
613
-392
-746
-408
366
-1148
410
1737
1203
-1728
1235
-1224
1616
1757
902
-938
1789
794
-64
1329
-946
-1615
-1469
1052
-1233
787
-325
-616
-1837
1088
-1021
-863
-443
-1767
-194
492
1072
1563
636
464
-1551
-1549
1289
1635
573
-440
-524
1142
-1622
615
-90
809
-75
-48
1639
-149
-158
-1538
-1571
1632
-1057
-623
595
1108
-436
-1051
1871
-1767
-1500
-1344
100
645
-1005
-652
-286
-672
251
-793
647
-1369
556
-822
-1733
-1734
-380
-1550
-1662
-1590
-675
-647
-1737
-1731
-1734
-1771
-70
-1733
1622
-1679
1168
261
1465
1558
829
-364
-292
1413
1025
-1770
1415
-780
-1801
1507
1704
1702
-1691
259
-34
-1647
158
-1381
169
1166
80
722
-1079
-1561
270
-1083
494
-1055
690
1442
-825
1403
1873
-1338
-510
6
262
1738
1250
-43
-696
1527
625
-200
1311
23
-1362
1010
-329
288
423
-1766
-1268
538
1642
-1490
640
-274
183
1728
1609
-1073
657
-1521
-1623
-189
-1320
567
-815
266
-471
-879
-1228
-398
-224
533
-1293
798
-609
821
1107
-1338
-918
305
-236
-1522
-637
-952
-1716
734
-578
-644
1061
58
329
308
1140
-1525
792
535
1616
-1688
1474
-1302
-1697
25
-456
1574
-857
-351
-257
494
415
-553
-419
-723
439
-389
-1747
-1133
1366
-1628
-1208
-1025
-4
1399
-1357
-1121
457
1469
-1075
55
-1316
1558
695
890
1448
649
155
495
-618
-298
718
-941
1360
1613
-1164
-333
-1218
1579
-411
1011
-40
752
-793
250
873
138
70
-1180
601
-1771
802
1278
-304
-1651
-839
2000
849
930
-309
-1734
1424
1036
496
1798
-549
-1815
-16
-42
1716
38
-1808
1689
1045
1847
-1594
-894
790
1203
-861
948
613
-391
-742
-408
368
-1144
408
1738
1203
-1727
1235
-1224
1616
1703
873
-956
1825
771
-62
1331
-945
-1614
-1470
1053
-1234
791
-326
-617
-1843
1093
-1026
-863
-444
-1767
-193
494
1072
1573
640
468
-1558
-1558
1297
1636
574
-439
-524
1144
-1622
615
-90
809
-72
-47
1639
-148
-158
-1536
-1569
1631
-1057
-622
595
1108
-426
-1052
1872
-1767
-1500
-1342
100
646
-1005
-666
-292
-1667
258
-809
661
-1370
556
-822
-1731
-1733
-381
-1551
-1663
-1622
-687
-662
-1738
-1733
-1734
-1772
-70
-1732
1622
-1713
976
265
1464
1559
829
-366
-291
1413
1024
-1770
1415
-765
-1765
1477
1670
1668
-1658
262
-595
-1646
158
-1381
168
1165
78
724
-1079
-1560
270
-1078
493
-1055
690
1443
-825
1403
1873
-1340
-511
4
262
1738
1250
-42
-696
1527
624
-494
1309
23
-1361
1007
-329
292
428
-1796
-1288
547
1669
-1481
637
-272
184
1715
1597
-1073
657
-1522
-1624
-189
-1318
566
-814
265
-470
-877
-1227
-399
-225
534
-1292
799
-608
820
1107
-1338
-918
305
-237
-1494
-628
-933
-1685
720
-568
-645
1060
59
328
310
1138
-1526
793
536
1616
-1688
1475
-1288
-1678
23
-447
1555
-847
-352
-257
505
424
-561
-419
-723
441
-389
-855
-1133
1364
-1607
-1213
-1032
-1
1380
-1339
-1122
456
1469
-1077
56
-1315
1559
668
888
1447
650
156
494
-619
-298
719
-942
1360
1906
-1164
595
-1217
1579
-411
1011
-40
752
-793
251
873
138
70
-1178
601
-1771
802
1279
-305
-1650
-839
1921
848
931
-309
-1733
1424
1036
496
1799
-549
-1813
-16
-43
1715
38
-1808
1688
1046
1846
-1593
-895
789
1203
-861
947
613
-391
-746
-408
366
-1148
410
1738
1202
-1728
1235
-1223
1617
1759
903
-938
1789
794
-64
1329
-946
-1615
-1469
1052
-1233
788
-325
-616
-1837
1088
-1021
-863
-443
-1766
-193
494
1072
1564
636
464
-1551
-1547
1289
1636
573
-440
-524
1143
-1621
616
-89
809
-75
-47
1639
-149
-158
-1537
-1570
1632
-1057
-623
596
1109
-435
-1050
1872
-1767
-1500
-1343
100
645
-1005
-653
-285
-671
252
-791
647
-1398
567
-839
-1767
-1999
-776
-1583
-1697
-1655
-702
-677
-1773
-1768
-1769
-1808
-71
-1768
1655
-1748
996
270
1494
1590
847
-372
-297
1441
1045
-1806
1444
-782
-1802
1507
1704
1702
-1693
265
-607
-1681
160
-1409
171
1189
80
738
-1101
-1594
276
-1102
502
-1078
704
1471
-842
1433
1911
-1366
-521
3
267
1773
1276
-42
-711
1557
636
-505
1335
24
-1390
1029
-337
297
435
-1833
-1314
557
1703
-1511
649
-278
188
1751
1630
-1095
670
-1553
-1658
-193
-1344
578
-831
270
-481
-896
-1252
-406
-230
544
-1320
814
-621
837
1130
-1365
-937
309
-216
-1524
-641
-952
-1719
735
-580
-658
1082
60
336
314
1162
-1557
808
547
1647
-1722
1505
-1313
-1712
23
-468
1619
-864
-359
-262
504
423
-564
-428
-738
448
-397
-872
-1157
1392
-1639
-1239
-1053
-3
1408
-1367
-1144
464
1499
-1099
56
-1342
1591
682
906
1477
662
158
504
-632
-304
733
-960
1388
1947
-1188
-342
-1241
1611
-419
1032
-41
767
-808
255
891
141
70
-1204
613
-1807
818
1304
-311
-1686
-856
1960
866
949
-316
-1768
1453
1056
506
1836
-560
-1851
-17
-45
1751
39
-1845
1722
1065
1884
-1625
-913
806
1227
-880
966
626
-399
-761
-416
373
-1171
418
1774
1227
-1762
1261
-1249
1649
1793
920
-957
1825
811
-66
1356
-965
-1647
-1500
1073
-1258
803
-332
-629
-1875
1110
-1042
-882
-453
-1803
-198
1961
1176
1595
649
473
-1582
-1581
1315
1668
585
-449
-535
1165
-1655
628
-92
826
-77
-49
1672
-152
-161
-1568
-1603
1665
-1079
-636
608
1131
-445
-1072
1909
-1906
-1618
-1446
111
693
-45
-665
-292
-686
256
-809
661
-1370
556
-822
-1733
-1734
-380
-1550
-1663
-1590
-675
-647
-1737
-1731
-1734
-1771
-70
-1733
1622
-1679
1168
261
1465
1558
829
-367
-292
1413
1024
-1769
1415
-766
-1766
1477
1671
1669
-1658
259
-34
-1647
158
-1381
168
1166
79
722
-1079
-1561
270
-1083
493
-1055
690
1442
-825
1403
1873
-1367
-521
5
262
1738
1250
-43
-696
1527
625
-200
1311
23
-1362
1009
-330
291
428
-1796
-1288
546
1669
-1461
626
-269
178
1694
1577
-1073
657
-1521
-1623
-189
-1320
567
-815
266
-471
-879
-1228
-398
-225
533
-1293
814
-609
821
1107
-1338
-918
305
-236
-1493
-625
-933
-1683
720
-567
-644
1061
58
329
308
1140
-1525
792
535
1616
-1688
1474
-1303
-1697
25
-456
1574
-857
-352
-257
494
415
-553
-419
-723
439
-389
-1747
-1134
1366
-1606
-1191
-1011
-4
1380
-1338
-1121
457
1469
-1076
55
-1316
1558
695
890
1448
649
155
495
-618
-298
718
-941
1359
1612
-1164
-333
-1218
1579
-411
1011
-40
752
-793
250
873
138
69
-1180
601
-1772
802
1278
-304
-1651
-839
2000
849
929
-309
-1734
1424
1036
496
1798
-549
-1815
-16
-43
1716
38
-1808
1689
1045
1847
-1594
-894
790
1203
-861
947
613
-391
-742
-408
367
-1144
408
1738
1203
-1728
1234
-1224
1616
1703
873
-956
1825
770
-62
1330
-945
-1614
-1470
1053
-1234
791
-326
-617
-1843
1093
-1026
-863
-444
-1767
-193
494
1072
1572
640
468
-1558
-1558
1297
1636
573
-439
-524
1144
-1622
615
-90
809
-74
-47
1639
-149
-158
-1537
-1570
1631
-1057
-623
595
1108
-427
-1052
1871
-1767
-1500
-1342
100
646
-1005
-653
-286
-1634
253
-793
648
-1425
578
-837
-1767
-2000
-792
-1615
-1732
-1688
-716
-691
-1808
-1803
-1804
-1844
-72
-1803
1689
-1783
1016
275
1524
1623
863
-385
-306
1484
1076
-1859
1487
-798
-1838
1537
1738
1736
-1727
270
-619
-1715
163
-1437
174
1213
82
753
-1122
-1626
283
-1124
512
-1100
718
1500
-859
1461
1949
-1394
-531
3
272
1808
1302
-44
-724
1588
650
-515
1363
23
-1418
1049
-344
303
444
-1871
-1340
568
1737
-1541
663
-284
191
1785
1664
-1116
683
-1584
-1691
-197
-1372
590
-848
275
-490
-914
-1277
-414
-234
555
-1346
830
-632
854
1153
-1391
-956
315
-220
-1553
-654
-971
-1752
750
-593
-671
1104
63
342
321
1184
-1588
825
558
1680
-1756
1534
-1340
-1746
23
-467
1619
-881
-366
-266
515
431
-575
-437
-753
457
-406
-889
-1180
1421
-1673
-1264
-1074
-4
1436
-1394
-1168
473
1529
-1121
57
-1369
1622
696
924
1507
675
161
514
-644
-310
748
-980
1415
1984
-1211
619
-1267
1643
-426
1052
-42
782
-825
260
909
144
71
-1228
625
-1843
834
1330
-317
-1720
-873
1999
882
968
-322
-1803
1482
1077
515
1873
-572
-1888
-17
-46
1785
37
-1777
1660
1027
1815
-1566
-931
821
1252
-897
985
640
-408
-776
-424
381
-1193
427
1808
1252
-1798
1285
-1274
1682
1829
938
-976
1862
826
-67
1383
-984
-1680
-1530
1095
-1283
819
-339
-642
-1912
1132
-1063
-898
-461
-1839
-202
512
1200
1627
662
482
-1615
-1613
1341
1701
599
-458
-546
1188
-1688
641
-94
843
-79
-49
1705
-155
-163
-1600
-1635
1698
-1101
-649
619
1154
-453
-1093
1947
-1944
-1650
-1475
112
707
-46
-679
-298
-700
261
-825
673
-1343
545
-806
-1698
-1699
-372
-1519
-1630
-1557
-660
-634
-1701
-1695
-1699
-1736
-68
-1698
1590
-1645
1145
256
1436
1527
812
-360
-286
1385
1004
-1734
1388
-751
-1731
1447
1639
1636
-1625
255
-33
-1614
155
-1352
165
1144
77
708
-1057
-1530
265
-1060
483
-1034
678
1413
-808
1375
1836
-1312
-500
6
257
1703
1225
-42
-682
1496
613
-196
1285
23
-1335
990
-323
285
435
-1833
-1312
535
1636
-1432
613
-264
174
1660
1545
-1052
645
-1490
-1591
-185
-1293
557
-799
261
-462
-861
-1203
-390
-220
522
-1267
782
-597
805
1086
-1311
-900
300
-231
-1463
-611
-913
-1648
706
-556
-631
1040
57
322
303
1117
-1494
776
524
1584
-1653
1445
-1277
-1663
27
-446
1543
-840
-345
-251
484
408
-542
-411
-737
450
-381
-872
-1157
1341
-1573
-1167
-991
-4
1352
-1311
-1099
448
1440
-1054
54
-1290
1527
681
872
1420
636
152
485
-605
-292
705
-922
1332
1580
-1141
-326
-1194
1548
-403
992
-39
737
-777
245
856
135
68
-1156
590
-1737
787
1252
-298
-1617
-822
1960
832
910
-303
-1698
1396
1015
486
1762
-538
-1778
-16
-42
1682
37
-1772
1655
1024
1810
-1562
-875
774
1180
-844
928
601
-382
-727
-400
360
-1121
400
1704
1179
-1693
1209
-1200
1585
1669
856
-937
1790
755
-60
1303
-926
-1582
-1441
1033
-1209
775
-318
-605
-1806
1071
-1004
-846
-435
-1732
-189
484
1051
1569
639
467
-1555
-1554
1295
1603
562
-430
-514
1121
-1590
603
-88
793
-71
-46
1606
-146
-155
-1506
-1539
1598
-1036
-611
583
1086
-418
-1031
1834
-1732
-1470
-1315
98
633
-985
-661
-290
-1655
257
-803
656
-1397
567
-838
-1767
-1768
-388
-1613
-1731
-1652
-702
-660
-1772
-1766
-1769
-1806
-71
-1768
1654
-1713
1191
266
1494
1589
846
-374
-298
1441
1044
-1804
1443
-781
-1801
1507
1704
1702
-1691
264
-35
-1680
162
-1409
171
1189
81
736
-1101
-1592
275
-1105
503
-1075
704
1471
-841
1431
1910
-1366
-520
5
267
1809
1301
-43
-725
1558
638
-204
1337
23
-1389
1029
-337
297
437
-1832
-1314
557
1702
-1490
639
-274
182
1728
1609
-1094
670
-1551
-1655
-193
-1346
578
-831
271
-479
-897
-1253
-406
-228
544
-1319
814
-621
837
1129
-1365
-936
311
-241
-1523
-637
-952
-1717
735
-578
-656
1082
59
336
314
1163
-1555
808
546
1648
-1722
1503
-1329
-1731
26
-465
1605
-874
-359
-262
504
423
-564
-427
-737
448
-397
-1782
-1157
1393
-1638
-1215
-1031
-4
1408
-1365
-1143
466
1498
-1098
56
-1342
1589
709
908
1477
662
158
505
-630
-304
732
-960
1386
1644
-1187
-340
-1242
1611
-418
1031
-41
767
-809
255
890
141
70
-1204
613
-1807
819
1304
-310
-1684
-856
2000
866
948
-314
-1769
1452
1057
507
1834
-560
-1851
-16
-44
1750
39
-1844
1723
1066
1884
-1626
-912
806
1227
-878
966
625
-399
-757
-416
374
-1166
416
1773
1227
-1763
1259
-1247
1648
1737
890
-975
1862
785
-63
1357
-964
-1646
-1499
1074
-1259
803
-330
-628
-1873
1115
-1047
-880
-453
-1802
-197
504
1093
1603
653
477
-1589
-1589
1323
1669
584
-448
-534
1167
-1654
627
-92
825
-75
-48
1672
-152
-161
-1568
-1601
1664
-1078
-635
607
1130
-436
-1073
1908
-1802
-1530
-1369
102
659
-1025
-667
-291
-1666
259
-810
662
-1369
556
-821
-1730
-1307
634
-1550
-1663
-1621
-687
-662
-1737
-1732
-1734
-1772
-69
-1732
1623
-1713
976
265
1466
1558
828
-383
-305
1479
1072
-1852
1482
-765
-1766
1478
1670
1668
-1658
261
-594
-1645
157
-1379
169
1165
78
725
-1079
-1562
270
-1079
493
-1056
690
1441
-824
1403
1873
-1338
-511
3
263
1737
1250
-42
-696
1525
624
-495
1308
23
-1362
1007
-327
291
425
-1795
-1286
547
1670
-1480
635
-270
184
1716
1597
-1072
657
-1522
-1624
-189
-1315
546
-780
256
-451
-847
-1181
-399
-224
533
-1293
799
-608
820
1108
-1335
-917
303
-236
-1493
-624
-932
-1683
721
-569
-644
1061
59
327
309
1138
-1525
793
534
1615
-1686
1475
-1286
-1677
24
-450
1555
-846
-352
-256
494
416
-552
-419
-720
440
-389
-854
-1133
1364
-1605
-1190
-1009
0
1379
-1339
-1120
455
1469
-1075
56
-1314
1559
668
887
1447
651
155
496
-619
-298
718
-941
1360
1612
-1162
-335
-1215
1578
-411
1011
-40
753
-792
250
875
138
70
-1178
601
-1771
802
1263
-301
-1634
-829
1903
841
929
-310
-1732
1424
1034
497
1798
-550
-1814
-17
-44
1716
38
-1805
1687
1044
1845
-1592
-895
788
1202
-858
949
613
-392
-745
-407
367
-1147
411
1737
1203
-1726
1234
-1224
1618
1757
902
-937
1790
794
-64
1362
-967
-1653
-1506
1076
-1265
786
-324
-616
-1834
1087
-1021
-863
-442
-2000
-193
492
1864
1563
635
465
-1549
-1548
1289
1634
575
-439
-523
1142
-1622
616
-89
809
-74
-47
1638
-149
-158
-1537
-1568
1631
-1057
-623
595
1110
-435
-1051
1871
-1767
-1498
-1341
101
644
-1005
-653
-285
-1634
253
-792
648
-1370
556
-822
-1732
-1734
-380
-1550
-1663
-1590
-675
-647
-1737
-2000
-1734
-1771
-70
-1316
1622
-1679
1168
261
1465
1558
829
-367
-292
1413
1024
-1769
1415
-766
-1766
1477
1671
1669
-1658
259
-34
-1647
158
-1381
168
1167
79
722
-1079
-1561
270
-1083
493
-1078
690
1442
-825
1403
1873
-1367
-521
5
262
1738
1250
-42
-696
1527
625
-504
1344
23
-1371
1015
-332
291
428
-1796
-1288
546
1669
-1461
627
-268
178
1694
1577
-1073
657
-1521
-1623
-189
-1320
567
-815
266
-471
-879
-1228
-398
-225
533
-1293
814
-609
821
1107
-1338
-918
306
-236
-1494
-627
-933
-1685
721
-567
-644
1061
58
329
308
1140
-1525
792
536
1616
-1688
1474
-1303
-1711
23
-456
1574
-857
-352
-257
494
415
-553
-419
-723
439
-389
-1746
-1134
1366
-1606
-1191
-1011
-4
1380
-1338
-1121
457
1469
-1076
1153
-1316
1558
695
890
1448
649
155
496
-618
-298
718
-941
1359
1612
-1164
-333
-1218
1579
-411
1011
-40
752
-793
251
873
138
69
-1180
602
-1772
802
1278
-304
-1651
-839
2000
849
929
-309
-1734
1424
1036
496
1798
-548
-1815
-16
-43
1716
38
-1808
1689
1045
1847
-1594
-894
790
1203
-861
948
613
-391
-742
-407
367
-1144
408
1738
1203
-1728
1234
-1224
1616
1703
873
-956
1825
770
-62
1330
-945
-1613
-1470
1053
-1234
792
-326
-617
-1843
1093
-1583
-863
-444
-1766
-192
494
1072
1572
640
469
-1558
-1558
1297
1636
573
-439
-524
1144
-1622
615
-89
809
-74
-47
1639
-149
-158
-1537
-1570
1631
-1057
-623
595
1108
-427
-1052
1871
-1999
-1500
-1342
100
646
-1005
-653
-286
-1634
254
-793
648
-1370
556
-821
-1732
-1734
-381
-1550
-1664
-1622
-688
-663
-1737
-1732
-1735
-1772
-70
-1733
1623
-1712
976
266
1464
1559
829
-366
-290
1412
1024
-1770
1415
-766
-1766
1477
1670
1668
-1658
260
-594
-1646
157
-1380
168
1165
79
724
-1079
-1562
270
-1080
492
-1056
689
1442
-825
1403
1873
-1340
-511
4
262
1738
1250
-42
-697
1526
624
-507
1342
23
-1396
1035
-339
291
426
-1797
-1288
546
1669
-1496
642
-276
181
1734
1616
-1072
657
-1522
-1625
-189
-1318
566
-814
265
-471
-877
-1226
-399
-225
533
-1294
798
-609
821
1107
-1338
-918
303
-237
-1494
-627
-934
-1685
720
-569
-645
1060
58
328
308
1139
-1526
792
536
1614
-1688
1474
-1288
-1678
23
-450
1555
-846
-351
-257
494
416
-553
-418
-723
439
-390
-855
-1133
1364
-1607
-1192
-1009
-2
1380
-1340
-1122
455
1470
-1077
55
-1315
1558
668
888
1447
649
155
494
-619
-298
718
-942
1359
1612
-1164
-335
-1217
1579
-409
1011
-40
752
-793
251
873
138
69
-1179
601
-1770
802
1278
-304
-1652
-839
1921
848
930
-309
-1734
1424
1035
495
1799
-550
-1814
-17
-44
1715
38
-1807
1689
1044
1846
-1593
-894
789
1202
-861
947
613
-392
-746
-425
382
-1193
410
1738
1202
-1728
1235
-1224
1616
1757
902
-938
1790
794
-65
1329
-946
-1615
-1470
1052
-1232
787
-324
-616
-1837
1088
-1019
-863
-443
-1767
-194
492
1072
1563
636
464
-1551
-1549
1289
1635
573
-439
-523
1142
-1622
615
-89
809
-75
-48
1639
-149
-158
-1538
-1570
1632
-1057
-623
595
1108
-436
-1051
1871
-1767
-1501
-1344
100
646
-1005
-653
-286
-1635
251
-793
647
-1398
567
-839
-1767
-1769
-389
-1583
-1698
-1655
-702
-677
-1773
-1768
-1770
-1808
-71
-1768
1656
-1748
997
270
1495
1590
846
-373
-296
1441
1045
-1806
1445
-781
-1802
1508
1704
1702
-1693
266
-607
-1681
160
-1409
171
1191
80
738
-1101
-1594
276
-1102
502
-1077
703
1471
-842
1432
1911
-1367
-521
3
267
1767
1271
-42
-708
1552
634
-505
1335
24
-1390
1029
-337
297
435
-1833
-1314
557
1703
-1510
649
-278
187
1750
1631
-1094
670
-1553
-1658
-193
-1345
578
-830
271
-481
-896
-1252
-407
-229
544
-1320
814
-620
837
1130
-1365
-937
309
-242
-1523
-641
-953
-1719
736
-581
-658
1082
59
335
314
1161
-1557
809
546
1647
-1722
1505
-1314
-1712
23
-459
1588
-864
-359
-262
504
423
-564
-428
-738
449
-398
-872
-1156
1393
-1639
-1239
-1053
-4
1408
-1366
-1144
465
1500
-1099
56
-1342
1590
683
906
1477
662
158
505
-632
-304
734
-961
1388
1945
-1188
607
-1242
1611
-419
1031
-41
767
-809
255
892
141
71
-1203
615
-1805
819
1304
-311
-1685
-856
1960
865
949
-316
-1769
1454
1056
505
1836
-561
-1851
-17
-45
1750
39
-1843
1723
1067
1887
-1628
-913
805
1227
-879
966
626
-400
-761
-416
373
-1170
418
1773
1227
-1763
1260
-1249
1649
1793
920
-957
1825
810
-66
1356
-965
-1648
-1500
1073
-1258
803
-332
-629
-1874
1110
-1042
-880
-451
-1803
-198
502
1094
1595
649
473
-1582
-1581
1315
1668
585
-448
-534
1166
-1655
629
-91
826
-77
-48
1672
-152
-161
-1569
-1602
1665
-1079
-635
607
1131
-444
-1072
1910
-1803
-1531
-1370
103
657
-1026
-666
-292
-686
256
-809
660
-1398
567
-839
-1767
-1999
-776
-1583
-1697
-1655
-702
-676
-1772
-1763
-1764
-1803
-71
-1763
1650
-1679
996
270
1494
1590
848
-373
-296
1441
1045
-1805
1444
-782
-1801
1507
1705
1702
-1693
265
-606
-1681
160
-1409
171
1190
80
738
-1100
-1594
276
-1102
502
-1078
704
1471
-842
1432
1911
-1367
-520
4
267
1773
1276
-42
-711
1557
636
-505
1335
23
-1390
1028
-337
297
436
-1834
-1314
557
1703
-1511
649
-278
187
1751
1630
-1094
670
-1553
-1658
-192
-1345
579
-831
270
-481
-896
-1252
-407
-230
544
-1320
815
-620
837
1130
-1365
-937
309
-216
-1523
-641
-951
-1719
735
-580
-657
1082
60
335
314
1164
-1557
809
546
1647
-1721
1505
-1330
-1733
23
-468
1619
-864
-359
-261
504
423
-564
-428
-738
448
-398
-872
-1157
1392
-1638
-1239
-1053
-4
1408
-1366
-1145
464
1499
-1099
56
-1342
1590
682
906
1477
662
158
505
-632
-303
735
-961
1388
1946
-1188
-342
-1242
1611
-419
1031
-41
767
-809
255
892
142
71
-1204
614
-1807
818
1304
-310
-1686
-856
1960
865
949
-316
-1767
1453
1056
506
1836
-560
-1851
-17
-45
1751
39
-1845
1723
1065
1884
-1626
-913
805
1227
-880
966
626
-399
-760
-416
373
-1171
418
1762
1219
-1752
1252
-1241
1639
1793
920
-957
1826
811
-66
1356
-965
-1647
-1500
1073
-1258
803
-332
-629
-1875
1110
-1042
-882
-453
-1803
-197
1962
1177
1595
649
474
-1583
-1581
1315
1669
587
-449
-535
1165
-1655
629
-92
827
-77
-49
1673
-152
-161
-1567
-1603
1666
-1079
-636
608
1131
-445
-1072
1910
-1906
-1470
-1446
110
693
-45
-665
-292
-686
256
-809
660
-1370
557
-821
-1730
-1734
-381
-1550
-1664
-1622
-687
-661
-1736
-1732
-1734
-1771
-70
-1732
1623
-1713
976
265
1464
1559
829
-367
-292
1414
1024
-1769
1416
-766
-1765
1478
1670
1669
-1658
260
-595
-1646
158
-1380
169
1166
78
724
-1079
-1562
271
-1080
492
-1056
691
1442
-825
1403
1873
-1340
-511
3
262
1739
1251
-42
-697
1527
624
-494
1309
24
-1362
1008
-329
292
426
-1796
-1288
546
1671
-1481
636
-271
183
1715
1598
-1072
657
-1520
-1625
-187
-1318
568
-813
266
-471
-878
-1227
-399
-224
533
-1294
799
-608
820
1108
-1338
-918
304
-237
-1493
-628
-934
-1684
720
-569
-645
1061
58
329
308
1139
-1526
794
535
1615
-1686
1474
-1288
-1678
24
-449
1555
-846
-351
-256
496
415
-553
-419
-722
439
-390
-856
-1132
1364
-1607
-1192
-1010
-2
1381
-1340
-1122
455
1470
-1077
55
-1314
1558
668
889
1447
649
156
506
-618
-296
718
-941
1359
1612
-1164
-333
-1217
1581
-410
1010
-39
753
-792
252
875
140
69
-1188
605
-1783
808
1279
-305
-1650
-837
1922
849
930
-310
-1734
1424
1036
496
1800
-550
-1814
-17
-44
1715
38
-1808
1689
1045
1847
-1593
-893
790
1203
-861
947
613
-392
-746
-408
368
-1147
411
1737
1202
-1727
1235
-1223
1617
1757
902
-938
1789
795
-64
1330
-946
-1615
-1469
1054
-1232
787
-325
-616
-1836
1089
-1021
-862
-443
-1767
-193
493
1072
1565
636
464
-1551
-1549
1289
1635
574
-440
-523
1143
-1622
615
-90
809
-74
-47
1640
-151
-165
-1590
-1625
1687
-1095
-623
595
1109
-441
-1050
1871
-1767
-1500
-1342
101
644
-1005
-652
-285
-1635
251
-792
647
-1342
545
-805
-1697
-1697
-372
-1489
-1596
-1526
-648
-621
-1668
-1662
-1665
-1701
-68
-1664
1559
-1644
1144
257
1435
1526
812
-353
-280
1357
984
-1699
1359
-736
-1696
1418
1605
1603
-1592
249
-32
-1582
152
-1325
162
1120
75
694
-1036
-1499
260
-1040
473
-1012
662
1385
-791
1348
1799
-1285
-490
5
252
1670
1201
-41
-668
1466
601
-192
1259
23
-1308
970
-316
279
426
-1796
-1287
525
1603
-1403
601
-259
171
1627
1514
-1031
631
-1461
-1559
-181
-1268
541
-777
255
-450
-837
-1169
-381
-216
512
-1242
766
-585
789
1064
-1338
-918
303
-226
-1434
-599
-896
-1615
692
-544
-630
1039
57
322
302
1117
-1493
775
524
1583
-1653
1444
-1251
-1630
25
-437
1512
-823
-338
-247
474
399
-531
-403
-694
421
-373
-855
-1134
1312
-1543
-1144
-971
-3
1325
-1285
-1077
439
1411
-1033
54
-1264
1497
667
855
1391
623
149
485
-606
-292
705
-922
1331
1579
-1139
-325
-1193
1547
-403
971
-38
722
-761
240
839
132
67
-1132
577
-1702
770
1227
-292
-1586
-806
1921
815
892
-297
-1665
1368
995
476
1727
-527
-1743
-16
-41
1649
36
-1737
1622
1004
1774
-1531
-858
759
1155
-827
909
590
-375
-712
-392
353
-1099
392
1669
1155
-1659
1185
-1176
1552
1669
857
-936
1788
755
-61
1277
-907
-1550
-1412
1011
-1185
768
-317
-603
-1793
1068
-997
-829
-426
-1696
-185
474
1030
1510
614
450
-1496
-1496
1247
1571
551
-421
-504
1099
-1558
591
-86
777
-72
-45
1574
-143
-152
-1476
-1508
1566
-1015
-599
571
1065
-410
-1010
1797
-1697
-1441
-1370
96
620
-965
-627
-274
-1569
243
-760
622
-1343
545
-805
-1698
-1699
-371
-1519
-1630
-1558
-661
-634
-1702
-1696
-1699
-1736
-69
-1698
1590
-1645
1146
256
1437
1527
812
-360
-286
1385
1004
-1734
1387
-751
-1730
1447
1638
1636
-1625
254
-33
-1614
155
-1353
165
1143
77
709
-1057
-1530
265
-1060
484
-1033
677
1413
-808
1375
1836
-1311
-499
5
257
1703
1225
-42
-682
1496
613
-196
1285
24
-1335
989
-323
285
436
-1833
-1313
536
1637
-1432
614
-264
174
1660
1545
-1052
644
-1491
-1591
-185
-1293
556
-799
261
-461
-860
-1203
-390
-220
522
-1267
782
-597
805
1085
-1311
-900
299
-231
-1463
-612
-914
-1649
706
-555
-630
1040
57
322
303
1118
-1494
777
524
1584
-1654
1445
-1277
-1663
25
-447
1543
-839
-344
-252
484
408
-542
-411
-708
430
-381
-872
-1157
1339
-1573
-1167
-991
-4
1352
-1311
-1099
448
1440
-1054
55
-1290
1527
681
872
1419
637
152
485
-606
-292
704
-922
1332
1580
-1141
-326
-1193
1547
-403
992
-39
737
-777
245
856
136
68
-1156
590
-1737
786
1252
-298
-1618
-822
1960
832
910
-303
-1698
1396
1015
487
1762
-538
-1779
-16
-42
1682
37
-1770
1656
1025
1810
-1562
-876
774
1180
-844
929
601
-383
-727
-400
360
-1121
400
1703
1180
-1693
1209
-1200
1584
1669
856
-937
1789
755
-61
1303
-926
-1582
-1441
1032
-1209
775
-319
-605
-1806
1071
-1005
-846
-435
-1732
-189
484
1051
1542
627
460
-1527
-1527
1271
1603
562
-429
-513
1121
-1590
603
-88
793
-73
-46
1606
-145
-161
-1569
-1603
1598
-1036
-611
584
1086
-418
-1031
1834
-1777
-1510
-1350
101
653
-1012
-640
-279
-1601
249
-777
635
-1370
557
-822
-1732
-1734
-380
-1551
-1664
-1622
-688
-663
-1738
-1733
-1735
-1772
-70
-1733
1622
-1713
976
265
1464
1558
829
-366
-291
1412
1024
-1770
1415
-766
-1766
1477
1670
1668
-1659
260
-595
-1647
157
-1381
168
1165
79
723
-1079
-1562
270
-1080
492
-1055
689
1442
-825
1403
1873
-1340
-511
3
262
1738
1250
-42
-697
1526
623
-495
1308
23
-1362
1007
-330
291
426
-1797
-1288
546
1669
-1481
636
-272
183
1715
1597
-1073
657
-1522
-1625
-189
-1318
566
-814
266
-471
-878
-1227
-399
-225
533
-1293
798
-609
820
1107
-1338
-918
303
-237
-1494
-628
-934
-1685
721
-568
-645
1060
58
328
308
1138
-1526
793
535
1614
-1688
1474
-1288
-1678
23
-450
1555
-847
-352
-257
495
415
-553
-419
-723
439
-390
-855
-1134
1364
-1607
-1214
-1032
-3
1380
-1340
-1033
419
1352
-990
51
-1210
1559
668
888
1447
649
155
494
-619
-298
718
-942
1360
1906
-1164
595
-1217
1579
-411
1010
-40
752
-793
250
873
138
69
-1180
601
-1771
802
1278
-305
-1652
-839
1921
848
930
-310
-1734
1424
1035
495
1799
-550
-1814
-17
-44
1716
38
-1808
1689
1044
1846
-1593
-895
789
1202
-861
947
613
-391
-746
-408
366
-1147
410
1738
1202
-1728
1235
-1223
1616
1757
902
-938
1789
795
-65
1329
-946
-1614
-1469
1052
-1233
788
-325
-616
-1837
1088
-1021
-863
-442
-1767
-194
492
1072
1563
637
465
-1551
-1549
1289
1636
573
-440
-524
1142
-1622
615
-89
809
-75
-48
1639
-149
-158
-1538
-1571
1632
-1057
-623
595
1108
-436
-1051
1871
-1767
-1500
-1344
100
644
-1005
-653
-286
-672
252
-793
647
-1418
575
-851
-1793
-1733
-1068
-1551
-1664
-1622
-688
-663
-1738
-1732
-1735
-1772
-70
-1733
1622
-1713
976
265
1464
1559
829
-366
-291
1412
1024
-1770
1415
-766
-1766
1477
1670
1668
-1659
261
-595
-1646
158
-1380
168
1165
78
723
-1079
-1561
270
-1080
493
-1056
690
1443
-825
1431
1873
-1339
-511
3
263
1738
1250
-42
-697
1526
623
-495
1308
23
-1389
1028
-330
292
426
-1796
-1287
547
1669
-1481
637
-272
183
1716
1598
-1072
657
-1521
-1625
-189
-1318
566
-814
265
-471
-876
-1227
-399
-225
533
-1293
798
-609
820
1107
-1338
-917
303
-237
-1493
-628
-932
-1683
720
-569
-645
1060
59
328
308
1139
-1526
793
535
1614
-1688
1474
-1287
-1678
23
-449
1555
-847
-352
-257
494
416
-552
-419
-723
439
-389
-854
-1133
1364
-1607
-1192
-1009
-2
1380
-1340
-1100
456
1469
-1077
55
-1313
1558
668
888
1447
649
155
494
-619
-298
719
-941
1359
1611
-1164
-335
-1217
1579
-411
1011
-40
752
-793
250
873
138
69
-1180
602
-1771
802
1280
-305
-1652
-838
1921
848
930
-310
-1734
1424
1036
496
1799
-550
-1814
-16
-44
1715
38
-1807
1688
1046
1846
-1593
-895
790
1202
-861
947
613
-392
-745
-408
367
-1148
410
1737
1202
-1728
1235
-1224
1616
1757
902
-937
1790
794
-65
1329
-946
-1615
-1468
1053
-1233
787
-324
-616
-1836
1089
-1020
-863
-443
-1765
-194
492
1072
1563
636
464
-1550
-1548
1289
1635
573
-440
-523
1142
-1622
616
-90
809
-75
-47
1639
-149
-158
-1538
-1571
1633
-1057
-623
595
1108
-436
-1051
1872
-1767
-1500
-1343
102
644
-1005
-653
-286
-1635
251
-793
647
-1398
567
-839
-1767
-2000
-776
-1583
-1698
-1655
-702
-677
-1773
-1768
-1770
-1808
-71
-1768
1655
-1748
996
270
1494
1590
846
-373
-297
1441
1045
-1806
1444
-782
-1802
1507
1704
1702
-1693
265
-607
-1681
160
-1409
171
1189
80
738
-1101
-1594
276
-1102
502
-1078
703
1471
-842
1432
1911
-1367
-521
3
267
1773
1276
-43
-711
1557
636
-505
1335
23
-1390
1028
-337
297
435
-1834
-1314
557
1703
-1511
649
-278
187
1750
1630
-1095
670
-1553
-1658
-193
-1345
578
-831
270
-481
-896
-1252
-407
-230
544
-1320
814
-621
837
1130
-1365
-937
309
-216
-1524
-641
-953
-1719
735
-581
-658
1082
59
335
314
1161
-1557
808
546
1647
-1722
1504
-1314
-1712
23
-459
1587
-864
-359
-262
504
423
-564
-463
-738
448
-398
-872
-1157
1392
-1640
-1239
-1053
-4
1408
-1367
-1145
464
1499
-1099
56
-1342
1590
682
906
1477
662
158
504
-632
-304
733
-961
1387
1945
-1188
607
-1242
1611
-419
1031
-41
767
-809
255
891
141
70
-1204
613
-1807
818
1304
-311
-1686
-856
1960
865
949
-316
-1769
1453
1056
505
1836
-561
-1851
-17
-45
1750
39
-1845
1722
1065
1884
-1626
-914
805
1227
-879
966
626
-400
-761
-416
373
-1171
418
1772
1227
-1763
1260
-1249
1649
1793
920
-957
1825
810
-66
1356
-965
-1648
-1500
1073
-1258
803
-332
-629
-1875
1110
-1042
-881
-452
-1803
-198
502
1176
1595
649
473
-1583
-1581
1315
1668
585
-449
-535
1165
-1655
628
-92
826
-77
-49
1672
-152
-161
-1569
-1603
1665
-1079
-636
37
1131
-445
-1072
1909
-1906
-1618
-1446
110
693
-45
-665
-292
-1667
257
-809
660
-1370
556
-822
-1732
-1734
-380
-1550
-1663
-1590
-675
-647
-1735
-1731
-1734
-1770
-69
-1733
1623
-1679
1168
261
1465
1558
829
-366
-292
1413
1024
-1769
1415
-765
-1766
1478
1671
1670
-1658
259
-34
-1647
158
-1380
169
1166
79
722
-1079
-1561
270
-1083
493
-1055
691
1442
-825
1403
1874
-1339
-510
5
262
1738
1250
-43
-696
1527
625
-200
1311
23
-1362
1009
-330
292
428
-1796
-1288
546
1669
-1461
626
-269
178
1694
1577
-1073
657
-1521
-1623
-189
-1320
568
-814
266
-471
-879
-1228
-397
-225
533
-1293
798
-609
821
1108
-1338
-918
305
-236
-1493
-624
-933
-1683
720
-567
-644
1061
58
330
308
1140
-1525
792
535
1616
-1688
1475
-1302
-1697
25
-456
1574
-857
-352
-256
494
415
-552
-419
-723
439
-388
-1746
-1134
1367
-1606
-1191
-1009
-4
1380
-1338
-1121
457
1469
-1075
55
-1316
1558
695
891
1448
649
156
496
-618
-298
718
-940
1360
1612
-1164
-333
-1218
1579
-410
1011
-40
752
-793
250
873
139
69
-1180
601
-1772
802
1278
-304
-1651
-838
2000
850
930
-308
-1734
1424
1037
497
1798
-549
-1815
-15
-42
1716
38
-1807
1689
1046
1847
-1594
-894
790
1203
-861
947
613
-390
-742
-408
367
-1144
408
1738
1203
-1728
1234
-1224
1616
1703
873
-956
1825
771
-62
1330
-945
-1613
-1470
1053
-1234
791
-326
-617
-1843
1093
-1024
-863
-444
-1767
-193
494
1072
1572
640
468
-1558
-1557
1297
1636
573
-439
-523
1145
-1620
615
-89
809
-73
-47
1639
-149
-158
-1537
-1570
1631
-1057
-623
595
1108
-426
-1052
1871
-1766
-1500
-1341
100
646
-1005
-653
-286
-1634
253
-793
648
-1396
567
-837
-1766
-1768
-386
-1581
-1697
-1654
-702
-676
-1771
-1771
-1773
-1810
-71
-1770
1658
-1746
996
270
1493
1589
846
-372
-297
1441
1044
-1805
1443
-781
-1800
1508
1704
1701
-1692
265
-607
-1680
160
-1409
171
1188
80
737
-1100
-1593
275
-1101
502
-1076
703
1471
-841
1431
1912
-1366
-520
3
267
1773
1275
-43
-711
1557
635
-504
1334
23
-1389
1027
-336
297
435
-1833
-1314
557
1702
-1511
649
-277
187
1749
1629
-1093
670
-1552
-1657
-193
-1344
577
-829
270
-480
-896
-1252
-407
-228
544
-1319
814
-620
837
1129
-1365
-936
309
-242
-1524
-641
-953
-1719
734
-580
-658
1082
59
335
314
1161
-1555
808
546
1647
-1722
1503
-1314
-1712
23
-459
1586
-864
-359
-262
504
423
-563
-427
-737
449
-398
-872
-1156
1391
-1638
-1238
-1052
-3
1409
-1367
-1143
464
1499
-1098
56
-1341
1589
682
906
1476
662
158
504
-630
-304
732
-961
1386
1944
-1187
607
-1240
1611
-418
1030
-41
768
-809
255
890
142
70
-1204
613
-1806
818
1304
-310
-1683
-856
1959
865
949
-316
-1769
1454
1056
505
1835
-561
-1850
-17
-45
1749
39
-1843
1722
1065
1883
-1624
-913
806
1226
-878
966
625
-400
-760
-416
373
-1171
418
1772
1226
-1763
1260
-1248
1648
1793
922
-957
1825
810
-66
1356
-965
-1647
-1499
1073
-1258
803
-331
-628
-1874
1111
-1041
-880
-452
-1802
-198
502
1093
1594
649
473
-1582
-1580
1316
1670
586
-449
-534
1165
-1654
627
-92
825
-75
-49
1673
-152
-161
-1569
-1601
1665
-1078
-635
608
1131
-445
-1072
1908
-1802
-1531
-1370
102
657
-1025
-666
-292
-684
256
-809
661
-1343
545
-806
-1698
-1699
-372
-1519
-1630
-1558
-661
-634
-1702
-1696
-1699
-1736
-68
-1698
1591
-1645
1145
256
1436
1527
812
-360
-285
1385
1004
-1733
1387
-750
-1731
1448
1638
1636
-1625
254
-33
-1614
155
-1353
165
1143
77
708
-1056
-1530
265
-1079
491
-1051
688
1437
-822
1375
1836
-1311
-500
5
257
1704
1225
-42
-681
1496
615
-195
1286
23
-1335
989
-323
285
435
-1833
-1313
535
1637
-1432
614
-264
174
1661
1545
-1052
645
-1491
-1591
-184
-1294
557
-799
261
-461
-861
-1203
-389
-219
524
-1267
782
-597
806
1085
-1310
-900
299
-231
-1463
-612
-914
-1649
706
-555
-629
1041
57
322
302
1117
-1494
777
524
1584
-1654
1445
-1277
-1663
25
-447
1543
-840
-345
-252
485
408
-542
-411
-707
431
-381
-872
-1157
1339
-1574
-1167
-991
-4
1352
-1311
-1176
476
1538
-1129
57
-1377
1527
681
872
1420
636
152
486
-606
-291
704
-921
1332
1581
-1141
-326
-1194
1548
-403
991
-39
737
-777
246
856
135
68
-1156
590
-1737
786
1252
-298
-1618
-821
1960
832
910
-303
-1698
1396
1015
486
1762
-538
-1779
-16
-42
1683
37
-1772
1655
1024
1810
-1562
-875
774
1179
-844
928
601
-376
-713
-421
356
-1104
396
1704
1179
-1693
1210
-1200
1584
1669
856
-937
1789
755
-60
1304
-926
-1582
-1441
1032
-1209
775
-319
-605
-1806
1071
-1004
-846
-434
-1731
-189
484
1052
1541
627
460
-1527
-1527
1272
1604
562
-430
-512
1122
-1590
603
-88
793
-73
-45
1606
-146
-155
-1506
-1539
1600
-1035
-611
583
1086
-417
-1031
1834
-1732
-1469
-1315
98
633
-983
-640
-280
-1601
249
-777
635
-1370
557
-822
-1733
-1734
-380
-1583
-1697
-1655
-675
-647
-1737
-1731
-1734
-1770
-70
-1733
1622
-1679
1168
261
1465
1558
829
-367
-292
1413
1024
-1769
1415
-781
-1801
1507
1704
1702
-1691
259
-34
-1647
158
-1381
169
1166
79
722
-1079
-1561
270
-1083
493
-1055
691
1442
-825
1403
1873
-1339
-510
5
262
1738
1250
-43
-696
1528
626
-200
1311
23
-1362
1009
-330
291
431
-1813
-1288
546
1669
-1461
626
-269
178
1694
1577
-1073
657
-1520
-1623
-189
-1319
567
-815
266
-471
-879
-1228
-398
-225
566
-1372
798
-609
821
1107
-1338
-918
305
-236
-1493
-625
-933
-1683
720
-567
-644
1061
58
329
308
1140
-1525
792
535
1616
-1688
1474
-1303
-1697
25
-456
1574
-857
-359
-262
504
423
-564
-426
-723
439
-389
-1747
-1133
1366
-1606
-1191
-1011
-3
1380
-1338
-1143
466
1499
-1098
56
-1342
1558
695
890
1448
649
155
495
-618
-298
718
-941
1359
1645
-1187
-340
-1242
1611
-418
1011
-40
753
-793
250
873
138
69
-1180
601
-1772
802
1278
-304
-1651
-839
2000
849
929
-309
-1734
1424
1036
496
1834
-560
-1851
-16
-44
1750
38
-1808
1689
1045
1847
-1594
-894
790
1203
-861
947
613
-390
-742
-408
368
-1144
408
1738
1203
-1728
1234
-1224
1616
1703
873
-956
1825
770
-62
1330
-945
-1614
-1470
1053
-1234
791
-326
-617
-1842
1093
-1026
-863
-444
-1767
-193
494
1072
1572
640
468
-1558
-1558
1297
1636
573
-439
-524
1144
-1622
615
-90
809
-74
-47
1639
-149
-158
-1537
-1570
1631
-1057
-635
607
1131
-436
-1073
1909
-1767
-1500
-1341
100
646
-1005
-653
-286
-1666
257
-793
648
-1398
567
-838
-1767
-1769
-389
-1583
-1697
-1655
-702
-677
-1773
-1768
-1770
-1808
-71
-1768
1655
-1748
996
270
1494
1590
846
-373
-297
1441
1045
-1806
1444
-782
-1802
1507
1705
1702
-1693
265
-607
-1680
161
-1408
171
1189
80
739
-1101
-1594
277
-1102
502
-1078
703
1472
-842
1432
1911
-1367
-520
3
267
1773
1277
-43
-711
1558
636
-505
1335
23
-1390
1028
-337
298
435
-1834
-1314
557
1703
-1511
649
-278
187
1750
1630
-1095
670
-1553
-1658
-193
-1344
578
-831
271
-481
-896
-1252
-407
-229
544
-1318
814
-621
837
1130
-1365
-937
309
-242
-1524
-641
-952
-1719
735
-581
-658
1083
60
335
314
1161
-1557
809
547
1647
-1722
1504
-1313
-1712
23
-459
1588
-864
-359
-262
504
423
-563
-428
-738
449
-398
-871
-1157
1392
-1640
-1239
-1053
-4
1408
-1367
-1145
465
1499
-1098
57
-1342
1590
682
906
1477
662
159
504
-632
-304
733
-961
1387
1946
-1188
607
-1242
1611
-418
1031
-40
768
-809
256
891
141
70
-1203
613
-1806
818
1304
-311
-1686
-856
1960
866
949
-316
-1768
1453
1056
505
1836
-561
-1851
-17
-44
1750
39
-1845
1722
1065
1884
-1626
-913
805
1227
-879
966
626
-400
-761
-416
373
-1171
418
1773
1227
-1763
1260
-1249
1650
1793
920
-957
1825
810
-66
1356
-965
-1648
-1500
1073
-1258
803
-332
-629
-1875
1110
-1042
-881
-452
-1803
-198
503
1094
1595
649
473
-1583
-1580
1315
1668
585
-448
-535
1165
-1654
628
-92
827
-77
-48
1672
-152
-161
-1568
-1603
1665
-1079
-636
607
1132
-445
-1070
1909
-1803
-1532
-1370
102
657
-1026
-665
-292
-686
256
-808
660
-1398
567
-839
-1767
-1769
-389
-1583
-1698
-1654
-702
-677
-1773
-1768
-1770
-1808
-71
-1768
1655
-1748
996
270
1495
1591
846
-373
-297
1441
1045
-1805
1445
-782
-1802
1507
1704
1703
-1693
266
-606
-1681
160
-1408
171
1189
81
738
-1100
-1594
276
-1102
502
-1078
704
1471
-842
1432
1911
-1367
-521
4
267
1774
1276
-43
-711
1557
637
-504
1335
23
-1390
1030
-336
297
435
-1833
-1314
557
1703
-1511
649
-278
187
1750
1631
-1095
670
-1553
-1658
-192
-1345
578
-830
270
-481
-896
-1252
-407
-230
544
-1320
815
-621
837
1130
-1365
-937
309
-242
-1524
-641
-953
-1719
735
-581
-658
1082
59
335
314
1161
-1556
808
546
1647
-1722
1504
-1314
-1712
23
-459
1587
-864
-359
-261
504
424
-564
-428
-738
448
-398
-872
-1157
1392
-1640
-1239
-1053
-4
1408
-1367
-1143
464
1499
-1099
56
-1341
1590
682
906
1477
662
158
504
-632
-303
733
-960
1387
1945
-1188
607
-1242
1611
-419
1031
-41
767
-809
255
891
141
70
-1204
613
-1807
819
1305
-311
-1686
-856
1960
865
949
-316
-1768
1453
1056
506
1836
-561
-1851
-17
-45
1750
39
-1844
1722
1065
1884
-1625
-913
805
1227
-879
966
626
-400
-761
-416
373
-1171
418
1773
1228
-1763
1260
-1249
1650
1793
920
-957
1827
810
-65
1356
-965
-1648
-1499
1073
-1258
803
-332
-629
-1874
1110
-1042
-881
-452
-1803
-198
502
1094
1595
649
473
-1583
-1581
1316
1668
585
-449
-535
1165
-1654
628
-92
826
-77
-49
1672
-152
-161
-1569
-1603
1665
-1078
-636
607
1131
-445
-1071
1909
-1803
-1531
-1371
103
658
-1025
-665
-292
-686
256
-809
660
-1398
567
-839
-1767
-2000
-776
-1582
-1698
-1655
-701
-677
-1773
-1768
-1769
-1808
-71
-1768
1656
-1748
996
270
1495
1590
846
-373
-297
1441
1046
-1806
1446
-782
-1802
1508
1704
1702
-1693
265
-607
-1681
160
-1409
172
1189
80
738
-1101
-1594
276
-1102
502
-1078
703
1471
-842
1432
1912
-1367
-521
3
267
1773
1276
-43
-711
1557
636
-505
1335
23
-1390
1028
-337
297
435
-1834
-1314
558
1704
-1511
649
-278
188
1750
1630
-1093
670
-1553
-1658
-193
-1345
579
-831
270
-481
-896
-1252
-407
-230
544
-1320
814
-621
837
1130
-1365
-937
309
-216
-1523
-640
-953
-1719
735
-580
-657
1082
60
335
314
1161
-1557
808
547
1647
-1722
1504
-1314
-1712
23
-459
1587
-864
-359
-262
504
423
-564
-428
-737
448
-398
-872
-1157
1392
-1640
-1239
-1051
-4
1408
-1367
-1145
465
1499
-1099
57
-1342
1559
682
906
1477
662
158
505
-632
-303
733
-961
1387
1945
-1188
607
-1242
1612
-419
1031
-41
767
-809
255
891
142
70
-1204
613
-1807
819
1304
-310
-1686
-856
1960
865
949
-316
-1769
1453
1056
505
1836
-561
-1850
-17
-45
1750
39
-1845
1722
1065
1884
-1625
-914
805
1227
-879
966
626
-399
-761
-416
374
-1170
418
1772
1227
-1763
1260
-1249
1649
1793
920
-957
1825
810
-66
1356
-965
-1648
-1500
1074
-1258
803
-332
-628
-1875
1110
-1042
-881
-452
-1803
-198
502
1177
1595
650
474
-1583
-1581
1316
1668
586
-449
-535
1165
-1655
628
-92
826
-77
-49
1672
-152
-161
-1569
-1603
1665
-1079
-636
607
1131
-445
-1072
1910
-1906
-1618
-1446
110
693
-45
-665
-292
-1667
257
-809
660
-1361
552
-816
-1721
-1722
-377
-1518
-1630
-1558
-661
-634
-1702
-1696
-1703
-1740
-69
-1698
1590
-1645
1145
256
1436
1527
812
-360
-286
1385
1005
-1734
1388
-751
-1731
1447
1638
1637
-1624
254
-33
-1614
156
-1353
166
1143
78
708
-1055
-1530
265
-1061
483
-1034
676
1414
-807
1375
1836
-1312
-499
5
257
1703
1226
-42
-682
1527
613
-196
1285
24
-1334
989
-321
285
419
-1760
-1262
536
1636
-1432
615
-263
174
1660
1545
-1051
644
-1491
-1591
-185
-1294
556
-798
261
-462
-860
-1202
-390
-220
522
-1267
798
-596
805
1086
-1311
-899
299
-230
-1462
-612
-914
-1648
706
-556
-630
1041
57
322
302
1117
-1494
776
524
1584
-1653
1445
-1276
-1662
25
-447
1544
-840
-345
-252
485
407
-542
-411
-708
430
-380
-1712
-1110
1339
-1574
-1167
-990
-4
1353
-1309
-1098
448
1440
-1053
54
-1290
1528
681
872
1419
636
152
486
-605
-292
705
-922
1332
1581
-1141
-325
-1194
1547
-402
991
-39
737
-777
245
857
135
68
-1155
589
-1737
787
1252
-298
-1618
-822
1960
832
911
-303
-1698
1396
1015
486
1762
-538
-1779
-16
-42
1683
37
-1772
1655
1024
1810
-1562
-876
774
1179
-844
928
601
-383
-727
-399
360
-1119
401
1703
1179
-1693
1209
-1200
1584
1670
856
-937
1789
756
-61
1333
-947
-1619
-1471
1054
-1235
775
-319
-605
-1806
1071
-1004
-846
-435
-1732
-189
484
1051
1542
627
459
-1527
-1527
1271
1603
562
-430
-514
1122
-1589
603
-88
793
-72
-46
1606
-146
-155
-1506
-1539
1598
-1035
-610
583
1086
-418
-1031
1834
-1731
-1469
-1315
98
632
-985
-661
-289
-814
256
-804
658
-1370
556
-822
-1733
-1734
-380
-1549
-1663
-1590
-675
-647
-1736
-1731
-1734
-1771
-70
-1733
1622
-1679
1168
261
1465
1558
829
-366
-292
1413
1024
-1769
1416
-766
-1766
1477
1671
1670
-1658
259
-34
-1647
158
-1381
168
1166
80
722
-1079
-1560
270
-1082
494
-1055
691
1442
-825
1403
1873
-1339
-510
5
263
1738
1250
-43
-696
1527
625
-200
1311
23
-1362
1009
-330
291
428
-1795
-1288
546
1669
-1461
627
-269
178
1694
1577
-1073
657
-1521
-1623
-189
-1320
567
-815
266
-471
-879
-1228
-398
-225
533
-1293
798
-609
821
1107
-1338
-918
305
-236
-1493
-625
-933
-1683
720
-567
-644
1061
58
329
308
1140
-1525
792
535
1616
-1688
1474
-1303
-1696
25
-456
1574
-857
-351
-256
494
415
-552
-419
-723
439
-388
-1747
-1134
1366
-1606
-1191
-1011
-4
1380
-1338
-1121
457
1469
-1076
56
-1316
1558
695
890
1448
649
155
495
-618
-298
718
-941
1360
1612
-1164
-333
-1217
1579
-411
1011
-39
752
-792
250
873
138
69
-1180
601
-1772
802
1278
-304
-1651
-839
2000
849
930
-309
-1734
1424
1036
496
1798
-549
-1815
-16
-42
1716
38
-1808
1689
1045
1847
-1593
-894
790
1203
-861
947
613
-391
-742
-408
367
-1144
408
1738
1204
-1728
1234
-1224
1616
1704
873
-956
1825
770
-62
1330
-945
-1614
-1470
1053
-1233
791
-326
-617
-1843
1093
-1026
-863
-444
-1766
-193
494
1072
1572
640
468
-1557
-1558
1297
1636
573
-439
-524
1144
-1622
615
-90
809
-74
-47
1640
-149
-158
-1537
-1570
1631
-1057
-623
596
1087
-427
-1052
1871
-1767
-1500
-1342
100
646
-1005
-653
-285
-1634
253
-793
648
-1398
567
-839
-1767
-1999
-776
-1583
-1696
-1655
-702
-676
-1772
-1763
-1764
-1803
-71
-1763
1650
-1679
996
270
1494
1590
848
-373
-296
1441
1045
-1805
1444
-782
-1801
1507
1705
1702
-1693
265
-606
-1681
160
-1409
171
1191
80
738
-1100
-1594
276
-1102
502
-1078
704
1471
-842
1432
1911
-1367
-520
4
267
1773
1276
-42
-711
1557
636
-505
1335
23
-1389
1028
-337
297
436
-1834
-1313
557
1703
-1511
649
-278
187
1751
1630
-1094
670
-1553
-1658
-192
-1345
579
-831
270
-481
-896
-1252
-407
-229
544
-1320
815
-620
837
1130
-1365
-937
309
-216
-1523
-641
-951
-1719
735
-580
-657
1082
60
335
314
1165
-1557
809
546
1647
-1721
1505
-1330
-1733
24
-468
1619
-864
-359
-261
504
423
-564
-427
-738
448
-398
-872
-1156
1392
-1638
-1239
-1053
-4
1408
-1366
-1145
464
1499
-1099
56
-1342
1590
682
907
1477
663
158
505
-632
-303
735
-961
1388
1946
-1188
-342
-1242
1611
-419
1032
-41
767
-809
255
892
142
72
-1204
614
-1807
818
1304
-310
-1686
-856
1960
865
949
-316
-1767
1453
1056
506
1836
-560
-1851
-16
-45
1751
39
-1845
1724
1065
1884
-1626
-913
805
1227
-880
966
626
-399
-760
-415
373
-1171
418
1762
1219
-1752
1252
-1241
1640
1793
920
-957
1826
811
-66
1357
-965
-1647
-1500
1073
-1258
803
-332
-629
-1875
1111
-1042
-882
-453
-1802
-197
1962
1177
1595
649
474
-1583
-1581
1315
1669
588
-449
-534
1165
-1655
629
-92
827
-77
-49
1673
-151
-161
-1567
-1603
1666
-1079
-636
608
1131
-445
-1072
1911
-1905
-1470
-1446
110
693
-45
-665
-292
-686
256
-809
660
-1370
556
-822
-1733
-1734
-380
-1550
-1663
-1590
-675
-647
-1737
-1731
-1734
-1771
-70
-1733
1622
-1679
1168
261
1465
1558
829
-367
-292
1413
1024
-1769
1415
-766
-1766
1477
1671
1669
-1658
259
-34
-1647
158
-1381
168
1166
79
722
-1079
-1561
270
-1083
493
-1055
690
1442
-825
1403
1873
-1339
-510
5
262
1738
1250
-43
-696
1527
625
-200
1311
23
-1362
1009
-330
291
428
-1796
-1288
546
1669
-1461
626
-269
178
1694
1577
-1073
657
-1521
-1623
-189
-1320
567
-815
266
-471
-879
-1228
-398
-225
533
-1293
798
-609
821
1107
-1338
-918
305
-236
-1493
-625
-933
-1683
720
-567
-644
1061
58
329
308
1140
-1525
792
535
1616
-1688
1474
-1303
-1697
25
-456
1574
-857
-352
-257
494
415
-553
-419
-723
439
-389
-1747
-1134
1366
-1606
-1191
-1011
-4
1380
-1338
-1121
457
1469
-1076
55
-1316
1558
695
890
1448
649
155
495
-618
-298
718
-941
1359
1612
-1164
-333
-1218
1579
-411
1011
-40
752
-793
250
873
138
69
-1180
601
-1772
802
1278
-304
-1651
-839
2000
849
929
-309
-1734
1424
1036
496
1798
-549
-1815
-16
-43
1716
38
-1808
1689
1045
1847
-1594
-894
790
1203
-861
947
613
-391
-742
-408
367
-1144
408
1738
1203
-1728
1234
-1224
1616
1703
873
-956
1825
770
-62
1330
-945
-1614
-1470
1053
-1234
791
-326
-617
-1843
1093
-1026
-863
-444
-1767
-193
494
1072
1572
640
468
-1558
-1558
1297
1636
573
-439
-524
1144
-1622
615
-90
809
-74
-47
1639
-149
-158
-1537
-1570
1631
-1057
-623
595
1108
-427
-1052
1871
-1767
-1500
-1342
100
646
-1005
-653
-286
-1634
253
-793
648
-1370
556
-822
-1732
-1733
-379
-1549
-1663
-1589
-674
-647
-1736
-1730
-1733
-1771
-70
-1732
1622
-1678
1168
261
1465
1558
828
-367
-291
1413
1024
-1768
1415
-766
-1766
1477
1671
1669
-1657
259
-34
-1646
158
-1380
168
1166
79
722
-1077
-1561
270
-1082
493
-1055
690
1441
-824
1403
1873
-1338
-510
5
262
1737
1250
-43
-696
1526
627
-199
1312
23
-1362
1009
-329
291
444
-1870
-1339
546
1670
-1461
626
-269
177
1693
1576
-1073
658
-1521
-1623
-188
-1320
568
-815
266
-471
-878
-1227
-397
-223
533
-1292
798
-609
822
1107
-1336
-918
305
-236
-1492
-624
-932
-1682
720
-566
-643
1062
58
328
308
1139
-1524
793
534
1616
-1687
1474
-1303
-1696
26
-456
1574
-857
-352
-257
495
416
-553
-419
-722
440
-389
-889
-1180
1366
-1605
-1190
-1011
-4
1379
-1337
-1121
457
1469
-1075
55
-1316
1558
695
889
1447
649
155
496
-618
-297
718
-940
1359
1613
-1164
-333
-1218
1579
-411
1011
-40
752
-793
251
873
138
69
-1179
602
-1772
802
1277
-304
-1650
-837
1999
849
928
-309
-1732
1424
1035
496
1797
-549
-1815
-16
-43
1716
38
-1807
1688
1044
1846
-1593
-892
789
1203
-861
947
613
-384
-727
-430
363
-1126
404
1737
1203
-1727
1234
-1224
1616
1702
873
-956
1825
770
-62
1330
-945
-1614
-1470
1053
-1233
791
-325
-617
-1842
1092
-1024
-863
-443
-1766
-193
494
1073
1572
640
468
-1558
-1558
1297
1636
573
-439
-523
1144
-1622
615
-90
809
-74
-46
1638
-149
-158
-1536
-1570
1632
-1057
-623
595
1108
-426
-1052
1871
-1767
-1498
-1341
100
646
-1004
-653
-286
-1633
253
-793
648
-1369
556
-821
-1732
-1734
-381
-1550
-1664
-1622
-688
-663
-1737
-1733
-1735
-1772
-70
-1733
1622
-1713
976
265
1465
1558
829
-365
-291
1412
1024
-1770
1415
-766
-1766
1477
1671
1668
-1659
261
-595
-1647
157
-1381
168
1165
78
723
-1079
-1562
270
-1080
492
-1055
689
1442
-825
1403
1874
-1340
-509
4
262
1738
1250
-42
-697
1526
623
-495
1308
23
-1362
-370
-330
291
426
-1797
-1288
547
1669
-1481
636
-272
183
1715
1597
-1073
657
-1522
-1625
-189
-1318
566
-814
266
-471
-878
-1227
-399
-224
533
-1294
799
-608
821
1107
-1338
-918
303
-237
-1494
-628
-934
-1685
721
-569
-645
1061
58
328
309
1138
-1525
792
535
1615
-1688
1474
-1288
-1677
23
-450
1555
-847
-351
-256
494
415
-552
-419
-723
439
-390
-855
-1134
1364
-1607
-1214
-1032
-4
1382
-1340
-1121
455
1469
-1076
56
-1315
1558
668
888
1447
649
155
494
-619
-298
719
-942
1359
1906
-1164
595
-1215
1579
-411
1010
-39
753
-793
250
874
138
70
-1180
601
-1771
802
1279
-305
-1652
-838
1921
849
931
-310
-1734
1424
1035
495
1799
-550
-1813
-17
-44
1715
39
-1807
1688
1044
1846
-1592
-894
790
1202
-861
947
613
-392
-746
-408
366
-1148
410
1739
1202
-1728
1235
-1224
1616
1757
903
-938
1789
794
-65
1329
-946
-1615
-1470
1052
-1233
787
-325
-616
-1837
1088
-1020
-863
-443
-1767
-194
-89
1072
1563
637
464
-1551
-1549
1290
1636
573
-440
-524
1142
-1621
615
-90
809
-75
-48
1639
-149
-158
-1537
-1571
1632
-1057
-622
595
1109
-436
-1050
1871
-1767
-1501
-1343
100
644
-1005
-653
-285
-672
251
-793
647
-1397
567
-838
-1768
-1769
-388
-1581
-1696
-1622
-688
-660
-1772
-1766
-1769
-1806
-71
-1768
1654
-1713
1191
266
1494
1589
846
-374
-298
1441
1044
-1804
1443
-781
-1801
1507
1704
1702
-1691
264
-35
-1680
161
-1409
171
1189
81
736
-1101
-1592
275
-1105
503
-1076
704
1471
-841
1431
1910
-1366
-520
5
267
1773
1275
-44
-710
1558
638
-204
1337
23
-1389
1029
-337
297
437
-1832
-1314
557
1702
-1490
639
-274
182
1728
1609
-1094
670
-1551
-1655
-193
-1346
578
-831
271
-480
-897
-1253
-406
-229
544
-1319
814
-621
837
1129
-1365
-936
311
-241
-1523
-637
-952
-1717
734
-578
-657
1082
59
336
314
1163
-1555
808
546
1648
-1722
1503
-1329
-1731
26
-465
1605
-874
-359
-262
504
423
-564
-427
-737
448
-397
-1782
-1157
1393
-1638
-1215
-1031
-4
1408
-1365
-1143
466
1498
-1098
56
-1342
1589
709
908
1477
662
158
505
-630
-304
732
-960
1386
1644
-1187
-340
-1242
1611
-419
1031
-41
767
-809
255
890
141
70
-1204
613
-1807
818
1304
-310
-1684
-856
2000
866
948
-315
-1769
1452
1057
506
1834
-560
-1851
-16
-44
1750
39
-1844
1723
1066
1884
-1626
-912
806
1227
-878
966
625
-399
-757
-416
374
-1167
416
1773
1227
-1763
1259
-1248
1648
1737
890
-975
1862
785
-63
1341
-954
-1629
-1483
1063
-1244
807
-333
-629
-1880
1115
-1047
-880
-453
-1802
-197
504
1093
1603
653
477
-1589
-1589
1323
1669
584
-448
-534
1167
-1654
627
-92
825
-75
-48
1672
-152
-161
-1568
-1601
1664
-1078
-635
607
1130
-436
-1073
1908
-1802
-1530
-1369
102
659
-1025
-666
-292
-1667
258
-809
661
-1370
556
-821
-1733
-1733
-380
-1550
-1663
-1590
-675
-647
-1737
-1730
-1734
-1771
-70
-1733
1622
-1679
1168
261
1465
1558
829
-367
-292
1413
1024
-1769
1416
-766
-1765
1477
1671
1669
-1658
260
-34
-1647
158
-1381
169
1166
80
722
-1079
-1561
270
-1083
493
-1055
690
1443
-824
1403
1873
-1339
-510
5
262
1738
1250
-43
-696
1527
625
-200
1311
24
-1362
1009
-330
291
428
-1796
-1313
546
1669
-1461
626
-269
178
1694
1577
-1072
657
-1521
-1623
-188
-1320
567
-815
266
-471
-879
-1228
-397
-225
567
-1373
798
-608
821
1108
-1338
-918
305
-236
-1493
-625
-933
-1683
720
-567
-644
1061
58
329
308
1141
-1525
793
536
1616
-1688
1474
-1303
-1696
25
-456
1575
-857
-352
-257
494
415
-553
-419
-723
439
-389
-1747
-1134
1366
-1606
-1190
-1011
-4
1381
-1338
-1121
457
1469
-1075
56
-1316
1558
695
891
1449
650
155
495
-618
-298
718
-941
1359
1612
-1164
-332
-1218
1579
-411
1011
-40
752
-793
250
874
138
69
-1180
601
-1772
802
1278
-304
-1651
-839
2000
849
929
-308
-1734
1424
1037
496
1799
-547
-1815
-15
-43
1716
39
-1808
1689
1045
1847
-1593
-893
790
1203
-861
947
613
-391
-746
-408
367
-1144
408
1738
1204
-1728
1235
-1224
1616
1703
873
-956
1825
770
-61
1330
-945
-1614
-1470
1053
-1233
792
-326
-617
-1842
1093
-1026
-863
-444
-1767
-191
495
1073
1572
641
468
-1557
-1558
1298
1636
573
-439
-523
1145
-1622
615
-90
809
-74
-46
1639
-149
-157
-1535
-1570
1632
-1057
-622
595
1108
-427
-1051
1872
-1767
-1500
-1342
100
646
-1005
-653
-286
-1666
257
-793
648
-1370
556
-822
-1733
-1734
-380
-1550
-1663
-1590
-675
-647
-1737
-1731
-1734
-1771
-70
-1733
1622
-1679
1168
261
1465
1558
829
-367
-292
1413
1024
-1769
1415
-766
-1766
1477
1671
1669
-1658
259
-34
-1647
158
-1381
168
1166
79
722
-1079
-1561
270
-1083
493
-1055
690
1442
-825
1403
1873
-1339
-510
5
262
1738
1250
-43
-696
1527
625
-200
1311
23
-1362
1009
-330
291
428
-1796
-1288
546
1669
-1461
626
-269
178
1694
1577
-1073
657
-1521
-1623
-189
-1320
567
-815
266
-471
-879
-1228
-398
-225
533
-1293
798
-609
821
1107
-1338
-918
305
-236
-1493
-625
-933
-1683
720
-567
-644
1061
58
329
308
1140
-1525
792
535
1616
-1688
1474
-1303
-1697
25
-456
1574
-857
-352
-257
494
415
-553
-419
-723
439
-389
-1747
-1134
1366
-1606
-1191
-1011
-4
1380
-1338
-1121
457
1469
-1076
55
-1316
1558
695
890
1448
649
155
495
-618
-298
718
-941
1359
1612
-1164
-333
-1218
1579
-411
1011
-40
752
-793
250
873
138
69
-1180
601
-1772
802
1278
-304
-1651
-839
2000
849
929
-309
-1734
1424
1036
496
1798
-549
-1815
-16
-43
1716
38
-1808
1689
1045
1847
-1594
-894
790
1203
-861
947
613
-391
-742
-408
367
-1144
408
1738
1203
-1728
1234
-1224
1616
1703
873
-956
1825
770
-62
1330
-945
-1614
-1470
1053
-1234
791
-326
-617
-1843
1093
-1026
-863
-444
-1767
-193
494
1072
1572
640
468
-1558
-1558
1297
1636
573
-439
-524
1144
-1622
615
-90
809
-74
-47
1639
-149
-158
-1537
-1570
1631
-1057
-623
595
1108
-427
-1052
1871
-1767
-1500
-1342
100
646
-1005
-653
-286
-1634
253
-793
648
-1369
556
-821
-1732
-1734
-381
-1550
-1664
-1622
-688
-663
-1737
-1733
-1735
-1772
-70
-1733
1622
-1713
976
265
1465
1558
829
-365
-291
1412
1024
-1770
1415
-766
-1766
1477
1671
1668
-1659
261
-595
-1647
157
-1381
168
1165
78
723
-1079
-1562
270
-1080
492
-1055
689
1442
-825
1403
1874
-1340
-509
4
262
1738
1250
-42
-697
1526
623
-495
1308
23
-1362
1007
-330
291
426
-1797
-1288
547
1669
-1481
636
-272
183
1715
1597
-1073
657
-1522
-1625
-189
-1318
566
-814
266
-471
-878
-1227
-399
-224
533
-1294
799
-608
821
1107
-1338
-918
303
-237
-1494
-628
-934
-1685
721
-569
-645
1061
58
328
309
1138
-1525
792
535
1615
-1688
1474
-1288
-1677
23
-450
1555
-847
-351
-256
494
415
-552
-419
-723
439
-390
-855
-1134
1364
-1607
-1214
-1032
-4
1382
-1340
-1121
455
1469
-1076
56
-1315
1558
668
888
1447
649
155
494
-619
-298
719
-942
1359
1906
-1164
595
-1215
1579
-411
1010
-39
753
-793
250
874
138
70
-1180
601
-1771
802
1279
-305
-1652
-838
1921
849
931
-310
-1734
1424
1035
495
1799
-550
-1813
-17
-44
1715
39
-1807
1688
1044
1846
-1592
-894
790
1202
-861
947
613
-392
-746
-408
366
-1148
410
1739
1202
-1728
1235
-1224
1616
1757
903
-938
1789
794
-65
1329
-946
-1615
-1470
1052
-1233
787
-325
-616
-1837
1088
-1020
-863
-443
-1767
-194
492
1072
1563
637
464
-1551
-1549
1290
1636
573
-440
-524
1142
-1621
615
-90
809
-75
-48
1639
-149
-158
-1537
-1571
1632
-1057
-622
595
1109
-436
-1050
1871
-1767
-1501
-1343
100
644
-1005
-653
-285
-672
251
-793
647
-1342
546
-806
-1697
-1920
-745
-1520
-1631
-1589
-674
-650
-1703
-1698
-1699
-1736
-69
-1698
1590
-1679
957
260
1436
1528
813
-362
-288
1399
1013
-1751
1400
-751
-1731
1448
1637
1635
-1626
254
-69
-1614
155
-1353
165
1164
78
722
-1078
-1560
270
-1057
483
-1035
675
1413
-808
1375
1837
-1312
-501
3
257
1703
1225
-41
-683
1495
611
-485
1283
24
-1335
987
-323
285
417
-1761
-1262
535
1637
-1451
624
-267
179
1681
1565
-1051
644
-1492
-1592
-185
-1292
557
-798
261
-461
-859
-1202
-390
-220
523
-1267
783
-596
804
1085
-1310
-900
297
-208
-1462
-615
-913
-1650
706
-558
-631
1039
58
321
303
1115
-1495
777
524
1582
-1653
1445
-1262
-1644
23
-440
1524
-830
-345
-251
484
407
-542
-411
-707
431
-382
-838
-1110
1340
-1574
-1190
-1010
-4
1353
-1313
-1098
446
1440
-1055
54
-1289
1527
629
870
1419
637
152
485
-605
-291
704
-922
1332
1869
-1141
584
-1193
1548
-402
990
-39
738
-777
245
856
136
68
-1155
590
-1736
787
1252
-299
-1619
-822
1883
832
911
-304
-1698
1396
1014
486
1763
-539
-1777
-17
-43
1681
37
-1771
1655
1023
1809
-1561
-877
773
1178
-843
928
604
-384
-731
-399
359
-1125
402
1704
1178
-1692
1212
-1200
1584
1722
885
-919
1753
779
-64
1302
-927
-1582
-1441
1032
-1208
771
-318
-604
-1800
1066
-1000
-844
-434
-1732
-190
482
1129
1534
623
455
-1520
-1518
1263
1602
563
-431
-513
1121
-1590
603
-88
793
-72
-46
1606
-145
-155
-1505
-1540
1599
-1036
-611
583
1086
-427
-1030
1835
-1831
-1554
-1388
106
665
-43
-639
-280
-659
247
-777
634
-1398
567
-839
-1767
-1768
-389
-1550
-1663
-1622
-700
-677
-1773
-1768
-1770
-1808
-71
-1768
1656
-1748
996
271
1494
1590
848
-372
-295
1441
1045
-1805
1445
-781
-1801
1508
1704
1703
-1693
266
-607
-1681
160
-1409
172
1189
81
739
-1101
-1592
276
-1101
502
-1078
703
1473
-842
1432
1911
-1367
-521
4
268
1773
1278
-43
-711
1558
636
-505
1335
23
-1390
1029
-336
297
435
-1833
-1314
557
1703
-1510
650
-278
188
1750
1630
-1094
671
-1553
-1657
-192
-1344
575
-826
269
-476
-889
-1244
-404
-229
545
-1319
814
-618
837
1130
-1364
-937
310
-241
-1524
-640
-953
-1716
737
-581
-657
1083
60
335
314
1162
-1557
809
546
1647
-1722
1504
-1314
-1712
24
-466
1614
-862
-359
-261
504
423
-564
-427
-738
448
-398
-870
-1157
1393
-1640
-1214
-1031
-1
1408
-1366
-1145
464
1501
-1098
58
-1342
1592
682
908
1477
662
158
504
-631
-303
734
-960
1389
1644
-1187
-341
-1241
1612
-417
1031
-41
768
-807
255
892
143
70
-1204
615
-1807
822
1304
-310
-1686
-856
1960
866
949
-316
-1769
1454
1056
505
1836
-561
-1848
-16
-45
1752
40
-1844
1722
1066
1885
-1626
-913
806
1227
-879
966
627
-398
-761
-415
373
-1170
418
1773
1227
-1763
1260
-1249
1649
1793
920
-957
1826
810
-65
1357
-965
-1648
-1500
1073
-1255
805
-332
-628
-1875
1112
-1041
-881
-451
-1803
-198
503
1096
1595
649
473
-1582
-1581
1315
1669
585
-449
-534
1166
-1653
629
-92
826
-77
-48
1674
-152
-161
-1568
-1603
1665
-1079
-635
607
1131
-445
-1072
1909
-1803
-1531
-1370
104
658
-1026
-664
-290
-1667
257
-807
660
-1370
556
-822
-1733
-1734
-380
-1549
-1662
-1590
-674
-647
-1737
-1731
-1733
-1771
-70
-1732
1623
-1678
1168
261
1466
1558
830
-366
-292
1413
1024
-1769
1415
-766
-1765
1477
1671
1669
-1658
259
-34
-1646
158
-1381
168
1166
79
722
-1079
-1560
271
-1083
493
-1054
690
1442
-825
1403
1873
-1339
-510
5
263
1738
1250
-43
-696
1527
625
-200
1311
24
-1362
1009
-329
291
429
-1796
-1288
546
1669
-1461
627
-269
178
1694
1577
-1073
657
-1521
-1622
-189
-1319
568
-815
267
-471
-879
-1228
-398
-225
561
-1360
798
-609
822
1107
-1337
-918
305
-235
-1493
-625
-933
-1683
720
-567
-644
1061
58
329
308
1140
-1525
792
535
1616
-1688
1474
-1302
-1697
25
-456
1575
-856
-352
-257
494
415
-552
-419
-723
439
-389
-1747
-1134
1366
-1605
-1191
-1010
-4
1381
-1338
-1120
457
1470
-1076
55
-1316
1559
695
891
1448
649
155
495
-618
-298
718
-940
1360
1612
-1163
-332
-1217
1579
-411
1011
-39
753
-792
250
873
138
69
-1180
601
-1771
802
1278
-304
-1651
-839
2000
849
929
-309
-1734
1424
1036
496
1798
-549
-1815
-16
-43
1716
39
-1807
1689
1045
1847
-1592
-894
791
1203
-861
947
614
-391
-742
-408
367
-1144
408
1738
1203
-1728
1234
-1224
1617
1703
873
-956
1825
771
-62
1330
-945
-1614
-1470
1053
-1234
791
-326
-616
-1843
1093
-1026
-862
-444
-1767
-192
494
1072
1572
640
468
-1558
-1558
1297
1636
573
-439
-514
1121
-1622
615
-89
809
-74
-47
1639
-149
-158
-1536
-1570
1632
-1057
-623
595
1108
-427
-1052
1872
-1767
-1500
-1342
100
646
-1005
-653
-286
-1667
258
-793
648
-1370
556
-821
-1732
-1959
-760
-1582
-1698
-1655
-702
-677
-1771
-1767
-1770
-1808
-71
-1767
1655
-1712
976
265
1464
1558
831
-372
-297
1441
1046
-1805
1444
-782
-1802
1508
1704
1703
-1692
265
-607
-1681
160
-1408
171
1189
80
738
-1101
-1594
278
-1102
503
-1078
703
1471
-842
1432
1911
-1367
-521
3
267
1774
1277
-43
-710
1557
637
-494
1308
23
-1362
1007
-328
297
435
-1833
-1313
557
1704
-1511
649
-277
187
1751
1631
-1072
657
-1521
-1624
-189
-1318
563
-808
264
-467
-873
-1219
-398
-225
533
-1293
798
-609
838
1130
-1365
-936
309
-215
-1524
-640
-953
-1719
736
-579
-634
1041
57
321
303
1119
-1557
808
546
1647
-1722
1504
-1290
-1680
27
-453
1560
-851
-359
-262
504
425
-564
-427
-723
439
-389
-855
-1134
1364
-1640
-1238
-1053
-4
1408
-1367
-1145
464
1499
-1099
57
-1342
1591
682
906
1478
662
158
504
-632
-304
734
-961
1387
1908
-1164
-1289
-1218
1581
-410
1031
-41
767
-809
257
891
141
70
-1203
614
-1807
818
1304
-311
-1686
-855
1960
865
949
-316
-1734
1425
1057
505
1836
-561
-1850
-17
-45
1750
39
-1808
1688
1065
1884
-1626
-914
805
1228
-879
966
626
-392
-746
-408
367
-1148
410
1738
1203
-1728
1235
-1224
1616
1757
902
-938
1789
795
-65
1356
-964
-1648
-1500
1073
-1258
803
-332
-629
-1875
1110
-1042
-881
-450
-1803
-197
502
1176
1595
649
473
-1583
-1581
1315
1668
585
-448
-535
1165
-1655
615
-90
809
-75
-48
1639
-151
-161
-1569
-1603
1666
-1079
-622
595
1108
-436
-1051
1871
-1906
-1618
-1446
111
693
-45
-665
-291
-1667
258
-809
660
-1370
556
-821
-1733
-1734
-380
-1550
-1663
-1590
-675
-647
-1737
-1731
-1734
-1771
-70
-1733
1622
-1679
1168
261
1465
1558
829
-367
-292
1414
1025
-1769
1415
-766
-1766
1477
1671
1669
-1658
259
-34
-1647
158
-1381
168
1166
79
722
-1079
-1561
270
-1083
493
-1055
691
1442
-825
1403
1873
-1339
-510
5
262
1738
1250
-43
-696
1527
626
-200
1311
23
-1362
1009
-330
291
429
-1796
-1288
546
1669
-1461
626
-269
178
1694
1577
-1073
657
-1521
-1623
-189
-1320
567
-815
266
-471
-879
-1228
-398
-225
534
-1293
814
-609
821
1107
-1338
-917
305
-236
-1493
-625
-932
-1683
720
-567
-644
1061
58
329
308
1140
-1525
792
535
1616
-1688
1474
-1303
-1697
25
-456
1574
-857
-351
-257
494
415
-553
-418
-723
439
-389
-1747
-1134
1366
-1606
-1191
-1011
-3
1380
-1338
-1120
457
1469
-1076
55
-1316
1558
695
890
1448
649
155
496
-618
-298
718
-941
1359
1612
-1164
-333
-1218
1579
-411
1011
-40
752
-793
250
873
138
69
-1180
602
-1771
802
1278
-304
-1650
-839
2000
849
929
-309
-1734
1424
1036
496
1798
-549
-1815
-16
-43
1716
38
-1808
1689
1045
1847
-1594
-894
790
1203
-861
947
613
-392
-744
-409
368
-1147
409
1738
1203
-1728
1234
-1224
1616
1703
873
-955
1825
771
-62
1330
-945
-1614
-1470
1053
-1234
791
-326
-617
-1843
1093
-1026
-863
-444
-1767
-193
494
1072
1573
640
468
-1557
-1558
1297
1636
574
-439
-524
1144
-1622
616
-90
809
-73
-47
1639
-149
-158
-1536
-1570
1631
-1057
-623
595
1108
-427
-1052
1872
-1767
-1500
-1342
100
646
-1005
-653
-286
-1634
253
-793
648
-1370
556
-822
-1733
-1734
-380
-1550
-1662
-1590
-675
-647
-1736
-1730
-1734
-1771
-70
-1733
1622
-1679
1168
261
1465
1558
829
-367
-292
1413
1024
-1769
1415
-766
-1766
1477
1671
1669
-1658
259
-34
-1647
158
-1381
168
1153
78
714
-1066
-1543
267
-1083
493
-1055
690
1442
-825
1404
1873
-1339
-510
5
262
1738
1250
-43
-696
1527
625
-200
1311
23
-1362
1009
-330
292
428
-1796
-1288
547
1669
-1461
626
-269
178
1694
1577
-1073
657
-1521
-1623
-189
-1319
567
-815
266
-471
-879
-1228
-398
-225
533
-1293
798
-609
821
1107
-1337
-918
305
-236
-1493
-625
-933
-1683
720
-567
-644
1061
58
329
308
1140
-1525
792
535
1616
-1687
1474
-1303
-1697
25
-456
1574
-857
-352
-256
494
415
-552
-419
-723
439
-389
-1747
-1134
1366
-1605
-1191
-1011
-4
1380
-1338
-1121
458
1470
-1076
55
-1316
1558
695
890
1448
649
155
495
-618
-298
718
-941
1359
1613
-1164
-333
-1218
1579
-411
1011
-40
752
-793
250
873
138
69
-1180
602
-1772
802
1278
-304
-1651
-839
2000
849
929
-309
-1734
1424
1036
496
1798
-549
-1815
-16
-43
1716
39
-1808
1689
1045
1847
-1594
-894
790
1203
-861
947
613
-391
-742
-408
367
-1144
408
1738
1204
-1728
1234
-1223
1616
1703
873
-956
1825
770
-61
1330
-945
-1614
-1470
1053
-1234
791
-326
-617
-1842
1093
-1026
-863
-444
-1767
-193
494
1072
1572
640
468
-1557
-1557
1297
1636
574
-439
-524
1144
-1622
615
-89
809
-74
-47
1639
-149
-157
-1537
-1570
1631
-1057
-623
595
1108
-427
-1052
1872
-1766
-1500
-1342
100
646
-1005
-653
-286
-1634
253
-793
648
-1370
556
-822
-1731
-1733
-380
-1551
-1664
-1621
-687
-661
-1737
-1733
-1735
-1772
-70
-1733
1623
-1713
977
265
1464
1558
830
-366
-291
1412
1024
-1770
1415
-765
-1766
1477
1671
1668
-1659
260
-595
-1647
157
-1381
168
1165
78
723
-1079
-1562
271
-1080
492
-1056
690
1442
-825
1403
1873
-1340
-510
4
262
1738
1250
-41
-697
1526
623
-674
1306
23
-1363
1006
-331
291
426
-1797
-1288
546
1669
-1480
636
-271
183
1715
1597
-1073
657
-1522
-1625
-189
-1318
574
-825
268
-476
-887
-1242
-398
-225
533
-1294
798
-608
821
1107
-1338
-917
303
-237
-1494
-641
-953
-1685
720
-568
-644
1060
58
328
308
1138
-1526
792
535
1614
-1688
1474
-1288
-1677
23
-450
1555
-847
-352
-257
494
416
-553
-419
-723
439
-390
-855
-1134
1364
-1607
-1214
-1032
-4
1380
-1340
-1120
458
1469
-1075
55
-1315
1558
668
888
1447
649
155
496
-619
-298
718
-942
1359
1906
-1164
595
-1216
1579
-411
1010
-39
752
-793
250
873
139
69
-1180
601
-1771
802
1278
-304
-1651
-839
1978
849
930
-310
-1733
1425
1035
495
1799
-549
-1775
-17
-44
1715
38
-1808
1688
1045
1846
-1593
-895
789
1202
-861
947
613
-392
-746
-408
366
-1148
410
1737
1202
-1728
1235
-1224
1616
1757
902
-938
1789
794
-65
1330
-946
-1615
-1470
1052
-1233
787
-325
-616
-1837
1090
-1021
-863
-443
-1767
-194
492
1072
1563
637
464
-1550
-1549
1290
1635
573
-439
-524
1144
-1622
615
-90
810
-75
-47
1640
-149
-157
-1538
-1571
1632
-1057
-622
595
1108
-436
-1050
1871
-1767
-1500
-1344
100
645
-1005
-652
-286
-671
252
-793
647
-1341
545
-805
-1698
-1698
-372
-1520
-1631
-1587
-673
-648
-1702
-1695
-1699
-1735
-68
-1697
1590
-1644
1145
257
1436
1528
812
-360
-286
1386
1004
-1734
1387
-751
-1730
1447
1638
1636
-1625
254
-33
-1614
156
-1352
165
1143
77
708
-1056
-1529
266
-1061
483
-1033
676
1413
-808
1375
1837
-1312
-500
5
257
1704
1225
-41
-682
1498
613
-196
1286
24
-1335
989
-323
285
420
-1760
-1262
536
1636
-1432
613
-263
175
1660
1545
-1051
644
-1491
-1591
-185
-1293
556
-799
261
-460
-861
-1203
-390
-220
522
-1267
783
-596
805
1085
-1309
-898
299
-230
-1463
-612
-914
-1649
706
-556
-631
1041
57
322
302
1117
-1494
776
524
1584
-1654
1446
-1277
-1663
25
-447
1543
-839
-344
-252
484
407
-541
-411
-709
430
-380
-1712
-1110
1340
-1573
-1167
-991
-3
1352
-1310
-1099
448
1440
-1053
55
-1290
1527
681
872
1420
636
152
486
-606
-292
704
-922
1332
1632
-1179
-341
-1231
1599
-415
992
-38
738
-778
246
857
135
68
-1154
589
-1737
786
1252
-298
-1617
-822
1961
833
910
-303
-1699
1397
1015
486
1763
-538
-1779
-15
-42
1682
37
-1772
1655
1024
1810
-1562
-875
774
1180
-844
928
601
-383
-727
-400
360
-1121
400
1703
1180
-1693
1210
-1200
1585
1669
856
-956
1789
756
-61
1303
-925
-1581
-1440
1034
-1209
776
-319
-605
-1805
1071
-1005
-846
-435
-1732
-187
484
1051
1541
628
459
-1527
-1527
1271
1603
562
-430
-512
1121
-1590
604
-88
793
-73
-46
1606
-145
-155
-1506
-1539
1598
-1036
-611
584
1086
-418
-1031
1834
-1731
-1470
-1315
98
633
-985
-640
-280
-1601
248
-777
635
-1398
567
-838
-1767
-1769
-389
-1583
-1698
-1655
-701
-677
-1773
-1768
-1770
-1808
-71
-1768
1655
-1748
996
270
1494
1590
846
-373
-297
1441
1045
-1806
1444
-782
-1801
1507
1704
1703
-1693
265
-607
-1681
160
-1408
171
1189
81
738
-1101
-1594
276
-1102
503
-1078
703
1471
-842
1432
1911
-1367
-521
3
267
1774
1276
-42
-711
1557
636
-504
1335
23
-1390
1029
-336
297
435
-1834
-1314
557
1703
-1511
649
-278
187
1750
1630
-906
670
-1553
-1658
-192
-1345
578
-830
270
-481
-896
-1252
-406
-230
544
-1320
814
-621
837
1130
-1365
-937
309
-242
-1524
-640
-953
-1719
735
-581
-658
1083
59
335
314
1161
-1557
809
546
1646
-1722
1503
-1314
-1712
23
-459
1587
-864
-359
-262
504
423
-564
-428
-738
448
-398
-872
-1157
1393
-1805
-1239
-2000
-3
1408
-1366
-1144
464
1499
-1099
56
-1341
1590
682
906
1477
662
158
504
-632
-303
733
-960
1387
1945
-1188
-342
-1242
1611
-419
1031
-41
767
-809
255
891
141
70
-1204
613
-1807
818
1305
-311
-1686
-856
1960
865
949
-316
-1769
1453
1056
505
1836
-561
-1851
-17
-45
1750
39
-1845
1722
1065
1884
-1625
-913
805
1227
-879
966
626
-400
-1973
-879
373
-1171
418
1772
1228
-1763
1260
-1249
1649
1793
920
-957
1827
810
-64
1356
-965
-1648
-1499
1073
-1258
803
-332
-629
-1875
1110
-1042
-881
-451
-1803
-198
502
1094
1595
649
473
-1583
-1581
1315
1668
585
-449
-535
1165
-1655
628
-92
826
-77
-49
1672
-152
-161
-1464
-1603
850
-1079
-636
607
1131
-445
-1072
1909
-1803
-1531
-1371
102
658
-1026
-665
-292
-686
256
-809
660
-1398
567
-838
-1767
-1769
-389
-1582
-1698
-1655
-701
-677
-1773
-1768
-1770
-1808
-71
-1768
1655
-1748
996
270
1494
1590
847
-373
-297
1442
1045
-1806
1444
-782
-1802
1507
1704
1703
-1693
265
-607
-1681
160
-1408
171
1190
81
739
-1101
-1594
276
-1102
502
-1078
703
1471
-842
1432
1912
-1367
-520
3
267
1774
1276
-43
-711
1557
636
-504
1335
23
-1390
1029
-337
298
435
-1833
-1314
557
1703
-1511
650
-278
188
1750
1631
-1095
671
-1552
-1658
-191
-1345
578
-830
271
-481
-896
-1252
-407
-230
544
-1320
814
-621
837
1130
-1365
-937
310
-242
-1524
-641
-953
-1719
735
-581
-657
1083
59
336
314
1162
-1557
808
546
1647
-1722
1504
-1314
-1712
23
-459
1587
-864
-359
-261
504
423
-564
-428
-738
448
-398
-872
-1157
1392
-1640
-1239
-1053
-4
1408
-1367
-1144
464
1500
-1099
57
-1341
1590
682
906
1477
662
158
504
-632
-303
733
-960
1388
1945
-1188
-464
-1242
1611
-419
1032
-41
767
-809
256
891
141
71
-1204
613
-1807
818
1304
-311
-1686
-856
1961
865
950
-316
-1769
1453
1056
505
1836
-561
-1851
-17
-45
1750
39
-1845
1722
1065
1884
-1625
-913
805
1228
-879
966
626
-400
-761
-416
374
-1171
418
1688
1169
-1676
1200
-1188
1571
1793
920
-957
1826
810
-65
1356
-965
-1647
-1498
1073
-1258
803
-332
-629
-1875
1110
-1042
-880
-452
-1803
-198
503
1094
1595
649
473
-1582
-1581
1315
1668
586
-449
-534
1165
-1655
628
-92
826
-76
-49
1672
-152
-161
-1569
-1603
1665
-1079
-636
607
1131
-445
-1072
1910
-1803
-1531
-1371
102
658
-1025
-664
-292
-686
256
-809
660
-1370
556
-822
-1733
-1734
-380
-1550
-1663
-1590
-675
-647
-1737
-1731
-1734
-1771
-70
-1733
1622
-1679
1168
261
1465
1558
829
-367
-292
1413
1024
-1769
1415
-766
-1766
1477
1671
1669
-1658
259
-34
-1647
158
-1381
168
1153
78
713
-1067
-1543
267
-1083
493
-1055
690
1442
-825
1403
1873
-1339
-510
5
262
1738
1250
-43
-696
1527
625
-200
1311
23
-1362
1009
-330
291
428
-1796
-1288
546
1669
-1461
626
-269
178
1694
1577
-1073
657
-1521
-1623
-189
-1320
567
-815
266
-471
-879
-1228
-398
-225
533
-1293
798
-609
821
1107
-1338
-918
305
-236
-1493
-625
-933
-1683
720
-567
-644
1061
58
329
308
1140
-1525
792
535
1616
-1688
1474
-1303
-1697
25
-456
1574
-857
-352
-257
494
415
-553
-419
-723
439
-389
-1747
-1134
1366
-1606
-1191
-1011
-4
1380
-1338
-1121
457
1469
-1076
55
-1316
1558
695
890
1448
649
155
495
-618
-298
718
-941
1359
1612
-1164
-333
-1218
1579
-411
1011
-40
752
-793
250
873
138
69
-1180
601
-1772
802
1278
-304
-1651
-839
2000
849
929
-309
-1734
1424
1036
496
1798
-549
-1815
-16
-43
1716
38
-1808
1689
1045
1847
-1594
-894
790
1203
-861
947
613
-391
-742
-408
367
-1144
408
1738
1203
-1728
1234
-1224
1616
1703
873
-956
1825
770
-62
1330
-945
-1614
-1470
1053
-1234
791
-326
-617
-1843
1093
-1026
-863
-444
-1767
-193
494
1072
1572
640
468
-1558
-1558
1297
1636
573
-439
-524
1144
-1622
615
-90
809
-74
-47
1639
-149
-158
-1537
-1570
1631
-1057
-623
595
1108
-427
-1052
1871
-1767
-1500
-1342
100
646
-1005
-653
-286
-1634
253
-793
648
-1343
545
-806
-1698
-1699
-372
-1518
-1629
-1558
-661
-634
-1702
-1695
-1699
-1735
-69
-1698
1590
-1645
1145
257
1437
1527
812
-360
-286
1385
1004
-1734
1388
-751
-1731
1447
1638
1636
-1625
254
-33
-1614
155
-1353
165
1143
78
709
-1057
-1530
265
-1061
483
-1034
676
1413
-807
1376
1836
-1312
-500
5
258
1703
1225
-41
-682
1496
613
-195
1285
23
-1335
989
-323
285
435
-1833
-1313
535
1636
-1432
613
-264
174
1660
1545
-1051
645
-1491
-1591
-185
-1294
556
-799
261
-462
-861
-1202
-390
-220
522
-1267
783
-597
805
1085
-1311
-900
299
-231
-1562
-658
-976
-1763
753
-597
-631
1040
57
322
302
1117
-1494
776
524
1584
-1654
1445
-1277
-1663
25
-446
1543
-840
-345
-252
484
407
-542
-411
-709
430
-381
-872
-1157
1340
-1574
-1166
-991
-4
1352
-1311
-1099
449
1440
-1054
54
-1290
1527
681
872
1419
636
153
485
-606
-292
704
-922
1332
1581
-1141
-326
-1194
1547
-403
991
-39
737
-777
245
856
135
68
-1156
589
-1737
786
1252
-298
-1618
-822
1960
832
910
-303
-1699
1396
1015
486
1762
-538
-1778
-16
-42
1682
37
-1772
1655
1024
1810
-1562
-875
774
1179
-844
928
602
-383
-727
-400
360
-1120
400
1703
1179
-1693
1209
-1200
1585
1670
856
-937
1789
755
-61
1303
-926
-1582
-1441
1033
-1209
787
-325
-616
-1806
1071
-1005
-846
-435
-1732
-189
484
1051
1541
627
459
-1527
-1527
1271
1603
562
-430
-514
1121
-1590
603
-88
794
-73
-46
1606
-146
-154
-1506
-1539
1598
-1036
-611
583
1086
-418
-1031
1834
-1732
-1470
-1315
98
633
-985
-640
-280
-1601
248
-777
635
-1370
556
-821
-1731
-1734
-380
-1550
-1664
-1622
-688
-663
-1738
-1733
-1735
-1772
-70
-1733
1623
-1713
976
265
1465
1558
829
-365
-291
1412
1024
-1770
1415
-766
-1766
1479
1671
1668
-1659
260
-595
-1647
158
-1381
168
1165
78
723
-1079
-1562
270
-1079
492
-1055
689
1443
-825
1403
1875
-1340
-508
3
263
1738
1251
-42
-696
1526
623
-495
1311
24
-1362
1009
-330
291
427
-1797
-1288
546
1669
-1481
636
-272
183
1715
1597
-1073
657
-1521
-1625
-189
-1318
566
-814
265
-471
-878
-1226
-399
-224
534
-1294
798
-608
821
1108
-1338
-917
303
-237
-1494
-627
-933
-1685
721
-569
-645
1061
58
328
309
1138
-1525
793
535
1616
-1688
1474
-1288
-1677
23
-450
1555
-847
-350
-257
494
415
-552
-418
-723
439
-390
-855
-1134
1365
-1607
-1214
-1032
-4
1381
-1340
-1121
455
1469
-1076
56
-1315
1558
668
888
1448
649
155
494
-619
-298
719
-942
1360
1906
-1163
595
-1216
1579
-411
1010
-39
753
-792
250
875
138
69
-1179
601
-1771
802
1279
-305
-1652
-838
1921
848
931
-309
-1734
1425
1035
495
1800
-550
-1814
-16
-44
1715
39
-1807
1689
1044
1846
-1591
-894
789
1202
-861
948
614
-392
-746
-408
366
-1148
410
1739
1202
-1727
1235
-1223
1617
1757
903
-957
1825
810
-65
1329
-946
-1615
-1470
1052
-1233
788
-325
-616
-1837
1088
-1021
-863
-443
-1767
-194
493
1072
1564
637
464
-1551
-1548
1290
1637
573
-440
-524
1142
-1622
615
-89
810
-74
-48
1639
-149
-158
-1537
-1571
1632
-1056
-622
595
1109
-436
-1050
1871
-1767
-1501
-1343
101
645
-1005
-674
-293
-672
258
-815
666
-1397
567
-837
-1768
-1769
-388
-1581
-1696
-1622
-688
-660
-1772
-1766
-1769
-1806
-71
-1768
1654
-1713
1191
266
1494
1589
846
-374
-298
1442
1046
-1804
1443
-781
-1801
1507
1704
1702
-1691
264
-35
-1680
161
-1409
171
1189
81
736
-1101
-1592
275
-1105
503
-1076
705
1471
-841
1432
1910
-1366
-520
5
267
1773
1275
-44
-710
1558
639
-204
1337
23
-1389
1029
-337
297
438
-1832
-1314
557
1702
-1490
639
-274
182
1728
1609
-1094
670
-1551
-1655
-193
-1346
578
-831
271
-480
-897
-1253
-406
-229
545
-1319
830
-621
837
1129
-1365
-935
311
-241
-1523
-637
-951
-1717
734
-578
-657
1082
59
336
314
1163
-1555
808
546
1648
-1722
1503
-1329
-1731
26
-459
1587
-874
-358
-262
504
423
-564
-426
-737
448
-397
-1782
-1157
1393
-1638
-1215
-1031
-3
1408
-1365
-1142
466
1498
-1098
56
-1342
1589
709
908
1477
662
158
506
-630
-304
732
-960
1386
1644
-1187
-340
-1242
1611
-419
1031
-41
767
-809
255
890
141
70
-1204
614
-1806
818
1304
-310
-1683
-856
2000
866
948
-315
-1769
1452
1057
506
1834
-560
-1851
-16
-44
1750
39
-1844
1723
1066
1884
-1626
-912
806
1227
-878
966
625
-397
-753
-414
373
-1161
414
1773
1227
-1763
1259
-1248
1648
1737
890
-974
1862
786
-63
1357
-964
-1646
-1499
1074
-1259
807
-333
-629
-1880
1115
-1047
-880
-453
-1802
-197
504
1093
1604
653
477
-1588
-1589
1323
1669
585
-448
-534
1167
-1654
628
-92
825
-74
-48
1672
-152
-161
-1567
-1601
1664
-1078
-635
607
1130
-436
-1073
1909
-1802
-1530
-1369
102
659
-1025
-666
-292
-1667
258
-809
661
-1370
556
-822
-1733
-1734
-380
