24
-3
-8
-25
2
17
-52
-1
-10
44
-28
8
-308
2
6
82
-73
-890
60
32
51
56
-13
31
1
-55
-22
-95
60
-62
0
-988
-91
98
-72
91
-19
-40
8
422
-39
88
11
88
279
30
51
994
-28
-24
-613
90
-62
-172
711
-4
464
-12
-122
-287
-76
-13
91
42
62
82
-70
-795
32
-38
61
-95
-85
-32
36
537
12
40
22
47
594
-96
-91
-2
52
177
-1000
243
-15
69
-27
24
72
6
44
-642
13
-45
45
84
55
413
-33
-15
437
154
165
-419
-963
6
-554
42
-452
17
-121
-326
197
139
-18
90
-39
-50
-34
-73
-13
200
352
87
860
-1000
697
84
18
68
65
715
-57
1
-60
13
713
-154
-342
-39
18
-1000
243
18
-7
90
107
4
-340
27
-64
-227
39
58
13
26
13
61
-44
62
-46
-4
656
-403
73
19
-1000
-87
117
-591
-573
-4
28
304
88
-95
72
86
-884
-449
108
30
-57
-52
-87
-11
19
-880
-76
275
-580
-28
31
0
-67
-42
23
84
-20
-8
-440
507
-28
92
-327
-541
-8
419
603
-97
-674
32
51
899
175
31
1
-97
-234
-415
60
-576
-1000
-79
9
97
-324
91
-19
-246
8
87
-36
-454
11
-101
41
30
51
-741
-407
24
-3
-8
-25
2
17
-52
-1
-10
44
-28
8
-308
2
6
82
-73
-890
60
32
51
56
-13
31
1
-55
-22
-95
60
-62
0
-988
-91
98
-72
91
-19
-40
8
422
-39
88
11
88
279
30
51
994
-28
-24
-613
90
-62
-172
711
-4
464
-12
-122
-287
-76
-13
91
42
62
82
-70
-795
32
-38
61
-95
-85
-32
36
537
12
40
22
47
594
-96
-91
-2
52
177
-1000
243
-15
69
-27
24
72
6
44
-1000
13
-45
45
84
55
413
-33
-15
437
154
165
-419
-963
6
-554
42
-452
17
-121
-326
197
139
-18
90
-39
-50
-34
-73
-13
200
352
87
860
-1000
697
84
18
68
65
715
-57
1
-60
13
713
-154
-342
-39
18
-1000
243
18
-7
90
107
4
-340
27
-64
-227
39
58
13
26
13
61
-44
62
-46
-4
656
-403
73
19
-1000
-87
117
-591
-573
-4
28
304
88
-95
72
86
-884
-449
108
30
-57
-52
-87
-11
19
-880
-76
275
-580
-28
31
0
-67
-42
23
84
-20
-8
-440
507
-28
92
-327
-541
-8
419
603
-97
-674
32
51
899
175
31
1
-97
-234
-415
60
-576
-1000
-79
9
97
-324
91
-19
-246
8
87
-227
-454
11
-101
41
30
51
-741
-407
24
-3
-8
-25
2
17
-52
-1
-10
44
-28
8
-308
2
6
82
-73
-890
60
32
51
56
-13
31
1
-55
-22
-95
60
-62
0
-988
-91
98
-72
91
-19
-40
8
422
-39
88
11
88
279
30
51
994
-28
-24
-613
90
-62
-172
711
-4
464
-12
-122
-287
-76
-13
91
42
62
82
-70
-795
32
-38
61
-95
-85
-32
36
537
12
40
22
47
594
-96
-91
-2
52
177
-1000
243
-15
69
-27
24
72
6
44
-642
13
-45
45
84
55
413
-33
-15
437
154
165
-419
-963
6
-554
42
-452
17
-121
-326
197
139
-18
90
-39
-50
-34
-73
-13
200
352
87
860
-1000
697
84
18
68
65
715
-57
1
-60
13
713
-154
-342
-39
18
-1000
243
18
-7
90
107
4
-340
27
-64
-227
39
58
13
26
13
61
-44
62
-46
-4
656
-403
73
19
-1000
-87
117
-591
-573
-4
28
304
88
-95
72
86
-884
-449
108
30
-57
-52
-87
-11
19
-880
-76
275
-580
-28
31
0
-67
-42
23
84
-20
-8
-440
507
-28
92
-327
-541
-8
419
603
-97
-674
32
51
899
175
31
1
-97
-234
-415
60
-576
-1000
-79
9
97
-324
91
-19
-246
8
87
-36
-454
11
-101
41
30
51
-741
-407
24
-3
-8
-25
2
17
-52
-1
-11
44
-28
8
-308
2
6
82
-73
-890
60
32
51
56
-13
31
1
-55
-22
-95
60
-62
0
-988
-91
98
-72
91
-19
-40
8
422
-39
88
11
88
279
30
51
994
-28
-24
-613
90
-62
-172
711
-4
464
-12
-122
-287
-76
-13
91
42
62
82
-70
-795
32
-38
61
-95
-85
-32
36
537
12
40
22
47
594
-96
-91
-2
52
177
-1000
243
-15
69
-27
24
72
6
44
-1000
13
-45
45
84
55
413
-33
-15
437
154
165
-419
-963
6
-554
42
-452
17
-121
-326
197
139
-18
90
-39
-50
-34
-73
-13
200
352
87
860
-1000
697
84
18
68
65
715
-57
1
-60
13
713
-154
-342
-39
18
-1000
243
18
-7
90
107
4
-340
27
-64
-227
39
58
13
26
13
61
-44
62
-46
-4
656
-403
73
19
-1000
-87
117
-591
-573
-4
28
304
88
-95
72
86
-884
-449
108
30
-57
-52
-87
-11
19
-880
-76
275
-580
-28
31
0
-67
-42
23
84
-20
-8
-440
507
-28
92
-327
-541
-8
419
603
-97
-674
32
51
899
175
31
1
-97
-234
-415
60
-576
-1000
-79
9
97
-324
91
-19
-246
8
87
-227
-454
11
-101
41
30
51
-741
-407
24
-3
-8
-25
2
17
-52
-1
-11
44
-28
8
-308
2
6
82
-73
-890
60
32
51
56
-13
31
1
-55
-22
-95
60
-62
0
-988
-91
98
-72
91
-19
-40
8
422
-39
88
11
88
279
30
51
994
-28
-24
-613
90
-62
-172
711
-4
464
-12
-122
-287
-76
-13
91
42
62
82
-70
-795
32
-38
61
-95
-85
-32
36
537
12
40
22
47
594
-96
-91
-2
52
177
-1000
243
-15
69
-27
24
72
6
44
-1000
13
-45
45
84
55
413
-33
-15
437
154
165
-419
-963
6
-554
42
-452
17
-121
-326
197
139
-18
90
-39
-50
-34
-73
-13
200
352
87
860
-1000
697
84
18
68
65
715
-57
1
-60
13
713
-154
-342
-39
18
-1000
243
18
-7
90
107
4
-340
27
-64
-227
39
58
13
26
13
61
-44
62
-46
-4
656
-403
73
19
-1000
-87
117
-591
-573
-4
28
304
88
-95
72
86
-884
-449
108
30
-57
-52
-87
-11
19
-880
-76
275
-580
-28
31
0
-67
-42
23
84
-20
-8
-440
507
-28
92
-327
-541
-8
419
603
-97
-674
32
51
899
175
31
1
-97
-234
-415
60
-576
-1000
-79
9
97
-324
91
-19
-246
8
87
-227
-454
11
-101
41
30
51
-741
-407
24
-3
-8
-25
2
17
-52
-1
-11
44
-28
8
-308
2
6
82
-73
-890
60
32
51
56
-13
31
1
-55
-22
-95
60
-62
0
-988
-91
98
-72
91
-19
-40
8
422
-39
88
11
88
279
30
51
994
-28
-24
-613
90
-62
-172
711
-4
464
-12
-122
-287
-76
-13
91
42
62
82
-70
-795
32
-38
61
-95
-85
-32
36
537
12
40
22
47
594
-96
-91
-2
52
177
-1000
243
-15
69
-27
24
72
6
44
-1000
13
-45
45
84
55
413
-33
-15
437
154
165
-419
-963
6
-554
42
-452
17
-121
-326
197
139
-18
90
-39
-50
-34
-73
-13
200
352
87
860
-1000
697
84
18
68
65
715
-57
1
-60
13
713
-154
-342
-39
18
-1000
243
18
-7
90
107
4
-340
27
-64
-227
39
58
13
26
13
61
-44
62
-46
-4
656
-403
73
19
-1000
-87
117
-591
-573
-4
28
304
88
-95
72
86
-884
-449
108
30
-57
-52
-87
-11
19
-880
-76
275
-580
-28
31
0
-67
-42
23
84
-20
-8
-440
507
-28
92
-327
-541
-8
419
603
-97
-674
32
51
899
175
31
1
-97
-234
-415
60
-576
-1000
-79
9
97
-324
91
-19
-246
8
87
-227
-454
11
-101
41
30
51
-741
-407
24
-3
-8
-25
2
17
-52
-1
-11
44
-28
8
-308
2
6
82
-73
-890
60
32
51
56
-13
31
1
-55
-22
-95
60
-62
0
-988
-91
98
-72
91
-19
-40
8
422
-39
88
11
88
279
30
51
994
-28
-24
-613
90
-62
-172
711
-4
464
-12
-122
-287
-76
-13
91
42
62
82
-70
-795
32
-38
61
-95
-85
-32
36
537
12
40
22
47
594
-96
-91
-2
52
177
-1000
243
-15
69
-27
24
72
6
44
-1000
13
-45
45
84
55
413
-33
-15
437
154
165
-419
-963
6
-554
42
-452
17
-121
-326
197
139
-18
90
-39
-50
-34
-73
-13
200
352
87
860
-1000
697
84
18
68
65
715
-57
1
-60
13
713
-154
-342
-39
18
-1000
243
18
-7
90
107
4
-340
27
-64
-227
39
58
13
26
13
61
-44
62
-46
-4
656
-403
73
19
-1000
-87
117
-591
-573
-4
28
304
88
-95
72
86
-884
-449
108
30
-57
-52
-87
-11
19
-880
-76
275
-580
-28
31
0
-67
-42
23
84
-20
-8
-440
507
-28
92
-327
-541
-8
419
603
-97
-674
32
51
899
175
31
1
-97
-234
-415
60
-576
-1000
-79
9
97
-324
91
-19
-246
8
87
-227
-454
11
-101
41
30
51
-741
-407
24
-3
-8
-25
2
17
-52
-1
-11
44
-28
8
-308
2
6
82
-73
-890
60
32
51
56
-13
31
1
-55
-22
-95
60
-62
0
-988
-91
98
-72
91
-19
-40
8
422
-39
88
11
88
279
30
51
994
-28
-24
-613
90
-62
-172
711
-4
464
-12
-122
-287
-76
-13
91
42
62
82
-70
-795
32
-38
61
-95
-85
-32
36
537
12
40
22
47
594
-96
-91
-2
52
177
-1000
243
-15
69
-27
24
72
6
44
-1000
13
-45
45
84
55
413
-33
-15
437
154
165
-419
-963
6
-554
42
-452
17
-121
-326
197
139
-18
90
-39
-50
-34
-73
-13
200
352
87
860
-1000
697
84
18
68
65
715
-57
1
-60
13
713
-154
-342
-39
18
-1000
243
18
-7
90
107
4
-340
27
-64
-227
39
58
13
26
13
61
-44
62
-46
-4
656
-403
73
19
-1000
-87
117
-591
-573
-4
28
304
88
-95
72
86
-884
-449
108
30
-57
-52
-87
-11
19
-880
-76
275
-580
-28
31
0
-67
-42
23
84
-20
-8
-440
507
-28
92
-327
-541
-8
419
603
-97
-674
32
51
899
175
31
1
-97
-234
-415
60
-576
-1000
-79
9
97
-324
91
-19
-246
8
87
-227
-454
11
-101
41
30
51
-741
-407
24
-3
-8
-25
2
17
-52
-1
-11
44
-28
8
-308
2
6
82
-73
-890
60
32
51
56
-13
31
1
-55
-22
-95
60
-62
0
-988
-91
98
-72
91
-19
-40
8
422
-39
88
11
88
279
30
51
994
-28
-24
-613
90
-62
-172
711
-4
464
-12
-122
-287
-76
-13
91
42
62
82
-70
-795
32
-38
61
-95
-85
-32
36
537
12
40
22
47
594
-96
-91
-2
52
177
-1000
243
-15
69
-27
24
72
6
44
-1000
13
-45
45
84
55
413
-33
-15
437
154
165
-419
-963
6
-554
42
-452
17
-121
-326
197
139
-18
90
-39
-50
-34
-73
-13
200
352
87
860
-1000
697
84
18
68
65
715
-57
1
-60
13
713
-154
-342
-39
18
-1000
243
18
-7
90
107
4
-340
27
-64
-227
39
58
13
26
13
61
-44
62
-46
-4
656
-403
73
19
-1000
-87
117
-591
-573
-4
28
304
88
-95
72
86
-884
-449
108
30
-57
-52
-87
-11
19
-880
-76
275
-580
-28
31
0
-67
-42
23
84
-20
-8
-440
507
-28
92
-327
-541
-8
419
603
-97
-674
32
51
899
175
31
1
-97
-234
-415
60
-576
-1000
-79
9
97
-324
91
-19
-246
8
87
-227
-454
11
-101
41
30
51
-741
-407
24
-3
-8
-25
2
17
-52
-1
-11
44
-28
8
-308
2
6
82
-73
-890
60
32
51
56
-13
31
1
-55
-22
-95
60
-62
0
-988
-91
98
-72
91
-19
-40
8
422
-39
88
11
88
279
30
51
994
-28
-24
-613
90
-62
-172
711
-4
464
-12
-122
-287
-76
-13
91
42
62
82
-70
-795
32
-38
61
-95
-85
-32
36
537
12
40
22
47
594
-96
-91
-2
52
177
-1000
243
-15
69
-27
24
72
6
44
-1000
13
-45
45
84
55
413
-33
-15
437
154
165
-419
-963
6
-554
42
-452
17
-121
-326
197
139
-18
90
-39
-50
-34
-73
-13
200
352
87
860
-1000
697
84
18
68
65
715
-57
1
-60
13
713
-154
-342
-39
18
-1000
243
18
-7
90
107
4
-340
27
-64
-227
39
58
13
26
13
61
-44
62
-46
-4
656
-403
73
19
-1000
-87
117
-591
-573
-4
28
304
88
-95
72
86
-884
-449
108
30
-57
-52
-87
-11
19
-880
-76
275
-580
-28
31
0
-67
-42
23
84
-20
-8
-440
507
-28
92
-327
-541
-8
419
603
-97
-674
32
51
899
175
31
1
-97
-234
-415
60
-576
-1000
-79
9
97
-324
91
-19
-246
8
87
-227
-454
11
-101
41
30
51
-741
-407
24
-3
-8
-25
2
17
-52
-1
-11
44
-28
8
-308
2
6
82
-73
-890
60
32
51
56
-13
31
1
-55
-22
-95
60
-62
0
-988
-91
98
-72
91
-19
-40
8
422
-39
88
11
88
279
30
51
994
-28
-24
-613
90
-62
-172
711
-4
464
-12
-122
-287
-76
-13
91
42
62
82
-70
-795
32
-38
61
-95
-85
-32
36
537
12
40
22
47
594
-96
-91
-2
52
177
-1000
243
-15
69
-27
24
72
6
44
-1000
13
-45
45
84
55
413
-33
-15
437
154
165
-419
-963
6
-554
42
-452
17
-121
-326
197
139
-18
90
-39
-50
-34
-73
-13
200
352
87
860
-1000
697
84
18
68
65
715
-57
1
-60
13
713
-154
-342
-39
18
-1000
243
18
-7
90
107
4
-340
27
-64
-227
39
58
13
26
13
61
-44
62
-46
-4
656
-403
73
19
-1000
-87
117
-591
-573
-4
28
304
88
-95
72
86
-884
-449
108
30
-57
-52
-87
-11
19
-880
-76
275
-580
-28
31
0
-67
-42
23
84
-20
-8
-440
507
-28
92
-327
-541
-8
419
603
-97
-674
32
51
899
175
31
1
-97
-234
-415
60
-576
-1000
-79
9
97
-324
91
-19
-246
8
87
-227
-454
11
-101
41
30
51
-741
-407
24
-3
-8
-25
2
17
-52
-1
-11
44
-28
8
-308
2
6
82
-73
-890
60
32
51
56
-13
31
1
-55
-22
-95
60
-62
0
-988
-91
98
-72
91
-19
-40
8
422
-39
88
11
88
279
30
51
994
-28
-24
-613
90
-62
-172
711
-4
464
-12
-122
-287
-76
-13
91
42
62
82
-70
-795
32
-38
61
-95
-85
-32
36
537
12
40
22
47
594
-96
-91
-2
52
177
-1000
243
-15
69
-27
24
72
6
44
-1000
13
-45
45
84
55
413
-33
-15
437
154
165
-419
-963
6
-554
42
-452
17
-121
-326
197
139
-18
90
-39
-50
-34
-73
-13
200
352
87
860
-1000
697
84
18
68
65
715
-57
1
-60
13
713
-154
-342
-39
18
-1000
243
18
-7
90
107
4
-340
27
-64
-227
39
58
13
26
13
61
-44
62
-46
-4
656
-403
73
19
-1000
-87
117
-591
-573
-4
28
304
88
-95
72
86
-884
-449
108
30
-57
-52
-87
-11
19
-880
-76
275
-580
-28
31
0
-67
-42
23
84
-20
-8
-440
507
-28
92
-327
-541
-8
419
603
-97
-674
32
51
899
175
31
1
-97
-234
-415
60
-576
-1000
-79
9
97
-324
91
-19
-246
8
87
-227
-454
11
-101
41
30
51
-741
-407
24
-3
-8
-25
2
17
-52
-1
-11
44
-28
8
-308
2
6
82
-73
-890
60
32
51
56
-13
31
1
-55
-22
-95
60
-62
0
-988
-91
98
-72
91
-19
-40
8
422
-39
88
11
88
279
30
51
994
-28
-24
-613
90
-62
-172
711
-4
464
-12
-122
-287
-76
-13
91
42
62
82
-70
-795
32
-38
61
-95
-85
-32
36
537
12
40
22
47
594
-96
-91
-2
52
177
-1000
243
-15
69
-27
24
72
6
44
-1000
13
-45
45
84
55
413
-33
-15
437
154
165
-419
-963
6
-554
42
-452
17
-121
-326
197
139
-18
90
-39
-50
-34
-73
-13
200
352
87
860
-1000
697
84
18
68
65
715
-57
1
-60
13
713
-154
-342
-39
18
-1000
243
18
-7
90
107
4
-340
27
-64
-227
39
58
13
26
13
61
-44
62
-46
-4
656
-403
73
19
-1000
-87
117
-591
-573
-4
28
304
88
-95
72
86
-884
-449
108
30
-57
-52
-87
-11
19
-880
-76
275
-580
-28
31
0
-67
-42
23
84
-20
-8
-440
507
-28
92
-327
-541
-8
419
603
-97
-674
32
51
899
175
31
1
-97
-234
-415
60
-576
-1000
-79
9
97
-324
91
-19
-246
8
87
-227
-454
11
-101
41
30
51
-741
-407
24
-3
-8
-25
2
17
-52
-1
-11
44
-28
8
-308
2
6
82
-73
-890
60
32
51
56
-13
31
1
-55
-22
-95
60
-62
0
-988
-91
98
-72
91
-19
-40
8
422
-39
88
11
88
279
30
51
994
-28
-24
-613
90
-62
-172
711
-4
464
-12
-122
-287
-76
-13
91
42
62
82
-70
-795
32
-38
61
-95
-85
-32
36
537
12
40
22
47
594
-96
-91
-2
52
177
-1000
243
-15
69
-27
24
72
6
44
-1000
13
-45
45
84
55
413
-33
-15
437
154
165
-419
-963
6
-554
42
-452
17
-121
-326
197
139
-18
90
-39
-50
-34
-73
-13
200
352
87
860
-1000
697
84
18
68
65
715
-57
1
-60
13
713
-154
-342
-39
18
-1000
243
18
-7
90
107
4
-340
27
-64
-227
39
58
13
26
13
61
-44
62
-46
-4
656
-403
73
19
-1000
-87
117
-591
-573
-4
28
304
88
-95
72
86
-884
-449
108
30
-57
-52
-87
-11
19
-880
-76
275
-580
-28
31
0
-67
-42
23
84
-20
-8
-440
507
-28
92
-327
-541
-8
419
603
-97
-674
32
51
899
175
31
1
-97
-234
-415
60
-576
-1000
-79
9
97
-324
91
-19
-246
8
87
-227
-454
11
-101
41
30
51
-741
-407
24
-3
-8
-25
2
17
-52
-1
-12
44
-28
8
-308
2
6
82
-73
-890
60
32
51
56
-13
31
1
-55
-22
-95
60
-62
0
-988
-91
98
-72
91
-19
-40
8
422
-39
88
11
88
279
30
51
994
-28
-24
-613
90
-62
-172
711
-4
464
-12
-122
-287
-76
-13
91
42
62
82
-70
-795
32
-38
61
-95
-85
-32
36
537
12
40
22
47
594
-96
-91
-2
52
177
-1000
243
-15
69
-27
24
72
6
44
-642
13
-45
45
84
55
413
-33
-15
437
154
165
-419
-963
6
-554
42
-452
17
-121
-326
197
139
-18
90
-39
-50
-34
-73
-13
200
352
87
860
-1000
697
84
18
68
65
715
-57
1
-60
13
713
-154
-342
-39
18
-1000
243
18
-7
90
107
4
-340
27
-64
-227
39
58
13
26
13
61
-44
62
-46
-4
656
-403
73
19
-1000
-87
117
-591
-573
-4
28
304
88
-95
72
86
-884
-449
108
30
-57
-52
-87
-11
19
-880
-76
275
-580
-28
31
0
-67
-42
23
84
-20
-8
-440
507
-28
92
-327
-541
-8
419
603
-97
-674
32
51
899
175
31
1
-97
-234
-415
60
-576
-1000
-79
9
97
-324
91
-19
-246
8
87
-36
-454
11
-101
41
30
51
-741
-407
24
-3
-8
-25
2
17
-52
-1
-11
44
-28
8
-308
2
6
82
-73
-890
60
32
51
56
-13
31
1
-55
-22
-95
60
-62
0
-988
-91
98
-72
91
-19
-40
8
422
-39
88
11
88
279
30
51
994
-28
-24
-613
90
-62
-172
711
-4
464
-12
-122
-287
-76
-13
91
42
62
82
-70
-795
32
-38
61
-95
-85
-32
36
537
12
40
22
47
594
-96
-91
-2
52
177
-1000
243
-15
69
-27
24
72
6
44
-1000
13
-45
45
84
55
413
-33
-15
437
154
165
-419
-963
6
-554
42
-452
17
-121
-326
197
139
-18
90
-39
-50
-34
-73
-13
200
352
87
860
-1000
697
84
18
68
65
715
-57
1
-60
13
713
-154
-342
-39
18
-1000
243
18
-7
90
107
4
-340
27
-64
-227
39
58
13
26
13
61
-44
62
-46
-4
656
-403
73
19
-1000
-87
117
-591
-573
-4
28
304
88
-95
72
86
-884
-449
108
30
-57
-52
-87
-11
19
-880
-76
275
-580
-28
31
0
-67
-42
23
84
-20
-8
-440
507
-28
92
-327
-541
-8
419
603
-97
-674
32
51
899
175
31
1
-97
-234
-415
60
-576
-1000
-79
9
97
-324
91
-19
-246
8
87
-227
-454
11
-101
41
30
51
-741
-407
24
-3
-8
-25
2
17
-52
-1
-11
44
-28
8
-308
2
6
82
-73
-890
60
32
51
56
-13
31
1
-55
-22
-95
60
-62
0
-988
-91
98
-72
91
-19
-40
8
422
-39
88
11
88
279
30
51
994
-28
-24
-613
90
-62
-172
711
-4
464
-12
-122
-287
-76
-13
91
42
62
82
-70
-795
32
-38
61
-95
-85
-32
36
537
12
40
22
47
594
-96
-91
-2
52
177
-1000
243
-15
69
-27
24
72
6
44
-1000
13
-45
45
84
55
413
-33
-15
437
154
165
-419
-963
6
-554
42
-452
17
-121
-326
197
139
-18
90
-39
-50
-34
-73
-13
200
352
87
860
-1000
697
84
18
68
65
715
-57
1
-60
13
713
-154
-342
-39
18
-1000
243
18
-7
90
107
4
-340
27
-64
-227
39
58
13
26
13
61
-44
62
-46
-4
656
-403
73
19
-1000
-87
117
-591
-573
-4
28
304
88
-95
72
86
-884
-449
108
30
-57
-52
-87
-11
19
-880
-76
275
-580
-28
31
0
-67
-42
23
84
-20
-8
-440
507
-28
92
-327
-541
-8
419
603
-97
-674
32
51
899
175
31
1
-97
-234
-415
60
-576
-1000
-79
9
97
-324
91
-19
-246
8
87
-227
-454
11
-101
41
30
51
-741
-407
24
-3
-8
-25
2
17
-52
-1
-11
44
-28
8
-308
2
6
82
-73
-890
60
32
51
56
-13
31
1
-55
-22
-95
60
-62
0
-988
-91
98
-72
91
-19
-40
8
422
-39
88
11
88
279
30
51
994
-28
-24
-613
90
-62
-172
711
-4
464
-12
-122
-287
-76
-13
91
42
62
82
-70
-795
32
-38
61
-95
-85
-32
36
537
12
40
22
47
594
-96
-91
-2
52
177
-1000
243
-15
69
-27
24
72
6
44
-1000
13
-45
45
84
55
413
-33
-15
437
154
165
-419
-963
6
-554
42
-452
17
-121
-326
197
139
-18
90
-39
-50
-34
-73
-13
200
352
87
860
-1000
697
84
18
68
65
715
-57
1
-60
13
713
-154
-342
-39
18
-1000
243
18
-7
90
107
4
-340
27
-64
-227
39
58
13
26
13
61
-44
62
-46
-4
656
-403
73
19
-1000
-87
117
-591
-573
-4
28
304
88
-95
72
86
-884
-449
108
30
-57
-52
-87
-11
19
-880
-76
275
-580
-28
31
0
-67
-42
23
84
-20
-8
-440
507
-28
92
-327
-541
-8
419
603
-97
-674
32
51
899
175
31
1
-97
-234
-415
60
-576
-1000
-79
9
97
-324
91
-19
-246
8
87
-227
-454
11
-101
41
30
51
-741
-407
24
-3
-8
-25
2
17
-52
-1
-11
44
-28
-506
-308
2
6
82
-73
-890
60
32
51
56
-13
31
1
-55
-22
-95
60
-62
-641
-988
-91
98
-72
91
-19
-40
8
422
-39
88
11
88
279
30
51
994
-28
-24
-613
90
-62
-172
711
-4
464
-12
-122
-287
-76
-13
91
42
62
82
-70
-795
32
-38
61
-95
-85
-32
36
537
12
40
22
47
594
-96
-91
-2
52
177
-1000
243
-15
69
-27
24
72
6
44
-1000
13
-45
45
84
55
413
-33
-15
437
154
165
-419
-963
6
-554
42
-452
17
-121
-326
197
139
-18
90
-39
-50
-34
-73
-13
200
352
87
860
-1000
697
84
18
68
65
715
-57
1
-60
13
713
-154
-342
-39
18
-1000
243
18
-7
90
107
4
-340
27
-64
-227
39
58
13
26
13
61
-44
62
-46
-4
656
-403
73
19
-1000
-87
117
-591
-573
-4
28
304
88
-95
72
86
-884
-449
108
30
-57
-52
-87
-11
19
-880
-76
275
-580
-28
31
0
-67
-42
23
84
-20
-8
-440
507
-28
92
-327
-541
-8
419
603
-97
-674
32
51
899
175
31
1
-97
-234
-415
60
-576
-1000
-79
9
97
-324
91
-19
-246
8
87
-227
-454
11
-101
41
30
51
-741
-407
24
-3
-8
-25
2
17
-52
-1
-11
44
-28
8
-308
2
6
82
-73
-890
60
32
51
56
-13
31
1
-55
-22
-95
60
-62
0
-988
-91
98
-72
91
-19
-40
8
422
-39
88
11
88
279
30
51
994
-28
-24
-613
90
-62
-172
711
-4
464
-12
-122
-287
-76
-13
91
42
62
82
-70
-795
32
-38
61
-95
-85
-32
36
537
12
40
22
47
594
-96
-91
-2
52
177
-1000
243
-15
69
-27
24
72
6
44
-1000
13
-45
45
84
55
413
-33
-15
437
154
165
-419
-963
6
-554
42
-452
17
-121
-326
197
139
-18
90
-39
-50
-34
-73
-13
200
352
87
860
-1000
697
84
18
68
65
715
-57
1
-60
13
713
-154
-342
-39
18
-1000
243
18
-7
90
107
4
-340
27
-64
-227
39
58
13
26
13
61
-44
62
-46
-4
656
-403
73
19
-1000
-87
117
-591
-573
-4
28
304
88
-95
72
86
-884
-449
108
30
-57
-52
-87
-11
19
-880
-76
275
-580
-28
31
0
-67
-42
23
84
-20
-8
-440
507
-28
92
-327
-541
-8
419
603
-97
-674
32
51
899
175
31
1
-97
-234
-415
60
-576
-1000
-79
9
97
-324
91
-19
-246
8
87
-227
-454
11
-101
41
30
51
-741
-407
24
-3
-8
-25
2
17
-52
-1
-11
44
-28
8
-308
2
6
82
-73
-890
60
32
51
56
-13
31
1
-55
-22
-95
60
-62
0
-988
-91
98
-72
91
-19
-40
8
422
-39
88
11
88
279
30
51
994
-28
-24
-613
90
-62
-172
711
-4
464
-12
-122
-287
-76
-13
91
42
62
82
-70
-795
32
-38
61
-95
-85
-32
36
537
12
40
22
47
594
-96
-91
-2
52
177
-1000
243
-15
69
-27
24
72
6
44
-1000
13
-45
45
84
55
413
-33
-15
437
154
165
-419
-963
6
-554
42
-452
17
-121
-326
197
139
-18
90
-39
-50
-34
-73
-13
200
352
87
860
-1000
697
84
18
68
65
715
-57
1
-60
13
713
-154
-342
-39
18
-1000
243
18
-7
90
107
4
-340
27
-64
-227
39
58
13
26
13
61
-44
62
-46
-4
656
-403
73
19
-1000
-87
117
-591
-573
-4
28
304
88
-95
72
86
-884
-449
108
30
-57
-52
-87
-11
19
-880
-76
275
-580
-28
31
0
-67
-42
23
84
-20
-8
-440
507
-28
92
-327
-541
-8
419
603
-97
-674
32
51
899
175
31
1
-97
-234
-415
60
-576
-1000
-79
9
97
-324
91
-19
-246
8
87
-227
-454
11
-101
41
30
51
-741
-407
24
-3
-8
-25
2
17
-52
-1
-12
44
-28
8
-308
2
6
82
-73
-890
60
32
51
56
-13
31
1
-55
-22
-95
60
-62
0
-988
-91
98
-72
91
-19
-40
8
422
-39
88
11
88
279
30
51
994
-28
-24
-613
90
-62
-172
711
-4
464
-12
-122
-287
-76
-1000
91
42
62
82
-70
-795
32
-38
61
-95
-85
-32
36
537
12
40
22
47
594
-96
-91
-2
52
177
-1000
243
-15
69
-27
24
72
6
44
-579
13
-45
45
84
55
413
-33
-15
437
154
165
-419
-963
6
-350
-393
-452
17
-121
-326
197
139
-18
90
-39
-185
-34
-73
-13
200
352
87
860
-1000
697
84
18
68
65
715
-57
1
-60
13
713
-154
-342
-39
18
-1000
243
18
-7
90
107
4
-340
27
-64
-227
39
58
13
26
13
61
-44
62
-46
-4
656
-403
73
19
-1000
-87
117
-591
-573
-4
28
304
88
-95
72
86
-884
-449
108
30
-57
-52
-87
-11
19
-880
-76
275
-580
-28
31
0
-67
-42
23
84
-20
-8
-440
507
-28
92
-327
-541
-8
419
603
-97
-674
32
51
899
175
31
430
-97
-234
139
60
-576
-1000
-79
9
97
-324
91
-19
-246
8
87
-36
-454
11
-101
41
30
51
-741
-407
24
-3
-8
-25
2
17
-52
-1
-11
44
-28
8
-308
2
6
82
-73
-890
60
32
51
56
-13
31
1
-55
-22
-95
60
-62
0
-988
-91
98
-72
91
-19
-40
8
422
-39
88
11
88
279
30
51
994
-28
-24
-613
90
-62
-172
711
-4
464
-12
-122
-287
-76
-13
91
42
62
82
-70
-795
32
-38
61
-95
-85
-32
36
537
12
40
22
47
594
-96
-91
-2
52
177
-1000
243
-15
69
-27
24
72
6
44
-1000
13
-45
45
84
55
413
-33
-15
437
154
165
-419
-963
6
-554
42
-452
17
-121
-326
197
139
-18
90
-39
-50
-34
-73
-13
200
352
87
860
-1000
697
84
18
68
65
715
-57
1
-60
13
713
-154
-342
-39
18
-1000
243
18
-7
90
107
4
-340
27
-64
-227
39
58
13
26
13
61
-44
62
-46
-4
656
-403
73
19
-1000
-87
117
-591
-573
-4
28
304
88
-95
72
86
-884
-449
108
30
-57
-52
-87
-11
19
-880
-76
275
-580
-28
31
0
-67
-42
23
84
-20
-8
-440
507
-28
92
-327
-541
-8
419
603
-97
-674
32
51
899
175
31
1
-97
-234
-415
60
-576
-1000
-79
9
97
-324
91
-19
-246
8
87
-227
-454
11
-101
41
30
51
-741
-407
24
-3
-8
-25
2
17
-52
-1
-11
44
-28
8
-308
2
6
82
-73
-890
60
32
51
56
-13
31
1
-55
-22
-95
60
-62
0
-988
-91
98
-72
91
-19
-40
8
422
-39
88
11
88
279
30
51
994
-28
-24
-613
90
-62
-172
711
-4
464
-12
-122
-287
-76
-13
91
42
62
82
-70
-795
32
-38
61
-95
-85
-32
36
537
12
40
22
47
594
-96
-91
-2
52
177
-1000
243
-15
69
-27
24
72
6
44
-1000
13
-45
45
84
55
413
-33
-15
437
154
165
-419
-963
6
-554
42
-452
17
-121
-326
197
139
-18
90
-39
-50
-34
-73
-13
200
352
87
860
-1000
697
84
18
68
65
715
-57
1
-60
13
713
-154
-342
-39
18
-1000
243
18
-7
90
107
4
-340
27
-64
-227
39
58
13
26
13
61
-44
62
-46
-4
656
-403
73
19
-1000
-87
117
-591
-573
-4
28
304
88
-95
72
86
-884
-449
108
30
-57
-52
-87
-11
19
-880
-76
275
-580
-28
31
0
-67
-42
23
84
-20
-8
-440
507
-28
92
-327
-541
-8
419
603
-97
-674
32
51
899
175
31
1
-97
-234
-415
60
-576
-1000
-79
9
97
-324
91
-19
-246
8
87
-227
-454
11
-101
41
30
51
-741
-407
24
-3
-8
-25
2
17
-52
-1
-11
44
-28
8
-308
2
6
82
-73
-890
60
32
51
56
-13
31
1
-55
-22
-95
60
-62
0
-988
-91
98
-72
91
-19
-40
8
422
-39
88
11
88
279
30
51
994
-28
-24
-613
90
-62
-172
711
-4
464
-12
-122
-287
-76
-13
91
42
62
82
-70
-795
32
-38
61
-95
-85
-32
36
537
12
40
22
47
594
-96
-91
-2
52
177
-1000
243
-15
69
-27
24
72
6
44
-1000
13
-45
45
84
55
413
-33
-15
437
154
165
-419
-963
6
-554
42
-452
17
-121
-326
197
139
-18
90
-39
-50
-34
-73
-13
200
352
87
860
-1000
697
84
18
68
65
715
-57
1
-60
13
713
-154
-342
-39
18
-1000
243
18
-7
90
107
4
-340
27
-64
-227
39
58
13
26
13
61
-44
62
-46
-4
656
-403
73
19
-1000
-87
117
-591
-573
-4
28
304
88
-95
72
86
-884
-449
108
30
-57
-52
-87
-11
19
-880
-76
275
-580
-28
31
0
-67
-42
23
84
-20
-8
-440
507
-28
92
-327
-541
-8
419
603
-97
-674
32
51
899
175
31
1
-97
-234
-415
60
-576
-1000
-79
9
97
-324
91
-19
-246
8
87
-227
-454
11
-101
41
30
51
-741
-407
24
-3
-8
-25
2
17
-52
-1
-11
44
-28
8
-308
2
6
82
-73
-890
60
32
51
56
-13
31
1
-55
-22
-95
60
-62
0
-988
-91
98
-72
91
-19
-40
8
422
-39
88
11
88
279
30
51
994
-28
-24
-613
90
-62
-172
711
-4
464
-12
-122
-287
-76
-13
91
42
62
82
-70
-795
32
-38
61
-95
-85
-32
36
537
12
40
22
47
594
-96
-91
-2
52
177
-1000
243
-15
69
-27
24
72
6
44
-1000
13
-45
45
84
55
413
-33
-15
437
154
165
-419
-963
6
-554
42
-452
17
-121
-326
197
139
-18
90
-39
-50
-34
-73
-13
200
352
87
860
-1000
697
84
18
68
65
715
-57
1
-60
13
713
-154
-342
-39
18
-1000
243
18
-7
90
107
4
-340
27
-64
-227
39
58
13
26
13
61
-44
62
-46
-4
656
-403
73
19
-1000
-87
117
-591
-573
-4
28
304
88
-95
72
86
-884
-449
108
30
-57
-52
-87
-11
19
-880
-76
275
-580
-28
31
0
-67
-42
23
84
-20
-8
-440
507
-28
92
-327
-541
-8
419
603
-97
-674
32
51
899
175
31
1
-97
-234
-415
60
-576
-1000
-79
9
97
-324
91
-19
-246
8
87
-227
-454
11
-101
41
30
51
-741
-407
24
-3
-8
-25
2
17
-52
-1
-10
44
-28
8
-308
2
6
82
-73
-890
60
32
51
56
-13
31
1
-55
-22
-95
60
-62
0
-988
-91
98
-72
91
-19
-40
8
422
-39
88
11
88
279
30
51
994
-28
-24
-613
90
-62
-172
711
-4
464
-12
-122
-287
-76
-13
91
42
62
82
-70
-795
32
-38
61
-95
-85
-32
36
537
12
40
22
47
594
-96
-91
-2
52
177
-1000
243
-15
69
-27
24
72
6
44
-1000
13
-45
45
84
55
413
-33
-15
437
154
165
-419
-963
6
-554
42
-452
17
-121
-326
197
139
-18
90
-39
-50
-34
-73
-13
200
352
87
860
-1000
697
84
18
68
65
715
-57
1
-60
13
713
-154
-342
-39
18
-1000
243
18
-7
90
107
4
-340
27
-64
-227
39
58
13
26
13
61
-44
62
-46
-4
656
-403
73
19
-1000
-87
117
-591
-573
-4
28
304
88
-95
72
86
-884
-449
108
30
-57
-52
-87
-11
19
-880
-76
275
-580
-28
31
0
-67
-42
23
84
-20
-8
-440
507
-28
92
-327
-541
-8
419
603
-97
-674
32
51
899
175
31
1
-97
-234
-415
60
-576
-1000
-79
9
97
-324
91
-19
-246
8
87
-227
-454
11
-101
41
30
51
-741
-407
24
-3
-8
-25
2
17
-52
-1
-11
44
-28
8
-308
2
6
82
-73
-890
60
32
51
56
-13
31
1
-55
-22
-95
60
-62
0
-988
-91
98
-72
91
-19
-40
8
422
-39
88
11
88
279
30
51
994
-28
-24
-613
90
-62
-172
711
-4
464
-12
-122
-287
-76
-13
91
42
62
82
-70
-795
32
-38
61
-95
-85
-32
36
537
12
40
22
47
594
-96
-91
-2
52
177
-1000
243
-15
69
-27
24
72
6
44
-1000
13
-45
45
84
55
413
-33
-15
437
154
165
-419
-963
6
-554
42
-452
17
-121
-326
197
139
-18
90
-39
-50
-34
-73
-13
200
352
87
860
-1000
697
84
18
68
65
715
-57
1
-60
13
713
-154
-342
-39
18
-1000
243
18
-7
90
107
4
-340
27
-64
-227
39
58
13
26
13
61
-44
62
-46
-4
656
-403
73
19
-1000
-87
117
-591
-573
-4
28
304
88
-95
72
86
-884
-449
108
30
-57
-52
-87
-11
19
-880
-76
275
-580
-28
31
0
-67
-42
23
84
-20
-8
-440
507
-28
92
-327
-541
-8
419
603
-97
-674
32
51
899
175
31
1
-97
-234
-415
60
-576
-1000
-79
9
97
-324
91
-19
-246
8
87
-227
-454
11
-101
41
30
51
-741
-407
24
-3
-8
-25
2
17
-52
-1
-11
44
-28
8
-308
2
6
82
-73
-890
60
32
51
56
-13
31
1
-55
-22
-95
60
-62
0
-988
-91
98
-72
91
-19
-40
8
422
-39
88
11
88
279
30
51
994
-28
-24
-613
90
-62
-172
711
-4
464
-12
-122
-287
-76
-13
91
42
62
82
-70
-795
32
-38
61
-95
-85
-32
36
537
12
40
22
47
594
-96
-91
-2
52
177
-1000
243
-15
69
-27
24
72
6
44
-1000
13
-45
45
84
55
413
-33
-15
437
154
165
-419
-963
6
-554
42
-452
17
-121
-326
197
139
-18
90
-39
-50
-34
-73
-13
200
352
87
860
-1000
697
84
18
68
65
715
-57
1
-60
13
713
-154
-342
-39
18
-1000
243
18
-7
90
107
4
-340
27
-64
-227
39
58
13
26
13
61
-44
62
-46
-4
656
-403
73
19
-1000
-87
117
-591
-573
-4
28
304
88
-95
72
86
-884
-449
108
30
-57
-52
-87
-11
19
-880
-76
275
-580
-28
31
0
-67
-42
23
84
-20
-8
-440
507
-28
92
-327
-541
-8
419
603
-97
-674
32
51
899
175
31
1
-97
-234
-415
60
-576
-1000
-79
9
97
-324
91
-19
-246
8
87
-227
-454
11
-101
41
30
51
-741
-407
24
-3
-8
-25
2
17
-52
-1
-11
44
-28
8
-308
2
6
82
-73
-890
60
32
51
56
-13
31
1
-55
-22
-95
60
-62
0
-988
-91
98
-72
91
-19
-40
8
422
-39
88
11
88
279
30
51
994
-28
-24
-613
90
-62
-172
711
-4
464
-12
-122
-287
-76
-13
91
42
62
82
-70
-795
32
-38
61
-95
-85
-32
36
537
12
40
22
47
594
-96
-91
-2
52
177
-1000
243
-15
69
-27
24
72
6
44
-1000
13
-45
45
84
55
413
-33
-15
437
154
165
-419
-963
6
-554
42
-452
17
-121
-326
197
139
-18
90
-39
-50
-34
-73
-13
200
352
87
860
-1000
697
84
18
68
65
715
-57
1
-60
13
713
-154
-342
-39
18
-1000
243
18
-7
90
107
4
-340
27
-64
-227
39
58
13
26
13
61
-44
62
-46
-4
656
-403
73
19
-1000
-87
117
-591
-573
-4
28
304
88
-95
72
86
-884
-449
108
30
-57
-52
-87
-11
19
-880
-76
275
-580
-28
31
0
-67
-42
23
84
-20
-8
-440
507
-28
92
-327
-541
-8
419
603
-97
-674
32
51
899
175
31
1
-97
-234
-415
60
-576
-1000
-79
9
97
-324
91
-19
-246
8
87
-227
-454
11
-101
41
30
51
-741
-407
24
-3
-8
-25
2
17
-52
-1
-10
44
-28
8
-308
2
6
82
-73
-890
60
32
51
56
-13
31
1
-55
-22
-95
60
-62
0
-988
-91
98
-72
91
-19
-40
8
422
-39
88
11
88
279
30
51
994
-28
-24
-613
90
-62
-172
711
-4
464
-12
-122
-287
-76
-13
91
42
62
82
-70
-795
32
-38
61
-95
-85
-32
36
537
12
40
22
47
594
-96
-91
-2
52
177
-1000
243
-15
69
-27
24
72
6
44
-642
13
-45
45
84
55
413
-33
-15
437
154
165
-419
-963
6
-554
42
-452
17
-121
-326
197
139
-18
90
-39
-50
-34
-73
-13
200
352
87
860
-1000
697
84
18
68
65
715
-57
1
-60
13
713
-154
-342
-39
18
-1000
243
18
-7
90
107
4
-340
27
-64
-227
39
58
13
26
13
61
-44
62
-46
-4
656
-403
73
19
-1000
-87
117
-591
-573
-4
28
304
88
-95
72
86
-884
-449
108
30
-57
-52
-87
-11
19
-880
-76
275
-580
-28
31
0
-67
-42
23
84
-20
-8
-440
507
-28
92
-327
-541
-8
419
603
-97
-674
32
51
899
175
31
1
-97
-234
-415
60
-576
-1000
-79
9
97
-324
91
-19
-246
8
87
-36
-454
11
-101
41
30
51
-741
-407
24
-3
-8
-25
2
17
-52
-1
-12
44
-28
8
-308
2
6
82
-73
-890
60
32
51
56
-13
31
1
-55
-22
-95
60
-77
0
-988
-91
98
-72
91
-19
-40
8
422
-39
88
11
88
279
30
51
994
-28
-24
-613
90
-62
-172
711
-4
464
-12
-122
-287
204
-13
91
42
62
82
-70
-795
32
-38
61
-95
-85
-32
36
537
12
40
22
47
594
-96
-91
-2
52
177
-1000
243
-15
69
-27
24
72
6
44
-642
13
-45
45
84
55
413
-33
-15
437
154
165
-419
-963
6
-554
42
-452
17
-121
-326
197
139
-18
90
-39
-50
-34
-73
-13
200
352
87
860
-1000
697
84
18
68
65
715
-57
1
-60
13
713
-154
-342
-39
18
-1000
243
18
-7
90
107
4
-340
27
-64
-227
39
58
13
26
13
61
-44
62
-46
-4
656
-403
73
19
-1000
-87
117
-591
-573
-4
115
304
88
-95
72
86
-884
-449
108
30
-57
-52
-87
-11
19
-880
-76
275
-580
-28
31
0
-67
-42
23
84
-20
-8
-440
507
-28
92
-327
-541
-8
419
603
-97
-674
32
51
899
175
31
1
-97
-234
-415
60
-576
-1000
-79
9
97
-324
91
-19
-246
8
87
-36
-454
11
-101
41
30
51
-741
-407
24
-3
-8
-25
2
17
-52
-1
-10
44
-28
8
-308
2
6
82
-73
-890
60
32
51
56
-13
31
1
-55
-22
-95
60
-62
0
-988
-91
98
-72
91
-19
-40
8
422
-39
88
11
88
279
30
51
994
-28
-24
-613
90
-62
-172
711
-4
464
-12
-122
-287
-76
-13
91
42
62
82
-70
-795
32
-38
61
-95
-85
-32
36
537
12
40
22
47
594
-96
-91
-2
52
177
-1000
243
-15
69
-27
24
72
6
44
-1000
13
-45
45
84
55
413
-33
-15
437
154
165
-419
-963
6
-554
42
-452
17
-121
-326
197
139
-18
90
-39
-50
-34
-73
-13
200
352
87
860
-1000
697
84
18
68
65
715
-57
1
-60
13
713
-154
-342
-39
18
-1000
243
18
-7
90
107
4
-340
27
-64
-227
39
58
13
26
13
61
-44
62
-46
-4
656
-403
73
19
-1000
-87
117
-591
-573
-4
28
304
88
-95
72
86
-884
-449
108
30
-57
-52
-87
-11
19
-880
-76
275
-580
-28
31
0
-67
-42
23
84
-20
-8
-440
507
-28
92
-327
-541
-8
419
603
-97
-674
32
51
899
175
31
1
-97
-234
-415
60
-576
-1000
-79
9
97
-324
91
-19
-246
8
87
-227
-454
11
-101
41
30
51
-741
-407
24
-3
-8
-25
2
17
-52
-1
-12
44
-28
8
-308
2
6
82
-73
-890
60
32
51
185
-13
31
1
-55
-22
-95
60
-62
0
-988
-91
98
-72
91
-19
-40
8
422
-39
88
11
88
279
30
51
994
-28
-24
-613
90
-62
-172
711
-4
464
-12
-122
-287
-76
-13
91
42
62
82
-70
-795
32
-38
61
-95
-85
-32
36
537
12
40
22
47
594
-96
-91
-2
52
177
-1000
243
-15
69
-27
24
72
6
44
-642
13
-45
45
84
55
413
-33
-15
437
154
165
-419
-963
6
-554
42
-452
17
-121
-326
197
139
-18
90
-39
-50
-34
-73
-13
200
352
87
860
-1000
697
84
18
68
65
715
-57
1
-60
13
713
-154
-342
-39
18
-1000
243
18
-7
90
107
4
-340
27
-64
-227
39
58
13
26
13
61
-44
62
-46
-4
656
-403
73
19
-1000
-87
117
-591
-573
-4
28
304
88
-95
72
86
-884
-449
108
30
-57
-52
-87
683
19
-880
-76
275
-580
-28
31
0
-67
-42
23
84
-20
-8
-440
507
-28
92
-327
-541
-8
419
603
-97
-674
32
51
899
175
31
1
-97
-234
-415
60
-576
-1000
-79
9
97
-324
91
-19
-246
8
87
-36
-454
11
-101
41
30
51
-741
-407
24
-3
-8
-25
2
17
-52
-1
-11
44
-28
8
-308
2
6
82
-73
-890
60
32
51
56
-13
31
1
-55
-22
-95
60
-62
0
-988
-91
98
-72
91
-19
-40
8
422
-39
88
11
88
279
30
51
994
-28
-24
-613
90
-62
-172
711
-4
464
-12
-122
-287
-76
-13
91
42
62
82
-70
-795
32
-38
61
-95
-85
-32
36
537
12
40
22
47
594
-96
-91
-2
52
177
-1000
243
-15
69
-27
24
72
6
44
-1000
13
-45
45
84
55
413
-33
-15
437
154
165
-419
-963
6
-554
42
-452
17
-121
-326
197
139
-18
90
-39
-50
-34
-73
-13
200
352
87
860
-1000
697
84
18
68
65
715
-57
1
-60
13
713
-154
-342
-39
18
-1000
243
18
-7
90
107
4
-340
27
-64
-227
39
58
13
26
13
61
-44
62
-46
-4
656
-403
73
19
-1000
-87
117
-591
-573
-4
28
304
88
-95
72
86
-884
-449
108
30
-57
-52
-87
-11
19
-880
-76
275
-580
-28
31
0
-67
-42
23
84
-20
-8
-440
507
-28
92
-327
-541
-8
419
603
-97
-674
32
51
899
175
31
1
-97
-234
-415
60
-576
-1000
-79
9
97
-324
91
-19
-246
8
87
-227
-454
11
-101
41
30
51
-741
-407
24
-3
-8
-25
2
17
-52
-1
-11
44
-28
8
-308
2
6
82
-73
-890
60
32
51
56
-13
31
1
-55
-22
-95
60
-62
0
-988
-91
98
-72
91
-19
-40
8
422
-39
88
11
88
279
30
51
994
-28
-24
-613
90
-62
-172
711
-4
464
-12
-122
-271
-76
492
91
42
62
82
-70
-795
32
-38
61
-95
-85
-32
-25
537
12
40
22
47
594
-96
-91
-2
52
177
-1000
243
-15
69
-27
24
72
6
44
-1000
13
-45
45
84
55
413
-33
-15
437
154
165
-419
-963
6
-554
42
-452
17
-121
-326
197
139
-18
90
-39
-50
-34
-73
-13
200
352
87
860
-1000
697
84
18
68
65
715
-57
1
-60
13
713
-154
-342
-39
18
-1000
878
18
-7
90
107
4
-340
27
-64
-227
39
58
13
26
13
61
-44
62
-46
-4
656
-403
73
19
-1000
-87
117
-591
-573
-4
28
304
88
-95
72
86
-884
-449
108
30
-57
-52
-87
-11
19
-880
-76
275
-580
-28
31
0
-67
-42
23
84
-20
-8
-440
507
-28
92
-327
-541
-8
419
603
204
-674
32
51
899
175
31
1
-97
-234
-415
60
-576
-1000
-79
9
97
-324
91
-19
-246
8
87
-227
-454
11
-101
41
30
51
-741
-407
-592
-3
-8
-25
2
17
-52
-1
881
44
-28
8
-308
2
6
82
-73
-890
60
32
-107
56
-13
31
1
-55
-22
-95
566
-62
0
-988
-91
98
-72
91
-19
-40
8
422
-39
88
11
88
279
30
243
994
406
-24
-613
90
-62
-172
711
-4
464
-12
-122
272
-76
-13
91
42
62
82
-70
-795
32
-38
61
-95
-85
-32
36
537
12
40
22
47
594
-96
-91
-2
52
177
-1000
243
-15
69
-27
24
72
6
44
-642
13
-45
45
84
528
413
-33
-15
437
154
165
-419
-963
6
-554
42
-452
17
-121
-326
197
139
-18
90
-39
-50
-34
-73
-13
200
352
87
860
-1000
697
84
18
68
65
715
-57
1
-60
13
713
-154
-342
-39
18
-285
243
18
-110
90
107
4
-340
27
-64
-227
39
58
13
26
13
61
-44
62
-46
-4
656
-403
73
19
-1000
-87
117
-591
-573
-4
28
304
88
-95
72
86
-884
-449
108
30
-57
-52
-87
-11
19
-880
-76
275
-413
-88
31
0
-67
-42
23
84
-20
-8
-440
507
-144
92
-49
-665
-8
419
603
-97
-674
32
51
899
175
31
1
-97
-234
-415
60
-576
-1000
-79
9
97
-185
91
453
-246
8
87
-36
-454
11
-101
41
30
51
-741
-407
24
-3
-8
-25
2
17
-52
-1
-11
44
-28
8
-308
2
6
82
-73
-890
60
32
51
56
-13
31
1
-55
-22
-95
60
-62
0
-988
-91
98
-72
91
-19
-40
8
422
-39
88
11
88
279
30
51
994
-28
-24
-613
90
-62
-172
711
-4
464
-12
-122
-287
-76
-13
91
42
62
82
-70
-795
32
-38
61
-95
-85
-32
36
537
12
40
22
47
594
-96
-91
-2
52
177
-1000
243
-15
69
-27
24
72
6
44
-1000
13
-45
45
84
55
413
-33
-15
437
154
165
-419
-963
6
-554
42
-452
17
-121
-326
197
139
-18
90
-39
-50
-34
-73
-13
200
352
87
860
-1000
697
84
18
68
65
715
-57
1
-60
13
713
-154
-342
-39
18
-1000
243
18
-7
90
107
4
-340
27
-64
-227
39
58
13
26
13
61
-44
62
-46
-4
656
-403
73
19
-1000
-87
117
-591
-573
-4
28
304
88
-95
72
86
-884
-449
108
30
-57
-52
-87
-11
19
-880
-76
275
-580
-28
31
0
-67
-42
23
84
-20
-8
-440
507
-28
92
-327
-541
-8
419
603
-97
-674
32
51
899
175
31
1
-97
-234
-415
60
-576
-1000
-79
9
97
-324
91
-19
-246
8
87
-227
-454
11
-101
41
30
51
-741
-407
24
-3
-8
-25
2
17
-52
-1
-12
44
-28
8
-308
2
6
82
-73
-890
60
32
51
56
-13
31
1
-55
-22
-95
60
-62
0
-988
-91
98
-72
91
-19
-40
8
422
-39
88
11
88
279
30
51
994
-28
-24
-613
90
-62
-172
711
-4
464
-12
-122
-287
-76
-13
91
42
62
82
-70
-795
32
-38
61
-95
-85
-32
36
537
12
40
22
47
594
-96
-91
-2
52
177
-1000
243
-15
69
-27
24
72
6
44
-642
13
-45
45
84
55
413
-33
-15
437
154
165
-419
-963
6
-554
42
-452
17
-121
-326
197
139
-18
90
-39
-50
-34
-73
-13
200
352
87
860
-1000
697
84
18
68
65
715
-57
1
-60
13
713
-154
-342
-39
18
-1000
243
18
-7
90
107
4
-340
27
-64
-227
39
58
13
26
13
61
-44
62
-46
-4
656
-403
73
19
-1000
-87
117
-591
-573
-4
28
304
88
-95
72
86
-884
-449
108
30
-57
-52
-87
-11
19
-880
-76
275
-580
-28
31
0
-67
-42
23
84
-20
-8
-440
507
-28
92
-327
-541
-8
419
603
-97
-674
32
51
899
175
31
1
-97
-234
-415
60
-576
-1000
-79
9
97
-324
91
-19
-246
8
87
-36
-454
11
-101
41
30
51
-741
-407
24
-3
-8
-25
2
17
-52
-1
-12
44
-28
8
-308
2
6
82
-73
-890
60
32
51
56
-13
31
1
-55
-22
-95
60
-62
0
-988
-91
98
-72
91
-19
-40
8
422
-39
88
11
88
279
30
51
994
-28
-24
-613
90
-62
-172
711
-4
464
-12
-122
-287
-76
-13
91
42
62
82
-70
-795
32
-38
61
-95
-85
-32
36
537
12
40
22
47
594
-96
-91
-2
52
177
-1000
243
-15
69
-27
24
72
6
44
-642
13
-45
45
84
55
413
-33
-15
437
154
165
-419
-963
6
-554
42
-452
17
-121
-326
197
139
-18
90
-39
-50
-34
-73
-13
200
352
87
860
-1000
697
84
18
68
65
715
-57
1
-60
13
713
-154
-342
-39
18
-1000
243
18
-7
90
107
4
-340
27
-64
-227
39
58
13
26
13
61
-44
62
-46
-4
656
-403
73
19
-1000
-87
117
-591
-573
-4
28
304
88
-95
72
86
-884
-449
108
30
-57
-52
-87
-11
19
-880
-76
275
-580
-28
31
0
-67
-42
23
84
-20
-8
-440
507
-28
92
-327
-541
-8
419
603
-97
-674
32
51
899
175
31
1
-97
-234
-415
60
-576
-1000
-79
9
97
-324
91
-19
-246
8
87
-36
-454
11
-101
41
30
51
-741
-407
24
-3
-8
-25
2
17
-52
-1
-10
44
-28
8
-308
2
6
82
-73
-890
60
32
51
56
-13
31
1
-55
-22
-95
60
-62
0
-988
-91
98
-72
91
-19
-40
8
422
-39
88
11
88
279
30
51
994
-28
-24
-613
90
-62
-172
711
-4
464
-12
-122
-287
-76
-13
91
42
62
82
-70
-795
32
-38
61
-95
-85
-32
36
537
12
40
22
47
594
-96
-91
-2
52
177
-1000
243
-15
69
-27
24
72
6
44
-1000
13
-45
45
84
55
413
-33
-15
437
154
165
-419
-963
6
-554
42
-452
17
-121
-326
197
139
-18
90
-39
-50
-34
-73
-13
200
352
87
860
-1000
697
84
18
68
65
715
-57
1
-60
13
713
-154
-342
-39
18
-1000
243
18
-7
90
107
4
-340
27
-64
-227
39
58
13
26
13
61
-44
62
-46
-4
656
-403
73
19
-1000
-87
117
-591
-573
-4
28
304
88
-95
72
86
-884
-449
108
30
-57
-52
-87
-11
19
-880
-76
275
-580
-28
31
0
-67
-42
23
84
-20
-8
-440
507
-28
92
-327
-541
-8
419
603
-97
-674
32
51
899
175
31
1
-97
-234
-415
60
-576
-1000
-79
9
97
-324
91
-19
-246
8
87
-227
-454
11
-101
41
30
51
-741
-407
24
-3
-8
-29
2
17
-52
-1
-12
44
-28
8
-308
2
6
82
-73
-890
60
32
51
56
-13
31
1
-55
-22
-95
60
-62
0
-988
-91
98
-72
91
-19
-40
8
422
-39
88
11
88
279
30
51
994
-28
-24
-613
90
-62
-172
711
-4
-90
-12
420
-287
-76
-13
91
42
62
82
-70
-795
32
-38
61
-95
-85
-32
36
537
12
40
22
47
594
-96
-91
-2
52
177
-1000
243
-15
69
-27
24
72
6
44
-642
13
-45
45
84
55
413
-33
-15
437
154
80
-419
-963
-23
-554
42
-452
17
-121
-326
197
139
-18
90
-39
-50
-34
-73
-13
200
352
87
860
-1000
697
84
18
68
65
715
-57
1
-60
13
713
-154
-342
-39
18
-1000
243
18
-7
90
107
4
-340
27
-64
-227
39
58
13
26
13
61
-44
62
-46
-4
656
-403
73
19
-1000
-87
117
-591
30
-4
28
304
88
-95
72
86
-884
-449
108
30
-57
-52
-87
-11
19
-880
-76
275
-580
-28
31
0
-67
-42
23
84
-20
-8
-440
507
-28
92
-327
-541
-8
419
603
-97
-674
32
51
899
175
31
1
-97
-234
-415
60
-576
-1000
-79
9
97
-324
91
-19
-246
8
87
-36
-454
11
-101
41
30
51
-741
-407
24
-3
-8
-25
2
17
-52
-1
-11
44
-28
8
-308
2
6
82
-73
-890
60
32
51
56
-13
31
1
-55
-22
-95
60
-62
0
-988
-91
98
-72
91
-19
-40
8
422
-39
88
11
88
279
30
51
994
-28
-24
-613
90
-62
-172
711
-4
464
-12
-122
-287
-76
-13
91
42
62
82
-70
-795
32
-38
61
-95
-85
-32
36
537
12
40
22
47
594
-96
-91
-2
52
177
-1000
243
-15
69
-27
24
72
6
44
-1000
13
-45
45
84
55
413
-33
-15
437
154
165
-419
-963
6
-554
42
-452
17
-121
-326
197
139
-18
90
-39
-50
-34
-73
-13
200
352
87
860
-1000
697
84
18
68
65
715
-57
1
-60
13
713
-154
-342
-39
18
-1000
243
18
-7
90
107
4
-340
27
-64
-227
39
58
13
26
13
61
-44
62
-46
-4
656
-403
73
19
-1000
-87
117
-591
-573
-4
28
304
88
-95
72
86
-884
-449
108
30
-57
-52
-87
-11
19
-880
-76
275
-580
-28
31
0
-67
-42
23
84
-20
-8
-440
507
-28
92
-327
-541
-8
419
603
-97
-674
32
51
899
175
31
1
-97
-234
-415
60
-576
-1000
-79
9
97
-324
91
-19
-246
8
87
-227
-454
11
-101
41
30
51
-741
-407
24
-3
-8
-25
2
17
-52
-1
-11
44
-28
8
-308
2
6
82
-73
-890
60
32
51
56
-13
31
1
-55
-22
-95
60
-62
0
-988
-91
98
-72
91
-19
-40
8
422
-39
88
11
88
279
30
51
994
-28
-24
-613
90
-62
-172
711
-4
464
-12
-122
-287
-76
-13
91
42
62
82
-70
-795
32
-38
61
-95
-85
-32
36
537
12
40
22
47
594
-96
-91
-2
52
177
-1000
243
-15
69
-27
24
72
6
44
-1000
13
-45
45
84
55
413
-33
-15
437
154
165
-419
-963
6
-554
42
-452
17
-121
-326
197
139
-18
90
-39
-50
-34
-73
-13
200
352
87
860
-1000
697
84
18
68
65
715
-57
1
-60
13
713
-154
-342
-39
18
-1000
243
18
-7
90
107
4
-340
27
-64
-227
39
58
13
26
13
61
-44
62
-46
-4
656
-403
73
19
-1000
-87
117
-591
-573
-4
28
304
88
-95
72
86
-884
-449
108
30
-57
-52
-87
-11
19
-880
-76
275
-580
-28
31
0
-67
-42
23
84
-20
-8
-440
507
-28
92
-327
-541
-8
419
603
-97
-674
32
51
899
175
31
1
-97
-234
-415
60
-576
-1000
-79
9
97
-324
91
-19
-246
8
87
-227
-454
11
-101
41
30
51
-741
-407
24
-3
-8
-25
2
17
-52
-1
-11
44
-28
8
-308
2
6
82
-73
-890
60
32
51
56
-13
31
1
-55
-22
-95
60
-62
0
-988
-91
98
-72
91
-19
-40
8
422
-39
88
11
88
279
30
51
994
-28
-24
-613
90
-62
-172
711
-4
464
-12
-122
-287
-76
-13
91
42
62
82
-70
-795
32
-38
61
-95
-85
-32
36
537
12
40
22
47
594
-96
-91
-2
52
177
-1000
243
-15
69
-27
24
72
6
44
-1000
13
-45
45
84
55
413
-33
-15
437
154
165
-419
-963
6
-554
42
-452
17
-121
-326
197
139
-18
90
-39
-50
-34
-73
-13
200
352
87
860
-1000
697
84
18
68
65
715
-57
1
-60
13
713
-154
-342
-39
18
-1000
243
18
-7
90
107
4
-340
27
-64
-227
39
58
13
26
13
61
-44
62
-46
-4
656
-403
73
19
-1000
-87
117
-591
-573
-4
28
304
88
-95
72
86
-884
-449
108
30
-57
-52
-87
-11
19
-880
-76
275
-580
-28
31
0
-67
-42
23
84
-20
-8
-440
507
-28
92
-327
-541
-8
419
603
-97
-674
32
51
899
175
31
1
-97
-234
-415
60
-576
-1000
-79
9
97
-324
91
-19
-246
8
87
-227
-454
11
-101
41
30
51
-741
-407
24
-3
-8
-25
2
17
-52
-1
-11
44
-28
8
-308
2
6
82
-73
-890
60
32
51
56
-13
31
1
-55
-22
-95
60
-62
0
-988
-91
98
-72
91
-19
-40
8
422
-39
88
11
88
279
30
51
994
-28
-24
-613
90
-62
-172
711
-4
464
-12
-122
-287
-76
-13
91
42
62
82
-70
-795
32
-38
61
-95
-85
-32
36
537
12
40
22
47
594
-96
-91
-2
52
177
-1000
243
-15
69
-27
24
72
6
44
-1000
13
-45
45
84
55
413
-33
-15
437
154
165
-419
-963
6
-554
42
-452
17
-121
-326
197
139
-18
90
-39
-50
-34
-73
-13
200
352
87
860
-1000
697
84
18
68
65
715
-57
1
-60
13
713
-154
-342
-39
18
-1000
243
18
-7
90
107
4
-340
27
-64
-227
39
58
13
26
13
61
-44
62
-46
-4
656
-403
73
19
-1000
-87
117
-591
-573
-4
28
304
88
-95
72
86
-884
-449
108
30
-57
-52
-87
-11
19
-880
-76
275
-580
-28
31
0
-67
-42
23
84
-20
-8
-440
507
-28
92
-327
-541
-8
419
603
-97
-674
32
51
899
175
31
1
-97
-234
-415
60
-576
-1000
-79
9
97
-324
91
-19
-246
8
87
-227
-454
11
-101
41
30
51
-741
-407
24
-3
-8
-25
2
17
-52
-1
-12
44
-28
8
-308
2
6
82
-73
-890
60
32
51
56
-13
31
1
-55
-22
-95
60
-62
0
-988
-91
98
-72
91
-19
-40
8
422
-39
88
11
88
279
30
51
994
-28
-24
-613
90
-62
-172
711
-4
464
-12
-122
-287
-76
-13
91
42
62
82
-70
-795
32
-38
61
-95
-85
-32
36
537
12
40
22
47
594
-96
-91
-2
52
177
-1000
243
-15
69
-27
24
72
6
44
-642
13
-45
45
84
55
413
-33
-15
437
154
165
-419
-963
6
-554
42
-452
17
-121
-326
197
139
-18
90
-39
-50
-34
-73
-13
200
352
87
860
-1000
697
84
18
68
65
715
-57
1
-60
13
713
-154
-342
-39
18
-1000
243
18
-7
90
107
4
-340
27
-64
-227
39
58
13
26
13
61
-44
62
-46
-4
656
-403
73
19
-1000
-87
117
-591
-573
-4
28
304
88
-95
72
86
-884
-449
108
30
-57
-52
-87
-11
19
-880
-76
275
-580
-28
31
0
-67
-42
23
84
-20
-8
-440
507
-28
92
-327
-541
-8
419
603
-97
-674
32
51
899
175
31
1
-97
-234
-415
60
-576
-1000
-79
9
97
-324
91
-19
-246
8
87
-36
-454
11
-101
41
30
51
-741
-407
24
-3
-8
-25
2
17
-52
-1
-10
44
-28
8
-308
2
6
82
-73
-890
60
32
51
56
-13
31
1
-55
-22
-95
60
-62
0
-988
-91
98
-72
91
-19
-40
8
422
-39
88
11
88
279
30
51
994
-28
-24
-613
90
-62
-172
711
-4
464
-12
-122
-287
-76
-13
91
42
62
82
-70
-795
32
-38
61
-95
-85
-32
36
537
12
40
22
47
594
-96
-91
-2
52
177
-1000
243
-15
69
-27
24
72
6
44
-1000
13
-45
45
84
55
413
-33
-15
437
154
165
-419
-963
6
-554
42
-452
17
-121
-326
197
139
-18
90
-39
-50
-34
-73
-13
200
352
87
860
-1000
697
84
18
68
65
715
-57
1
-60
13
713
-154
-342
-39
18
-1000
243
18
-7
90
107
4
-340
27
-64
-227
39
58
13
26
13
61
-44
62
-46
-4
656
-403
73
19
-1000
-87
117
-591
-573
-4
28
304
88
-95
72
86
-884
-449
108
30
-57
-52
-87
-11
19
-880
-76
275
-580
-28
31
0
-67
-42
23
84
-20
-8
-440
507
-28
92
-327
-541
-8
419
603
-97
-674
32
51
899
175
31
1
-97
-234
-415
60
-576
-1000
-79
9
97
-324
91
-19
-246
8
87
-227
-454
11
-101
41
30
51
-741
-407
24
-3
-8
-25
2
17
-52
-1
-11
44
-28
8
-308
2
6
82
-73
-890
60
32
51
56
-13
31
1
-55
-22
-95
60
-62
0
-988
-91
98
-72
91
-19
-40
8
422
-39
88
11
88
279
30
51
994
-28
-24
-613
90
-62
-172
711
-4
464
-12
-122
-287
-76
-13
91
42
62
82
-70
-795
32
-38
61
-95
-85
-32
36
537
12
40
22
47
594
-96
-91
-2
52
177
-1000
243
-15
69
-27
24
72
6
44
-1000
13
-45
45
84
55
413
-33
-15
437
154
165
-419
-963
6
-554
42
-452
17
-121
-326
197
139
-18
90
-39
-50
-34
-73
-13
200
352
87
860
-1000
697
84
18
68
65
715
-57
1
-60
13
713
-154
-342
-39
18
-1000
243
18
-7
90
107
4
-340
27
-64
-227
39
58
13
26
13
61
-44
62
-46
-4
656
-403
73
19
-1000
-87
117
-591
-573
-4
28
304
88
-95
72
86
-884
-449
108
30
-57
-52
-87
-11
19
-880
-76
275
-580
-28
31
0
-67
-42
23
84
-20
-8
-440
507
-28
92
-327
-541
-8
419
603
-97
-674
32
51
899
175
31
1
-97
-234
-415
60
-576
-1000
-79
9
97
-324
91
-19
-246
8
87
-227
-454
11
-101
41
30
51
-741
-407
24
-3
-8
-25
2
17
-52
-1
-11
44
-28
8
-308
2
6
82
-73
-890
60
32
51
56
-13
31
1
-55
-22
-95
60
-62
0
-988
-91
98
-72
91
-19
-40
8
422
-39
88
11
88
279
30
51
994
-28
-24
-613
90
-62
-172
711
-4
464
-12
-122
-287
-76
-13
91
42
62
82
-70
-795
32
-38
61
-95
-85
-32
36
537
12
40
22
47
594
-96
-91
-2
52
177
-1000
243
-15
69
-27
24
72
6
44
-1000
13
-45
45
84
55
413
-33
-15
437
154
165
-419
-963
6
-554
42
-452
17
-121
-326
197
139
-18
90
-39
-50
-34
-73
-13
200
352
87
860
-1000
697
84
18
68
65
715
-57
1
-60
13
713
-154
-342
-39
18
-1000
243
18
-7
90
107
4
-340
27
-64
-227
39
58
13
26
13
61
-44
62
-46
-4
656
-403
73
19
-1000
-87
117
-591
-573
-4
28
304
88
-95
72
86
-884
-449
108
30
-57
-52
-87
-11
19
-880
-76
275
-580
-28
31
0
-67
-42
23
84
-20
-8
-440
507
-28
92
-327
-541
-8
419
603
-97
-674
32
51
899
175
31
1
-97
-234
-415
60
-576
-1000
-79
9
97
-324
91
-19
-246
8
87
-227
-454
11
-101
41
30
51
-741
-407
24
-3
-8
-25
2
17
-52
-1
-12
44
-28
8
-308
2
6
82
-73
-890
60
32
51
56
-13
31
1
-55
-22
-95
60
-62
0
-988
-91
98
-72
91
-19
-40
8
422
-39
88
11
88
279
30
51
994
-28
-24
-613
90
-62
-172
711
-4
464
-12
-122
-287
-76
-13
91
42
62
82
-70
-795
32
-38
61
-95
-85
-32
36
537
12
40
22
47
594
-96
-91
-2
52
177
-1000
243
-15
69
-27
24
72
6
44
-642
13
-45
45
84
55
413
-33
-15
437
154
165
-419
-963
6
-554
42
-452
17
-121
-326
197
139
-18
90
-39
-50
-34
-73
-13
200
352
87
860
-1000
697
84
18
68
65
715
-57
1
-60
13
713
-154
-342
-39
18
-1000
243
18
-7
90
107
4
-340
27
-64
-227
39
58
13
26
13
61
-44
62
-46
-4
656
-403
73
19
-1000
-87
117
-591
-573
-4
28
304
88
-95
72
86
-884
-449
108
30
-57
-52
-87
-11
19
-880
-76
275
-580
-28
31
0
-67
-42
23
84
-20
-8
-440
507
-28
92
-327
-541
-8
419
603
-97
-674
32
51
899
175
31
1
-97
-234
-415
60
-576
-1000
-79
9
97
-324
91
-19
-246
8
87
-36
-454
11
-101
41
30
51
-741
-407
24
-3
-8
-25
2
17
-52
-1
-11
44
-28
8
-308
2
6
82
-73
-890
60
32
51
56
-13
31
1
-55
-22
-95
60
-62
0
-988
-91
98
-72
91
-19
-40
8
422
-39
88
11
88
279
30
51
994
-28
-24
-613
90
-62
-172
711
-4
464
-12
-122
-287
-76
-13
91
42
62
82
-70
-795
32
-38
61
-95
-85
-32
36
537
12
40
22
47
594
-96
-91
-2
52
177
-1000
243
-15
69
-27
24
72
6
44
-1000
13
-45
45
84
55
413
-33
-15
437
154
165
-419
-963
6
-554
42
-452
17
-121
-326
197
139
-18
90
-39
-50
-34
-73
-13
200
352
87
860
-1000
697
84
18
68
65
715
-57
1
-60
13
713
-154
-342
-39
18
-1000
243
18
-7
90
107
4
-340
27
-64
-227
39
58
13
26
13
61
-44
62
-46
-4
656
-403
73
19
-1000
-87
117
-591
-573
-4
28
304
88
-95
72
86
-884
-449
108
30
-57
-52
-87
-11
19
-880
-76
275
-580
-28
31
0
-67
-42
23
84
-20
-8
-440
507
-28
92
-327
-541
-8
419
603
-97
-674
32
51
899
175
31
1
-97
-234
-415
60
-576
-1000
-79
9
97
-324
91
-19
-246
8
87
-227
-454
11
-101
41
30
51
-741
-407
24
-3
-8
-25
2
17
-52
-1
-11
44
-28
8
-308
2
6
82
-73
-890
60
32
51
56
-13
31
1
-55
-22
-95
60
-62
0
-988
-91
98
-72
91
-19
-40
8
422
-39
88
11
88
279
30
51
994
-28
-24
-613
90
-62
-172
711
-4
464
-12
-122
-287
-76
-13
91
42
62
82
-70
-795
32
-38
61
-95
-85
-32
36
537
12
40
22
47
594
-96
-91
-2
52
177
-1000
243
-15
69
-27
24
72
6
44
-1000
13
-45
45
84
55
413
-33
-15
437
154
165
-419
-963
6
-554
42
-452
17
-121
-326
197
139
-18
90
-39
-50
-34
-73
-13
200
352
87
860
-1000
697
84
18
68
65
715
-57
1
-60
13
713
-154
-342
-39
18
-1000
243
18
-7
90
107
4
-340
27
-64
-227
39
58
13
26
13
61
-44
62
-46
-4
656
-403
73
19
-1000
-87
117
-591
-573
-4
28
304
88
-95
72
86
-884
-449
108
30
-57
-52
-87
-11
19
-880
-76
275
-580
-28
31
0
-67
-42
23
84
-20
-8
-440
507
-28
92
-327
-541
-8
419
603
-97
-674
32
51
899
175
31
1
-97
-234
-415
60
-576
-1000
-79
9
97
-324
91
-19
-246
8
87
-227
-454
11
-101
41
30
51
-741
-407
24
-3
-8
-25
2
17
-52
-1
-11
44
-28
8
-308
2
6
82
-73
-890
60
32
51
56
-13
31
1
-55
-22
-95
60
-62
0
-988
-91
98
-72
91
-19
-40
8
422
-39
88
11
88
279
30
51
994
-28
-24
-613
90
-62
-172
711
-4
464
-12
-122
-287
-76
-13
91
42
62
82
-70
-795
32
-38
61
-95
-85
-32
36
537
12
40
22
47
594
-96
-91
-2
52
177
-1000
243
-15
69
-27
24
72
6
44
-1000
13
-45
45
84
55
413
-33
-15
437
154
165
-419
-963
6
-554
42
-452
17
-121
-326
197
139
-18
90
-39
-50
-34
-73
-13
200
352
87
860
-1000
697
84
18
68
65
715
-57
1
-60
13
713
-154
-342
-39
18
-1000
243
18
-7
90
107
4
-340
27
-64
-227
39
58
13
26
13
61
-44
62
-46
-4
656
-403
73
19
-1000
-87
117
-591
-573
-4
28
304
88
-95
72
86
-884
-449
108
30
-57
-52
-87
-11
19
-880
-76
275
-580
-28
31
0
-67
-42
23
84
-20
-8
-440
507
-28
92
-327
-541
-8
419
603
-97
-674
32
51
899
175
31
1
-97
-234
-415
60
-576
-1000
-79
9
97
-324
91
-19
-246
8
87
-227
-454
11
-101
41
30
51
-741
-407
24
-3
-8
-25
2
17
-52
-1
-11
44
-28
8
-308
2
6
82
-73
-890
60
32
51
56
-13
31
1
-55
-22
-95
60
-62
0
-988
-91
98
-72
91
-19
-40
8
422
-39
88
11
88
279
30
51
994
-28
-24
-613
90
-62
-172
711
-4
464
-12
-122
-287
-76
-13
91
42
62
82
-70
-795
32
-38
61
-95
-85
-32
36
537
12
40
22
47
594
-96
-91
-2
52
177
-1000
243
-15
69
-27
24
72
6
44
-1000
13
-45
45
84
55
413
-33
-15
437
154
165
-419
-963
6
-554
42
-452
17
-121
-326
197
139
-18
90
-39
-50
-34
-73
-13
200
352
87
860
-1000
697
84
18
68
65
715
-57
1
-60
13
713
-154
-342
-39
18
-1000
243
18
-7
90
107
4
-340
27
-64
-227
39
58
13
26
13
61
-44
62
-46
-4
656
-403
73
19
-1000
-87
117
-591
-573
-4
28
304
88
-95
72
86
-884
-449
108
30
-57
-52
-87
-11
19
-880
-76
275
-580
-28
31
0
-67
-42
23
84
-20
-8
-440
507
-28
92
-327
-541
-8
419
603
-97
-674
32
51
899
175
31
1
-97
-234
-415
60
-576
-1000
-79
9
97
-324
91
-19
-246
8
87
-227
-454
11
-101
41
30
51
-741
-407
24
-3
-8
-25
2
17
-52
-1
-12
44
-28
8
-308
2
6
82
-73
-890
60
32
51
56
-13
31
1
-55
-22
-95
60
-62
0
-988
-91
98
-72
91
-19
-40
8
422
-39
88
11
88
279
30
51
994
-28
-24
-613
90
-62
-172
711
-4
464
-12
-122
-287
-76
-13
91
42
62
82
-70
-795
32
-38
61
-95
-85
-32
36
537
12
40
22
47
594
-96
-91
-2
52
177
-1000
243
-15
69
-27
24
72
6
44
-642
13
-45
45
84
55
413
-33
-15
437
154
165
-419
-963
6
-554
42
-452
17
-121
-326
197
139
-18
90
-39
-50
-34
-73
-13
200
352
87
860
-1000
697
84
18
68
65
715
-57
1
-60
13
713
-154
-342
-39
18
-1000
243
18
-7
90
107
4
-340
27
-64
-227
39
58
13
26
13
61
-44
62
-46
-4
656
-403
73
19
-1000
-87
117
-591
-573
-4
28
304
88
-95
72
86
-884
-449
108
30
-57
-52
-87
-11
19
-880
-76
275
-580
-28
31
0
-67
-42
23
84
-20
-8
-440
507
-28
92
-327
-541
-8
419
603
-97
-674
32
51
899
175
31
1
-97
-234
-415
60
-576
-1000
-79
9
97
-324
91
-19
-246
8
87
-36
-454
11
-101
41
30
51
-741
-407
24
-3
-8
-25
2
17
-52
-1
-12
44
-28
8
-308
2
6
82
-73
-890
60
32
51
56
-13
31
1
-55
-22
-95
60
-62
0
-988
-91
98
-72
91
-19
-40
8
422
-39
88
11
88
279
30
51
994
-28
-24
-613
90
-62
-172
711
-4
464
-12
-122
-287
-76
-13
91
42
62
82
-70
-795
32
-38
61
-95
-85
-32
36
537
12
40
22
47
594
-96
-91
-2
52
177
-1000
243
-15
69
-27
24
72
6
44
-642
13
-45
45
84
55
413
-33
-15
437
154
165
-419
-963
6
-554
42
-452
17
-121
-326
197
139
-18
90
-39
-50
-34
-73
-13
200
352
87
860
-1000
697
84
18
68
65
715
-57
1
-60
13
713
-154
-342
-39
18
-1000
243
18
-7
90
107
4
-340
27
-64
-227
39
58
13
26
13
61
-44
62
-46
-4
656
-403
73
19
-1000
-87
117
-591
-573
-4
28
304
88
-95
72
86
-884
-449
108
30
-57
-52
-87
-11
19
-880
-76
275
-580
-28
31
0
-67
-42
23
84
-20
-8
-440
507
-28
92
-327
-541
-8
419
603
-97
-674
32
51
899
175
31
1
-97
-234
-415
60
-576
-1000
-79
9
97
-324
91
-19
-246
8
87
-36
-454
11
-101
41
30
51
-741
-407
24
-3
-8
-25
2
17
-52
-1
-11
44
-28
8
-308
2
6
82
-73
-890
60
32
51
56
-13
31
1
-55
-22
-95
60
-62
0
-988
-91
98
-72
91
-19
-40
8
422
-39
88
11
88
279
30
51
994
-28
-24
-613
90
-62
-172
711
-4
464
-12
-122
-287
-76
-13
91
42
62
82
-70
-795
32
-38
61
-95
-85
-32
36
537
12
40
22
47
594
-96
-91
-2
52
177
-1000
243
-15
69
-27
24
72
6
44
-1000
13
-45
45
84
55
413
-33
-15
437
154
165
-419
-963
6
-554
42
-452
17
-121
-326
197
139
-18
90
-39
-50
-34
-73
-13
200
352
87
860
-1000
697
84
18
68
65
715
-57
1
-60
13
713
-154
-342
-39
18
-1000
243
18
-7
90
107
4
-340
27
-64
-227
39
58
13
26
13
61
-44
62
-46
-4
656
-403
73
19
-1000
-87
117
-591
-573
-4
28
304
88
-95
72
86
-884
-449
108
30
-57
-52
-87
-11
19
-880
-76
275
-580
-28
31
0
-67
-42
23
84
-20
-8
-440
507
-28
92
-327
-541
-8
419
603
-97
-674
32
51
899
175
31
1
-97
-234
-415
60
-576
-1000
-79
9
97
-324
91
-19
-246
8
87
-227
-454
11
-101
41
30
51
-741
-407
24
-3
-8
-25
2
17
-52
-1
-11
44
-28
8
-308
2
6
82
-73
-890
60
32
51
56
-13
31
1
-55
-22
-95
60
-62
0
-988
-91
98
-72
91
-19
-40
8
422
-39
88
11
88
279
30
51
994
-28
-24
-613
90
-62
-172
711
-4
464
-12
-122
-287
-76
-13
91
42
62
82
-70
-795
32
-38
61
-95
-85
-32
36
537
12
40
22
47
594
-96
-91
-2
52
177
-1000
243
-15
69
-27
24
72
6
44
-1000
13
-45
45
84
55
413
-33
-15
437
154
165
-419
-963
6
-554
42
-452
17
-121
-326
197
139
-18
90
-39
-50
-34
-73
-13
200
352
87
860
-1000
697
84
18
68
65
715
-57
1
-60
13
713
-154
-342
-39
18
-1000
243
18
-7
90
107
4
-340
27
-64
-227
39
58
13
26
13
61
-44
62
-46
-4
656
-403
73
19
-1000
-87
117
-591
-573
-4
28
304
88
-95
72
86
-884
-449
108
30
-57
-52
-87
-11
19
-880
-76
275
-580
-28
31
0
-67
-42
23
84
-20
-8
-440
507
-28
92
-327
-541
-8
419
603
-97
-674
32
51
899
175
31
1
-97
-234
-415
60
-576
-1000
-79
9
97
-324
91
-19
-246
8
87
-227
-454
11
-101
41
30
51
-741
-407
24
-3
-8
-25
2
17
-52
-1
-12
44
-28
8
-308
2
6
82
-73
-890
60
32
51
56
-13
31
1
-55
-22
-95
60
-62
0
-988
-91
98
-72
91
-19
-40
8
422
-39
88
11
88
279
30
51
994
-28
-24
-613
90
-62
-172
711
-4
464
-12
-122
-287
-76
-13
91
42
62
82
-70
-795
32
-38
61
-95
-85
-32
36
537
12
40
22
47
594
-96
-91
-2
52
177
-1000
243
-15
69
-27
24
72
6
44
-642
13
-45
45
84
55
413
-33
-15
437
154
165
-419
-963
6
-554
42
-452
17
-121
-326
197
139
-18
90
-39
-50
-34
-73
-13
200
352
87
860
-1000
697
84
18
68
65
715
-57
1
-60
13
713
-154
-342
-39
18
-1000
243
18
-7
90
107
4
-340
27
-64
-227
39
58
13
26
13
61
-44
62
-46
-4
656
-403
73
19
-1000
-87
117
-591
-573
-4
28
304
88
-95
72
86
-884
-449
108
30
-57
-52
-87
-11
19
-880
-76
275
-580
-28
31
0
-67
-42
23
84
-20
-8
-440
507
-28
92
-327
-541
-8
419
603
-97
-674
32
51
899
175
31
1
-97
-234
-415
60
-576
-1000
-79
9
97
-324
91
-19
-246
8
87
-36
-454
11
-101
41
30
51
-741
-407
24
-3
-8
-25
2
17
-52
-1
-11
44
-28
8
-308
2
6
82
-73
-890
60
32
51
56
-13
31
1
-55
-22
-95
60
-62
0
-988
-91
98
-72
91
-19
-40
8
422
-39
88
11
88
279
30
51
994
-28
-24
-613
90
-62
-172
711
-4
464
-12
-122
-287
-76
-13
91
42
62
82
-70
-795
32
-38
61
-95
-85
-32
36
537
12
40
22
47
594
-96
-91
-2
52
177
-1000
243
-15
69
-27
24
72
6
44
-1000
13
-45
45
84
55
413
-33
-15
437
154
165
-419
-963
6
-554
42
-452
17
-121
-326
197
139
-18
90
-39
-50
-34
-73
-13
200
352
87
860
-1000
697
84
18
68
65
715
-57
1
-60
13
713
-154
-342
-39
18
-1000
243
18
-7
90
107
4
-340
27
-64
-227
39
58
13
26
13
61
-44
62
-46
-4
656
-403
73
19
-1000
-87
117
-591
-573
-4
28
304
88
-95
72
86
-884
-449
108
30
-57
-52
-87
-11
19
-880
-76
275
-580
-28
31
0
-67
-42
23
84
-20
-8
-440
507
-28
92
-327
-541
-8
419
603
-97
-674
32
51
899
175
31
1
-97
-234
-415
60
-576
-1000
-79
9
97
-324
91
-19
-246
8
87
-227
-454
11
-101
41
30
51
-741
-407
24
-3
-8
-25
2
17
-52
-1
-12
44
-28
8
-308
2
6
82
-73
-890
60
32
51
56
-13
31
1
-55
-22
-95
60
-62
0
-988
-91
98
-72
91
-19
-40
8
422
-39
88
11
88
279
30
51
994
-28
-24
-613
90
-62
-172
711
-4
464
-12
-122
-287
-76
-13
91
42
62
82
-70
-795
32
-38
61
-95
-85
-32
36
537
12
40
22
47
594
-96
-91
-2
52
177
-1000
243
-15
69
-27
24
72
6
44
-642
13
-45
45
84
55
413
-33
-15
437
154
165
-419
-963
6
-554
42
-452
17
-121
-326
197
139
-18
90
-39
-50
-34
-73
-13
200
352
87
860
-1000
697
84
18
68
65
715
-57
1
-60
13
713
-154
-342
-39
18
-1000
243
18
-7
90
107
4
-340
27
-64
-227
39
58
13
26
13
61
-44
62
-46
-4
656
-403
73
19
-1000
-87
117
-591
-573
-4
28
304
88
-95
72
86
-884
-449
108
30
-57
-52
-87
-11
19
-880
-76
275
-580
-28
31
0
-67
-42
23
84
-20
-8
-440
507
-28
92
-327
-541
-8
419
603
-97
-674
32
51
899
175
31
1
-97
-234
-415
60
-576
-1000
-79
9
97
-324
91
-19
-246
8
87
-36
-454
11
-101
41
30
51
-741
-407
24
-3
-8
-25
2
17
-52
-1
-11
44
-28
8
-308
2
6
82
-73
-890
60
32
51
56
-13
31
1
-55
-22
-95
60
-62
0
-988
-91
98
-72
91
-19
-40
8
422
-39
88
11
88
279
30
51
994
-28
-24
-613
90
-62
-172
711
-4
464
-12
-122
-287
-76
-13
91
42
62
82
-70
-795
32
-38
61
-95
-85
-32
36
537
12
40
22
47
594
-96
-91
-2
52
177
-1000
243
-15
69
-27
24
72
6
44
-1000
13
-45
45
84
55
413
-33
-15
437
154
165
-419
-963
6
-554
42
-452
17
-121
-326
197
139
-18
90
-39
-50
-34
-73
-13
200
352
87
860
-1000
697
84
18
68
65
715
-57
1
-60
13
713
-154
-342
-39
18
-1000
243
18
-7
90
107
4
-340
27
-64
-227
39
58
13
26
13
61
-44
62
-46
-4
656
-403
73
19
-1000
-87
117
-591
-573
-4
28
304
88
-95
72
86
-884
-449
108
30
-57
-52
-87
-11
19
-880
-76
275
-580
-28
31
0
-67
-42
23
84
-20
-8
-440
507
-28
92
-327
-541
-8
419
603
-97
-674
32
51
899
175
31
1
-97
-234
-415
60
-576
-1000
-79
9
97
-324
91
-19
-246
8
87
-227
-454
11
-101
41
30
51
-741
-407
24
-3
-8
-25
2
17
-52
-1
-11
44
-28
8
-308
2
6
82
-73
-890
60
32
51
56
-13
31
1
-55
-22
-95
60
-62
0
-988
-91
98
-72
91
-19
-40
8
422
-39
88
11
88
279
30
51
994
-28
-24
-613
90
-62
-172
711
-4
464
-12
-122
-287
-76
-13
91
42
62
82
-70
-795
32
-38
61
-95
-85
-32
36
537
12
40
22
47
594
-96
-91
-2
52
177
-1000
243
-15
69
-27
24
72
6
44
-1000
13
-45
45
84
55
413
-33
-15
437
154
165
-419
-963
6
-554
42
-452
17
-121
-326
197
139
-18
90
-39
-50
-34
-73
-13
200
352
87
860
-1000
697
84
18
68
65
715
-57
1
-60
13
713
-154
-342
-39
18
-1000
243
18
-7
90
107
4
-340
27
-64
-227
39
58
13
26
13
61
-44
62
-46
-4
656
-403
73
19
-1000
-87
117
-591
-573
-4
28
304
88
-95
72
86
-884
-449
108
30
-57
-52
-87
-11
19
-880
-76
275
-580
-28
31
0
-67
-42
23
84
-20
-8
-440
507
-28
92
-327
-541
-8
419
603
-97
-674
32
51
899
175
31
1
-97
-234
-415
60
-576
-1000
-79
9
97
-324
91
-19
-246
8
87
-227
-454
11
-101
41
30
51
-741
-407
24
-3
-8
-25
2
17
-52
-1
-10
44
-28
8
-308
2
6
82
-73
-890
60
32
51
56
-13
31
1
-55
-22
-95
60
-62
0
-988
-91
98
-72
91
-19
-40
8
422
-39
88
11
88
279
30
51
994
-28
-24
-613
90
-62
-172
711
-4
464
-12
-122
-287
-76
-13
91
42
62
82
-70
-795
32
-38
61
-95
-85
-32
36
537
12
40
22
47
594
-96
-91
-2
52
177
-1000
243
-15
69
-27
24
72
6
44
-642
13
-45
45
84
55
413
-33
-15
437
154
165
-419
-963
6
-554
42
-452
17
-121
-326
197
139
-18
90
-39
-50
-34
-73
-13
200
352
87
860
-1000
697
84
18
68
65
715
-57
1
-60
13
713
-154
-342
-39
18
-1000
243
18
-7
90
107
4
-340
27
-64
-227
39
58
13
26
13
61
-44
62
-46
-4
656
-403
73
19
-1000
-87
117
-591
-573
-4
28
304
88
-95
72
86
-884
-449
108
30
-57
-52
-87
-11
19
-880
-76
275
-580
-28
31
0
-67
-42
23
84
-20
-8
-440
507
-28
92
-327
-541
-8
419
603
-97
-674
32
51
899
175
31
1
-97
-234
-415
60
-576
-1000
-79
9
97
-324
91
-19
-246
8
87
-36
-454
11
-101
41
30
51
-741
-407
24
-3
-8
-25
2
17
-52
-1
-10
44
-28
8
-308
2
6
82
-73
-890
60
32
51
56
-13
31
1
-55
-22
-95
60
-62
0
-988
-91
98
-72
91
-19
-40
8
422
-39
88
11
88
279
30
51
994
-28
-24
-613
90
-62
-172
711
-4
464
-12
-122
-287
-76
-13
91
42
62
82
-70
-795
32
-38
61
-95
-85
-32
36
537
12
40
22
47
594
-96
-91
-2
52
177
-1000
243
-15
69
-27
24
72
6
44
-642
13
-45
45
84
55
413
-33
-15
437
154
165
-419
-963
6
-554
42
-452
17
-121
-326
197
139
-18
90
-39
-50
-34
-73
-13
200
352
87
860
-1000
697
84
18
68
65
715
-57
1
-60
13
713
-154
-342
-39
18
-1000
243
18
-7
90
107
4
-340
27
-64
-227
39
58
13
26
13
61
-44
62
-46
-4
656
-403
73
19
-1000
-87
117
-591
-573
-4
28
304
88
-95
72
86
-884
-449
108
30
-57
-52
-87
-11
19
-880
-76
275
-580
-28
31
0
-67
-42
23
84
-20
-8
-440
507
-28
92
-327
-541
-8
419
603
-97
-674
32
51
899
175
31
1
-97
-234
-415
60
-576
-1000
-79
9
97
-324
91
-19
-246
8
87
-36
-454
11
-101
41
30
51
-741
-407
24
-3
-8
-25
2
17
-52
-1
-11
44
-28
8
-308
2
6
82
-73
-890
60
32
51
56
-13
31
1
-55
-22
-95
60
-62
0
-988
-91
98
-72
91
-19
-40
8
422
-39
88
11
88
279
30
51
994
-28
-24
-613
90
-62
-172
711
-4
464
-12
-122
-287
-76
-13
91
42
62
82
-70
-795
32
-38
61
-95
-85
-32
36
537
12
40
22
47
594
-96
-91
-2
52
177
-1000
243
-15
69
-27
24
72
6
44
-1000
13
-45
45
84
55
413
-33
-15
437
154
165
-419
-963
6
-554
42
-452
17
-121
-326
197
139
-18
90
-39
-50
-34
-73
-13
200
352
87
860
-1000
697
84
18
68
65
715
-57
1
-60
13
713
-154
-342
-39
18
-1000
243
18
-7
90
107
4
-340
27
-64
-227
39
58
13
26
13
61
-44
62
-46
-4
656
-403
73
19
-1000
-87
117
-591
-573
-4
28
304
88
-95
72
86
-884
-449
108
30
-57
-52
-87
-11
19
-880
-76
275
-580
-28
31
0
-67
-42
23
84
-20
-8
-440
507
-28
92
-327
-541
-8
419
603
-97
-674
32
51
899
175
31
1
-97
-234
-415
60
-576
-1000
-79
9
97
-324
91
-19
-246
8
87
-227
-454
11
-101
41
30
51
-741
-407
24
-3
-8
-25
2
17
-52
-1
-11
44
-28
8
-308
2
6
82
-73
-890
60
32
51
56
-13
31
1
-55
-22
-95
60
-62
0
-988
-91
98
-72
91
-19
-40
8
422
-39
88
11
88
279
30
51
994
-28
-24
-613
90
-62
-172
711
-4
464
-12
-122
-287
-76
-13
91
42
62
82
-70
-795
32
-38
61
-95
-85
-32
36
537
12
40
22
47
594
-96
-91
-2
52
177
-1000
243
-15
69
-27
24
72
6
44
-1000
13
-45
45
84
55
413
-33
-15
437
154
165
-419
-963
6
-554
42
-452
17
-121
-326
197
139
-18
90
-39
-50
-34
-73
-13
200
352
87
860
-1000
697
84
18
68
65
715
-57
1
-60
13
713
-154
-342
-39
18
-1000
243
18
-7
90
107
4
-340
27
-64
-227
39
58
13
26
13
61
-44
62
-46
-4
656
-403
73
19
-1000
-87
117
-591
-573
-4
28
304
88
-95
72
86
-884
-449
108
30
-57
-52
-87
-11
19
-880
-76
275
-580
-28
31
0
-67
-42
23
84
-20
-8
-440
507
-28
92
-327
-541
-8
419
603
-97
-674
32
51
899
175
31
1
-97
-234
-415
60
-576
-1000
-79
9
97
-324
91
-19
-246
8
87
-227
-454
11
-101
41
30
51
-741
-407
24
-3
-8
-25
2
17
-52
-1
-11
44
-28
8
-308
2
6
82
-73
-890
60
32
51
56
-13
31
1
-55
-22
-95
60
-62
0
-988
-91
98
-72
91
-19
-40
8
422
-39
88
11
88
279
30
51
994
-28
-24
-613
90
-62
-172
711
-4
464
-12
-122
-287
-76
-13
91
42
62
82
-70
-795
32
-38
61
-95
-85
-32
36
537
12
40
22
47
594
-96
-91
-2
52
177
-1000
243
-15
69
-27
24
72
6
44
-1000
13
-45
45
84
55
413
-33
-15
437
154
165
-419
-963
6
-554
42
-452
17
-121
-326
197
139
-18
90
-39
-50
-34
-73
-13
200
352
87
860
-1000
697
84
18
68
65
715
-57
1
-60
13
713
-154
-342
-39
18
-1000
243
18
-7
90
107
4
-340
27
-64
-227
39
58
13
26
13
61
-44
62
-46
-4
656
-403
73
19
-1000
-87
117
-591
-573
-4
28
304
88
-95
72
86
-884
-449
108
30
-57
-52
-87
-11
19
-880
-76
275
-580
-28
31
0
-67
-42
23
84
-20
-8
-440
507
-28
92
-327
-541
-8
419
603
-97
-674
32
51
899
175
31
1
-97
-234
-415
60
-576
-1000
-79
9
97
-324
91
-19
-246
8
87
-227
-454
11
-101
41
30
51
-741
-407
-15
-3
-464
-29
2
17
-52
-1
-12
44
-28
8
-308
2
6
82
-180
-890
60
32
745
56
-13
31
1
-55
-22
-95
60
-62
0
-988
-91
98
-72
91
-19
-40
8
422
-39
88
11
88
279
30
51
994
-28
-24
-613
90
-62
-172
711
-293
-90
-12
420
-287
-76
-13
-244
-62
62
82
-70
-795
32
-38
61
634
-85
-32
36
537
12
40
22
47
594
-96
-884
-2
52
177
-1000
243
-15
69
-27
24
72
6
44
-642
13
-45
45
17
55
413
-33
-15
437
154
80
-419
-963
-23
-554
42
-452
17
-121
-326
197
139
-18
90
209
-50
-34
-73
-13
200
352
87
860
-1000
697
84
18
68
65
715
-57
1
-60
13
713
-154
-342
-39
18
-1000
243
18
-7
90
107
4
-340
27
-64
-227
39
58
13
26
13
61
-44
62
-46
-4
656
-403
73
19
-1000
-87
117
-591
30
-4
28
304
88
-95
72
86
-884
-449
108
30
-57
-52
-87
-11
19
-880
-76
275
-580
-28
31
0
-67
-42
23
84
-20
-8
-440
507
-28
92
-327
-541
-8
419
603
-97
-674
32
51
899
175
31
1
-97
-234
-415
60
-119
-1000
261
9
97
-324
91
-19
-246
8
87
-36
-454
11
-101
41
30
51
-741
-407
24
-3
-8
-25
2
17
-52
-1
-12
44
-28
8
-308
2
6
82
-73
-890
60
32
51
56
-13
31
1
-55
-22
-95
60
-62
0
-988
-91
98
-72
91
-19
-40
8
422
-39
88
11
88
279
30
51
994
-28
-24
-613
90
-62
-172
711
-4
464
-12
-122
-287
-76
-13
91
42
62
82
-70
-795
32
-38
61
-95
-85
-32
36
537
12
40
22
47
594
-96
-91
-2
52
177
-1000
243
-15
69
-27
24
72
6
44
-642
13
-45
45
84
55
413
-33
-15
437
154
165
-419
-963
6
-554
42
-452
17
-121
-326
197
139
-18
90
-39
-50
-34
-73
-13
200
352
87
860
-1000
697
84
18
68
65
715
-57
1
-60
13
713
-154
-342
-39
18
-1000
243
18
-7
90
107
4
-340
27
-64
-227
39
58
13
26
13
61
-44
62
-46
-4
656
-403
73
19
-1000
-87
117
-591
-573
-4
28
304
88
-95
72
86
-884
-449
108
30
-57
-52
-87
-11
19
-880
-76
275
-580
-28
31
0
-67
-42
23
84
-20
-8
-440
507
-28
92
-327
-541
-8
419
603
-97
-674
32
51
899
175
31
1
-97
-234
-415
60
-576
-1000
-79
9
97
-324
91
-19
-246
8
87
-36
-454
11
-101
41
30
51
-741
-407
24
-3
-8
-25
2
17
-52
-1
-11
44
-28
8
-308
2
6
82
-73
-890
60
32
51
56
-13
31
1
-55
-22
-95
60
-62
0
-988
-91
98
-72
91
-19
-40
8
422
-39
88
11
88
279
30
51
994
-28
-24
-613
90
-62
-172
711
-4
464
-12
-122
-287
-76
-13
91
42
62
82
-70
-795
32
-38
61
-95
-85
-32
36
537
12
40
22
47
594
-96
-91
-2
52
177
-1000
243
-15
69
-27
24
72
6
44
-1000
13
-45
45
84
55
413
-33
-15
437
154
165
-419
-963
6
-554
42
-452
17
-121
-326
197
139
-18
90
-39
-50
-34
-73
-13
200
352
87
860
-1000
697
84
18
68
65
715
-57
1
-60
13
713
-154
-342
-39
18
-1000
243
18
-7
90
107
4
-340
27
-64
-227
39
58
13
26
13
61
-44
62
-46
-4
656
-403
73
19
-1000
-87
117
-591
-573
-4
28
304
88
-95
72
86
-884
-449
108
30
-57
-52
-87
-11
19
-880
-76
275
-580
-28
31
0
-67
-42
23
84
-20
-8
-440
507
-28
92
-327
-541
-8
419
603
-97
-674
32
51
899
175
31
1
-97
-234
-415
60
-576
-1000
-79
9
97
-324
91
-19
-246
8
87
-227
-454
11
-101
41
30
51
-741
-407
24
-3
-8
-25
2
17
-52
-1
-11
44
-28
8
-308
2
6
82
-73
-890
60
32
51
56
-13
31
1
-55
-22
-95
60
-62
0
-988
-91
98
-72
91
-19
-40
8
422
-39
88
11
88
279
30
51
994
-28
-24
-613
90
-62
-172
711
-4
464
-12
-122
-287
-76
-13
91
42
62
82
-70
-795
32
-38
61
-95
-85
-32
36
537
12
40
22
47
594
-96
-91
-2
52
177
-1000
243
-15
69
-27
24
72
6
44
-1000
13
-45
45
84
55
413
-33
-15
437
154
165
-419
-963
6
-554
42
-452
17
-121
-326
197
139
-18
90
-39
-50
-34
-73
-13
200
352
87
860
-1000
697
84
18
68
65
715
-57
1
-60
13
713
-154
-342
-39
18
-1000
243
18
-7
90
107
4
-340
27
-64
-227
39
58
13
26
13
61
-44
62
-46
-4
656
-403
73
19
-1000
-87
117
-591
-573
-4
28
304
88
-95
72
86
-884
-449
108
30
-57
-52
-87
-11
19
-880
-76
275
-580
-28
31
0
-67
-42
23
84
-20
-8
-440
507
-28
92
-327
-541
-8
419
603
-97
-674
32
51
899
175
31
1
-97
-234
-415
60
-576
-1000
-79
9
97
-324
91
-19
-246
8
87
-227
-454
11
-101
41
30
51
-741
-407
24
-3
-8
-25
2
17
-52
-1
-11
44
-28
8
-308
2
6
82
-73
-890
60
32
51
56
-13
31
1
-55
-22
-95
60
-62
0
-988
-91
98
-72
91
-19
-40
8
422
-39
88
11
88
279
30
51
994
-28
-24
-613
90
-62
-172
711
-4
464
-12
-122
-287
-76
-13
91
42
62
82
-70
-795
32
-38
61
-95
-85
-32
36
537
12
40
22
47
594
-96
-91
-2
52
177
-1000
243
-15
69
-27
24
72
6
44
-1000
13
-45
45
84
55
413
-33
-15
437
154
165
-419
-963
6
-554
42
-452
17
-121
-326
197
139
-18
90
-39
-50
-34
-73
-13
200
352
87
860
-1000
697
84
18
68
65
715
-57
1
-60
13
713
-154
-342
-39
18
-1000
243
18
-7
90
107
4
-340
27
-64
-227
39
58
13
26
13
61
-44
62
-46
-4
656
-403
73
19
-1000
-87
117
-591
-573
-4
28
304
88
-95
72
86
-884
-449
108
30
-57
-52
-87
-11
19
-880
-76
275
-580
-28
31
0
-67
-42
23
84
-20
-8
-440
507
-28
92
-327
-541
-8
419
603
-97
-674
32
51
899
175
31
1
-97
-234
-415
60
-576
-1000
-79
9
97
-324
91
-19
-246
8
87
-227
-454
11
-101
41
30
51
-741
-407
24
-3
-8
-25
2
17
-52
-1
-11
44
-28
8
-308
2
6
82
-73
-890
60
32
51
56
-13
31
1
-55
-22
-95
60
-62
0
-958
-91
98
-72
91
-19
-40
8
422
-39
88
11
88
279
30
51
994
-28
-24
-613
90
-62
-172
711
-4
464
-12
-122
-287
-76
-571
595
42
62
82
-70
-795
32
-38
61
-95
-85
-32
36
537
12
40
22
47
594
-96
-91
-2
52
177
-1000
243
-15
69
-27
24
72
6
44
-1000
13
-45
45
84
55
413
-33
-15
437
154
165
-419
-963
6
-554
42
-452
17
-121
-326
197
139
-18
90
-39
36
-34
-73
-13
200
352
87
860
-1000
697
84
18
68
65
715
-57
1
-60
13
713
-154
-342
-39
18
-1000
243
18
-7
90
107
4
-340
27
291
-227
39
58
13
26
13
61
-44
62
-46
-4
656
-403
73
19
-1000
-87
117
-591
-573
-4
28
304
88
-95
72
86
-884
-449
108
30
-57
-52
-87
-11
19
-880
-548
275
-580
-28
31
0
-67
-42
23
84
-20
-8
-440
507
-28
92
-327
-541
-8
419
603
-97
-674
32
51
899
175
31
1
-97
-234
-415
60
-576
-1000
-79
9
97
-324
91
-19
-246
8
87
-227
-454
11
-101
41
30
51
-741
-407
24
-3
-8
-25
2
17
-52
-1
-11
44
-28
8
-308
2
6
82
-73
-890
60
32
51
56
-13
31
1
-55
-22
-95
60
-62
0
-988
-91
98
-72
91
-19
-40
8
422
-39
88
11
88
279
30
51
994
-28
-24
-613
90
-62
-172
711
-4
464
-12
-122
-287
-76
-13
91
42
62
82
-70
-795
32
-38
61
-95
-85
-32
36
537
12
40
22
47
594
-96
-91
-2
52
177
-1000
243
-15
69
-27
24
72
6
44
-1000
13
-45
45
84
55
413
-33
-15
437
154
165
-419
-963
6
-554
42
-452
17
-121
-326
197
139
-18
90
-39
-50
-34
-73
-13
200
352
87
860
-1000
697
84
18
68
65
715
-57
1
-60
13
713
-154
-342
-39
18
-1000
243
18
-7
90
107
4
-340
27
-64
-227
39
58
13
26
13
61
-44
62
-46
-4
656
-403
73
19
-1000
-87
117
-591
-573
-4
28
304
88
-95
72
86
-884
-449
108
30
-57
-52
-87
-11
19
-880
-76
275
-580
-28
31
0
-67
-42
23
84
-20
-8
-440
507
-28
92
-327
-541
-8
419
603
-97
-674
32
51
899
175
31
1
-97
-234
-415
60
-576
-1000
-79
9
97
-324
91
-19
-246
8
87
-227
-454
11
-101
41
30
51
-741
-407
24
-3
-8
-25
2
17
-52
-1
-11
44
-28
8
-308
2
6
82
-73
-890
60
32
51
56
-13
31
1
-55
-22
-95
60
-62
0
-988
-91
98
-72
91
-19
-40
8
422
-39
88
11
88
279
30
51
994
-28
-24
-613
90
-62
-172
711
-4
464
-12
-122
-287
-76
-13
91
42
62
82
-70
-795
32
-38
61
-95
-85
-32
36
537
12
40
22
47
594
-96
-91
-2
52
177
-1000
243
-15
69
-27
24
72
6
44
-1000
13
-45
45
84
55
413
-33
-15
437
154
165
-419
-963
6
-554
42
-452
17
-121
-326
197
139
-18
90
-39
-50
-34
-73
-13
200
352
87
860
-1000
697
84
18
68
65
715
-57
1
-60
13
713
-154
-342
-39
18
-1000
243
18
-7
90
107
4
-340
27
-64
-227
39
58
13
26
13
61
-44
62
-46
-4
656
-403
73
19
-1000
-87
117
-591
-573
-4
28
304
88
-95
72
86
-884
-449
108
30
-57
-52
-87
-11
19
-880
-76
275
-580
-28
31
0
-67
-42
23
84
-20
-8
-440
507
-28
92
-327
-541
-8
419
603
-97
-674
32
51
899
175
31
1
-97
-234
-415
60
-576
-1000
-79
9
97
-324
91
-19
-246
8
87
-227
-454
11
-101
41
30
51
-741
-407
24
-3
-8
-29
2
17
-52
-1
-12
44
-28
8
-308
2
6
82
-73
-890
60
32
51
56
-13
31
1
-55
-22
-95
60
-62
0
-988
-91
98
-72
91
-19
-40
8
422
-39
88
11
88
279
30
51
994
-28
-24
-613
90
-62
-172
711
-4
-90
-12
420
-287
-76
-13
91
42
62
82
-70
-795
32
-38
61
-95
-85
-32
36
537
12
40
22
47
594
-96
-91
-2
52
177
-1000
243
-15
69
-27
24
72
6
44
-642
13
-45
45
84
55
413
-33
-15
437
154
80
-419
-963
-23
-554
42
-452
17
-121
-326
197
139
-18
90
-39
-50
-34
-73
-13
200
352
87
860
-1000
697
84
18
68
65
715
-57
1
-60
13
713
-154
-342
-39
18
-1000
243
18
-7
90
107
4
-340
27
-64
-227
39
58
13
26
13
61
-44
62
-46
-4
656
-403
73
19
-1000
-87
117
-591
30
-4
28
304
88
-95
72
86
-884
-449
108
30
-57
-52
-87
-11
19
-880
-76
275
-580
-28
31
0
-67
-42
23
84
-20
-8
-440
507
-28
92
-327
-541
-8
419
603
-97
-674
32
51
899
175
31
1
-97
-234
-415
60
-576
-1000
-79
9
97
-324
91
-19
-246
8
87
-36
-454
11
-101
41
30
51
-741
-407
24
-3
-8
-25
2
17
-52
-1
-11
44
-28
8
-308
2
6
82
-73
-890
60
32
51
56
-13
31
1
-55
-22
-95
60
-62
0
-988
-91
98
-72
91
-19
-40
8
422
-39
88
11
88
279
30
51
994
-28
-24
-613
90
-62
-172
711
-4
464
-12
-122
-287
-76
-13
91
42
62
82
-70
-795
32
-38
61
-95
-85
-32
36
537
12
40
22
47
594
-96
-91
-2
52
177
-1000
243
-15
69
-27
24
72
6
44
-1000
13
-45
45
84
55
413
-33
-15
437
154
165
-419
-963
6
-554
42
-452
17
-121
-326
197
139
-18
90
-39
-50
-34
-73
-13
200
352
87
860
-1000
697
84
18
68
65
715
-57
1
-60
13
713
-154
-342
-39
18
-1000
243
18
-7
90
107
4
-340
27
-64
-227
39
58
13
26
13
61
-44
62
-46
-4
656
-403
73
19
-1000
-87
117
-591
-573
-4
28
304
88
-95
72
86
-884
-449
108
30
-57
-52
-87
-11
19
-880
-76
275
-580
-28
31
0
-67
-42
23
84
-20
-8
-440
507
-28
92
-327
-541
-8
419
603
-97
-674
32
51
899
175
31
1
-97
-234
-415
60
-576
-1000
-79
9
97
-324
91
-19
-246
8
87
-227
-454
11
-101
41
30
51
-741
-407
24
-3
-8
-25
2
17
-52
-1
-11
44
-28
8
-308
2
6
82
-73
-890
60
32
51
56
-13
31
1
-55
-22
-95
60
-62
0
-988
-91
98
-72
91
-19
-40
8
422
-39
88
11
88
279
30
51
994
-28
-24
-613
90
-62
-172
711
-4
464
-12
-122
-287
-76
-13
91
42
62
82
-70
-795
32
-38
61
-95
-85
-32
36
537
12
40
22
47
594
-96
-91
-2
52
177
-1000
243
-15
69
-27
24
72
6
44
-1000
13
-45
45
84
55
413
-33
-15
437
154
165
-419
-963
6
-554
42
-452
17
-121
-326
197
139
-18
90
-39
-50
-34
-73
-13
200
352
87
860
-1000
697
84
18
68
65
715
-57
1
-60
13
713
-154
-342
-39
18
-1000
243
18
-7
90
107
4
-340
27
-64
-227
39
58
13
26
13
61
-44
62
-46
-4
656
-403
73
19
-1000
-87
117
-591
-573
-4
28
304
88
-95
72
86
-884
-449
108
30
-57
-52
-87
-11
19
-880
-76
275
-580
-28
31
0
-67
-42
23
84
-20
-8
-440
507
-28
92
-327
-541
-8
419
603
-97
-674
32
51
899
175
31
1
-97
-234
-415
60
-576
-1000
-79
9
97
-324
91
-19
-246
8
87
-227
-454
11
-101
41
30
51
-741
-407
24
-3
-8
-25
2
17
-52
-1
-11
44
-28
8
-308
2
6
82
-73
-890
60
32
51
56
-13
31
1
-55
-22
-95
60
-62
0
-988
-91
98
-72
91
-19
-40
8
422
-39
88
11
88
279
30
51
994
-28
-24
-613
90
-62
-172
711
-4
464
-12
-122
-287
-76
-13
91
42
62
82
-70
-795
32
-38
61
-95
-85
-32
36
537
12
40
22
47
594
-96
-91
-2
52
177
-1000
243
-15
69
-27
24
72
6
44
-1000
13
-45
45
84
55
413
-33
-15
437
154
165
-419
-963
6
-554
42
-452
17
-121
-326
197
139
-18
90
-39
-50
-34
-73
-13
200
352
87
860
-1000
697
84
18
68
65
715
-57
1
-60
13
713
-154
-342
-39
18
-1000
243
18
-7
90
107
4
-340
27
-64
-227
39
58
13
26
13
61
-44
62
-46
-4
656
-403
73
19
-1000
-87
117
-591
-573
-4
28
304
88
-95
72
86
-884
-449
108
30
-57
-52
-87
-11
19
-880
-76
275
-580
-28
31
0
-67
-42
23
84
-20
-8
-440
507
-28
92
-327
-541
-8
419
603
-97
-674
32
51
899
175
31
1
-97
-234
-415
60
-576
-1000
-79
9
97
-324
91
-19
-246
8
87
-227
-454
11
-101
41
30
51
-741
-407
24
-3
-8
-25
2
17
-52
-1
-11
44
-28
8
-308
2
6
82
-73
-890
60
32
51
56
-13
31
1
-55
-22
-95
60
-62
0
-988
-91
98
-72
91
-19
-40
8
422
-39
88
11
88
279
30
51
994
-28
-24
-613
90
-62
-172
711
-4
464
-12
-122
-287
-76
-13
91
42
62
82
-70
-795
32
-38
61
-95
-85
-32
36
537
12
40
22
47
594
-96
-91
-2
52
177
-1000
243
-15
69
-27
24
72
6
44
-1000
13
-45
45
84
55
413
-33
-15
437
154
165
-419
-963
6
-554
42
-452
17
-121
-326
197
139
-18
90
-39
-50
-34
-73
-13
200
352
87
860
-1000
697
84
18
68
65
715
-57
1
-60
13
713
-154
-342
-39
18
-1000
243
18
-7
90
107
4
-340
27
-64
-227
39
58
13
26
13
61
-44
62
-46
-4
656
-403
73
19
-1000
-87
117
-591
-573
-4
28
304
88
-95
72
86
-884
-449
108
30
-57
-52
-87
-11
19
-880
-76
275
-580
-28
31
0
-67
-42
23
84
-20
-8
-440
507
-28
92
-327
-541
-8
419
603
-97
-674
32
51
899
175
31
1
-97
-234
-415
60
-576
-1000
-79
9
97
-324
91
-19
-246
8
87
-227
-454
11
-101
41
30
51
-741
-407
24
-3
-8
-25
2
17
-52
-1
-11
44
-28
8
-308
2
6
82
-73
-890
60
32
51
56
-13
31
1
-55
-22
-95
60
-62
0
-988
-91
98
-72
91
-19
-40
8
422
-39
88
11
88
279
30
51
994
-28
-24
-613
90
-62
-172
711
-4
464
-12
-122
-287
-76
-13
91
42
62
82
-70
-795
32
-38
61
-95
-85
-32
36
537
12
40
22
47
594
-96
-91
-2
52
177
-1000
243
-15
69
-27
24
72
6
44
-1000
13
-45
45
84
55
413
-33
-15
437
154
165
-419
-963
6
-554
42
-452
17
-121
-326
197
139
-18
90
-39
-50
-34
-73
-13
200
352
87
860
-1000
697
84
18
68
65
715
-57
1
-60
13
713
-154
-342
-39
18
-1000
243
18
-7
90
107
4
-340
27
-64
-227
39
58
13
26
13
61
-44
62
-46
-4
656
-403
73
19
-1000
-87
117
-591
-573
-4
28
304
88
-95
72
86
-884
-449
108
30
-57
-52
-87
-11
19
-880
-76
275
-580
-28
31
0
-67
-42
23
84
-20
-8
-440
507
-28
92
-327
-541
-8
419
603
-97
-674
32
51
899
175
31
1
-97
-234
-415
60
-576
-1000
-79
9
97
-324
91
-19
-246
8
87
-227
-454
11
-101
41
30
51
-741
-407
24
-3
-8
-25
2
17
-52
-1
-12
44
-28
8
-308
2
6
82
-73
-890
60
32
51
56
-13
31
1
-55
-22
-95
60
-62
0
-988
-91
98
-72
91
-19
-40
8
422
-39
88
11
88
279
30
51
994
-28
-24
-613
90
-62
-172
711
-4
464
-12
-122
-287
-76
-13
91
42
62
82
-70
-795
32
-38
61
-95
-85
-32
36
537
12
40
22
47
594
-96
-91
-2
52
177
-1000
243
-15
69
-27
24
72
6
44
-642
13
-45
45
84
55
413
-33
-15
437
154
165
-419
-963
6
-554
42
-452
17
-121
-326
197
139
-18
90
-39
-50
-34
-73
-13
200
352
87
860
-1000
697
84
18
68
65
715
-57
1
-60
13
713
-154
-342
-39
18
-1000
243
18
-7
90
107
4
-340
27
-64
-227
39
58
13
26
13
61
-44
62
-46
-4
656
-403
73
19
-1000
-87
117
-591
-573
-4
28
304
88
-95
72
86
-884
-449
108
30
-57
-52
-87
-11
19
-880
-76
275
-580
-28
31
0
-67
-42
23
84
-20
-8
-440
507
-28
92
-327
-541
-8
419
603
-97
-674
32
51
899
175
31
1
-97
-234
-415
60
-576
-1000
-79
9
97
-324
91
-19
-246
8
87
-36
-454
11
-101
41
30
51
-741
-407
24
-3
-8
-25
2
17
-52
-1
-10
44
-28
8
-308
2
6
82
-73
-890
60
32
51
56
-13
31
1
-55
-22
-95
60
-62
0
-988
-91
98
-72
91
-19
-40
8
422
-39
88
11
88
279
30
51
994
-28
-24
-613
90
-62
-172
711
-4
464
-12
-122
-287
-76
-13
91
42
62
82
-70
-795
32
-38
61
-95
-85
-32
36
537
12
40
22
47
594
-96
-91
-2
52
177
-1000
243
-15
69
-27
24
72
6
44
-642
13
-45
45
84
55
413
-33
-15
437
154
165
-419
-963
6
-554
42
-452
17
-121
-326
197
139
-18
90
-39
-50
-34
-73
-13
200
352
87
860
-1000
697
84
18
68
65
715
-57
1
-60
13
713
-154
-342
-39
18
-1000
243
18
-7
90
107
4
-340
27
-64
-227
39
58
13
26
13
61
-44
62
-46
-4
656
-403
73
19
-1000
-87
117
-591
-573
-4
28
304
88
-95
72
86
-884
-449
108
30
-57
-52
-87
-11
19
-880
-76
275
-580
-28
31
0
-67
-42
23
84
-20
-8
-440
507
-28
92
-327
-541
-8
419
603
-97
-674
32
51
899
175
31
1
-97
-234
-415
60
-576
-1000
-79
9
97
-324
91
-19
-246
8
87
-36
-454
11
-101
41
30
51
-741
-407
24
-3
-8
-25
2
17
-52
-1
-11
44
-28
8
-308
2
6
82
-73
-890
60
32
51
56
-13
31
1
-55
-22
-95
60
-62
0
-988
-91
98
-72
91
-19
-40
8
422
-39
88
11
88
279
30
51
994
-28
-24
-613
90
-62
-172
711
-4
464
-12
-122
-287
-76
-13
91
42
62
82
-70
-795
32
-38
61
-95
-85
-32
36
537
12
40
22
47
594
-96
-91
-2
52
177
-1000
243
-15
69
-27
24
72
6
44
-1000
13
-45
45
84
55
413
-33
-15
437
154
165
-419
-963
6
-554
42
-452
17
-121
-326
197
139
-18
90
-39
-50
-34
-73
-13
200
352
87
860
-1000
697
84
18
68
65
715
-57
1
-60
13
713
-154
-342
-39
18
-1000
243
18
-7
90
107
4
-340
27
-64
-227
39
58
13
26
13
61
-44
62
-46
-4
656
-403
73
19
-1000
-87
117
-591
-573
-4
28
304
88
-95
72
86
-884
-449
108
30
-57
-52
-87
-11
19
-880
-76
275
-580
-28
31
0
-67
-42
23
84
-20
-8
-440
507
-28
92
-327
-541
-8
419
603
-97
-674
32
51
899
175
31
1
-97
-234
-415
60
-576
-1000
-79
9
97
-324
91
-19
-246
8
87
-227
-454
11
-101
41
30
51
-741
-407
24
-3
-8
-25
2
17
-52
-1
-11
44
-28
8
-308
2
6
82
-73
-890
60
32
51
56
-13
31
1
-55
-22
-95
60
-62
0
-988
-91
98
-72
91
-19
-40
8
422
-39
88
11
88
279
30
51
994
-28
-24
-613
90
-62
-172
711
-4
464
-12
-122
-287
-76
-13
91
42
62
82
-70
-795
32
-38
61
-95
-85
-32
36
537
12
40
22
47
594
-96
-91
-2
52
177
-1000
243
-15
69
-27
24
72
6
44
-1000
13
-45
45
84
55
413
-33
-15
437
154
165
-419
-963
6
-554
42
-452
17
-121
-326
197
139
-18
90
-39
-50
-34
-73
-13
200
352
87
860
-1000
697
84
18
68
65
715
-57
1
-60
13
713
-154
-342
-39
18
-1000
243
18
-7
90
107
4
-340
27
-64
-227
39
58
13
26
13
61
-44
62
-46
-4
656
-403
73
19
-1000
-87
117
-591
-573
-4
28
304
88
-95
72
86
-884
-449
108
30
-57
-52
-87
-11
19
-880
-76
275
-580
-28
31
0
-67
-42
23
84
-20
-8
-440
507
-28
92
-327
-541
-8
419
603
-97
-674
32
51
899
175
31
1
-97
-234
-415
60
-576
-1000
-79
9
97
-324
91
-19
-246
8
87
-227
-454
11
-101
41
30
51
-741
-407
24
-3
-8
-25
2
17
-52
-1
-11
44
-28
8
-308
2
6
82
-73
-890
60
32
51
56
-13
31
1
-55
-22
-95
60
-62
0
-988
-91
98
-72
91
-19
-40
8
422
-39
88
11
88
279
30
51
994
-28
-24
-613
90
-62
-172
711
-4
464
-12
-122
-287
-76
-13
91
42
62
82
-70
-795
32
-38
61
-95
-85
-32
36
537
12
40
22
47
594
-96
-91
-2
52
177
-1000
243
-15
69
-27
24
72
6
44
-1000
13
-45
45
84
55
413
-33
-15
437
154
165
-419
-963
6
-554
42
-452
17
-121
-326
197
139
-18
90
-39
-50
-34
-73
-13
200
352
87
860
-1000
697
84
18
68
65
715
-57
1
-60
13
713
-154
-342
-39
18
-1000
243
18
-7
90
107
4
-340
27
-64
-227
39
58
13
26
13
61
-44
62
-46
-4
656
-403
73
19
-1000
-87
117
-591
-573
-4
28
304
88
-95
72
86
-884
-449
108
30
-57
-52
-87
-11
19
-880
-76
275
-580
-28
31
0
-67
-42
23
84
-20
-8
-440
507
-28
92
-327
-541
-8
419
603
-97
-674
32
51
899
175
31
1
-97
-234
-415
60
-576
-1000
-79
9
97
-324
91
-19
-246
8
87
-227
-454
11
-101
41
30
51
-741
-407
24
-3
-8
-25
2
17
-52
-1
-11
44
-28
8
-308
2
6
82
-73
-890
60
32
51
56
-13
31
1
-55
-22
-95
60
-62
0
-988
-91
98
-72
91
-19
-40
8
422
-39
88
11
88
279
30
51
994
-28
-24
-613
90
-62
-172
711
-4
464
-12
-122
-287
-76
-13
91
42
62
82
-70
-795
32
-38
61
-95
-85
-32
36
537
12
40
22
47
594
-96
-91
-2
52
177
-1000
243
-15
69
-27
24
72
6
44
-1000
13
-45
45
84
55
413
-33
-15
437
154
165
-419
-963
6
-554
42
-452
17
-121
-326
197
139
-18
90
-39
-50
-34
-73
-13
200
352
87
860
-1000
697
84
18
68
65
715
-57
1
-60
13
713
-154
-342
-39
18
-1000
243
18
-7
90
107
4
-340
27
-64
-227
39
58
13
26
13
61
-44
62
-46
-4
656
-403
73
19
-1000
-87
117
-591
-573
-4
28
304
88
-95
72
86
-884
-449
108
30
-57
-52
-87
-11
19
-880
-76
275
-580
-28
31
0
-67
-42
23
84
-20
-8
-440
507
-28
92
-327
-541
-8
419
603
-97
-674
32
51
899
175
31
1
-97
-234
-415
60
-576
-1000
-79
9
97
-324
91
-19
-246
8
87
-227
-454
11
-101
41
30
51
-741
-407
24
-3
-8
-25
2
17
-52
-1
-11
44
-28
8
-308
2
6
82
-73
-890
60
32
51
56
-13
31
1
-55
-22
-95
60
-62
0
-988
-91
98
-72
91
-19
-40
8
422
-39
88
11
88
279
30
51
994
-28
-24
-613
90
-62
-172
711
-4
464
-12
-122
-287
-76
-13
91
42
62
82
-70
-795
32
-38
61
-95
-85
-32
36
537
12
40
22
47
594
-96
-91
-2
52
177
-1000
243
-15
69
-27
24
72
6
44
-1000
13
-45
45
84
55
413
-33
-15
437
154
165
-419
-963
6
-554
42
-452
17
-121
-326
197
139
-18
90
-39
-50
-34
-73
-13
200
352
87
860
-1000
697
84
18
68
65
715
-57
1
-60
13
713
-154
-342
-39
18
-1000
243
18
-7
90
107
4
-340
27
-64
-227
39
58
13
26
13
61
-44
62
-46
-4
656
-403
73
19
-1000
-87
117
-591
-573
-4
28
304
88
-95
72
86
-884
-449
108
30
-57
-52
-87
-11
19
-880
-76
275
-580
-28
31
0
-67
-42
23
84
-20
-8
-440
507
-28
92
-327
-541
-8
419
603
-97
-674
32
51
899
175
31
1
-97
-234
-415
60
-576
-1000
-79
9
97
-324
91
-19
-246
8
87
-227
-454
11
-101
41
30
51
-741
-407
24
-3
-8
-25
2
17
-52
-1
-11
44
-28
8
-308
2
6
82
-73
-890
60
32
51
56
-13
31
1
-55
-22
-95
60
-62
0
-988
-91
98
-72
91
-19
-40
8
422
-39
88
11
88
279
30
51
994
-28
-24
-613
90
-62
-172
711
-4
464
-12
-122
-287
-76
-13
91
42
62
82
-70
-795
32
-38
61
-95
-85
-32
36
537
12
40
22
47
594
-96
-91
-2
52
177
-1000
243
-15
69
-27
24
72
6
44
-1000
13
-45
45
84
55
413
-33
-15
437
154
165
-419
-963
6
-554
42
-452
17
-121
-326
197
139
-18
90
-39
-50
-34
-73
-13
200
352
87
860
-1000
697
84
18
68
65
715
-57
1
-60
13
713
-154
-342
-39
18
-1000
243
18
-7
90
107
4
-340
27
-64
-227
39
58
13
26
13
61
-44
62
-46
-4
656
-403
73
19
-1000
-87
117
-591
-573
-4
28
304
88
-95
72
86
-884
-449
108
30
-57
-52
-87
-11
19
-880
-76
275
-580
-28
31
0
-67
-42
23
84
-20
-8
-440
507
-28
92
-327
-541
-8
419
603
-97
-674
32
51
899
175
31
1
-97
-234
-415
60
-576
-1000
-79
9
97
-324
91
-19
-246
8
87
-227
-454
11
-101
41
30
51
-741
-407
24
-3
-8
-25
2
17
-52
-1
-11
44
-28
8
-308
2
6
82
-73
-890
60
32
51
56
-13
31
1
-55
-22
-95
60
-62
0
-988
-91
98
-72
91
-19
-40
8
422
-39
88
11
88
279
30
51
994
-28
-24
-613
90
-62
-172
711
-4
464
-12
-122
-287
-76
-13
91
42
62
82
-70
-795
32
-38
61
-95
-85
-32
36
537
12
40
22
47
594
-96
-91
-2
52
177
-1000
243
-15
69
-27
24
72
6
44
-1000
13
-45
45
84
55
413
-33
-15
437
154
165
-419
-963
6
-554
42
-452
17
-121
-326
197
139
-18
90
-39
-50
-34
-73
-13
200
352
87
860
-1000
697
84
18
68
65
715
-57
1
-60
13
713
-154
-342
-39
18
-1000
243
18
-7
90
107
4
-340
27
-64
-227
39
58
13
26
13
61
-44
62
-46
-4
656
-403
73
19
-1000
-87
117
-591
-573
-4
28
304
88
-95
72
86
-884
-449
108
30
-57
-52
-87
-11
19
-880
-76
275
-580
-28
31
0
-67
-42
23
84
-20
-8
-440
507
-28
92
-327
-541
-8
419
603
-97
-674
32
51
899
175
31
1
-97
-234
-415
60
-576
-1000
-79
9
97
-324
91
-19
-246
8
87
-227
-454
11
-101
41
30
51
-741
-407
24
-3
-8
-25
2
17
-52
-1
-12
44
-28
8
-308
2
6
82
-73
-890
60
32
51
56
-13
31
1
-55
-22
-95
60
-62
0
-988
-91
98
-72
91
-19
-40
8
422
-39
88
11
88
279
30
51
994
-28
-24
-613
90
-62
-172
711
-4
464
-12
-122
-287
-76
-13
91
42
62
82
-70
-795
32
-38
61
-95
-85
-32
36
537
12
40
22
47
594
-96
-91
-2
52
177
-1000
243
-15
69
-27
24
72
6
44
-642
13
-45
45
84
55
413
-33
-15
437
154
165
-419
-963
6
-554
42
-452
17
-121
-326
197
139
-18
90
-39
-50
-34
-73
-13
200
352
87
860
-1000
697
84
18
68
65
715
-57
1
-60
13
713
-154
-342
-39
18
-1000
243
18
-7
90
107
4
-340
27
-64
-227
39
58
13
26
13
61
-44
62
-46
-4
656
-403
73
19
-1000
-87
117
-591
-573
-4
28
304
88
-95
72
86
-884
-449
108
30
-57
-52
-87
-11
19
-880
-76
275
-580
-28
31
0
-67
-42
23
84
-20
-8
-440
507
-28
92
-327
-541
-8
419
603
-97
-674
32
51
899
175
31
1
-97
-234
-415
60
-576
-1000
-79
9
97
-324
91
-19
-246
8
87
-36
-454
11
-101
41
30
51
-741
-407
24
-3
-8
-25
2
17
-52
-1
-11
44
-28
8
-308
2
6
82
-73
-890
60
32
51
56
-13
31
1
-55
-22
-95
60
-62
0
-988
-91
98
-72
91
-19
-40
8
422
-39
88
11
88
279
30
51
994
-28
-24
-613
90
-62
-172
711
-4
464
-12
-122
-287
-76
-13
91
42
62
82
-70
-795
32
-38
61
-95
-85
-32
36
537
12
40
22
47
594
-96
-91
-2
52
177
-1000
243
-15
69
-27
24
72
6
44
-1000
13
-45
45
84
55
413
-33
-15
437
154
165
-419
-963
6
-554
42
-452
17
-121
-326
197
139
-18
90
-39
-50
-34
-73
-13
200
352
87
860
-1000
697
84
18
68
65
715
-57
1
-60
13
713
-154
-342
-39
18
-1000
243
18
-7
90
107
4
-340
27
-64
-227
39
58
13
26
13
61
-44
62
-46
-4
656
-403
73
19
-1000
-87
117
-591
-573
-4
28
304
88
-95
72
86
-884
-449
108
30
-57
-52
-87
-11
19
-880
-76
275
-580
-28
31
0
-67
-42
23
84
-20
-8
-440
507
-28
92
-327
-541
-8
419
603
-97
-674
32
51
899
175
31
1
-97
-234
-415
60
-576
-1000
-79
9
97
-324
91
-19
-246
8
87
-227
-454
11
-101
41
30
51
-741
-407
24
-3
-8
-25
2
17
-52
-1
-10
44
-28
8
-308
2
6
82
-73
-890
60
32
51
56
-13
31
1
-55
-22
-95
60
-62
0
-988
-91
98
-72
91
-19
-40
8
422
-39
88
11
88
279
30
51
994
-28
-24
-613
90
-62
-172
711
-4
464
-12
-122
-287
-76
-13
91
42
62
82
-70
-795
32
-38
61
-95
-85
-32
36
537
12
40
22
47
594
-96
-91
-2
52
177
-1000
243
-15
69
-27
24
72
6
44
-642
13
-45
45
84
55
413
-33
-15
437
154
165
-419
-963
6
-554
42
-452
17
-121
-326
197
139
-18
90
-39
-50
-34
-73
-13
200
352
87
860
-1000
697
84
18
68
65
715
-57
1
-60
13
713
-154
-342
-39
18
-1000
243
18
-7
90
107
4
-340
27
-64
-227
39
58
13
26
13
61
-44
62
-46
-4
656
-403
73
19
-1000
-87
117
-591
-573
-4
28
304
88
-95
72
86
-884
-449
108
30
-57
-52
-87
-11
19
-880
-76
275
-580
-28
31
0
-67
-42
23
84
-20
-8
-440
507
-28
92
-327
-541
-8
419
603
-97
-674
32
51
899
175
31
1
-97
-234
-415
60
-576
-1000
-79
9
97
-324
91
-19
-246
8
87
-36
-454
11
-101
41
30
51
-741
-407
24
-3
-8
-25
2
17
-52
-1
-12
44
-28
8
-308
2
6
82
-73
-890
60
32
51
56
-13
31
1
-55
-22
-95
60
-62
0
-988
-91
98
-72
91
-19
-40
8
422
-39
88
11
88
279
30
51
994
-28
-24
-613
90
-62
-172
711
-4
464
-12
-122
-287
-76
-13
91
42
62
82
-70
-795
32
-38
61
-95
-85
-32
36
537
12
40
22
47
594
-96
-91
-2
52
177
-1000
243
-15
69
-27
24
72
6
44
-642
13
-45
45
84
55
413
-33
-15
437
154
165
-419
-963
6
-554
42
-452
17
-121
-326
197
139
-18
90
-39
-50
-34
-73
-13
200
352
87
860
-1000
697
84
18
68
65
715
-57
1
-60
13
713
-154
-342
-39
18
-1000
243
18
-7
90
107
4
-340
27
-64
-227
39
58
13
26
13
61
-44
62
-46
-4
656
-403
73
19
-1000
-87
117
-591
-573
-4
28
304
88
-95
72
86
-884
-449
108
30
-57
-52
-87
-11
19
-880
-76
275
-580
-28
31
0
-67
-42
23
84
-20
-8
-440
507
-28
92
-327
-541
-8
419
603
-97
-674
32
51
899
175
31
1
-97
-234
-415
60
-576
-1000
-79
9
97
-324
91
-19
-246
8
87
-36
-454
11
-101
41
30
51
-741
-407
24
-3
-8
-25
2
17
-52
-1
-11
44
-28
8
-308
2
6
82
-73
-890
60
32
51
56
-13
31
1
-55
-22
-95
60
-62
0
-988
-91
98
-72
91
-19
-40
8
422
-39
88
11
88
279
30
51
994
-28
-24
-613
90
-62
-172
711
-4
464
-12
-122
-287
-76
-13
91
42
62
82
-70
-795
32
-38
61
-95
-85
-32
36
537
12
40
22
47
594
-96
-91
-2
52
177
-1000
243
-15
69
-27
24
72
6
44
-1000
13
-45
45
84
55
413
-33
-15
437
154
165
-419
-963
6
-554
42
-452
17
-121
-326
197
139
-18
90
-39
-50
-34
-73
-13
200
352
87
860
-1000
697
84
18
68
65
715
-57
1
-60
13
713
-154
-342
-39
18
-1000
243
18
-7
90
107
4
-340
27
-64
-227
39
58
13
26
13
61
-44
62
-46
-4
656
-403
73
19
-1000
-87
117
-591
-573
-4
28
304
88
-95
72
86
-884
-449
108
30
-57
-52
-87
-11
19
-880
-76
275
-580
-28
31
0
-67
-42
23
84
-20
-8
-440
507
-28
92
-327
-541
-8
419
603
-97
-674
32
51
899
175
31
1
-97
-234
-415
60
-576
-1000
-79
9
97
-324
91
-19
-246
8
87
-227
-454
11
-101
41
30
51
-741
-407
24
-3
-8
-25
2
17
-52
-1
-12
44
-28
8
-308
2
6
82
-73
-890
60
32
51
56
-13
31
1
-55
-22
-95
60
-62
0
-988
-91
98
-72
91
-19
-40
8
422
-39
88
11
88
279
30
51
994
-28
-24
-613
90
-62
-172
711
-4
464
-12
-122
-287
-76
-13
91
42
62
82
-70
-795
32
-38
61
-95
-85
-32
36
537
12
40
22
47
594
-96
-91
-2
52
177
-1000
243
-15
69
-27
24
72
6
44
-642
13
-45
45
84
55
413
-33
-15
437
154
165
-419
-963
6
-554
42
-452
17
-121
-326
197
139
-18
90
-39
-50
-34
-73
-13
200
352
87
860
-1000
697
84
18
68
65
715
-57
1
-60
13
713
-154
-342
-39
18
-1000
243
18
-7
90
107
4
-340
27
-64
-227
39
58
13
26
13
61
-44
62
-46
-4
656
-403
73
19
-1000
-87
117
-591
-573
-4
28
304
88
-95
72
86
-884
-449
108
30
-57
-52
-87
-11
19
-880
-76
275
-580
-28
31
0
-67
-42
23
84
-20
-8
-440
507
-28
92
-327
-541
-8
419
603
-97
-674
32
51
899
175
31
1
-97
-234
-415
60
-576
-1000
-79
9
97
-324
91
-19
-246
8
87
-36
-454
11
-101
41
30
51
-741
-407
24
-3
-8
-25
2
17
-52
-1
-12
44
-28
8
-308
2
6
82
-73
-890
60
32
51
56
-13
31
1
-55
-22
-95
60
-62
0
-988
-91
98
-72
91
-19
-40
8
422
-39
88
11
88
279
30
51
994
-28
-24
-613
90
-62
-172
711
-4
464
-12
-122
-287
-76
-13
91
42
62
82
-70
-795
32
-38
61
-95
-85
-32
36
537
12
40
22
47
594
-96
-91
-2
52
177
-1000
243
-15
69
-27
24
72
6
44
-642
13
-45
45
84
55
413
-33
-15
437
154
165
-419
-963
6
-554
42
-452
17
-121
-326
197
139
-18
90
-39
-50
-34
-73
-13
200
352
87
860
-1000
697
84
18
68
65
715
-57
1
-60
13
713
-154
-342
-39
18
-1000
243
18
-7
90
107
4
-340
27
-64
-227
39
58
13
26
13
61
-44
62
-46
-4
656
-403
73
19
-1000
-87
117
-591
-573
-4
28
304
88
-95
72
86
-884
-449
108
30
-57
-52
-87
-11
19
-880
-76
275
-580
-28
31
0
-67
-42
23
84
-20
-8
-440
507
-28
92
-327
-541
-8
419
603
-97
-674
32
51
899
175
31
1
-97
-234
-415
60
-576
-1000
-79
9
97
-324
91
-19
-246
8
87
-36
-454
11
-101
41
30
51
-741
-407
24
-3
-8
-25
2
17
-52
-1
-12
44
-28
8
-308
2
6
82
-73
-890
60
32
51
56
-13
31
1
-55
-22
-95
60
-62
0
-988
-91
98
-72
91
-19
-40
8
422
-39
88
11
88
279
30
51
994
-28
-24
-613
90
-62
-172
711
-4
464
-12
-122
-287
-76
-13
91
42
62
82
-70
-795
32
-38
61
-95
-85
-32
36
537
12
40
22
47
594
-96
-91
-2
52
177
-1000
243
-15
69
-27
24
72
6
44
-642
13
-45
45
84
55
413
-33
-15
437
154
165
-419
-963
6
-554
42
-452
17
-121
-326
197
139
-18
90
-39
-50
-34
-73
-13
200
352
87
860
-1000
697
84
18
68
65
715
-57
1
-60
13
713
-154
-342
-39
18
-1000
243
18
-7
90
107
4
-340
27
-64
-227
39
58
13
26
13
61
-44
62
-46
-4
656
-403
73
19
-1000
-87
117
-591
-573
-4
28
304
88
-95
72
86
-884
-449
108
30
-57
-52
-87
-11
19
-880
-76
275
-580
-28
31
0
-67
-42
23
84
-20
-8
-440
507
-28
92
-327
-541
-8
419
603
-97
-674
32
51
899
175
31
1
-97
-234
-415
60
-576
-1000
-79
9
97
-324
91
-19
-246
8
87
-36
-454
11
-101
41
30
51
-741
-407
24
-3
-8
-25
2
17
-52
-1
-11
44
-28
8
-308
2
6
82
-73
-890
60
32
51
56
-13
31
1
-55
-22
-95
60
-62
0
-988
-91
98
-72
91
-19
-40
8
422
-39
88
11
88
279
30
51
994
-28
-24
-613
90
-62
-172
711
-4
464
-12
-122
-287
-76
-13
91
42
62
82
-70
-795
32
-38
61
-95
-85
-32
36
537
12
40
22
47
594
-96
-91
-2
52
177
-1000
243
-15
69
-27
24
72
6
44
-1000
13
-45
45
84
55
413
-33
-15
437
154
165
-419
-963
6
-554
42
-452
17
-121
-326
197
139
-18
90
-39
-50
-34
-73
-13
200
352
87
860
-1000
697
84
18
68
65
715
-57
1
-60
13
713
-154
-342
-39
18
-1000
243
18
-7
90
107
4
-340
27
-64
-227
39
58
13
26
13
61
-44
62
-46
-4
656
-403
73
19
-1000
-87
117
-591
-573
-4
28
304
88
-95
72
86
-884
-449
108
30
-57
-52
-87
-11
19
-880
-76
275
-580
-28
31
0
-67
-42
23
84
-20
-8
-440
507
-28
92
-327
-541
-8
419
603
-97
-674
32
51
899
175
31
1
-97
-234
-415
60
-576
-1000
-79
9
97
-324
91
-19
-246
8
87
-227
-454
11
-101
41
30
51
-741
-407
24
-3
-8
-25
2
17
-52
-1
-11
44
-28
8
-308
2
6
82
-73
-890
60
32
51
56
-13
31
1
-55
-22
-95
60
-62
0
-988
-91
98
-72
91
-19
-40
8
422
-39
88
11
88
279
30
51
994
-28
-24
-613
90
-62
-172
711
-4
464
-12
-122
-287
-76
-13
91
42
62
82
-70
-795
32
-38
61
-95
-85
-32
36
537
12
40
22
47
594
-96
-91
-2
52
177
-1000
243
-15
69
-27
24
72
6
44
-1000
13
-45
45
84
55
413
-33
-15
437
154
165
-419
-963
6
-554
42
-452
17
-121
-326
197
139
-18
90
-39
-50
-34
-73
-13
200
352
87
860
-1000
697
84
18
68
65
715
-57
1
-60
13
713
-154
-342
-39
18
-1000
243
18
-7
90
107
4
-340
27
-64
-227
39
58
13
26
13
61
-44
62
-46
-4
656
-403
73
19
-1000
-87
117
-591
-573
-4
28
304
88
-95
72
86
-884
-449
108
30
-57
-52
-87
-11
19
-880
-76
275
-580
-28
31
0
-67
-42
23
84
-20
-8
-440
507
-28
92
-327
-541
-8
419
603
-97
-674
32
51
899
175
31
1
-97
-234
-415
60
-576
-1000
-79
9
97
-324
91
-19
-246
8
87
-227
-454
11
-101
41
30
51
-741
-407
24
-3
-8
-25
2
17
-52
-1
-10
44
-28
8
-308
2
6
82
-73
-890
60
32
51
56
-13
31
1
-55
-22
-95
60
-62
0
-988
-91
98
-72
91
-19
-40
8
422
-39
88
11
88
279
30
51
994
-28
-24
-613
90
-62
-172
711
-4
464
-12
-122
-287
-76
-13
91
42
62
82
-70
-795
32
-38
61
-95
-85
-32
36
537
12
40
22
47
594
-96
-91
-2
52
177
-1000
243
-15
69
-27
24
72
6
44
-642
13
-45
45
84
55
413
-33
-15
437
154
165
-419
-963
6
-554
42
-452
17
-121
-326
197
139
-18
90
-39
-50
-34
-73
-13
200
352
87
860
-1000
697
84
18
68
65
715
-57
1
-60
13
713
-154
-342
-39
18
-1000
243
18
-7
90
107
4
-340
27
-64
-227
39
58
13
26
13
61
-44
62
-46
-4
656
-403
73
19
-1000
-87
117
-591
-573
-4
28
304
88
-95
72
86
-884
-449
108
30
-57
-52
-87
-11
19
-880
-76
275
-580
-28
31
0
-67
-42
23
84
-20
-8
-440
507
-28
92
-327
-541
-8
419
603
-97
-674
32
51
899
175
31
1
-97
-234
-415
60
-576
-1000
-79
9
97
-324
91
-19
-246
8
87
-36
-454
11
-101
41
30
51
-741
-407
24
-3
-8
-25
2
17
-52
-1
-11
44
-28
8
-308
2
6
82
-73
-890
60
32
51
56
-13
31
1
-55
-22
-95
60
-62
0
-988
-91
98
-72
91
-19
-40
8
422
-39
88
11
88
279
30
51
994
-28
-24
-613
90
-62
-172
711
-4
464
-12
-122
-287
-76
-13
91
42
62
82
-70
-795
32
-38
61
-95
-85
-32
36
537
12
40
22
47
594
-96
-91
-2
52
177
-1000
243
-15
69
-27
24
72
6
44
-1000
13
-45
45
84
55
413
-33
-15
437
154
165
-419
-963
6
-554
42
-452
17
-121
-326
197
139
-18
90
-39
-50
-34
-73
-13
200
352
87
860
-1000
697
84
18
68
65
715
-57
1
-60
13
713
-154
-342
-39
18
-1000
243
18
-7
90
107
4
-340
27
-64
-227
39
58
13
26
13
61
-44
62
-46
-4
656
-403
73
19
-1000
-87
117
-591
-573
-4
28
304
88
-95
72
86
-884
-449
108
30
-57
-52
-87
-11
19
-880
-76
275
-580
-28
31
0
-67
-42
23
84
-20
-8
-440
507
-28
92
-327
-541
-8
419
603
-97
-674
32
51
899
175
31
1
-97
-234
-415
60
-576
-1000
-79
9
97
-324
91
-19
-246
8
87
-227
-454
11
-101
41
30
51
-741
-407
24
-3
-8
-25
2
17
-52
-1
-12
44
-28
8
-308
2
6
82
-73
-890
60
32
51
56
-13
31
1
-55
-22
-95
60
-62
0
-988
-91
98
-72
91
-19
-40
8
422
-39
88
11
88
279
30
51
994
-28
-24
-613
90
-62
-172
711
-4
464
-12
-122
-287
-76
-13
91
42
62
82
-70
-795
32
-38
61
-95
-85
-32
36
537
12
40
22
47
594
-96
-91
-2
52
177
-1000
243
-15
69
-27
24
72
6
44
-642
13
-45
45
84
55
413
-33
-15
437
154
165
-419
-963
6
-554
42
-452
17
-121
-326
197
139
-18
90
-39
-50
-34
-73
-13
200
352
87
860
-1000
697
84
18
68
65
715
-57
1
-60
13
713
-154
-342
-39
18
-1000
243
18
-7
90
107
4
-340
27
-64
-227
39
58
13
26
13
61
-44
62
-46
-4
656
-403
73
19
-1000
-87
117
-591
-573
-4
28
304
88
-95
72
86
-884
-449
108
30
-57
-52
-87
-11
19
-880
-76
275
-580
-28
31
0
-67
-42
23
84
-20
-8
-440
507
-28
92
-327
-541
-8
419
603
-97
-674
32
51
899
175
31
1
-97
-234
-415
60
-576
-1000
-79
9
97
-324
91
-19
-246
8
87
-36
-454
11
-101
41
30
51
-741
-407
24
-3
-8
-25
2
17
-52
-1
-11
44
-28
8
-308
2
6
82
-73
-890
60
32
51
56
-13
31
1
-55
-22
-95
60
-62
0
-988
-91
98
-72
91
-19
-40
8
422
-39
88
11
88
279
30
51
994
-28
-24
-613
90
-62
-172
711
-4
464
-12
-122
-287
-76
-13
91
42
62
82
-70
-795
32
-38
61
-95
-85
-32
36
537
12
40
22
47
594
-96
-91
-2
52
177
-1000
243
-15
69
-27
24
72
6
44
-1000
13
-45
45
84
55
413
-33
-15
437
154
165
-419
-963
6
-554
42
-452
17
-121
-326
197
139
-18
90
-39
-50
-34
-73
-13
200
352
87
860
-1000
697
84
18
68
65
715
-57
1
-60
13
713
-154
-342
-39
18
-1000
243
18
-7
90
107
4
-340
27
-64
-227
39
58
13
26
13
61
-44
62
-46
-4
656
-403
73
19
-1000
-87
117
-591
-573
-4
28
304
88
-95
72
86
-884
-449
108
30
-57
-52
-87
-11
19
-880
-76
275
-580
-28
31
0
-67
-42
23
84
-20
-8
-440
507
-28
92
-327
-541
-8
419
603
-97
-674
32
51
899
175
31
1
-97
-234
-415
60
-576
-1000
-79
9
97
-324
91
-19
-246
8
87
-227
-454
11
-101
41
30
51
-741
-407
24
-3
-8
-25
2
17
-52
-1
-11
44
-28
8
-308
2
6
82
-73
-890
60
32
51
56
-13
31
1
-55
-22
-95
60
-62
0
-988
-91
98
-72
91
-19
-40
8
422
-39
88
11
88
279
30
51
994
-28
-24
-613
90
-62
-172
711
-4
464
-12
-122
-287
-76
-13
91
42
62
82
-70
-795
32
-38
61
-95
-85
-32
36
537
12
40
22
47
594
-96
-91
-2
52
177
-1000
243
-15
69
-27
24
72
6
44
-1000
13
-45
45
84
55
413
-33
-15
437
154
165
-419
-963
6
-554
42
-452
17
-121
-326
197
139
-18
90
-39
-50
-34
-73
-13
200
352
87
860
-1000
697
84
18
68
65
715
-57
1
-60
13
713
-154
-342
-39
18
-1000
243
18
-7
90
107
4
-340
27
-64
-227
39
58
13
26
13
61
-44
62
-46
-4
656
-403
73
19
-1000
-87
117
-591
-573
-4
28
304
88
-95
72
86
-884
-449
108
30
-57
-52
-87
-11
19
-880
-76
275
-580
-28
31
0
-67
-42
23
84
-20
-8
-440
507
-28
92
-327
-541
-8
419
603
-97
-674
32
51
899
175
31
1
-97
-234
-415
60
-576
-1000
-79
9
97
-324
91
-19
-246
8
87
-227
-454
11
-101
41
30
51
-741
-407
24
-3
-8
-25
2
17
-52
-1
-11
44
-28
8
-308
2
6
82
-73
-890
60
32
51
56
-13
31
1
-55
-22
-95
60
-62
0
-988
-91
98
-72
91
-19
-40
8
422
-39
88
11
88
279
30
51
994
-28
-24
-613
90
-62
-172
711
-4
464
-12
-122
-287
-76
-13
91
42
62
82
-70
-795
32
-38
61
-95
-85
-32
36
537
12
40
22
47
594
-96
-91
-2
52
177
-1000
243
-15
69
-27
24
72
6
44
-1000
13
-45
45
84
55
413
-33
-15
437
154
165
-419
-963
6
-554
42
-452
17
-121
-326
197
139
-18
90
-39
-50
-34
-73
-13
200
352
87
860
-1000
697
84
18
68
65
715
-57
1
-60
13
713
-154
-342
-39
18
-1000
243
18
-7
90
107
4
-340
27
-64
-227
39
58
13
26
13
61
-44
62
-46
-4
656
-403
73
19
-1000
-87
117
-591
-573
-4
28
304
88
-95
72
86
-884
-449
108
30
-57
-52
-87
-11
19
-880
-76
275
-580
-28
31
0
-67
-42
23
84
-20
-8
-440
507
-28
92
-327
-541
-8
419
603
-97
-674
32
51
899
175
31
1
-97
-234
-415
60
-576
-1000
-79
9
97
-324
91
-19
-246
8
87
-227
-454
11
-101
41
30
51
-741
-407
24
-3
-8
-25
2
17
-52
-1
-11
44
-28
8
-308
2
6
82
-73
-890
60
32
51
56
-13
31
1
-55
-22
-95
60
-62
0
-988
-91
98
-72
91
-19
-40
8
422
-39
88
11
88
279
30
51
994
-28
-24
-613
90
-62
-172
711
-4
464
-12
-122
-287
-76
-13
91
42
62
82
-70
-795
32
-38
61
-95
-85
-32
36
1000
12
40
-424
47
594
-96
-91
-2
52
177
-1000
243
282
69
-27
24
72
6
44
-1000
13
-45
45
84
55
413
-33
-15
437
154
165
-419
-963
6
-554
42
-452
17
-121
-326
197
139
-18
90
-39
-50
-34
-73
-13
200
352
87
860
-1000
697
84
18
68
65
715
-57
1
-60
13
713
-154
-342
-39
18
-1000
243
18
-7
90
107
4
-340
27
-64
-227
39
58
13
26
13
61
-44
62
-46
-4
656
-403
73
19
-1000
-87
117
-591
-573
-4
28
304
88
-95
72
86
-884
-449
108
30
-57
-52
-87
-11
19
-880
-76
275
-580
-28
31
0
-67
-42
23
84
-20
-8
-224
507
-28
92
-327
-541
-8
419
603
-97
-674
32
51
899
175
31
1
-97
-234
-415
60
-576
-1000
-79
9
97
-324
91
-19
-246
8
87
-227
-454
11
-101
41
30
51
-741
94
24
-3
-8
-25
2
17
-52
-1
-11
44
-28
8
-308
2
6
82
-73
-890
60
32
51
56
-13
31
1
-55
-22
-95
60
-62
0
-988
-91
98
-72
91
-19
-40
8
422
-39
88
11
88
279
30
51
994
-28
-24
-613
90
-62
-172
711
-4
464
-12
-122
-287
-76
-13
91
42
62
82
-70
-795
32
-38
61
-95
-85
-32
36
537
12
40
22
47
594
-96
-91
-2
52
177
-1000
243
-15
69
-27
24
72
6
44
-1000
13
-45
45
84
55
413
-33
-15
437
154
165
-419
-963
6
-554
42
-452
17
-121
-326
197
139
-18
90
-39
-50
-34
-73
-13
200
352
87
860
-1000
697
84
18
68
65
715
-57
1
-60
13
713
-154
-342
-39
18
-1000
243
18
-7
90
107
4
-340
27
-64
-227
39
58
13
26
13
61
-44
62
-46
-4
656
-403
73
19
-1000
-87
117
-591
-573
-4
28
304
88
-95
72
86
-884
-449
108
30
-57
-52
-87
-11
19
-880
-76
275
-580
-28
31
0
-67
-42
23
84
-20
-8
-440
507
-28
92
-327
-541
-8
419
603
-97
-674
32
51
899
175
31
1
-97
-234
-415
60
-576
-1000
