10
-1
-4
-9
1
10
-8
-2
-9
7
-12
6
-107
-4
4
-449
1434
59
-396
-190
68
0
765
627
888
581
-1
127
181
390
-1036
1073
-411
499
17
-489
48
-755
183
127
215
-991
794
23
-356
-32
-1150
848
-282
55
65
-17
-246
-9
-62
-483
-738
-1003
-284
968
456
1195
-239
-793
-579
-124
410
868
867
955
1145
68
525
-187
-112
7
-383
-631
924
-59
-68
-406
-1212
-1153
1155
208
469
-733
-1144
-392
672
961
-82
241
-61
-61
29
-51
-622
765
677
534
-347
1139
-207
-32
-605
13
546
-44
316
1108
368
6
-468
-1214
787
-266
588
46
1389
-1140
-268
-1030
544
454
21
83
-359
-10
210
-114
817
-113
205
-465
-29
545
-210
-270
-656
258
25
54
1186
-398
-359
167
-62
1156
180
162
476
76
505
508
31
484
-799
-240
48
45
125
45
-235
35
409
-280
-377
273
-77
692
-324
-9
60
-1158
301
-251
-978
-688
642
-177
-362
40
116
144
611
147
58
1099
-951
645
-647
181
-1008
-11
484
-110
32
381
38
60
602
-312
859
-326
359
66
722
568
-343
93
-56
743
596
-133
-1260
43
-111
-505
30
205
1064
-916
-557
698
-799
693
-1080
-285
736
317
-1313
-335
1277
-325
101
-266
-282
313
-1162
-29
285
60
161
10
-1
-4
-9
1
10
-8
-2
-9
7
-12
6
-107
-4
4
-449
1434
59
-396
-190
68
0
765
627
888
581
-1
127
181
390
-1036
1073
-411
499
17
-489
48
-755
183
127
215
-991
794
23
-356
-32
-1150
848
-282
55
65
-17
-246
-9
-62
-483
-738
-1003
-284
968
456
1195
-239
-793
-579
-124
410
868
867
955
1145
68
525
-187
-112
7
-383
-631
924
-59
-68
-406
-1212
-1153
1155
208
469
-733
-1144
-392
672
961
-82
241
-61
-61
29
-51
-622
765
677
534
-347
1139
-207
-32
-605
13
546
-44
316
1108
368
6
-468
-1214
787
-266
588
46
1389
-1140
-268
-1030
544
454
21
83
-359
-10
210
-114
817
-113
205
-465
-29
545
-210
-270
-656
258
25
54
1186
-398
-359
167
-62
1156
180
162
476
76
505
508
31
484
-799
-240
48
45
125
45
-235
35
409
-280
-377
273
-77
692
-324
-9
60
-1158
301
-251
-978
-688
642
-177
-362
40
116
144
611
147
58
1099
-951
645
-647
181
-1008
-11
484
-110
32
381
38
60
602
-312
859
-326
359
66
722
568
-343
93
-56
743
596
-133
-1260
43
-111
-505
30
205
1064
-916
-557
698
-799
693
-1080
-285
736
317
-1313
-335
1277
-325
101
-266
-282
313
-1162
-29
285
60
161
10
-1
-4
-9
1
10
-8
-2
-9
7
-12
6
-107
-4
4
-449
1434
59
-396
-190
68
0
765
627
888
581
-1
127
181
390
-1036
1073
-411
499
17
-489
48
-755
183
127
215
-991
794
23
-356
-32
-1150
848
-282
55
65
-17
-246
-9
-62
-483
-738
-1003
-284
968
456
1195
-239
-793
-579
-124
410
868
867
955
1145
68
525
-187
-112
7
-383
-631
924
-59
-68
-406
-1212
-1153
1155
208
469
-733
-1144
-392
672
961
-82
241
-61
-61
29
-51
-622
765
677
534
-347
1139
-207
-32
-605
13
546
-44
316
1108
368
6
-468
-1214
787
-266
588
46
1389
-1140
-268
-1030
544
454
21
83
-359
-10
210
-114
817
-113
205
-465
-29
545
-210
-270
-656
258
25
54
1186
-398
-359
167
-62
1156
180
162
476
76
505
508
31
484
-799
-240
48
45
125
45
-235
35
409
-280
-377
273
-77
692
-324
-9
60
-1158
301
-251
-978
-688
642
-177
-362
40
116
144
611
147
58
1099
-951
645
-647
181
-1008
-11
484
-110
32
381
38
60
602
-312
859
-326
359
66
722
568
-343
93
-56
743
596
-133
-1260
43
-111
-505
30
205
1064
-916
-557
698
-799
693
-1080
-285
736
317
-1313
-335
1277
-325
101
-266
-282
313
-1162
-29
285
60
161
10
-1
-4
-9
1
10
-8
-2
-9
7
-12
6
-107
-4
4
-449
1434
59
-396
-190
68
0
765
627
888
581
-1
127
181
390
-1036
1073
-411
499
17
-489
48
-755
183
127
215
-991
794
23
-356
-32
-1150
848
-282
55
65
-17
-246
-9
-62
-483
-738
-1003
-284
968
456
1195
-239
-793
-579
-124
410
868
867
955
1145
68
525
-187
-112
7
-383
-631
924
-59
-68
-406
-1212
-1153
1155
208
469
-733
-1144
-392
734
915
-490
170
155
-61
29
-51
-622
765
677
534
-347
1139
-207
-32
-605
13
546
-44
316
1108
368
6
-468
-1214
787
-266
588
46
1389
-1140
-268
-1030
544
454
21
83
-359
-10
210
-114
817
-113
205
-465
-29
545
-210
-270
-656
258
25
54
1186
-782
-316
134
-60
1260
180
162
476
76
505
508
31
484
-799
-240
48
45
125
45
-235
35
409
-280
-377
273
-77
692
-324
-9
60
-1158
301
-251
-978
-688
642
-177
-362
40
116
144
611
147
58
1099
-951
645
-647
181
-1008
-11
484
-110
32
381
38
60
602
-312
859
-326
359
66
722
568
-343
93
-56
743
596
-133
-1260
43
-111
-505
30
205
1064
-916
-557
698
-799
693
-1080
-285
736
317
-1313
-335
1277
-325
101
-266
-282
313
-1162
-29
285
60
161
10
-1
-4
-9
1
10
-8
-2
-9
7
-12
6
-107
-4
4
-449
1434
59
-396
-190
68
0
765
627
888
581
-1
127
181
390
-1036
1073
-411
499
17
-489
48
-755
183
127
215
-991
794
23
-356
-32
-1150
848
-282
55
65
-17
-246
-9
-62
-483
-738
-1003
-284
968
456
1195
-239
-793
-579
-124
410
868
867
955
1145
68
525
-187
-112
7
-383
-631
924
-59
-68
-406
-1212
-1153
1155
208
469
-733
-1144
-392
672
961
-82
241
-61
-61
29
-51
-622
765
677
534
-347
1139
-207
-32
-605
13
546
-44
316
1108
368
6
-468
-1214
787
-266
588
46
1389
-1140
-268
-1030
544
454
21
83
-359
-10
210
-114
817
-113
205
-465
-29
545
-210
-270
-656
258
25
54
1186
-398
-359
167
-62
1156
180
162
476
76
505
508
31
484
-799
-240
48
45
125
45
-235
35
409
-280
-377
273
-77
692
-324
-9
60
-1158
301
-251
-978
-688
642
-177
-362
40
116
144
611
147
58
1099
-951
645
-647
181
-1008
-11
484
-110
32
381
38
60
602
-312
859
-326
359
66
722
568
-343
93
-56
743
596
-133
-1260
43
-111
-505
30
205
1064
-916
-557
698
-799
693
-1080
-285
736
317
-1313
-335
1277
-325
101
-266
-282
313
-1162
-29
285
60
161
10
-1
-4
-9
1
10
-8
-2
-9
7
-12
6
-107
-4
4
-449
1434
59
-396
-190
68
0
765
627
888
581
-1
127
181
390
-1036
1073
-411
499
17
-489
48
-755
183
127
215
-991
794
23
-356
-32
-1150
848
-282
55
65
-17
-246
-9
-62
-483
-738
-1003
-284
968
456
1195
-239
-793
-579
-124
410
868
867
955
1145
68
525
-187
-112
7
-383
-631
924
-59
-68
-406
-1212
-1153
1155
208
469
-733
-1144
-392
672
961
-82
241
-61
-61
29
-51
-622
765
677
534
-347
1139
-207
-32
-605
13
546
-44
316
1108
368
6
-468
-1214
787
-266
588
46
1389
-1140
-268
-1030
544
454
21
83
-359
-10
210
-114
817
-113
205
-465
-29
545
-210
-270
-656
258
25
54
1186
-398
-359
167
-62
1156
180
162
476
76
505
508
31
484
-799
-240
48
45
125
45
-235
35
409
-280
-377
273
-77
692
-324
-9
60
-1158
301
-251
-978
-688
642
-177
-362
40
116
144
611
147
58
1099
-951
645
-647
181
-1008
-11
484
-110
32
381
38
60
602
-312
859
-326
359
66
722
568
-343
93
-56
743
596
-133
-1260
43
-111
-505
30
205
1064
-916
-557
698
-799
693
-1080
-285
736
317
-1313
-335
1277
-325
101
-266
-282
313
-1162
-29
285
60
161
10
-1
-4
-9
1
10
-8
-2
-9
7
-12
6
-107
-4
4
-449
1434
59
-396
-190
68
0
765
627
888
581
-1
127
181
390
-1036
1073
-411
499
17
-489
48
-755
183
127
215
-991
794
23
-356
-32
-1150
848
-282
55
65
-17
-246
-9
-62
-483
-738
-1003
-284
968
456
1195
-239
-793
-579
-124
410
868
867
955
1145
68
525
-187
-112
7
-383
-631
924
-59
-68
-406
-1212
-1153
1155
208
469
-733
-1144
-392
672
961
-82
241
-61
-61
29
-51
-622
765
677
534
-347
1139
-207
-32
-605
13
546
-44
316
1108
368
6
-468
-1214
787
-266
588
46
1389
-1140
-268
-1030
544
454
21
83
-359
-10
210
-114
817
-113
205
-465
-29
545
-210
-270
-656
258
25
54
1186
-398
-359
167
-62
1156
180
162
476
76
505
508
31
484
-799
-240
48
45
125
45
-235
35
409
-280
-377
273
-77
692
-324
-9
60
-1158
301
-251
-978
-688
642
-177
-362
40
116
144
611
147
58
1099
-951
645
-647
181
-1008
-11
484
-110
32
381
38
60
602
-312
859
-326
359
66
722
568
-343
93
-56
743
596
-133
-1260
43
-111
-505
30
205
1064
-916
-557
698
-799
693
-1080
-285
736
317
-1313
-335
1277
-325
101
-266
-282
313
-1162
-29
285
60
161
10
-1
-4
-9
1
10
-8
-2
-9
7
-12
6
-107
-4
4
-449
1434
59
-396
-190
68
0
765
627
888
581
-1
127
181
390
-1036
1073
-411
499
17
-489
48
-755
183
127
215
-991
794
23
-356
-32
-1150
848
-282
55
65
-17
-246
-9
-62
-483
-738
-1003
-284
968
456
1195
-239
-793
-579
-124
410
868
867
955
1145
68
525
-187
-112
7
-383
-631
924
-59
-68
-406
-1212
-1153
1155
208
469
-733
-1144
-392
672
961
-82
241
-61
-61
29
-51
-622
765
677
534
-347
1139
-207
-32
-605
13
546
-44
316
1108
368
6
-468
-1214
787
-266
588
46
1389
-1140
-268
-1030
544
454
21
83
-359
-10
210
-114
817
-113
205
-465
-29
545
-210
-270
-656
258
25
54
1186
-398
-359
167
-62
1156
180
162
476
76
505
508
31
484
-799
-240
48
45
125
45
-235
35
409
-280
-377
273
-77
692
-324
-9
60
-1158
301
-251
-978
-688
642
-177
-362
40
116
144
611
147
58
1099
-951
645
-647
181
-1008
-11
484
-110
32
381
38
60
602
-312
859
-326
359
66
722
568
-343
93
-56
743
596
-133
-1260
43
-111
-505
30
205
1064
-916
-557
698
-799
693
-1080
-285
736
317
-1313
-335
1277
-325
101
-266
-282
313
-1162
-29
285
60
161
10
-1
-4
-9
1
10
-8
-2
-9
7
-12
6
-107
-4
4
-449
1434
59
-396
-190
68
0
765
627
888
581
-1
127
181
390
-1036
1073
-411
499
17
-489
48
-755
183
127
215
-991
794
23
-356
-32
-1150
848
-282
55
65
-17
-246
-9
-62
-483
-738
-1003
-284
968
456
1195
-239
-793
-579
-124
410
868
867
955
1145
68
525
-187
-112
7
-383
-631
924
-59
-68
-406
-1212
-1153
1155
208
469
-733
-1144
-392
734
915
-490
170
155
-61
29
-51
-622
765
677
534
-347
1139
-207
-32
-605
13
546
-44
316
1108
368
6
-468
-1214
787
-266
588
46
1389
-1140
-268
-1030
544
454
21
83
-359
-10
210
-114
817
-113
205
-465
-29
545
-210
-270
-656
258
25
54
1186
-782
-316
134
-60
1260
180
162
476
76
505
508
31
484
-799
-240
48
45
125
45
-235
35
409
-280
-377
273
-77
692
-324
-9
60
-1158
301
-251
-978
-688
642
-177
-362
40
116
144
611
147
58
1099
-951
645
-647
181
-1008
-11
484
-110
32
381
38
60
602
-312
859
-326
359
66
722
568
-343
93
-56
743
596
-133
-1260
43
-111
-505
30
205
1064
-916
-557
698
-799
693
-1080
-285
736
317
-1313
-335
1277
-325
101
-266
-282
313
-1162
-29
285
60
161
10
-1
-4
-9
1
10
-8
-2
-9
7
-12
6
-107
-4
4
-449
1434
59
-396
-190
68
0
765
627
888
581
-1
127
181
390
-1036
1073
-411
499
17
-489
48
-755
183
127
215
-991
794
23
-356
-32
-1150
848
-282
55
64
-17
-244
-9
-61
-478
-731
-993
-281
958
451
1183
-237
-785
-573
-124
410
868
867
955
1134
67
520
-185
-111
7
-383
-631
924
-59
-68
-406
-1212
-1153
1155
208
469
-733
-1144
-392
672
961
-82
241
-61
-61
29
-51
-622
765
677
534
-347
1139
-207
-32
-605
13
546
-44
316
1108
368
6
-468
-1202
779
-263
582
46
1389
-1140
-268
-1030
544
454
21
83
-359
-10
210
-114
817
-113
205
-452
-47
539
-237
-197
-656
258
25
54
1186
-398
-359
167
-62
1156
180
162
476
76
505
508
31
484
-799
-240
48
45
125
45
-235
35
409
-280
-377
273
-77
692
-324
-9
60
-1146
298
-248
-968
-681
636
-175
-358
40
115
143
605
146
57
1088
-951
645
-647
181
-1008
-11
479
-109
32
377
64
63
-319
-320
859
-326
359
66
722
568
-340
92
-55
736
590
-133
-1260
43
-111
-505
30
205
1064
-916
-557
698
-799
693
-1080
-285
736
317
-1313
-335
1277
-325
101
-266
-282
313
-1150
-29
282
59
159
10
-1
-4
-9
1
10
-8
-2
-9
7
-12
6
-103
-4
4
-437
1392
56
-384
-184
50
-1
729
600
839
1132
-1
126
180
387
-996
1030
-395
479
17
-474
48
-733
177
124
207
-951
762
23
-342
-32
-1094
808
-267
50
62
-17
-240
-9
-59
-478
-731
-993
-281
958
461
1206
68
-800
-585
-118
386
818
817
900
1081
62
496
-175
-106
7
-379
-625
915
-58
-65
-394
-1176
-1119
1121
198
445
-698
-1089
-372
644
923
-78
233
-57
-62
29
-52
-628
773
637
504
-329
1073
-195
-32
-606
13
476
-44
802
1097
589
6
-492
-1178
763
-257
570
46
1347
-1107
-259
-1000
529
442
21
81
-350
-10
577
-104
476
-503
82
-441
-29
520
-200
-255
-637
249
25
51
1150
-378
-341
157
-57
1100
759
158
466
74
495
488
31
464
-767
-232
48
45
117
45
-220
35
401
-274
-369
267
-76
682
-320
-9
59
-1124
292
-244
-948
-667
624
-171
-350
-1428
113
142
599
145
56
1077
-923
627
-629
175
-978
-11
484
-110
32
381
38
56
578
-300
826
-332
365
68
735
578
-336
91
-54
726
581
-128
-1199
43
-106
-480
30
203
1053
-907
-551
667
-763
662
-1032
-272
722
311
-1287
-329
1251
-310
96
-251
-267
298
-1119
-29
274
56
154
10
-1
-4
-9
1
10
-8
-2
-9
7
-12
6
-106
-4
4
-441
1406
57
-388
-186
66
0
-690
615
965
-123
788
387
-100
550
-1485
1062
-407
494
17
-489
48
-755
183
127
215
-991
794
23
-356
-32
-1138
840
-279
54
63
-17
-243
-9
-60
-483
-738
-1500
-284
968
456
1195
-239
-793
-579
-152
434
859
858
1383
1470
64
505
-582
-568
7
-379
-625
915
-58
-67
-402
-1200
-1141
1143
208
469
-733
-1144
-804
672
1500
-82
241
288
-59
29
-49
-610
749
746
552
-343
1122
-206
-32
-599
13
541
-44
310
1086
360
6
-458
852
811
-275
605
46
1347
-1107
-259
-1000
529
445
21
81
-351
-10
208
-113
811
-112
203
-455
-29
535
-206
-773
-649
255
25
53
1174
-947
-351
163
-60
1133
788
160
471
265
500
508
31
484
-799
-240
48
45
125
45
-235
-1098
437
409
-742
94
-286
692
-324
-9
60
-1178
-142
-255
-331
-386
630
-173
-354
40
114
140
585
143
54
1051
-951
645
-647
181
-1008
-11
484
-110
32
381
38
59
596
-309
851
-317
347
63
701
550
-335
90
-53
724
580
815
-1273
43
-112
-510
30
203
1053
-907
-551
1024
-1426
700
676
-1359
729
314
-1300
-332
1500
-322
100
-263
-1136
310
-1162
-29
285
60
161
10
-1
-4
-9
1
10
-8
-2
-9
7
-12
6
-104
-4
4
-433
1378
55
-380
-182
1218
0
749
615
870
581
-1
127
181
390
-1026
1062
-407
494
17
-474
48
-733
177
124
215
-991
794
23
-356
-92
676
278
1019
168
64
713
-244
-9
-61
-463
220
-962
-272
929
438
1147
-231
-762
-556
67
127
842
841
927
1123
66
515
-183
-110
7
-379
-625
915
-58
-67
-402
-1200
-1141
1143
206
464
-726
-1133
-388
665
951
-81
239
-60
-59
29
-49
-613
752
663
524
-341
1117
-203
-32
-593
13
536
-44
313
1097
364
6
-463
-1211
785
-265
588
46
1375
-1129
-265
-1020
634
439
43
-75
-346
-10
208
-113
809
-112
203
-470
-29
550
-212
-273
-660
260
25
55
1193
-390
-351
163
-60
1133
178
1234
471
75
787
1485
31
474
-837
-236
48
45
123
45
-231
1249
370
-213
-359
284
-75
678
-318
-9
58
-1135
295
-246
-958
-674
634
-175
-357
40
115
143
605
146
57
1088
-941
639
-247
179
-998
-11
479
-109
32
377
38
61
607
-314
866
-329
363
67
728
573
-334
90
-53
722
578
-132
-1247
43
-110
-500
30
203
1053
-907
-551
670
-767
665
-1037
-273
736
317
-1313
-335
1277
-319
99
-260
-276
307
-1162
-29
285
60
161
10
-1
-4
-9
1
10
-8
-2
-9
7
-12
6
-103
-4
4
-742
1348
53
-372
-178
68
0
765
627
888
875
-567
-128
457
-247
-1016
1051
-403
489
17
-484
48
-747
181
126
212
-973
780
23
-348
-32
-1156
852
-283
55
64
-17
-244
-9
-61
-473
-724
797
-278
-170
451
1183
-237
-785
-573
-123
406
859
858
945
1123
66
515
-183
-110
7
-379
-625
915
-58
-66
-398
-1362
-1130
1132
-4
456
-715
-1115
-381
658
941
-80
237
-59
-60
29
-50
-616
757
663
524
-341
1117
-203
-32
-599
13
541
-44
310
1086
360
6
-458
-1178
763
-257
570
46
1347
-1107
-259
-1455
529
454
21
83
-359
-10
210
-114
817
873
205
-465
-29
545
-210
-270
-643
252
25
52
1162
-394
-355
165
-61
1144
180
162
476
76
505
493
31
469
-775
-234
48
45
124
45
1303
35
405
-277
-373
270
-77
691
-323
-9
60
-1146
298
-248
-1221
-681
643
-177
-362
40
116
143
605
146
57
1088
-1500
645
-647
181
-1008
-11
484
-110
32
381
38
57
584
-303
834
-325
358
66
720
566
-340
92
-55
735
589
-131
-1235
43
-109
-495
30
200
1039
-895
-544
697
-798
692
-1079
-285
729
314
-1300
-332
1264
-322
100
-263
-279
310
-1500
-144
282
1200
159
10
-1
-4
-9
1
10
-8
-2
-9
7
-12
6
-104
-4
4
-437
1392
56
-384
-184
67
0
757
1158
879
569
-1
125
177
382
-1016
1051
-403
489
17
-479
48
-740
179
125
215
-991
794
23
-356
-32
-1127
832
-276
53
64
-17
-244
-9
-61
-963
-719
-976
-276
941
446
1171
-235
-777
-567
-122
402
850
849
936
1105
64
507
-180
-108
7
-383
-631
924
-59
-67
-402
-1200
-1141
1143
205
461
-722
-1126
-385
664
921
-171
218
-11
-60
29
-50
-616
757
670
529
-344
1128
-205
-32
-594
15
537
-42
307
1075
356
6
-453
-1190
771
-260
576
46
1361
-1118
351
-1010
534
445
21
81
-351
-10
206
-112
801
-111
201
-436
-29
516
-199
-252
-637
249
25
51
1150
-393
-355
165
-61
1144
172
154
456
72
485
493
31
469
-775
-234
48
45
122
45
-229
35
393
-268
-361
261
-75
678
-318
-9
58
-1151
299
-249
-973
-684
636
-175
-358
40
115
143
606
4
57
1090
-938
635
-637
177
-991
-11
478
-109
32
376
38
57
583
-303
833
-323
355
65
715
562
-334
90
-53
722
578
-128
-1193
43
-106
-478
30
211
1096
-943
-574
698
-799
693
-1080
-285
729
314
-1300
-332
1264
-313
97
-254
-270
301
-1151
-29
282
59
159
10
-1
-4
-9
1
10
-8
-2
-9
7
-12
6
-106
-4
4
-449
1434
59
-396
-190
68
0
765
627
888
575
60
126
179
386
-1036
1073
-411
499
17
-484
48
-747
181
126
215
-991
794
23
-356
-32
-1150
848
-282
55
64
-17
-244
-9
-61
-483
-738
-1003
-284
968
451
1182
-237
-784
-573
-123
406
859
858
945
1134
67
520
-185
-111
7
-379
-625
915
-58
-67
-402
-1200
-1141
1143
206
464
-726
-1133
-388
665
951
-81
239
-60
-60
29
-50
-616
757
1177
529
-344
1128
-205
-32
-605
13
546
-44
316
1109
368
6
-468
-1500
779
-263
582
46
1361
-1118
-262
-1010
534
441
21
80
-347
-10
208
-113
809
-112
203
-455
-29
535
-206
-264
-660
260
25
55
1192
-394
-355
165
-61
1144
178
160
471
75
500
497
31
473
-782
-236
-336
45
124
56
-233
35
409
-280
-377
1352
-76
685
-321
-9
59
-1146
298
-248
-968
-681
636
-175
-358
40
115
142
599
145
56
1077
-941
639
-641
179
-998
-11
484
-110
32
381
38
59
596
-309
850
-322
353
65
712
559
-340
92
-55
736
-806
-131
-1247
43
-109
-493
30
203
1053
-907
-551
1386
-783
340
-1058
-279
715
308
-1274
-326
1238
-322
153
-263
1146
310
-1162
-29
285
60
161
10
-1
-4
-9
1
10
-8
-2
-9
7
-12
6
-105
-4
4
-442
1411
57
-389
-187
67
0
757
621
879
569
-1
125
177
382
-1026
1062
-407
494
17
-484
48
-1266
181
126
215
-991
794
23
-356
-32
-1138
840
-279
54
65
-17
-246
-9
-62
-468
-717
-973
-275
939
451
1183
-237
-785
-573
-123
406
859
858
945
1134
67
520
-185
-111
7
-375
-619
906
-57
-68
-406
-1212
-1153
1155
-147
446
-700
-1092
-373
672
961
-82
241
-61
-62
29
-52
-626
771
670
529
-344
1128
-457
-32
-605
13
546
-44
313
1097
364
6
-463
-1221
781
-236
-894
-208
1375
-1129
-265
-1020
539
454
21
83
-359
-10
208
-113
809
-112
203
-455
-29
535
-206
-264
-656
258
25
54
1186
-394
-355
165
-61
1144
180
162
476
76
505
508
31
484
-799
-240
48
45
124
45
-233
35
409
-280
-377
273
-75
678
-318
-9
58
-1146
298
-248
-968
-681
644
-179
-366
40
117
143
605
146
57
1088
-951
645
-647
181
-1008
-11
479
-109
32
377
38
59
596
-309
850
-320
351
64
708
556
-340
92
-55
736
590
-130
-1222
43
-108
-490
30
201
1042
-898
-545
691
-791
686
-1069
-282
729
314
-1300
-332
1264
-325
101
-266
-282
313
-1138
-29
279
58
157
10
-1
-4
-9
1
10
-8
-2
-9
7
-12
6
-105
-4
4
-437
1392
56
-384
-184
67
0
-697
621
975
1308
-836
-152
472
208
-1470
1051
-403
489
17
-479
48
-740
179
125
213
-981
786
23
-352
-32
-1150
848
-282
55
65
-17
-247
-9
-62
-483
-738
-1500
-284
968
451
1183
-237
-785
-573
-152
434
859
858
1383
1485
65
510
-588
-472
7
-379
-625
915
-58
-67
-401
-1196
-1137
1139
208
469
-733
-1144
-804
672
961
-82
241
-61
-58
29
-49
-604
742
746
552
-343
1122
-206
-32
-605
13
546
-44
307
1075
356
6
-453
-20
779
-263
582
46
1375
-1129
-265
-1020
539
445
21
81
-351
-10
208
-113
809
-112
203
-460
-29
540
-208
-781
-649
255
25
53
1174
-947
-351
163
-60
1133
788
160
471
265
500
503
31
479
-791
-238
48
45
125
45
-235
35
437
409
-742
94
-286
692
-324
-9
60
-1146
298
-248
-469
-933
618
-169
-346
40
112
141
591
144
55
1062
-951
645
-647
181
-1008
-11
453
-104
32
356
38
59
596
-309
850
-317
347
63
701
550
-332
89
-52
717
574
-1093
-1247
43
-110
-500
30
205
1064
-916
-557
1024
-1426
700
676
-1359
722
311
-1287
-329
1485
-319
99
-260
-19
307
-1138
-29
279
58
157
10
-1
-4
-9
1
10
-8
-2
-9
7
-12
6
-106
-4
4
-449
1434
59
-396
-190
68
0
765
627
888
563
-1
124
175
378
-1197
1040
-1008
1066
813
-484
48
-747
181
126
213
-981
786
23
-352
-32
-1138
840
-279
54
65
-17
-246
-9
-62
-483
-738
-1003
-284
968
449
1179
-236
-782
-571
-124
410
868
867
955
1134
67
520
-185
-111
7
-383
-631
924
-59
-68
-406
-1212
-1153
1155
209
446
-736
-1093
-374
678
970
-83
243
-62
-60
29
-50
-616
757
670
529
274
1128
-205
-32
-599
13
541
-44
313
1097
364
6
-463
-1199
777
-262
581
46
1375
-1129
-265
-1020
539
454
21
83
-359
-10
205
11
796
-110
200
-460
-29
540
-208
-267
-649
255
25
53
1174
-398
-359
167
-62
1156
178
160
471
75
500
507
31
483
-797
-239
48
45
126
45
-237
35
409
-280
-377
273
-77
692
-324
-9
60
-1158
301
-251
-978
-688
642
-177
-362
607
116
144
611
147
58
1099
-941
639
-641
179
-998
-11
483
-110
32
381
38
58
590
-306
842
-320
351
64
708
556
-340
92
-55
736
590
-132
-1247
43
-110
-500
30
203
1053
-907
-551
674
-772
669
-1043
-275
736
317
-1313
-335
1277
-319
99
-260
-276
307
-1162
-29
285
60
161
10
-1
-4
-9
1
10
-8
-2
-9
7
-12
6
-107
-4
4
-449
1434
59
-396
-190
68
0
290
627
888
575
-1
126
179
386
-1026
1062
-407
-224
-502
-479
48
-740
179
125
213
-981
786
23
-352
-32
-1150
848
-282
55
64
-17
-244
-9
-61
-504
-767
-1044
-296
1007
452
1186
-238
-787
-575
-122
402
1500
849
936
1134
67
520
-185
-111
7
-367
-607
888
-55
-66
-399
-1180
-1130
1132
203
458
-725
-1119
44
658
941
-80
237
-59
1380
29
-50
-616
758
685
540
-351
1152
-209
-32
-587
13
531
-44
313
1097
364
6
-463
-1190
771
-260
576
46
1389
-1140
-268
-1030
578
449
21
82
-355
-10
204
-111
795
-110
199
-450
-29
530
-204
-261
-649
255
25
53
1174
-382
-344
159
-58
1111
176
158
466
74
495
498
31
474
-783
-236
48
45
123
45
-231
35
409
-280
-377
273
-77
691
-324
-9
60
-1103
1102
-254
-941
-655
630
-173
-354
40
114
139
581
142
53
1044
-932
633
-635
177
-988
-11
479
-109
32
377
38
58
590
-306
842
-323
355
65
715
562
-334
-925
311
722
578
-132
-1247
43
-110
-500
30
201
651
-898
-545
685
-784
680
-1059
-279
729
314
-1300
-332
1264
-319
99
-260
-276
307
-662
-29
279
58
157
10
-1
-4
-9
1
10
-8
-2
-9
7
-12
6
-108
-4
4
-449
1434
59
-396
-190
67
0
757
621
879
569
-1
125
177
382
-1036
1500
-411
-1075
17
-479
48
-740
179
125
215
-991
794
-198
-356
-32
-1150
848
-282
55
65
-17
-246
-9
-62
-478
-731
-993
-281
958
458
1200
-240
-796
-581
-124
410
868
867
955
1145
68
525
-187
-112
7
-383
-631
924
-59
-68
-406
-1212
-1435
1155
206
464
-726
-1133
-388
702
939
-278
207
43
-60
29
-50
-251
757
677
534
-347
1139
-207
-32
-599
-639
541
-44
11
1108
368
6
-468
-1500
1485
-260
576
46
1375
-21
-265
-1020
539
449
21
82
-355
-10
210
-114
817
1178
-52
-455
-29
535
-206
-971
-649
255
25
53
1174
-1102
-1200
105
-57
1042
181
163
480
77
509
503
31
479
-791
-238
48
45
124
45
-233
35
407
-278
-375
271
-77
692
-324
-9
60
-1165
303
-253
-984
-692
636
-175
-358
40
115
-234
602
146
57
1083
-149
645
-982
181
-1008
-11
479
-109
32
377
38
59
596
-309
850
-321
353
64
711
559
-343
93
-56
743
596
666
-1249
43
-110
-501
30
203
1053
-907
-551
38
-783
726
-924
-359
729
314
-1300
-332
1264
-537
101
-266
1091
313
-1154
-29
283
59
160
10
-1
-4
-9
1
10
-8
-2
-9
7
-12
6
-106
-4
4
-441
1406
57
-388
-186
68
0
765
627
888
575
-1
126
179
386
-1026
1062
-407
494
545
-474
48
-733
177
124
213
-981
786
23
-352
-32
-1091
807
-266
50
64
-17
-244
-9
-61
-487
-744
-1011
-287
976
-108
-142
-269
621
-1002
-122
402
850
849
936
1318
-333
361
548
-670
7
-379
-625
915
-58
-62
-382
-1141
-1086
1088
196
441
-691
-1078
-368
651
930
103
235
-536
-58
29
-49
-604
742
656
519
-338
1106
-201
-32
-587
13
531
-44
310
1086
360
6
-458
-1214
787
-266
588
46
1347
-226
-244
-1000
529
441
21
80
-347
-10
202
-110
785
-109
197
-455
-29
352
-206
-264
-643
253
25
52
1164
-390
-351
749
-60
1133
178
160
471
75
500
508
31
484
-1500
-240
48
45
124
45
-233
35
401
-274
-369
267
-781
481
-348
-9
891
-1135
-254
-246
-715
-674
618
-169
-346
40
112
144
611
147
58
1099
-946
642
-644
180
-1003
21
-231
-108
32
373
38
260
602
-283
859
-320
351
64
708
556
-340
92
-55
736
590
-132
-1247
43
-110
-500
30
201
1042
-898
-545
677
-775
672
-1047
-276
722
311
-1287
-329
1251
-316
98
-257
-273
304
-1117
-29
273
56
153
10
-1
-4
-9
1
10
-8
-2
-9
7
-12
6
-107
-4
4
-449
1434
59
-396
-190
64
0
787
602
851
575
-1
126
179
386
-1026
1062
-407
494
17
-479
48
-308
179
545
215
-991
794
23
-356
-32
-1138
840
-279
54
64
-17
-244
-9
-61
-478
-731
-993
-281
958
265
929
-207
-601
-736
-123
406
859
858
945
1148
68
526
-187
-112
7
-383
-631
924
-59
-797
-406
-1212
-1153
1155
206
464
-726
-1133
-388
591
990
1084
313
-292
-60
29
-50
-616
757
677
534
-347
1139
-207
-32
-594
13
537
-44
316
1108
368
6
-468
-1203
1364
-1209
-1107
-510
1361
-1118
-262
-1010
534
449
-26
82
-355
-10
210
-114
817
-113
205
-455
-29
535
-206
-264
-649
255
25
53
1174
-398
-359
167
-62
107
186
168
492
1319
521
508
31
484
-799
-240
232
70
115
-18
-277
35
409
-114
-377
273
-77
692
-324
-9
60
-1146
298
-248
-968
-681
637
-175
-359
40
115
143
605
146
816
1088
709
633
-635
177
-988
-11
474
-108
32
373
38
60
602
-312
859
-320
351
64
1048
556
-344
93
-56
745
598
-21
-1443
41
476
-146
30
203
1053
-907
-551
693
-794
688
-1073
-283
736
317
-1313
-335
1277
-323
100
-264
-280
311
-1162
-29
285
60
161
10
-1
-4
-9
1
10
-8
-2
-9
7
-12
6
-107
-4
4
-449
1434
-401
-396
-190
23
0
743
526
879
595
-1
130
187
401
-1016
1051
-403
489
17
-489
48
-755
183
127
213
-981
786
23
-352
-32
-1127
832
-276
53
64
-17
-244
-9
-61
-478
-731
-993
-281
958
446
1171
-235
-777
-567
-123
406
859
858
945
1134
67
520
-185
-111
7
-378
-624
914
-58
-67
-402
-1200
-1141
1143
206
464
-726
-1133
-388
665
951
255
239
-30
-60
29
-50
-616
757
677
534
-347
1139
-207
-32
-593
13
536
-44
306
1071
354
6
-451
-1214
787
-266
588
46
1375
-1129
-265
-1020
539
454
21
83
-359
-10
210
-114
817
-113
205
-460
-29
540
-208
-274
-660
260
25
55
1193
-1175
-272
100
-58
1366
176
158
466
74
495
503
31
479
-791
-238
48
45
124
45
-233
35
457
-274
-369
267
-75
-141
-319
-9
58
-1146
298
-248
-968
-681
636
-175
-358
40
115
143
605
146
57
1088
-941
639
-641
179
-998
-11
484
-110
32
381
38
59
596
-309
850
-323
355
65
715
562
-340
92
-55
736
590
-132
-1247
43
-110
-500
30
203
1053
-907
-551
698
-799
693
-1080
-285
722
311
-1287
-329
1251
-325
101
-266
-282
313
-1162
-29
285
60
161
10
-1
-4
-9
1
10
-8
-2
-9
7
-12
6
-107
-4
4
-445
1420
58
-392
-188
67
0
757
621
879
567
-1
123
607
546
-1026
1062
-407
494
17
-489
48
-755
1141
127
215
-991
794
23
-356
-32
-1150
848
-282
55
64
-17
-244
-9
-61
-483
-738
-1437
-284
968
451
1182
-237
-785
-573
-123
406
859
858
945
1123
66
515
-538
-110
16
-387
-631
922
-59
-66
-398
-1470
-1130
1132
202
101
-712
-1111
-380
665
951
-81
239
-60
1485
29
-50
-616
757
677
534
-347
1139
-207
-32
-592
-31
632
-44
313
1097
364
6
-463
-1190
771
-260
576
46
1375
-1129
-265
-1020
539
449
21
82
-355
-10
208
-113
809
-112
203
-465
-29
545
-210
-270
-655
258
25
54
1185
-398
-359
167
-62
1156
-1022
431
346
76
683
498
31
474
-783
-236
48
45
125
45
-235
35
405
-277
-89
1053
-76
685
-321
-9
59
-1135
293
-246
-958
-685
630
-173
-354
40
114
143
605
146
57
1088
-923
627
-629
175
-978
-11
479
-109
32
377
28
60
601
-312
858
-320
351
64
708
556
-343
93
-56
743
596
-132
-1485
43
-110
-500
55
296
1053
-1065
455
691
-791
686
-1069
-282
709
305
-1263
-323
1228
-325
101
-266
-282
313
-1162
-29
285
60
161
10
-1
-4
-9
1
10
-8
-2
-9
7
-12
6
-108
-4
4
-444
1417
58
-391
-188
66
0
749
615
481
563
-1
124
175
378
-1026
1062
-407
494
17
-447
-17
-681
170
144
213
-981
786
23
-352
-32
-1140
841
-280
54
65
-17
-246
-9
-62
-478
-731
-993
-281
958
448
1176
-236
-781
-570
-121
398
842
841
927
1197
1111
542
1470
-1124
7
-363
-601
879
-54
-67
-402
-1200
-1141
1143
204
459
-719
-1122
-384
627
965
133
273
-172
-59
29
-49
-610
749
670
529
-344
1128
-205
-32
-587
13
531
-44
307
1077
357
6
-454
-1190
771
-260
576
46
1375
-1129
-265
-1020
539
445
21
81
-351
-10
206
-112
802
-111
201
-460
-29
540
-208
-267
-637
249
25
51
1150
-390
-351
163
-60
1133
180
162
476
76
505
499
31
475
-785
-236
48
45
124
45
-233
35
397
-271
-365
264
-75
678
-318
-9
58
-1136
295
-246
-959
-675
624
-171
-350
40
113
148
590
137
54
1034
-941
639
-641
179
-998
-11
469
-107
32
369
38
60
602
-312
859
-317
347
63
701
550
-337
91
-54
729
584
-133
-1260
43
-111
-505
30
207
1075
-925
-563
697
-797
692
-1078
-284
725
295
-1305
-349
1262
-319
99
-260
-276
307
-1127
-29
276
57
155
10
-1
-4
-9
1
10
-8
-2
-9
7
-12
6
-106
-4
4
-437
1392
56
-384
-184
66
0
749
615
870
575
-1
126
179
386
-1026
1062
-407
494
17
-484
48
-747
181
126
209
-961
770
23
-345
-32
-1116
824
-273
52
79
-17
-299
-11
-36
-474
-725
-985
-278
950
442
1159
-233
-769
-561
-121
398
842
841
1500
1134
67
520
-185
-111
7
-371
-614
898
-56
-68
-406
-1212
-1153
1155
206
464
-726
-1133
-388
706
879
-470
162
148
-58
29
-49
-604
742
663
524
-341
1117
-203
-32
-593
13
536
-44
313
1097
364
248
-1100
-1202
806
-75
-216
-1193
1389
-1140
-268
-1030
544
445
21
81
-351
-10
205
-111
797
-110
200
-460
-29
540
-208
-267
-631
247
25
50
1139
-1041
-313
134
-58
1226
-734
364
372
75
635
498
31
474
-783
-236
48
45
123
45
-231
35
401
-274
-369
267
-73
661
-311
-9
56
-1146
298
-248
-968
-681
624
-171
-350
40
113
144
610
147
58
1097
-923
627
-629
175
-978
-11
474
-108
32
373
38
57
584
-303
834
-320
351
64
708
556
-322
86
-49
696
556
-132
-1247
43
-110
-500
30
205
1064
-916
-557
684
-783
679
-1058
-279
711
306
-1266
-324
1230
-319
99
-260
-276
307
-1162
-29
285
60
161
10
-1
-4
-9
1
10
-8
-2
-9
7
-12
6
-107
-4
4
-437
1392
56
-384
-184
67
0
757
621
879
-523
-625
-986
177
-214
-1026
1062
-407
494
17
-489
48
-755
183
127
211
-971
778
23
-348
-32
-1150
848
-282
55
65
376
-246
-9
-62
-478
-731
-993
-281
958
451
1183
-237
-785
-573
-123
406
859
858
945
1134
67
520
-185
-111
-84
-331
-623
937
-57
-65
-394
-1176
-1119
1121
208
469
-733
-1144
-392
665
951
-81
239
-60
-60
29
-50
-616
757
663
524
-341
1117
-203
-32
-599
13
541
-44
316
1108
368
6
-468
-1190
771
-260
576
46
1133
-1457
-1500
-1325
687
454
21
83
-359
-10
206
-112
801
-111
201
-460
-194
1386
-208
-267
-643
252
25
52
1162
-390
-351
163
-60
1133
174
156
1222
73
490
488
31
464
-767
-232
48
45
122
45
-229
35
409
-280
-377
-915
-75
678
-318
-9
58
-1135
295
-246
-958
-674
630
-173
-354
40
114
141
593
144
55
1066
-951
645
-647
181
-1008
-11
474
-108
32
373
9
54
590
-296
839
-329
363
-421
1072
575
-337
91
-54
729
584
-132
-1453
43
-110
-500
30
205
1064
-916
-557
703
-804
698
-1087
-287
693
299
-1234
-317
1199
-319
99
-260
-276
307
-1162
-29
285
60
161
10
-1
-4
-9
1
10
-8
-2
-9
7
-12
6
-107
-4
4
-449
1434
59
-396
-190
68
0
765
627
888
581
-1
127
181
390
-1036
1073
-411
499
17
-489
48
-755
183
127
213
-981
786
23
-352
-32
-1150
848
-282
55
65
-17
-246
-9
-62
-483
-738
-1003
-284
968
451
1183
-237
-941
-573
-123
406
859
858
945
1145
68
525
-187
-112
-1147
-202
-631
924
-59
-67
-402
-1200
-1141
1143
208
469
-733
-1144
-392
672
961
-82
241
-61
-61
29
-51
-622
765
670
529
-344
1128
-205
-32
-812
476
541
-44
316
1108
368
6
-468
-1214
787
-266
588
46
1389
-1140
-268
-1030
544
454
21
83
-359
-10
210
-114
817
-113
205
-460
-29
540
-208
-267
-649
255
25
53
1174
-398
-359
167
-62
1156
180
162
476
76
505
503
31
-715
-791
-238
48
45
121
45
-228
35
409
-280
-377
273
-76
685
-321
-9
59
-1146
298
-248
-968
-681
642
-177
-362
40
116
144
611
147
58
1099
-951
645
-647
181
-1008
-11
484
-110
32
381
38
60
602
-312
859
-326
359
66
722
568
-344
93
-56
746
599
-132
-1247
43
-110
-500
30
203
1053
-907
-551
698
-799
693
-1080
-285
736
317
-1313
-335
1277
-325
101
-266
-282
313
-1150
415
282
59
159
10
-1
-4
-9
1
10
-8
-2
-9
7
-12
6
-107
-4
4
-449
1434
59
-396
-190
68
0
765
627
888
575
-1
126
179
386
-1036
1073
-411
499
17
-484
48
-747
181
126
213
-981
786
23
-352
-32
-1150
848
-282
55
65
-17
-246
-9
-62
-478
-731
-993
-281
958
456
1195
-239
-793
-579
-124
410
868
867
955
1126
66
516
-183
-110
7
-379
-625
915
-58
-67
-402
-1200
-1141
1143
204
459
-719
-1122
-384
665
951
-81
239
-60
-60
29
-50
-616
757
670
529
-344
1128
-205
-32
-605
13
546
-44
313
1097
364
6
-463
-1214
787
-266
588
46
1375
-1129
-265
-1020
539
449
21
82
-355
-10
208
-113
809
-112
203
-455
-29
535
-206
-264
-643
252
25
52
1162
-390
-351
163
-60
1133
180
162
476
76
505
508
31
484
-799
-240
48
45
125
45
-235
35
401
-274
-369
267
-77
692
-324
-9
60
-1146
298
-248
-968
-681
642
-177
-362
40
116
144
611
147
58
1099
-932
633
-635
177
-988
-11
484
-110
32
381
38
59
596
-309
850
-320
351
64
708
556
-343
93
-56
743
596
-131
-1235
43
-109
-495
30
203
1053
-907
-551
684
-783
679
-1058
-279
729
314
-1300
-332
1264
-322
100
-263
-279
310
-1150
-29
282
59
159
10
-1
-4
-9
1
10
-8
-2
-9
7
-12
6
-105
-4
4
-449
1435
-990
-912
354
67
0
757
621
879
-806
-558
-128
448
-107
-1036
1073
-411
499
17
-484
48
-747
181
126
324
-971
778
-601
-348
-32
-1157
853
-284
56
64
-17
-244
-9
-61
-483
-738
-1003
-284
968
442
1159
-233
-769
265
-123
406
859
858
945
1145
68
525
-187
-112
7
-379
-625
915
-58
227
-406
-1212
-1153
1155
206
464
-726
-1133
-388
658
941
-80
237
-59
-60
29
-50
-616
757
670
529
-344
1128
-205
-32
-588
25
520
-33
316
1108
368
6
-468
-1202
779
-263
582
46
1375
-1129
-265
-1020
539
454
21
83
-359
-10
206
-112
801
-111
201
-460
-29
540
-208
-267
-643
252
25
52
1162
-735
-321
138
-60
1246
178
160
471
75
500
533
31
378
-240
-249
399
-972
988
45
-235
35
437
409
-1485
94
-77
692
-324
-9
60
-1146
298
-248
-968
-681
636
-175
-358
40
115
144
611
147
58
1099
-932
633
-635
177
-988
-11
479
-109
32
377
38
60
602
-312
859
-323
-247
65
787
562
-340
92
-55
736
590
-133
-1260
43
-111
-505
30
205
1064
-916
-557
902
-1209
676
-1054
-1332
731
315
-1304
-333
1268
-319
99
-260
-276
307
-1150
-29
282
59
159
10
-1
-4
-9
1
10
-8
-2
-9
7
-12
6
-106
-4
4
-445
1420
58
-392
-188
65
0
742
609
861
569
-1
125
177
382
-1036
1048
-1228
499
17
-456
48
-707
170
120
211
-971
778
23
-348
-32
-1116
824
-273
52
66
-17
-248
-9
-63
-478
-731
-993
-281
958
446
1171
-235
-777
-567
-123
406
859
858
945
1134
67
520
-185
-111
7
-375
-619
906
-57
-64
-390
-1374
-1108
1110
208
469
-733
-1144
-392
658
941
-80
237
-59
-59
29
-49
-610
749
670
1220
-344
1302
-205
-32
-593
13
536
-44
316
1500
368
6
-694
-1214
787
-266
588
46
1375
-1129
-265
-1020
539
445
21
81
-351
-10
206
-112
801
-111
201
-450
-29
530
-204
-261
-656
258
25
54
1186
-875
-307
127
-60
1312
129
158
443
7
10
501
-340
477
-788
-237
48
45
125
45
-235
35
405
-277
-373
270
-75
678
-318
-9
58
-1500
301
-251
-978
-688
626
-172
-351
-171
113
-236
1300
-25
91
883
-948
643
-645
180
-1004
484
748
-403
563
849
921
58
590
-306
827
-317
347
63
701
550
-337
91
-54
729
584
-133
-1260
43
-111
-505
30
205
1064
-916
-557
823
-1050
679
-1058
-279
732
315
-1306
-333
1066
-849
762
498
-969
1215
-1134
-29
278
58
156
10
-1
-4
-9
1
10
-8
-2
-9
7
-12
6
-105
-4
4
-436
1387
56
-388
516
67
0
1043
621
879
581
-1
127
181
390
-1026
1062
-407
494
17
-489
48
-755
183
127
217
-1000
801
23
-359
-32
-1150
848
-282
55
63
-17
-243
-9
-366
-478
-731
-993
-281
958
446
1171
-235
-777
-567
-123
406
859
858
945
1123
66
515
-183
-110
7
-383
-631
924
-59
-67
-402
-1200
-1141
1143
204
459
-719
-1122
-384
672
961
-82
241
-61
-62
29
-52
-626
770
670
529
-344
1128
-205
-32
-605
13
546
-44
316
1108
368
6
-468
-1202
779
-263
582
46
1389
-1140
-268
-1030
544
454
21
83
-359
-10
206
-112
801
-111
201
-461
-29
541
-209
-268
-649
255
25
53
1174
-395
-356
166
-61
1148
178
160
471
75
500
503
31
479
-791
-238
48
45
124
45
-233
35
408
-279
-376
272
-75
678
-318
-9
58
-1146
298
-248
-968
-681
642
-177
-362
40
116
143
605
146
57
1088
-951
645
-647
181
-1008
-11
474
-108
32
373
38
59
596
-309
850
-323
355
65
715
562
-343
93
-56
743
596
-132
-1247
43
-110
-500
30
205
1064
-916
-557
637
-686
686
-1069
14
729
314
-1300
-332
1264
-329
102
-361
-286
317
-1126
-29
275
57
155
10
-1
-4
-9
1
10
-8
-2
-9
7
-12
6
-107
-4
4
-449
1434
59
-396
-190
68
0
765
627
888
581
-1
127
181
390
-1036
1073
-411
499
17
-489
48
-755
183
127
215
-991
794
23
-356
-32
-1150
848
-282
55
65
-17
-246
-9
-62
-483
-738
-1003
-284
968
456
1195
-239
-793
-579
-124
410
868
867
955
1145
68
525
-187
-112
7
-383
-631
924
-59
-68
-406
-1212
-1153
1155
208
469
-733
-1144
-392
672
961
-82
241
-61
-61
29
-51
-622
765
668
527
-343
1125
-204
-32
-605
13
546
-44
316
1108
368
6
-468
-1214
787
-266
588
46
1389
-1140
-268
-1030
544
454
21
83
-359
-10
210
-114
817
-113
205
-468
-29
548
-211
-272
-656
258
25
54
1186
-398
-359
167
-62
1156
180
162
476
76
505
508
31
484
-799
-240
48
45
125
45
-235
35
401
-274
-369
267
-77
692
-324
-9
60
-1158
301
-251
-978
-688
642
-177
-362
40
116
144
611
147
58
1099
-951
645
-647
181
-1008
-11
484
-110
32
381
38
60
602
-312
859
-326
359
66
722
568
-343
93
-56
743
596
-133
-1260
43
-111
-505
30
205
1064
-916
-557
964
-1338
668
-1040
-285
736
317
-1313
-335
1277
-325
101
-266
-282
313
-1162
-29
285
60
161
10
-1
-4
-9
1
10
-8
-2
-9
7
-12
6
-106
-4
4
-445
1420
58
-392
-188
67
0
757
621
879
581
-1
127
181
390
-1026
1062
-407
494
17
-484
48
-747
181
126
207
-949
761
-1154
-340
-32
-1150
848
-194
55
61
-813
-238
-9
-561
-468
-717
-973
-275
939
446
1171
-235
-777
-567
-124
410
868
867
955
1123
1071
515
-183
-110
-596
439
-576
456
-934
-67
-402
-1200
-1141
1143
204
459
-1112
-1122
-384
665
951
-81
239
-60
-61
29
-51
-622
765
1348
519
-338
1106
-201
-32
-581
13
527
-44
310
1086
360
6
-612
-1190
771
-260
576
46
1361
-1118
-262
-1010
534
446
21
81
-353
-10
208
-113
809
-112
203
-447
-47
534
-235
-195
-649
255
25
53
1174
-394
-355
165
-61
1144
183
883
-378
470
511
498
31
474
-783
-236
48
45
125
45
-235
35
405
-277
-373
270
-78
699
-327
908
61
-1146
-262
-248
-968
-681
641
-175
-358
40
-482
142
599
145
56
1077
-1216
621
-623
173
-968
-11
474
-108
32
373
64
63
-319
-320
859
-278
359
426
722
568
-337
91
-54
729
584
-56
-853
572
341
209
231
205
313
-916
-557
698
-799
693
-1080
-285
732
315
-1306
-333
1270
-325
101
-750
-282
313
-1172
-29
288
61
163
10
-1
-4
-9
1
10
-8
-2
-9
7
-12
6
-105
-4
4
-437
1392
56
-384
-184
72
0
759
622
884
833
-144
126
179
386
-996
1030
-395
479
17
-479
48
-740
179
125
212
-977
782
23
-350
-32
-1137
839
-279
54
64
-17
-244
-9
-61
-478
-731
-993
-281
958
451
1183
-911
-785
-573
-117
382
810
809
891
1109
68
509
-188
-112
7
-375
-619
906
-57
-65
-394
-1176
-1119
1121
206
464
-727
-1134
-388
676
967
-83
242
-62
-58
29
-49
-604
742
663
524
-341
1117
-203
-32
-587
13
1455
-44
794
1086
583
6
-487
-1166
755
-254
564
46
1334
-1096
-256
-990
524
446
21
82
-354
-10
577
-104
476
-503
82
-460
-29
540
-208
-267
-585
255
25
53
1418
-387
-348
161
-59
1124
767
160
471
75
500
498
31
474
-783
-236
48
45
122
45
-229
35
397
-271
-365
264
-74
671
-315
-9
57
-1158
301
-251
-978
-688
642
-177
-362
-1472
116
142
599
145
56
1077
-932
633
-635
177
-988
-11
484
-110
32
381
410
60
602
-312
1500
-314
344
62
694
545
-328
88
-51
708
566
-131
-1239
43
-109
-497
30
203
1053
-907
-551
691
-791
686
-1069
-282
715
308
-1274
-326
1238
-316
98
-257
-273
304
-1142
-29
842
58
157
10
-1
-4
-9
1
10
-8
-2
-9
7
-12
6
-104
-4
4
-141
1420
58
-392
-188
63
0
731
600
847
560
-1
123
174
376
-40
1051
-403
489
680
-474
48
-731
177
124
1405
-981
786
23
-352
-32
-1105
816
-270
51
64
-17
-244
-9
-61
-463
-710
-963
-272
930
442
1159
-233
-769
-561
-123
406
859
858
945
1134
67
520
-185
-111
7
-379
-625
915
-58
-67
-402
-1500
-1105
1143
206
465
-727
-1135
-389
1236
845
969
628
-329
-60
29
-50
-616
757
677
534
-347
1139
-207
-32
-653
13
864
-44
310
1086
360
6
-458
-1166
755
-254
564
46
1370
-1125
-264
-1017
537
449
21
82
-355
-10
204
-111
793
-110
199
-465
-29
545
-210
-270
-637
249
25
51
1150
-394
-355
165
-61
1144
174
156
461
73
490
482
31
458
-758
-230
48
45
125
45
-235
35
396
-270
-364
263
-75
681
-319
-9
58
-1135
295
-246
-958
-674
-1152
-175
-358
-562
115
141
593
144
55
1066
-941
639
-641
179
-1500
-11
474
-108
32
373
38
58
588
-305
839
-320
351
64
708
556
-341
92
-55
736
590
-334
-1247
208
-377
-183
30
203
1053
-907
-551
684
-783
679
-1058
-279
732
315
-1306
-333
1270
-313
97
-254
-270
301
-1169
-29
287
61
162
10
-1
-4
-9
1
10
-8
-2
-9
7
-12
6
-107
-4
4
-449
1434
59
-396
-190
67
0
287
621
879
575
-1
126
179
386
-1026
1062
-407
-224
-502
-479
48
-740
179
125
213
-981
786
23
-352
-32
-1150
848
-282
55
63
-17
-242
-9
-60
-499
-759
-1034
-293
997
452
1186
-238
-787
-575
-122
402
1500
849
936
1134
67
520
-185
-111
7
-367
-607
888
-55
-66
-399
-1180
-1130
1132
201
453
-718
-1108
44
651
932
-79
235
-58
1380
29
-50
-616
758
685
540
-351
1152
-209
-32
-587
13
531
-44
313
1097
364
6
-463
-1190
771
-260
576
46
1389
-1140
-268
-1030
578
449
21
82
-355
-10
204
-111
795
-110
199
-450
-29
530
-204
-261
-643
252
25
52
1162
-378
-341
157
-57
1100
176
158
466
74
495
498
31
474
-783
-236
48
45
123
45
-231
35
405
-277
-373
270
-76
684
-321
-9
59
-1103
1102
-254
-941
-655
630
-173
-354
40
114
138
575
141
52
1034
-932
633
-635
177
-988
-11
479
-109
32
377
38
58
590
-306
842
-323
355
65
715
562
-334
-925
311
722
578
-131
-1235
43
-109
-495
30
201
651
-898
-545
678
-776
673
-1048
-276
729
314
-1300
-332
1264
-319
99
-260
-276
307
-662
-29
279
58
157
10
-1
-4
-9
1
10
-8
-2
-9
7
-12
6
-103
-4
4
-445
1420
58
-392
-188
63
0
729
597
844
573
-1
126
178
384
-996
1030
-395
479
17
-479
48
-740
179
498
412
-951
762
23
-342
439
-1116
824
-61
121
62
-17
-239
-9
-59
97
-724
-983
925
948
-877
1171
-235
-777
-567
-121
398
842
841
927
1113
65
-767
-842
-109
272
-516
-625
842
-61
-66
-398
-1188
-1130
1132
204
492
-826
-1122
-384
665
951
-81
239
435
-58
29
-49
-604
742
663
524
-341
1117
-203
-32
-599
13
541
-44
316
1107
368
6
-467
-1193
773
-261
578
46
982
-1133
-266
-1024
541
451
21
82
-356
-10
210
-114
817
-113
205
-451
-29
531
-204
-262
-604
236
25
47
1088
-394
-355
165
-61
1144
178
160
471
75
500
508
31
109
-799
-240
48
45
124
45
-232
35
397
-271
-365
264
-74
671
-315
-9
57
-1134
295
-246
-957
-673
618
-169
-120
40
112
143
603
146
57
1500
-932
633
-635
177
-988
-11
474
-108
32
373
38
58
590
-306
842
-305
334
58
675
528
-340
92
-55
736
590
-130
-1223
43
-108
-490
43
247
1042
-976
-49
698
-799
693
-1080
-285
715
308
-1274
-326
1238
-319
99
587
-276
307
-1150
-29
-808
59
-27
10
-1
-4
-9
1
10
-8
-2
-9
7
-12
6
-105
-4
4
-452
1447
60
-400
-192
67
0
667
621
879
572
-1
126
178
385
-1026
1062
-407
1324
102
-489
48
-314
183
556
1416
-981
786
-185
-352
-32
-1138
840
-1006
54
-607
-17
-246
-9
-62
-483
-738
-1003
-284
968
347
1045
-221
-685
-669
-122
402
850
849
936
1134
67
520
-185
-111
-56
-379
-749
809
72
-789
-402
-1200
-1141
1143
208
469
-733
-1144
-392
658
941
1073
237
-59
-60
29
-50
-616
757
433
445
-351
877
-261
-32
479
13
531
-44
310
1086
360
6
-458
-1164
754
-254
563
46
1347
-1107
-259
-1000
529
445
21
81
-351
-10
210
-114
815
-113
205
-450
-29
530
-204
-261
-651
256
25
53
1177
-77
-395
195
-63
1071
178
160
471
75
500
495
31
471
-778
-235
48
45
122
45
-229
35
401
-274
-369
267
-74
671
-315
-9
57
-1140
296
-246
-963
-677
625
-171
-351
40
113
144
611
147
58
-261
-951
1500
-647
181
-1008
-11
459
-105
32
361
38
58
590
-306
842
-320
351
64
708
556
-343
93
-56
743
596
-132
-1260
43
-110
-500
30
201
1042
-898
-545
684
-783
679
-1058
-279
722
311
-1287
-329
1251
-325
101
-266
-282
313
-1162
-29
285
60
161
10
-1
-4
-9
1
10
-8
-2
-9
7
-12
6
-107
-4
4
-449
1434
59
-396
-190
-250
25
1097
1024
1164
569
-1
125
177
334
-1026
1062
-407
494
17
-486
48
-750
182
126
221
-981
786
-190
-352
-32
-1139
841
-279
54
64
-17
-244
-9
-61
-483
-738
-1003
-284
968
443
1163
-234
-771
-563
-121
397
840
839
925
1136
67
522
-668
-111
7
-379
-625
915
-58
-67
-402
-1200
-1141
1143
206
464
-726
-1133
-388
663
926
-1263
234
967
-60
29
-50
-616
757
670
529
-344
1128
285
-32
-581
13
526
-44
313
1097
364
6
-463
-1214
-217
-266
-731
46
1358
-1116
-170
-1008
357
445
21
81
-351
-10
206
-112
801
-111
201
-462
-32
543
-214
-257
-643
252
25
52
587
-398
-359
532
-62
1156
176
158
466
74
495
502
31
478
-790
-238
48
45
-1236
45
-235
35
405
672
-373
270
-74
671
-315
-9
57
-1158
301
-251
-978
-688
636
-175
-358
40
115
143
605
146
57
1088
-936
636
-638
178
-992
-11
479
-109
32
377
38
57
584
-303
834
-323
355
65
715
562
-340
92
-55
736
590
-1
-574
43
673
-140
30
205
1064
-916
-557
698
-799
693
-1080
-285
722
311
-1287
-329
1251
-319
99
-420
-276
307
-1150
-29
282
59
159
10
-1
-4
-9
1
10
-8
-2
-9
7
-12
6
-107
-4
4
-449
1434
59
-396
-190
67
0
287
621
879
575
-1
126
179
386
-1026
1062
-407
-224
-502
-479
48
-740
179
125
213
-981
786
23
-352
-32
-1150
848
-282
55
63
-17
-242
-9
-60
-499
-759
-1034
-293
997
452
1186
-238
-787
-575
-122
402
1500
849
936
1134
67
520
-185
-111
7
-367
-607
888
-55
-66
-399
-1180
-1130
1132
201
453
-718
-1108
44
651
932
-79
235
-58
1380
29
-50
-616
758
685
540
-351
1152
-209
-32
-587
13
531
-44
313
1097
364
6
-463
-1190
771
-260
576
46
1389
-1140
-268
-1030
578
449
21
82
-355
-10
204
-111
795
-110
199
-450
-29
530
-204
-261
-643
252
25
52
1162
-378
-341
157
-57
1100
176
158
466
74
495
498
31
474
-783
-236
48
45
123
45
-231
35
405
-277
-373
270
-76
684
-321
-9
59
-1103
1102
-254
-941
-655
630
-173
-354
40
114
138
575
141
52
1034
-932
633
-635
177
-988
-11
479
-109
32
377
38
58
590
-306
842
-323
355
65
715
562
-334
-925
311
722
578
-131
-1235
43
-109
-495
30
201
651
-898
-545
678
-776
673
-1048
-276
729
314
-1300
-332
1264
-319
99
-260
-276
307
-662
-29
279
58
157
10
-1
-4
-9
1
10
-8
-2
-9
7
-12
6
-105
-4
4
-438
1397
56
-385
-185
67
0
757
621
879
569
-1
125
177
382
-1026
1062
-407
494
17
-484
48
-1266
181
126
215
-991
794
23
-356
-32
-1138
840
-279
54
65
-17
-246
-9
-62
-468
-717
-973
-275
939
451
1183
-237
-785
-573
-123
406
859
858
945
1134
67
520
-185
-111
7
-375
-231
906
-57
-68
-406
-1212
-1153
1155
-146
442
-693
-1081
-369
672
961
-82
241
-61
-62
29
-52
-626
771
663
524
-341
1117
-203
-32
-599
13
541
-44
313
1097
364
6
-463
-1209
773
-234
-885
-206
1375
-1129
-265
-1020
539
454
21
83
-359
-10
208
-113
809
-112
203
-455
-29
535
-206
-264
-649
255
25
53
1174
-394
-355
165
-61
1144
180
162
476
76
505
508
31
484
-799
-240
48
45
124
45
-233
35
409
-280
-377
273
-75
678
-318
-9
58
-1146
298
-248
-968
-681
644
-179
-366
40
117
143
605
146
57
1088
-951
645
-647
181
-1008
-1383
479
-109
32
377
38
59
596
-309
91
-320
351
64
708
556
-337
91
-54
729
584
-130
-1222
43
-108
-490
30
201
1042
-898
-545
684
-783
679
-1058
-279
729
314
-1300
-332
1264
-325
101
-266
-282
313
-1138
-29
279
58
157
10
-1
-4
-9
1
10
-8
-2
-9
7
-12
6
-106
-4
4
-449
1434
59
-396
-190
68
0
765
627
888
581
-1
127
181
390
-1036
1073
-411
499
17
-489
48
-755
183
127
215
-991
794
23
-356
-32
-712
848
-282
55
64
-17
-244
-9
-61
-483
-738
-1003
-284
968
456
1195
-239
-793
-579
-124
410
868
867
955
1145
68
525
-187
-112
7
-383
-631
924
-59
-68
-406
-1212
-1153
1155
208
469
-733
-1144
-392
667
952
52
240
-60
-61
29
-51
-622
765
662
524
-341
1116
-203
-32
-599
13
541
-44
316
1108
368
6
-468
-1214
787
-266
588
46
1389
-1140
-268
-1030
544
454
21
83
-359
-10
210
-114
817
-113
205
-468
-29
548
-211
-272
-656
258
25
54
1186
-394
-355
165
-61
1144
180
162
476
76
304
508
31
484
-799
-240
48
45
125
45
-235
35
401
-274
-369
267
-77
692
-324
-9
60
-1158
301
-251
-978
-688
642
-177
-362
40
116
144
611
147
58
1099
-951
645
-647
181
-1008
-11
484
-110
32
381
38
60
602
-312
859
-323
355
65
715
562
-343
93
-56
743
596
-133
-1260
43
-111
-505
30
205
1064
-916
-557
964
-1338
668
-1040
-285
729
314
-1300
-332
1264
-325
101
-266
-282
313
-1150
-29
282
59
159
10
-1
-4
-9
1
10
-8
-2
-9
7
-12
6
-106
-4
4
-431
1374
53
-378
-181
67
0
757
621
879
575
1021
126
179
386
-1016
1051
-403
489
17
197
48
-740
179
125
211
-972
778
23
-348
-32
-1127
832
-276
53
63
-17
-242
-9
-60
-483
-738
-1003
-284
968
451
1183
-237
-785
-973
-122
402
850
849
936
1123
66
515
-183
-110
7
-379
-1485
915
-58
537
-405
-1210
-1151
1153
206
464
-268
-1133
-388
778
945
-50
195
-558
-60
29
-50
-616
757
670
529
-344
1128
-205
-32
-593
13
536
871
310
1086
360
6
-458
-1190
771
-260
576
46
1349
-1105
-262
-1001
530
441
21
80
-347
-10
206
-112
803
-111
201
-460
-29
540
-208
-267
-651
256
25
53
1178
-394
-355
165
-61
1144
178
160
471
75
500
510
31
486
-586
-241
707
45
123
45
-231
35
405
-278
-374
271
-75
678
-318
-9
58
-1152
300
-250
-973
-685
630
-173
-354
40
114
143
605
146
57
1088
-799
60
-686
73
-517
-11
479
-109
32
377
38
57
584
-303
834
-323
355
65
715
562
-343
93
-56
743
596
-132
-1247
43
-110
-500
30
201
1044
-899
-546
691
-791
686
-1069
-282
832
313
-1293
-331
1080
-322
100
-263
-279
310
-1127
-29
276
-141
13
10
-1
-4
-9
1
10
-8
-2
-9
7
-12
6
-106
-4
4
-434
1381
55
-381
-182
68
-472
765
627
888
569
-1
125
177
382
-1026
1062
-407
494
17
-489
48
-755
183
127
211
-971
778
23
-348
-32
-1150
848
-282
55
64
-17
-244
-9
-61
-483
-738
-847
-284
968
448
1176
-236
-780
-569
-123
406
859
858
945
1145
68
525
-187
-112
7
-383
-631
924
743
-67
-402
-1200
-1141
1143
208
469
-733
-1144
-392
716
911
-392
179
120
-61
29
-51
-622
1500
677
534
-347
1139
-903
-32
-605
215
546
-44
316
1108
-664
6
-523
-1214
787
529
588
953
1389
-831
-270
-1005
551
454
-543
83
-359
-10
-471
-113
809
-112
203
-460
-29
540
-208
-267
-643
252
25
52
1162
-774
-313
133
-59
1247
174
156
461
73
490
498
31
474
-783
-236
48
45
125
45
-235
35
409
-280
-377
273
-76
685
-321
-9
59
-1158
301
-251
-978
-688
642
-177
-362
40
116
143
605
146
57
1088
-932
633
-635
177
-988
-11
738
-108
32
1488
38
59
596
-309
850
-934
1340
66
722
568
-342
93
-56
739
593
-132
-1247
43
-110
-500
30
205
1064
-916
-557
691
-791
686
-1069
-282
729
314
-1300
-332
1264
-319
99
-260
-276
307
-74
-29
1500
60
161
10
-1
-4
-9
1
10
-8
-2
-9
7
-12
6
-103
-4
4
-301
1399
57
-387
-185
66
-123
749
615
870
571
-1
-356
53
383
-1036
1073
-411
499
17
-493
48
-761
185
128
215
-991
794
23
-356
-32
-1127
832
-479
53
63
-17
-242
-9
-60
-473
-724
-983
-278
948
442
1159
-233
-769
-561
-124
410
868
867
955
1112
65
-462
-511
-109
-925
-375
-619
906
-57
-66
-398
-1188
-1130
1125
211
474
-741
-1156
-396
610
1007
322
312
-274
-59
683
-49
-611
750
670
529
-344
1128
-205
-32
-605
13
546
-44
313
1097
364
6
-463
-1190
771
-260
576
46
1354
-1112
-260
-1005
531
449
-745
-915
-355
-10
-49
-112
801
-111
201
-491
-47
534
-235
243
-656
-656
129
54
1186
-394
-355
165
-61
1144
178
160
-29
75
500
503
31
479
-791
-238
-287
909
-251
45
-233
35
409
-641
-377
273
-75
678
-318
-9
58
-1149
299
-1485
-457
-683
636
-175
-1500
40
115
142
599
145
56
1077
-951
645
-647
181
-1008
-11
479
-109
32
377
1406
62
-1051
-317
850
-320
350
63
706
554
-337
91
-54
729
584
-132
-1247
43
-110
-500
30
201
1042
-898
508
653
-706
700
-1091
51
736
317
-1313
-335
1277
-322
100
-263
-279
310
-1127
-29
276
57
155
10
-1
-4
-9
1
10
-8
-2
-9
7
-12
6
-107
-4
4
-449
1434
59
-396
-190
68
0
765
627
888
581
-1
127
181
390
-1036
1073
-411
499
17
-484
48
-747
181
126
215
-991
794
23
-356
-32
-1129
834
-277
53
65
-17
-246
-9
-62
-483
-738
-1003
-284
968
456
1195
-239
-793
-579
-123
406
859
858
945
1134
67
520
-185
-111
7
-383
-631
924
-59
-68
-406
-1212
-1153
1155
208
469
-733
-1144
-392
672
961
-82
241
-61
-61
29
-51
-622
765
677
534
-347
1139
-207
-32
-605
13
546
-44
316
1108
368
6
-468
-1214
787
-266
588
46
1389
-1140
-268
-1030
544
454
21
83
-359
-10
210
-114
817
-113
205
-465
-29
545
-210
-270
-656
258
25
54
1186
-398
-359
167
-62
1156
178
160
471
75
500
503
31
479
-791
-238
48
45
125
45
-235
35
409
-280
-377
273
-77
692
-324
-9
60
-1158
301
-251
-978
-688
642
-177
-362
40
116
144
611
147
58
1099
-951
645
-647
181
-1008
-11
479
-109
32
377
38
60
602
-312
859
-326
359
66
722
568
-340
92
-55
736
590
-133
-1260
43
-111
-505
30
205
1064
-916
-557
691
-791
686
-1069
-282
736
317
-1313
-335
1277
-325
101
-266
-282
313
-1162
-29
285
60
161
10
-1
-4
-9
1
10
-8
-2
-9
7
-12
6
-105
-4
4
-445
1420
58
-392
-188
67
0
757
621
879
414
-241
124
175
378
-1007
1041
-399
485
17
-484
48
-747
181
126
534
-969
776
23
-347
-32
-1127
832
-276
53
64
-17
-244
-9
-61
-483
-738
813
-284
-174
614
1208
-235
-777
-567
-123
406
859
858
945
1128
67
518
-184
-111
7
-379
-625
915
-58
67
-398
-1500
-1130
1500
206
464
-726
-1133
-388
665
951
-81
239
-60
-60
29
-50
-616
757
670
529
-344
1128
-205
-310
-593
-1485
909
-44
13
1086
360
6
-458
-1190
771
-260
576
46
1375
-1129
-265
-1485
539
449
21
82
-355
-10
208
-113
809
864
203
-465
-29
545
-210
-270
-649
255
25
53
1174
-394
-355
165
-61
1144
179
393
883
-111
502
493
31
469
-775
-234
48
45
124
45
1303
35
401
-274
-369
267
-76
1485
-320
-9
59
-1146
298
-248
-1221
-681
1263
-177
-362
40
116
144
866
-392
311
1500
-1485
639
-24
179
-998
-11
484
-110
32
381
38
57
584
-303
834
-320
351
64
708
556
-340
92
-55
735
589
-132
-1247
43
-110
-500
30
205
1065
-917
-558
731
-518
43
-1057
-279
729
314
-1300
-332
1264
-319
99
-260
-276
307
-1500
229
282
1200
159
10
-1
-4
-9
1
10
-8
-2
-9
7
-12
6
-105
-4
4
-445
1420
58
-392
-188
68
0
765
627
888
563
-1
124
175
378
-1036
1073
-411
499
17
-477
48
-736
178
-20
209
-961
770
23
-345
-32
-1138
840
-279
54
65
-17
83
-9
-62
-483
-738
-1003
-284
968
434
1136
-229
-753
-549
-124
410
868
867
955
1134
67
520
-185
-111
7
-373
-616
903
-57
-62
-382
-1140
-1086
1088
211
476
-743
-1159
-398
651
932
-79
235
-58
-61
29
-51
-622
765
670
529
-344
1128
-205
-32
-599
13
539
-44
310
1086
360
954
-458
-1178
1455
-257
570
328
1389
-1140
-268
-1030
544
445
21
81
-351
-10
208
-113
809
-112
203
-465
-29
545
-210
-270
-649
255
302
-1467
1174
-394
-355
165
-61
1144
176
158
466
74
495
493
31
469
-775
-234
48
45
123
45
-231
35
409
-280
-377
273
-77
692
-324
-9
60
-1124
292
-244
-948
-667
630
-173
-354
40
114
144
611
147
58
1099
-1500
634
-636
177
-990
-11
479
-109
32
377
38
59
596
-309
850
-326
359
902
623
568
-331
89
-52
715
572
-131
-1235
43
-109
-495
30
203
1053
-907
-551
691
-791
686
-1069
-282
729
314
-1300
-332
1264
-835
101
-266
-282
313
-1127
-29
276
57
155
10
-1
-4
-9
1
10
-8
-2
-9
7
-12
6
-107
-4
4
663
1434
1303
660
-627
68
0
765
627
888
575
-1
126
179
386
-1026
1062
-407
494
17
-484
48
-747
181
126
215
-991
794
23
-356
-32
-1147
846
-282
55
65
-17
-246
-9
-62
-478
-731
-993
-281
958
456
1195
-239
-793
-579
-123
406
859
858
945
1145
68
525
-187
-112
269
-511
-619
834
-60
-68
-406
-1212
-1153
1155
208
459
-719
-1144
-384
665
951
-81
239
-60
-60
29
-50
-616
757
663
524
-341
1116
-203
-32
-605
13
546
-44
310
1086
360
6
-458
-1214
787
-266
588
46
1424
-1168
-276
-1056
557
453
21
83
-359
694
208
-113
809
-112
203
-455
-29
535
-206
-264
-656
258
25
54
1186
-398
-359
167
-62
1156
180
162
476
76
505
503
31
479
-791
-238
48
45
123
45
-231
35
405
-277
-373
270
-77
692
-324
-9
60
-1146
298
-248
-968
-681
636
-175
-358
-14
115
142
599
145
56
1077
-960
650
-652
183
-1017
-11
474
-108
32
373
38
58
590
-306
842
-331
366
68
734
578
-328
88
-51
709
567
-132
-1247
43
-110
-500
43
252
1064
-996
-49
698
-799
693
-1080
-285
729
314
-1300
-332
1264
-325
101
-266
-282
313
-1150
-29
282
59
159
10
-1
-4
-9
1
10
-8
-2
-9
7
-12
6
-105
-4
4
-442
1411
57
-389
-187
67
0
757
621
879
569
-1
125
177
382
-1026
1062
-407
494
17
-484
48
-1266
181
126
215
-991
794
23
-356
-32
-1138
840
-279
54
65
-17
-246
-9
-62
-468
-717
-973
-275
939
451
1183
-237
-785
-573
-123
406
859
858
945
1134
67
520
-185
-111
7
-375
-619
906
-57
-68
-406
-1212
-1153
1155
-147
446
-700
-1092
-373
672
961
-82
241
-61
-62
29
-52
-626
771
670
529
-344
1128
-457
-32
-605
13
546
-44
313
1097
364
6
-463
-1221
781
-236
-894
-208
1375
-1129
-265
-1020
539
454
21
83
-359
-10
208
-113
809
-112
203
-455
-29
535
-206
-264
-656
258
25
54
1186
-394
-355
165
-61
1144
180
162
476
76
505
508
31
484
-799
-240
48
45
124
45
-233
35
409
-280
-377
273
-75
678
-318
-9
58
-1146
298
-248
-968
-681
644
-179
-366
40
117
143
605
146
57
1088
-951
645
-647
181
-1008
-11
479
-109
32
377
38
59
596
-309
850
-320
351
64
708
556
-340
92
-55
736
590
-130
-1222
43
-108
-490
30
201
1042
-898
-545
691
-791
686
-1069
-282
729
314
-1300
-332
1264
-325
101
-266
-282
313
-1138
-29
279
58
157
10
-1
-4
-9
1
10
-8
-2
-9
7
-12
6
-107
-4
4
-445
1420
58
-392
-188
204
450
1470
1470
861
575
-1
-359
179
386
-1016
1051
-403
489
17
-463
48
-716
172
122
212
-976
782
23
-350
-32
-1138
840
-279
219
-196
-17
-246
-9
-625
-468
-1247
-973
-275
939
451
1183
-237
-785
-573
-124
410
868
867
955
1145
68
525
-187
-112
7
-379
-625
915
-58
-68
-406
-1212
-1153
1155
208
-488
-734
-1144
-392
802
892
-856
110
545
-60
29
-50
-619
761
677
534
-347
1139
-207
-32
-605
13
546
-44
310
1086
360
6
-458
-1163
753
-253
563
46
1400
-1148
-270
-1038
548
446
21
81
-352
-10
265
-116
730
-90
389
-455
674
535
-206
-264
-637
249
25
51
983
-390
-351
163
-60
1133
178
160
471
75
500
503
31
479
-791
-238
-887
45
123
45
-231
35
394
-269
-362
262
-74
671
-315
-9
57
-892
301
-251
-978
-688
630
-173
-354
40
114
140
588
143
54
1057
-941
639
-641
179
-998
-11
215
-719
32
34
38
60
599
-311
855
-326
359
-364
1023
568
-334
90
-53
722
578
-131
-1240
43
-109
-497
30
203
1053
-907
-551
713
-816
708
-1103
-291
729
314
-1300
-332
1264
-257
65
-360
-413
373
-1243
-29
279
58
157
10
-1
-4
-9
1
10
-8
-2
-9
7
-12
6
-105
-4
4
-445
1420
58
-392
-188
68
0
765
627
888
569
59
125
177
382
-1036
1073
-411
499
17
-479
48
-740
179
125
211
-971
778
23
-348
-32
-1138
840
-279
54
63
-17
-242
-9
-60
-473
-724
-983
-278
948
449
1178
-236
-781
-571
-123
406
859
858
945
1134
67
520
-185
-111
7
-375
-619
906
-57
-66
-398
-1188
-1130
1132
205
461
-722
-1127
-386
665
951
-81
239
-60
-60
29
-50
-616
757
670
529
-344
1128
-205
-32
-599
13
541
-44
316
1109
368
6
-468
-1202
779
-263
582
46
1361
-1118
-262
-1010
534
441
21
80
-347
-10
208
-113
809
-112
203
-455
-29
535
-206
-264
-653
257
25
54
1180
-379
-341
158
-57
1103
176
158
466
74
495
492
31
468
-774
-234
48
45
125
63
-235
35
409
-280
-377
273
-75
679
-318
-9
58
-1135
295
-246
-958
-674
636
-175
-358
40
115
142
599
145
56
1077
-941
639
-641
179
-998
-11
484
-108
32
-748
38
58
590
-306
842
-322
353
65
712
559
-340
92
-55
736
-806
-131
-1247
43
-109
-493
30
203
1053
-907
-551
1386
-783
340
-1058
-279
715
308
-1274
-326
1238
-322
100
-263
-279
310
-1162
-29
285
60
161
10
-1
-4
-9
1
10
-8
-2
-9
7
-12
6
-107
-4
4
-449
1434
59
-396
-190
67
0
757
621
879
581
-1
127
181
390
-1036
1073
-411
499
17
-484
48
-747
181
126
213
-981
786
23
-352
-32
-1138
840
-279
54
65
-17
-246
-9
-62
-478
-731
-993
-281
958
456
1195
-239
-793
-579
-123
406
859
858
945
1134
67
520
-185
-111
256
-281
-631
1053
-59
-68
-406
-1212
-1153
1155
206
464
-726
-1133
-388
672
961
-82
241
-61
-61
29
-51
-622
765
677
534
-347
1139
-207
-32
-611
13
551
-44
316
1108
368
6
-468
-1202
779
-263
582
46
1389
-1140
-268
-1030
544
442
21
80
-349
-10
210
-114
817
-113
205
-465
-29
545
-210
-270
-656
258
25
54
1186
-393
-354
164
-61
1140
176
158
466
74
495
503
31
479
-791
-238
48
45
125
45
-235
35
409
-280
-377
273
-69
632
-298
-9
52
-1146
298
-248
-968
-681
642
-177
-362
40
116
143
605
146
57
1088
-919
625
-627
174
-974
-11
479
-109
32
377
38
60
602
-312
859
-323
355
65
715
562
-340
92
-55
736
590
-132
-1247
43
-110
-500
30
208
1081
-930
-566
691
-791
686
-1069
-282
736
317
-1313
-335
1277
-325
101
-266
-282
313
-1162
-29
285
60
161
10
-1
-4
-9
1
10
-8
-2
-9
7
-12
6
-100
-4
4
-445
1420
58
-392
-188
67
0
757
621
879
581
-1
127
181
390
-1036
1073
-411
499
17
-489
48
-755
183
127
214
-986
790
23
-354
-32
-1116
824
-273
52
59
-17
-237
-9
-56
-483
-738
-1003
-284
968
-111
-145
-278
639
-1032
-123
406
859
858
945
1331
-746
202
1307
-1251
7
-383
-631
924
-59
-66
-398
-1188
-1130
1132
206
464
-726
-1133
-388
665
948
105
239
-60
-60
29
-50
-616
757
673
531
-345
1133
-206
-32
-605
13
546
-44
312
1093
363
6
-461
-1202
779
-263
582
46
1361
-228
-246
-1010
534
449
21
82
-355
-10
206
-112
801
-111
201
72
-29
360
-210
-549
-649
255
25
53
1174
-398
-359
167
-62
1156
178
160
471
75
500
508
31
484
-1500
-240
48
45
125
45
-235
35
401
-274
-369
267
-142
504
-359
-9
377
-1158
-260
-251
-978
-688
641
-150
-361
68
116
143
605
146
57
1088
-932
633
-635
177
-988
-1
255
-109
32
377
38
260
602
-283
859
-326
359
66
722
568
-340
92
-55
736
590
-132
-1247
43
-110
-500
30
203
1053
-907
-551
691
-791
686
-1069
-282
722
311
-1287
-329
1251
-322
100
-263
-279
310
-1172
-29
288
61
163
10
-1
-4
-9
1
10
-8
-2
-9
7
-12
6
-105
-4
4
-445
1420
58
-392
-188
65
0
745
612
865
566
-1
124
176
380
-1026
1062
-407
494
882
-474
48
-731
177
124
1391
-971
778
23
-348
-32
-1116
824
-273
52
64
-17
-244
-9
-61
-463
-710
-963
-272
930
451
1183
-237
-785
-573
-123
406
859
858
945
1134
67
520
-185
-111
7
-379
-625
915
-58
-67
-402
-1200
-1141
1143
204
460
-720
-1124
-385
1248
854
979
634
-332
-59
29
-49
-610
749
150
534
-347
1139
-207
-32
-653
13
536
-44
313
1097
364
6
-463
-1178
763
-257
570
46
1375
-1129
-265
-1020
539
449
21
82
-355
-10
204
-111
793
-110
199
-465
-29
545
-210
-270
-637
249
25
51
1150
-390
-351
163
-60
1133
174
156
461
73
490
504
31
480
-791
-806
48
45
125
45
-235
35
400
-273
-368
266
-75
681
-319
-9
58
-1124
292
-244
-948
-667
642
-177
-362
40
116
141
593
144
55
1066
-933
633
-636
177
-1415
-11
474
-108
32
373
38
59
600
-311
855
-320
351
64
708
556
-331
89
-52
715
572
-331
-1235
206
-373
-181
30
203
1053
-907
-551
684
-783
679
-1058
-279
721
311
-1286
-329
1250
-313
97
-634
-270
417
-1162
-29
285
60
161
10
-1
-4
-9
1
10
-8
-2
-9
7
-12
6
-107
-4
4
-445
1420
58
-392
-188
68
0
765
627
888
581
-1
127
181
390
-1026
1062
-407
494
17
-489
48
-755
183
127
215
-991
794
23
-356
-32
-1138
840
-279
54
65
-17
-246
-9
-62
-483
-904
-1003
-284
968
456
1195
-239
-793
-579
-123
406
859
858
945
1145
68
525
-187
-112
7
-383
-631
924
-59
-68
-406
-1212
-1153
1155
208
469
-733
-1144
-392
672
961
-82
241
-61
-61
29
-51
-622
765
670
529
-344
1485
-205
-32
-605
13
546
-44
-122
1097
364
6
-463
-1214
787
-266
588
46
1375
-1129
-265
-1020
539
454
21
83
-359
-194
208
-113
809
-112
203
-465
-29
545
-210
-270
-656
258
25
54
1186
-398
-359
167
-62
1156
180
162
476
76
505
508
209
484
-1166
415
48
45
128
45
-240
35
409
-280
-377
273
-76
685
-321
-9
59
-1146
298
-248
-968
-681
642
-177
-362
40
116
144
611
147
58
1099
-941
639
-641
179
-998
-11
484
-110
32
381
38
60
602
-312
859
-323
355
65
715
562
-40
93
-56
743
596
-132
-1247
43
-110
-500
30
203
1053
-907
-551
691
-791
686
-1069
-282
736
317
-1313
-335
1277
-325
101
-266
-282
313
-1150
-29
282
59
-104
10
-1
-4
-9
1
10
-8
-2
-9
7
-12
6
-107
-4
4
-619
1378
55
-380
-182
67
0
757
621
879
569
-1
125
177
382
-1026
1062
-407
494
17
-489
48
-755
183
127
206
-944
757
-1328
-338
-32
-1094
808
-267
50
64
-17
-244
-9
-61
-478
-320
-993
-254
958
891
-146
-207
645
-224
-124
-278
868
867
955
1318
-333
361
548
-670
7
-379
-625
915
-58
-65
-394
-1176
-1119
1121
206
464
-726
-1133
-388
671
960
-70
241
-61
-59
29
-49
-610
749
656
519
-338
1106
-201
-32
-587
13
531
-44
313
1097
364
6
-463
-663
942
-529
107
-111
1361
-228
-246
-1010
534
445
21
81
-351
-10
206
-385
801
-111
201
-460
-29
356
-208
-267
-656
258
25
54
1186
-398
-359
167
-62
1156
176
158
466
74
495
498
31
474
-1470
-236
48
45
125
45
-235
35
397
-271
-365
264
-126
547
-350
-9
301
-1146
-831
-248
-968
-681
630
-173
-354
40
114
140
587
143
54
1055
-941
639
-641
447
-998
21
-235
-110
32
381
38
146
597
-296
851
-323
355
65
715
562
-340
92
-55
736
590
-132
-1247
43
-110
-500
30
203
1053
-907
-551
677
-775
672
-1047
-276
715
308
-1274
-326
1238
-319
99
-260
-276
307
-1162
-29
285
60
161
10
-1
-4
-9
1
10
-8
-2
-9
7
-12
6
-103
-4
4
-441
1406
57
-388
-186
63
0
728
598
844
575
-1
126
179
386
-1018
1053
-404
490
17
-69
48
-724
175
123
215
-991
794
23
-356
-32
-1138
840
-279
54
62
-17
-240
-9
-59
-463
-710
781
-272
621
456
1195
-239
-793
-579
-122
402
850
849
936
1145
68
525
-187
-112
7
-375
-619
906
-57
-66
-398
-1362
-1130
1132
199
449
-703
-1097
-375
673
963
-82
241
-61
-60
29
-50
-616
757
645
511
-333
1088
-198
-32
-581
13
526
-44
307
1075
356
6
-453
-1190
771
-260
576
46
1361
-1118
-262
-1470
534
454
21
83
-359
-10
208
-113
809
-112
203
-460
-29
540
-208
-267
-643
252
25
52
1162
-390
-351
163
-60
1133
178
160
471
75
500
498
31
474
-783
-236
48
45
123
45
1290
35
409
-280
-377
273
-73
664
-312
-9
56
-1124
292
-244
-948
-667
636
-175
-358
40
115
143
605
146
57
1088
-941
639
-641
179
-998
-11
-128
-107
32
369
38
58
590
-306
842
-323
355
65
715
562
-331
89
-52
769
572
-132
-1247
43
-110
-967
30
205
1064
-916
-557
683
-782
678
-1057
-279
736
317
-1313
-335
1277
-319
392
-260
-276
307
-1138
-29
279
58
157
10
-1
-4
-9
1
10
-8
-2
-9
7
-12
6
-107
-4
4
-449
1434
59
-396
-190
68
0
765
627
888
581
-1
127
181
390
-1036
1073
-411
499
17
-489
48
-755
183
127
215
-991
794
23
-356
-32
-1150
848
-282
55
65
-17
-246
-9
-62
-483
-738
-1003
-284
968
456
1195
-239
-793
-579
-124
410
868
867
955
1145
68
525
-187
-112
7
-383
-631
924
-59
-68
-406
-1212
-1153
1155
208
469
-733
-1144
-589
672
961
-82
241
-61
-61
29
-51
-622
765
677
534
-347
1139
-207
-32
-605
13
546
-44
316
1108
368
6
-468
-1214
787
-266
588
46
1389
-1140
-268
-1030
544
454
21
83
-359
-10
210
-114
817
-113
205
-465
-29
545
-210
-270
-656
258
25
54
1186
-398
-359
167
-62
1156
180
162
476
76
505
508
31
484
-799
-240
48
45
125
45
-235
35
409
-280
-377
273
-77
692
-324
-9
60
-1158
301
-251
-978
-688
642
-177
-362
40
116
144
611
147
58
1099
-951
645
-647
181
-1008
-11
484
-110
32
381
38
60
602
-312
859
-326
359
66
722
568
-343
93
-56
743
596
-133
-1260
43
-111
-505
30
205
1064
-916
-557
698
-799
693
-1080
-285
736
317
-1313
-335
1277
-325
101
-266
-282
313
-1162
-29
285
60
161
10
-1
-4
-9
1
10
-8
-2
-9
7
-12
6
-109
-4
4
-440
1403
57
-387
-186
67
0
757
961
879
575
60
126
179
386
-1036
1073
-411
499
17
-484
48
-747
181
126
215
-991
794
23
-356
-32
-1150
848
-282
55
63
-17
-242
-9
-60
-483
-738
-1003
-284
968
451
1182
-237
-784
-573
-123
406
859
858
945
1123
66
515
-183
-110
7
392
-625
915
-58
-67
-402
-1200
-1141
1143
206
464
-726
-1133
-388
665
951
-81
239
-60
-59
29
-49
-610
749
1177
529
-344
1128
-205
-32
-605
13
546
-44
316
1109
368
6
-468
-1485
771
-260
576
46
1361
-1118
-262
-1010
534
441
21
80
-347
-10
208
-113
809
-112
203
-450
-29
530
-204
-261
-653
257
25
54
1180
-394
-355
165
-61
1144
176
158
466
74
495
497
31
473
-782
-236
48
45
125
63
-235
35
409
-280
-377
1352
-76
685
-321
-9
59
-1146
298
-248
-968
-681
636
-175
-358
40
115
142
599
145
56
1077
-941
639
-641
179
-998
-11
484
-110
32
381
38
59
596
-309
850
-319
349
64
705
553
-340
92
-55
736
-806
-131
-1247
43
-109
-493
30
203
1053
-907
61
1386
-783
340
-1058
-279
715
308
-1274
-326
1238
-322
153
-263
1146
310
-1162
-29
285
60
161
10
-1
-4
-9
1
10
-8
-2
-9
7
-12
6
-107
-4
4
-431
1374
53
-378
-181
67
0
757
621
879
575
1021
126
179
386
-1016
1051
-403
489
17
197
48
-740
179
125
211
-972
778
23
-348
-32
-1127
832
-276
53
63
-17
-242
-9
-60
-483
-738
-1003
-284
968
451
1183
-237
-785
-973
-122
402
850
849
936
1123
66
515
-183
-110
7
-379
-1485
915
-58
537
-405
-1210
-1151
1153
207
466
-410
-1136
-515
778
945
-50
195
-558
-60
29
-50
-616
757
670
529
-344
1128
-205
-32
-593
13
536
871
310
1086
360
6
-458
-1190
771
-260
576
46
1349
-1105
-262
-1001
530
441
21
80
-347
-10
206
-112
803
-111
201
-460
-29
540
-208
-267
-651
256
25
53
1178
-394
-355
165
-61
1144
178
160
471
75
500
510
31
486
-586
-241
707
45
123
45
-231
35
405
-278
-374
271
-75
678
-318
-9
58
-1152
300
-250
-973
-685
630
-173
-354
40
114
143
605
146
57
1088
-799
60
-686
73
-517
-11
479
-109
32
377
38
57
584
-303
834
-323
355
65
715
562
-343
93
-56
743
596
-132
-1247
43
-110
-500
30
201
1044
-899
-546
691
-791
686
-1069
-282
832
313
-1293
-331
1080
-322
100
-263
-279
310
-1127
-29
276
-141
13
10
-1
-4
-9
1
10
-8
-2
-9
7
-12
6
-107
-4
4
-449
1434
59
-396
-190
68
0
290
627
888
575
-1
126
179
386
-1026
1062
-407
-224
-502
-479
48
-740
179
125
213
-981
786
23
-352
-32
-1150
848
-282
55
64
-17
-244
-9
-61
-504
-767
-1044
-296
1007
452
1186
-238
-787
-575
-122
402
1500
849
936
1134
67
520
-185
-111
7
-367
-607
888
-55
-66
-399
-1180
-1130
1132
203
458
-725
-1119
44
658
941
-80
237
-59
-61
29
-51
-622
765
685
540
-351
1152
-209
-32
-587
13
531
-44
313
1097
364
6
-463
-1190
771
-260
576
46
1389
-1140
-268
-1030
578
449
21
82
-355
-10
204
-111
795
-110
199
-450
-29
530
-204
-261
-649
255
25
53
1174
-382
-344
159
-58
1111
176
158
466
74
495
498
31
474
-783
-236
48
45
123
45
-231
35
409
-280
-377
273
-77
691
-324
-9
60
-1103
1102
-254
-941
-655
630
-173
-354
40
114
139
581
142
53
1044
-932
633
-635
177
-988
-11
479
-109
32
377
38
58
590
-306
842
-323
355
65
715
562
-334
-925
311
722
578
-132
-1247
43
-110
-500
30
201
651
-898
-545
685
-784
680
-1059
-279
729
314
-1300
-332
1264
-319
99
-260
-276
307
-662
-29
279
58
157
10
-1
-4
-9
1
10
-8
-2
-9
7
-12
6
-106
-4
4
-449
1434
59
-396
-190
68
0
765
627
888
575
-1
126
179
386
-1026
1062
-407
494
17
-794
48
-755
183
-897
215
-991
794
23
-356
-761
-1138
840
-279
54
64
-17
550
-9
-61
-482
-736
-1000
-283
965
454
1190
-238
-790
-577
-124
410
868
867
955
1134
67
-608
-567
-111
7
-379
-625
915
-58
-67
-402
-1200
-1141
1143
206
464
-726
-1133
-388
670
958
228
240
-61
-61
29
-51
-622
1500
677
534
-347
1139
-207
-32
-599
13
541
-44
862
1097
364
6
-463
-1197
776
-262
579
46
1376
-1129
-265
-1020
539
455
21
83
-359
-10
210
-114
817
-113
424
-447
-360
534
-235
-195
-656
258
25
54
1186
-475
-359
167
86
1156
176
1500
466
74
495
498
31
-742
-1485
-236
48
45
123
45
-231
35
405
-277
-373
270
-13
685
-321
-9
59
-1147
298
-248
-969
-682
630
-173
-354
40
114
142
597
145
56
1073
-941
639
-641
179
-998
-11
479
-970
-1259
377
63
62
-316
-317
850
-323
355
65
715
562
-336
90
-53
727
582
-95
-1228
104
35
-398
30
206
1071
-922
-561
698
-192
693
-1080
-285
736
317
-1313
-335
1277
-319
99
-260
-276
307
-1127
-29
276
57
-321
10
-1
-4
-9
1
10
-8
-2
-9
7
-12
6
-107
-4
4
-441
1406
57
-388
-186
66
0
749
615
870
-523
-625
-986
177
-214
-1026
1062
-407
494
17
-486
48
-750
182
126
211
-971
778
23
-348
-32
-1150
848
-282
55
65
376
-246
-9
-62
-483
-738
-1003
-284
968
451
1184
-237
-786
-574
-122
402
850
849
936
1145
68
525
-187
-112
-83
-328
-617
928
-56
-65
-394
-1176
-1119
1121
206
464
-726
-1133
-388
658
941
-80
237
-59
-59
29
-49
-610
749
663
524
-341
1117
-203
-32
-599
13
541
-44
316
1108
368
6
-468
-1190
771
-260
576
46
1133
-1457
-1500
-1325
687
454
21
83
-359
-10
201
-109
779
-108
196
-460
-194
1386
-208
-267
-643
252
25
52
1162
-394
-355
165
-61
1144
174
156
1222
73
490
483
31
459
-759
-230
48
45
122
45
-229
35
409
-280
-377
-915
-76
685
-321
-9
59
-1135
295
-246
-958
-674
630
-173
-354
40
114
141
593
144
55
1066
-951
645
-647
181
-1008
-11
479
-109
32
377
38
58
590
-306
842
-327
360
-274
962
570
-337
91
-54
729
584
-132
-1453
43
-110
-500
30
203
1053
-907
-551
691
-791
686
-1069
-282
693
299
-1234
-317
1199
-319
99
-260
-276
307
-1162
-29
285
60
161
10
-1
-4
-9
1
10
-8
-2
-9
7
-12
6
-107
-4
4
-445
1420
58
-392
-188
70
0
765
627
889
583
-1
127
182
391
-1007
1041
-399
484
17
-479
48
-740
179
125
209
-961
770
23
-345
-32
-1127
832
-276
53
64
-17
-244
-9
-61
-478
-731
-993
-281
958
456
1195
-239
-793
-579
-124
410
868
867
955
1318
-333
361
548
-670
7
-383
-631
924
-59
-66
-398
-1188
-1130
1132
202
454
-712
-1111
-380
656
941
-28
237
-157
-59
29
-49
-610
749
649
514
-335
1095
-199
-32
-599
13
541
-44
307
1075
356
6
-453
-1202
779
-263
582
46
1334
-1096
-256
-990
524
437
21
79
-344
-10
202
-110
785
-109
197
-460
-29
540
-208
-267
-641
251
25
52
1159
-1069
350
105
-56
1318
178
160
471
75
500
503
31
479
-791
-238
48
45
124
45
-233
35
1391
-274
-368
267
-76
685
-344
448
59
-1135
1143
-285
-958
-674
639
-176
-360
40
116
140
587
143
54
1055
-939
637
-638
178
-995
21
-231
-108
32
373
38
59
596
-309
850
-317
347
63
701
550
-340
92
-55
736
590
-132
-1247
43
-110
-500
30
203
1053
-907
-551
691
-791
686
-1069
-282
711
306
-1269
-324
1234
-316
98
-257
-273
304
-1116
-29
273
56
153
10
-1
-4
-9
1
10
-8
-2
-9
7
-12
6
-107
-4
4
-444
1416
58
-391
-187
64
0
770
606
857
575
-1
126
179
386
-1036
1073
-411
499
17
-484
48
-747
181
126
215
-991
794
23
-356
-32
-1150
848
-282
55
65
-17
-246
-9
-62
-483
-738
-1003
-284
968
456
1195
-239
-793
-579
-124
410
868
867
955
1145
68
525
-187
-112
7
-383
-631
924
-59
-67
-402
-1200
-1141
1143
204
459
-719
-1122
-384
734
915
-490
170
155
-60
29
-50
-616
757
677
534
-347
1139
-207
-32
-597
13
539
-44
313
1097
364
6
-463
-1202
779
-263
582
46
1375
-1129
-265
-1020
539
453
21
174
-358
-10
210
-114
817
-113
205
-477
-13
550
-185
-336
-649
255
25
53
1174
-1135
-290
110
-61
1385
178
160
471
75
500
508
31
484
-799
-240
48
45
124
45
-233
35
403
-275
-371
268
-76
692
-324
-9
59
-1158
301
-251
-978
-688
630
-173
-354
40
114
142
599
145
56
1077
-951
645
-647
181
-1008
-42
1191
-110
32
381
38
59
596
-309
850
-326
359
66
722
568
-340
92
-55
736
590
-132
-1247
43
-110
-500
47
268
1064
-1023
124
691
-791
686
-1069
-282
729
314
-1300
-332
1264
-324
101
-265
-281
312
-1150
-29
282
59
159
10
-1
-4
-9
1
10
-8
-2
-9
7
-12
6
-104
-4
4
-562
1400
57
-394
277
66
0
749
615
870
569
-1
125
177
382
-1026
1062
-407
494
933
-479
48
-961
179
125
213
-981
786
23
-352
-32
-1150
848
-282
-149
64
-17
-244
-9
-61
-479
-732
-994
-281
959
438
1147
-231
-761
-555
-123
406
859
858
945
1134
67
1491
-185
-111
7
-371
-613
1157
-56
-63
-387
-1202
-1099
1101
200
559
-812
-1339
-376
665
951
-896
239
-60
-60
29
-50
-616
757
649
514
-335
1095
-199
-32
-586
21
531
-37
307
1074
356
6
-517
-1202
779
-263
582
46
1334
-1096
-256
-990
524
441
21
80
-347
-10
206
-112
801
-111
201
-455
-29
535
-206
-264
-643
252
25
52
1162
-382
-344
159
-58
1111
506
158
466
74
495
512
31
488
-791
-238
48
45
122
45
-229
35
405
-277
-373
270
-75
678
-318
-9
58
-1163
289
-252
-981
-660
630
-1485
-354
40
114
144
611
147
58
1099
-941
639
-641
179
-998
-11
474
-108
32
373
38
59
596
-309
850
-317
347
63
701
550
-333
226
-53
720
1470
-132
-1247
43
-110
-500
30
201
1042
-898
-545
670
-767
665
-1037
-273
515
-454
-409
438
1226
-317
98
-258
-274
305
-1094
-29
267
54
149
10
-1
-4
-9
1
10
-8
-2
-9
7
-12
6
-105
-4
4
-437
1392
56
-384
-184
66
0
749
615
870
575
-1
126
179
386
-1026
1062
-407
494
545
-474
48
-733
177
124
213
-981
786
23
-352
-32
-1091
807
-266
50
64
-17
-244
-9
-61
-483
-738
-1003
-284
968
-108
-142
-269
621
-1002
-122
402
850
849
936
1318
-333
361
548
-670
7
-379
-625
915
-58
-69
-411
-1227
-1167
1169
196
441
-691
-1078
-368
644
921
102
233
-531
-58
29
-49
-604
742
662
523
-340
1115
-203
-32
-581
13
526
-44
307
1075
356
6
-453
-1214
787
-266
588
46
1347
-226
-244
-1000
529
441
21
80
-347
-10
202
-110
785
-109
197
-455
-29
352
-206
-264
-637
250
25
51
1152
-386
-347
742
-59
1122
174
156
461
73
490
508
31
484
-1500
-240
48
45
124
45
-233
35
397
-271
-365
264
-781
481
-348
-9
891
-1135
-254
-246
-715
-674
618
-169
-346
40
112
144
611
147
58
1099
-937
636
-638
178
-993
21
-229
-107
32
369
38
254
590
-277
842
-320
351
64
708
556
-337
91
-54
729
584
-131
-1235
43
-109
-495
30
199
1032
-889
-540
677
-775
672
-1047
-276
722
311
-1287
-329
1251
-316
98
-257
-273
304
-1117
-29
273
56
153
10
-1
-4
-9
1
10
-8
-2
-9
7
-12
6
-104
-4
4
-1500
1434
59
-396
-190
68
0
765
627
888
581
-1
127
181
390
-1026
1062
-407
494
17
-484
48
-7
181
126
213
-983
788
23
-353
-32
-1141
842
-280
54
63
-17
-242
-9
-60
-483
-738
-1003
-284
968
456
1195
-239
-793
-579
-124
410
868
867
955
1134
67
520
-185
-111
7
-379
-625
915
-58
-66
-398
-1188
-1130
1132
208
469
-990
-1144
-392
672
961
-82
241
-61
-60
29
-50
-616
757
677
534
-347
1139
-207
-32
-605
13
546
-44
316
1108
368
6
-468
-1214
787
-266
588
46
1389
-1140
-268
-1030
544
449
21
82
-355
-10
208
-113
809
-112
203
-465
-29
545
-210
-270
-656
258
25
54
1186
-394
-355
165
-61
1144
178
160
471
75
500
508
31
484
-799
-240
48
45
124
45
-233
35
405
-277
-373
270
-76
685
-321
-9
59
-1158
301
-251
-978
-688
642
-177
-362
40
116
144
611
147
58
1099
-941
639
-641
179
-998
-11
484
-110
32
381
38
57
583
-303
832
-323
355
65
715
562
-343
93
-56
743
596
-133
-1260
43
-111
-505
30
205
1064
-916
-557
685
-784
680
-1060
-279
736
317
-1313
-335
1277
-325
101
-266
-282
313
-1150
-29
282
59
159
10
-1
-4
-9
1
10
-8
-2
-9
7
-12
6
-107
-4
4
-441
1406
57
-388
-186
67
0
667
621
879
563
-1
124
175
378
-1016
1051
-403
489
831
-479
48
-308
179
545
213
-981
155
23
-352
-32
-1095
809
-267
-90
65
-17
-246
-188
-62
-478
-731
-993
-281
958
344
1035
-219
-678
-662
-124
410
868
189
955
1134
67
520
-185
-111
-56
-379
-749
809
72
-773
-394
-1176
-1119
1121
202
454
-712
-1111
-380
665
951
1084
239
-60
-62
127
-52
-1204
770
768
566
-344
1235
-185
-32
-605
13
546
-44
310
1086
570
98
133
-1202
779
-263
582
46
1389
-1140
-268
-1030
544
444
21
81
-350
-10
206
-273
801
-968
201
-465
-29
545
-210
-270
-649
255
25
53
1174
-386
-347
161
-59
1122
174
156
-73
73
1214
503
31
479
-791
484
48
45
125
45
-235
35
403
-276
-876
269
-77
692
-324
-9
60
-1158
301
-251
-978
-688
642
-177
-362
40
116
141
593
144
55
1066
-951
645
-647
181
-1008
-11
-1004
-108
32
373
38
58
590
-306
842
-311
340
1149
1376
1017
-334
90
-53
722
578
-131
-1235
43
-109
-495
30
203
1053
-907
-551
691
-791
686
-1069
-282
715
308
-1274
-326
1238
-318
99
786
-275
804
-1154
-29
283
59
160
10
-1
-4
-9
1
10
-8
-2
-9
7
-12
6
-107
-4
4
-433
1378
55
-380
-182
335
0
757
621
879
575
-1358
126
179
386
-1016
1051
-403
489
17
-484
48
-747
181
126
215
-989
792
23
-355
-32
-588
848
-246
813
63
-17
-242
-9
-60
-480
-734
-998
-282
963
451
1183
-237
-785
-573
-122
402
850
849
936
938
-442
525
-187
-112
7
-379
-625
915
-58
-66
-398
-1188
-1130
1132
1485
464
-726
-1485
-388
665
951
-81
239
-60
-61
29
-51
-622
765
670
529
-344
1128
-205
-32
-576
13
522
-44
313
1097
364
6
-463
-1190
771
-260
576
46
1361
-1118
-262
-1010
534
454
21
83
-359
-10
204
-111
793
-110
199
-465
75
545
-210
-270
-289
252
25
52
1162
-1106
1038
-11
-76
1144
180
162
476
76
505
491
31
467
-771
-233
1000
45
124
45
-233
35
405
-277
-373
270
-76
685
-321
-9
59
-1146
298
-248
-968
-681
772
85
-347
40
101
144
611
147
58
1099
-951
645
-647
181
-1008
-11
482
-110
32
379
38
58
558
-306
842
-315
345
62
697
546
-340
92
-55
736
590
-95
-1223
43
-108
247
30
203
1053
-907
-551
691
-791
686
-1069
-282
729
314
-1300
-332
1264
-325
101
-1500
-282
313
-1162
-29
285
60
161
10
-1
-4
-9
1
10
-8
-2
-9
7
-12
6
-107
-4
4
-729
1392
56
-364
-184
66
0
749
615
870
-523
-625
-986
177
-214
-1026
1062
-407
494
17
-488
48
-753
182
127
212
-1051
801
-94
-761
-32
-1154
604
-283
55
65
-17
-246
-9
-62
-473
-724
-983
-278
948
451
1183
-237
-1085
-573
-123
405
857
856
943
1145
68
525
-187
-112
7
-371
-613
897
-56
-63
-386
-1152
-1097
1099
206
464
-725
-1132
-388
655
937
-579
236
-59
-63
29
-53
-631
777
663
524
-341
1117
-203
-32
-599
13
541
-44
310
1086
360
6
-458
-1179
764
-257
571
46
1361
-1457
-230
-1325
687
449
21
82
-355
-10
202
-110
785
-109
197
-455
-29
535
-206
-264
-643
252
25
1500
1162
-390
-351
163
-60
1133
172
154
456
72
485
505
31
481
-793
-239
48
45
123
45
-232
35
409
-280
-377
273
-75
676
-317
-9
58
-1135
1447
-246
-958
-821
624
-171
-350
40
113
142
599
145
56
1077
-951
645
-647
181
-1008
-11
474
-108
32
373
38
58
590
-306
842
-320
351
-243
923
556
-337
91
355
729
584
-132
-1247
43
638
-500
329
205
1064
-916
318
696
-797
691
-1077
-284
686
296
-1222
-314
1187
-316
98
-257
-273
304
-1150
-29
282
59
159
10
-1
-4
-9
1
10
-8
-2
-9
7
-12
6
-104
-4
4
-446
1424
58
-393
-189
67
972
855
621
879
575
-1
126
179
386
-1036
1073
-411
499
17
-474
48
-732
177
124
215
-991
794
23
-356
-32
-1127
832
-276
53
63
-17
-242
-9
-60
-473
-724
-983
-278
948
456
1194
-239
-792
-579
-123
406
859
806
903
1123
66
515
-1026
-110
-881
-379
-625
915
-58
-68
-406
-1212
-1153
1155
204
459
-719
-1122
-384
665
951
-81
239
-60
-61
29
-51
-622
765
677
534
353
1139
-207
-32
-599
13
-1500
-44
-337
1108
368
6
-468
-884
779
-263
582
46
1389
-1140
-268
-1030
544
454
21
83
-359
-10
208
-113
809
-112
203
-448
-45
534
-233
-321
-643
890
25
52
1162
-398
-359
167
-62
1156
176
158
466
74
495
503
31
479
-790
-238
48
45
125
45
-235
35
405
-277
-373
270
-76
685
-1500
-9
59
-1124
292
-244
-948
-667
636
-175
-358
40
115
762
590
144
55
1061
-941
639
-641
179
-998
-11
485
-110
32
382
32
57
805
-303
840
-323
355
65
715
562
-337
91
-54
729
584
-133
-1260
43
-111
-505
30
202
1047
-902
-548
684
-783
679
-1058
-279
736
317
-1313
-335
1277
-330
103
-271
-287
318
-1150
-29
282
59
159
10
-1
-4
-9
1
10
-8
-2
-9
7
-12
6
-108
-4
4
-445
1420
58
-392
-188
-100
13
928
664
1019
563
-1
124
175
378
-1143
1059
-406
493
17
-484
127
-747
181
427
1500
-1500
794
23
44
-32
-1116
824
-273
52
64
-17
-244
-9
-61
-463
-710
-963
-272
930
442
1159
-233
-769
-561
-122
16
850
849
1460
1145
68
525
-187
-112
7
-383
-631
923
-59
-65
-394
-1176
-1119
1121
206
464
-726
-1133
-388
675
1428
-82
242
-61
-60
279
-50
-616
757
559
494
-345
1137
-203
-32
-582
13
527
-44
315
1106
-859
666
-467
-1190
771
-260
576
533
1375
-1129
-265
-1020
539
441
21
585
-347
-10
208
-113
809
-112
203
-455
-29
535
-206
-264
-643
252
25
52
1162
-394
-355
165
-61
1144
180
-1500
476
76
505
1104
31
469
-775
-234
48
45
124
45
-233
35
405
-277
-373
270
-141
731
-194
-17
233
-1135
295
-246
-958
-674
619
-169
-347
40
112
141
594
438
55
1068
-926
629
-631
176
-982
-11
480
-109
32
378
38
60
604
-313
861
-318
348
63
703
552
-487
-802
-52
721
764
-146
-1235
43
-196
-535
30
199
1032
-889
-540
697
-798
692
-1078
-285
736
317
-1313
-335
1277
-319
99
-260
-276
-117
-1111
-371
282
-78
159
10
-1
-4
-9
1
10
-8
-2
-9
7
-12
6
-108
-4
4
-437
1392
56
-384
-184
70
0
743
610
866
987
-1
126
179
386
-1006
1040
-399
484
17
-484
48
-747
181
126
210
-964
773
23
-346
-32
-1105
816
-270
51
62
-17
-240
-9
-59
564
-731
-993
-281
958
450
1182
-339
-784
-573
-114
369
783
782
862
1112
65
510
-181
-109
7
-367
-608
889
-55
-66
-397
-1185
-1128
1130
202
454
-712
-1111
-380
671
960
-82
241
-61
-57
29
-49
-598
735
656
519
-338
1106
-201
-32
-593
13
1470
-44
786
1075
577
6
-482
-1500
869
-257
570
46
1371
-1126
-264
-1017
538
440
21
81
-349
-10
844
-102
272
-782
5
-450
-29
530
-204
-261
-702
249
25
51
1418
-390
-351
163
-60
1133
1176
162
476
76
505
488
31
464
-767
-232
48
45
124
-523
-225
35
389
-265
-357
258
-73
664
-312
-9
56
-1158
301
-251
-978
-688
642
-177
-362
-1472
116
141
594
144
55
1068
-941
639
-641
179
-998
-11
478
-109
32
377
398
-774
584
-303
1455
-311
341
61
687
540
-337
91
-54
729
584
-131
-1235
43
-109
-495
30
201
1042
-898
-545
677
-775
672
-1047
-276
715
308
-1274
-326
1238
-577
419
103
-612
-414
-1126
-29
275
57
154
10
-1
-4
-9
1
10
-8
-2
-9
7
-12
6
-107
-4
4
-445
1420
58
-392
-188
63
0
779
596
842
575
-1
126
179
386
-1036
1073
-411
499
17
-474
48
-305
177
540
213
-981
786
23
-352
-32
-1138
840
-279
54
63
-17
-242
-9
-60
-478
-731
-993
-281
958
265
929
-207
-601
-736
-123
406
859
858
945
1145
68
525
-187
-112
7
-379
-625
915
-58
-797
-406
-1212
-1153
1155
206
464
-726
-1133
-388
585
980
1073
310
-289
-59
29
-49
-610
749
677
534
-347
1139
-207
-32
-588
13
532
-44
313
1097
364
6
-463
-1203
1364
-1209
-1107
-510
1375
-1129
-265
-1020
539
449
21
82
-355
-10
210
-114
817
-113
205
-450
-29
530
-204
-261
-657
259
25
54
1188
-398
-359
167
-62
107
178
160
471
670
500
508
31
484
-799
-240
232
70
115
-18
-277
35
409
33
-377
273
-77
692
-324
-9
60
-1146
298
-248
-968
-681
637
-175
-359
40
115
143
605
146
816
1088
716
639
-641
179
-998
-11
474
-108
32
373
38
60
602
-312
859
-320
351
64
1048
556
-337
91
-54
729
584
-104
678
58
859
-907
30
201
1042
-898
-545
700
-802
695
-1084
-286
729
314
-1299
-332
1139
-320
99
-261
-277
308
-1162
-29
285
60
161
10
-1
-4
-9
1
10
-8
-2
-9
7
-12
6
-107
-4
4
-449
1434
59
-396
-190
180
-9
381
585
773
581
-1
127
181
390
-1026
1062
-407
494
17
-489
48
-755
183
127
215
-975
794
23
-356
-32
-1150
848
-282
55
64
-17
-244
-9
-61
-483
-738
-1003
-284
968
456
1195
-239
-793
380
-124
410
868
867
955
1145
68
525
-414
-112
7
-383
-738
924
-59
-68
-406
-1212
-1153
1155
208
469
-733
-1144
-392
727
906
-485
168
153
-61
29
-51
-622
765
677
534
-347
1139
-207
-32
-599
13
541
-44
313
1098
364
6
-464
-1202
779
-263
582
46
1375
-1129
-265
-1020
539
454
21
83
-359
-10
210
-114
817
-113
205
-465
-29
545
-210
-270
-656
258
25
-681
1186
-782
-466
992
-60
1260
169
151
449
71
478
508
789
484
-799
-193
48
45
125
45
-235
35
409
-280
-377
273
-76
685
-321
-9
59
-1146
298
-248
-968
-681
636
-175
-358
40
115
144
611
147
58
1099
-941
639
-641
179
-998
-11
484
-110
32
381
38
60
602
-312
859
-326
359
66
722
568
-343
93
-56
743
596
-132
-1247
43
-110
-500
30
205
1064
-916
-557
698
-799
693
-1080
-285
736
317
-1313
-335
1277
-325
101
-266
-282
313
-1029
-29
285
60
161
10
-1
-4
-9
1
10
-8
-2
-9
7
-12
6
-107
-4
4
-461
1477
62
-408
904
68
0
765
627
888
1500
-1
127
181
-150
-1036
1073
-411
499
17
-484
48
-747
181
126
215
-991
794
23
-356
-32
-1150
848
-282
55
65
-17
-246
-9
-62
-483
-738
-1003
-284
968
456
1195
-239
-793
-579
-123
406
859
858
945
1134
67
520
-185
-111
7
-383
-631
924
-59
-68
-406
-1212
-1153
1155
208
469
-733
-1144
-392
672
961
-82
241
-61
-61
29
-51
-622
765
677
534
-347
1139
-207
-32
-611
13
551
-44
316
1108
368
-596
330
-1214
787
-266
588
46
1389
-1205
-268
-434
544
442
21
34
-349
-10
215
-117
839
-116
210
-465
-29
545
-210
-270
-656
258
25
54
1186
-398
-359
167
-62
1156
178
160
471
75
500
503
31
479
-791
-238
48
45
125
45
-235
35
409
-280
-377
273
-77
692
-324
-9
60
-1158
301
-251
-978
-688
642
-177
-362
40
116
144
611
147
58
1099
-919
625
-627
174
-974
-11
479
-109
32
377
38
60
602
-312
859
-326
359
66
722
568
-340
92
-55
736
590
-133
-1260
43
-111
-505
30
205
1064
-916
-557
691
-791
686
-1069
-282
736
-14
-1191
-335
1277
-325
101
-266
-282
313
-1162
-29
285
60
161
10
-1
-4
-9
1
10
-8
-2
-9
7
-12
6
-107
-4
4
-441
1406
57
-388
-186
66
0
749
615
870
-518
-619
-976
175
-212
-1016
1051
-403
489
17
-489
48
-755
183
127
212
-974
780
23
-349
-32
-1138
840
-279
54
65
376
-246
-9
-62
-483
-738
-1003
-284
968
446
1172
-235
-778
-568
-122
402
714
849
936
1134
67
520
-185
-111
-82
-325
-611
919
-55
-64
-390
-1164
-1108
1110
206
464
-726
-1133
-388
658
941
-80
237
-59
-55
29
-47
-584
717
663
524
-341
1117
-203
-32
-587
13
531
-44
316
1108
368
6
-468
-1190
771
-260
576
46
1122
-1442
-1485
-1312
680
454
21
83
-359
-10
204
-111
793
-110
199
-460
-194
1386
-208
-267
-643
252
25
52
1162
-394
-355
165
-61
1144
174
156
1222
73
490
483
31
459
-759
-230
48
45
123
45
-230
35
405
-277
-373
-906
-76
685
-321
-9
59
-1124
292
-244
-948
-667
624
-171
-350
40
113
141
593
144
55
1066
-951
645
-647
181
-1008
-11
474
-108
32
373
38
57
584
-303
834
-326
359
-247
941
568
-337
91
-54
729
584
-132
-1453
43
-110
-500
30
203
1053
-907
-551
691
-791
686
-1069
-282
693
299
-1234
-317
1199
-310
96
-251
-267
298
-1162
-29
285
60
161
10
-1
-4
-9
1
10
-8
-2
-9
7
-12
6
-107
-4
4
656
1420
1290
653
-621
216
0
757
621
869
575
-1
126
179
386
-1026
1062
-407
494
17
-484
48
-747
181
126
215
-991
794
23
-356
-32
-1136
839
-279
54
64
-17
-244
-9
-61
-703
-732
-994
-281
959
456
1195
-239
-793
-579
-122
402
850
849
936
1145
68
525
-187
-112
269
-511
-619
834
-60
-68
-406
-1212
-1153
1155
208
469
-733
-1144
-392
665
951
-81
239
-60
-60
29
-50
-616
757
656
519
-338
1105
-201
-32
-605
13
546
-44
310
1086
360
6
-458
-1202
779
-263
582
46
1362
-1118
-262
-1010
534
449
21
82
-355
-10
208
-113
809
-112
203
-460
-29
540
-208
-267
-656
258
25
54
1186
-398
-359
167
-62
1156
180
162
476
76
505
498
31
474
-783
-236
48
45
123
45
-231
35
412
-282
-380
275
-76
685
-321
-9
59
-1187
298
-248
-968
-681
636
-175
-358
-14
115
142
599
145
56
1077
-944
641
-643
180
-1001
-11
474
-108
32
373
38
58
590
-306
842
-326
359
66
722
568
-328
88
-51
709
567
-132
-1247
43
-110
-500
43
252
1064
-996
-49
698
-799
693
-1080
-285
729
314
-1300
-332
1264
-322
100
-263
-1220
310
-1150
-29
282
59
159
10
-1
-4
-9
1
10
-8
-2
-9
7
-12
6
-107
-4
4
-437
1392
56
-384
-184
65
0
742
609
861
1208
-1
16
177
382
-1006
1040
-399
484
17
-586
48
-747
181
126
215
-991
794
23
-356
-32
-1116
824
-298
52
64
-17
-244
-9
-61
-473
-724
-983
-278
948
-109
-143
-272
627
-1012
-121
398
842
841
927
1292
-327
353
538
-656
7
-375
-619
906
-57
-66
-398
-1188
-1130
1132
203
458
-717
-1119
-383
658
939
104
237
-59
-58
29
-49
-604
742
651
516
-336
1229
-963
-32
-593
13
536
-44
313
1097
364
6
-463
-1202
779
-263
582
46
1347
-1090
-259
-1000
529
445
21
81
-351
-10
-127
-113
1039
235
293
-460
-29
356
-208
-267
-654
257
25
54
1182
-200
-351
163
-60
1133
176
158
466
74
495
498
31
474
-1470
-236
48
45
123
45
-231
35
401
-274
-369
267
-140
494
-351
-9
369
-1158
-260
-251
-978
-688
642
-177
-362
40
116
788
1500
147
58
1099
-934
634
-636
177
-990
21
-233
-109
32
377
38
254
590
-277
842
-317
347
63
701
550
-337
91
-54
729
584
-133
-1260
43
-111
-505
30
199
1032
-889
-540
691
-791
686
-1069
-282
-419
305
-1261
-323
1226
-322
100
-263
-279
310
-1162
-29
285
60
161
10
-1
-4
-9
1
10
-8
-2
-9
7
-12
6
-107
-4
4
-301
1420
1291
-650
538
66
165
749
615
870
859
-556
-125
449
-101
-1026
1062
-407
494
17
-484
48
-747
181
126
213
-981
786
23
-352
-32
-1150
848
-282
55
65
-17
-246
-9
-62
-473
-724
-983
-278
948
455
1192
-238
-791
-577
-474
410
868
867
955
1134
67
520
-185
-111
7
-379
-625
915
-58
-68
-406
-1212
-1153
1155
206
464
-726
-1133
-388
672
961
-82
241
-61
-60
29
-50
-616
757
656
519
-338
1106
-201
-32
-608
13
549
-44
310
1086
360
6
-458
-1214
787
1166
588
46
1347
-1107
-259
-1000
529
441
21
80
-347
-10
1265
-115
829
-114
197
-468
-29
548
-211
-272
-649
255
25
53
1174
-394
-355
165
-61
1144
176
158
466
74
495
503
31
479
-791
-238
48
45
125
45
-235
35
405
-277
-373
270
-77
692
-324
-9
60
-1158
301
-251
-978
-688
636
-175
-358
40
115
142
599
145
56
1077
-941
639
-641
179
-998
-11
484
-110
32
381
38
60
602
-312
859
-326
359
66
722
568
-340
92
-55
736
590
-131
-1235
43
-109
-495
30
205
1063
-915
-556
691
-791
686
-1069
-282
729
314
-1300
-332
1264
-325
101
-266
-282
313
-1171
-29
287
61
162
10
-1
-4
-9
1
10
-8
-2
-9
7
-12
6
-107
-4
4
-445
1420
58
-392
-188
70
0
765
627
889
583
-1
127
182
391
-1007
1041
-399
484
17
-479
48
-740
179
125
209
-961
770
23
-345
-32
-1127
832
-276
53
64
-17
-244
-9
-61
-478
-731
-993
-281
958
456
1195
-239
-793
-579
-124
410
868
867
955
1318
-333
361
548
-670
7
-383
-631
924
-59
-66
-398
-1188
-1130
1132
202
454
-712
-1111
-380
656
941
-28
237
-157
-59
29
-49
-610
749
649
514
-335
1095
-199
-32
-599
13
541
-44
307
1075
356
6
-453
-1202
779
-263
582
46
1334
-1096
-256
-990
524
437
21
79
-344
-10
202
-110
785
-109
197
-460
-29
540
-208
-267
-641
251
25
52
1159
-1069
350
105
-56
1318
178
160
471
75
500
503
31
479
-791
-238
48
45
124
45
-233
35
1391
-274
-368
267
-76
685
-344
448
59
-1135
1143
-285
-958
-674
639
-176
-360
40
116
140
587
143
54
1055
-939
637
-638
178
-995
21
-231
-108
32
373
38
59
596
-309
850
-317
347
63
701
550
-340
92
-55
736
590
-132
-1247
43
-110
-500
30
203
1053
-907
-551
691
-791
686
-1069
-282
711
306
-1269
-324
1234
-316
98
-257
-273
304
-1116
-29
273
56
153
10
-1
-4
-9
1
10
-8
-2
-9
7
-12
6
-107
-4
4
-449
1434
59
-396
-190
68
0
765
627
888
575
-1
126
179
386
-1036
1073
-411
499
17
-484
48
-747
181
126
215
-991
794
23
-356
-32
-1150
848
-282
55
65
-17
-246
-9
-62
-483
-738
-1003
-284
968
451
1183
-237
-785
-573
-122
402
850
849
936
1123
66
515
-183
-110
256
-281
-631
1053
-59
-68
-407
-1216
-1157
1159
206
464
-726
-1133
-388
672
961
-82
241
-61
-61
29
-51
-622
765
677
534
-347
1139
-207
-32
-611
13
551
-44
316
1108
368
6
-468
-1202
779
-263
582
46
1375
-1129
-265
-1020
539
442
21
80
-349
-10
210
-114
817
-113
205
-465
-29
545
-210
-270
-656
258
25
54
1186
-394
-355
165
-61
1144
178
160
471
75
500
498
31
474
-783
-236
48
45
125
45
-235
35
409
-280
-377
273
-76
685
-321
-9
59
-1158
301
-251
-978
-688
642
-177
-362
40
116
144
611
147
58
1099
-910
619
-621
172
-964
-11
479
-109
32
377
38
60
602
-312
859
-326
359
66
722
568
-340
92
-55
736
590
-133
-1260
43
-111
-505
30
205
1064
-916
-557
684
-783
679
-1058
-279
736
317
-1313
-335
1277
-325
101
-266
-282
313
-1162
-29
285
60
161
10
-1
-4
-9
1
10
-8
-2
-9
7
-12
6
-107
-4
4
-441
1406
57
-388
-186
65
0
653
609
861
569
-1
125
303
382
-1004
1038
-398
483
17
-489
48
-314
183
556
207
-951
762
23
-342
-32
-1139
841
-279
54
63
-17
-242
-9
-60
-485
-740
-1006
-285
971
350
1056
-223
-692
-676
-123
406
859
858
945
1123
66
515
-183
-110
-56
77
-749
809
72
-773
-394
-1176
-1119
1121
207
465
-728
-987
-389
658
941
1073
237
-59
-90
29
-49
-773
751
670
529
-344
1128
-205
-32
-593
13
536
-44
304
1064
352
6
-448
-463
729
-1485
582
-390
1352
-1111
-260
-1004
531
449
21
505
-355
-10
206
-112
801
-111
201
-460
-29
720
-208
-267
-643
252
25
52
1162
-394
718
165
-61
1485
174
156
461
73
490
508
31
484
-799
-240
48
45
123
45
-231
35
401
-274
-369
267
-75
680
-319
-9
58
-1135
295
-246
-958
-674
630
-173
-354
40
114
140
587
143
54
1055
-769
467
-685
150
-877
-11
469
-107
32
369
38
58
590
-306
842
-322
354
65
713
560
-337
91
-54
729
584
-145
-1228
43
-108
-805
30
198
1030
-887
-539
690
-789
685
-1067
-281
729
314
-1300
-332
1264
612
97
-255
-271
302
-1125
-29
275
57
155
10
-1
-4
-9
1
10
-8
-2
-9
7
-12
6
-107
-4
4
-449
1434
59
-396
-190
67
0
757
621
879
572
-1
126
178
384
-1036
1073
-411
499
17
-484
48
-747
181
126
213
-981
786
23
-352
-32
-1150
848
-282
55
65
-17
-246
-9
-62
-478
-731
-993
-281
958
456
1195
-239
-793
-579
-123
406
859
858
945
1134
67
520
-185
-111
7
-383
-631
924
-59
-68
-406
-1212
-1153
1155
208
469
-733
-1144
-392
684
978
-84
244
-63
-61
29
-51
-622
765
677
534
-347
1139
-207
-32
-599
13
541
-44
316
1108
368
6
-468
-1202
779
-263
582
46
1389
-1140
-268
-1030
544
454
21
83
-359
-10
210
-114
817
-113
205
-465
-29
545
-210
-270
-649
255
25
53
1174
-398
-359
167
-62
1156
178
160
471
75
500
498
31
474
-783
-236
48
45
125
45
-235
35
409
-280
-377
273
-77
692
-324
-9
60
-1146
298
-248
-968
-681
642
-177
-362
40
116
144
611
147
58
1099
-951
645
-647
-435
-1008
-11
479
-109
32
377
-88
60
602
-312
859
-323
355
65
715
562
-340
92
1500
736
590
-133
-1260
43
-111
-505
30
205
1064
-916
-557
691
-791
686
-1069
-282
736
317
-1313
-335
1277
-325
101
-266
-282
313
-1162
-29
285
60
161
10
-1
-4
-9
1
10
-8
-2
-9
7
-12
6
-107
-4
4
-449
1434
59
-396
-190
68
0
765
627
888
575
-1
126
179
386
-1036
1073
-411
499
17
-489
48
-755
183
127
215
-991
794
23
-356
-32
-1140
841
-280
54
64
-17
-244
-9
-61
-483
-738
-1003
-284
968
456
1195
-239
-793
-579
-124
410
868
867
955
1145
68
525
-187
-112
7
-383
-631
924
-59
-67
-402
-1200
-1141
1143
206
464
-726
-1133
-388
672
961
-82
241
-61
-61
29
-51
-622
765
677
534
-347
1139
-207
-32
-605
13
546
-44
316
1108
368
6
-468
-1214
787
-266
588
46
1389
-1140
-268
-1030
544
454
21
83
-359
-10
210
-114
817
-113
205
-459
-29
539
-208
-401
-656
258
25
54
1186
-398
-359
167
-62
1156
180
162
476
76
505
508
31
484
-799
-240
48
45
125
45
-235
35
409
-280
-377
273
-77
692
-324
-9
60
-1158
301
-251
-978
-688
636
-175
-358
40
115
144
611
147
58
1099
-951
645
-647
181
-1008
-11
484
-110
32
381
38
60
602
-312
859
372
350
64
706
554
-343
93
-86
449
596
-132
-1247
43
-110
-500
30
204
1057
-665
-553
698
-799
693
-1080
-285
729
314
-1300
-332
1264
-322
100
-263
-279
310
-1162
-29
285
60
161
10
-1
-4
-9
1
10
-8
-2
-9
7
-12
6
-107
-4
4
-449
1434
59
-396
-190
68
0
765
627
888
581
-1
127
181
390
-1036
1073
-411
499
17
-489
48
-755
183
127
215
-991
794
23
-356
-32
-1150
848
-282
55
65
-17
-246
-9
-62
-483
-738
-1003
-284
968
456
1195
-239
-793
-579
-124
410
868
867
955
1145
68
525
-187
-112
7
-383
-631
924
-59
-68
-406
-1212
-1153
1155
208
469
-733
-1144
-392
672
961
-82
241
-61
-61
29
-51
-622
765
677
534
-347
1139
-207
-32
-605
13
546
-44
316
1108
368
6
-468
-1214
787
-266
588
46
1389
-1140
-268
-1030
544
454
21
83
-359
-10
210
-114
817
-113
205
-465
-29
545
-210
-270
-656
258
25
54
1186
-398
-359
167
-62
1156
180
162
476
76
505
508
31
484
-799
-240
48
45
125
45
-235
35
409
-280
-377
273
-77
692
-324
-9
60
-1158
301
-251
-978
-688
642
-177
-362
40
116
144
611
147
58
1099
-951
645
-647
181
-1008
-11
484
-110
32
381
38
60
602
-312
859
-326
359
66
722
568
-343
93
-56
743
596
-133
-1260
43
-111
-505
30
205
1064
-916
-557
698
-799
693
-1080
-285
736
317
-1313
-335
1277
-325
101
-266
-282
313
-1162
-29
285
60
161
10
-1
-4
-9
1
10
-8
-2
-9
7
-12
6
-107
-4
4
-449
1434
59
-396
-190
68
0
765
627
888
564
-1
124
175
380
-1036
1073
-411
499
17
-489
48
-755
183
127
215
-991
794
23
-356
-32
-1150
848
-282
55
65
-17
-246
-9
-62
-483
-738
-1003
-284
968
456
1195
-239
-793
-579
-124
410
868
867
955
1149
68
527
-188
-112
7
-382
-630
922
-59
-68
-406
-1212
-1153
1155
207
466
-729
-1137
-390
672
961
-82
241
-61
-61
29
-51
-622
765
677
534
-347
1140
-207
-32
-605
13
546
-44
316
1108
368
6
-468
-1214
787
-266
588
46
1389
-1140
-268
-1030
544
427
21
83
-359
-10
210
-114
817
-113
205
-465
-29
545
-210
-270
-656
258
25
54
1186
-398
-359
167
-62
1156
180
162
476
76
505
508
31
484
-799
-240
48
45
125
45
-235
35
409
-280
-377
273
-77
692
-324
-9
60
-1158
301
-251
-978
-688
642
-177
-362
40
116
144
611
147
58
1099
-1080
645
-647
181
-1008
-11
484
-110
32
381
38
60
602
-312
859
-326
359
66
722
568
-343
93
-56
743
596
-133
-1260
43
-111
-505
30
205
1064
-916
-557
698
-799
693
-1080
-285
736
317
-1313
-335
1277
-325
101
-266
-282
313
-1166
-29
286
60
161
10
-1
-4
-9
1
10
-8
-2
-9
7
-12
6
-107
-4
4
-441
1406
57
-388
-186
67
0
757
621
879
569
-1
125
177
382
-1036
1073
-411
499
17
-479
48
-740
179
125
213
-981
786
23
-352
-32
-1138
840
-279
54
63
-17
-242
-9
-60
-473
-724
-983
-278
948
451
1182
-237
-784
-573
-122
402
850
849
936
1112
65
510
-181
-109
7
-379
-625
915
-58
-69
-410
-1223
-1164
1166
206
464
-91
-1133
-388
665
951
-81
239
-60
-61
29
-51
-622
765
677
534
-347
1139
-207
-32
-600
13
542
-44
310
1086
360
6
-458
-1190
771
-260
576
46
1389
-1140
-268
-1030
544
449
21
82
-355
-10
210
-113
815
-110
205
-452
-47
539
-237
-197
-649
255
25
53
1174
-394
-355
165
-61
1144
178
160
471
75
500
498
31
474
-783
-236
48
45
125
45
-235
35
405
-277
-373
270
-76
685
-321
-9
59
-1124
292
-244
-948
-667
636
-175
-358
40
115
142
-89
145
56
1072
-951
645
-647
181
-1008
-11
483
-110
32
380
42
59
461
-310
848
-323
355
65
715
562
-337
91
220
1500
584
-1344
-1260
43
-111
-505
30
203
1053
-907
-551
691
-791
686
-1069
-282
729
314
-1300
-332
1264
-325
101
-266
-282
313
-1138
-29
279
58
157
10
-1
-4
-9
1
10
-8
-2
-9
7
-12
6
-103
-4
4
-441
1406
57
-388
-186
63
0
728
598
844
575
-1
126
179
386
-1018
1053
-404
490
17
-69
48
-724
175
123
215
-991
794
23
-356
-32
-1138
840
-279
54
62
-17
-240
-9
-59
-463
-710
781
-272
621
456
1195
-239
-793
-579
-122
402
850
849
936
1145
68
525
-187
-112
7
-375
-619
906
-57
-66
-398
-1362
-1130
1132
199
449
-703
-1097
-375
673
963
-82
241
-61
-60
29
-50
-616
757
645
511
-333
1088
-198
-32
-581
13
526
-44
307
1075
356
6
-453
-1190
771
-260
576
46
1361
-1118
-262
-1470
534
454
21
83
-359
-10
208
-113
809
-112
203
-460
-29
540
-208
-267
-643
252
25
52
1162
-390
-351
163
-60
1133
178
160
471
75
500
498
31
474
-783
-236
48
45
123
45
1290
35
409
-280
-377
273
-73
664
-312
-9
56
-1124
292
-244
-948
-667
636
-175
-358
40
115
143
605
146
57
1088
-941
639
-641
179
-998
-11
-128
-107
32
369
38
58
590
-306
842
-323
355
65
715
562
-331
89
-52
769
572
-132
-1247
43
-110
-967
30
205
1064
-916
-557
683
-782
678
-1057
-279
736
317
-1313
-335
1277
-319
392
-260
-276
307
-1138
-29
279
58
157
10
-1
-4
-9
1
10
-8
-2
-9
7
-12
6
-105
-4
4
-449
1434
59
-396
-190
67
0
667
621
879
575
-1
126
179
386
-1036
1073
-411
499
17
-489
48
-314
183
556
1416
-981
786
-185
-352
-32
-1150
848
-1016
55
-601
-17
-244
-9
-61
-478
-731
-1062
10
958
354
1067
-225
-699
-683
-123
405
857
856
943
1134
67
520
-185
-111
2
-379
-636
907
-48
-789
-402
-1200
-1141
1143
208
469
-1274
-1144
-392
672
961
-1500
241
-61
-60
29
-50
-616
757
429
441
-347
868
-258
-32
-599
13
541
-44
313
1097
364
6
-463
-1201
-935
-264
583
46
1361
-1118
-262
-1010
534
449
21
82
-355
-10
206
-112
802
-111
201
-465
-29
545
-210
-270
-656
258
25
54
1186
-333
-359
167
-551
1500
180
162
476
76
505
496
31
472
-728
-235
48
45
125
-396
-1123
35
405
-277
-373
270
-76
690
-323
-9
59
-1158
301
-251
-978
-688
642
-177
-362
40
116
-907
605
146
57
1088
-642
1500
-647
181
-1008
-11
479
-109
32
377
-399
58
590
-306
842
-326
359
66
722
568
-343
93
-56
743
596
-133
-1260
43
-111
-505
30
205
1064
-1255
-532
691
-791
686
-1069
-282
722
311
-1287
-329
1251
-321
100
-262
-278
309
-1150
-29
282
59
159
34
-1
-4
-9
1
10
-8
-2
-9
7
-12
6
-106
-4
4
-449
1434
59
-396
-190
66
0
763
617
873
575
-1
126
179
386
-1036
1073
-411
499
17
-479
48
-308
179
545
215
-991
794
23
-356
-32
-1138
840
-279
54
64
-17
-244
-9
-61
-474
-725
-993
-278
958
265
929
-207
-601
-736
-123
406
859
858
945
1145
68
525
-187
-112
7
-383
-631
924
-59
-789
-402
-1200
-1141
1143
204
459
-719
-1122
-384
555
1009
1436
349
-323
-60
29
-50
-616
757
677
534
-347
1139
-207
-32
-594
13
537
-44
313
1097
364
6
-463
-1214
787
-266
588
46
1375
-1129
-265
-1020
539
449
21
82
-355
-10
210
-114
817
-113
-309
-455
-29
535
-206
-264
-649
255
25
53
1174
-398
-359
167
-62
107
180
162
476
677
505
508
31
484
-799
-240
232
70
115
-18
-277
35
405
-113
-373
270
-77
692
-324
-9
60
-1146
298
-248
-968
-681
637
-175
-359
40
115
143
605
28
816
1088
716
639
-641
179
-998
-11
479
-109
32
377
38
59
596
-309
850
-320
351
64
1048
556
-337
91
-54
729
584
-105
685
59
868
-916
30
203
1053
-907
-551
702
-805
697
-1088
-287
-41
314
-1300
575
1264
-323
100
-264
-280
1378
-1162
-29
285
60
161
10
-1
-4
-9
1
10
-8
-2
-9
7
-12
6
-107
-4
4
-449
1434
59
-396
-190
67
0
757
621
879
581
-1
127
181
390
-1036
1073
-411
499
17
-484
48
-747
181
126
215
-991
794
23
-356
-32
-1150
848
-282
55
-1500
-17
-563
-816
-62
-464
-711
-965
-272
930
255
933
-208
-601
-763
-124
410
868
867
955
1134
67
520
-185
-111
7
-383
-631
924
-59
-68
-406
-1212
-1153
1155
205
461
-722
-1127
-386
665
951
-81
348
-60
-61
29
-51
-622
765
677
534
-347
1139
-207
-32
-599
13
541
-44
316
1107
368
6
-468
-1214
787
-266
588
46
1389
-1140
-268
-1030
544
454
21
83
-359
-10
210
-114
817
-113
205
-460
-29
540
-208
-267
-656
258
25
54
1186
-394
-355
165
-61
1144
180
162
476
76
505
495
31
471
-779
-235
48
45
125
45
-235
35
405
-277
-373
270
-77
692
-324
-9
60
-1158
301
-251
-978
-688
630
-173
-354
40
114
144
611
147
58
1099
-941
639
-641
179
-998
-11
491
-111
32
387
38
59
596
-309
850
-326
359
66
722
568
-343
93
-56
743
596
-133
-1260
43
-111
-505
30
203
1053
-907
-551
698
-799
693
-1080
-285
729
314
-1300
-332
1264
-319
99
-260
-1338
307
-1162
-29
285
60
161
10
-1
-4
-9
1
10
-8
-2
-9
7
-12
6
-107
-4
4
-445
1420
58
-392
-188
68
0
765
627
888
575
-1
126
179
386
-1015
1050
-402
488
17
-489
48
-755
183
127
213
-981
786
23
-352
-32
-1127
832
-276
53
65
-17
-246
-9
-62
-478
-731
-993
-281
958
451
1183
-237
-785
-573
-124
410
868
867
955
1145
68
525
-187
-112
7
-383
-631
924
-59
-68
-406
-1212
-1153
1155
204
461
-721
-1126
-386
