-143
1000
-150
-1000
-209
-593
-1000
-797
1
310
1
1
-607
629
1
1
533
-312
-557
-46
-286
43
1
1000
-726
1000
572
-77
361
-834
15
-287
133
1
1
703
165
-208
433
683
1000
25
629
-923
1
-117
-86
1
-434
-793
-1000
-911
-907
-46
-152
-966
-660
711
572
-1000
980
-1000
791
713
332
-1000
1000
-1000
825
-457
328
-1000
334
695
963
-1000
-207
130
-91
378
-639
-1000
11
152
-694
883
-237
871
-368
-854
785
17
-74
503
-308
-422
1000
-98
199
847
-826
818
1000
224
1
-218
-918
-863
-197
-385
-241
139
436
-675
1000
-1000
-1000
211
1000
-1000
29
1000
213
375
596
225
-940
-125
-1000
584
1000
336
-1000
-518
643
-932
-1000
539
-1000
1
837
-867
26
594
-702
-1000
665
-268
1000
-205
-1000
248
-1000
-1000
466
821
-38
-898
-565
1000
68
-619
-1000
-678
245
889
-326
-631
380
-296
-393
397
-332
-162
833
-47
-446
-527
-495
-533
778
319
-653
-585
596
231
215
-53
-702
-1000
862
-1000
-525
-81
-1000
-192
795
1000
723
314
158
-1000
77
627
695
670
35
-938
-889
-88
845
-727
863
-48
841
1000
591
-340
-423
-284
348
-463
1000
582
1000
427
-1000
-513
-1000
-255
-1000
29
-100
362
-182
44
926
1000
-684
1000
-254
-494
222
-639
-312
915
162
64
808
-681
-882
-1000
-825
-721
1000
837
-19
-1000
-1000
-687
-216
663
127
1000
-1000
-509
1000
596
227
902
-267
-123
-196
-1000
1000
-1000
885
871
780
456
1000
-124
202
-1000
-53
1
1000
328
-607
902
810
918
1000
-748
-326
-755
320
151
1000
-663
515
435
-159
632
-126
1000
-88
529
1000
-793
-438
-279
1000
707
1000
-439
-1000
-167
927
156
1000
1000
938
617
351
392
744
759
1
89
-681
251
519
-1000
-618
-482
-582
-240
-240
1000
-918
-202
369
856
-861
-254
423
789
217
-789
33
12
-1000
-173
321
315
575
80
-1000
-736
585
208
1000
151
-786
-751
1000
19
-1000
1000
-377
594
-1000
-427
480
-184
918
201
51
-429
-617
509
901
-319
190
-517
-785
-902
-894
-100
-635
983
623
904
142
-506
-327
-671
1000
-848
777
337
362
723
1
-447
1000
170
-334
-768
-394
-317
-723
-849
142
-380
210
258
953
339
394
-553
-652
380
-623
-504
-535
-1000
809
-728
1000
848
643
-34
925
-1000
-1000
-1000
-960
-831
1000
-1000
201
-73
-684
-323
-517
395
-484
301
-1000
209
261
631
-276
1000
-332
267
574
669
-1000
-151
21
327
-560
980
-185
285
148
-377
80
-329
817
458
644
-860
593
-415
-776
-155
-1000
-1000
314
-134
1
1000
-36
-328
-1000
-656
-603
957
-768
515
1000
592
435
-882
544
546
605
-380
-1000
73
549
1000
-666
-742
619
-686
1000
-590
-317
-864
373
-1000
1000
-1000
1000
-466
1000
-199
1000
-291
-1000
959
-1000
35
-232
233
-1000
-189
-177
-321
430
-59
610
-627
724
273
-619
-214
-492
1000
-158
109
325
815
-24
-653
276
-352
1000
-4
-876
-1000
-281
-570
-1000
-104
-1000
-615
-1000
1000
-419
-304
-93
-219
556
233
-927
-1000
-1000
278
-441
179
835
1000
-696
-169
-23
-802
-71
-1000
-1000
518
69
-65
-143
1000
-150
-1000
-209
-593
-1000
-797
1
310
1
1
413
629
1
1
533
-312
-557
-46
-45
43
1
1000
-726
1000
572
-77
361
-834
15
-287
133
1
1
703
324
-208
433
683
1000
398
629
-923
1
-457
-86
1
-434
-793
-1000
-911
-907
-46
-152
-966
-660
711
572
-1000
980
-1000
184
841
332
-839
1000
-947
825
-457
328
-1000
334
938
963
-1000
-207
130
-91
-83
-639
-177
11
152
-694
883
-237
871
378
-854
785
17
-74
503
-308
-422
1000
-98
199
847
-826
818
1000
224
1
-218
-918
-863
-197
-385
-241
139
436
-675
1000
-1000
-1000
211
1000
-1000
474
1000
213
375
596
225
-940
-125
-1000
584
1000
336
-1000
-518
643
-932
-1000
539
-1000
1
837
-867
26
594
-702
-1000
665
-268
1000
-205
-1000
248
-1000
-1000
466
821
-38
-898
-565
1000
68
-619
-1000
-678
245
889
-326
-631
380
-296
-393
397
-332
-162
833
114
-54
-527
-495
-732
778
319
-1000
-1000
596
57
-237
-53
-702
-1000
1000
-360
-525
-81
-1000
-192
795
1000
723
314
158
-1000
77
627
695
1000
17
-938
-889
-88
845
184
863
-48
769
318
591
-340
-423
-284
348
-463
1000
582
1000
427
-1000
-513
-1000
-255
-1000
29
-100
362
-182
44
926
1000
-684
1000
-254
-494
-48
-208
-312
915
-507
64
808
-1000
-974
-1000
-825
-721
1000
837
-19
-1000
-1000
-687
-216
663
127
1000
-1000
-509
1000
596
227
902
-267
-123
-601
-1000
1000
-1000
885
871
780
456
1000
-124
202
-1000
-53
1
1000
328
-607
902
810
918
1000
-748
-326
-755
320
151
1000
-663
515
435
-159
632
58
1000
-88
529
1000
-793
-438
-279
1000
707
1000
-439
-1000
-167
927
156
1000
1000
938
617
351
392
744
759
1
89
-681
251
519
-1000
-618
-482
-582
-222
299
1000
-918
-202
1000
856
-376
-254
423
789
217
-789
27
328
-1000
-173
321
232
575
80
-1000
-736
585
208
1000
151
-786
-751
1000
19
-1000
1000
-377
594
-1000
-427
480
-949
662
201
51
-429
-617
509
-138
-319
190
-517
-785
-902
-894
-100
-635
983
460
904
109
-506
-450
-671
1000
-846
777
337
362
766
-180
-447
980
170
-334
-768
-394
-317
-723
-849
142
-380
210
258
953
339
394
-553
696
380
-330
-1000
-535
-1000
809
-728
1000
848
643
-34
925
-1000
-1000
-1000
-960
-831
1000
-1000
201
-73
-684
-323
-517
336
-484
984
-1000
45
261
631
-276
1000
-332
267
574
669
-1000
-151
21
327
-560
980
-185
285
148
-377
80
-329
817
586
644
-860
593
765
-776
-155
-1000
-1000
314
-134
1
1000
-36
-328
-1000
-656
-603
957
-768
515
1000
592
435
-882
544
546
605
-380
-1000
73
549
1000
-666
-742
619
-686
1000
-590
-317
-864
373
-1000
1000
-1000
1000
-466
1000
-538
1000
-291
-1000
959
-1000
-190
-232
233
-1000
-189
-177
-321
430
90
610
-627
724
273
-619
385
-285
1000
-87
109
325
971
-24
-326
276
-352
1000
-4
-876
-1000
-281
-570
-1000
-104
-1000
-615
-1000
1000
-426
-304
-708
-219
556
233
-927
-1000
-1000
672
-441
179
835
1000
-696
-169
-23
-802
-71
-1000
-1000
518
69
-65
-143
1000
-150
-1000
-209
-593
-1000
-797
229
310
1
419
413
629
1
1
533
-312
-557
-46
-45
43
1
1000
-726
1000
572
-77
536
-253
15
-283
133
1
1
703
324
-208
433
683
1000
398
629
-923
1
-457
-86
1
-434
-793
-1000
-911
-907
-46
-152
-966
-660
711
572
-1000
980
-1000
791
713
332
-1000
1000
-1000
825
-457
328
-1000
334
695
963
-1000
-207
130
-91
378
-639
-1000
11
152
-694
883
-237
871
378
-854
785
17
-74
503
-308
-422
997
-98
199
870
-826
818
1000
224
-299
-218
-918
-863
-197
-385
-241
139
436
-675
1000
-1000
-885
211
1000
-1000
474
1000
213
375
596
225
-940
-125
-1000
584
1000
336
-1000
-518
643
-932
-1000
539
-1000
1
837
-867
26
594
-1000
-1000
622
-261
1000
-205
-1000
248
-832
-1000
466
821
-38
-898
-565
1000
68
-619
-1000
-770
245
889
-326
-429
380
-296
-393
397
-332
-162
833
-47
-446
-527
-495
-533
887
319
-653
-1000
596
231
-237
1000
-588
-1000
1000
-1000
-525
-81
-1000
-192
795
1000
723
314
158
-1000
77
627
695
670
35
-938
-889
-88
845
-727
863
-48
841
1000
591
-340
-423
-284
348
-463
1000
582
1000
427
-1000
-513
-1000
-255
-1000
29
-100
362
-182
44
926
1000
-684
1000
-254
-494
-48
-208
-312
915
-507
64
808
-1000
-974
-1000
-825
-721
719
837
-19
-1000
-1000
-687
-216
663
127
1000
-1000
-509
1000
596
227
902
-267
-123
-196
-1000
1000
-1000
885
871
780
456
1000
-124
202
-1000
186
1
1000
328
-607
902
810
918
1000
-748
-326
-755
320
151
1000
-663
515
435
-159
632
-126
1000
-88
529
1000
-793
-438
-279
1000
707
1000
755
-673
-167
927
156
-148
1000
938
617
313
392
744
759
1
89
-681
1000
-53
-1000
-1000
-482
-582
-240
-240
1000
-918
-202
369
856
-861
-254
423
789
217
-789
27
328
-1000
-173
321
232
575
80
-1000
-736
585
208
1000
151
-786
-751
1000
19
-1000
1000
-377
594
-1000
-427
480
-184
918
201
51
-331
-617
509
1000
-319
190
-382
-785
-902
-894
186
-635
983
681
904
109
-506
-450
-671
1000
-1000
777
337
362
766
1
-447
980
170
-334
-768
-782
-317
-1000
-269
142
-380
210
258
953
339
394
-553
-652
380
-623
-504
-535
-1000
809
-728
1000
848
643
-34
1000
-233
-1000
-1000
-650
-831
1000
-930
755
-73
-684
-323
-517
395
-484
301
-1000
209
261
631
-276
1000
-332
267
574
669
-1000
-151
21
327
-560
980
-185
285
148
-377
80
-329
817
586
644
-860
593
765
-776
-155
-469
-1000
314
-134
1
1000
-36
-328
-1000
-656
-603
957
-768
515
1000
592
435
-882
544
546
605
-380
-1000
73
549
1000
-666
-742
619
-779
1000
-590
-317
-864
196
-1000
1000
-1000
1000
-466
1000
-199
1000
-291
-1000
959
-1000
35
-232
510
-845
-590
-177
171
430
80
372
-627
724
273
-619
-214
-492
1000
-124
109
325
1000
-24
-653
-311
-352
1000
-4
-876
-1000
-281
-570
-1000
-104
-1000
-615
-1000
1000
-426
-304
-708
-219
556
233
-927
-1000
-1000
672
-441
179
835
1000
-696
-169
-23
-802
-71
-1000
-1000
518
69
-65
-143
1000
-150
-1000
-209
-593
-1000
-797
1
310
1
1
413
629
1
1
533
-312
-557
-46
-45
43
1
1000
-726
1000
572
-77
361
-834
15
-287
133
1
1
703
324
-208
433
683
1000
398
629
-923
1
-457
-86
1
-434
-793
-1000
-911
-907
-337
-152
-966
-660
1000
572
-1000
980
-1000
791
713
332
-1000
1000
-1000
825
-457
328
-1000
334
695
963
-1000
-207
130
-91
378
-639
-1000
11
152
-694
883
-237
871
378
-854
785
17
-74
503
-308
-422
1000
-98
199
847
-826
818
1000
224
1
-218
-918
-863
-197
-385
-241
139
436
-675
1000
-1000
-1000
211
1000
-1000
474
1000
213
375
596
225
-940
-125
-1000
584
1000
336
-1000
-518
643
-932
-1000
539
-223
1
1000
-867
26
594
-702
-1000
665
235
906
630
-1000
-323
-1000
-1000
466
821
-38
-898
-565
1000
68
-619
-1000
-678
245
889
-326
-631
380
-296
-393
397
-332
-162
833
-47
-446
-527
-495
-533
778
319
-653
-1000
596
231
-237
-53
-702
-1000
1000
-1000
-525
-81
-1000
-192
795
1000
723
314
158
-1000
77
627
695
670
35
-938
-889
-88
845
-727
863
-48
841
1000
591
-340
-423
-284
348
-463
1000
582
1000
427
-1000
-513
-1000
-255
-1000
29
-100
362
-182
44
926
1000
-684
1000
-254
-494
388
-542
-312
915
-507
1000
808
-1000
-974
-1000
-825
-721
1000
837
-19
-1000
-1000
-687
-216
663
127
1000
-1000
-509
1000
596
227
902
-267
-123
-3
-994
1000
-1000
885
871
780
456
1000
-124
202
-1000
-53
1
1000
328
-607
902
810
918
1000
-748
-326
-755
320
151
1000
-663
515
435
-159
632
-126
1000
-88
529
1000
-793
-438
-279
1000
707
1000
-439
-1000
-167
927
156
1000
1000
938
776
351
392
744
759
1
89
-681
251
519
-1000
-618
-482
-582
-240
-240
1000
-918
-202
369
856
-861
-254
423
789
217
-789
27
328
-1000
-173
321
232
575
80
-1000
-736
585
208
1000
151
-786
-751
1000
19
-1000
1000
-377
594
-1000
-427
480
-184
918
201
51
-429
-617
509
901
-319
190
-517
-785
-902
-894
-100
-635
983
460
904
109
-506
-450
-671
1000
-1000
777
337
362
766
1
-447
980
170
-334
-768
-394
-317
-723
-849
142
-380
210
258
953
339
394
-553
-233
380
-623
-504
-623
-1000
1000
-728
1000
848
643
-34
925
-1000
-1000
-1000
-960
-831
1000
-1000
201
-73
-684
-323
-517
395
-484
301
-1000
209
261
631
-276
1000
-332
267
574
669
-1000
-425
21
327
-560
980
-185
285
148
-377
80
-329
817
586
644
-860
593
765
-776
-155
-1000
-1000
314
-134
1
1000
-36
-328
-1000
-656
-603
957
-768
515
1000
592
435
-882
544
546
605
-380
-1000
73
549
1000
-666
-742
619
-432
1000
-1000
-317
-864
373
-1000
1000
-1000
1000
-466
1000
-199
1000
-291
-1000
959
-1000
35
-232
233
-1000
-189
-177
-321
430
-59
610
-627
724
273
-619
-214
-492
1000
-158
109
325
815
-24
-653
276
-352
1000
-4
-876
-1000
-281
-570
-1000
-104
-1000
-615
-1000
1000
-426
-304
-708
-219
556
233
-927
-1000
-1000
672
-441
179
835
1000
-696
-169
-23
-802
-71
-1000
-1000
518
69
-65
-143
1000
-150
-1000
-209
-593
-1000
-797
1
310
1
1
413
629
1
1
533
-312
-557
-46
-45
43
1
1000
-726
1000
572
-77
361
-834
15
-287
133
1
1
703
324
135
433
683
1000
398
1000
-923
1
-385
-86
272
-434
-793
-1000
-911
-907
-337
-152
-966
-660
1000
572
-1000
980
-1000
791
713
332
-1000
1000
-1000
825
-457
328
-1000
334
695
963
-1000
-207
130
-91
378
-639
-1000
11
152
-694
883
-237
871
378
-854
785
17
-74
503
-308
-422
1000
-98
199
847
-826
818
1000
224
1
-218
-918
-863
16
-385
-241
139
436
-127
1000
-1000
-1000
211
1000
-1000
474
1000
213
375
596
225
-940
-125
-1000
584
1000
336
-1000
-518
643
-932
-1000
539
-223
1
1000
-867
26
594
-702
-1000
665
235
906
630
-1000
209
-1000
-1000
434
821
-73
-1000
-565
1000
68
-619
-1000
-832
245
889
-326
-631
380
-296
-393
397
-332
-162
833
-47
-446
-527
-495
-533
778
319
-653
-1000
596
231
-237
-53
-702
-1000
1000
-1000
-525
-81
-1000
-192
795
1000
723
314
158
-1000
77
627
695
670
35
-938
-889
-88
845
-727
863
-48
841
1000
591
-340
-423
-284
348
-463
1000
582
1000
427
-1000
-513
-1000
-255
-1000
29
-100
362
-182
44
926
1000
-684
1000
-254
-494
388
-542
-312
915
-507
1000
808
-1000
-974
-1000
-825
-721
1000
1000
-19
-1000
-1000
-892
-216
663
127
-309
-1000
-509
1000
596
227
902
-267
-123
-3
-994
1000
-1000
576
1000
209
456
1000
-124
202
-1000
-204
1
1000
328
-607
902
810
918
1000
-748
-326
-755
320
151
1000
-663
515
435
-112
632
-533
1000
33
529
1000
-793
-384
-279
1000
707
1000
-439
-1000
-167
927
156
1000
1000
938
776
351
392
744
759
1
89
-681
251
519
-1000
-618
-482
-582
-240
-240
1000
-918
-202
369
856
-861
-254
423
789
217
-789
27
328
-1000
-173
321
232
575
80
-1000
-736
585
208
1000
151
-786
-751
1000
19
-1000
1000
-377
594
-1000
-427
480
-184
918
201
51
-429
-617
509
901
-319
190
-517
-785
-902
-894
-100
-635
983
460
904
109
-506
-450
-671
1000
-1000
777
337
362
766
1
-447
980
170
-334
-768
-394
-317
-723
-849
142
-380
210
258
953
339
394
-553
-233
380
-623
-504
-623
-1000
1000
-728
1000
848
643
-34
993
-1000
-1000
-1000
-960
-831
1000
-1000
201
-73
-684
-323
-517
763
-484
-114
-1000
209
261
631
-276
1000
-332
267
574
669
-1000
-425
21
327
-560
980
-185
285
148
-377
80
-329
817
586
644
-860
593
765
-776
-155
-1000
-1000
314
-134
1
1000
-36
-328
-1000
-656
-603
957
-768
515
1000
592
435
-882
544
546
605
-380
-1000
73
549
1000
-666
-742
619
-432
1000
-1000
-317
-864
373
-1000
1000
-1000
1000
-466
490
-199
1000
-291
-1000
454
-1000
35
-232
233
-1000
-189
-177
-321
430
-59
610
-627
724
273
-619
-214
-492
1000
-158
-7
325
815
231
-653
772
-195
1000
-4
-876
-1000
-281
-570
-1000
-104
-1000
-615
-1000
1000
-426
-304
-708
-219
556
233
-927
-1000
-1000
672
-441
179
835
1000
-696
-169
-23
-802
-71
-1000
-1000
518
69
-65
-143
1000
-150
-1000
-209
-593
-1000
-797
1
310
1
1
-607
629
1
1
533
-312
-557
-46
-286
43
1
1000
-726
1000
572
-77
361
-834
15
-287
133
1
1
703
165
-208
433
683
1000
25
629
-923
1
-117
-86
1
-434
-793
-1000
-911
-907
-46
-152
-966
-660
711
572
-1000
980
-1000
791
713
332
-1000
1000
-1000
825
-457
328
-1000
334
695
963
-1000
-207
130
-91
378
-639
-1000
11
152
-694
883
-237
871
-368
-854
785
17
-74
503
-308
-422
1000
-98
199
847
-826
818
1000
224
1
-218
-918
-863
-197
-385
-241
139
436
-675
1000
-1000
-1000
211
1000
-1000
29
1000
213
375
596
225
-940
-125
-1000
584
1000
336
-1000
-518
643
-932
-1000
539
-1000
1
837
-867
26
594
-702
-1000
665
-268
1000
-205
-1000
248
-1000
-1000
466
821
-38
-898
-565
1000
68
-619
-1000
-678
245
889
-326
-631
380
-296
-393
397
-332
-162
833
-47
-446
-527
-495
-533
778
319
-653
-585
596
231
215
-53
-702
-1000
862
-1000
-525
-81
-1000
-192
795
1000
723
314
158
-1000
77
627
695
670
35
-938
-889
-88
845
-727
863
-48
841
1000
591
-340
-423
-284
348
-463
1000
582
1000
427
-1000
-513
-1000
-255
-1000
29
-100
362
-182
44
926
1000
-684
1000
-254
-494
222
-639
-312
915
162
64
808
-681
-882
-1000
-825
-721
1000
837
-19
-1000
-1000
-687
-216
663
127
1000
-1000
-509
1000
596
227
902
-267
-123
-196
-1000
1000
-1000
885
871
780
456
1000
-124
202
-1000
-53
1
1000
328
-607
902
810
918
1000
-748
-326
-755
320
151
1000
-663
515
435
-159
632
-126
1000
-88
529
1000
-793
-438
-279
1000
707
1000
-439
-1000
-167
927
156
1000
1000
938
617
351
392
744
759
1
89
-681
251
519
-1000
-618
-482
-582
-240
-240
1000
-918
-202
369
856
-861
-254
423
789
217
-789
33
12
-1000
-173
321
315
575
80
-1000
-736
585
208
1000
151
-786
-751
1000
19
-1000
1000
-377
594
-1000
-427
480
-184
918
201
51
-429
-617
509
901
-319
190
-517
-785
-902
-894
-100
-635
983
623
904
142
-506
-327
-671
1000
-848
777
337
362
723
1
-447
1000
170
-334
-768
-394
-317
-723
-849
142
-380
210
258
953
339
394
-553
-652
380
-623
-504
-535
-1000
809
-728
1000
848
643
-34
925
-1000
-1000
-1000
-960
-831
1000
-1000
201
-73
-684
-323
-517
395
-484
301
-1000
209
261
631
-276
1000
-332
267
574
669
-1000
-151
21
327
-560
980
-185
285
148
-377
80
-329
817
458
644
-860
593
-415
-776
-155
-1000
-1000
314
-134
1
1000
-36
-328
-1000
-656
-603
957
-768
515
1000
592
435
-882
544
546
605
-380
-1000
73
549
1000
-666
-742
619
-686
1000
-590
-317
-864
373
-1000
1000
-1000
1000
-466
1000
-199
1000
-291
-1000
959
-1000
35
-232
233
-1000
-189
-177
-321
430
-59
610
-627
724
273
-619
-214
-492
1000
-158
109
325
815
-24
-653
276
-352
1000
-4
-876
-1000
-281
-570
-1000
-104
-1000
-615
-1000
1000
-419
-304
-93
-219
556
233
-927
-1000
-1000
278
-441
179
835
1000
-696
-169
-23
-802
-71
-1000
-1000
518
69
-65
-143
1000
-150
-1000
-209
-593
-1000
-797
1
310
1
1
-607
629
1
1
533
-312
-557
-46
-286
43
1
1000
-726
1000
572
-77
361
-834
15
-287
133
1
1
703
165
-208
433
683
1000
25
629
-923
1
-117
-86
1
-434
-793
-1000
-911
-907
-46
-152
-966
-660
711
572
-1000
980
-1000
791
713
332
-1000
1000
-1000
825
-457
328
-1000
334
695
963
-1000
-207
130
-91
378
-639
-1000
11
152
-694
883
-237
871
-368
-854
785
17
-74
503
-308
-422
1000
-98
199
847
-826
818
1000
224
1
-218
-918
-863
-197
-385
-241
139
436
-675
1000
-1000
-1000
211
1000
-1000
29
1000
213
375
596
225
-940
-125
-1000
584
1000
336
-1000
-518
643
-932
-1000
539
-1000
1
837
-867
26
594
-702
-1000
665
-268
1000
-205
-1000
248
-1000
-1000
466
821
-38
-898
-565
1000
68
-619
-1000
-678
245
889
-326
-631
380
-296
-393
397
-332
-162
833
-47
-446
-527
-495
-533
778
319
-653
-585
596
231
215
-53
-702
-1000
862
-1000
-525
-81
-1000
-192
795
1000
723
314
158
-1000
77
627
695
670
35
-938
-889
-88
845
-727
863
-48
841
1000
591
-340
-423
-284
348
-463
1000
582
1000
427
-1000
-513
-1000
-255
-1000
29
-100
362
-182
44
926
1000
-684
1000
-254
-494
222
-639
-312
915
162
64
808
-681
-882
-1000
-825
-721
1000
837
-19
-1000
-1000
-687
-216
663
127
1000
-1000
-509
1000
596
227
902
-267
-123
-196
-1000
1000
-1000
885
871
780
456
1000
-124
202
-1000
-53
1
1000
328
-607
902
810
918
1000
-748
-326
-755
320
151
1000
-663
515
435
-159
632
-126
1000
-88
529
1000
-793
-438
-279
1000
707
1000
-439
-1000
-167
927
156
1000
1000
938
617
351
392
744
759
1
89
-681
251
519
-1000
-618
-482
-582
-240
-240
1000
-918
-202
369
856
-861
-254
423
789
217
-789
33
12
-1000
-173
321
315
575
80
-1000
-736
585
208
1000
151
-786
-751
1000
19
-1000
1000
-377
594
-1000
-427
480
-184
918
201
51
-429
-617
509
901
-319
190
-517
-785
-902
-894
-100
-635
983
623
904
142
-506
-327
-671
1000
-848
777
337
362
723
1
-447
1000
170
-334
-768
-394
-317
-723
-849
142
-380
210
258
953
339
394
-553
-652
380
-623
-504
-535
-1000
809
-728
1000
848
643
-34
925
-1000
-1000
-1000
-960
-831
1000
-1000
201
-73
-684
-323
-517
395
-484
301
-1000
209
261
631
-276
1000
-332
267
574
669
-1000
-151
21
327
-560
980
-185
285
148
-377
80
-329
817
458
644
-860
593
-415
-776
-155
-1000
-1000
314
-134
1
1000
-36
-328
-1000
-656
-603
957
-768
515
1000
592
435
-882
544
546
605
-380
-1000
73
549
1000
-666
-742
619
-686
1000
-590
-317
-864
373
-1000
1000
-1000
1000
-466
1000
-199
1000
-291
-1000
959
-1000
35
-232
233
-1000
-189
-177
-321
430
-59
610
-627
724
273
-619
-214
-492
1000
-158
109
325
815
-24
-653
276
-352
1000
-4
-876
-1000
-281
-570
-1000
-104
-1000
-615
-1000
1000
-419
-304
-93
-219
556
233
-927
-1000
-1000
278
-441
179
835
1000
-696
-169
-23
-802
-71
-1000
-1000
518
69
-65
-143
1000
-150
-1000
-209
-593
-1000
-797
1
310
1
1
-607
629
1
1
533
-312
-557
-46
-286
43
1
1000
-726
1000
572
-77
361
-834
15
-287
133
1
1
703
165
-208
433
683
1000
25
629
-923
1
-117
-86
1
-551
-793
-1000
-911
-907
-46
-152
-1000
-660
1000
572
-1000
980
-1000
791
713
332
-1000
1000
-1000
825
-457
328
-1000
334
695
963
-1000
-207
130
-91
378
-639
-1000
11
152
-694
883
-237
871
-368
-854
785
17
-74
503
-308
-422
344
-98
199
1000
-826
818
1000
-536
-313
-218
-615
-863
-197
-385
-241
139
436
-675
1000
-1000
-1000
211
1000
-1000
29
1000
213
375
596
225
-940
-125
-1000
584
1000
336
-1000
-518
643
-932
-1000
539
-1000
1
837
-867
26
594
-702
-1000
665
-268
1000
-205
-1000
248
-1000
-1000
466
821
-38
-898
-565
1000
68
-619
-1000
-678
245
889
-326
-631
380
-296
-321
-226
-71
-236
833
-47
-446
-527
-495
-533
778
319
-653
-585
596
231
215
-53
-702
-1000
862
-1000
-525
-81
-1000
-192
869
1000
723
521
158
-1000
77
627
695
670
35
-938
-889
-88
845
-727
863
-48
841
1000
591
-340
-423
-284
348
-463
1000
582
1000
427
-1000
-513
-1000
125
-795
29
-280
659
-182
44
926
1000
-334
1000
-254
-494
222
-639
-312
915
162
64
808
-681
-882
-1000
-825
-721
1000
837
-79
-1000
-1000
-687
-417
663
127
1000
-1000
-509
1000
596
227
902
-267
-123
-196
-1000
1000
-1000
885
871
780
456
1000
-124
202
-1000
-53
1
1000
328
-607
902
810
918
1000
-748
-326
-755
320
151
1000
-663
515
15
-58
632
-126
1000
-88
-349
929
-266
-438
-279
1000
707
1000
-439
-1000
-167
927
156
1000
1000
938
617
351
392
744
759
1
89
-681
251
519
-1000
-618
-482
-582
-131
-240
701
-918
-202
369
856
-768
-254
423
789
217
-789
33
12
-1000
-173
321
315
575
80
-1000
-736
585
208
1000
151
-786
-751
1000
19
-1000
1000
-377
594
-1000
-427
480
-184
918
201
51
-429
-617
509
901
-319
190
-517
-785
-902
-894
-100
-635
983
623
904
142
-506
-327
-671
1000
-648
777
337
362
-71
1
-447
700
924
-334
-768
-394
-317
-723
-849
142
-380
210
258
953
339
394
-553
-652
380
-623
-504
-535
-1000
809
-728
1000
848
643
-34
925
-1000
-1000
-1000
-960
-951
1000
-1000
19
-73
-684
-323
-517
395
-484
301
-1000
209
261
631
-276
1000
-332
267
574
669
-1000
-151
21
327
-560
980
-185
285
148
-377
80
-329
817
458
644
-860
593
-415
-776
-155
-1000
-1000
314
-134
1
1000
-36
-328
-1000
-656
-603
957
-768
515
1000
592
435
-882
544
546
605
-380
-1000
73
549
1000
-666
-742
197
-686
1000
-590
250
-972
373
-564
1000
-1000
1000
-466
1000
-199
1000
-291
-1000
959
-1000
35
-232
233
-1000
-189
-177
-321
430
-59
610
-627
724
273
-619
-214
-492
1000
-158
109
325
815
-24
-653
276
-352
1000
-4
-876
-1000
-281
-570
-1000
-104
-1000
-615
-1000
1000
-419
-304
-93
-219
556
233
-927
-1000
-1000
278
-441
179
835
1000
-696
-169
-23
-802
-71
-1000
-1000
518
69
-65
-143
1000
-150
-1000
-209
-593
-1000
-797
1
310
1
1
-607
629
1
1
533
-312
-557
-46
-286
43
1
1000
-726
1000
572
-77
361
-834
15
-287
133
1
1
703
165
-208
433
683
1000
25
629
-923
1
-117
-86
1
-434
-793
-1000
-911
-907
-46
-152
-966
-660
711
572
-1000
980
-1000
791
713
332
-1000
1000
-1000
825
-457
328
-1000
334
695
963
-1000
-207
130
-91
378
-639
-1000
11
152
-694
883
-237
871
-368
-854
785
17
-74
503
-308
-422
1000
-98
199
847
-826
818
1000
224
1
-218
-918
-863
-197
-385
-241
139
436
-675
1000
-1000
-1000
211
1000
-1000
29
1000
213
375
596
225
-940
-125
-1000
584
1000
336
-1000
-518
643
-932
-1000
539
-1000
1
837
-867
26
594
-702
-1000
665
-268
1000
-205
-1000
248
-1000
-1000
466
821
-38
-898
-565
1000
68
-619
-1000
-678
245
889
-326
-631
380
-296
-393
397
-332
-162
833
-47
-446
-527
-495
-533
778
319
-653
-585
596
231
215
-53
-702
-1000
862
-1000
-525
-81
-1000
-192
795
1000
723
314
158
-1000
77
627
695
670
35
-938
-889
-88
845
-727
863
-48
841
1000
591
-340
-423
-284
348
-463
1000
582
1000
427
-1000
-513
-1000
-255
-1000
29
-100
362
-182
44
926
1000
-684
1000
-254
-494
222
-639
-312
915
162
64
808
-681
-882
-1000
-825
-721
1000
837
-19
-1000
-1000
-687
-216
663
127
1000
-1000
-509
1000
596
227
902
-267
-123
-196
-1000
1000
-1000
885
871
780
456
1000
-124
202
-1000
-53
1
1000
328
-607
902
810
918
1000
-748
-326
-755
320
151
1000
-663
515
435
-159
632
-126
1000
-88
529
1000
-793
-438
-279
1000
707
1000
-439
-1000
-167
927
156
1000
1000
938
617
351
392
744
759
1
89
-681
251
519
-1000
-618
-482
-582
-240
-240
1000
-918
-202
369
856
-861
-254
423
789
217
-789
33
12
-1000
-173
321
315
575
80
-1000
-736
585
208
1000
151
-786
-751
1000
19
-1000
1000
-377
594
-1000
-427
480
-184
918
201
51
-429
-617
509
901
-319
190
-517
-785
-902
-894
-100
-635
983
623
904
142
-506
-327
-671
1000
-848
777
337
362
723
1
-447
1000
170
-334
-768
-394
-317
-723
-849
142
-380
210
258
953
339
394
-553
-652
380
-623
-504
-535
-1000
809
-728
1000
848
643
-34
925
-1000
-1000
-1000
-960
-831
1000
-1000
201
-73
-684
-323
-517
395
-484
301
-1000
209
261
631
-276
1000
-332
267
574
669
-1000
-151
21
327
-560
980
-185
285
148
-377
80
-329
817
458
644
-860
593
-415
-776
-155
-1000
-1000
314
-134
1
1000
-36
-328
-1000
-656
-603
957
-768
515
1000
592
435
-882
544
546
605
-380
-1000
73
549
1000
-666
-742
619
-686
1000
-590
-317
-864
373
-1000
1000
-1000
1000
-466
1000
-199
1000
-291
-1000
959
-1000
35
-232
233
-1000
-189
-177
-321
430
-59
610
-627
724
273
-619
-214
-492
1000
-158
109
325
815
-24
-653
276
-352
1000
-4
-876
-1000
-281
-570
-1000
-104
-1000
-615
-1000
1000
-419
-304
-93
-219
556
233
-927
-1000
-1000
278
-441
179
835
1000
-696
-169
-23
-802
-71
-1000
-1000
518
69
-65
-143
1000
-150
-1000
-209
-593
-1000
-797
1
310
1
1
413
629
1
1
533
-312
-557
-46
-45
43
1
1000
-726
1000
572
-77
361
-834
15
-287
133
1
1
703
324
-208
433
683
1000
398
629
-923
1
-457
-86
1
-434
-793
-1000
-911
-907
-46
-152
-966
-660
711
572
-1000
980
-1000
184
841
332
-839
1000
-947
825
-457
328
-1000
334
938
963
-1000
-207
130
-91
-83
-639
-177
11
152
-694
883
-237
871
378
-854
785
17
-74
503
-308
-422
1000
-98
199
847
-826
818
1000
224
1
-218
-918
-863
-197
-385
-241
139
436
-675
1000
-1000
-1000
211
1000
-1000
474
1000
213
375
596
225
-940
-125
-1000
584
1000
336
-1000
-518
643
-932
-1000
539
-1000
1
837
-867
26
594
-702
-1000
665
-268
1000
-205
-1000
248
-1000
-1000
466
821
-38
-898
-565
1000
68
-619
-1000
-678
245
889
-326
-631
380
-296
-393
397
-332
-162
833
114
-54
-527
-495
-732
778
319
-1000
-1000
596
57
-237
-53
-702
-1000
1000
-360
-525
-81
-1000
-192
795
1000
723
314
158
-1000
77
627
695
1000
17
-938
-889
-88
845
184
863
-48
769
318
591
-340
-423
-284
348
-463
1000
582
1000
427
-1000
-513
-1000
-255
-1000
29
-100
362
-182
44
926
1000
-684
1000
-254
-494
-48
-208
-312
915
-507
64
808
-1000
-974
-1000
-825
-721
1000
837
-19
-1000
-1000
-687
-216
663
127
1000
-1000
-509
1000
596
227
902
-267
-123
-601
-1000
1000
-1000
885
871
780
456
1000
-124
202
-1000
-53
1
1000
328
-607
902
810
918
1000
-748
-326
-755
320
151
1000
-663
515
435
-159
632
58
1000
-88
529
1000
-793
-438
-279
1000
707
1000
-439
-1000
-167
927
156
1000
1000
938
617
351
392
744
759
1
89
-681
251
519
-1000
-618
-482
-582
-222
299
1000
-918
-202
1000
856
-376
-254
423
789
217
-789
27
328
-1000
-173
321
232
575
80
-1000
-736
585
208
1000
151
-786
-751
1000
19
-1000
1000
-377
594
-1000
-427
480
-949
662
201
51
-429
-617
509
-138
-319
190
-517
-785
-902
-894
-100
-635
983
460
904
109
-506
-450
-671
1000
-846
777
337
362
766
-180
-447
980
170
-334
-768
-394
-317
-723
-849
142
-380
210
258
953
339
394
-553
696
380
-330
-1000
-535
-1000
809
-728
1000
848
643
-34
925
-1000
-1000
-1000
-960
-831
1000
-1000
201
-73
-684
-323
-517
336
-484
984
-1000
45
261
631
-276
1000
-332
267
574
669
-1000
-151
21
327
-560
980
-185
285
148
-377
80
-329
817
586
644
-860
593
765
-776
-155
-1000
-1000
314
-134
1
1000
-36
-328
-1000
-656
-603
957
-768
515
1000
592
435
-882
544
546
605
-380
-1000
73
549
1000
-666
-742
619
-686
1000
-590
-317
-864
373
-1000
1000
-1000
1000
-466
1000
-538
1000
-291
-1000
959
-1000
-190
-232
233
-1000
-189
-177
-321
430
90
610
-627
724
273
-619
385
-285
1000
-87
109
325
971
-24
-326
276
-352
1000
-4
-876
-1000
-281
-570
-1000
-104
-1000
-615
-1000
1000
-426
-304
-708
-219
556
233
-927
-1000
-1000
672
-441
179
835
1000
-696
-169
-23
-802
-71
-1000
-1000
518
69
-65
-143
1000
-150
-1000
-209
-593
-1000
-797
1
310
1
1
-607
629
1
1
533
-312
-557
-46
-286
43
1
1000
-726
1000
572
-77
361
-834
15
-287
133
1
1
703
165
-208
433
683
1000
25
629
-923
1
-117
-86
1
-434
-793
-1000
-911
-907
-46
-152
-966
-660
711
572
-1000
980
-1000
791
713
332
-1000
1000
-1000
825
-457
328
-1000
334
695
963
-1000
-207
130
-91
378
-639
-1000
11
152
-694
883
-237
871
-368
-854
785
17
-74
503
-308
-422
1000
-98
199
847
-826
818
1000
224
1
-218
-918
-863
-197
-385
-241
139
436
-675
1000
-1000
-1000
211
1000
-1000
29
1000
213
375
596
225
-940
-125
-1000
584
1000
336
-1000
-518
643
-932
-1000
539
-1000
1
837
-867
26
594
-702
-1000
665
-268
1000
-205
-1000
248
-1000
-1000
466
821
-38
-898
-565
1000
68
-619
-1000
-678
245
889
-326
-631
380
-296
-393
397
-332
-162
833
-47
-446
-527
-495
-533
778
319
-653
-585
596
231
215
-53
-702
-1000
862
-1000
-525
-81
-1000
-192
795
1000
723
314
158
-1000
77
627
695
670
35
-938
-889
-88
845
-727
863
-48
841
1000
591
-340
-423
-284
348
-463
1000
582
1000
427
-1000
-513
-1000
-255
-1000
29
-100
362
-182
44
926
1000
-684
1000
-254
-494
222
-639
-312
915
162
64
808
-681
-882
-1000
-825
-721
1000
837
-19
-1000
-1000
-687
-216
663
127
1000
-1000
-509
1000
596
227
902
-267
-123
-196
-1000
1000
-1000
885
871
780
456
1000
-124
202
-1000
-53
1
1000
328
-607
902
810
918
1000
-748
-326
-755
320
151
1000
-663
515
435
-159
632
-126
1000
-88
529
1000
-793
-438
-279
1000
707
1000
-439
-1000
-167
927
156
1000
1000
938
617
351
392
744
759
1
89
-681
251
519
-1000
-618
-482
-582
-240
-240
1000
-918
-202
369
856
-861
-254
423
789
217
-789
33
12
-1000
-173
321
315
575
80
-1000
-736
585
208
1000
151
-786
-751
1000
19
-1000
1000
-377
594
-1000
-427
480
-184
918
201
51
-429
-617
509
901
-319
190
-517
-785
-902
-894
-100
-635
983
623
904
142
-506
-327
-671
1000
-848
777
337
362
723
1
-447
1000
170
-334
-768
-394
-317
-723
-849
142
-380
210
258
953
339
394
-553
-652
380
-623
-504
-535
-1000
809
-728
1000
848
643
-34
925
-1000
-1000
-1000
-960
-831
1000
-1000
201
-73
-684
-323
-517
395
-484
301
-1000
209
261
631
-276
1000
-332
267
574
669
-1000
-151
21
327
-560
980
-185
285
148
-377
80
-329
817
458
644
-860
593
-415
-776
-155
-1000
-1000
314
-134
1
1000
-36
-328
-1000
-656
-603
957
-768
515
1000
592
435
-882
544
546
605
-380
-1000
73
549
1000
-666
-742
619
-686
1000
-590
-317
-864
373
-1000
1000
-1000
1000
-466
1000
-199
1000
-291
-1000
959
-1000
35
-232
233
-1000
-189
-177
-321
430
-59
610
-627
724
273
-619
-214
-492
1000
-158
109
325
815
-24
-653
276
-352
1000
-4
-876
-1000
-281
-570
-1000
-104
-1000
-615
-1000
1000
-419
-304
-93
-219
556
233
-927
-1000
-1000
278
-441
179
835
1000
-696
-169
-23
-802
-71
-1000
-1000
518
69
-65
-143
1000
-150
-1000
-209
-593
-1000
-797
1
310
1
1
413
629
1
1
533
-312
-557
-46
-45
43
1
1000
-726
1000
572
-77
361
-834
15
-287
133
1
1
703
324
-208
433
683
1000
398
629
-923
1
-457
-86
1
-434
-793
-1000
-911
-907
-46
-152
-966
-660
711
572
-1000
980
-1000
184
841
332
-839
1000
-947
825
-457
328
-1000
334
938
963
-1000
-207
130
-91
-83
-639
-177
11
152
-694
883
-237
871
378
-854
785
17
-74
503
-308
-422
1000
-98
199
847
-826
818
1000
224
1
-218
-918
-863
-197
-385
-241
139
436
-675
1000
-1000
-1000
211
1000
-1000
474
1000
213
375
596
225
-940
-125
-1000
584
1000
336
-1000
-518
643
-932
-1000
539
-1000
1
837
-867
26
594
-702
-1000
665
-268
1000
-205
-1000
248
-1000
-1000
466
821
-38
-898
-565
1000
68
-619
-1000
-678
245
889
-326
-631
380
-296
-393
397
-332
-162
833
114
-54
-527
-495
-732
778
319
-1000
-1000
596
57
-237
-53
-702
-1000
1000
-360
-525
-81
-1000
-192
795
1000
723
314
158
-1000
77
627
695
1000
17
-938
-889
-88
845
184
863
-48
769
318
591
-340
-423
-284
348
-463
1000
582
1000
427
-1000
-513
-1000
-255
-1000
29
-100
362
-182
44
926
1000
-684
1000
-254
-494
-48
-208
-312
915
-507
64
808
-1000
-974
-1000
-825
-721
1000
837
-19
-1000
-1000
-687
-216
663
127
1000
-1000
-509
1000
596
227
902
-267
-123
-601
-1000
1000
-1000
885
871
780
456
1000
-124
202
-1000
-53
1
1000
328
-607
902
810
918
1000
-748
-326
-755
320
151
1000
-663
515
435
-159
632
58
1000
-88
529
1000
-793
-438
-279
1000
707
1000
-439
-1000
-167
927
156
1000
1000
938
617
351
392
744
759
1
89
-681
251
519
-1000
-618
-482
-582
-222
299
1000
-918
-202
1000
856
-376
-254
423
789
217
-789
27
328
-1000
-173
321
232
575
80
-1000
-736
585
208
1000
151
-786
-751
1000
19
-1000
1000
-377
594
-1000
-427
480
-949
662
201
51
-429
-617
509
-138
-319
190
-517
-785
-902
-894
-100
-635
983
460
904
109
-506
-450
-671
1000
-846
777
337
362
766
-180
-447
980
170
-334
-768
-394
-317
-723
-849
142
-380
210
258
953
339
394
-553
696
380
-330
-1000
-535
-1000
809
-728
1000
848
643
-34
925
-1000
-1000
-1000
-960
-831
1000
-1000
201
-73
-684
-323
-517
336
-484
984
-1000
45
261
631
-276
1000
-332
267
574
669
-1000
-151
21
327
-560
980
-185
285
148
-377
80
-329
817
586
644
-860
593
765
-776
-155
-1000
-1000
314
-134
1
1000
-36
-328
-1000
-656
-603
957
-768
515
1000
592
435
-882
544
546
605
-380
-1000
73
549
1000
-666
-742
619
-686
1000
-590
-317
-864
373
-1000
1000
-1000
1000
-466
1000
-538
1000
-291
-1000
959
-1000
-190
-232
233
-1000
-189
-177
-321
430
90
610
-627
724
273
-619
385
-285
1000
-87
109
325
971
-24
-326
276
-352
1000
-4
-876
-1000
-281
-570
-1000
-104
-1000
-615
-1000
1000
-426
-304
-708
-219
556
233
-927
-1000
-1000
672
-441
179
835
1000
-696
-169
-23
-802
-71
-1000
-1000
518
69
-65
-143
1000
-150
-1000
-209
-593
-1000
-797
1
310
1
1
413
629
1
1
533
-312
-557
-46
-45
43
1
1000
-726
1000
572
-77
361
-834
15
-287
133
1
1
703
324
-208
433
683
1000
398
629
-923
1
-457
-86
1
-434
-793
-1000
-911
-907
-46
-152
-966
-660
711
572
-1000
980
-1000
184
841
332
-839
1000
-947
825
-457
328
-1000
334
938
963
-1000
-207
130
-91
-83
-639
-177
11
152
-694
883
-237
871
378
-854
785
17
-74
503
-308
-422
1000
-98
199
847
-826
818
1000
224
1
-218
-918
-863
-197
-385
-241
139
436
-675
1000
-1000
-1000
211
1000
-1000
474
1000
213
375
596
225
-940
-125
-1000
584
1000
336
-1000
-518
643
-932
-1000
539
-1000
1
837
-867
26
594
-702
-1000
665
-268
1000
-205
-1000
248
-1000
-1000
466
821
-38
-898
-565
1000
68
-619
-1000
-678
245
889
-326
-631
380
-296
-393
397
-332
-162
833
114
-54
-527
-495
-732
778
319
-1000
-1000
596
57
-237
-53
-702
-1000
1000
-360
-525
-81
-1000
-192
795
1000
723
314
158
-1000
77
627
695
1000
17
-938
-889
-88
845
184
863
-48
769
318
591
-340
-423
-284
348
-463
1000
582
1000
427
-1000
-513
-1000
-255
-1000
29
-100
362
-182
44
926
1000
-684
1000
-254
-494
-48
-208
-312
915
-507
64
808
-1000
-974
-1000
-825
-721
1000
837
-19
-1000
-1000
-687
-216
663
127
1000
-1000
-509
1000
596
227
902
-267
-123
-601
-1000
1000
-1000
885
871
780
456
1000
-124
202
-1000
-53
1
1000
328
-607
902
810
918
1000
-748
-326
-755
320
151
1000
-663
515
435
-159
632
58
1000
-88
529
1000
-793
-438
-279
1000
707
1000
-439
-1000
-167
927
156
1000
1000
938
617
351
392
744
759
1
89
-681
251
519
-1000
-618
-482
-582
-222
299
1000
-918
-202
1000
856
-376
-254
423
789
217
-789
27
328
-1000
-173
321
232
575
80
-1000
-736
585
208
1000
151
-786
-751
1000
19
-1000
1000
-377
594
-1000
-427
480
-949
662
201
51
-429
-617
509
-138
-319
190
-517
-785
-902
-894
-100
-635
983
460
904
109
-506
-450
-671
1000
-846
777
337
362
766
-180
-447
980
170
-334
-768
-394
-317
-723
-849
142
-380
210
258
953
339
394
-553
696
380
-330
-1000
-535
-1000
809
-728
1000
848
643
-34
925
-1000
-1000
-1000
-960
-831
1000
-1000
201
-73
-684
-323
-517
336
-484
984
-1000
45
261
631
-276
1000
-332
267
574
669
-1000
-151
21
327
-560
980
-185
285
148
-377
80
-329
817
586
644
-860
593
765
-776
-155
-1000
-1000
314
-134
1
1000
-36
-328
-1000
-656
-603
957
-768
515
1000
592
435
-882
544
546
605
-380
-1000
73
549
1000
-666
-742
619
-686
1000
-590
-317
-864
373
-1000
1000
-1000
1000
-466
1000
-538
1000
-291
-1000
959
-1000
-190
-232
233
-1000
-189
-177
-321
430
90
610
-627
724
273
-619
385
-285
1000
-87
109
325
971
-24
-326
276
-352
1000
-4
-876
-1000
-281
-570
-1000
-104
-1000
-615
-1000
1000
-426
-304
-708
-219
556
233
-927
-1000
-1000
672
-441
179
835
1000
-696
-169
-23
-802
-71
-1000
-1000
518
69
-65
-143
1000
-150
-1000
-209
-593
-1000
-797
1
310
1
1
413
629
1
1
533
-312
-557
-46
-45
43
1
1000
-726
1000
572
-77
361
-834
15
-287
133
1
1
703
324
-208
433
683
1000
398
629
-923
1
-457
-86
1
-434
-793
-1000
-911
-907
-46
-152
-966
-660
711
572
-1000
980
-1000
184
841
332
-839
1000
-947
825
-457
328
-1000
334
938
963
-1000
-207
130
-91
-83
-639
-177
11
152
-694
883
-237
871
378
-854
785
17
-74
503
-308
-422
1000
-98
199
847
-826
818
1000
224
1
-218
-918
-863
-197
-385
-241
139
436
-675
1000
-1000
-1000
211
1000
-1000
474
1000
213
375
596
225
-940
-125
-1000
584
1000
336
-1000
-518
643
-932
-1000
539
-1000
1
837
-867
26
594
-702
-1000
665
-268
1000
-205
-1000
248
-1000
-1000
466
821
-38
-898
-565
1000
68
-619
-1000
-678
245
889
-326
-631
380
-296
-393
397
-332
-162
833
114
-54
-527
-495
-732
778
319
-1000
-1000
596
57
-237
-53
-702
-1000
1000
-360
-525
-81
-1000
-192
795
1000
723
314
158
-1000
77
627
695
1000
17
-938
-889
-88
845
184
863
-48
769
318
591
-340
-423
-284
348
-463
1000
582
1000
427
-1000
-513
-1000
-255
-1000
29
-100
362
-182
44
926
1000
-684
1000
-254
-494
-48
-208
-312
915
-507
64
808
-1000
-974
-1000
-825
-721
1000
837
-19
-1000
-1000
-687
-216
663
127
1000
-1000
-509
1000
596
227
902
-267
-123
-601
-1000
1000
-1000
885
871
780
456
1000
-124
202
-1000
-53
1
1000
328
-607
902
810
918
1000
-748
-326
-755
320
151
1000
-663
515
435
-159
632
58
1000
-88
529
1000
-793
-438
-279
1000
707
1000
-439
-1000
-167
927
156
1000
1000
938
617
351
392
744
759
1
89
-681
251
519
-1000
-618
-482
-582
-222
299
1000
-918
-202
1000
856
-376
-254
423
789
217
-789
27
328
-1000
-173
321
232
575
80
-1000
-736
585
208
1000
151
-786
-751
1000
19
-1000
1000
-377
594
-1000
-427
480
-949
662
201
51
-429
-617
509
-138
-319
190
-517
-785
-902
-894
-100
-635
983
460
904
109
-506
-450
-671
1000
-846
777
337
362
766
-180
-447
980
170
-334
-768
-394
-317
-723
-849
142
-380
210
258
953
339
394
-553
696
380
-330
-1000
-535
-1000
809
-728
1000
848
643
-34
925
-1000
-1000
-1000
-960
-831
1000
-1000
201
-73
-684
-323
-517
336
-484
984
-1000
45
261
631
-276
1000
-332
267
574
669
-1000
-151
21
327
-560
980
-185
285
148
-377
80
-329
817
586
644
-860
593
765
-776
-155
-1000
-1000
314
-134
1
1000
-36
-328
-1000
-656
-603
957
-768
515
1000
592
435
-882
544
546
605
-380
-1000
73
549
1000
-666
-742
619
-686
1000
-590
-317
-864
373
-1000
1000
-1000
1000
-466
1000
-538
1000
-291
-1000
959
-1000
-190
-232
233
-1000
-189
-177
-321
430
90
610
-627
724
273
-619
385
-285
1000
-87
109
325
971
-24
-326
276
-352
1000
-4
-876
-1000
-281
-570
-1000
-104
-1000
-615
-1000
1000
-426
-304
-708
-219
556
233
-927
-1000
-1000
672
-441
179
835
1000
-696
-169
-23
-802
-71
-1000
-1000
518
69
-65
-143
1000
-150
-1000
-209
-593
-1000
-797
1
310
1
1
-607
629
1
1
533
-312
-557
-46
-286
43
1
1000
-726
1000
572
-77
361
-834
15
-287
133
1
1
703
165
-208
433
683
1000
25
629
-923
1
-117
-86
1
-434
-793
-1000
-911
-907
-46
-152
-966
-660
711
572
-1000
980
-1000
791
713
332
-1000
1000
-1000
825
-457
328
-1000
334
695
963
-1000
-207
130
-91
378
-639
-1000
11
152
-694
883
-237
871
-368
-854
785
17
-74
503
-308
-422
1000
-98
199
847
-826
818
1000
224
1
-218
-918
-863
-197
-385
-241
139
436
-675
1000
-1000
-1000
211
1000
-1000
29
1000
213
375
596
225
-940
-125
-1000
584
1000
336
-1000
-518
643
-932
-1000
539
-1000
1
837
-867
26
594
-702
-1000
665
-268
1000
-205
-1000
248
-1000
-1000
466
821
-38
-898
-565
1000
68
-619
-1000
-678
245
889
-326
-631
380
-296
-393
397
-332
-162
833
-47
-446
-527
-495
-533
778
319
-653
-585
596
231
215
-53
-702
-1000
862
-1000
-525
-81
-1000
-192
795
1000
723
314
158
-1000
77
627
695
670
35
-938
-889
-88
845
-727
863
-48
841
1000
591
-340
-423
-284
348
-463
1000
582
1000
427
-1000
-513
-1000
-255
-1000
29
-100
362
-182
44
926
1000
-684
1000
-254
-494
222
-639
-312
915
162
64
808
-681
-882
-1000
-825
-721
1000
837
-19
-1000
-1000
-687
-216
663
127
1000
-1000
-509
1000
596
227
902
-267
-123
-196
-1000
1000
-1000
885
871
780
456
1000
-124
202
-1000
-53
1
1000
328
-607
902
810
918
1000
-748
-326
-755
320
151
1000
-663
515
435
-159
632
-126
1000
-88
529
1000
-793
-438
-279
1000
707
1000
-439
-1000
-167
927
156
1000
1000
938
617
351
392
744
759
1
89
-681
251
519
-1000
-618
-482
-582
-240
-240
1000
-918
-202
369
856
-861
-254
423
789
217
-789
33
12
-1000
-173
321
315
575
80
-1000
-736
585
208
1000
151
-786
-751
1000
19
-1000
1000
-377
594
-1000
-427
480
-184
918
201
51
-429
-617
509
901
-319
190
-517
-785
-902
-894
-100
-635
983
623
904
142
-506
-327
-671
1000
-848
777
337
362
723
1
-447
1000
170
-334
-768
-394
-317
-723
-849
142
-380
210
258
953
339
394
-553
-652
380
-623
-504
-535
-1000
809
-728
1000
848
643
-34
925
-1000
-1000
-1000
-960
-831
1000
-1000
201
-73
-684
-323
-517
395
-484
301
-1000
209
261
631
-276
1000
-332
267
574
669
-1000
-151
21
327
-560
980
-185
285
148
-377
80
-329
817
458
644
-860
593
-415
-776
-155
-1000
-1000
314
-134
1
1000
-36
-328
-1000
-656
-603
957
-768
515
1000
592
435
-882
544
546
605
-380
-1000
73
549
1000
-666
-742
619
-686
1000
-590
-317
-864
373
-1000
1000
-1000
1000
-466
1000
-199
1000
-291
-1000
959
-1000
35
-232
233
-1000
-189
-177
-321
430
-59
610
-627
724
273
-619
-214
-492
1000
-158
109
325
815
-24
-653
276
-352
1000
-4
-876
-1000
-281
-570
-1000
-104
-1000
-615
-1000
1000
-419
-304
-93
-219
556
233
-927
-1000
-1000
278
-441
179
835
1000
-696
-169
-23
-802
-71
-1000
-1000
518
69
-65
-143
1000
-150
-1000
-209
-593
-1000
-797
1
310
1
1
413
629
1
1
533
-312
-557
-46
-45
43
1
1000
-726
1000
572
-77
361
-834
15
-287
133
1
1
703
324
135
433
683
1000
398
1000
-923
1
-385
-86
272
-434
-793
-1000
-911
-907
-337
-152
-966
-660
1000
572
-1000
980
-1000
791
713
332
-1000
1000
-1000
825
-457
328
-1000
334
695
963
-1000
-207
130
-91
378
-639
-1000
11
152
-694
883
-237
871
378
-854
785
17
-74
503
-308
-422
1000
-98
199
847
-826
818
1000
224
1
-218
-918
-863
16
-385
-241
139
436
-127
1000
-1000
-1000
211
1000
-1000
474
1000
213
375
596
225
-940
-125
-1000
584
1000
336
-1000
-518
643
-932
-1000
539
-223
1
1000
-867
26
594
-702
-1000
665
235
906
630
-1000
209
-1000
-1000
434
821
-73
-1000
-565
1000
68
-619
-1000
-832
245
889
-326
-631
380
-296
-393
397
-332
-162
833
-47
-446
-527
-495
-533
778
319
-653
-1000
596
231
-237
-53
-702
-1000
1000
-1000
-525
-81
-1000
-192
795
1000
723
314
158
-1000
77
627
695
670
35
-938
-889
-88
845
-727
863
-48
841
1000
591
-340
-423
-284
348
-463
1000
582
1000
427
-1000
-513
-1000
-255
-1000
29
-100
362
-182
44
926
1000
-684
1000
-254
-494
388
-542
-312
915
-507
1000
808
-1000
-974
-1000
-825
-721
1000
1000
-19
-1000
-1000
-892
-216
663
127
-309
-1000
-509
1000
596
227
902
-267
-123
-3
-994
1000
-1000
576
1000
209
456
1000
-124
202
-1000
-204
1
1000
328
-607
902
810
918
1000
-748
-326
-755
320
151
1000
-663
515
435
-112
632
-533
1000
33
529
1000
-793
-384
-279
1000
707
1000
-439
-1000
-167
927
156
1000
1000
938
776
351
392
744
759
1
89
-681
251
519
-1000
-618
-482
-582
-240
-240
1000
-918
-202
369
856
-861
-254
423
789
217
-789
27
328
-1000
-173
321
232
575
80
-1000
-736
585
208
1000
151
-786
-751
1000
19
-1000
1000
-377
594
-1000
-427
480
-184
918
201
51
-429
-617
509
901
-319
190
-517
-785
-902
-894
-100
-635
983
460
904
109
-506
-450
-671
1000
-1000
777
337
362
766
1
-447
980
170
-334
-768
-394
-317
-723
-849
142
-380
210
258
953
339
394
-553
-233
380
-623
-504
-623
-1000
1000
-728
1000
848
643
-34
993
-1000
-1000
-1000
-960
-831
1000
-1000
201
-73
-684
-323
-517
763
-484
-114
-1000
209
261
631
-276
1000
-332
267
574
669
-1000
-425
21
327
-560
980
-185
285
148
-377
80
-329
817
586
644
-860
593
765
-776
-155
-1000
-1000
314
-134
1
1000
-36
-328
-1000
-656
-603
957
-768
515
1000
592
435
-882
544
546
605
-380
-1000
73
549
1000
-666
-742
619
-432
1000
-1000
-317
-864
373
-1000
1000
-1000
1000
-466
490
-199
1000
-291
-1000
454
-1000
35
-232
233
-1000
-189
-177
-321
430
-59
610
-627
724
273
-619
-214
-492
1000
-158
-7
325
815
231
-653
772
-195
1000
-4
-876
-1000
-281
-570
-1000
-104
-1000
-615
-1000
1000
-426
-304
-708
-219
556
233
-927
-1000
-1000
672
-441
179
835
1000
-696
-169
-23
-802
-71
-1000
-1000
518
69
-65
-143
1000
-150
-1000
-209
-593
-1000
-797
1
310
1
1
413
629
1
1
533
-312
-557
-46
-45
43
1
1000
-726
1000
572
-77
361
-834
15
-287
133
1
1
703
324
-208
433
683
1000
398
629
-923
1
-457
-86
1
-434
-793
-1000
-911
-907
-337
-152
-966
-660
1000
572
-1000
980
-1000
791
713
332
-1000
1000
-1000
825
-457
328
-1000
334
695
963
-1000
-207
130
-91
378
-639
-1000
11
152
-694
883
-237
871
378
-854
785
17
-74
503
-308
-422
1000
-98
199
847
-826
818
1000
224
1
-218
-918
-863
-197
-385
-241
139
436
-675
1000
-1000
-1000
211
1000
-1000
474
1000
213
375
596
225
-940
-125
-1000
584
1000
336
-1000
-518
643
-932
-1000
539
-223
1
1000
-867
26
594
-702
-1000
665
235
906
630
-1000
-323
-1000
-1000
466
821
-38
-898
-565
1000
68
-619
-1000
-678
245
889
-326
-631
380
-296
-393
397
-332
-162
833
-47
-446
-527
-495
-533
778
319
-653
-1000
596
231
-237
-53
-702
-1000
1000
-1000
-525
-81
-1000
-192
795
1000
723
314
158
-1000
77
627
695
670
35
-938
-889
-88
845
-727
863
-48
841
1000
591
-340
-423
-284
348
-463
1000
582
1000
427
-1000
-513
-1000
-255
-1000
29
-100
362
-182
44
926
1000
-684
1000
-254
-494
388
-542
-312
915
-507
1000
808
-1000
-974
-1000
-825
-721
1000
837
-19
-1000
-1000
-687
-216
663
127
1000
-1000
-509
1000
596
227
902
-267
-123
-3
-994
1000
-1000
885
871
780
456
1000
-124
202
-1000
-53
1
1000
328
-607
902
810
918
1000
-748
-326
-755
320
151
1000
-663
515
435
-159
632
-126
1000
-88
529
1000
-793
-438
-279
1000
707
1000
-439
-1000
-167
927
156
1000
1000
938
776
351
392
744
759
1
89
-681
251
519
-1000
-618
-482
-582
-240
-240
1000
-918
-202
369
856
-861
-254
423
789
217
-789
27
328
-1000
-173
321
232
575
80
-1000
-736
585
208
1000
151
-786
-751
1000
19
-1000
1000
-377
594
-1000
-427
480
-184
918
201
51
-429
-617
509
901
-319
190
-517
-785
-902
-894
-100
-635
983
460
904
109
-506
-450
-671
1000
-1000
777
337
362
766
1
-447
980
170
-334
-768
-394
-317
-723
-849
142
-380
210
258
953
339
394
-553
-233
380
-623
-504
-623
-1000
1000
-728
1000
848
643
-34
925
-1000
-1000
-1000
-960
-831
1000
-1000
201
-73
-684
-323
-517
395
-484
301
-1000
209
261
631
-276
1000
-332
267
574
669
-1000
-425
21
327
-560
980
-185
285
148
-377
80
-329
817
586
644
-860
593
765
-776
-155
-1000
-1000
314
-134
1
1000
-36
-328
-1000
-656
-603
957
-768
515
1000
592
435
-882
544
546
605
-380
-1000
73
549
1000
-666
-742
619
-432
1000
-1000
-317
-864
373
-1000
1000
-1000
1000
-466
1000
-199
1000
-291
-1000
959
-1000
35
-232
233
-1000
-189
-177
-321
430
-59
610
-627
724
273
-619
-214
-492
1000
-158
109
325
815
-24
-653
276
-352
1000
-4
-876
-1000
-281
-570
-1000
-104
-1000
-615
-1000
1000
-426
-304
-708
-219
556
233
-927
-1000
-1000
672
-441
179
835
1000
-696
-169
-23
-802
-71
-1000
-1000
518
69
-65
-143
1000
-150
-1000
-209
-593
-1000
-797
1
310
1
1
-607
629
1
1
533
-312
-557
-46
-286
43
1
1000
-726
1000
572
-77
361
-834
15
-287
133
1
1
703
165
-208
433
683
1000
25
629
-923
1
-117
-86
1
-434
-793
-1000
-911
-907
-46
-152
-966
-660
711
572
-1000
980
-1000
791
713
332
-1000
1000
-1000
825
-457
328
-1000
334
695
963
-1000
-207
130
-91
378
-639
-1000
11
152
-694
883
-237
871
-368
-854
785
17
-74
503
-308
-422
1000
-98
199
847
-826
818
1000
224
1
-218
-918
-863
-197
-385
-241
139
436
-675
1000
-1000
-1000
211
1000
-1000
29
1000
213
375
596
225
-940
-125
-1000
584
1000
336
-1000
-518
643
-932
-1000
539
-1000
1
837
-867
26
594
-702
-1000
665
-268
1000
-205
-1000
248
-1000
-1000
466
821
-38
-898
-565
1000
68
-619
-1000
-678
245
889
-326
-631
380
-296
-393
397
-332
-162
833
-47
-446
-527
-495
-533
778
319
-653
-585
596
231
215
-53
-702
-1000
862
-1000
-525
-81
-1000
-192
795
1000
723
314
158
-1000
77
627
695
670
35
-938
-889
-88
845
-727
863
-48
841
1000
591
-340
-423
-284
348
-463
1000
582
1000
427
-1000
-513
-1000
-255
-1000
29
-100
362
-182
44
926
1000
-684
1000
-254
-494
222
-639
-312
915
162
64
808
-681
-882
-1000
-825
-721
1000
837
-19
-1000
-1000
-687
-216
663
127
1000
-1000
-509
1000
596
227
902
-267
-123
-196
-1000
1000
-1000
885
871
780
456
1000
-124
202
-1000
-53
1
1000
328
-607
902
810
918
1000
-748
-326
-755
320
151
1000
-663
515
435
-159
632
-126
1000
-88
529
1000
-793
-438
-279
1000
707
1000
-439
-1000
-167
927
156
1000
1000
938
617
351
392
744
759
1
89
-681
251
519
-1000
-618
-482
-582
-240
-240
1000
-918
-202
369
856
-861
-254
423
789
217
-789
33
12
-1000
-173
321
315
575
80
-1000
-736
585
208
1000
151
-786
-751
1000
19
-1000
1000
-377
594
-1000
-427
480
-184
918
201
51
-429
-617
509
901
-319
190
-517
-785
-902
-894
-100
-635
983
623
904
142
-506
-327
-671
1000
-848
777
337
362
723
1
-447
1000
170
-334
-768
-394
-317
-723
-849
142
-380
210
258
953
339
394
-553
-652
380
-623
-504
-535
-1000
809
-728
1000
848
643
-34
925
-1000
-1000
-1000
-960
-831
1000
-1000
201
-73
-684
-323
-517
395
-484
301
-1000
209
261
631
-276
1000
-332
267
574
669
-1000
-151
21
327
-560
980
-185
285
148
-377
80
-329
817
458
644
-860
593
-415
-776
-155
-1000
-1000
314
-134
1
1000
-36
-328
-1000
-656
-603
957
-768
515
1000
592
435
-882
544
546
605
-380
-1000
73
549
1000
-666
-742
619
-686
1000
-590
-317
-864
373
-1000
1000
-1000
1000
-466
1000
-199
1000
-291
-1000
959
-1000
35
-232
233
-1000
-189
-177
-321
430
-59
610
-627
724
273
-619
-214
-492
1000
-158
109
325
815
-24
-653
276
-352
1000
-4
-876
-1000
-281
-570
-1000
-104
-1000
-615
-1000
1000
-419
-304
-93
-219
556
233
-927
-1000
-1000
278
-441
179
835
1000
-696
-169
-23
-802
-71
-1000
-1000
518
69
-65
-143
1000
-150
-1000
-209
-593
-1000
-797
1
310
1
1
413
629
1
1
533
-312
-557
-46
-45
43
1
1000
-726
1000
572
-77
361
-834
15
-287
133
1
1
703
324
-208
433
683
1000
398
629
-923
1
-457
-86
1
-434
-793
-1000
-911
-907
-337
-152
-966
-660
1000
572
-1000
980
-1000
791
713
332
-1000
1000
-1000
825
-457
328
-1000
334
695
963
-1000
-207
130
-91
378
-639
-1000
11
152
-694
883
-237
871
378
-854
785
17
-74
503
-308
-422
1000
-98
199
847
-826
818
1000
224
1
-218
-918
-863
-197
-385
-241
139
436
-675
1000
-1000
-1000
211
1000
-1000
474
1000
213
375
596
225
-940
-125
-1000
584
1000
336
-1000
-518
643
-932
-1000
539
-223
1
1000
-867
26
594
-702
-1000
665
235
906
630
-1000
-323
-1000
-1000
466
821
-38
-898
-565
1000
68
-619
-1000
-678
245
889
-326
-631
380
-296
-393
397
-332
-162
833
-47
-446
-527
-495
-533
778
319
-653
-1000
596
231
-237
-53
-702
-1000
1000
-1000
-525
-81
-1000
-192
795
1000
723
314
158
-1000
77
627
695
670
35
-938
-889
-88
845
-727
863
-48
841
1000
591
-340
-423
-284
348
-463
1000
582
1000
427
-1000
-513
-1000
-255
-1000
29
-100
362
-182
44
926
1000
-684
1000
-254
-494
388
-542
-312
915
-507
1000
808
-1000
-974
-1000
-825
-721
1000
837
-19
-1000
-1000
-687
-216
663
127
1000
-1000
-509
1000
596
227
902
-267
-123
-3
-994
1000
-1000
885
871
780
456
1000
-124
202
-1000
-53
1
1000
328
-607
902
810
918
1000
-748
-326
-755
320
151
1000
-663
515
435
-159
632
-126
1000
-88
529
1000
-793
-438
-279
1000
707
1000
-439
-1000
-167
927
156
1000
1000
938
776
351
392
744
759
1
89
-681
251
519
-1000
-618
-482
-582
-240
-240
1000
-918
-202
369
856
-861
-254
423
789
217
-789
27
328
-1000
-173
321
232
575
80
-1000
-736
585
208
1000
151
-786
-751
1000
19
-1000
1000
-377
594
-1000
-427
480
-184
918
201
51
-429
-617
509
901
-319
190
-517
-785
-902
-894
-100
-635
983
460
904
109
-506
-450
-671
1000
-1000
777
337
362
766
1
-447
980
170
-334
-768
-394
-317
-723
-849
142
-380
210
258
953
339
394
-553
-233
380
-623
-504
-623
-1000
1000
-728
1000
848
643
-34
925
-1000
-1000
-1000
-960
-831
1000
-1000
201
-73
-684
-323
-517
395
-484
301
-1000
209
261
631
-276
1000
-332
267
574
669
-1000
-425
21
327
-560
980
-185
285
148
-377
80
-329
817
586
644
-860
593
765
-776
-155
-1000
-1000
314
-134
1
1000
-36
-328
-1000
-656
-603
957
-768
515
1000
592
435
-882
544
546
605
-380
-1000
73
549
1000
-666
-742
619
-432
1000
-1000
-317
-864
373
-1000
1000
-1000
1000
-466
1000
-199
1000
-291
-1000
959
-1000
35
-232
233
-1000
-189
-177
-321
430
-59
610
-627
724
273
-619
-214
-492
1000
-158
109
325
815
-24
-653
276
-352
1000
-4
-876
-1000
-281
-570
-1000
-104
-1000
-615
-1000
1000
-426
-304
-708
-219
556
233
-927
-1000
-1000
672
-441
179
835
1000
-696
-169
-23
-802
-71
-1000
-1000
518
69
-65
-143
1000
-150
-1000
-209
-593
-1000
-797
1
310
1
1
413
629
1
1
533
-312
-557
-46
-45
43
1
1000
-726
1000
572
-77
361
-834
15
-287
133
1
1
703
324
-208
433
683
1000
398
629
-923
1
-457
-86
1
-434
-793
-1000
-911
-907
-46
-152
-966
-660
711
572
-1000
980
-1000
184
841
332
-839
1000
-947
825
-457
328
-1000
334
938
963
-1000
-207
130
-91
-83
-639
-177
11
152
-694
883
-237
871
378
-854
785
17
-74
503
-308
-422
1000
-98
199
847
-826
818
1000
224
1
-218
-918
-863
-197
-385
-241
139
436
-675
1000
-1000
-1000
211
1000
-1000
474
1000
213
375
596
225
-940
-125
-1000
584
1000
336
-1000
-518
643
-932
-1000
539
-1000
1
837
-867
26
594
-702
-1000
665
-268
1000
-205
-1000
248
-1000
-1000
466
821
-38
-898
-565
1000
68
-619
-1000
-678
245
889
-326
-631
380
-296
-393
397
-332
-162
833
114
-54
-527
-495
-732
778
319
-1000
-1000
596
57
-237
-53
-702
-1000
1000
-360
-525
-81
-1000
-192
795
1000
723
314
158
-1000
77
627
695
1000
17
-938
-889
-88
845
184
863
-48
769
318
591
-340
-423
-284
348
-463
1000
582
1000
427
-1000
-513
-1000
-255
-1000
29
-100
362
-182
44
926
1000
-684
1000
-254
-494
-48
-208
-312
915
-507
64
808
-1000
-974
-1000
-825
-721
1000
837
-19
-1000
-1000
-687
-216
663
127
1000
-1000
-509
1000
596
227
902
-267
-123
-601
-1000
1000
-1000
885
871
780
456
1000
-124
202
-1000
-53
1
1000
328
-607
902
810
918
1000
-748
-326
-755
320
151
1000
-663
515
435
-159
632
58
1000
-88
529
1000
-793
-438
-279
1000
707
1000
-439
-1000
-167
927
156
1000
1000
938
617
351
392
744
759
1
89
-681
251
519
-1000
-618
-482
-582
-222
299
1000
-918
-202
1000
856
-376
-254
423
789
217
-789
27
328
-1000
-173
321
232
575
80
-1000
-736
585
208
1000
151
-786
-751
1000
19
-1000
1000
-377
594
-1000
-427
480
-949
662
201
51
-429
-617
509
-138
-319
190
-517
-785
-902
-894
-100
-635
983
460
904
109
-506
-450
-671
1000
-846
777
337
362
766
-180
-447
980
170
-334
-768
-394
-317
-723
-849
142
-380
210
258
953
339
394
-553
696
380
-330
-1000
-535
-1000
809
-728
1000
848
643
-34
925
-1000
-1000
-1000
-960
-831
1000
-1000
201
-73
-684
-323
-517
336
-484
984
-1000
45
261
631
-276
1000
-332
267
574
669
-1000
-151
21
327
-560
980
-185
285
148
-377
80
-329
817
586
644
-860
593
765
-776
-155
-1000
-1000
314
-134
1
1000
-36
-328
-1000
-656
-603
957
-768
515
1000
592
435
-882
544
546
605
-380
-1000
73
549
1000
-666
-742
619
-686
1000
-590
-317
-864
373
-1000
1000
-1000
1000
-466
1000
-538
1000
-291
-1000
959
-1000
-190
-232
233
-1000
-189
-177
-321
430
90
610
-627
724
273
-619
385
-285
1000
-87
109
325
971
-24
-326
276
-352
1000
-4
-876
-1000
-281
-570
-1000
-104
-1000
-615
-1000
1000
-426
-304
-708
-219
556
233
-927
-1000
-1000
672
-441
179
835
1000
-696
-169
-23
-802
-71
-1000
-1000
518
69
-65
-143
1000
-150
-1000
-209
-593
-1000
-797
1
310
1
1
413
629
1
1
533
-312
-557
-46
-45
43
1
1000
-726
1000
572
-77
361
-834
15
-287
133
1
1
703
324
-208
433
683
1000
398
629
-923
1
-457
-86
1
-434
-793
-1000
-911
-907
-46
-152
-966
-660
711
572
-1000
980
-1000
184
841
332
-839
1000
-947
825
-457
328
-1000
334
938
963
-1000
-207
130
-91
-83
-639
-177
11
152
-694
883
-237
871
378
-854
785
17
-74
503
-308
-422
1000
-98
199
847
-826
818
1000
224
1
-218
-918
-863
-197
-385
-241
139
436
-675
1000
-1000
-1000
211
1000
-1000
474
1000
213
375
596
225
-940
-125
-1000
584
1000
336
-1000
-518
643
-932
-1000
539
-1000
1
837
-867
26
594
-702
-1000
665
-268
1000
-205
-1000
248
-1000
-1000
466
821
-38
-898
-565
1000
68
-619
-1000
-678
245
889
-326
-631
380
-296
-393
397
-332
-162
833
114
-54
-527
-495
-732
778
319
-1000
-1000
596
57
-237
-53
-702
-1000
1000
-360
-525
-81
-1000
-192
795
1000
723
314
158
-1000
77
627
695
1000
17
-938
-889
-88
845
184
863
-48
769
318
591
-340
-423
-284
348
-463
1000
582
1000
427
-1000
-513
-1000
-255
-1000
29
-100
362
-182
44
926
1000
-684
1000
-254
-494
-48
-208
-312
915
-507
64
808
-1000
-974
-1000
-825
-721
1000
837
-19
-1000
-1000
-687
-216
663
127
1000
-1000
-509
1000
596
227
902
-267
-123
-601
-1000
1000
-1000
885
871
780
456
1000
-124
202
-1000
-53
1
1000
328
-607
902
810
918
1000
-748
-326
-755
320
151
1000
-663
515
435
-159
632
58
1000
-88
529
1000
-793
-438
-279
1000
707
1000
-439
-1000
-167
927
156
1000
1000
938
617
351
392
744
759
1
89
-681
251
519
-1000
-618
-482
-582
-222
299
1000
-918
-202
1000
856
-376
-254
423
789
217
-789
27
328
-1000
-173
321
232
575
80
-1000
-736
585
208
1000
151
-786
-751
1000
19
-1000
1000
-377
594
-1000
-427
480
-949
662
201
51
-429
-617
509
-138
-319
190
-517
-785
-902
-894
-100
-635
983
460
904
109
-506
-450
-671
1000
-846
777
337
362
766
-180
-447
980
170
-334
-768
-394
-317
-723
-849
142
-380
210
258
953
339
394
-553
696
380
-330
-1000
-535
-1000
809
-728
1000
848
643
-34
925
-1000
-1000
-1000
-960
-831
1000
-1000
201
-73
-684
-323
-517
336
-484
984
-1000
45
261
631
-276
1000
-332
267
574
669
-1000
-151
21
327
-560
980
-185
285
148
-377
80
-329
817
586
644
-860
593
765
-776
-155
-1000
-1000
314
-134
1
1000
-36
-328
-1000
-656
-603
957
-768
515
1000
592
435
-882
544
546
605
-380
-1000
73
549
1000
-666
-742
619
-686
1000
-590
-317
-864
373
-1000
1000
-1000
1000
-466
1000
-538
1000
-291
-1000
959
-1000
-190
-232
233
-1000
-189
-177
-321
430
90
610
-627
724
273
-619
385
-285
1000
-87
109
325
971
-24
-326
276
-352
1000
-4
-876
-1000
-281
-570
-1000
-104
-1000
-615
-1000
1000
-426
-304
-708
-219
556
233
-927
-1000
-1000
672
-441
179
835
1000
-696
-169
-23
-802
-71
-1000
-1000
518
69
-65
-143
1000
-150
-1000
-209
-593
-1000
-797
1
310
1
1
413
629
1
1
533
-312
-557
-46
-45
43
1
1000
-726
1000
572
-77
361
-834
15
-287
133
1
1
703
324
135
433
683
1000
398
1000
-923
1
-385
-86
272
-434
-793
-1000
-911
-907
-337
-152
-966
-660
1000
572
-1000
980
-1000
791
713
332
-1000
1000
-1000
825
-457
328
-1000
334
695
963
-1000
-207
130
-91
378
-639
-1000
11
152
-694
883
-237
871
378
-854
785
17
-74
503
-308
-422
1000
-98
199
847
-826
818
1000
224
1
-218
-918
-863
16
-385
-241
139
436
-127
1000
-1000
-1000
211
1000
-1000
474
1000
213
375
596
225
-940
-125
-1000
584
1000
336
-1000
-518
643
-932
-1000
539
-223
1
1000
-867
26
594
-702
-1000
665
235
906
630
-1000
209
-1000
-1000
434
821
-73
-1000
-565
1000
68
-619
-1000
-832
245
889
-326
-631
380
-296
-393
397
-332
-162
833
-47
-446
-527
-495
-533
778
319
-653
-1000
596
231
-237
-53
-702
-1000
1000
-1000
-525
-81
-1000
-192
795
1000
723
314
158
-1000
77
627
695
670
35
-938
-889
-88
845
-727
863
-48
841
1000
591
-340
-423
-284
348
-463
1000
582
1000
427
-1000
-513
-1000
-255
-1000
29
-100
362
-182
44
926
1000
-684
1000
-254
-494
388
-542
-312
915
-507
1000
808
-1000
-974
-1000
-825
-721
1000
1000
-19
-1000
-1000
-892
-216
663
127
-309
-1000
-509
1000
596
227
902
-267
-123
-3
-994
1000
-1000
576
1000
209
456
1000
-124
202
-1000
-204
1
1000
328
-607
902
810
918
1000
-748
-326
-755
320
151
1000
-663
515
435
-112
632
-533
1000
33
529
1000
-793
-384
-279
1000
707
1000
-439
-1000
-167
927
156
1000
1000
938
776
351
392
744
759
1
89
-681
251
519
-1000
-618
-482
-582
-240
-240
1000
-918
-202
369
856
-861
-254
423
789
217
-789
27
328
-1000
-173
321
232
575
80
-1000
-736
585
208
1000
151
-786
-751
1000
19
-1000
1000
-377
594
-1000
-427
480
-184
918
201
51
-429
-617
509
901
-319
190
-517
-785
-902
-894
-100
-635
983
460
904
109
-506
-450
-671
1000
-1000
777
337
362
766
1
-447
980
170
-334
-768
-394
-317
-723
-849
142
-380
210
258
953
339
394
-553
-233
380
-623
-504
-623
-1000
1000
-728
1000
848
643
-34
993
-1000
-1000
-1000
-960
-831
1000
-1000
201
-73
-684
-323
-517
763
-484
-114
-1000
209
261
631
-276
1000
-332
267
574
669
-1000
-425
21
327
-560
980
-185
285
148
-377
80
-329
817
586
644
-860
593
765
-776
-155
-1000
-1000
314
-134
1
1000
-36
-328
-1000
-656
-603
957
-768
515
1000
592
435
-882
544
546
605
-380
-1000
73
549
1000
-666
-742
619
-432
1000
-1000
-317
-864
373
-1000
1000
-1000
1000
-466
490
-199
1000
-291
-1000
454
-1000
35
-232
233
-1000
-189
-177
-321
430
-59
610
-627
724
273
-619
-214
-492
1000
-158
-7
325
815
231
-653
772
-195
1000
-4
-876
-1000
-281
-570
-1000
-104
-1000
-615
-1000
1000
-426
-304
-708
-219
556
233
-927
-1000
-1000
672
-441
179
835
1000
-696
-169
-23
-802
-71
-1000
-1000
518
69
-65
-143
1000
-150
-1000
-209
-593
-1000
-797
1
310
1
1
413
629
1
1
533
-312
-557
-46
-45
43
1
1000
-726
1000
572
-77
361
-834
15
-287
133
1
1
703
324
-349
433
747
1000
398
629
-923
1
-457
20
331
-434
-793
-1000
-911
-907
-46
-152
-966
-660
711
572
-1000
1000
-1000
791
713
132
-1000
1000
-792
825
-457
328
-1000
334
695
963
-1000
-207
130
-91
378
-639
-1000
11
152
-523
883
-237
871
378
-854
1000
-254
834
777
-245
-1000
1000
-98
199
847
-826
818
1000
224
1
-218
-918
-863
-197
-385
-241
139
436
-675
1000
-1000
-1000
211
1000
-1000
474
1000
213
375
596
225
-940
-125
-1000
584
1000
336
-1000
-518
643
-932
-1000
-366
-1000
1
837
-867
26
594
-702
-1000
665
-268
1000
-205
-1000
248
-1000
-1000
466
821
-38
-898
-565
1000
68
-619
-1000
-678
245
889
-326
-631
380
-296
-393
397
-332
-162
833
-47
-446
-527
-495
-533
778
421
-653
-1000
596
231
-237
-501
-702
-1000
1000
-669
-1000
-81
-1000
-192
1000
1000
723
314
158
-1000
77
627
695
670
35
-938
-889
-88
845
-727
863
-48
841
1000
189
-340
-423
-284
348
-463
802
582
1000
-396
-1000
-513
-1000
-255
-1000
29
-100
362
-182
764
1000
1000
-684
1000
-254
-494
-48
-208
-312
915
-507
64
808
-1000
-974
-1000
-1000
-721
317
837
-19
-403
-1000
-687
-216
663
127
1000
-759
-509
1000
596
227
902
-267
500
-196
-1000
1000
-1000
885
871
770
456
1000
-124
202
-782
-53
1
1000
328
-607
902
810
918
1000
-748
-326
-755
320
151
1000
-663
515
435
-159
632
-126
1000
-88
529
1000
-793
-438
-279
1000
722
1000
-439
-1000
-167
927
156
1000
1000
938
479
351
392
744
759
1
89
-681
251
519
-1000
-618
-482
-582
-240
-358
1000
-918
681
369
856
-861
-254
259
789
217
-899
27
328
-1000
-173
321
-384
575
531
-1000
-736
585
208
1000
151
-786
-751
1000
19
-1000
1000
-377
594
-1000
-427
480
-184
918
201
51
-429
-617
509
901
-319
190
-517
-785
-902
-894
-100
-635
983
460
904
109
-506
-450
-671
1000
-1000
777
337
362
766
1
-447
980
170
-334
-768
-394
-317
-723
-849
142
-380
210
258
953
339
394
-553
-652
380
-623
-504
-535
-1000
809
-728
1000
848
643
-34
925
-1000
-1000
-1000
-960
-831
1000
-933
201
-73
-957
-498
-583
395
-1000
301
-1000
209
-380
-145
966
1000
-332
267
574
669
-1000
-151
21
327
-560
980
-185
285
148
-377
80
-329
817
586
644
-860
593
765
-776
-155
-1000
-913
314
-134
1
1000
-327
-328
-1000
-1000
-816
1000
-768
515
1000
592
813
-1000
544
546
605
-380
-1000
73
549
1000
-666
-742
619
-686
1000
-590
-317
-864
373
-1000
1000
-1000
1000
-466
1000
-199
1000
-291
-1000
959
-1000
35
-232
233
-1000
-189
-177
-321
430
-59
610
-627
724
273
-619
-214
-492
1000
-158
109
325
815
-24
-653
276
-352
1000
-563
-876
-1000
-281
-570
-1000
-104
-1000
-990
-1000
1000
-426
-304
-708
-219
556
233
-927
-1000
-1000
672
-441
179
835
1000
-696
-169
-23
-802
-71
-1000
-1000
518
69
-65
-143
1000
-150
-1000
-209
-593
-1000
-797
1
310
1
1
413
629
1
1
533
-312
-557
-46
-45
43
1
1000
-726
1000
572
-77
361
-834
15
-287
133
1
1
703
324
-208
433
683
1000
398
629
-923
1
-457
-86
1
-434
-793
-1000
-911
-907
-337
-152
-966
-660
1000
572
-1000
980
-1000
791
713
332
-1000
1000
-1000
825
-457
328
-1000
334
695
963
-1000
-207
130
-91
378
-639
-1000
11
152
-694
883
-237
871
378
-854
785
17
-74
503
-308
-422
1000
-98
199
847
-826
818
1000
224
1
-218
-918
-863
-197
-385
-241
139
436
-675
1000
-1000
-1000
211
1000
-1000
474
1000
213
375
596
225
-940
-125
-1000
584
1000
336
-1000
-518
643
-932
-1000
539
-223
1
1000
-867
26
594
-702
-1000
665
235
906
630
-1000
-323
-1000
-1000
466
821
-38
-898
-565
1000
68
-619
-1000
-678
245
889
-326
-631
380
-296
-393
397
-332
-162
833
-47
-446
-527
-495
-533
778
319
-653
-1000
596
231
-237
-53
-702
-1000
1000
-1000
-525
-81
-1000
-192
795
1000
723
314
158
-1000
77
627
695
670
35
-938
-889
-88
845
-727
863
-48
841
1000
591
-340
-423
-284
348
-463
1000
582
1000
427
-1000
-513
-1000
-255
-1000
29
-100
362
-182
44
926
1000
-684
1000
-254
-494
388
-542
-312
915
-507
1000
808
-1000
-974
-1000
-825
-721
1000
837
-19
-1000
-1000
-687
-216
663
127
1000
-1000
-509
1000
596
227
902
-267
-123
-3
-994
1000
-1000
885
871
780
456
1000
-124
202
-1000
-53
1
1000
328
-607
902
810
918
1000
-748
-326
-755
320
151
1000
-663
515
435
-159
632
-126
1000
-88
529
1000
-793
-438
-279
1000
707
1000
-439
-1000
-167
927
156
1000
1000
938
776
351
392
744
759
1
89
-681
251
519
-1000
-618
-482
-582
-240
-240
1000
-918
-202
369
856
-861
-254
423
789
217
-789
27
328
-1000
-173
321
232
575
80
-1000
-736
585
208
1000
151
-786
-751
1000
19
-1000
1000
-377
594
-1000
-427
480
-184
918
201
51
-429
-617
509
901
-319
190
-517
-785
-902
-894
-100
-635
983
460
904
109
-506
-450
-671
1000
-1000
777
337
362
766
1
-447
980
170
-334
-768
-394
-317
-723
-849
142
-380
210
258
953
339
394
-553
-233
380
-623
-504
-623
-1000
1000
-728
1000
848
643
-34
925
-1000
-1000
-1000
-960
-831
1000
-1000
201
-73
-684
-323
-517
395
-484
301
-1000
209
261
631
-276
1000
-332
267
574
669
-1000
-425
21
327
-560
980
-185
285
148
-377
80
-329
817
586
644
-860
593
765
-776
-155
-1000
-1000
314
-134
1
1000
-36
-328
-1000
-656
-603
957
-768
515
1000
592
435
-882
544
546
605
-380
-1000
73
549
1000
-666
-742
619
-432
1000
-1000
-317
-864
373
-1000
1000
-1000
1000
-466
1000
-199
1000
-291
-1000
959
-1000
35
-232
233
-1000
-189
-177
-321
430
-59
610
-627
724
273
-619
-214
-492
1000
-158
109
325
815
-24
-653
276
-352
1000
-4
-876
-1000
-281
-570
-1000
-104
-1000
-615
-1000
1000
-426
-304
-708
-219
556
233
-927
-1000
-1000
672
-441
179
835
1000
-696
-169
-23
-802
-71
-1000
-1000
518
69
-65
-143
1000
-150
-1000
-209
-593
-1000
-797
1
310
1
1
413
629
1
1
533
-312
-557
-46
-45
43
1
1000
-726
1000
572
-77
361
-834
15
-287
133
1
1
703
324
-208
433
683
1000
398
629
-923
1
-457
-86
1
-434
-793
-1000
-911
-907
-46
-152
-966
-660
711
572
-1000
980
-1000
184
841
332
-839
1000
-947
825
-457
328
-1000
334
938
963
-1000
-207
130
-91
-83
-639
-177
11
152
-694
883
-237
871
378
-854
785
17
-74
503
-308
-422
1000
-98
199
847
-826
818
1000
224
1
-218
-918
-863
-197
-385
-241
139
436
-675
1000
-1000
-1000
211
1000
-1000
474
1000
213
375
596
225
-940
-125
-1000
584
1000
336
-1000
-518
643
-932
-1000
539
-1000
1
837
-867
26
594
-702
-1000
665
-268
1000
-205
-1000
248
-1000
-1000
466
821
-38
-898
-565
1000
68
-619
-1000
-678
245
889
-326
-631
380
-296
-393
397
-332
-162
833
114
-54
-527
-495
-732
778
319
-1000
-1000
596
57
-237
-53
-702
-1000
1000
-360
-525
-81
-1000
-192
795
1000
723
314
158
-1000
77
627
695
1000
17
-938
-889
-88
845
184
863
-48
769
318
591
-340
-423
-284
348
-463
1000
582
1000
427
-1000
-513
-1000
-255
-1000
29
-100
362
-182
44
926
1000
-684
1000
-254
-494
-48
-208
-312
915
-507
64
808
-1000
-974
-1000
-825
-721
1000
837
-19
-1000
-1000
-687
-216
663
127
1000
-1000
-509
1000
596
227
902
-267
-123
-601
-1000
1000
-1000
885
871
780
456
1000
-124
202
-1000
-53
1
1000
328
-607
902
810
918
1000
-748
-326
-755
320
151
1000
-663
515
435
-159
632
58
1000
-88
529
1000
-793
-438
-279
1000
707
1000
-439
-1000
-167
927
156
1000
1000
938
617
351
392
744
759
1
89
-681
251
519
-1000
-618
-482
-582
-222
299
1000
-918
-202
1000
856
-376
-254
423
789
217
-789
27
328
-1000
-173
321
232
575
80
-1000
-736
585
208
1000
151
-786
-751
1000
19
-1000
1000
-377
594
-1000
-427
480
-949
662
201
51
-429
-617
509
-138
-319
190
-517
-785
-902
-894
-100
-635
983
460
904
109
-506
-450
-671
1000
-846
777
337
362
766
-180
-447
980
170
-334
-768
-394
-317
-723
-849
142
-380
210
258
953
339
394
-553
696
380
-330
-1000
-535
-1000
809
-728
1000
848
643
-34
925
-1000
-1000
-1000
-960
-831
1000
-1000
201
-73
-684
-323
-517
336
-484
984
-1000
45
261
631
-276
1000
-332
267
574
669
-1000
-151
21
327
-560
980
-185
285
148
-377
80
-329
817
586
644
-860
593
765
-776
-155
-1000
-1000
314
-134
1
1000
-36
-328
-1000
-656
-603
957
-768
515
1000
592
435
-882
544
546
605
-380
-1000
73
549
1000
-666
-742
619
-686
1000
-590
-317
-864
373
-1000
1000
-1000
1000
-466
1000
-538
1000
-291
-1000
959
-1000
-190
-232
233
-1000
-189
-177
-321
430
90
610
-627
724
273
-619
385
-285
1000
-87
109
325
971
-24
-326
276
-352
1000
-4
-876
-1000
-281
-570
-1000
-104
-1000
-615
-1000
1000
-426
-304
-708
-219
556
233
-927
-1000
-1000
672
-441
179
835
1000
-696
-169
-23
-802
-71
-1000
-1000
518
69
-65
-143
1000
-150
-1000
-209
-593
-1000
-797
1
310
1
1
413
629
1
1
533
-312
-557
-46
-45
43
1
1000
-726
1000
572
-77
361
-834
15
-287
133
1
1
703
324
-208
433
683
1000
398
629
-923
1
-457
-86
1
-434
-793
-1000
-911
-907
-46
-152
-966
-660
711
572
-1000
980
-1000
184
841
332
-839
1000
-947
825
-457
328
-1000
334
938
963
-1000
-207
130
-91
-83
-639
-177
11
152
-694
883
-237
871
378
-854
785
17
-74
503
-308
-422
1000
-98
199
847
-826
818
1000
224
1
-218
-918
-863
-197
-385
-241
139
436
-675
1000
-1000
-1000
211
1000
-1000
474
1000
213
375
596
225
-940
-125
-1000
584
1000
336
-1000
-518
643
-932
-1000
539
-1000
1
837
-867
26
594
-702
-1000
665
-268
1000
-205
-1000
248
-1000
-1000
466
821
-38
-898
-565
1000
68
-619
-1000
-678
245
889
-326
-631
380
-296
-393
397
-332
-162
833
114
-54
-527
-495
-732
778
319
-1000
-1000
596
57
-237
-53
-702
-1000
1000
-360
-525
-81
-1000
-192
795
1000
723
314
158
-1000
77
627
695
1000
17
-938
-889
-88
845
184
863
-48
769
318
591
-340
-423
-284
348
-463
1000
582
1000
427
-1000
-513
-1000
-255
-1000
29
-100
362
-182
44
926
1000
-684
1000
-254
-494
-48
-208
-312
915
-507
64
808
-1000
-974
-1000
-825
-721
1000
837
-19
-1000
-1000
-687
-216
663
127
1000
-1000
-509
1000
596
227
902
-267
-123
-601
-1000
1000
-1000
885
871
780
456
1000
-124
202
-1000
-53
1
1000
328
-607
902
810
918
1000
-748
-326
-755
320
151
1000
-663
515
435
-159
632
58
1000
-88
529
1000
-793
-438
-279
1000
707
1000
-439
-1000
-167
927
156
1000
1000
938
617
351
392
744
759
1
89
-681
251
519
-1000
-618
-482
-582
-222
299
1000
-918
-202
1000
856
-376
-254
423
789
217
-789
27
328
-1000
-173
321
232
575
80
-1000
-736
585
208
1000
151
-786
-751
1000
19
-1000
1000
-377
594
-1000
-427
480
-949
662
201
51
-429
-617
509
-138
-319
190
-517
-785
-902
-894
-100
-635
983
460
904
109
-506
-450
-671
1000
-846
777
337
362
766
-180
-447
980
170
-334
-768
-394
-317
-723
-849
142
-380
210
258
953
339
394
-553
696
380
-330
-1000
-535
-1000
809
-728
1000
848
643
-34
925
-1000
-1000
-1000
-960
-831
1000
-1000
201
-73
-684
-323
-517
336
-484
984
-1000
45
261
631
-276
1000
-332
267
574
669
-1000
-151
21
327
-560
980
-185
285
148
-377
80
-329
817
586
644
-860
593
765
-776
-155
-1000
-1000
314
-134
1
1000
-36
-328
-1000
-656
-603
957
-768
515
1000
592
435
-882
544
546
605
-380
-1000
73
549
1000
-666
-742
619
-686
1000
-590
-317
-864
373
-1000
1000
-1000
1000
-466
1000
-538
1000
-291
-1000
959
-1000
-190
-232
233
-1000
-189
-177
-321
430
90
610
-627
724
273
-619
385
-285
1000
-87
109
325
971
-24
-326
276
-352
1000
-4
-876
-1000
-281
-570
-1000
-104
-1000
-615
-1000
1000
-426
-304
-708
-219
556
233
-927
-1000
-1000
672
-441
179
835
1000
-696
-169
-23
-802
-71
-1000
-1000
518
69
-65
-143
1000
-150
-1000
-209
-593
-1000
-797
1
310
1
1
-607
629
1
1
533
-312
-557
-46
-286
43
1
1000
-726
1000
572
-77
361
-834
15
-287
133
1
1
703
165
-208
433
683
1000
25
629
-923
1
-117
-86
1
-434
-793
-1000
-911
-907
-46
-152
-966
-660
711
572
-1000
980
-1000
791
713
332
-1000
1000
-1000
825
-457
328
-1000
334
695
963
-1000
-207
130
-91
378
-639
-1000
11
152
-694
883
-237
871
-368
-854
785
17
-74
503
-308
-422
1000
-98
199
847
-826
818
1000
224
1
-218
-918
-863
-197
-385
-241
139
436
-675
1000
-1000
-1000
211
1000
-1000
29
1000
213
375
596
225
-940
-125
-1000
584
1000
336
-1000
-518
643
-932
-1000
539
-1000
1
837
-867
26
594
-702
-1000
665
-268
1000
-205
-1000
248
-1000
-1000
466
821
-38
-898
-565
1000
68
-619
-1000
-678
245
889
-326
-631
380
-296
-393
397
-332
-162
833
-47
-446
-527
-495
-533
778
319
-653
-585
596
231
215
-53
-702
-1000
862
-1000
-525
-81
-1000
-192
795
1000
723
314
158
-1000
77
627
695
670
35
-938
-889
-88
845
-727
863
-48
841
1000
591
-340
-423
-284
348
-463
1000
582
1000
427
-1000
-513
-1000
-255
-1000
29
-100
362
-182
44
926
1000
-684
1000
-254
-494
222
-639
-312
915
162
64
808
-681
-882
-1000
-825
-721
1000
837
-19
-1000
-1000
-687
-216
663
127
1000
-1000
-509
1000
596
227
902
-267
-123
-196
-1000
1000
-1000
885
871
780
456
1000
-124
202
-1000
-53
1
1000
328
-607
902
810
918
1000
-748
-326
-755
320
151
1000
-663
515
435
-159
632
-126
1000
-88
529
1000
-793
-438
-279
1000
707
1000
-439
-1000
-167
927
156
1000
1000
938
617
351
392
744
759
1
89
-681
251
519
-1000
-618
-482
-582
-240
-240
1000
-918
-202
369
856
-861
-254
423
789
217
-789
33
12
-1000
-173
321
315
575
80
-1000
-736
585
208
1000
151
-786
-751
1000
19
-1000
1000
-377
594
-1000
-427
480
-184
918
201
51
-429
-617
509
901
-319
190
-517
-785
-902
-894
-100
-635
983
623
904
142
-506
-327
-671
1000
-848
777
337
362
723
1
-447
1000
170
-334
-768
-394
-317
-723
-849
142
-380
210
258
953
339
394
-553
-652
380
-623
-504
-535
-1000
809
-728
1000
848
643
-34
925
-1000
-1000
-1000
-960
-831
1000
-1000
201
-73
-684
-323
-517
395
-484
301
-1000
209
261
631
-276
1000
-332
267
574
669
-1000
-151
21
327
-560
980
-185
285
148
-377
80
-329
817
458
644
-860
593
-415
-776
-155
-1000
-1000
314
-134
1
1000
-36
-328
-1000
-656
-603
957
-768
515
1000
592
435
-882
544
546
605
-380
-1000
73
549
1000
-666
-742
619
-686
1000
-590
-317
-864
373
-1000
1000
-1000
1000
-466
1000
-199
1000
-291
-1000
959
-1000
35
-232
233
-1000
-189
-177
-321
430
-59
610
-627
724
273
-619
-214
-492
1000
-158
109
325
815
-24
-653
276
-352
1000
-4
-876
-1000
-281
-570
-1000
-104
-1000
-615
-1000
1000
-419
-304
-93
-219
556
233
-927
-1000
-1000
278
-441
179
835
1000
-696
-169
-23
-802
-71
-1000
-1000
518
69
-65
-143
1000
-150
-1000
-209
-593
-1000
-797
229
310
1
419
413
629
1
1
533
-312
-557
-46
-45
43
1
1000
-726
1000
572
-77
536
-253
15
-283
133
1
1
703
324
-208
433
683
1000
398
629
-923
1
-457
-86
1
-434
-793
-1000
-911
-907
-46
-152
-966
-660
711
572
-1000
980
-1000
791
713
332
-1000
1000
-1000
825
-457
328
-1000
334
695
963
-1000
-207
130
-91
378
-639
-1000
11
152
-694
883
-237
871
378
-854
785
17
-74
503
-308
-422
997
-98
199
870
-826
818
1000
224
-299
-218
-918
-863
-197
-385
-241
139
436
-675
1000
-1000
-885
211
1000
-1000
474
1000
213
375
596
225
-940
-125
-1000
584
1000
336
-1000
-518
643
-932
-1000
539
-1000
1
837
-867
26
594
-1000
-1000
622
-261
1000
-205
-1000
248
-832
-1000
466
821
-38
-898
-565
1000
68
-619
-1000
-770
245
889
-326
-429
380
-296
-393
397
-332
-162
833
-47
-446
-527
-495
-533
887
319
-653
-1000
596
231
-237
1000
-588
-1000
1000
-1000
-525
-81
-1000
-192
795
1000
723
314
158
-1000
77
627
695
670
35
-938
-889
-88
845
-727
863
-48
841
1000
591
-340
-423
-284
348
-463
1000
582
1000
427
-1000
-513
-1000
-255
-1000
29
-100
362
-182
44
926
1000
-684
1000
-254
-494
-48
-208
-312
915
-507
64
808
-1000
-974
-1000
-825
-721
719
837
-19
-1000
-1000
-687
-216
663
127
1000
-1000
-509
1000
596
227
902
-267
-123
-196
-1000
1000
-1000
885
871
780
456
1000
-124
202
-1000
186
1
1000
328
-607
902
810
918
1000
-748
-326
-755
320
151
1000
-663
515
435
-159
632
-126
1000
-88
529
1000
-793
-438
-279
1000
707
1000
755
-673
-167
927
156
-148
1000
938
617
313
392
744
759
1
89
-681
1000
-53
-1000
-1000
-482
-582
-240
-240
1000
-918
-202
369
856
-861
-254
423
789
217
-789
27
328
-1000
-173
321
232
575
80
-1000
-736
585
208
1000
151
-786
-751
1000
19
-1000
1000
-377
594
-1000
-427
480
-184
918
201
51
-331
-617
509
1000
-319
190
-382
-785
-902
-894
186
-635
983
681
904
109
-506
-450
-671
1000
-1000
777
337
362
766
1
-447
980
170
-334
-768
-782
-317
-1000
-269
142
-380
210
258
953
339
394
-553
-652
380
-623
-504
-535
-1000
809
-728
1000
848
643
-34
1000
-233
-1000
-1000
-650
-831
1000
-930
755
-73
-684
-323
-517
395
-484
301
-1000
209
261
631
-276
1000
-332
267
574
669
-1000
-151
21
327
-560
980
-185
285
148
-377
80
-329
817
586
644
-860
593
765
-776
-155
-469
-1000
314
-134
1
1000
-36
-328
-1000
-656
-603
957
-768
515
1000
592
435
-882
544
546
605
-380
-1000
73
549
1000
-666
-742
619
-779
1000
-590
-317
-864
196
-1000
1000
-1000
1000
-466
1000
-199
1000
-291
-1000
959
-1000
35
-232
510
-845
-590
-177
171
430
80
372
-627
724
273
-619
-214
-492
1000
-124
109
325
1000
-24
-653
-311
-352
1000
-4
-876
-1000
-281
-570
-1000
-104
-1000
-615
-1000
1000
-426
-304
-708
-219
556
233
-927
-1000
-1000
672
-441
179
835
1000
-696
-169
-23
-802
-71
-1000
-1000
518
69
-65
-143
1000
-150
-1000
-209
-593
-1000
-797
1
310
1
1
413
629
1
1
533
-312
-557
-46
-45
43
1
1000
-726
1000
572
-77
361
-834
15
-287
133
1
1
703
324
-208
433
683
1000
398
629
-923
1
-457
-86
1
-434
-793
-1000
-911
-907
-46
-152
-966
-660
711
572
-1000
980
-1000
184
841
332
-839
1000
-947
825
-457
328
-1000
334
938
963
-1000
-207
130
-91
-83
-639
-177
11
152
-694
883
-237
871
378
-854
785
17
-74
503
-308
-422
1000
-98
199
847
-826
818
1000
224
1
-218
-918
-863
-197
-385
-241
139
436
-675
1000
-1000
-1000
211
1000
-1000
474
1000
213
375
596
225
-940
-125
-1000
584
1000
336
-1000
-518
643
-932
-1000
539
-1000
1
837
-867
26
594
-702
-1000
665
-268
1000
-205
-1000
248
-1000
-1000
466
821
-38
-898
-565
1000
68
-619
-1000
-678
245
889
-326
-631
380
-296
-393
397
-332
-162
833
114
-54
-527
-495
-732
778
319
-1000
-1000
596
57
-237
-53
-702
-1000
1000
-360
-525
-81
-1000
-192
795
1000
723
314
158
-1000
77
627
695
1000
17
-938
-889
-88
845
184
863
-48
769
318
591
-340
-423
-284
348
-463
1000
582
1000
427
-1000
-513
-1000
-255
-1000
29
-100
362
-182
44
926
1000
-684
1000
-254
-494
-48
-208
-312
915
-507
64
808
-1000
-974
-1000
-825
-721
1000
837
-19
-1000
-1000
-687
-216
663
127
1000
-1000
-509
1000
596
227
902
-267
-123
-601
-1000
1000
-1000
885
871
780
456
1000
-124
202
-1000
-53
1
1000
328
-607
902
810
918
1000
-748
-326
-755
320
151
1000
-663
515
435
-159
632
58
1000
-88
529
1000
-793
-438
-279
1000
707
1000
-439
-1000
-167
927
156
1000
1000
938
617
351
392
744
759
1
89
-681
251
519
-1000
-618
-482
-582
-222
299
1000
-918
-202
1000
856
-376
-254
423
789
217
-789
27
328
-1000
-173
321
232
575
80
-1000
-736
585
208
1000
151
-786
-751
1000
19
-1000
1000
-377
594
-1000
-427
480
-949
662
201
51
-429
-617
509
-138
-319
190
-517
-785
-902
-894
-100
-635
983
460
904
109
-506
-450
-671
1000
-846
777
337
362
766
-180
-447
980
170
-334
-768
-394
-317
-723
-849
142
-380
210
258
953
339
394
-553
696
380
-330
-1000
-535
-1000
809
-728
1000
848
643
-34
925
-1000
-1000
-1000
-960
-831
1000
-1000
201
-73
-684
-323
-517
336
-484
984
-1000
45
261
631
-276
1000
-332
267
574
669
-1000
-151
21
327
-560
980
-185
285
148
-377
80
-329
817
586
644
-860
593
765
-776
-155
-1000
-1000
314
-134
1
1000
-36
-328
-1000
-656
-603
957
-768
515
1000
592
435
-882
544
546
605
-380
-1000
73
549
1000
-666
-742
619
-686
1000
-590
-317
-864
373
-1000
1000
-1000
1000
-466
1000
-538
1000
-291
-1000
959
-1000
-190
-232
233
-1000
-189
-177
-321
430
90
610
-627
724
273
-619
385
-285
1000
-87
109
325
971
-24
-326
276
-352
1000
-4
-876
-1000
-281
-570
-1000
-104
-1000
-615
-1000
1000
-426
-304
-708
-219
556
233
-927
-1000
-1000
672
-441
179
835
1000
-696
-169
-23
-802
-71
-1000
-1000
518
69
-65
-143
1000
-150
-1000
-209
-593
-1000
-797
1
310
1
1
-607
629
1
1
533
-312
-557
-46
-286
43
1
1000
-726
1000
572
-77
361
-834
15
-287
133
1
1
703
165
-208
433
683
1000
25
629
-923
1
-117
-86
1
-434
-793
-1000
-911
-907
-46
-152
-966
-660
711
572
-1000
980
-1000
791
713
332
-1000
1000
-1000
825
-457
328
-1000
334
695
963
-1000
-207
130
-91
378
-639
-1000
11
152
-694
883
-237
871
-368
-854
785
17
-74
503
-308
-422
1000
-98
199
847
-826
818
1000
224
1
-218
-918
-863
-197
-385
-241
139
436
-675
1000
-1000
-1000
211
1000
-1000
29
1000
213
375
596
225
-940
-125
-1000
584
1000
336
-1000
-518
643
-932
-1000
539
-1000
1
837
-867
26
594
-702
-1000
665
-268
1000
-205
-1000
248
-1000
-1000
466
821
-38
-898
-565
1000
68
-619
-1000
-678
245
889
-326
-631
380
-296
-393
397
-332
-162
833
-47
-446
-527
-495
-533
778
319
-653
-585
596
231
215
-53
-702
-1000
862
-1000
-525
-81
-1000
-192
795
1000
723
314
158
-1000
77
627
695
670
35
-938
-889
-88
845
-727
863
-48
841
1000
591
-340
-423
-284
348
-463
1000
582
1000
427
-1000
-513
-1000
-255
-1000
29
-100
362
-182
44
926
1000
-684
1000
-254
-494
222
-639
-312
915
162
64
808
-681
-882
-1000
-825
-721
1000
837
-19
-1000
-1000
-687
-216
663
127
1000
-1000
-509
1000
596
227
902
-267
-123
-196
-1000
1000
-1000
885
871
780
456
1000
-124
202
-1000
-53
1
1000
328
-607
902
810
918
1000
-748
-326
-755
320
151
1000
-663
515
435
-159
632
-126
1000
-88
529
1000
-793
-438
-279
1000
707
1000
-439
-1000
-167
927
156
1000
1000
938
617
351
392
744
759
1
89
-681
251
519
-1000
-618
-482
-582
-240
-240
1000
-918
-202
369
856
-861
-254
423
789
217
-789
33
12
-1000
-173
321
315
575
80
-1000
-736
585
208
1000
151
-786
-751
1000
19
-1000
1000
-377
594
-1000
-427
480
-184
918
201
51
-429
-617
509
901
-319
190
-517
-785
-902
-894
-100
-635
983
623
904
142
-506
-327
-671
1000
-848
777
337
362
723
1
-447
1000
170
-334
-768
-394
-317
-723
-849
142
-380
210
258
953
339
394
-553
-652
380
-623
-504
-535
-1000
809
-728
1000
848
643
-34
925
-1000
-1000
-1000
-960
-831
1000
-1000
201
-73
-684
-323
-517
395
-484
301
-1000
209
261
631
-276
1000
-332
267
574
669
-1000
-151
21
327
-560
980
-185
285
148
-377
80
-329
817
458
644
-860
593
-415
-776
-155
-1000
-1000
314
-134
1
1000
-36
-328
-1000
-656
-603
957
-768
515
1000
592
435
-882
544
546
605
-380
-1000
73
549
1000
-666
-742
619
-686
1000
-590
-317
-864
373
-1000
1000
-1000
1000
-466
1000
-199
1000
-291
-1000
959
-1000
35
-232
233
-1000
-189
-177
-321
430
-59
610
-627
724
273
-619
-214
-492
1000
-158
109
325
815
-24
-653
276
-352
1000
-4
-876
-1000
-281
-570
-1000
-104
-1000
-615
-1000
1000
-419
-304
-93
-219
556
233
-927
-1000
-1000
278
-441
179
835
1000
-696
-169
-23
-802
-71
-1000
-1000
518
69
-65
-143
1000
-150
-1000
-209
-593
-1000
-797
1
310
1
1
-607
629
1
1
533
-312
-557
-46
-286
43
1
1000
-726
1000
572
-77
361
-834
15
-287
133
1
1
703
165
-208
433
683
1000
25
629
-923
1
-117
-86
1
-434
-793
-1000
-911
-907
-46
-152
-966
-660
711
572
-1000
980
-1000
791
713
332
-1000
1000
-1000
825
-457
328
-1000
334
695
963
-1000
-207
130
-91
378
-639
-1000
11
152
-694
883
-237
871
-368
-854
785
17
-74
503
-308
-422
1000
-98
199
847
-826
818
1000
224
1
-218
-918
-863
-197
-385
-241
139
436
-675
1000
-1000
-1000
211
1000
-1000
29
1000
213
375
596
225
-940
-125
-1000
584
1000
336
-1000
-518
643
-932
-1000
539
-1000
1
837
-867
26
594
-702
-1000
665
-268
1000
-205
-1000
248
-1000
-1000
466
821
-38
-898
-565
1000
68
-619
-1000
-678
245
889
-326
-631
380
-296
-393
397
-332
-162
833
-47
-446
-527
-495
-533
778
319
-653
-585
596
231
215
-53
-702
-1000
862
-1000
-525
-81
-1000
-192
795
1000
723
314
158
-1000
77
627
695
670
35
-938
-889
-88
845
-727
863
-48
841
1000
591
-340
-423
-284
348
-463
1000
582
1000
427
-1000
-513
-1000
-255
-1000
29
-100
362
-182
44
926
1000
-684
1000
-254
-494
222
-639
-312
915
162
64
808
-681
-882
-1000
-825
-721
1000
837
-19
-1000
-1000
-687
-216
663
127
1000
-1000
-509
1000
596
227
902
-267
-123
-196
-1000
1000
-1000
885
871
780
456
1000
-124
202
-1000
-53
1
1000
328
-607
902
810
918
1000
-748
-326
-755
320
151
1000
-663
515
435
-159
632
-126
1000
-88
529
1000
-793
-438
-279
1000
707
1000
-439
-1000
-167
927
156
1000
1000
938
617
351
392
744
759
1
89
-681
251
519
-1000
-618
-482
-582
-240
-240
1000
-918
-202
369
856
-861
-254
423
789
217
-789
33
12
-1000
-173
321
315
575
80
-1000
-736
585
208
1000
151
-786
-751
1000
19
-1000
1000
-377
594
-1000
-427
480
-184
918
201
51
-429
-617
509
901
-319
190
-517
-785
-902
-894
-100
-635
983
623
904
142
-506
-327
-671
1000
-848
777
337
362
723
1
-447
1000
170
-334
-768
-394
-317
-723
-849
142
-380
210
258
953
339
394
-553
-652
380
-623
-504
-535
-1000
809
-728
1000
848
643
-34
925
-1000
-1000
-1000
-960
-831
1000
-1000
201
-73
-684
-323
-517
395
-484
301
-1000
209
261
631
-276
1000
-332
267
574
669
-1000
-151
21
327
-560
980
-185
285
148
-377
80
-329
817
458
644
-860
593
-415
-776
-155
-1000
-1000
314
-134
1
1000
-36
-328
-1000
-656
-603
957
-768
515
1000
592
435
-882
544
546
605
-380
-1000
73
549
1000
-666
-742
619
-686
1000
-590
-317
-864
373
-1000
1000
-1000
1000
-466
1000
-199
1000
-291
-1000
959
-1000
35
-232
233
-1000
-189
-177
-321
430
-59
610
-627
724
273
-619
-214
-492
1000
-158
109
325
815
-24
-653
276
-352
1000
-4
-876
-1000
-281
-570
-1000
-104
-1000
-615
-1000
1000
-419
-304
-93
-219
556
233
-927
-1000
-1000
278
-441
179
835
1000
-696
-169
-23
-802
-71
-1000
-1000
518
69
-65
-143
1000
-150
-1000
-209
-593
-1000
-797
1
310
1
1
-607
629
1
1
533
-312
-557
-46
-286
43
1
1000
-726
1000
572
-77
361
-834
15
-287
133
1
1
703
165
-208
433
683
1000
25
629
-923
1
-117
-86
1
-434
-793
-1000
-911
-907
-46
-152
-966
-660
711
572
-1000
980
-1000
791
713
332
-1000
1000
-1000
825
-457
328
-1000
334
695
963
-1000
-207
130
-91
378
-639
-1000
11
152
-694
883
-237
871
-368
-854
785
17
-74
503
-308
-422
1000
-98
199
847
-826
818
1000
224
1
-218
-918
-863
-197
-385
-241
139
436
-675
1000
-1000
-1000
211
1000
-1000
29
1000
213
375
596
225
-940
-125
-1000
584
1000
336
-1000
-518
643
-932
-1000
539
-1000
1
837
-867
26
594
-702
-1000
665
-268
1000
-205
-1000
248
-1000
-1000
466
821
-38
-898
-565
1000
68
-619
-1000
-678
245
889
-326
-631
380
-296
-393
397
-332
-162
833
-47
-446
-527
-495
-533
778
319
-653
-585
596
231
215
-53
-702
-1000
862
-1000
-525
-81
-1000
-192
795
1000
723
314
158
-1000
77
627
695
670
35
-938
-889
-88
845
-727
863
-48
841
1000
591
-340
-423
-284
348
-463
1000
582
1000
427
-1000
-513
-1000
-255
-1000
29
-100
362
-182
44
926
1000
-684
1000
-254
-494
222
-639
-312
915
162
64
808
-681
-882
-1000
-825
-721
1000
837
-19
-1000
-1000
-687
-216
663
127
1000
-1000
-509
1000
596
227
902
-267
-123
-196
-1000
1000
-1000
885
871
780
456
1000
-124
202
-1000
-53
1
1000
328
-607
902
810
918
1000
-748
-326
-755
320
151
1000
-663
515
435
-159
632
-126
1000
-88
529
1000
-793
-438
-279
1000
707
1000
-439
-1000
-167
927
156
1000
1000
938
617
351
392
744
759
1
89
-681
251
519
-1000
-618
-482
-582
-240
-240
1000
-918
-202
369
856
-861
-254
423
789
217
-789
33
12
-1000
-173
321
315
575
80
-1000
-736
585
208
1000
151
-786
-751
1000
19
-1000
1000
-377
594
-1000
-427
480
-184
918
201
51
-429
-617
509
901
-319
190
-517
-785
-902
-894
-100
-635
983
623
904
142
-506
-327
-671
1000
-848
777
337
362
723
1
-447
1000
170
-334
-768
-394
-317
-723
-849
142
-380
210
258
953
339
394
-553
-652
380
-623
-504
-535
-1000
809
-728
1000
848
643
-34
925
-1000
-1000
-1000
-960
-831
1000
-1000
201
-73
-684
-323
-517
395
-484
301
-1000
209
261
631
-276
1000
-332
267
574
669
-1000
-151
21
327
-560
980
-185
285
148
-377
80
-329
817
458
644
-860
593
-415
-776
-155
-1000
-1000
314
-134
1
1000
-36
-328
-1000
-656
-603
957
-768
515
1000
592
435
-882
544
546
605
-380
-1000
73
549
1000
-666
-742
619
-686
1000
-590
-317
-864
373
-1000
1000
-1000
1000
-466
1000
-199
1000
-291
-1000
959
-1000
35
-232
233
-1000
-189
-177
-321
430
-59
610
-627
724
273
-619
-214
-492
1000
-158
109
325
815
-24
-653
276
-352
1000
-4
-876
-1000
-281
-570
-1000
-104
-1000
-615
-1000
1000
-419
-304
-93
-219
556
233
-927
-1000
-1000
278
-441
179
835
1000
-696
-169
-23
-802
-71
-1000
-1000
518
69
-65
-143
1000
-150
-1000
-209
-593
-1000
-797
1
310
1
1
413
629
1
1
533
-312
-557
-46
-45
43
1
1000
-726
1000
572
-77
361
-834
15
-287
133
1
1
703
324
-208
433
683
1000
398
629
-923
1
-457
-86
1
-434
-793
-1000
-911
-907
-337
-152
-966
-660
1000
572
-1000
980
-1000
791
713
332
-1000
1000
-1000
825
-457
328
-1000
334
695
963
-1000
-207
130
-91
378
-639
-1000
11
152
-694
883
-237
871
378
-854
785
17
-74
503
-308
-422
1000
-98
199
847
-826
818
1000
224
1
-218
-918
-863
-197
-385
-241
139
436
-675
1000
-1000
-1000
211
1000
-1000
474
1000
213
375
596
225
-940
-125
-1000
584
1000
336
-1000
-518
643
-932
-1000
539
-223
1
1000
-867
26
594
-702
-1000
665
235
906
630
-1000
-323
-1000
-1000
466
821
-38
-898
-565
1000
68
-619
-1000
-678
245
889
-326
-631
380
-296
-393
397
-332
-162
833
-47
-446
-527
-495
-533
778
319
-653
-1000
596
231
-237
-53
-702
-1000
1000
-1000
-525
-81
-1000
-192
795
1000
723
314
158
-1000
77
627
695
670
35
-938
-889
-88
845
-727
863
-48
841
1000
591
-340
-423
-284
348
-463
1000
582
1000
427
-1000
-513
-1000
-255
-1000
29
-100
362
-182
44
926
1000
-684
1000
-254
-494
388
-542
-312
915
-507
1000
808
-1000
-974
-1000
-825
-721
1000
837
-19
-1000
-1000
-687
-216
663
127
1000
-1000
-509
1000
596
227
902
-267
-123
-3
-994
1000
-1000
885
871
780
456
1000
-124
202
-1000
-53
1
1000
328
-607
902
810
918
1000
-748
-326
-755
320
151
1000
-663
515
435
-159
632
-126
1000
-88
529
1000
-793
-438
-279
1000
707
1000
-439
-1000
-167
927
156
1000
1000
938
776
351
392
744
759
1
89
-681
251
519
-1000
-618
-482
-582
-240
-240
1000
-918
-202
369
856
-861
-254
423
789
217
-789
27
328
-1000
-173
321
232
575
80
-1000
-736
585
208
1000
151
-786
-751
1000
19
-1000
1000
-377
594
-1000
-427
480
-184
918
201
51
-429
-617
509
901
-319
190
-517
-785
-902
-894
-100
-635
983
460
904
109
-506
-450
-671
1000
-1000
777
337
362
766
1
-447
980
170
-334
-768
-394
-317
-723
-849
142
-380
210
258
953
339
394
-553
-233
380
-623
-504
-623
-1000
1000
-728
1000
848
643
-34
925
-1000
-1000
-1000
-960
-831
1000
-1000
201
-73
-684
-323
-517
395
-484
301
-1000
209
261
631
-276
1000
-332
267
574
669
-1000
-425
21
327
-560
980
-185
285
148
-377
80
-329
817
586
644
-860
593
765
-776
-155
-1000
-1000
314
-134
1
1000
-36
-328
-1000
-656
-603
957
-768
515
1000
592
435
-882
544
546
605
-380
-1000
73
549
1000
-666
-742
619
-432
1000
-1000
-317
-864
373
-1000
1000
-1000
1000
-466
1000
-199
1000
-291
-1000
959
-1000
35
-232
233
-1000
-189
-177
-321
430
-59
610
-627
724
273
-619
-214
-492
1000
-158
109
325
815
-24
-653
276
-352
1000
-4
-876
-1000
-281
-570
-1000
-104
-1000
-615
-1000
1000
-426
-304
-708
-219
556
233
-927
-1000
-1000
672
-441
179
835
1000
-696
-169
-23
-802
-71
-1000
-1000
518
69
-65
-143
1000
-150
-1000
-209
-593
-1000
-797
1
310
1
1
413
629
1
1
533
-312
-557
-46
-45
43
1
1000
-726
1000
572
-77
361
-834
15
-287
133
1
1
703
324
-208
433
683
1000
398
629
-923
1
-457
-86
1
-434
-793
-1000
-911
-907
-46
-152
-966
-660
711
572
-1000
980
-1000
791
713
332
-1000
1000
-1000
825
-457
328
-1000
334
695
963
-1000
-207
130
-91
378
-639
-1000
11
152
-694
883
-237
871
378
-854
785
17
-74
503
-308
-422
1000
-98
199
847
-826
818
1000
224
1
-218
-918
-863
-197
-385
-241
139
436
-675
1000
-1000
-1000
211
1000
-1000
474
1000
213
375
596
225
-940
-125
-1000
584
1000
336
-1000
-518
643
-932
-1000
539
-1000
1
837
-867
26
594
-702
-1000
665
-268
1000
-205
-1000
248
-1000
-1000
466
821
-38
-898
-565
1000
68
-619
-1000
-678
245
889
-326
-631
380
-296
-393
397
-332
-162
833
-47
-446
-527
-495
-533
778
319
-653
-1000
596
231
-237
-53
-702
-1000
1000
-1000
-525
-81
-1000
-192
795
1000
723
314
158
-1000
77
627
695
670
35
-938
-889
-88
845
-727
863
-48
841
1000
591
-340
-423
-284
348
-463
1000
582
1000
427
-1000
-513
-1000
-255
-1000
29
-100
362
-182
44
926
1000
-684
1000
-254
-494
-48
-208
-312
915
-507
64
808
-1000
-974
-1000
-825
-721
1000
837
-19
-1000
-1000
-687
-216
663
127
1000
-1000
-509
1000
596
227
902
-267
-123
-196
-1000
1000
-1000
885
871
780
456
1000
-124
202
-1000
-53
1
1000
328
-607
902
810
918
1000
-748
-326
-755
320
151
1000
-663
515
435
-159
632
-126
1000
-88
529
1000
-793
-438
-279
1000
707
1000
-439
-1000
-167
927
156
1000
1000
938
617
351
392
744
759
1
89
-681
251
519
-1000
-618
-482
-582
-240
-240
1000
-918
-202
369
856
-861
-254
423
789
217
-789
27
328
-1000
-173
321
232
575
80
-1000
-736
585
208
1000
151
-786
-751
1000
19
-1000
1000
-377
594
-1000
-427
480
-184
918
201
51
-429
-617
509
901
-319
190
-517
-785
-902
-894
-100
-635
983
460
904
109
-506
-450
-671
1000
-1000
777
337
362
766
1
-447
980
170
-334
-768
-394
-317
-723
-849
142
-380
210
258
953
339
394
-553
-652
380
-623
-504
-535
-1000
809
-728
1000
848
643
-34
925
-1000
-1000
-1000
-960
-831
1000
-1000
201
-73
-684
-323
-517
395
-484
301
-1000
209
261
631
-276
1000
-332
267
574
669
-1000
-151
21
327
-560
980
-185
285
148
-377
80
-329
817
586
644
-860
593
765
-776
-155
-1000
-1000
314
-134
1
1000
-36
-328
-1000
-656
-603
957
-768
515
1000
592
435
-882
544
546
605
-380
-1000
73
549
1000
-666
-742
619
-686
1000
-590
-317
-864
373
-1000
1000
-1000
1000
-466
1000
-199
1000
-291
-1000
959
-1000
35
-232
233
-1000
-189
-177
-321
430
-59
610
-627
724
273
-619
-214
-492
1000
-158
109
325
815
-24
-653
276
-352
1000
-4
-876
-1000
-281
-570
-1000
-104
-1000
-615
-1000
1000
-426
-304
-708
-219
556
233
-927
-1000
-1000
672
-441
179
835
1000
-696
-169
-23
-802
-71
-1000
-1000
518
69
-65
-143
1000
-150
-1000
-209
-593
-1000
-797
1
310
1
1
413
629
1
1
533
-312
-557
-46
-45
43
1
1000
-726
1000
572
-77
361
-834
15
-287
133
1
1
703
324
-208
433
683
1000
398
629
-923
1
-457
-86
1
-434
-793
-1000
-911
-907
-337
-152
-966
-660
1000
572
-1000
980
-1000
791
713
332
-1000
1000
-1000
825
-457
328
-1000
334
695
963
-1000
-207
130
-91
378
-639
-1000
11
152
-694
883
-237
871
378
-854
785
17
-74
503
-308
-422
1000
-98
199
847
-826
818
1000
224
1
-218
-918
-863
-197
-385
-241
139
436
-675
1000
-1000
-1000
211
1000
-1000
474
1000
213
375
596
225
-940
-125
-1000
584
1000
336
-1000
-518
643
-932
-1000
539
-223
1
1000
-867
26
594
-702
-1000
665
235
906
630
-1000
-323
-1000
-1000
466
821
-38
-898
-565
1000
68
-619
-1000
-678
245
889
-326
-631
380
-296
-393
397
-332
-162
833
-47
-446
-527
-495
-533
778
319
-653
-1000
596
231
-237
-53
-702
-1000
1000
-1000
-525
-81
-1000
-192
795
1000
723
314
158
-1000
77
627
695
670
35
-938
-889
-88
845
-727
863
-48
841
1000
591
-340
-423
-284
348
-463
1000
582
1000
427
-1000
-513
-1000
-255
-1000
29
-100
362
-182
44
926
1000
-684
1000
-254
-494
388
-542
-312
915
-507
1000
808
-1000
-974
-1000
-825
-721
1000
837
-19
-1000
-1000
-687
-216
663
127
1000
-1000
-509
1000
596
227
902
-267
-123
-3
-994
1000
-1000
885
871
780
456
1000
-124
202
-1000
-53
1
1000
328
-607
902
810
918
1000
-748
-326
-755
320
151
1000
-663
515
435
-159
632
-126
1000
-88
529
1000
-793
-438
-279
1000
707
1000
-439
-1000
-167
927
156
1000
1000
938
776
351
392
744
759
1
89
-681
251
519
-1000
-618
-482
-582
-240
-240
1000
-918
-202
369
856
-861
-254
423
789
217
-789
27
328
-1000
-173
321
232
575
80
-1000
-736
585
208
1000
151
-786
-751
1000
19
-1000
1000
-377
594
-1000
-427
480
-184
918
201
51
-429
-617
509
901
-319
190
-517
-785
-902
-894
-100
-635
983
460
904
109
-506
-450
-671
1000
-1000
777
337
362
766
1
-447
980
170
-334
-768
-394
-317
-723
-849
142
-380
210
258
953
339
394
-553
-233
380
-623
-504
-623
-1000
1000
-728
1000
848
643
-34
925
-1000
-1000
-1000
-960
-831
1000
-1000
201
-73
-684
-323
-517
395
-484
301
-1000
209
261
631
-276
1000
-332
267
574
669
-1000
-425
21
327
-560
980
-185
285
148
-377
80
-329
817
586
644
-860
593
765
-776
-155
-1000
-1000
314
-134
1
1000
-36
-328
-1000
-656
-603
957
-768
515
1000
592
435
-882
544
546
605
-380
-1000
73
549
1000
-666
-742
619
-432
1000
-1000
-317
-864
373
-1000
1000
-1000
1000
-466
1000
-199
1000
-291
-1000
959
-1000
35
-232
233
-1000
-189
-177
-321
430
-59
610
-627
724
273
-619
-214
-492
1000
-158
109
325
815
-24
-653
276
-352
1000
-4
-876
-1000
-281
-570
-1000
-104
-1000
-615
-1000
1000
-426
-304
-708
-219
556
233
-927
-1000
-1000
672
-441
179
835
1000
-696
-169
-23
-802
-71
-1000
-1000
518
69
-65
-143
1000
-150
-1000
-209
-593
-1000
-797
1
310
1
1
-607
629
1
1
533
-312
-557
-46
-286
43
1
1000
-726
1000
572
-77
361
-834
15
-287
133
1
1
703
165
-208
433
683
1000
25
629
-923
1
-117
-86
1
-434
-793
-1000
-911
-907
-46
-152
-966
-660
711
572
-1000
980
-1000
791
713
332
-1000
1000
-1000
825
-457
328
-1000
334
695
963
-1000
-207
130
-91
378
-639
-1000
11
152
-694
883
-237
871
-368
-854
785
17
-74
503
-308
-422
1000
-98
199
847
-826
818
1000
224
1
-218
-918
-863
-197
-385
-241
139
436
-675
1000
-1000
-1000
211
1000
-1000
29
1000
213
375
596
225
-940
-125
-1000
584
1000
336
-1000
-518
643
-932
-1000
539
-1000
1
837
-867
26
594
-702
-1000
665
-268
1000
-205
-1000
248
-1000
-1000
466
821
-38
-898
-565
1000
68
-619
-1000
-678
245
889
-326
-631
380
-296
-393
397
-332
-162
833
-47
-446
-527
-495
-533
778
319
-653
-585
596
231
215
-53
-702
-1000
862
-1000
-525
-81
-1000
-192
795
1000
723
314
158
-1000
77
627
695
670
35
-938
-889
-88
845
-727
863
-48
841
1000
591
-340
-423
-284
348
-463
1000
582
1000
427
-1000
-513
-1000
-255
-1000
29
-100
362
-182
44
926
1000
-684
1000
-254
-494
222
-639
-312
915
162
64
808
-681
-882
-1000
-825
-721
1000
837
-19
-1000
-1000
-687
-216
663
127
1000
-1000
-509
1000
596
227
902
-267
-123
-196
-1000
1000
-1000
885
871
780
456
1000
-124
202
-1000
-53
1
1000
328
-607
902
810
918
1000
-748
-326
-755
320
151
1000
-663
515
435
-159
632
-126
1000
-88
529
1000
-793
-438
-279
1000
707
1000
-439
-1000
-167
927
156
1000
1000
938
617
351
392
744
759
1
89
-681
251
519
-1000
-618
-482
-582
-240
-240
1000
-918
-202
369
856
-861
-254
423
789
217
-789
33
12
-1000
-173
321
315
575
80
-1000
-736
585
208
1000
151
-786
-751
1000
19
-1000
1000
-377
594
-1000
-427
480
-184
918
201
51
-429
-617
509
901
-319
190
-517
-785
-902
-894
-100
-635
983
623
904
142
-506
-327
-671
1000
-848
777
337
362
723
1
-447
1000
170
-334
-768
-394
-317
-723
-849
142
-380
210
258
953
339
394
-553
-652
380
-623
-504
-535
-1000
809
-728
1000
848
643
-34
925
-1000
-1000
-1000
-960
-831
1000
-1000
201
-73
-684
-323
-517
395
-484
301
-1000
209
261
631
-276
1000
-332
267
574
669
-1000
-151
21
327
-560
980
-185
285
148
-377
80
-329
817
458
644
-860
593
-415
-776
-155
-1000
-1000
314
-134
1
1000
-36
-328
-1000
-656
-603
957
-768
515
1000
592
435
-882
544
546
605
-380
-1000
73
549
1000
-666
-742
619
-686
1000
-590
-317
-864
373
-1000
1000
-1000
1000
-466
1000
-199
1000
-291
-1000
959
-1000
35
-232
233
-1000
-189
-177
-321
430
-59
610
-627
724
273
-619
-214
-492
1000
-158
109
325
815
-24
-653
276
-352
1000
-4
-876
-1000
-281
-570
-1000
-104
-1000
-615
-1000
1000
-419
-304
-93
-219
556
233
-927
-1000
-1000
278
-441
179
835
1000
-696
-169
-23
-802
-71
-1000
-1000
518
69
-65
-143
1000
-150
-1000
-209
-593
-1000
-797
1
310
1
1
-607
629
1
1
533
-312
-557
-46
-286
43
1
1000
-726
1000
572
-77
361
-834
15
-287
133
1
1
703
165
-208
433
683
1000
25
629
-923
1
-117
-86
1
-434
-793
-1000
-911
-907
-46
-152
-966
-660
711
572
-1000
980
-1000
791
713
332
-1000
1000
-1000
825
-457
328
-1000
334
695
963
-1000
-207
130
-91
378
-639
-1000
11
152
-694
883
-237
871
-368
-854
785
17
-74
503
-308
-422
1000
-98
199
847
-826
818
1000
224
1
-218
-918
-863
-197
-385
-241
139
436
-675
1000
-1000
-1000
211
1000
-1000
29
1000
213
375
596
225
-940
-125
-1000
584
1000
336
-1000
-518
643
-932
-1000
539
-1000
1
837
-867
26
594
-702
-1000
665
-268
1000
-205
-1000
248
-1000
-1000
466
821
-38
-898
-565
1000
68
-619
-1000
-678
245
889
-326
-631
380
-296
-393
397
-332
-162
833
-47
-446
-527
-495
-533
778
319
-653
-585
596
231
215
-53
-702
-1000
862
-1000
-525
-81
-1000
-192
795
1000
723
314
158
-1000
77
627
695
670
35
-938
-889
-88
845
-727
863
-48
841
1000
591
-340
-423
-284
348
-463
1000
582
1000
427
-1000
-513
-1000
-255
-1000
29
-100
362
-182
44
926
1000
-684
1000
-254
-494
222
-639
-312
915
162
64
808
-681
-882
-1000
-825
-721
1000
837
-19
-1000
-1000
-687
-216
663
127
1000
-1000
-509
1000
596
227
902
-267
-123
-196
-1000
1000
-1000
885
871
780
456
1000
-124
202
-1000
-53
1
1000
328
-607
902
810
918
1000
-748
-326
-755
320
151
1000
-663
515
435
-159
632
-126
1000
-88
529
1000
-793
-438
-279
1000
707
1000
-439
-1000
-167
927
156
1000
1000
938
617
351
392
744
759
1
89
-681
251
519
-1000
-618
-482
-582
-240
-240
1000
-918
-202
369
856
-861
-254
423
789
217
-789
33
12
-1000
-173
321
315
575
80
-1000
-736
585
208
1000
151
-786
-751
1000
19
-1000
1000
-377
594
-1000
-427
480
-184
918
201
51
-429
-617
509
901
-319
190
-517
-785
-902
-894
-100
-635
983
623
904
142
-506
-327
-671
1000
-848
777
337
362
723
1
-447
1000
170
-334
-768
-394
-317
-723
-849
142
-380
210
258
953
339
394
-553
-652
380
-623
-504
-535
-1000
809
-728
1000
848
643
-34
925
-1000
-1000
-1000
-960
-831
1000
-1000
201
-73
-684
-323
-517
395
-484
301
-1000
209
261
631
-276
1000
-332
267
574
669
-1000
-151
21
327
-560
980
-185
285
148
-377
80
-329
817
458
644
-860
593
-415
-776
-155
-1000
-1000
314
-134
1
1000
-36
-328
-1000
-656
-603
957
-768
515
1000
592
435
-882
544
546
605
-380
-1000
73
549
1000
-666
-742
619
-686
1000
-590
-317
-864
373
-1000
1000
-1000
1000
-466
1000
-199
1000
-291
-1000
959
-1000
35
-232
233
-1000
-189
-177
-321
430
-59
610
-627
724
273
-619
-214
-492
1000
-158
109
325
815
-24
-653
276
-352
1000
-4
-876
-1000
-281
-570
-1000
-104
-1000
-615
-1000
1000
-419
-304
-93
-219
556
233
-927
-1000
-1000
278
-441
179
835
1000
-696
-169
-23
-802
-71
-1000
-1000
518
69
-65
-143
1000
-150
-1000
-209
-593
-1000
-797
1
310
1
1
-607
629
1
1
533
-312
-557
-46
-286
43
1
1000
-726
1000
572
-77
361
-834
15
-287
133
1
1
703
165
-208
433
683
1000
25
629
-923
1
-117
-86
1
-551
-793
-1000
-911
-907
-46
-152
-1000
-660
1000
572
-1000
980
-1000
791
713
332
-1000
1000
-1000
825
-457
328
-1000
334
695
963
-1000
-207
130
-91
378
-639
-1000
11
152
-694
883
-237
871
-368
-854
785
17
-74
503
-308
-422
344
-98
199
1000
-826
818
1000
-536
-313
-218
-615
