-1000
1000
-1000
-1000
227
-440
-784
-920
289
739
-249
-1000
-1000
801
-242
-822
235
-282
-176
30
185
369
1
226
-124
1000
572
51
-342
-834
123
466
133
480
1
1000
261
-57
745
961
1000
25
37
-179
-1000
227
1000
-13
-169
325
-1000
-1000
-872
-91
757
162
-1000
-677
-368
-585
-918
-928
1000
1000
245
-575
1000
-930
825
-492
-1000
-1000
4
-29
902
141
-968
550
-606
299
-988
-529
-247
-1000
-392
883
-528
1000
-675
-488
377
-502
513
531
197
-2
1000
152
-84
847
-826
193
737
224
313
-22
-918
-1000
-196
-1000
-897
997
436
254
198
-1000
-352
146
1000
-393
1000
410
489
-542
-11
1000
-116
906
-450
860
1000
-739
-35
6
-10
-395
-816
760
-1000
-1000
1000
-593
615
183
-786
-884
979
-754
1000
700
-514
957
-717
-875
-160
-854
-1000
-354
537
1000
367
-407
39
312
548
-50
-824
1000
648
-404
-376
-1000
-982
257
-334
-342
-325
40
-177
765
127
282
394
427
360
-740
-90
566
-846
-410
-178
-1000
1000
-611
-1000
-551
-445
119
1000
1000
-613
-1000
358
559
-578
1000
361
-626
-1000
13
1000
-476
863
264
1000
1000
815
-927
-444
-1000
438
-969
-314
1000
1000
-1000
-1000
376
-1000
755
-699
232
-100
362
-587
666
-135
-651
-1000
915
343
1000
222
-476
-977
1000
-29
-379
1000
684
-1000
-864
-626
-836
703
173
-25
-1000
-451
-530
-688
1000
224
239
-1000
-384
1000
626
1000
-345
-973
-377
-926
-1000
1000
-1000
751
-571
-141
-573
250
1000
-603
249
-260
-43
757
1000
-335
902
-640
1000
283
-556
-1000
-736
-468
893
1000
1000
1000
-367
-159
632
-146
-1000
1000
-640
715
-1000
-833
44
815
597
1000
-600
-798
-305
1000
-378
769
1000
329
-633
159
20
664
759
-377
-1000
-1000
-317
969
-1000
-463
-450
-662
-750
-493
1000
-1000
-450
-370
1000
-560
-1000
-151
102
368
61
-1000
375
-166
-328
-453
315
348
307
-193
1000
-63
-325
582
123
34
-927
956
-526
27
185
-963
413
-1000
511
762
709
349
-267
548
-1000
-4
509
-1000
-887
621
-659
-1000
-1000
-747
-102
-1000
1000
565
-407
985
1000
-881
-938
1000
-848
1000
532
501
1000
1
-447
902
-159
445
13
-662
-310
-1000
-1000
-266
-62
-1000
580
1000
870
1000
-104
-57
-831
83
-1000
-119
-1000
-301
-662
1000
375
229
-499
775
-1000
-586
-1000
-1000
283
1000
-100
81
-623
-150
872
85
-996
-511
1000
46
305
204
-247
216
1000
-583
-191
1000
669
-1000
49
-1000
1000
-1000
822
-481
-399
-1000
-1000
375
-90
403
914
394
-1000
438
534
188
-473
-229
-1000
149
-134
-461
1000
1000
-114
-1000
259
-528
1000
-1000
377
1000
604
1000
-323
544
896
-159
-662
-741
77
549
934
-1000
-911
1000
-1000
731
-852
-1000
-864
373
-1000
1000
-523
454
-1000
1000
234
-90
285
-1000
1000
-655
-707
-222
368
-1000
-91
667
-289
421
-56
1000
-1000
-1000
-546
674
370
-758
297
546
-1000
1000
373
201
1000
633
179
925
-255
-1000
-1000
713
-561
1000
1000
-649
-881
185
829
-35
-104
1000
996
1000
712
-1000
-743
-153
533
-1000
650
715
889
-1000
-1000
778
1000
828
-1000
96
201
-223
-560
-1000
1000
-1000
-1000
227
-440
-784
-920
289
739
-249
-1000
-1000
801
-242
-822
235
-282
64
1000
185
-91
1
226
-124
1000
572
51
-342
-990
123
466
-387
891
1
1000
261
-57
745
961
1000
25
37
-179
-1000
227
1000
-13
-169
486
-18
-653
486
-91
-476
162
-895
-613
-368
-484
-918
-928
1000
1000
129
-835
1000
-930
825
-492
-1000
-1000
4
-29
902
141
-968
550
-606
299
-988
-529
-247
-1000
371
883
-874
747
-675
-1000
338
-502
513
-224
1000
-2
1000
-237
-84
847
-826
193
1000
224
313
-686
-918
-1000
-196
-1000
-897
997
436
254
198
-1000
-352
146
1000
-393
1000
410
489
-542
-11
1000
-647
906
-450
860
1000
-575
-35
6
-10
-395
-816
760
-1000
-1000
1000
-593
615
183
-786
-884
979
-754
633
677
-514
424
33
-845
-160
-854
-1000
-354
537
1000
367
-407
39
312
548
-50
-824
1000
648
-404
-376
-894
-982
257
-334
-342
-325
40
-177
765
186
282
183
427
360
-740
372
566
-396
-1000
-149
-1000
1000
-611
-1000
-551
-445
119
1000
1000
-613
-1000
358
559
-371
1000
35
-631
-1000
-56
1000
-476
863
264
1000
1000
1000
-927
-265
-1000
438
-957
-314
1000
1000
-1000
-1000
376
-1000
755
-699
232
566
254
-587
905
-135
-569
-1000
915
343
1000
222
-476
-794
1000
-29
-259
1000
1000
-1000
-864
-626
323
703
173
-25
-1000
-451
-530
-24
1000
224
239
-1000
-384
1000
626
1000
-345
-973
-377
-926
-1000
1000
-1000
751
-571
-680
-302
250
1000
-603
249
-260
34
726
1000
-367
902
-640
1000
1000
-556
-1000
-736
-561
1000
1000
819
1000
-860
-159
632
-146
-1000
1000
-640
715
-1000
-833
44
867
597
1000
-600
-798
-305
1000
-378
769
1000
681
-633
-195
30
1000
759
-779
-809
-1000
-317
1000
-1000
-977
-450
-662
-750
-493
1000
-1000
-450
-370
1000
-560
-1000
-151
102
368
61
-1000
375
-166
-328
-453
315
-108
307
-193
1000
-63
-325
795
123
34
-927
956
-526
27
185
-963
413
-1000
1000
762
709
349
-267
548
-1000
-264
509
-1000
-887
621
-659
-1000
-1000
-747
-102
169
1000
863
-407
1000
1000
-881
-1000
1000
-848
1000
532
501
1000
-675
-271
1000
-159
103
135
-662
-310
-1000
-1000
-946
-62
-1000
580
1000
870
1000
-104
-57
-489
83
-1000
-119
-1000
-301
-543
1000
375
229
-499
775
-1000
-586
-1000
-1000
283
1000
-100
81
-623
-150
872
85
-996
-511
1000
46
305
204
-247
216
1000
-583
-191
242
669
-472
434
-1000
1000
-1000
822
-557
-399
-1000
-1000
259
-90
403
914
394
-1000
94
534
188
-473
-306
-1000
149
-45
-461
388
1000
-441
-1000
259
-425
1000
-1000
377
1000
604
1000
-323
544
896
-159
-662
-1000
77
549
934
-1000
-911
1000
-1000
51
-852
-1000
-864
373
-1000
1000
-523
321
-1000
1000
390
-90
285
-1000
1000
-655
71
-222
368
-1000
-91
667
-289
421
-56
1000
-1000
-1000
-546
674
370
-758
297
546
-1000
1000
373
201
1000
633
179
925
-255
-553
-1000
376
-561
1000
717
-1000
-881
822
829
-35
-104
1000
996
1000
712
-1000
-743
-153
533
-1000
650
715
889
-1000
-1000
778
1000
828
-1000
96
201
-223
-560
-1000
844
-183
-1000
-55
-1000
-1000
-858
365
739
-249
-1000
-799
1000
357
-1000
235
-282
-1000
1000
575
226
1
-382
-891
1000
-22
-504
597
-611
380
466
704
299
1
1000
295
422
-347
705
1000
-1000
806
-230
-741
-426
-228
-325
799
1000
-1000
-684
-872
-1000
743
-495
-1000
-378
-728
-585
-918
-637
1000
185
-703
840
890
-408
825
-1000
423
-1000
4
1000
344
1000
-874
1000
-569
625
-732
-1000
-268
-819
-1000
1000
-203
806
-437
-488
860
-574
344
531
174
-233
758
-1000
199
847
-861
699
737
224
313
-22
-918
-551
-196
-1000
-882
764
550
254
602
-1000
-352
146
1000
-393
1000
410
489
-61
209
1000
-116
906
-450
860
1000
-739
306
6
-131
-910
-816
-285
-1000
-1000
807
-1000
-626
195
-1000
-884
377
-842
570
1000
79
957
-717
-1000
-160
-854
-832
-648
-81
666
367
-936
-748
1000
245
-205
-576
1000
976
-897
-187
-980
-1000
-12
483
-150
-885
92
575
-228
186
341
1000
427
596
-740
-343
22
-122
-1000
-288
-116
-102
-938
-229
-551
207
119
-359
707
-128
-978
358
559
372
560
307
-822
-889
-56
845
453
863
-278
1000
655
815
-577
-435
-719
-38
-369
-1000
192
634
-1000
-1000
376
-1000
-697
-692
29
1000
362
-256
650
-183
-651
-1000
492
-410
986
222
-476
-264
1000
-496
271
577
684
-1000
-922
-626
-1000
-7
456
-25
-518
-312
-1000
-505
1000
224
-94
-1000
-384
1000
972
224
1000
-1000
-885
-1000
-1000
153
-1000
751
-571
-738
-424
703
1000
-813
182
-978
342
1000
952
-572
88
539
1000
1000
-556
-1000
-736
-1000
1000
1000
878
682
-1000
861
800
-126
-638
738
-458
1000
-791
-1000
290
1000
1000
935
-76
-802
127
1000
-44
-1000
1000
298
-278
428
20
1000
759
-1000
-809
-1000
-317
670
-1000
-463
-412
-662
-750
-347
1000
-1000
-450
-370
1000
-560
-1000
-151
1
1000
484
-592
375
-166
-1000
-868
315
287
65
139
379
-136
-1000
1000
986
155
905
1000
-756
27
712
-963
37
-579
1000
212
709
139
201
1000
-428
71
1000
-1000
-462
621
-659
-676
-902
-1000
-102
-577
1000
980
-407
1000
720
-485
-938
1000
-848
1000
532
501
1000
1
-447
902
87
-211
-1000
-976
-524
-1000
-1000
-1000
-380
-847
663
764
428
1000
-104
-57
-489
-878
-1000
-119
-1000
-301
-543
1000
33
616
976
1000
-1000
175
255
-960
-103
961
-100
-110
-50
-150
872
85
-1000
-511
1000
46
781
204
-924
77
1000
-583
-191
1000
669
-1000
478
-917
1000
-1000
822
-481
-760
-1000
-1000
375
-709
547
1000
394
-1000
660
-565
529
-332
1000
-428
149
-134
-342
1000
1000
-114
-309
259
-528
853
-1000
377
1000
604
1000
-113
544
896
-159
508
-884
-626
1000
1000
-213
-486
1000
-808
746
-1000
-1000
-899
-220
-1000
1000
-419
321
-1000
1000
401
182
614
-584
1000
151
147
-298
546
-434
-461
-1000
-321
947
95
380
-121
-1000
31
674
1000
-758
1000
185
-1000
634
450
989
1000
1000
575
1000
-573
-192
-960
-18
731
1000
501
-264
203
266
848
-35
-104
1000
893
1000
-95
-1000
-571
-518
-160
-1000
631
715
1000
-1000
-930
1000
790
272
-1000
219
-661
430
-343
-828
1000
-908
-1000
-209
-440
-784
-920
365
739
-249
-1000
-1000
801
-242
-822
235
-282
-592
1000
185
369
1
226
-888
1000
572
-504
-342
-834
123
480
133
1
1
1000
659
-57
850
961
1000
25
1000
-230
-277
227
976
-13
-169
325
-1000
-703
-872
-91
-7
-449
-1000
-677
-368
-548
-918
-928
1000
1000
245
-575
1000
-930
825
-492
-1000
-1000
-950
455
902
1000
-532
-564
-881
299
-812
-651
-247
-1000
-666
883
-528
1000
-675
-488
229
-502
513
531
383
-2
1000
152
-421
662
-619
1000
737
-1000
-698
-131
-1000
-1000
-196
-1000
-897
1000
436
254
198
-1000
-352
146
1000
-393
809
410
489
-542
-1000
688
-116
906
-396
860
233
-739
-227
517
-793
150
-816
1000
-659
-1000
1000
978
615
289
-786
-884
377
-754
1000
700
-514
957
-717
-1000
-160
-854
-891
517
2
1000
367
30
-573
811
246
-371
-824
972
1000
-404
-182
-1000
-982
257
365
313
-885
292
212
30
186
314
183
427
360
-740
3
22
-253
-1000
-149
-684
451
-368
-278
-824
460
252
1000
707
-613
-781
358
559
172
560
35
-822
-889
-56
1000
-476
863
-278
1000
1000
815
-927
-444
-1000
438
-369
-314
751
634
-1000
-1000
376
-1000
755
-699
-198
-302
362
677
402
-135
-651
-1000
915
343
1000
222
-476
-977
647
-29
-379
1000
1000
-1000
-864
-59
-836
-198
456
-25
-908
-312
-262
-688
1000
-169
-180
-1000
-384
1000
626
1000
-345
-973
19
-926
-1000
437
-1000
751
-571
-141
-247
887
1000
-603
182
-342
-43
757
1000
-367
1000
-204
1000
1000
103
-1000
-736
-296
1000
1000
819
682
-367
-159
632
-146
-1000
1000
-696
926
-538
-540
-279
815
597
1000
-600
-798
-305
1000
-378
769
1000
329
-633
159
20
1000
759
-1000
-209
-1000
-317
539
-1000
-463
-412
-662
-750
-493
1000
-1000
-450
-370
1000
-560
-1000
-151
102
368
208
-1000
375
-166
-328
-409
315
348
307
-193
379
-808
-247
582
123
-414
267
956
-526
-600
53
-453
927
-1000
1000
528
341
349
201
-363
-1000
-4
509
-565
-844
621
-407
-737
-902
-747
570
-1000
816
565
-407
985
1000
-881
-938
1000
-848
1000
532
911
1000
1
-447
902
954
-20
-1000
-1000
-276
-833
-1000
-126
-62
-847
-270
1000
109
1000
-104
-57
-686
-432
-1000
-119
-1000
-867
-543
1000
913
430
-1000
778
-1000
-586
-1000
-761
-103
1000
-372
653
-722
-8
872
85
-996
-511
1000
46
305
396
-329
216
1000
-583
-191
1000
669
-1000
199
-1000
1000
-1000
822
-481
-219
-1000
-1000
345
-722
403
632
452
-410
438
534
188
-473
-591
-760
149
-134
-461
1000
476
-114
-1000
772
-1000
690
-1000
377
1000
604
1000
-323
544
896
-159
-662
-741
77
549
934
-1000
-911
464
-1000
731
-1000
-1000
-864
373
-1000
1000
-523
321
-1000
1000
-176
182
285
-1000
1000
-733
71
-298
368
-1000
-377
667
310
437
-56
1000
-1000
-757
-546
674
370
-758
297
546
-1000
1000
373
201
1000
633
179
945
408
-192
-1000
-18
-489
437
501
-1000
-971
611
185
-35
-104
912
722
920
712
-1000
-743
-332
533
-545
650
715
1000
-1000
-1000
1000
1000
828
-1000
547
201
430
-560
-828
1000
-908
-1000
227
-440
-784
-920
365
739
-249
-1000
-1000
801
-242
-253
50
-282
-592
1000
185
369
1
226
-888
1000
572
-504
-342
-834
123
466
133
1
1
1000
261
-57
745
961
1000
25
37
-230
-277
227
267
-13
-169
325
-1000
-703
-872
-91
757
-449
-1000
-677
-368
-585
-918
-928
1000
1000
245
-575
1000
-930
825
-492
-1000
-1000
4
526
902
893
-420
775
-649
12
-812
-651
-247
-807
-1000
883
-1000
1000
-505
-488
-660
-502
-472
531
383
-2
1000
152
-84
847
-826
193
737
224
313
-22
-918
-1000
-196
-1000
-897
997
436
254
198
-1000
-352
146
1000
-393
1000
410
489
-542
-11
1000
-116
906
-450
860
1000
-739
-35
6
-10
-395
-816
760
-1000
-1000
1000
-593
615
183
-786
-884
979
-754
1000
700
-514
957
-717
-875
-160
-854
-1000
-354
2
1000
367
-407
39
811
548
-371
-824
1000
1000
-404
-182
-1000
-982
257
365
-342
-463
40
212
30
186
282
183
427
360
-740
3
566
-253
-1000
-149
-684
-135
-368
-1000
-551
-445
119
1000
363
-613
-1000
299
559
158
560
347
-822
-1000
8
1000
-476
863
-1000
745
1000
815
-927
-444
-659
-107
-369
-314
751
634
-1000
-744
376
-1000
755
-528
29
-100
362
578
370
-135
-651
-1000
915
648
1000
222
-476
-977
1000
-29
252
1000
684
-1000
-864
-626
-836
623
456
-25
-996
-312
-530
-688
1000
224
-94
-1000
-384
1000
626
1000
-345
-973
19
-926
-1000
437
-1000
751
-708
-141
-247
1000
1000
-603
182
-342
-43
757
1000
-367
902
-1000
1000
1000
-556
-1000
-736
-561
1000
1000
819
1000
-367
-159
632
-146
-1000
1000
-640
715
-1000
-833
-279
815
597
1000
-600
-798
-305
1000
-378
769
1000
329
-633
159
20
1000
759
-1000
-809
-171
235
969
-1000
-463
-412
-1000
-750
-493
1000
-1000
-450
-370
1000
-560
-1000
-151
102
368
208
-1000
375
-166
-328
-409
315
348
307
-193
379
-326
-247
582
123
-414
-105
956
-526
-291
185
-963
746
-1000
1000
762
709
349
201
548
-1000
-4
509
-565
-887
621
-659
-869
-902
-747
-102
-1000
1000
565
-407
985
1000
-881
-161
1000
-848
1000
697
501
1000
1
-447
902
954
-20
-1000
-662
-226
-1000
-1000
-404
-62
-1000
663
1000
82
1000
-104
-57
-489
83
-1000
-119
-1000
-301
-543
1000
375
229
-1000
775
-1000
-586
-1000
-789
283
1000
-100
81
-623
-150
872
85
-996
-511
1000
46
305
204
-247
216
1000
-583
-191
1000
669
-1000
199
-1000
1000
-1000
822
-481
-219
-1000
-1000
375
-722
403
914
394
-1000
438
534
188
-473
-229
-1000
149
-134
-461
1000
1000
-114
-1000
259
-528
1000
-1000
377
1000
604
1000
-323
544
896
-159
-662
-741
77
941
934
-1000
213
1000
-1000
731
-1000
-1000
-247
373
-1000
883
-255
321
-1000
1000
1000
1000
78
-151
1000
-655
71
-298
368
-1000
503
437
-321
421
-56
1000
-1000
-366
-843
1000
73
-758
297
546
-1000
940
131
201
1000
633
179
945
-255
-192
-1000
335
-561
437
765
-1000
-553
-141
829
-35
-104
1000
996
1000
712
-1000
-743
-153
533
-1000
650
715
889
-1000
-1000
808
1000
828
-1000
547
201
-223
-560
-828
1000
-908
-1000
-209
-440
-784
-920
365
739
-249
-1000
-1000
801
-242
-822
413
-282
-592
1000
185
369
-204
226
-888
1000
572
-504
-342
-834
123
466
133
1
1
1000
261
57
745
961
724
25
37
-230
-277
227
267
-13
-224
21
-1000
-134
-557
-91
798
-449
28
-677
-1000
-585
-918
-928
1000
1000
245
-575
1000
-930
825
-492
-1000
-1000
-950
1000
902
1000
-151
-183
-932
299
-812
-651
-247
-1000
-666
883
-528
1000
-648
-488
229
-502
513
531
383
145
874
152
-421
662
-619
1000
737
-412
313
419
-1000
-1000
-726
-1000
-897
1000
436
254
198
-1000
-352
146
1000
-393
809
410
489
-542
-637
1000
-116
906
-396
860
1000
-739
-35
-145
-347
150
-475
760
-37
-1000
1000
-593
273
289
-609
-884
377
-754
1000
700
-514
957
-717
-1000
223
-530
-891
-354
-441
494
367
-768
-363
811
245
-371
-558
1000
1000
-404
-182
-1000
-982
257
365
-342
-885
40
212
30
186
282
183
427
-442
-864
3
166
-253
-1000
-149
-684
451
-368
-278
-551
207
119
1000
707
-613
-1000
358
559
172
-99
-211
-822
-479
-56
1000
-914
863
-278
1000
1000
815
-927
-372
-1000
438
-369
-314
306
634
-1000
-394
1000
-1000
755
-699
29
-100
362
578
666
-135
-651
-1000
366
343
907
222
-1000
-977
586
-29
-667
1000
1000
-1000
-864
-59
-836
623
800
-61
-908
544
-530
-688
1000
454
-180
-1000
-384
1000
626
1000
-345
-973
19
-926
-1000
437
-1000
751
-1000
-141
-454
376
552
-121
182
-380
-43
1000
1000
-367
902
-640
1000
1000
-556
-1000
-590
-766
201
1000
819
206
-367
-159
632
-437
-636
713
-458
715
-1000
-1000
-668
815
597
1000
-600
-798
-305
1000
-378
769
1000
329
-633
159
20
1000
759
-1000
354
-1000
-317
969
-1000
-463
-412
-1000
-750
-46
589
-1000
-450
-370
304
-560
-1000
43
102
368
208
-1000
375
188
-512
-409
315
348
307
-193
379
-519
-247
582
123
-414
172
1000
-526
-148
623
-641
1000
-702
977
-587
346
349
235
548
-955
-4
509
-565
-887
613
-659
10
-869
-730
-102
-1000
1000
-457
-407
1000
1000
-881
-938
1000
-848
1000
532
501
1000
1
-371
902
954
-20
-1000
-424
-524
-1000
-1000
-126
-62
-275
663
1000
392
1000
-104
-57
-348
83
-1000
-426
-1000
-301
-543
607
375
736
-499
778
-1000
-586
-1000
-1000
795
1000
277
900
189
-150
872
85
-996
-511
1000
46
-384
396
-329
478
1000
-583
-191
877
669
-1000
677
-1000
857
-1000
867
-481
-219
-1000
-1000
375
-722
1000
914
394
-1000
749
534
105
-473
-229
-1000
149
-134
-461
1000
1000
-114
-1000
259
-528
1000
-1000
377
1000
604
1000
-323
544
896
-159
-662
-741
77
879
934
-153
-911
464
-967
1000
-1000
-1000
-864
733
-469
1000
-523
321
-1000
1000
390
182
285
-1000
1000
-655
71
-850
368
-1000
-91
-25
-1000
862
-1000
1000
-944
-757
-546
674
576
-758
-315
546
-724
681
647
-763
1000
633
-168
945
-255
-192
-1000
-18
-536
437
501
-1000
-971
-141
829
-35
-104
1000
996
1000
712
-1000
-743
-153
533
-1000
650
715
1000
-1000
-1000
1000
1000
828
-1000
547
201
430
-560
-1000
844
-183
-1000
-55
-1000
-1000
-858
365
739
-249
-1000
-799
1000
357
-1000
235
-282
-1000
1000
575
226
1
-382
-891
1000
-22
-504
597
-611
380
466
704
299
1
1000
190
422
-347
705
1000
-1000
806
-464
-741
-426
-228
-960
799
1000
-1000
-684
-872
-1000
743
-495
-1000
-378
-728
-585
-918
-637
1000
74
-703
840
890
-408
825
-1000
423
-1000
4
1000
344
1000
-874
1000
-569
625
-732
-1000
-268
-819
-1000
1000
-203
806
-437
-488
860
-574
344
531
174
-233
758
-1000
199
847
-861
699
737
224
313
-22
-918
-551
-1000
-1000
-953
764
550
254
602
-1000
-352
146
753
-393
1000
410
489
-61
209
1000
-116
906
-450
860
1000
-739
306
6
-131
-910
-816
-285
-1000
-1000
807
-1000
-626
195
-1000
-884
377
-842
570
1000
79
957
-717
-1000
-160
-854
-832
-648
-81
666
367
-936
-748
1000
245
-205
-576
1000
976
-897
-187
-980
-1000
-12
483
-150
-885
92
575
-228
186
341
1000
427
596
-740
-343
22
-122
-1000
-288
-116
-68
-938
-229
-551
207
-170
-294
42
-128
-978
1000
262
372
560
307
-822
-889
-56
845
453
863
-278
1000
655
815
-577
-435
-719
-38
-369
-1000
192
634
-1000
-1000
376
-1000
-697
-1000
29
1000
362
-1000
650
-236
-651
-1000
492
-410
986
-162
-476
198
1000
-496
271
577
740
-1000
-922
-626
-1000
-7
456
-25
-518
-312
-1000
-505
1000
224
-94
-1000
-384
1000
972
224
1000
-1000
-885
-1000
-1000
153
-1000
751
-571
-738
-424
703
1000
-813
182
-978
342
1000
952
-572
88
539
1000
1000
-556
-1000
-736
-566
1000
1000
878
682
-1000
861
800
-126
-638
738
-458
1000
-791
-1000
290
1000
1000
935
-76
-802
127
1000
-44
-1000
1000
298
-278
1000
20
1000
759
-1000
86
-1000
-833
670
-1000
-463
-412
-420
-989
-347
650
-65
-450
-227
1000
-560
-1000
-151
1
1000
556
-592
375
-166
-1000
-868
315
287
65
139
379
-136
-1000
1000
986
155
905
1000
-756
27
712
-963
37
-579
1000
212
709
139
201
1000
-428
71
1000
-1000
-462
621
-659
-676
-902
-1000
-102
-577
1000
980
-407
1000
720
-485
-938
1000
-848
1000
532
501
1000
1
-447
902
87
-211
-1000
-976
-524
-1000
-1000
-1000
-380
-847
663
764
747
1000
-104
-57
-489
-878
-1000
-119
-1000
-301
-543
1000
33
616
976
1000
-1000
175
626
10
-103
961
-100
-110
-50
-150
872
85
-1000
-511
1000
46
781
204
-924
77
1000
-583
-191
1000
669
-1000
478
-917
1000
-1000
822
-481
-760
-1000
-1000
375
-709
547
1000
394
-1000
660
-565
529
-332
1000
-428
149
-134
-342
1000
1000
-114
-309
259
-528
853
-1000
577
1000
395
1000
-437
441
896
96
1000
-884
-626
1000
1000
-213
-486
1000
-808
746
-1000
-1000
-899
-220
-1000
1000
-419
321
-1000
1000
401
182
614
-584
1000
151
147
-298
546
-434
-461
-1000
-321
947
95
380
-121
-1000
31
674
1000
-1000
1000
185
-1000
634
450
989
1000
1000
575
1000
-573
-192
-960
-18
731
1000
501
-264
203
266
848
-35
-104
1000
893
1000
-95
-1000
-571
-518
-160
-1000
631
715
1000
-1000
-930
1000
1000
-973
-1000
219
-505
3
-343
-828
1000
-908
-1000
227
-440
-784
-920
365
739
-249
-1000
-1000
801
-242
-253
50
-282
-592
1000
185
369
1
226
-888
1000
572
-504
-342
-834
123
466
133
1
1
1000
261
-57
745
961
1000
25
37
-230
-277
227
267
-13
-169
325
-1000
-703
-872
-91
757
-449
-1000
-677
-368
-585
-918
-1000
1000
1000
245
-575
1000
-930
825
-492
-1000
-1000
4
761
902
662
20
775
-664
12
-812
-651
-247
-807
-1000
883
-1000
1000
-505
-1000
-660
-502
-472
531
383
-2
1000
152
-84
847
-826
193
737
224
313
-22
-918
-1000
-196
-1000
-897
997
436
254
198
-1000
-352
146
1000
-393
1000
410
489
-542
-11
1000
-116
906
-450
860
1000
-739
-35
6
-10
-395
-816
760
-1000
-1000
1000
-593
615
183
-786
-884
979
-754
1000
700
-514
957
-717
-875
-160
-854
-1000
-354
2
1000
367
-407
39
811
548
-371
-824
1000
1000
-404
-182
-1000
-982
257
365
-342
-463
40
212
30
186
282
183
427
360
-740
3
566
-253
-1000
-149
-684
-135
-368
-1000
-551
-445
119
1000
363
-613
-1000
299
559
158
560
347
-822
-1000
8
1000
-476
863
-1000
745
1000
-19
-419
-444
-659
-107
-369
-314
751
634
-256
-744
376
-1000
755
-528
29
-100
362
578
370
-135
-651
-1000
915
648
1000
222
-476
-977
1000
-29
252
1000
684
-1000
-864
-626
-836
623
456
-25
-996
-312
-530
-688
1000
224
-94
-1000
120
1000
508
788
-547
-962
19
-926
-823
437
-1000
751
-708
-141
174
1000
1000
-603
663
-342
-43
757
135
-367
902
-1000
1000
1000
-556
-1000
-736
-561
1000
1000
819
1000
-367
-159
632
-146
-1000
1000
-640
715
-1000
-833
-279
815
597
1000
-600
-798
-305
1000
-378
769
1000
329
-633
159
20
1000
759
-1000
-809
816
235
969
-751
-463
-412
-1000
-750
-493
1000
-1000
-450
-370
1000
-560
-1000
-151
102
368
208
-1000
375
-166
-328
-409
315
348
307
-193
379
-326
-247
582
123
-414
-105
956
-526
-291
185
-963
746
-502
-228
1000
709
349
201
548
-1000
-4
509
-565
-869
621
-659
-869
-902
-747
-102
-1000
840
565
-407
985
1000
-881
-161
1000
-848
1000
697
501
1000
1
-447
902
954
-20
-1000
-662
-226
-1000
-1000
-404
-62
-1000
663
1000
82
1000
-104
-57
-489
83
-1000
-119
-1000
-301
-543
1000
375
229
-1000
775
-1000
-586
-1000
-789
283
1000
-100
81
-623
-150
1000
-415
-996
-511
1000
46
422
204
-247
216
1000
-583
-191
1000
669
-1000
854
-1000
1000
-1000
822
-481
-518
-1000
-1000
375
-1000
403
914
394
-1000
438
534
188
-473
-229
-1000
149
-134
-461
1000
1000
-114
-1000
259
-528
1000
-1000
377
1000
604
1000
-323
544
896
-159
-662
-741
77
941
934
-1000
213
1000
-1000
731
-1000
-1000
-247
373
-1000
883
-255
321
-1000
1000
1000
1000
78
-151
1000
-655
71
-298
368
-1000
503
437
-321
421
-56
1000
-1000
-366
-843
1000
73
-758
297
546
-1000
940
131
201
1000
633
179
945
-255
-192
-1000
335
-561
437
765
-1000
-553
-141
829
-35
-104
1000
996
1000
712
-1000
-743
-153
533
-1000
650
715
889
-1000
-1000
808
1000
800
-961
-190
201
-223
-560
-828
1000
-908
-1000
-400
222
-784
-264
365
739
-249
-1000
-1000
801
-242
-822
235
-282
-592
1000
185
369
1
226
-888
1000
572
-504
-342
-834
123
480
133
1
1
1000
659
-57
850
961
1000
-269
416
-230
-277
77
976
-13
-169
325
-1000
-703
-872
-1000
-7
-449
-1000
-677
-368
-548
-918
-928
1000
1000
245
-575
1000
-930
825
-492
-1000
-1000
-950
455
902
1000
-532
-564
-881
299
-812
-651
-247
-1000
-666
883
-528
1000
-675
-488
229
-502
513
531
383
-2
1000
152
-421
865
-619
1000
737
-190
-698
-131
-891
-1000
-196
-1000
-897
1000
436
254
198
-1000
-352
146
1000
-393
809
410
489
-542
-1000
688
-116
906
-396
860
233
-739
-227
517
-793
150
-816
1000
-659
-1000
1000
978
615
289
-786
-884
377
-754
1000
700
-514
957
-717
-1000
-160
-854
-891
517
2
1000
914
30
-573
811
246
-371
-824
972
1000
-404
-182
-1000
-982
257
365
313
-885
292
212
30
186
314
183
427
360
-740
3
22
-253
-1000
-149
-684
451
-368
-278
-824
460
252
1000
707
-613
-781
358
559
172
560
35
-822
-889
-56
1000
-476
863
-278
1000
1000
815
-927
-799
-1000
438
-369
-314
751
890
-1000
-1000
376
-1000
755
-699
-198
-302
362
677
402
-135
-651
-1000
915
343
1000
222
-476
-977
647
-29
-379
1000
1000
-1000
-864
-59
-836
-198
456
-25
-908
-312
-262
-688
1000
-169
-180
-1000
-384
1000
626
1000
-345
-207
19
-926
-1000
246
-1000
751
-571
-141
-247
887
1000
-603
182
-342
-43
757
1000
-367
1000
-204
1000
1000
103
-1000
-736
-296
1000
1000
819
682
-367
-159
632
-146
-1000
1000
-696
926
-538
-540
-279
815
597
1000
-600
-798
-305
1000
-378
769
1000
329
-633
159
20
1000
759
-1000
-209
-1000
-317
539
-1000
-463
-412
-662
-750
-493
1000
-1000
-450
-370
1000
-560
-1000
-151
102
368
208
-1000
375
-166
-328
-409
315
348
307
-193
379
-808
-247
582
123
-414
267
956
-526
-600
53
-453
927
-1000
1000
528
341
349
201
-363
-1000
-4
509
-565
-844
621
-407
-737
-902
-747
570
-1000
816
565
-407
985
1000
-881
-938
1000
-848
1000
532
911
1000
1
-447
902
954
-20
-1000
-1000
-276
-833
-1000
-126
-62
-847
-270
1000
109
1000
-104
-57
-686
-432
-1000
-119
-1000
-894
-543
1000
913
430
-1000
778
-1000
-586
-1000
-761
-103
1000
-372
653
-722
-8
872
85
-996
-511
1000
46
305
396
-329
216
1000
-583
-191
1000
669
-1000
310
-1000
1000
-1000
822
-481
-219
-1000
-1000
345
-722
403
632
452
-410
438
534
188
-473
-591
-760
149
-134
-461
1000
476
-114
-1000
772
-1000
690
-1000
377
1000
604
1000
-323
544
896
-159
-662
-741
77
549
934
-1000
-911
464
-1000
731
-1000
-1000
-864
373
-1000
1000
-523
321
-1000
1000
-176
182
285
-1000
1000
-733
71
-298
368
-1000
-377
667
310
437
-56
1000
-1000
-757
-546
674
370
-758
297
546
-1000
1000
373
201
1000
633
179
945
408
-192
-1000
-18
-489
437
501
-1000
-971
611
185
-35
-104
912
722
920
712
-1000
-743
-332
533
-545
650
715
1000
-1000
-1000
1000
1000
828
-1000
547
201
430
-560
-828
1000
-908
-1000
227
-440
-784
-920
365
739
-249
-1000
-1000
801
-242
-253
50
-282
-592
1000
185
369
1
226
-888
1000
572
-504
-342
-834
123
466
133
1
1
1000
261
-57
745
961
1000
25
37
-230
-277
227
267
-13
-169
325
-1000
-703
-872
-91
757
-449
-1000
-677
-368
-585
-918
-928
1000
1000
245
-575
1000
-930
825
-492
-1000
-1000
4
526
902
893
-420
775
-649
12
-812
-651
-247
-807
-1000
883
-1000
1000
-505
-488
-660
-502
-472
531
383
-2
1000
152
-84
847
-826
193
737
224
313
-22
-918
-1000
-107
-1000
-897
997
436
254
-663
-1000
216
146
1000
-393
1000
410
489
-542
-11
1000
-116
906
-450
860
1000
-739
-35
6
-10
-395
-816
760
-1000
-1000
1000
-593
615
183
-1000
-884
786
-754
1000
700
-514
957
-717
-851
-160
-944
-1000
-354
2
1000
367
-407
39
811
548
-371
-824
1000
1000
-404
-182
-1000
-982
257
365
-342
-463
40
212
30
186
282
183
427
360
-740
3
566
-253
-1000
-149
-684
-333
415
-1000
-962
-445
119
1000
363
-613
-1000
299
939
158
897
347
70
-1000
8
1000
-724
863
-1000
848
1000
815
-927
-444
-659
-107
-369
-314
751
634
-1000
-744
376
-1000
755
-528
29
-255
362
578
370
-244
-651
-1000
915
648
1000
222
-476
-977
1000
-29
252
1000
684
-1000
-864
-283
-1000
191
456
-25
-961
-312
-530
-190
1000
224
-94
-1000
-384
1000
626
1000
-345
-973
19
-926
-1000
437
-1000
751
-708
-141
-247
1000
1000
-603
182
-342
-43
757
1000
-367
902
-1000
918
1000
-310
-1000
-736
-561
1000
1000
819
1000
-367
-159
632
-146
-1000
1000
-640
715
-1000
-833
-279
815
597
1000
-600
-798
-305
1000
-378
769
1000
329
-633
159
20
1000
400
-1000
-809
-171
235
1000
-1000
-463
-412
-1000
-750
-493
1000
-1000
-450
-370
1000
-560
-1000
-151
102
46
208
-1000
573
-896
-328
-409
360
348
307
-193
379
-326
-231
582
123
-414
-105
956
439
-854
843
-963
746
-1000
1000
762
709
349
201
548
-1000
-4
509
-565
-887
621
-659
-869
-902
-747
-102
-1000
1000
565
-407
985
1000
-881
-161
1000
-848
1000
697
501
1000
1
-447
902
954
-20
-1000
-662
-226
-1000
-1000
-404
-62
-1000
663
1000
82
1000
-104
-61
-489
377
-1000
-119
-1000
-301
403
1000
375
229
-1000
775
-1000
-586
-1000
-789
283
1000
-100
81
-623
-150
872
85
-996
-511
1000
46
305
204
-247
216
1000
-583
-191
1000
669
-1000
199
-1000
1000
-1000
822
-481
-219
-1000
-1000
375
-722
403
914
394
-1000
438
534
188
-473
-229
-1000
149
-134
-461
1000
1000
-114
-1000
259
-528
1000
-1000
377
1000
604
1000
-323
544
896
-159
-662
-741
77
941
934
-1000
213
1000
-1000
731
-1000
-1000
-247
373
-1000
883
-255
321
-1000
1000
1000
1000
78
-151
1000
-655
71
-298
368
-1000
503
437
-321
421
-56
1000
-1000
-366
-843
1000
73
-758
297
546
-1000
940
131
201
1000
633
179
945
-255
-192
-1000
335
-561
621
765
-1000
-553
-141
829
-35
-104
1000
996
1000
712
-1000
-743
-153
533
-1000
650
715
889
-1000
-1000
808
1000
828
-1000
547
201
-223
-560
-828
1000
-908
-1000
-209
-440
-784
-920
365
739
-249
-1000
-1000
1000
253
-944
314
-202
-592
1000
500
369
1
605
-888
1000
572
-504
-342
-834
123
466
133
168
159
1000
-749
-57
485
961
1000
25
314
-230
-277
919
456
-13
-169
325
-985
-575
-872
-91
757
-449
-1000
-677
-368
-585
-918
-928
1000
1000
245
-575
1000
-930
825
-1000
-736
-1000
-524
8
902
893
-492
1000
-1000
299
-812
-651
-247
-1000
-666
883
-528
1000
-675
-488
229
-1000
513
531
658
-2
279
-180
199
985
-976
1000
1000
182
576
-22
-918
-982
-196
-1000
-141
1000
436
-1000
650
-1000
-352
146
1000
-198
1000
410
964
-542
-376
1000
-116
906
-450
860
1000
-739
-323
-15
-10
-395
287
1000
-766
-1000
1000
-238
615
-104
-786
-884
377
-754
1000
700
-514
957
-717
-1000
-160
-854
-891
-777
112
1000
327
-1000
-992
303
264
-372
-824
578
1000
480
-182
-816
-982
257
365
-342
-372
40
15
30
186
341
1000
427
596
-740
-343
22
-122
-1000
-288
-684
-661
-368
-317
-245
207
119
1000
84
-307
-352
358
559
172
560
35
-822
-889
-56
845
-184
863
-278
1000
1000
200
-807
-234
-1000
1000
-301
473
1000
251
-1000
-1000
517
-241
-917
-699
29
-37
362
-256
666
-120
-475
-1000
1000
343
1000
222
-476
-977
1000
-284
-379
1000
869
-1000
-778
-878
-1000
-203
1000
337
-518
122
-1000
-1000
1000
1000
-478
-1000
-384
1000
5
1000
1000
-973
-840
-1000
-1000
1000
-1000
751
-571
-738
-247
887
1000
-603
182
-765
342
830
1000
-1000
358
-640
1000
1000
-371
-728
-1000
-441
1000
223
77
682
-367
499
1000
-126
-1000
939
-1000
715
-350
-1000
-279
1000
239
1000
-600
-313
-305
563
-378
744
1000
329
-542
159
1000
832
-126
-982
-1000
-1000
-317
519
-1000
-85
761
-662
-750
-493
1000
-1000
36
-370
1000
-560
-125
-151
102
368
208
-1000
654
67
-522
-409
315
348
307
-193
379
-63
-247
582
123
-414
-105
956
-526
27
185
-963
1000
-579
1000
212
709
139
201
548
-822
-4
509
-565
-493
621
-1000
-745
-1000
-747
-106
-293
1000
-857
74
1000
1000
-881
330
1000
-1000
1000
532
-228
1000
1
-447
628
954
-211
-1000
-976
-669
-1000
-1000
-1000
-380
-847
319
1000
-847
1000
-845
-57
-489
83
-1000
313
-1000
-301
-543
1000
375
-346
247
1000
-1000
-586
-1000
-595
-103
1000
-100
-110
-112
-150
872
58
-996
-511
1000
46
-107
204
-247
216
1000
-583
-191
389
164
-1000
199
-905
1000
-1000
645
-481
-920
636
-1000
-370
349
403
840
394
-860
1000
-600
529
-473
-229
-1000
-243
-24
-461
1000
15
-114
-1000
747
-528
1000
-1000
377
1000
604
1000
-323
544
896
-159
-662
-741
77
549
1000
-1000
-1000
1000
-686
731
-391
-1000
-340
373
-1000
876
-523
321
-1000
1000
401
182
678
-1000
1000
-505
338
-298
1000
-424
-91
667
-319
421
-56
950
-1000
-470
-546
252
370
-758
1000
546
-1000
803
252
63
1000
318
237
933
-1000
-192
-1000
-920
-1000
437
310
-1000
-971
-141
829
-35
-104
1000
1000
394
161
-1000
-743
425
533
-1000
650
-155
1000
-1000
-539
897
236
420
-1000
115
-1000
1000
-560
-828
1000
-908
-1000
227
-440
-784
-920
365
739
-249
-1000
-1000
801
-242
-253
50
-282
-592
1000
185
369
1
226
-888
1000
572
-504
-342
-834
123
466
133
1
1
1000
261
-57
745
961
1000
25
37
-230
-277
227
267
-13
-169
325
-1000
-703
-872
-91
757
-449
-1000
-677
-368
-585
-918
-928
1000
1000
245
-575
1000
-930
825
-492
-1000
-1000
4
526
902
893
-420
775
-649
12
-812
-651
-247
-807
-1000
883
-1000
1000
-505
-488
-660
-502
-472
531
383
-2
1000
152
-84
847
-826
193
737
224
313
-22
-918
-1000
-107
-1000
-897
997
436
254
-663
-1000
216
146
1000
-393
1000
410
489
-542
-11
1000
-116
906
-450
860
1000
-739
-35
6
-10
-395
-816
760
-1000
-1000
1000
-593
615
183
-1000
-884
786
-754
1000
700
-514
957
-717
-851
-160
-944
-1000
-354
2
1000
367
-407
39
811
548
-371
-824
1000
1000
-404
-182
-1000
-982
257
365
-342
-463
40
212
30
186
282
183
427
360
-740
3
566
-253
-1000
-149
-684
-333
415
-1000
-962
-445
119
1000
363
-613
-1000
299
939
158
897
347
70
-1000
8
1000
-724
863
-1000
848
1000
815
-927
-444
-659
-107
-369
-314
751
634
-1000
-744
376
-1000
755
-528
29
-255
362
578
370
-244
-651
-1000
915
648
1000
222
-476
-977
1000
-29
252
1000
684
-1000
-864
-283
-1000
191
456
-25
-961
-312
-530
-190
1000
224
-94
-1000
-384
1000
626
1000
-345
-973
19
-926
-1000
437
-1000
751
-708
-141
-247
1000
1000
-603
182
-342
-43
757
1000
-367
902
-1000
918
1000
-310
-1000
-736
-561
1000
1000
819
1000
-367
-159
632
-146
-1000
1000
-640
715
-1000
-833
-279
815
597
1000
-600
-798
-305
1000
-378
769
1000
329
-633
159
20
1000
400
-1000
-809
-171
235
1000
-1000
-463
-412
-1000
-750
-493
1000
-1000
-450
-370
1000
-560
-1000
-151
102
46
208
-1000
573
-896
-328
-409
360
348
307
-193
379
-326
-231
582
123
-414
-105
956
439
-854
843
-963
746
-1000
1000
762
709
349
201
548
-1000
-4
509
-565
-887
621
-659
-869
-902
-747
-102
-1000
1000
565
-407
985
1000
-881
-161
1000
-848
1000
697
501
1000
1
-447
902
954
-20
-1000
-662
-226
-1000
-1000
-404
-62
-1000
663
1000
82
1000
-104
-61
-489
377
-1000
-119
-1000
-301
403
1000
375
229
-1000
775
-1000
-586
-1000
-789
283
1000
-100
81
-623
-150
872
85
-996
-511
1000
46
305
204
-247
216
1000
-583
-191
1000
669
-1000
199
-1000
1000
-1000
822
-481
-219
-1000
-1000
375
-722
403
914
394
-1000
438
534
188
-473
-229
-1000
149
-134
-461
1000
1000
-114
-1000
259
-528
1000
-1000
377
1000
604
1000
-323
544
896
-159
-662
-741
77
941
934
-1000
213
1000
-1000
731
-1000
-1000
-247
373
-1000
883
-255
321
-1000
1000
1000
1000
78
-151
1000
-655
71
-298
368
-1000
503
437
-321
421
-56
1000
-1000
-366
-843
1000
73
-758
297
546
-1000
940
131
201
1000
633
179
945
-255
-192
-1000
335
-561
621
765
-1000
-553
-141
829
-35
-104
1000
996
1000
712
-1000
-743
-153
533
-1000
650
715
889
-1000
-1000
808
1000
828
-1000
547
201
-223
-560
-828
1000
-908
-1000
227
-440
-784
-920
365
739
-249
-1000
-1000
801
-242
-253
50
-282
-592
1000
185
369
1
226
-888
1000
572
-504
-342
-834
123
466
133
1
1
1000
261
-57
745
961
1000
25
37
-230
-277
227
267
-13
-169
325
-1000
-703
-872
-91
757
-449
-1000
-677
-368
-585
-918
-928
1000
1000
245
-575
1000
-930
825
-492
-1000
-1000
4
526
902
893
-420
775
-649
12
-812
-651
-247
-807
-1000
883
-1000
1000
-505
-488
-660
-502
-472
531
383
-2
1000
152
-84
847
-826
193
737
224
313
-22
-918
-1000
-196
-1000
-897
997
436
254
198
-1000
-352
146
1000
-393
1000
410
489
-542
-11
1000
-116
906
-450
860
1000
-739
-35
6
-10
-395
-816
760
-1000
-1000
1000
-593
615
183
-786
-884
979
-754
1000
700
-514
957
-717
-875
-160
-854
-1000
-354
2
1000
367
-407
39
811
548
-371
-824
1000
1000
-404
-182
-1000
-982
257
365
-342
-463
40
212
30
186
282
183
427
360
-740
3
566
-253
-1000
-149
-684
-135
-368
-1000
-551
-445
119
1000
363
-613
-1000
299
559
158
560
347
-822
-1000
8
1000
-476
863
-1000
745
1000
815
-927
-444
-659
-107
-369
-314
751
634
-1000
-744
376
-1000
755
-528
29
-100
362
578
370
-135
-651
-1000
915
648
1000
222
-476
-977
1000
-29
252
1000
684
-1000
-864
-626
-836
623
456
-25
-996
-312
-530
-688
1000
224
-94
-1000
-384
1000
626
1000
-345
-973
19
-926
-1000
437
-1000
751
-708
-141
-247
1000
1000
-603
182
-342
-43
757
1000
-367
902
-1000
1000
1000
-556
-1000
-736
-561
1000
1000
819
1000
-367
-159
632
-146
-1000
1000
-640
715
-1000
-833
-279
815
597
1000
-600
-798
-305
1000
-378
769
1000
329
-633
159
20
1000
759
-1000
-809
-171
235
969
-1000
-463
-412
-1000
-750
-493
1000
-1000
-450
-370
1000
-560
-1000
-151
102
368
208
-1000
375
-166
-328
-409
315
348
307
-193
379
-326
-247
582
123
-414
-105
956
-526
-291
185
-963
746
-1000
1000
762
709
349
201
548
-1000
-4
509
-565
-887
621
-659
-869
-902
-747
-102
-1000
1000
565
-407
985
1000
-881
-161
1000
-848
1000
697
501
1000
1
-447
902
954
-20
-1000
-662
-226
-1000
-1000
-404
-62
-1000
663
1000
82
1000
-104
-57
-489
83
-1000
-119
-1000
-301
-543
1000
375
229
-1000
775
-1000
-586
-1000
-789
283
1000
-100
81
-623
-150
872
85
-996
-511
1000
46
305
204
-247
216
1000
-583
-191
1000
669
-1000
199
-1000
1000
-1000
822
-481
-219
-1000
-1000
375
-722
403
914
394
-1000
438
534
188
-473
-229
-1000
149
-134
-461
1000
1000
-114
-1000
259
-528
1000
-1000
377
1000
604
1000
-323
544
896
-159
-662
-741
77
941
934
-1000
213
1000
-1000
731
-1000
-1000
-247
373
-1000
883
-255
321
-1000
1000
1000
1000
78
-151
1000
-655
71
-298
368
-1000
503
437
-321
421
-56
1000
-1000
-366
-843
1000
73
-758
297
546
-1000
940
131
201
1000
633
179
945
-255
-192
-1000
335
-561
437
765
-1000
-553
-141
829
-35
-104
1000
996
1000
712
-1000
-743
-153
533
-1000
650
715
889
-1000
-1000
808
1000
828
-1000
547
201
-223
-560
-828
1000
-908
-1000
227
-144
-784
-628
-239
739
-249
-1000
-1000
801
-242
-253
50
-282
-592
1000
185
369
1
226
-888
1000
572
-504
-342
-834
123
466
133
1
1
1000
721
-57
745
961
1000
-992
783
-230
-277
227
267
-13
-169
325
-1000
-703
-872
-91
757
-449
-1000
-677
-368
-585
-918
-928
1000
1000
-10
-575
1000
-930
825
-77
-1000
-1000
4
859
902
893
64
550
-649
299
-347
-651
-247
-1000
-1000
883
-528
1000
-669
-488
-660
-502
-472
531
383
-2
1000
152
1000
872
-826
193
1000
250
313
-22
-869
-1000
-196
-1000
-1000
1000
436
-810
-356
-1000
-352
146
1000
-393
1000
410
489
-542
-11
1000
-116
1000
-328
860
-503
-739
-35
6
-10
-395
-816
760
-1000
-1000
1000
-593
615
183
-761
-739
979
-754
1000
700
-145
1000
-717
-1000
-160
-854
-1000
-354
2
1000
367
-407
39
811
548
-371
-824
1000
1000
-404
-182
-1000
-982
257
365
-342
-463
40
212
30
186
859
183
427
360
-740
3
566
-253
-1000
-149
-684
-135
-368
-1000
-551
-445
119
1000
363
-613
-1000
358
559
158
560
35
-822
-1000
-56
1000
-476
863
-278
1000
1000
815
-927
-444
-1000
-107
-273
-314
751
634
-1000
-744
376
-1000
755
0
29
-53
-155
543
666
-135
-651
-1000
915
648
1000
222
-476
-977
1000
-29
252
1000
684
-1000
-864
-626
-836
623
456
-25
-996
-312
-530
-688
1000
224
-94
-1000
-384
1000
626
1000
-345
-973
-851
-926
-1000
437
-744
751
-571
-141
78
887
1000
-603
610
-342
-43
757
1000
-367
902
-640
1000
1000
-556
-1000
-736
-561
1000
1000
819
86
-367
-476
632
-710
-1000
1000
-640
715
-1000
-833
-702
815
630
1000
-600
-798
540
1000
-378
769
1000
298
-1000
159
20
1000
759
-1000
-809
-171
235
969
-1000
-463
-412
-1000
-750
-493
1000
-1000
-450
-370
1000
-560
-1000
-151
102
368
208
-1000
375
-166
-328
-409
315
348
307
-193
379
-63
-247
582
123
-414
-105
956
-526
409
185
-779
698
-1000
1000
762
709
349
201
548
-1000
45
18
-565
-887
621
-659
-869
-902
-298
-102
-1000
1000
565
-407
985
1000
-881
-938
1000
-848
1000
532
501
1000
1
-447
902
954
-185
-577
-662
-186
-1000
47
-266
-62
-1000
663
440
-197
1000
-104
-57
-489
83
-1000
-119
-1000
-301
-543
1000
375
844
-499
775
-1000
-586
-1000
-967
-27
769
-100
81
-293
-150
872
85
-996
-511
1000
46
305
204
-247
216
1000
-583
-191
1000
669
-1000
199
-1000
1000
-1000
822
-481
-219
-1000
-1000
375
-722
403
914
394
-1000
438
534
188
-473
-229
-1000
149
-134
-461
1000
1000
-114
-1000
259
-528
1000
-1000
411
1000
604
10
-323
213
520
-159
91
-741
77
941
146
-678
213
1000
-1000
731
-1000
-1000
-674
373
-1000
883
-523
321
-1000
1000
1000
1000
78
-366
1000
-655
71
-298
368
-1000
-91
667
-321
421
-56
1000
-938
-583
-546
1000
-61
-758
297
546
-1000
1000
131
201
1000
242
-58
837
-810
-192
-1000
335
-561
437
765
-1000
-553
-141
829
-35
-104
1000
996
1000
712
-1000
-743
-355
533
-1000
426
715
633
-1000
-1000
808
1000
828
-1000
1000
-359
-223
-560
-1000
844
-183
-1000
-55
-1000
-1000
-858
365
739
-249
-1000
-1000
1000
357
-822
235
-282
-592
1000
575
226
1
-382
68
1000
889
-504
-342
-360
144
466
872
1
1
1000
295
148
-347
705
1000
-1000
442
-230
-741
-173
-411
-325
376
427
-1000
-26
-872
-1000
1000
-495
-1000
-378
-152
-585
-831
-466
1000
1000
-107
-440
1000
-658
808
-1000
-736
-1000
135
859
580
521
-987
1000
-125
177
-190
-1000
-268
-819
-848
1000
-1000
1000
-826
-488
860
-740
344
531
174
-233
758
-1000
199
847
-826
1000
737
224
313
-22
-918
-302
-196
-1000
-882
764
550
254
602
-1000
-352
146
1000
-393
1000
410
489
-61
209
644
-447
906
-450
860
1000
-713
306
6
-131
-910
-816
-285
-1000
-1000
807
-1000
-626
183
-1000
-884
377
-842
570
1000
79
957
-717
-1000
-160
-854
-832
-648
2
859
367
-660
-748
1000
245
-490
-576
1000
1000
-404
-187
-980
-1000
-10
483
-394
-885
92
575
-11
186
341
1000
427
596
-740
-343
22
-122
-1000
-288
-116
445
-938
-229
-551
207
119
407
1000
-81
-509
358
559
372
986
307
-822
-397
-56
845
453
863
-693
1000
655
815
-618
-535
-992
438
-460
977
513
634
-1000
-1000
48
-1000
-488
-692
29
1000
362
-256
1000
-183
-651
-1000
492
-410
986
222
-1000
-977
1000
-496
271
836
684
-1000
-881
-1000
-728
847
-1000
-254
99
-312
-1000
-393
643
701
-94
-576
-1000
1000
972
-392
1000
-1000
-885
-602
-190
437
-518
751
-571
-738
-424
887
1000
-603
182
-389
342
1000
1000
-712
-309
539
1000
1000
-556
-1000
-1000
-209
1000
1000
878
610
-1000
380
632
-126
-256
738
-1000
1000
-791
-1000
948
1000
597
935
-76
-759
-305
1000
-378
-1000
1000
298
-278
159
20
1000
759
-1000
-809
-1000
-317
636
-1000
-463
-412
-140
-750
-347
1000
-1000
-462
-370
1000
-559
-1000
-517
1000
1000
484
-592
375
-166
-1000
-349
315
287
65
139
379
-122
-571
1000
-977
-1000
672
1000
22
27
486
-963
910
-1000
1000
212
709
511
201
1000
-428
71
1000
-1000
80
472
242
-676
-902
-1000
-102
-485
1000
1000
-407
1000
720
-485
-938
1000
-848
869
532
501
1000
1
-447
902
87
159
-1000
-976
-524
-1000
-477
-1000
-380
-824
663
764
428
1000
-104
-57
104
83
-1000
-119
-1000
175
-359
1000
316
1000
976
1000
-1000
175
255
-960
-103
297
-100
-110
-50
-150
872
-267
-1000
-511
1000
46
456
204
-247
77
1000
-583
-191
1000
669
-1000
478
-917
1000
-1000
822
-481
-760
-497
-1000
375
-169
403
524
243
-1000
1000
187
1000
-962
709
-428
149
-134
-1000
1000
1000
-114
-309
259
-528
853
-1000
377
1000
604
1000
-641
544
896
-159
-819
-884
77
1000
1000
-213
-486
1000
-808
731
-1000
-1000
-899
719
-1000
1000
-419
321
-1000
1000
401
-417
614
-1000
1000
151
338
-713
546
-1000
-137
-78
-321
947
-69
1000
-1000
-757
31
-276
441
262
1000
253
-614
995
961
349
869
416
575
1000
350
638
-960
-276
731
962
916
-325
-1000
23
273
-35
-104
1000
893
1000
712
-1000
-743
-518
552
-84
381
805
1000
-1000
-1000
1000
1000
844
-1000
219
-1000
1000
-343
-828
1000
-908
-1000
-209
-440
-784
-920
365
739
-249
-1000
-1000
801
-242
-822
235
-282
-592
1000
185
369
1
226
-888
737
951
-504
-342
-141
123
466
133
1
1
1000
261
57
745
961
724
25
37
-230
-277
227
267
-13
-169
325
-1000
-703
-872
-91
757
-449
-1000
-677
-368
-585
-918
-928
1000
1000
245
-575
1000
-930
825
-492
-1000
-1000
-950
455
902
1000
-532
-183
-881
299
-812
-651
-247
-1000
-666
883
-528
1000
-675
-488
229
-502
513
531
383
-2
1000
152
-421
662
-619
1000
737
-412
313
-22
-1000
-1000
578
-1000
-1000
1000
436
-101
198
-1000
-352
146
1000
-393
809
410
489
-710
-637
877
-116
906
-290
860
1000
-739
-35
-145
-608
150
-816
760
-1000
-1000
1000
-593
615
1000
-1000
-884
377
-754
1000
700
-514
957
-717
-1000
223
-530
-891
-354
-309
1000
367
-754
-363
811
245
-371
-558
1000
1000
-404
-182
-1000
-982
257
365
-342
-885
40
212
30
186
282
183
427
-442
-864
3
166
-253
-1000
-149
-684
701
-368
-278
-551
207
-384
1000
295
-155
-1000
358
559
172
-133
-85
-822
-1000
-56
1000
-914
863
-278
1000
1000
815
-927
-372
-1000
438
-369
-314
751
634
-1000
-394
376
-1000
755
-699
29
-100
362
578
666
-135
-651
-1000
915
343
907
222
-1000
-977
586
-29
-667
1000
1000
-1000
-864
-59
-836
623
346
-61
-908
-101
-530
-688
1000
454
-180
-1000
-384
1000
626
1000
-345
-973
19
-926
-1000
437
-1000
751
-1000
-141
-454
376
552
-121
182
-380
-43
1000
1000
-367
902
-640
1000
1000
-556
-1000
-590
-766
1000
1000
819
682
-367
-159
632
-146
-1000
1000
-458
715
-1000
-1000
-279
815
597
1000
-600
-798
-305
1000
-378
769
1000
329
-633
159
20
1000
759
-1000
-809
-1000
-317
969
-1000
-463
-412
-662
-750
-493
1000
-1000
-450
-370
1000
-560
-1000
43
102
368
208
-1000
375
188
-512
-409
315
348
307
-193
379
-63
-247
582
123
-414
-105
956
-526
27
185
-963
1000
-1000
1000
746
384
349
201
548
-1000
-4
509
-1000
-887
621
-659
-869
-902
-747
-102
-1000
1000
565
-407
985
1000
-228
-938
1000
-848
1000
1000
501
844
1
-447
902
954
-20
-1000
-976
-524
-1000
-1000
-126
-62
-847
663
1000
392
1000
-104
-57
-348
83
-1000
-426
-1000
-301
-543
1000
375
430
-499
778
-1000
-586
-1000
-1000
-103
1000
277
653
-623
-150
872
85
-996
-511
1000
46
305
396
-329
216
1000
-583
-191
1000
669
-1000
199
-1000
1000
-1000
822
-481
-219
-535
-1000
375
-722
403
204
394
-1000
438
534
188
-473
-229
-1000
149
-134
-461
1000
1000
-114
-1000
259
-528
1000
-1000
377
1000
604
1000
-323
544
896
-159
-662
-741
77
879
934
-1000
-911
464
-1000
731
-1000
-1000
-864
733
-469
1000
-523
321
-1000
1000
390
182
285
-1000
1000
-655
71
-850
368
-1000
-91
1000
-321
421
120
1000
-1000
-757
-546
674
370
-758
297
546
-1000
1000
647
201
1000
633
-168
945
-255
-192
-1000
-18
-561
437
501
-1000
-971
-141
829
-35
-104
1000
996
1000
712
-1000
-743
-153
533
-1000
650
715
1000
-1000
-1000
1000
1000
-23
-1000
547
201
430
-560
-828
1000
-908
-1000
227
-144
-784
-628
-239
739
-249
-1000
-1000
801
-242
-253
50
-282
-592
1000
185
369
1
226
-888
1000
572
-504
-342
-834
123
466
133
1
1
1000
721
-57
745
961
1000
-992
783
-230
-277
227
267
-13
-169
325
-1000
-1000
-872
-91
757
-449
-1000
-139
-368
-585
-937
-928
1000
1000
-10
-575
1000
-930
81
-77
-1000
-1000
-97
859
902
893
64
550
-181
299
-347
-1000
-247
-1000
-302
1000
-528
1000
-669
-488
-660
-502
498
531
383
-2
1000
152
1000
872
-826
193
1000
250
313
-22
-869
-1000
-196
-1000
-1000
1000
436
-810
-356
-1000
-352
146
1000
-393
1000
410
832
-180
-11
743
-116
1000
-338
860
-907
-739
-35
6
-10
-395
-816
760
-1000
-1000
1000
-593
615
183
-761
-739
979
-754
1000
700
-145
1000
-717
-1000
-160
-854
-370
-354
2
1000
367
-407
39
150
1000
-371
-824
1000
1000
-404
-182
-1000
-982
257
365
-342
-463
40
212
30
186
859
183
427
360
-740
3
566
-253
-1000
-149
-684
-135
-368
-1000
-551
-445
119
1000
363
-613
-1000
358
559
158
560
35
-822
-1000
-56
1000
-476
863
-278
1000
1000
815
-927
-444
-1000
-107
-273
-314
751
634
-1000
-744
376
-1000
755
0
29
-53
-155
543
666
-135
-651
-1000
915
648
1000
222
-476
-977
1000
-29
252
1000
684
-1000
-864
-626
-836
623
456
-25
-996
-312
-530
-688
1000
224
-94
-1000
-384
1000
626
1000
-345
-973
-1000
-673
-1000
437
-744
751
-571
-141
78
887
1000
-603
610
-342
-43
757
1000
-367
902
-1000
1000
1000
-556
-1000
-736
-561
1000
1000
984
86
-367
-836
632
-710
-1000
1000
-640
715
-1000
-833
-37
815
630
1000
-600
-798
540
1000
-378
769
1000
298
-1000
159
20
1000
759
-1000
-809
-171
235
969
-1000
-463
-412
-1000
-750
-493
1000
-1000
-450
-370
1000
-560
-1000
-151
102
368
208
-1000
375
-166
-328
-409
315
348
307
-193
379
-63
283
582
123
-414
-105
956
-526
409
-4
-779
698
-1000
1000
762
709
349
201
548
-1000
45
18
-565
-887
621
-659
-869
-902
-298
-102
-1000
1000
565
-407
985
1000
-1000
-971
1000
-848
1000
397
501
1000
1
-165
902
1000
229
-577
-662
-186
-1000
47
-266
-62
-1000
663
440
-197
1000
-104
-57
-489
83
-1000
-119
-1000
-301
-543
1000
375
844
-499
775
-1000
-586
-1000
-967
-27
769
-100
81
-293
-150
872
85
-996
-511
1000
46
305
204
-247
216
1000
-583
-191
1000
669
-1000
199
-1000
1000
-1000
822
-481
-219
-1000
-1000
375
-722
403
914
394
-1000
438
534
188
-473
-229
-1000
149
-134
-461
1000
1000
-114
-1000
259
-528
1000
-1000
411
1000
604
252
-323
213
520
-159
91
-741
77
941
146
-678
213
1000
-1000
731
-1000
-1000
-674
373
-1000
883
-523
321
-1000
1000
1000
1000
78
-366
1000
-655
71
-298
368
-1000
-91
667
-321
705
-56
1000
-885
-583
-546
1000
-61
-758
297
546
-1000
1000
131
201
1000
242
-58
430
-810
-192
-1000
712
-561
437
765
-606
-553
-141
829
-35
-104
1000
996
1000
712
-1000
-743
-355
533
-1000
426
715
633
-1000
-1000
808
1000
828
-1000
1000
-359
-223
-560
-1000
1000
-1000
-1000
452
-440
-784
-920
289
739
-249
-481
-1000
801
-242
-822
235
-282
64
1000
185
-91
1
226
-124
1000
572
51
-342
-990
123
466
-387
891
1
1000
261
-57
745
1000
975
25
37
-445
-1000
227
1000
-13
-169
486
-18
-653
-872
-91
38
162
-895
-613
-368
-484
-918
-928
1000
1000
245
-575
1000
-930
825
-492
-1000
-1000
4
-29
902
141
-1000
550
-606
299
-988
-529
-1000
-1000
371
883
-874
747
-675
-1000
338
-502
513
-224
1000
-2
1000
-237
-84
847
-826
193
1000
224
313
-686
-918
-1000
-196
-1000
-245
997
222
254
198
-1000
-352
146
1000
-393
1000
410
489
-542
-11
1000
-647
906
-450
860
1000
-575
-35
6
-10
-395
-816
760
-1000
-1000
1000
-593
615
183
-786
-884
979
-754
633
-25
-514
424
385
-845
-220
-1000
-1000
-354
537
1000
367
-407
39
312
548
-50
-824
1000
648
-404
-376
-894
-1000
257
-334
-342
-325
40
-177
765
186
282
183
427
360
-740
372
566
-396
-1000
-149
-1000
1000
-611
-1000
-654
-445
-53
1000
-180
-250
-1000
358
559
-754
1000
-142
-514
-1000
-56
1000
-385
863
264
1000
427
763
-927
-265
-1000
438
-957
-314
1000
1000
-309
-1000
376
-1000
755
-699
232
566
254
-587
905
-135
-569
-1000
915
343
1000
222
-476
-794
1000
-29
-259
1000
1000
-1000
-864
-626
323
703
173
-25
-1000
-451
-530
-24
1000
224
239
-1000
-384
1000
626
1000
-345
-973
-377
-926
-1000
1000
-1000
751
-571
-680
-302
250
1000
-603
249
-260
34
726
1000
-367
902
-640
1000
1000
-556
-1000
-736
-561
1000
1000
819
1000
-367
-159
632
-146
-1000
1000
-640
715
-1000
-833
44
867
597
1000
-600
-798
-305
1000
-378
769
1000
681
-633
-195
30
1000
759
-779
-809
-1000
-317
1000
-1000
-977
-450
-662
-750
-493
1000
-1000
-450
-370
1000
-560
-1000
-151
102
368
61
-1000
375
-166
-328
-453
315
348
307
-193
819
-63
-325
582
123
-454
-1000
956
-526
-130
185
-936
413
-1000
1000
762
-177
349
-88
1000
-916
-264
509
-1000
-887
621
-659
-1000
-1000
-747
-102
-194
1000
565
-407
1000
1000
-881
-1000
1000
-1000
379
1000
501
1000
-1000
-328
902
102
103
135
-662
-310
-1000
-1000
-946
-62
-1000
580
1000
870
1000
-249
-57
-795
83
-1000
332
-1000
-301
-543
1000
375
402
-499
80
-1000
-586
-1000
-755
283
1000
-100
81
-623
-150
872
85
-996
-511
1000
46
305
204
-247
216
1000
-583
-191
242
669
-472
434
-1000
1000
-1000
822
-557
-399
-1000
-1000
1000
-90
403
914
394
-1000
94
534
188
-473
-306
-1000
149
-45
-461
388
1000
-441
-1000
259
-425
1000
-1000
377
258
604
1000
-323
544
896
-159
-662
-1000
77
110
934
-1000
-911
1000
-1000
51
-852
-1000
-864
1000
-1000
1000
-523
321
-1000
1000
390
-90
285
-1000
1000
-655
71
-222
368
-1000
-91
369
-289
421
-56
1000
-1000
-614
-546
674
370
-758
297
546
-1000
1000
373
201
1000
633
179
925
-465
-1000
-1000
876
-561
578
911
-1000
-881
266
829
-35
-104
1000
996
1000
712
-1000
-743
-153
533
-1000
650
715
889
-1000
-1000
778
1000
828
-1000
96
201
-223
-560
-828
1000
-824
-82
227
-144
-784
-1000
-239
739
91
-1000
-1000
801
-242
-253
50
-282
-592
1000
185
369
1
226
-888
1000
572
-504
-342
-834
123
466
133
1
1
1000
721
-57
745
961
1000
-992
783
-230
-277
227
267
-13
-169
325
-1000
-703
-872
-91
757
-449
-1000
-677
-368
-585
-918
-928
1000
1000
-10
-575
1000
-930
825
-77
-1000
-1000
4
859
902
893
64
550
-649
299
-347
-651
-247
-1000
-1000
883
-528
1000
-669
-488
-660
-502
-472
531
383
-2
1000
152
1000
872
-826
193
1000
250
313
-22
-869
-1000
-196
-1000
-1000
1000
436
-810
-356
-1000
-352
146
1000
-393
1000
410
489
-542
-11
1000
-116
1000
-328
860
-503
-739
-35
6
-10
-395
-816
760
-1000
-1000
1000
-593
615
183
-761
-739
979
-754
1000
700
-145
1000
-717
-1000
-160
-854
-1000
-282
2
1000
367
-407
39
811
548
-371
-824
961
1000
-404
-182
-1000
-982
257
365
-342
-463
40
212
30
186
859
183
427
360
-740
3
566
-19
-1000
-149
-689
-135
-368
-1000
-262
-445
119
1000
363
-613
-1000
358
559
158
560
35
-822
-1000
-56
1000
-476
863
-278
1000
1000
815
-927
-444
-1000
-107
-273
-314
751
634
-1000
-744
376
-1000
755
0
29
-53
-155
543
666
-135
-651
-1000
915
648
1000
222
-476
-977
1000
-29
252
1000
684
-1000
-864
-626
-836
623
456
-25
-996
-312
-530
-688
1000
224
-94
-1000
-384
1000
626
1000
-345
-973
-851
-926
-1000
437
-744
751
-571
-141
78
887
1000
-603
610
-342
-43
757
1000
-367
902
-640
1000
1000
-556
-1000
-736
-561
1000
1000
819
86
-367
-476
632
-710
-1000
1000
-670
715
-1000
-833
-702
815
630
1000
-983
-798
540
1000
-378
633
1000
298
-1000
159
234
1000
759
-1000
-809
-171
235
1000
-373
-463
593
-1000
-750
-493
1000
-1000
-450
-370
1000
-560
-1000
-151
102
368
208
-1000
375
-166
-328
-409
315
348
307
-193
379
-63
-247
582
123
-414
-105
956
-526
409
185
-779
698
-900
1000
762
709
349
201
548
-68
45
18
-946
-887
621
-659
-869
-902
-298
-102
-1000
1000
565
-407
985
1000
-881
-938
1000
-848
1000
532
501
1000
1
-447
902
954
-185
-577
-662
-186
-1000
47
-266
-62
-1000
663
440
-197
1000
-104
-57
-489
83
-1000
-119
-1000
-301
-543
1000
375
844
-499
775
-1000
-586
-1000
-967
-27
769
-100
81
-293
-150
872
85
-996
-511
1000
46
305
204
-247
216
1000
-583
-191
1000
669
-1000
199
-1000
1000
-1000
822
-481
-219
-1000
-1000
375
-722
403
914
394
-1000
438
534
188
-473
-229
-1000
149
-134
-461
1000
1000
-114
-1000
259
-528
1000
-1000
411
1000
604
10
-323
213
520
-159
91
-741
77
941
146
-678
213
1000
-1000
731
-1000
-1000
-674
373
-1000
883
-129
321
-964
134
1000
1000
78
-476
1000
-655
71
-298
368
-1000
-91
667
-321
421
-56
1000
-938
-583
-546
1000
-61
-758
297
546
-1000
1000
131
201
1000
242
-58
837
-810
-192
-1000
335
-561
437
765
-1000
-553
-141
829
-35
-104
1000
996
1000
712
-1000
-743
-355
533
-1000
426
715
633
-1000
-1000
808
1000
828
-1000
1000
-359
-223
-560
-1000
844
-183
-1000
-55
-658
-1000
-1000
365
739
-249
-1000
-799
1000
357
-1000
235
-282
-1000
1000
575
226
1
-382
-586
1000
-22
-504
-342
-611
123
958
704
-269
1
1000
1000
486
-347
705
1000
-369
599
495
-915
671
-80
-576
799
1000
-1000
-684
-872
-1000
743
-495
-1000
-378
-728
-585
-601
-1000
1000
185
-703
-575
848
-415
825
-774
-482
-1000
4
859
580
893
-987
1000
-569
625
-732
-1000
-268
-819
-1000
1000
-676
1000
-92
-488
1000
-502
344
531
174
-233
758
-1000
199
847
-861
699
738
224
748
-68
-918
-551
-196
-952
-882
764
550
254
602
-357
-352
146
1000
-393
1000
410
489
-61
209
1000
-116
906
-450
987
1000
-739
306
6
-131
-804
-816
-285
-1000
-1000
807
-1000
-626
183
-1000
-884
377
-842
570
1000
79
957
-717
-1000
-160
-854
-832
-648
-81
666
-34
-936
-1000
1000
245
-205
-576
1000
406
-1000
-187
-1000
-1000
-377
738
-394
-994
-459
575
-228
-672
341
173
212
596
-740
-343
22
-122
-1000
1000
-116
-102
-1000
-229
-551
207
119
-1000
707
-128
-451
358
559
372
560
307
-822
-889
-56
845
453
863
-278
1000
655
815
-577
-617
-1000
438
-369
-1000
828
634
-1000
73
376
-1000
-697
-692
605
725
-63
-256
650
-183
-577
-1000
396
-410
986
222
-56
-264
390
-478
271
1000
684
-1000
-922
-45
-1000
623
456
-25
-518
-85
-1000
600
1000
224
-94
-1000
-384
1000
972
224
1000
-1000
-1000
-836
-1000
437
-1000
751
56
-281
37
392
646
-447
767
-1000
342
1000
952
-572
-309
539
1000
1000
-556
-1000
-736
-209
1000
1000
878
440
-1000
861
1000
-126
-44
738
-458
1000
-446
-1000
290
1000
1000
935
-76
-802
949
1000
-44
-1000
1000
298
-278
428
20
1000
759
-1000
-809
-1000
-317
670
-1000
-463
-412
-662
-981
734
276
-1000
-450
-370
1000
-560
-1000
-151
535
1000
-8
-1000
518
-166
-1000
-349
315
891
65
139
379
-136
-1000
1000
-417
-280
905
1000
-526
-83
185
-963
37
-579
1000
212
1000
139
201
1000
-428
71
1000
-300
-462
621
-659
-341
-281
-1000
-102
-577
1000
980
2
1000
720
-443
-938
1000
-848
1000
532
501
1000
1
-447
902
87
-713
-665
-976
-524
-1000
-1000
-1000
-380
-847
663
764
428
1000
-104
-561
-489
-1000
-1000
-119
-1000
-301
-543
1000
491
616
976
1000
-1000
175
255
-960
-103
961
-100
-110
-50
-150
460
85
-1000
-271
1000
46
781
204
-144
250
1000
-583
-191
1000
669
-1000
478
-917
1000
-1000
822
-481
-760
-1000
-1000
375
-709
547
914
394
-1000
1000
-565
529
-623
1000
-428
149
-134
-461
1000
1000
-114
-309
259
-528
853
-1000
377
1000
604
1000
-641
544
896
-159
-819
-884
-1000
1000
1000
-504
-486
1000
-808
806
-1000
-1000
-899
-220
-1000
1000
-419
321
-1000
1000
401
182
614
-584
1000
151
147
-298
546
-434
-461
-1000
-321
947
95
380
-121
-1000
31
674
1000
-758
1000
185
-1000
634
450
989
1000
1000
575
1000
-633
-192
-960
-18
731
1000
355
-210
203
266
848
-35
-104
1000
893
1000
-95
-1000
-571
-518
-160
-1000
631
715
1000
-1000
-1000
1000
1000
272
-1000
219
-1000
430
-343
-828
1000
-908
-1000
-209
-440
-784
-920
365
739
-249
-1000
-1000
1000
253
-944
314
-202
-592
1000
500
369
1
605
-888
1000
572
-504
-342
-834
123
466
133
168
159
1000
-749
-57
485
961
1000
25
314
-230
-277
919
456
-13
-169
325
-985
-575
-872
-91
757
-449
-1000
-677
-368
-585
-918
-928
1000
1000
245
-575
1000
-930
825
-1000
-736
-1000
-524
8
902
893
-492
1000
-1000
299
-812
-651
-247
-1000
-666
883
-528
1000
-675
-488
229
-1000
513
531
658
-2
279
-180
199
985
-976
1000
1000
182
576
-22
-918
-982
-196
-1000
-141
1000
436
-1000
650
-1000
-352
146
1000
-198
1000
410
964
-542
-376
1000
-116
906
-450
860
1000
-739
-323
-15
-10
-395
287
1000
-766
-1000
1000
-238
615
-104
-786
-884
377
-754
1000
700
-514
957
-717
-1000
-160
-854
-891
-777
112
1000
327
-1000
-992
303
264
-372
-824
578
1000
480
-182
-816
-982
257
365
-342
-372
40
15
30
186
341
1000
427
596
-740
-343
22
-122
-1000
-288
-684
-661
-368
-317
-245
207
119
1000
84
-307
-352
358
559
172
560
35
-822
-889
-56
845
-184
863
-278
1000
1000
200
-807
-234
-1000
1000
-301
473
1000
251
-1000
-1000
517
-241
-917
-699
29
-37
362
-256
666
-120
-475
-1000
1000
343
1000
222
-476
-977
1000
-284
-379
1000
869
-1000
-778
-878
-1000
-203
1000
337
-518
122
-1000
-1000
1000
1000
-478
-1000
-384
1000
5
1000
1000
-973
-840
-1000
-1000
1000
-1000
751
-571
-738
-247
887
1000
-603
182
-765
342
830
1000
-1000
358
-640
1000
1000
-371
-728
-1000
-441
1000
223
77
682
-367
499
1000
-126
-1000
939
-1000
715
-350
-1000
-279
1000
239
1000
-600
-313
-305
563
-378
744
1000
329
-542
159
1000
832
-126
-982
-1000
-1000
-317
519
-1000
-85
761
-662
-750
-493
1000
-1000
36
-370
1000
-560
-125
-151
102
368
208
-1000
654
67
-522
-409
315
348
307
-193
379
-63
-247
582
123
-414
-105
956
-526
27
185
-963
1000
-579
1000
212
709
139
201
548
-822
-4
509
-565
-493
621
-1000
-745
-1000
-747
-106
-293
1000
-857
74
1000
1000
-881
330
1000
-1000
1000
532
-228
1000
1
-447
628
954
-211
-1000
-976
-669
-1000
-1000
-1000
-380
-847
319
1000
-847
1000
-845
-57
-489
83
-1000
313
-1000
-301
-543
1000
375
-346
247
1000
-1000
-586
-1000
-595
-103
1000
-100
-110
-112
-150
872
58
-996
-511
1000
46
-107
204
-247
216
1000
-583
-191
389
164
-1000
199
-905
1000
-1000
645
-481
-920
636
-1000
-370
349
403
840
394
-860
1000
-600
529
-473
-229
-1000
-243
-24
-461
1000
15
-114
-1000
747
-528
1000
-1000
377
1000
604
1000
-323
544
896
-159
-662
-741
77
549
1000
-1000
-1000
1000
-686
731
-391
-1000
-340
373
-1000
876
-523
321
-1000
1000
401
182
678
-1000
1000
-505
338
-298
1000
-424
-91
667
-319
421
-56
950
-1000
-470
-546
252
370
-758
1000
546
-1000
803
252
63
1000
318
237
933
-1000
-192
-1000
-920
-1000
437
310
-1000
-971
-141
829
-35
-104
1000
1000
394
161
-1000
-743
425
533
-1000
650
-155
1000
-1000
-539
897
236
420
-1000
115
-1000
1000
-560
-828
1000
-908
-1000
209
-440
-251
-920
365
739
-220
-1000
-1000
586
-242
-822
235
-282
-592
1000
185
369
1
6
-888
1000
572
-504
-342
-834
123
480
133
1
1
1000
659
-57
850
961
1000
25
882
-230
-277
1000
976
-588
-169
325
-1000
-1000
-872
-91
90
-449
-1000
-677
-368
-697
-344
-928
1000
717
-236
-575
1000
-930
825
-492
-1000
-380
-950
455
1000
1000
-532
-564
-881
299
-812
-651
-247
-1000
-666
1000
-109
1000
-675
-488
-478
-502
513
531
-441
-2
1000
152
-49
662
-619
1000
737
-1000
190
185
-501
-1000
-196
-1000
-897
1000
436
-331
198
-1000
-249
461
1000
-393
809
-426
1000
-542
-637
931
-116
906
-396
860
1000
-993
-227
952
-1000
150
-816
1000
-1000
-1000
1000
978
615
-41
-786
-884
377
-754
1000
700
-514
957
-717
-1000
-160
-854
-891
517
683
1000
367
30
-934
696
-56
-371
-824
569
790
-527
-182
-1000
-982
257
657
313
-1000
293
212
30
186
314
183
427
360
-740
3
22
-253
-1000
-149
-684
451
-368
284
-824
460
252
1000
1000
-613
-997
358
559
172
560
35
-822
-889
-56
1000
-476
863
-278
1000
1000
815
-927
-444
-1000
438
-369
-314
751
634
-1000
-1000
376
-1000
755
-699
-198
-302
362
727
30
339
-651
-1000
915
343
1000
222
-476
-977
1000
-29
-379
850
1000
-1000
-864
-59
-836
623
456
-25
-908
-508
-530
-688
1000
454
-180
-1000
-384
1000
626
1000
-345
-973
19
-926
-1000
437
-1000
751
-571
71
-247
887
1000
-603
182
-177
-43
757
1000
-367
457
1000
792
835
103
-580
-244
-296
1000
1000
220
737
-300
-660
783
-494
-1000
379
-696
926
-538
-540
-279
815
597
1000
-600
-798
-305
1000
-573
769
1000
329
-633
159
20
1000
759
-1000
-209
-866
-317
539
-1000
-463
-57
-662
-750
-493
1000
-1000
-450
-370
1000
-560
-1000
-151
102
368
-403
-1000
-303
-166
-328
-409
315
348
-1000
-291
379
-808
-247
582
123
-414
267
956
-526
27
53
-963
927
-1000
820
-73
341
-216
201
-705
-1000
-4
835
-565
-844
621
-407
-737
-902
-747
570
-1000
816
565
-407
985
1000
-606
-1000
1000
-1000
473
-576
911
1000
202
-447
902
255
-20
-1000
-1000
-276
-833
-1000
-126
-62
-847
-270
1000
109
1000
-104
210
-489
-1000
-1000
410
-1000
-867
-543
1000
375
463
-1000
778
-1000
-586
-1000
-761
-103
1000
-372
653
-623
-8
872
85
-996
-511
1000
46
305
396
-329
216
1000
-583
-191
1000
335
-939
199
-671
1000
-1000
822
-637
-219
-1000
-1000
345
-722
529
632
452
-846
438
534
188
-473
-591
-760
149
-134
-400
1000
476
-114
-1000
772
-1000
690
-1000
377
1000
604
1000
-323
544
896
-159
-662
-741
77
549
934
-1000
11
464
-1000
731
-1000
-1000
-864
133
-1000
1000
-523
321
-1000
1000
-176
182
285
-1000
1000
-733
71
-298
368
-1000
-1000
667
310
556
514
1000
-1000
-757
-546
1000
370
-1000
297
546
-1000
1000
373
201
1000
552
179
945
408
-192
-1000
-18
-489
437
501
-1000
-971
611
185
-35
357
433
493
920
712
-1000
-1000
-332
-1000
-545
650
715
1000
-1000
-1000
1000
1000
828
-1000
547
201
430
-560
-828
1000
-908
-1000
-209
-440
-784
-920
365
739
-249
-1000
-1000
801
-242
-822
413
-282
-592
1000
185
369
-204
226
-888
1000
572
-504
-342
-834
123
466
133
1
1
1000
261
57
745
961
724
25
37
-230
-277
227
267
-13
-224
21
-1000
-703
-557
-91
1000
-449
-356
-677
-1000
-585
-918
-928
1000
1000
245
-575
1000
-930
825
-492
-1000
-1000
-950
1000
902
1000
-151
-183
-932
299
-812
-651
-247
-1000
-666
883
-528
1000
-648
-488
229
-502
513
531
383
145
874
152
-421
662
-619
1000
737
-412
313
419
-1000
-1000
-726
-1000
-897
1000
436
254
198
-1000
-352
146
1000
-393
809
410
489
-542
-637
1000
-116
906
-396
860
1000
-739
-35
-145
-347
150
-475
760
-37
-1000
1000
-593
273
289
-1000
-884
377
-754
1000
700
-514
957
-717
-1000
223
-530
-891
-354
-441
494
367
-768
-363
811
245
-371
-558
1000
1000
-404
-182
-1000
-982
257
365
-342
-885
40
212
30
186
282
183
427
-442
-864
3
166
-253
-1000
-149
-684
451
-368
-278
-551
207
119
1000
707
-613
-1000
358
559
172
-99
-211
-822
-479
-56
1000
-914
863
-278
1000
1000
815
-927
-372
-1000
438
-369
-314
306
634
-1000
-394
1000
-1000
755
-699
29
-100
362
578
666
-135
-651
-1000
366
343
907
222
-1000
-977
586
-29
-667
1000
1000
-1000
-864
-59
-836
623
346
-61
-908
-101
-530
-688
1000
454
-180
-1000
-384
1000
626
1000
-345
-973
19
-926
-1000
437
-1000
751
-1000
-141
-454
376
552
-121
182
-380
-43
1000
1000
-367
902
-640
1000
1000
-556
-1000
-590
-766
201
1000
819
682
-367
-159
632
-146
-1000
713
-458
715
-1000
-1000
-279
815
597
1000
-600
-798
-305
1000
-378
769
1000
329
-633
159
20
1000
759
-1000
354
-1000
-317
969
-1000
-463
-412
-1000
-750
-46
589
-1000
-450
-370
304
-560
-1000
43
102
368
208
-1000
375
188
-512
-409
315
348
307
-193
379
-519
-247
582
123
-414
172
1000
-526
-148
623
-641
1000
-1000
977
-587
346
349
201
548
-955
-4
509
-565
-887
613
-659
10
-902
-730
-102
-1000
1000
-457
-407
985
1000
-881
-938
1000
-848
1000
532
501
1000
1
-371
902
954
-20
-1000
-424
-524
-1000
-1000
-126
-62
-275
663
1000
392
1000
-104
-57
-348
83
-1000
-426
-1000
-301
-543
1000
375
736
-499
778
-1000
-586
-1000
-1000
795
1000
277
900
189
-150
872
85
-996
-511
1000
46
-384
396
-329
478
1000
-583
-191
877
669
-1000
677
-1000
857
-1000
867
-481
-219
-1000
-1000
375
-722
1000
914
394
-1000
749
534
105
-473
-229
-1000
149
-134
-461
1000
1000
-114
-1000
259
-528
1000
-1000
377
1000
604
1000
-323
544
896
-159
-662
-741
77
879
934
-153
-911
464
-967
1000
-1000
-1000
-864
733
-469
1000
-523
321
-1000
1000
390
182
285
-1000
1000
-655
71
-850
368
-1000
-91
1000
-321
421
120
1000
-1000
-757
-546
674
576
-758
-315
546
-724
681
647
201
1000
633
-168
945
-255
-192
-1000
-18
-536
437
501
-1000
-971
-141
829
-35
-104
1000
996
1000
712
-1000
-743
-153
533
-1000
650
715
1000
-1000
-1000
1000
1000
828
-1000
547
201
430
-560
-828
1000
-908
-1000
-209
-440
-784
-920
365
739
-249
-1000
-1000
1000
253
-822
235
-282
-803
1000
119
181
1
1000
-888
1000
568
-599
-342
-403
380
263
434
263
0
708
542
66
1000
961
1000
-462
37
-230
-27
227
-679
-761
-169
325
-1000
-631
-112
-132
779
-449
-1000
-677
-368
-577
-918
-928
1000
49
-226
-1000
1000
-648
825
-1000
948
-1000
749
859
603
1000
-420
533
-1000
299
-812
-651
-460
-762
-666
629
-315
1000
-892
-488
229
-502
513
531
929
1000
1000
-180
571
847
-200
1000
91
91
575
793
-751
-302
-64
-1000
-897
821
986
254
-204
-1000
8
146
1000
179
1000
410
489
-88
-11
1000
-23
456
-450
770
1000
-739
-35
6
300
-750
-592
669
-1000
-1000
1000
54
461
183
-652
14
1000
90
455
-383
-1000
1000
-717
-1000
1000
-266
-280
-648
2
971
367
-1000
-1000
811
-277
192
-824
1000
1000
191
597
-1000
-982
605
365
-342
-885
40
124
69
369
341
1000
427
-290
-1000
-343
-34
-69
-818
-288
-1000
1000
-368
-278
-551
207
-338
1000
707
-613
-1000
358
593
172
560
-405
-822
-1000
803
1000
-184
748
-278
1000
1000
1000
-927
-1000
-413
994
-369
68
581
1000
-988
-1000
541
-1000
-697
-699
672
-100
-751
-256
666
-56
-651
-1000
915
343
1000
9
689
-1000
1000
-29
-379
1000
684
-1000
-1000
-839
-1000
593
724
-25
-280
119
-706
-978
1000
-447
-177
-1000
485
1000
972
744
944
-359
-885
-1000
-666
576
-1000
1000
-1000
-630
-991
340
1000
-603
182
-1000
342
50
1000
-1000
902
-1000
780
1000
-637
-1000
-405
-182
1000
1000
819
682
-367
-159
1000
-1000
-1000
800
-429
669
-350
-1000
-652
1000
597
1000
-96
180
-861
1000
-378
126
544
329
-633
159
20
1000
1000
-1000
-809
-1000
-486
722
-419
-961
-412
-761
-420
-42
1000
-580
-450
572
1000
-1000
-1000
291
-27
707
208
-729
446
-166
-638
-409
-36
348
625
-193
379
-502
-247
219
123
-414
-105
838
-526
27
185
-963
1000
-1000
1000
547
565
562
201
548
-580
-244
509
-689
-887
621
-1000
-1000
-513
-747
-102
-261
999
483
-407
1000
1000
-881
-938
1000
-1000
1000
-29
501
1000
1
-447
744
954
-800
-1000
-976
-524
-1000
-1000
-959
-380
-847
663
1000
392
1000
-104
930
-489
83
-1000
-119
-134
-599
-1000
1000
570
-665
896
946
-1000
-93
-1000
-616
462
1000
-288
-110
-1000
-150
600
85
-707
-511
1000
46
305
204
-247
216
1000
-583
-191
1000
403
-1000
199
-1000
1000
-1000
822
-481
-219
-1000
-1000
375
-850
403
1000
394
-1000
1000
-565
841
-473
-229
-1000
149
-1000
-461
1000
1000
-114
-1000
259
-528
1000
-1000
377
1000
1000
1000
810
544
28
-1000
219
-1000
77
1000
1000
-666
-962
1000
-924
1000
-1000
-986
-1000
772
-1000
1000
-752
321
-1000
758
401
182
244
-721
1000
-505
135
-298
-136
-1000
-91
365
-321
-853
71
380
-1000
-757
-422
674
370
-758
1000
546
-1000
1000
373
201
1000
633
179
945
-255
646
-1000
-18
-561
437
850
-1000
-971
-141
829
-35
-104
1000
1000
1000
897
51
-667
275
533
-496
766
1000
570
-979
-130
839
267
437
-1000
535
-1000
430
-560
-828
1000
-908
-1000
227
-440
-784
-920
365
739
-249
-665
-1000
801
-242
-253
50
-282
-592
1000
185
369
1
226
-888
1000
572
-504
-342
-834
123
466
133
1
1
1000
261
-57
745
961
1000
25
37
-230
-277
227
267
-13
-169
325
-1000
-703
-872
-91
757
-449
-1000
-677
-368
-585
-918
-928
1000
1000
245
-575
1000
-930
825
-492
-1000
-1000
4
526
902
893
-420
775
-649
299
-812
-651
-247
-1000
-1000
883
-1000
1000
-505
-488
-660
-502
-472
531
383
-2
450
152
-84
847
-826
193
737
224
313
-22
-918
-1000
-196
-1000
-897
997
436
392
198
-1000
-352
252
1000
-393
1000
410
489
-542
-11
1000
-116
906
-450
860
1000
-739
-35
6
-10
-395
-816
760
-1000
-779
1000
-593
615
183
-786
-1000
979
-754
1000
-144
-514
957
-717
-875
-185
-355
-1000
-354
2
1000
367
-407
39
811
548
-371
-824
1000
1000
-404
-182
-1000
-982
257
365
-342
-463
40
212
30
186
282
183
427
360
-740
3
566
-253
-1000
-149
-684
-135
-368
-1000
-551
-298
119
1000
717
-613
-1000
358
559
158
560
347
-822
-1000
8
1000
-476
863
-1000
745
1000
815
-927
-444
-659
-107
-369
-314
751
634
-1000
-744
376
-1000
755
-699
29
-100
362
578
666
-135
-651
-1000
915
648
1000
222
-476
-977
1000
-29
252
1000
684
-1000
-864
-626
-836
623
456
-25
-996
-312
-530
-688
1000
224
-94
-1000
-384
1000
626
1000
-345
-973
19
-926
-1000
437
-1000
751
-708
-141
-247
1000
1000
-603
182
-342
-43
757
1000
-367
902
-640
1000
1000
-556
-1000
-736
-561
1000
1000
819
1000
-367
-860
632
-146
-1000
1000
-640
715
-1000
-833
-44
815
597
1000
-600
-798
-305
1000
-378
769
1000
329
-633
159
20
1000
759
-1000
-809
-171
235
969
-1000
-463
-412
-1000
-750
-728
1000
-1000
-450
-370
485
-560
-1000
-151
102
368
208
-1000
375
-166
-664
-409
315
307
307
-193
379
-326
-247
582
123
-414
-105
956
-526
-291
185
-963
746
-1000
1000
39
709
349
201
1000
-1000
-4
509
-565
-887
621
-659
-869
-902
-997
-102
-1000
1000
1000
-542
985
1000
-881
724
1000
-848
1000
697
501
1000
1
-447
218
954
-20
-857
-662
-226
-1000
-672
-404
-62
-1000
663
1000
82
1000
-104
-57
-489
83
-964
-119
-1000
-301
-543
1000
-140
229
-1000
775
-1000
-586
-1000
-789
283
1000
-100
81
-981
-150
85
42
-996
143
630
46
305
204
-247
-885
1000
-583
-191
1000
669
-1000
199
-1000
1000
-1000
822
-481
-219
-1000
-1000
375
-722
403
914
394
-1000
438
534
188
-473
-229
-1000
149
-134
-461
1000
1000
-114
-1000
259
-528
1000
-1000
377
1000
604
1000
-323
544
896
-159
-662
-741
77
941
934
-1000
-182
1000
-1000
731
-1000
-1000
-325
915
-650
298
-255
321
-905
193
1000
1000
78
-151
1000
-655
71
-298
368
-1000
-91
667
-321
421
-56
1000
-1000
-1000
-843
1000
-61
-880
297
546
-1000
1000
131
201
1000
633
179
945
-255
-192
-1000
335
-561
437
765
-1000
-553
-141
829
-35
-104
1000
996
1000
712
-1000
-743
-153
533
-1000
650
715
889
-1000
-1000
808
1000
828
-1000
547
201
-223
-560
-1000
844
-183
-1000
-55
-1000
-1000
-858
365
739
-249
-1000
-799
1000
357
-1000
235
-282
-1000
1000
575
226
1
-382
-891
1000
-22
-504
597
-611
380
466
704
299
1
1000
190
422
-347
705
1000
-1000
806
-464
-741
-426
-228
-960
799
1000
-1000
-684
-872
-1000
743
-495
-1000
-378
-728
-585
-918
-637
1000
74
-703
840
890
-408
825
-1000
423
-1000
4
1000
344
1000
-874
1000
-569
625
-732
-1000
-268
-819
-1000
1000
-203
806
-437
-488
860
-574
344
531
174
-233
758
-1000
199
847
-861
699
737
224
313
-22
-918
-551
-1000
-1000
-953
764
550
254
602
-1000
-352
146
753
-393
1000
410
489
-61
209
1000
-116
906
-450
860
1000
-739
306
6
-131
-910
-816
-285
-1000
-1000
807
-1000
-626
195
-1000
-884
377
-842
570
1000
79
957
-717
-1000
-160
-854
-832
-648
-81
666
367
-936
-748
1000
245
-205
-576
1000
976
-897
-187
-980
-1000
-12
483
-150
-885
92
575
-228
186
341
1000
427
596
-740
-343
22
-122
-1000
-288
-116
-68
-938
-229
-551
207
-170
-294
42
-128
-978
1000
262
372
560
307
-822
-889
-56
845
453
863
-278
1000
655
815
-577
-435
-719
-38
-369
-1000
192
634
-1000
-1000
376
-1000
-697
-1000
29
1000
362
-1000
650
-236
-651
-1000
492
-410
986
-162
-476
198
1000
-496
271
577
740
-1000
-922
-626
-1000
-7
456
-25
-518
-312
-1000
-505
1000
224
-94
-1000
-384
1000
972
224
1000
-1000
-885
-1000
-1000
153
-1000
751
-571
-738
-424
703
1000
-813
182
-978
342
1000
952
-572
88
539
1000
1000
-556
-1000
-736
-566
1000
1000
878
682
-1000
861
800
-126
-638
738
-458
1000
-791
-1000
290
1000
1000
935
-76
-802
127
1000
-44
-1000
1000
298
-278
1000
20
1000
759
-1000
86
-1000
-833
670
-1000
-463
-412
-420
-989
-347
650
-65
-450
-227
1000
-560
-1000
-151
1
1000
556
-592
375
-166
-1000
-868
315
287
65
139
379
-136
-1000
1000
986
155
905
1000
-756
27
712
-963
37
-579
1000
212
709
139
201
1000
-428
71
1000
-1000
-462
621
-659
-676
-902
-1000
-102
-577
1000
980
-407
1000
720
-485
-938
1000
-848
1000
532
501
1000
1
-447
902
87
-211
-1000
-976
-524
-1000
-1000
-1000
-380
-847
663
764
747
1000
-104
-57
-489
-878
-1000
-119
-1000
-301
-543
1000
33
616
976
1000
-1000
175
626
10
-103
961
-100
-110
-50
-150
872
85
-1000
-511
1000
46
781
204
-924
77
1000
-583
-191
1000
669
-1000
478
-917
1000
-1000
822
-481
-760
-1000
-1000
375
-709
547
1000
394
-1000
660
-565
529
-332
1000
-428
149
-134
-342
1000
1000
-114
-309
259
-528
853
-1000
577
1000
395
1000
-437
441
896
96
1000
-884
-626
1000
1000
-213
-486
1000
-808
746
-1000
-1000
-899
-220
-1000
1000
-419
321
-1000
1000
401
182
614
-584
1000
151
147
-298
546
-434
-461
-1000
-321
947
95
380
-121
-1000
31
674
1000
-1000
1000
185
-1000
634
450
989
1000
1000
575
1000
-573
-192
-960
-18
731
1000
501
-264
203
266
848
-35
-104
1000
893
1000
-95
-1000
-571
-518
-160
-1000
631
715
1000
-1000
-930
1000
1000
-973
-1000
219
-505
3
-343
-1000
844
-183
-1000
-55
-1000
-1000
-858
365
739
-249
-1000
-799
1000
357
-1000
235
-282
-1000
1000
575
226
1
-382
-891
473
-22
-504
597
-611
380
466
704
299
1
1000
295
422
-347
705
1000
-1000
806
-230
-741
-426
-228
-325
799
1000
-1000
-684
-872
-1000
743
-495
-1000
-378
-728
-585
-918
-637
438
185
-703
840
890
-408
825
-1000
423
-918
4
1000
344
1000
-874
1000
-569
625
-520
-1000
-268
-819
-1000
1000
-203
806
-437
-488
860
-574
344
531
174
-233
758
-1000
199
847
-861
699
737
224
313
-22
-918
-551
-196
-1000
-882
764
550
254
602
-1000
-352
146
1000
-393
1000
410
489
-61
209
820
652
906
-450
122
1000
-478
306
6
-131
-910
-816
-285
-1000
-1000
807
-1000
-626
195
-1000
-884
377
-842
570
736
79
957
-717
-1000
-160
-854
-832
-648
-81
666
367
-936
-748
1000
245
-205
-576
1000
976
-897
-187
-980
-1000
-12
483
-150
-885
92
575
-228
186
341
1000
427
596
-740
-343
22
-122
-1000
-288
-116
-102
-938
-229
-551
207
536
-359
707
-128
-978
358
559
372
560
307
-822
-889
-56
845
453
863
-278
1000
655
815
-577
-435
-719
-38
-369
-1000
898
634
-1000
-1000
376
-1000
-697
-692
29
1000
362
-256
650
-183
-651
-1000
492
-410
986
222
-476
-264
1000
-496
271
577
684
-1000
-922
-626
-1000
-7
456
-25
-518
-312
-1000
-505
1000
224
-94
-1000
-384
1000
972
224
1000
-1000
-885
-1000
-1000
153
-1000
751
-571
-738
-424
703
1000
-813
-426
-1000
342
1000
952
-572
88
539
1000
1000
-556
-1000
-736
-1000
1000
1000
878
682
-1000
861
800
-126
-638
738
-458
1000
-791
-1000
290
1000
1000
935
-76
-802
127
1000
-44
-1000
1000
298
-278
428
20
1000
759
-1000
-809
-1000
-317
670
-1000
-463
-412
-662
-750
-473
1000
-981
-450
-370
1000
-560
-1000
-151
1
1000
484
-595
375
-166
-1000
-868
315
243
65
139
379
-136
-1000
1000
986
155
905
1000
-756
27
712
-963
37
-579
1000
212
709
139
201
1000
-428
71
1000
-1000
-462
621
-659
-676
-902
-1000
-102
-577
1000
980
-407
1000
720
-485
-938
1000
-848
1000
532
501
1000
1
-447
902
87
-211
-1000
-976
-524
-1000
-1000
-1000
-380
-847
663
764
428
1000
-104
-57
-489
-878
-1000
-119
-1000
-301
-543
1000
33
616
976
1000
-1000
175
255
-960
-103
961
-100
-110
-50
-150
872
85
-1000
-511
1000
46
781
204
-924
77
1000
-583
-191
1000
669
-1000
478
-917
1000
-1000
822
-481
-760
-1000
-1000
375
-709
547
1000
394
-1000
660
-565
529
-332
1000
-428
149
-134
-342
1000
1000
-114
-309
259
-528
853
-1000
377
1000
604
1000
-113
544
896
-159
508
-884
-626
1000
1000
-213
-486
1000
-808
746
-1000
-1000
-899
-220
-1000
1000
-419
321
-1000
1000
401
182
614
-584
1000
151
147
-298
546
-434
-461
-1000
-321
947
95
380
-121
-1000
31
674
1000
-758
1000
185
-1000
634
450
989
1000
1000
575
1000
-573
-192
-960
-18
731
1000
501
-264
203
266
848
-35
-104
1000
893
1000
-95
-1000
-571
-518
-160
-1000
631
715
1000
-1000
-930
1000
790
272
-1000
219
-661
430
-343
-1000
844
-183
-1000
-55
-1000
-1000
-858
365
739
-249
-1000
-799
1000
357
-1000
235
-282
-1000
1000
575
226
1
-382
-891
1000
-22
-504
597
-611
380
466
704
299
1
1000
295
422
-347
705
1000
-1000
806
-230
-741
-426
-228
-325
799
1000
-1000
-684
-872
-1000
743
-495
-1000
-378
-728
-585
-918
-637
1000
185
-703
840
890
-408
825
-1000
423
-1000
4
1000
344
1000
-874
1000
-569
625
-732
-1000
-268
-819
-1000
1000
-203
806
-437
-488
860
-574
344
531
174
-233
758
-1000
199
847
-861
699
737
224
313
-22
-918
-551
-196
-1000
-882
764
550
254
602
-1000
-352
146
1000
-393
1000
410
489
-61
209
1000
-116
906
-450
860
1000
-739
306
6
-131
-910
-816
-285
-1000
-1000
807
-1000
-626
195
-1000
-884
377
-842
570
1000
79
957
-717
-1000
-160
-854
-832
-648
-81
666
367
-936
-748
1000
245
-205
-576
1000
976
-897
-187
-980
-1000
-12
483
-150
-885
92
575
-228
186
341
1000
427
596
-740
-343
22
-122
-1000
-288
-116
-102
-938
-229
-551
207
119
-359
707
-128
-978
358
559
372
560
307
-822
-889
-56
845
453
863
-278
1000
655
815
-577
-435
-719
-38
-369
-1000
192
634
-1000
-1000
376
-1000
-697
-692
29
1000
362
-256
650
-183
-651
-1000
492
-410
986
222
-476
-264
1000
-496
271
577
684
-1000
-922
-626
-1000
-7
456
-25
-518
-312
-1000
-505
1000
224
-94
-1000
-384
1000
972
224
1000
-1000
-885
-1000
-1000
153
-1000
751
-571
-738
-424
703
1000
-813
182
-978
342
1000
952
-572
88
539
1000
1000
-556
-1000
-736
-1000
1000
1000
878
682
-1000
861
800
-126
-638
738
-458
1000
-791
-1000
290
1000
1000
935
-76
-802
127
1000
-44
-1000
1000
298
-278
428
20
1000
759
-1000
-809
-1000
-317
670
-1000
-463
-412
-662
-750
-347
1000
-1000
-450
-370
1000
-560
-1000
-151
1
1000
484
-592
375
-166
-1000
-868
315
287
65
139
379
-136
-1000
1000
986
155
905
1000
-756
27
712
-963
37
-579
1000
212
709
139
201
1000
-428
71
1000
-1000
-462
621
-659
-676
-902
-1000
-102
-577
1000
980
-407
1000
720
-485
-938
1000
-848
1000
532
501
1000
1
-447
902
87
-211
-1000
-976
-524
-1000
-1000
-1000
-380
-847
663
764
428
1000
-104
-57
-489
-878
-1000
-119
-1000
-301
-543
1000
33
616
976
1000
-1000
175
255
-960
-103
961
-100
-110
-50
-150
872
85
-1000
-511
1000
46
781
204
-924
77
1000
-583
-191
1000
669
-1000
478
-917
1000
-1000
822
-481
-760
-1000
-1000
375
-709
547
1000
394
-1000
660
-565
529
-332
1000
-428
149
-134
-342
1000
1000
-114
-309
259
-528
853
-1000
377
1000
604
1000
-113
544
896
-159
508
-884
-626
1000
1000
-213
-486
1000
-808
746
-1000
-1000
-899
-220
-1000
1000
-419
321
-1000
1000
401
182
614
-584
1000
151
147
-298
546
-434
-461
-1000
-321
947
95
380
-121
-1000
31
674
1000
-758
1000
185
-1000
634
450
989
1000
1000
575
1000
-573
-192
-960
-18
731
1000
501
-264
203
266
848
-35
-104
1000
893
1000
-95
-1000
-571
-518
-160
-1000
631
715
1000
-1000
-930
1000
790
272
-1000
219
-661
430
-343
-1000
844
-183
-1000
-55
-1000
-1000
-858
365
739
-249
-1000
-799
1000
357
-1000
235
-282
-1000
1000
575
226
1
-382
-891
1000
-22
-504
597
-611
380
466
704
299
1
1000
295
422
-347
705
1000
-1000
806
-230
-741
-426
-228
-272
799
1000
-1000
-684
-872
-1000
867
-495
-611
-1000
-728
-196
-918
-637
1000
185
-703
840
890
-408
825
-1000
423
-1000
4
1000
344
1000
-874
1000
-569
896
-732
-1000
-1000
-819
-1000
1000
-570
806
-437
-488
860
-773
344
531
174
-233
758
-1000
199
847
-861
699
737
224
313
-22
-918
-551
-196
77
-1000
962
587
254
602
-1000
-352
146
1000
-393
1000
461
489
-61
209
1000
-116
906
-450
860
528
-739
306
-286
-131
-910
-816
-285
-1000
-1000
807
-1000
-626
195
-1000
-884
377
-842
570
1000
79
957
-717
-1000
-160
-854
-832
-648
-639
666
367
-936
-748
1000
245
-205
-576
1000
976
-897
-187
-980
-1000
-12
483
-150
-885
92
575
-228
186
341
1000
427
596
-740
-343
22
-122
-1000
-288
-116
-102
-938
-229
-551
207
119
-359
707
-128
-978
358
559
372
560
307
-822
-889
-56
845
453
863
-278
1000
655
815
-577
-435
-719
-38
-369
-1000
192
634
-1000
-1000
376
-1000
-697
-692
29
1000
362
-256
650
-183
-651
-1000
492
-410
986
222
-476
-264
1000
-189
271
577
785
-1000
-922
-626
-1000
285
456
-25
-690
-312
-789
-505
1000
224
-94
-1000
-384
1000
972
224
1000
-1000
-885
-1000
-1000
153
-1000
751
-571
-738
-424
703
1000
-813
182
-978
342
1000
952
-572
88
-106
1000
1000
-556
-1000
-736
-1000
1000
1000
878
682
-1000
861
800
-126
-638
738
-458
1000
-791
-1000
290
1000
1000
935
-76
-1000
127
1000
-44
-1000
1000
298
-278
428
20
1000
759
-1000
-809
-1000
-317
670
-1000
-463
-412
-662
-750
-347
1000
-1000
-450
-370
1000
-560
-1000
-151
1
1000
484
-592
375
-166
-1000
-868
315
287
65
139
379
-136
-1000
1000
986
155
905
1000
-756
27
712
-963
37
-579
1000
212
709
139
201
1000
-428
71
1000
-1000
-462
621
-659
-676
-902
-1000
-102
-577
1000
980
-407
1000
720
-485
-938
1000
-848
1000
532
501
1000
1
-447
902
87
-211
-1000
-976
-524
-1000
-1000
-1000
-380
-847
663
764
428
1000
-104
-57
-489
-878
-1000
-119
-1000
-301
-543
1000
33
616
976
1000
-1000
175
255
-960
-103
961
-100
-110
-50
-150
872
85
-1000
-511
1000
46
781
204
-924
77
1000
-583
-191
1000
669
-1000
478
-917
1000
-1000
822
-827
-760
-1000
-1000
1000
-323
547
1000
394
-1000
660
-565
523
-332
1000
-428
149
-134
-342
1000
1000
-114
-309
259
-528
853
-1000
377
1000
604
1000
-113
544
896
-159
508
-884
-626
1000
1000
-213
-486
1000
-808
746
-1000
-1000
-899
-220
-1000
1000
-419
321
-1000
1000
401
182
614
-584
1000
151
147
-298
546
-434
-461
-1000
-321
947
95
380
-121
-1000
31
674
1000
-758
1000
185
-1000
634
450
989
1000
1000
575
1000
-573
-192
-960
-18
731
1000
501
-264
203
266
848
-35
-104
1000
893
1000
-95
-1000
-571
-1000
-1000
-1000
631
715
1000
-1000
194
1000
790
272
-1000
219
-661
430
-343
-828
1000
-908
-1000
227
-440
-784
-920
365
739
-249
-1000
-1000
801
-242
-253
50
-282
-592
1000
185
369
1
226
-888
1000
572
-504
-342
-834
123
466
133
1
1
1000
261
-57
745
961
1000
25
37
-230
-277
227
267
-13
-169
325
-1000
-703
-872
-91
757
-449
-1000
-677
-368
-585
-918
-1000
1000
1000
245
-575
1000
-930
825
-492
-1000
-1000
4
761
902
662
20
775
-664
12
-812
-651
-247
-807
-1000
883
-1000
1000
-505
-1000
-660
-502
-472
531
383
-2
1000
152
-84
847
-826
193
737
224
313
-22
-918
-1000
-196
-1000
-897
997
436
254
198
-1000
-352
146
1000
-393
1000
410
489
-542
-11
1000
-116
906
-450
860
1000
-739
-35
6
-10
-395
-816
760
-1000
-1000
1000
-593
615
183
-786
-884
979
-754
1000
700
-514
957
-717
-875
-160
-854
-1000
-354
2
1000
367
-407
39
811
548
-371
-824
1000
1000
-404
-182
-1000
-982
257
365
-342
-463
40
212
30
186
282
183
427
360
-740
3
566
-253
-1000
-149
-684
-135
-368
-1000
-551
-445
119
1000
363
-613
-1000
299
559
158
560
347
-822
-1000
8
1000
-476
863
-1000
745
1000
-19
-419
-444
-659
-107
-369
-314
751
634
-256
-744
376
-1000
755
-528
29
-100
362
578
370
-135
-651
-1000
915
648
1000
222
-476
-977
1000
-29
252
1000
684
-1000
-864
-626
-836
623
456
-25
-996
-312
-530
-688
1000
224
-94
-1000
120
1000
508
788
-547
-962
19
-926
-823
437
-1000
751
-708
-141
174
1000
1000
-603
663
-342
-43
757
135
-367
902
-1000
1000
1000
-556
-1000
-736
-561
1000
1000
819
1000
-367
-159
632
-146
-1000
1000
-640
715
-1000
-833
-279
815
597
1000
-600
-798
-305
1000
-378
769
1000
329
-633
159
20
1000
759
-1000
-809
816
235
969
-751
-463
-412
-1000
-750
-493
1000
-1000
-450
-370
1000
-560
-1000
-151
102
368
208
-1000
375
-166
-328
-409
315
348
307
-193
379
-326
-247
582
123
-414
-105
956
-526
-291
185
-963
746
-502
-228
1000
709
349
201
548
-1000
-4
509
-565
-869
621
-659
-869
-902
-747
-102
-1000
840
565
-407
985
1000
-881
-161
1000
-848
1000
697
501
1000
1
-447
902
954
-20
-1000
-662
-226
-1000
-1000
-404
-62
-1000
663
1000
82
1000
-104
-57
-489
83
-1000
-119
-1000
-301
-543
1000
375
229
-1000
775
-1000
-586
-1000
-789
283
1000
-100
81
-623
-150
1000
-415
-996
-511
1000
46
422
204
-247
216
1000
-583
-191
1000
669
-1000
854
-1000
1000
-1000
822
-481
-518
-1000
-1000
375
-1000
403
914
394
-1000
438
534
188
-473
-229
-1000
149
-134
-461
1000
1000
-114
-1000
259
-528
1000
-1000
377
1000
604
1000
-323
544
896
-159
-662
-741
77
941
934
-1000
213
1000
-1000
731
-1000
-1000
-247
373
-1000
883
-255
321
-1000
1000
1000
1000
78
-151
1000
-655
71
-298
368
-1000
503
437
-321
421
-56
1000
-1000
-366
-843
1000
73
-758
297
546
-1000
940
131
201
1000
633
179
945
-255
-192
-1000
335
-561
437
765
-1000
-553
-141
829
-35
-104
1000
996
1000
712
-1000
-743
-153
533
-1000
650
715
889
-1000
-1000
808
1000
800
-961
-190
201
-223
-560
-828
1000
-908
-1000
227
-440
-784
-920
365
739
-249
-665
-1000
801
-242
-253
50
-282
-592
1000
185
369
1
226
-888
1000
572
-504
-342
-834
123
466
133
1
1
1000
261
-57
745
961
1000
25
37
-230
-277
227
267
-13
-169
325
-1000
-703
-872
-91
757
-449
-1000
-677
-368
-585
-918
-928
1000
1000
245
-575
1000
-930
825
-492
-1000
-1000
4
526
902
893
-420
775
-649
299
-812
-651
-247
-1000
-1000
883
-1000
1000
-505
-488
-660
-502
-472
531
383
-2
450
152
-84
847
-826
193
737
224
313
-22
-918
-1000
-196
-1000
-897
997
436
392
198
-1000
-352
252
1000
-393
1000
410
489
-542
-11
1000
-116
906
-450
860
1000
-739
-35
6
-10
-395
-816
760
-1000
-779
1000
-593
615
183
-786
-1000
979
-754
1000
-144
-514
957
-717
-875
-185
-355
-1000
-354
2
1000
367
-407
39
811
548
-371
-824
1000
1000
-404
-182
-1000
-982
257
365
-342
-463
40
212
30
186
282
183
427
360
-740
3
566
-253
-1000
-149
-684
-135
-368
-1000
-551
-298
119
1000
717
-613
-1000
358
559
158
560
347
-822
-1000
8
1000
-476
863
-1000
745
1000
815
-927
-444
-659
-107
-369
-314
751
634
-1000
-744
376
-1000
755
-699
29
-100
362
578
666
-135
-651
-1000
915
648
1000
222
-476
-977
1000
-29
252
1000
684
-1000
-864
-626
-836
623
456
-25
-996
-312
-530
-688
1000
224
-94
-1000
-384
1000
626
1000
-345
-973
19
-926
-1000
437
-1000
751
-708
-141
-247
1000
1000
-603
182
-342
-43
757
1000
-367
902
-640
1000
1000
-556
-1000
-736
-561
1000
1000
819
1000
-367
-860
632
-146
-1000
1000
-640
715
-1000
-833
-44
815
597
1000
-600
-798
-305
1000
-378
769
1000
329
-633
159
20
1000
759
-1000
-809
-171
235
969
-1000
-463
-412
-1000
-750
-728
1000
-1000
-450
-370
485
-560
-1000
-151
102
368
208
-1000
375
-166
-664
-409
315
307
307
-193
379
-326
-247
582
123
-414
-105
956
-526
-291
185
-963
746
-1000
1000
39
709
349
201
1000
-1000
-4
509
-565
-887
621
-659
-869
-902
-997
-102
-1000
1000
1000
-542
985
1000
-881
724
1000
-848
1000
697
501
1000
1
-447
218
954
-20
-857
-662
-226
-1000
-672
-404
-62
-1000
663
1000
82
1000
-104
-57
-489
83
-964
-119
-1000
-301
-543
1000
-140
229
-1000
775
-1000
-586
-1000
-789
283
1000
-100
81
-981
-150
85
42
-996
143
630
46
305
204
-247
-885
1000
-583
-191
1000
669
-1000
199
-1000
1000
-1000
822
-481
-219
-1000
-1000
375
-722
403
914
394
-1000
438
534
188
-473
-229
-1000
149
-134
-461
1000
1000
-114
-1000
259
-528
1000
-1000
377
1000
604
1000
-323
544
896
-159
-662
-741
77
941
934
-1000
-182
1000
-1000
731
-1000
-1000
-325
915
-650
298
-255
321
-905
193
1000
1000
78
-151
1000
-655
71
-298
368
-1000
-91
667
-321
421
-56
1000
-1000
-1000
-843
1000
-61
-880
297
546
-1000
1000
131
201
1000
633
179
945
-255
-192
-1000
335
-561
437
765
-1000
-553
-141
829
-35
-104
1000
996
1000
712
-1000
-743
-153
533
-1000
650
715
889
-1000
-1000
808
1000
828
-1000
547
201
-223
-560
-1000
844
-183
-1000
-55
-658
-1000
-1000
365
739
-249
-1000
-799
1000
357
-1000
235
-282
-1000
1000
575
226
1
-382
-891
1000
-22
183
-342
417
123
628
704
-269
1
1000
1000
486
-347
705
1000
-369
599
495
-915
671
-80
-576
799
1000
-1000
-684
-872
-1000
743
-495
-1000
-378
-728
-585
-336
-1000
1000
185
-703
-575
1000
-415
825
-774
-778
-1000
4
859
580
893
-987
1000
-569
625
-732
-1000
-268
-819
-1000
1000
-676
1000
-92
-488
1000
-502
344
531
174
-233
758
-1000
199
847
-861
699
738
224
748
-68
-713
-365
-196
-952
-882
764
550
254
602
-357
-352
146
1000
-393
1000
410
489
-61
209
1000
-116
906
-450
860
1000
-739
306
206
-131
-804
-345
-285
-1000
-1000
894
-1000
-1000
262
-1000
-884
377
-842
570
1000
79
957
-717
-1000
-160
-854
-832
-648
-81
666
-34
-936
-1000
1000
245
-205
-576
1000
406
-1000
-187
-1000
-1000
-377
738
-394
-994
-459
575
-228
-672
341
173
212
596
-740
-343
22
-122
-1000
1000
-116
-102
-938
-229
-551
207
119
-1000
707
-128
-978
358
559
372
560
307
-822
-889
-56
845
453
863
-278
1000
655
815
-577
-617
-1000
438
-369
-1000
828
634
-1000
73
376
-1000
-697
-692
29
1000
362
-256
650
-183
-651
-1000
492
-410
986
222
-56
-264
390
-478
271
1000
684
-1000
-922
-1000
-1000
623
456
-25
-858
-85
-1000
600
1000
224
-94
-1000
-384
1000
972
224
1000
-1000
-1000
-836
-1000
437
-1000
751
56
-281
37
703
1000
-813
182
-978
342
1000
952
-572
-309
539
1000
1000
-556
-1000
-736
-209
1000
1000
878
440
-1000
861
1000
-126
-44
738
-458
1000
-446
-1000
290
1000
1000
935
-76
-802
949
1000
-44
-1000
1000
298
-278
428
20
1000
759
-1000
-809
-1000
-317
670
-1000
-463
-412
-662
-981
734
276
-1000
-450
-370
1000
-560
-1000
-151
535
1000
-8
-1000
518
-166
-1000
-349
315
891
65
139
379
-136
-1000
1000
-417
-280
905
1000
-526
-83
185
-963
37
-579
1000
212
1000
139
201
1000
-428
71
1000
-300
-462
621
-659
-341
-281
-1000
-102
-577
1000
980
2
1000
720
-443
-938
1000
-848
1000
532
501
1000
1
-447
902
87
-211
-1000
-976
-524
-1000
-1000
-1000
-380
-847
663
764
428
1000
-104
-561
-489
-1000
-1000
-119
-1000
-301
-543
1000
491
616
976
1000
-1000
175
255
-960
-103
961
-100
-110
-50
-150
460
85
-1000
-271
1000
46
781
204
-247
77
1000
-583
-191
1000
669
-1000
478
-917
1000
-1000
822
-481
-760
-1000
-1000
375
-709
547
661
394
-1000
1000
-565
529
-623
1000
-428
149
-134
-461
1000
1000
-114
-309
259
-528
853
-1000
377
1000
604
1000
-641
544
1000
-159
-819
-884
-1000
1000
1000
13
-486
1000
-808
746
-1000
-1000
-899
-220
-1000
1000
-419
321
-1000
1000
401
182
614
-584
1000
151
147
-298
546
-434
-461
-1000
-321
947
95
380
-121
-1000
31
674
958
-758
1000
-156
-1000
634
450
989
1000
1000
575
1000
-633
-192
-960
-18
731
1000
355
-210
203
266
848
-35
-104
1000
893
1000
-95
-1000
-571
-518
-160
-1000
631
715
1000
-1000
-1000
1000
1000
272
-1000
219
-1000
430
-343
-828
1000
-908
-1000
227
-144
-784
-628
-239
739
-249
-1000
-1000
801
-242
-253
50
-282
-592
1000
185
369
1
226
-888
1000
572
-504
-342
-834
123
466
133
1
1
1000
721
-57
745
961
1000
-992
783
-230
-277
227
267
-13
-169
325
-1000
-703
-872
-91
757
-449
-1000
-677
-368
-585
-918
-928
1000
1000
-10
-575
1000
-930
825
-77
-1000
-1000
4
859
902
893
64
550
-649
299
-347
-651
-247
-1000
-1000
883
-528
1000
-669
-488
-660
-502
-472
531
383
-2
1000
152
1000
872
-826
193
1000
250
313
-22
-869
-1000
-196
-1000
-1000
1000
436
-810
-356
-1000
-352
146
1000
-393
1000
410
489
-542
-11
1000
-116
1000
-328
860
-503
-739
-35
6
-10
-395
-816
760
-1000
-1000
1000
-593
615
183
-761
-739
979
-754
1000
700
-145
1000
-717
-1000
-160
-854
-1000
-354
2
1000
367
-407
39
811
548
-371
-824
1000
1000
-404
-182
-1000
-982
257
365
-342
-463
40
212
30
186
859
183
427
360
-740
3
566
-253
-1000
-149
-684
-135
-368
-1000
-551
-445
119
1000
363
-613
-1000
358
559
158
560
35
-822
-1000
-56
1000
-476
863
-278
1000
1000
815
-927
-444
-1000
-107
-273
-314
751
634
-1000
-744
376
-1000
755
0
29
-53
-155
543
666
-135
-651
-1000
915
648
1000
222
-476
-977
1000
-29
252
1000
684
-1000
-864
-626
-836
623
456
-25
-996
-312
-530
-688
1000
224
-94
-1000
-384
1000
626
1000
-345
-973
-851
-926
-1000
437
-744
751
-571
-141
78
887
1000
-603
610
-342
-43
757
1000
-367
902
-640
1000
1000
-556
-1000
-736
-561
1000
1000
819
86
-367
-476
632
-710
-1000
1000
-640
715
-1000
-833
-702
815
630
1000
-600
-798
540
1000
-378
769
1000
298
-1000
159
20
1000
759
-1000
-809
-171
235
969
-1000
-463
-412
-1000
-750
-493
1000
-1000
-450
-370
1000
-560
-1000
-151
102
368
208
-1000
375
-166
-328
-409
315
348
307
-193
379
-63
-247
582
123
-414
-105
956
-526
409
185
-779
698
-1000
1000
762
709
349
201
548
-1000
45
18
-565
-887
621
-659
-869
-902
-298
-102
-1000
1000
565
-407
985
1000
-881
-938
1000
-848
1000
532
501
1000
1
-447
902
954
-185
-577
-662
-186
-1000
47
-266
-62
-1000
663
440
-197
1000
-104
-57
-489
83
-1000
-119
-1000
-301
-543
1000
375
844
-499
775
-1000
-586
-1000
-967
-27
769
-100
81
-293
-150
872
85
-996
-511
1000
46
305
204
-247
216
1000
-583
-191
1000
669
-1000
199
-1000
1000
-1000
822
-481
-219
-1000
-1000
375
-722
403
914
394
-1000
438
534
188
-473
-229
-1000
149
-134
-461
1000
1000
-114
-1000
259
-528
1000
-1000
411
1000
604
10
-323
213
520
-159
91
-741
77
941
146
-678
213
1000
-1000
731
-1000
-1000
-674
373
-1000
883
-523
321
-1000
1000
1000
1000
78
-366
1000
-655
71
-298
368
-1000
-91
667
-321
421
-56
1000
-938
-583
-546
1000
-61
-758
297
546
-1000
1000
131
201
1000
242
-58
837
-810
-192
-1000
335
-561
437
765
-1000
-553
-141
829
-35
-104
1000
996
1000
712
-1000
-743
-355
533
-1000
426
715
633
-1000
-1000
808
1000
828
-1000
1000
-359
-223
-560
-828
692
-908
-1000
-209
-959
-784
-920
365
739
-249
-1000
-1000
801
-242
-822
235
-282
-592
1000
185
369
1
226
-888
1000
572
-504
-342
-834
123
480
133
1
1
1000
659
-57
850
961
1000
25
1000
-230
-277
227
976
-13
-169
325
-1000
-703
-872
-91
90
-449
-1000
-677
-368
-548
-912
-866
1000
717
-236
-575
928
-471
825
-492
-1000
-1000
-950
455
902
1000
-532
-564
-881
299
-812
-651
-247
-1000
-666
883
-528
1000
-675
-488
229
-502
513
531
383
-2
1000
152
-421
662
-619
1000
737
-1000
-698
-131
-1000
-1000
-196
-1000
-897
1000
436
254
198
-1000
-352
146
1000
-393
809
410
489
-542
-637
1000
-116
906
-396
860
1000
-739
-227
952
-1000
150
-816
1000
-1000
-1000
1000
978
615
289
-786
-884
513
-754
1000
700
-514
957
-717
-1000
-160
-854
-1000
517
2
1000
367
30
-934
696
-56
-371
-824
972
790
-404
-182
-1000
-982
257
1000
313
-885
293
363
695
186
314
183
427
360
-740
3
22
-253
-1000
-149
-684
451
-368
-278
-824
460
252
1000
707
-613
-781
358
559
172
560
35
-822
-889
-56
1000
-476
863
-278
1000
1000
815
-927
-444
-1000
438
-369
-314
751
634
-1000
-1000
376
-1000
987
-699
-172
-302
362
1000
30
339
-651
-939
915
343
1000
222
-476
-977
1000
-29
-379
850
1000
-1000
-864
-59
-836
623
456
-25
-908
-312
-530
-688
1000
454
-180
-1000
-384
1000
626
1000
-345
-973
19
-926
-1000
437
-1000
751
-571
-141
-247
887
1000
-603
182
-342
-43
757
1000
-367
1000
-204
1000
1000
103
-1000
-736
-296
1000
1000
819
737
-300
-660
783
-494
-1000
379
-696
926
-538
-540
-279
837
597
1000
-600
-798
-305
1000
-378
769
1000
329
-633
159
20
1000
759
-1000
-209
-1000
-317
539
-1000
-463
-412
-662
-750
-493
1000
-1000
-450
-370
1000
-560
-1000
-151
102
368
208
-1000
375
-166
-328
-409
315
348
307
-193
379
-808
-247
582
123
-414
267
956
-526
27
53
-963
927
-776
820
528
341
349
-332
-363
-1000
-4
509
-565
-277
621
-407
-737
-902
-747
570
-1000
816
565
-407
985
1000
-881
-938
1000
-848
1000
273
911
1000
202
-591
1000
1000
-20
-1000
-1000
-276
-833
-1000
-126
-62
-847
-270
1000
109
1000
-104
-57
-489
83
-1000
-119
-1000
-867
-543
1000
375
430
-1000
778
-1000
-586
-1000
-761
-103
1000
-372
653
-623
-8
872
85
-996
-511
1000
46
305
396
-329
216
1000
-583
-191
1000
335
-939
199
-671
1000
-1000
822
-637
-219
-1000
-1000
345
-722
403
632
452
-410
438
534
188
-473
-591
-760
149
-134
-461
1000
476
-114
-1000
772
-1000
690
-1000
377
1000
604
1000
-323
544
896
-159
-662
-741
77
549
934
-836
11
464
-1000
-8
-1000
-1000
-864
133
-1000
601
-523
-180
-1000
1000
-176
182
438
-695
1000
-733
71
-1000
-130
-1000
-377
-51
-426
485
-56
1000
-1000
-757
-546
674
370
-758
297
546
-1000
1000
373
201
1000
633
179
945
408
-192
-1000
-18
-489
437
501
-1000
-971
611
185
-35
-104
912
722
920
712
-1000
-743
-332
533
-545
650
715
1000
-1000
-1000
1000
1000
828
-1000
547
201
430
-560
-828
1000
-908
-1000
227
-144
-784
-628
-239
739
-249
-1000
-1000
801
-242
-253
50
-282
-592
1000
185
369
1
226
-888
1000
572
-504
-342
-834
123
466
133
1
1
1000
721
-57
745
961
1000
-992
783
-230
-277
227
267
-13
-169
325
-1000
-703
-872
-91
757
-449
-1000
-677
-368
-585
-918
-928
1000
1000
-10
-575
1000
-930
825
-77
-1000
-1000
4
859
902
893
64
550
-649
299
-347
-651
-247
-1000
-1000
883
-528
1000
-669
-488
-660
-502
-472
531
383
-2
1000
152
1000
872
-826
193
1000
250
313
-22
-869
-1000
-196
-1000
-1000
1000
436
-810
-356
-1000
-352
146
1000
-393
1000
410
489
-542
-11
1000
-116
1000
-328
860
-503
-739
-35
6
-10
-395
-816
760
-1000
-1000
1000
-593
615
183
-761
-739
979
-754
1000
700
-145
1000
-717
-1000
-160
-854
-1000
-354
2
1000
367
-407
39
811
548
-371
-824
1000
1000
-404
-182
-1000
-982
257
365
-342
-463
40
212
30
186
859
183
427
360
-740
3
566
-253
-1000
-149
-684
-135
-368
-1000
-551
-445
119
1000
363
-613
-1000
358
559
158
560
35
-822
-1000
-56
1000
-476
863
-278
1000
1000
815
-927
-444
-1000
-107
-273
-314
751
634
-1000
-744
376
-1000
755
0
29
-53
-155
543
666
-135
-651
-1000
915
648
1000
222
-476
-977
1000
-29
252
1000
684
-1000
-864
-626
-836
623
456
-25
-996
-312
-530
-688
1000
224
-94
-1000
-384
1000
626
1000
-345
-973
-851
-926
-1000
437
-744
751
-571
-141
78
887
1000
-603
610
-342
-43
757
1000
-367
902
-640
1000
1000
-556
-1000
-736
-561
1000
1000
819
86
-367
-476
632
-710
-1000
1000
-640
715
-1000
-833
-702
815
630
1000
-600
-798
540
1000
-378
769
1000
298
-1000
159
20
1000
759
-1000
-809
-171
235
969
-1000
-463
-412
-1000
-750
-493
1000
-1000
-450
-370
1000
-560
-1000
-151
102
368
208
-1000
375
-166
-328
-409
315
348
307
-193
379
-63
-247
582
123
-414
-105
956
-526
409
185
-779
698
-1000
1000
762
709
349
201
548
-1000
45
18
-565
-887
621
-659
-869
-902
-298
-102
-1000
1000
565
-407
985
1000
-881
-938
1000
-848
1000
532
501
1000
1
-447
902
954
-185
-577
-662
-186
-1000
47
-266
-62
-1000
663
440
-197
1000
-104
-57
-489
83
-1000
-119
-1000
-301
-543
1000
375
844
-499
775
-1000
-586
-1000
-967
-27
769
-100
81
-293
-150
872
85
-996
-511
1000
46
305
204
-247
216
1000
-583
-191
1000
669
-1000
199
-1000
1000
-1000
822
-481
-219
-1000
-1000
375
-722
403
914
394
-1000
438
534
188
-473
-229
-1000
149
-134
-461
1000
1000
-114
-1000
259
-528
1000
-1000
411
1000
604
10
-323
213
520
-159
91
-741
77
941
146
-678
213
1000
-1000
731
-1000
-1000
-674
373
-1000
883
-523
321
-1000
1000
1000
1000
78
-366
1000
-655
71
-298
368
-1000
-91
667
-321
421
-56
1000
-938
-583
-546
1000
-61
-758
297
546
-1000
1000
131
201
1000
242
-58
837
-810
-192
-1000
335
-561
437
765
-1000
-553
-141
829
-35
-104
1000
996
1000
712
-1000
-743
-355
533
-1000
426
715
633
-1000
-1000
808
1000
828
-1000
1000
-359
-223
-560
-828
1000
-908
-1000
-209
-440
-784
-920
365
739
-249
-1000
-1000
801
-242
-822
235
-282
-592
1000
185
369
1
226
-888
1000
572
-504
-342
-834
123
480
133
1
1
1000
659
-57
850
961
1000
25
1000
-230
-277
227
976
-13
-169
325
-1000
-703
-872
-91
90
-449
-1000
-677
-368
-548
-918
-928
1000
1000
245
-575
1000
-930
825
-492
-1000
-1000
-950
455
902
1000
-532
-564
-881
299
-812
-651
-247
-1000
-666
883
-528
1000
-675
-488
229
-502
513
531
383
-2
1000
152
-421
662
-619
1000
737
-1000
-698
-131
-1000
-1000
-196
-1000
-897
1000
436
254
198
-1000
-352
146
1000
-393
809
410
489
-542
-637
1000
-116
906
-396
860
1000
-739
-227
517
-793
150
-816
1000
-659
-1000
1000
978
615
289
-786
-884
377
-754
1000
700
-514
957
-717
-1000
-160
-854
-891
517
2
1000
367
30
-573
811
246
-371
-824
972
1000
-404
-182
-1000
-982
257
365
313
-885
292
212
30
186
314
183
427
360
-740
3
22
-253
-1000
-149
-684
451
-368
-278
-824
460
252
1000
707
-613
-781
358
559
172
560
35
-822
-889
-56
1000
-476
863
-278
1000
1000
815
-927
-444
-1000
438
-369
-314
751
634
-1000
-1000
376
-1000
755
-699
-198
-302
362
677
402
-135
-651
-1000
915
343
1000
222
-476
-977
647
-29
-379
1000
1000
-1000
-864
-59
-836
623
456
-25
-908
-312
-530
-688
1000
454
-180
-1000
-384
1000
626
1000
-345
-973
19
-926
-1000
437
-1000
751
-571
-141
-247
887
1000
-603
182
-342
-43
757
1000
-367
1000
-204
1000
1000
103
-1000
-736
-296
1000
1000
819
877
-367
-588
632
-146
-1000
1000
-662
926
-821
-719
-135
815
597
1000
-600
-798
-305
1000
-378
769
1000
329
-633
159
20
1000
759
-1000
-209
-1000
-317
539
-1000
-463
-412
-662
-750
-493
1000
-1000
-450
-370
1000
-560
-1000
-151
102
368
208
-1000
375
-166
-328
-409
315
348
307
-193
379
-808
-247
582
123
-414
267
956
-526
27
53
-963
927
-1000
1000
528
341
349
201
-363
-1000
-4
509
-565
-844
621
-407
-737
-902
-747
570
-1000
816
565
-407
985
1000
-881
-938
1000
-848
1000
532
911
1000
1
-447
902
954
-20
-1000
-1000
-276
-833
-1000
-126
-62
-847
-270
1000
109
1000
-104
-57
-489
83
-1000
-119
-1000
-867
-543
1000
375
430
-1000
778
-1000
-586
-1000
-761
-103
1000
-372
653
-623
-8
872
85
-996
-511
1000
46
305
396
-329
216
1000
-583
-191
1000
669
-1000
199
-1000
1000
-1000
822
-481
-219
-1000
-1000
345
-722
403
632
452
-410
438
534
188
-473
-591
-760
149
-134
-461
1000
476
-114
-1000
772
-1000
690
-1000
377
1000
604
1000
-323
544
896
-159
-662
-741
77
549
934
-1000
-911
464
-1000
731
-1000
-1000
-864
373
-1000
1000
-523
321
-1000
1000
-176
182
285
-1000
1000
-733
71
-298
368
-1000
-377
667
310
437
-56
1000
-1000
-757
-546
674
370
-758
297
546
-1000
1000
373
201
1000
633
179
945
408
-192
-1000
-18
-489
437
501
-1000
-971
611
185
-35
-104
912
722
920
712
-1000
-743
-332
533
-545
650
715
1000
-1000
-1000
1000
1000
828
-1000
547
201
430
-560
-816
1000
-855
-616
-257
-959
-1000
-863
836
739
-249
-1000
-1000
801
-242
-822
235
-282
-592
1000
185
369
1
226
-888
1000
572
-504
-342
-834
123
480
133
1
1
1000
659
-57
850
961
1000
25
1000
-230
-277
227
976
-13
-169
325
-259
-703
-1000
923
90
-733
-765
-1000
-368
-802
-891
-618
1000
1000
245
-575
1000
-930
870
-492
-1000
-1000
-950
455
902
1000
98
-564
-881
299
1000
-763
-247
-1000
-397
719
-528
1000
-1000
-875
952
-1000
513
531
383
-2
1000
-33
-421
662
-619
1000
737
-1000
-25
-694
-7
-425
-196
162
-897
1000
1000
454
727
-1000
196
536
1000
-765
967
410
489
-542
-719
1000
-116
906
-981
833
1000
-739
-35
572
-347
150
-28
760
-659
-1000
1000
978
110
-339
-786
-8
421
-754
1000
700
-399
1000
-717
-1000
-160
-854
-891
-354
2
-412
-147
-118
-764
811
-101
-706
488
908
587
-404
-182
-1000
-982
257
365
137
-360
-155
212
946
-557
282
252
427
360
-740
3
22
-253
-1000
-149
-684
-393
-819
19
-944
444
221
1000
508
-762
-781
1000
559
-424
1000
35
-822
-889
-56
1000
-738
863
