-1336504791
504996504
1515660274
676953698
-1563449035
605532841
741742103
-1039319099
-1951276771
-1703521923
1714758450
-785080049
-1082754605
674807910
-484685754
703110363
449815572
1579394428
1013012566
-404829535
1077520375
1680924925
1925743018
-40302139
-1587712631
-1643362939
623368106
236567407
-1546522341
-232349251
1386022152
28887095
699793699
-1354761612
-1526351802
-829105763
-548395314
-1887187255
-830226348
723138957
-593805007
1812490487
-1399233159
-466442931
-2003284905
-1553774564
-765933255
500665157
-779752756
-39207930
1090504494
-1901195148
1775347838
1354057693
1940707604
-235446256
1437152877
-961773414
-1524460572
-1871971244
-2108554900
1923124649
1204476404
-2105294103
1340016566
-312552634
-1073234453
789633185
-1795505052
-1811090861
-1739929385
1435327038
1925436564
-2006790783
-999884498
1675690636
1451218305
-470445563
-1847412699
302367024
-898139480
-1525742812
301151551
-2029654864
-1191082035
-767478497
1517506728
-2046542316
754062639
-1069183541
-57851562
1142825432
790599705
-236600979
675243350
-250996271
-783715312
-1696686298
1485989805
289962681
-2012688066
-1688487631
426225342
1450744455
1235268
276422564
-1763355519
-1466284686
515182036
1657050258
-113592093
-1408578185
-1898488489
-1737953384
1744989496
853035457
-177391903
-1991521535
-2095094074
1183848734
-75979287
1185656454
-1434517168
-654235049
693552428
1830770932
-2009945144
-210783745
1419295971
1344631882
79786942
-957333217
-555144710
-1678413027
-1365925999
-744671951
-1036827569
1370019199
1447914742
-641358079
-755566411
541691530
-1049446563
3619597
-797119320
1496552447
-1555771156
202695230
2046368460
1037785565
1842997813
-897316399
-1565639332
69167303
274484322
-78814997
-302745557
-177955949
-394981122
-126733440
-1430048489
1038159439
164208698
1568552337
-369698928
-754107983
-2125360749
1228853156
-838493617
-1317272055
629658419
189838476
-771214160
-165169798
1800432519
1751576583
57516915
-375275712
-1776505893
474106648
-619692997
-341083504
462076079
-1114936604
-165540857
2128855418
1883805326
260627748
1654677440
1039552841
-2026906042
-1212676996
1518512507
274393829
-664482004
-80170533
-716635048
-2030668723
-937840672
-907726216
-2010011490
715694899
1706581537
1195992867
178896043
-732594033
-1995610114
1737881834
802124637
641731541
-499141293
-1101047035
-294756931
731867555
144545397
-541107868
-473776801
1862809946
-1440121326
-838491800
1713291453
419029765
585671193
-1340427405
-880983445
-300757536
1239577107
925703480
-856320546
-1748282691
-567442593
-177404927
1646274212
-689755699
1984762581
-1561540296
297519796
-39744304
-1649117822
-53491387
471102648
703477260
959107690
-1370364315
1392109816
1262326804
988522452
-265877758
-203742523
1273913309
-2002210648
-368128219
446927468
1454768416
-1737799770
-2082285775
-625052746
-934719794
1831735740
-836910211
-931621884
327577493
45877353
-456867878
-881278516
-986469114
556125058
-407973073
-335976471
-570075168
-1094069877
401579671
-977840995
-1244104026
244235718
-885054143
1577839493
-88325198
1615637026
1523860972
1699451850
1427206260
-981822855
-702058099
1741787746
1190906383
-1924738203
1323294123
1985840585
238992468
-2138798564
-1368311267
-1933953781
284712011
1376250340
897705684
-359141723
1845503470
1064151613
1348011244
-1115731024
202573543
898738703
422110928
-1788978505
753929762
-1273138641
2114264716
903271023
489344039
-961356982
-93571398
-227468700
-1367146832
-1135602419
1916217914
859062013
-772849079
1491921489
-1419460418
-1856106339
1621825253
430211971
-1821839787
-1330982504
1100696022
-1692078297
1489296894
-2019687184
-955330443
-805086455
-2070051068
988753962
1884530809
-1131391979
48664048
-427735017
-790774431
-2147483648
1657299745
1489170434
1025062045
448441109
1715032748
929666683
1969747806
-523242580
-129419036
-1369515633
2147483647
613019701
1536168843
-967398920
2147483647
-323168410
-330387044
-1966751590
1794194436
-468159489
-2062291867
791640698
1075843991
1999530519
1851219989
-1421561439
-2101879638
-1631797680
1491393671
-1940402909
178219614
1715995360
1794435436
-2004207263
1604222821
-734773734
1946996030
-1998480890
-44320888
1672667656
-1921789466
1240638069
397264024
1549835757
-1388329309
-1503915235
-1221354608
-197696323
140537127
-1357940357
-654542753
-1856881718
225018301
740871768
-536221456
-1060417358
-1151682130
-1104556726
-695070961
687299620
-759927990
-187741404
573454620
-1415164871
1531324199
707038390
-230231887
2143532547
1910373457
-520122830
1193457668
-960166853
-2038951365
-790071690
-1087719319
757642835
944902706
1956233959
-1164911795
-1291945797
1904883404
-661418284
1140961357
1702625865
-934590387
-2065840637
266671154
-2028617190
-271872015
-960758637
-1123834339
343465668
440084261
1883675721
1000836893
1614587877
-1498070035
-800791811
903900735
758629554
2014827510
755523962
1690035052
105744627
101010564
477253909
-1560871767
-704428577
-1773707177
551891552
-1267468731
403628946
1414409412
-1700025036
1152720475
-1101865533
839357841
1173009629
2106600831
1213342944
-1030281610
-1701637064
-1978775428
-559638402
-1819213600
-686492994
-2061502418
1469100832
177547576
65615950
-1890699674
1023168996
46275527
-1302382485
953209552
-732265527
145489724
-783959152
633918840
-814824340
-2050523063
415410673
2007986816
1328453337
803381671
-1588619303
64033900
-952978266
185130531
-786749196
610119857
1906396449
2147483647
-444227907
-327473351
1791799313
657731483
-1921030809
1067208941
1124150944
1762785778
8581907
-544600063
-38506348
1111238313
-243974526
-1054545820
199546766
-2064090838
-1486482944
-599
-336150332
953001691
-1676069703
-1484428145
541885927
-792917390
-34071874
-703878258
69920610
767053520
360490931
1621602539
-62507148
862408929
1834215623
1703263189
1154794416
-121290814
-351030040
-754220624
233666670
1858032601
-1187113970
251978400
393285656
2039582189
57388307
2080083813
-72018766
-1319327895
302604594
203455134
944144553
93334564
2078213399
-839327821
959596185
1120900806
-1549047583
-1422239709
-1917378197
-213799433
-1542135538
1236901734
1755091854
1641543114
239036729
-425229300
-1395698135
1817185967
-869821116
-407518519
-1499299281
434955993
-351998926
-454136920
1338849656
1494714974
331015770
1214800575
1696575160
-579039006
-1780031241
716513956
695833060
280852195
1901617692
-639693644
-676595650
1963682487
94874590
680159742
304548321
-612370152
-307845134
-1207269457
-899428325
271355662
225019771
527376132
1349398386
2023427225
-1530252230
-1479813658
1967038811
-1288540852
1787840287
1959678429
-779344459
-1103316793
1513377974
-1680609005
1240540678
276563179
-977966451
-972556900
-1209412930
-59045039
2083875392
387910072
1746373300
1695291675
505738956
963727511
65890867
430255402
-1479336122
-1761421528
-173990847
1904564057
-1668601802
843644282
2059366647
-1143015004
-1977685116
-474019234
1217229335
-778463370
-801491119
-1040119926
190010446
-227569931
2085813753
-69281086
-1833021127
-1959664882
-1531692217
-1813377466
185410190
-1604319707
377252734
-2095990458
-812957253
471856266
1911100457
-1079925876
-990800602
-959341165
-1762427870
-382494809
1500585596
815046595
646120444
-588290086
2129306899
915966199
-1386547263
-406814228
2127880879
-297995708
-492820629
336495571
-2015731696
-352222333
463281143
1074652991
777970699
-607272074
1595612941
-2147483648
-1848767630
-682700262
759132697
573593271
377191555
1006761931
-1551876418
-254224547
-1599557489
2074521190
-239905149
-2139044845
1606686233
275957690
901092755
1679631505
-1740312414
340396744
-1445625399
246548802
-672715272
-2142790520
1478917496
-2042403909
931121358
347674425
368957170
1013899686
-1192497628
-1074144232
-1109217343
-470065855
1282324726
259473406
1865707397
-1150436368
257502383
233555943
-1679695358
-1078482552
-1211455427
-1502492457
1275979313
-1591826692
505684702
-1431217189
577736406
-252422171
1861474726
-1444835551
86285461
-180151759
-652548401
598060685
-1906932774
-2056043587
2144883251
-1085055908
-381715072
-309616753
-1816641080
2023923853
-2147483648
1814692924
-1425051075
-39575984
-1613806137
1145804506
-1281063597
212769000
1936836103
-1097774200
-1364900965
1482011249
1492699897
76512706
1193117005
1840318628
-513997527
-1466777185
1411587042
-858324651
394725493
1383540393
2127822573
-9543977
-249079218
1094555086
1962376068
973880234
1830244184
1411719471
-2147483648
1441345185
1828836437
-1022649318
-19620975
1999573598
-333484156
-732079734
2147483647
1081522279
-2061292609
-1020937899
428470160
-1961728226
1719603163
-1893362096
1420487507
-1023086357
-791212161
-1472120610
-848770002
399847398
5393217
-1739706796
-103049258
-2147483648
-1238348522
103521709
1492884413
2147483647
1745627266
-705351534
-1380983887
370739500
-2118710692
1200434344
-1826326793
397539000
1794223486
-154222337
1190922468
520250802
-1635263302
-834441641
-1585571950
-1855875694
-34725697
-529310236
-973818350
1534873348
-416288675
1125278988
-779799592
1808607587
1921837485
-303138077
1144178857
-904275594
-367121938
348609884
-657067783
345861931
1850915869
1806927429
-2147483648
-755570978
-344152626
1445291160
-2147483648
1979706620
1795336940
988068969
-1049231855
1879756359
1451758753
110103531
-1454403114
-40450500
2129677564
-120805700
2084005624
1727139411
1350114854
-1092391810
701355501
1419161888
558960528
1241030531
-1825220521
-1427868053
1435210914
1544651930
-1195059672
-2025727116
1273150622
115899399
-652134223
1325767683
1515114025
-953832242
-173204719
-544627298
-1085634308
-380473933
1521896977
212672974
-634143528
-705112276
587121902
-1991158306
-1122529360
-1469551112
1778836017
519367957
-1150058162
-1558896784
1195822427
-1421142177
-1538307199
-2038245878
-2090685181
-1749201608
509228000
718341104
2135561446
882096700
260214730
-89699550
517086361
-1735467917
-1587831824
1860258787
1231228875
-2016763087
-567639085
-696732189
800986403
-965761008
115067583
810534936
730913795
631828907
-1422282955
968599905
248975171
-1871655245
-1552074216
2147483647
-1946638670
634525271
45210271
-2098191820
-2147483648
-1592692532
-108703469
501406136
2077628418
563082991
-1403591142
-118643494
1414209255
-1688721314
649056798
1491534838
-1800533554
1579499050
2130331820
-1682492390
1289295199
1853198147
-139629656
-1644467551
978275981
456939306
1831860082
229313804
386195595
-526730395
-1978628864
-148661799
1377610888
1571353114
613152192
1761532571
1094835338
-1354318217
-1803711332
-899956021
1097750950
-3442039
1199050742
424028738
-1933348015
990381467
2137285631
-1269077353
-64837678
1278180323
-1186833285
52530083
-532075926
-1592363111
-1308757347
1981679473
-311874357
2037540568
-570848824
-1791797548
-1198639707
-1890127612
-1289017904
205234457
333456083
1470267397
96826351
1755128165
-699990221
-42172356
-315027765
715126231
-1657629833
1634818019
697758654
1881710286
-1597884126
655988142
545663954
282788241
-762864025
840430998
1279325458
522461772
-180202909
2038631193
-680507747
-868658430
-1591934049
-1113150324
-758272387
538173704
-82958003
1589823516
1503513870
-62860942
-1398754562
1914461061
1407879760
743365281
-418472483
807651954
-925481265
-928243086
1640202852
-1065053723
2082399406
-952397757
-1477702460
49307707
175145596
-1273927245
-311527874
-1767887451
639654733
1474723621
1464711867
1517434466
590599261
-61297610
-1530197834
25187774
-482533560
-1609749582
1063312733
1480950312
-1981531185
-1338166617
-1121428267
-1243314827
-1015647696
-184839764
-745933231
337800249
-1000849784
932664470
-1783546913
-2023769703
1753624686
-1658947456
366987522
-1317951660
-350925998
-1997000870
21330883
-52398755
-1928704790
-1985518143
1519442097
180716155
345038147
-59000759
-873345241
-754747202
-1023713588
1100011588
705388170
2023372174
-314184112
1177075479
909078567
-1884150540
1022368770
746397925
1161690327
1349519220
-428805367
660666696
-793420891
879948045
-254964658
519613424
-741728118
967560389
215672804
455677240
-1626171651
2080994937
237492525
-685
-1823104318
1240798218
12529111
-1036815055
1458073940
-506677373
666380399
-1464195446
-772596502
-1290986939
-107575649
-375884052
-1178413085
512311139
-316517639
-546783040
-1219644267
860936344
-628945877
111492578
-1837761294
909213639
-1566937703
755889097
-1413721598
-514347699
-1073382196
-1907958361
894250797
-1419706679
-1374317476
49739493
202805630
-1930964389
1052567182
-416971986
1134461373
-897869569
1253883026
1761521313
-1768309660
-1546587095
957879058
-991222674
-770646150
-1378064108
-1632492521
-852246339
392720465
1488950542
-342855511
-1194053523
-946171413
1503130235
833152290
1564448111
509861084
1401021621
-300983839
298238784
1823482129
305394986
-1754198411
-285943695
-1054890087
867273196
1546043855
-1681380250
-1873529704
-675673623
-1609252700
-631446826
-280994044
-1575346555
924838337
541397828
367806153
1297114577
1141508148
761058500
499495780
1383374942
2006439279
1437121763
-985026677
-588793462
-1945388551
-1782716022
883649434
1587232358
360434779
663997799
172033855
1171888169
-457631421
1463202795
-168560379
-406312143
484939662
579962565
-946516607
1441384047
212341372
892982768
274396774
-1349089726
-1521778400
-1217093812
-1418934281
741584463
-1025847551
1330806640
-725495738
1698719762
-1399417716
113845801
-1066291034
-1166495446
-829226919
-209043696
665848593
1641181790
-512703413
-4127401
-1466391538
-1131537000
-866335689
-1129190354
-2027913817
1134645121
-2022244844
1794844659
-263728391
755027495
-2093386505
-162534714
-67648720
-2063343696
-1497995359
1301583837
-1493361608
-1140135715
-396837155
1869678162
-31290023
848063773
1515699244
-743497610
2050549385
54796300
674881122
-698569793
1160547006
-2103466349
-206715498
-688888388
-879390175
-255138002
1434085300
1832426940
1652783662
-491820894
-522794333
1180713622
-963239359
1380483916
-1525083701
-1340066397
1037710912
-536557377
-670218403
2083220871
-1757678229
892627984
-1259940736
1542397556
-2081260267
-1946695892
-161469980
151120649
-265077702
1476120999
-1973778097
-1785535305
-676263328
-1605124688
-603392461
1453301876
1004798979
-437297693
1338932367
-899723653
-1761067676
695052285
1095787440
-1266253298
1187926049
168532812
583369701
633323731
-243020751
1068267412
-207067747
1830470286
-821150297
-1698994672
935167062
1815491288
-150273435
-1585773460
-1541474031
627588121
1390727793
-1901241858
-1391853570
2147483647
-693162895
947957240
-1300300662
-1771748416
-1405851552
-1968685348
-464628232
1211964037
1625197312
1863791365
-865438888
139252579
2120246182
-375137839
-203808530
-374801616
-1687099536
1270424335
831398392
1475384029
-2065763546
1326934427
-1670566318
244542107
1085054229
-1907560650
-2030291800
-1188804736
-1492406090
-2047725263
296013817
-918188733
2000342162
1323890409
-414847921
-802788902
-2067935211
-1621195348
-2147483648
-1914771542
224625586
2085981631
-2147483648
-760227245
288971364
-1647608883
1707882918
-1666940809
940193424
-1638413523
863441270
1058471879
-946238657
-864599052
-1131983363
1455074176
-1705536933
518116656
1528486820
1735237238
-505704937
440442532
610754663
2106296089
2071009253
740553519
-1845194176
-1453207113
-772025135
219310461
1627885872
1163561551
-1351395516
1092076459
-20646904
-700409880
-727302716
-1131664696
1506569433
1295365346
1747002207
-237492286
151677164
-1607916953
990256183
-515401879
-449826021
-212482516
1594038211
-679360962
-69902308
1108068984
-661341902
-218892435
479511227
1084056028
2107683841
-1948312294
1925384417
4727552
-404783872
-1458305219
513905403
1040286519
1194803881
-668742945
307730072
-1967527870
1156779036
-555791268
-608623107
1428370891
708714348
52725185
1723978834
310579431
1873426625
366357501
2037997555
1372735574
241814103
-1402461429
1334703760
-1288361455
1397840485
-31004886
549573406
1400904262
412728046
-1413807266
-450293646
-212581010
354771816
356961165
1375150312
2064593885
1213698410
-950435480
1514277513
781087300
1018787738
470428571
1966425223
-1639671918
540128243
-1489778972
-793444142
1057332625
1351954309
2059854538
171041568
-532866571
-1547000837
-238228306
446466867
1544682639
910765355
-664
-1940968771
-515300459
2076323222
1783992325
-710207017
120273659
245919271
-1274950181
1136724165
-1443000032
291757335
1210349360
1309017982
-309401872
-452815354
798612678
1668357802
737801592
-1379224476
-480941995
1671083341
810537715
-666368707
442029621
-159114731
-1897628419
-881132540
1433525488
-301809677
1842745307
-1710283707
1179892839
1587293114
1081721926
-786120971
1685886561
78904562
-1147658546
-1677811581
-347176363
1110576403
-1304325447
-454849099
-1128693155
1874159486
208373812
-2032069858
-91469698
661050115
1925222729
-803496672
-676526525
1262613541
-1208496052
936547300
-1455745992
-2016298792
1264813168
-612982796
-1593317812
-107506909
-1120592873
-613333311
859511609
-978896805
-538267578
-468428473
1901258701
702087311
-1380945048
567358537
-1436277169
1086052596
16638513
457348242
1946082938
1350459170
1731691071
-173376978
1210032478
-669101686
1489321203
-1898346193
-2078180242
1828809684
1494834545
35328545
87953248
-974356564
-111887475
1020141925
-1243664634
1650177580
-1366738968
-89568773
570130195
