-284
-1284
-861
-128
-395
0
-157
-120
133
-278
-608
0
-111
-103
444
-416
-278
0
-119
122
-490
-4
-1272
29
141
-19
-1808
-78
-142
0
64
79
-58
-173
254
5
-35
25
509
110
-271
-46
251
-83
-87
133
56
-411
-304
431
57
25
-435
-520
509
-99
-549
-82
979
0
425
14
371
-73
1960
0
-364
-180
319
-119
404
0
73
-3
-1751
78
1845
0
-409
419
-695
-408
-518
0
-122
-129
269
-310
-585
0
29
129
358
-756
-104
0
-34
765
-1603
-704
-368
0
184
705
-233
-773
309
0
-328
25
-492
-198
117
0
-1735
1604
-123
-95
-1744
0
-303
243
361
172
-649
0
-269
211
25
67
-165
0
-56
-88
1187
-1064
701
0
-386
88
43
-92
384
0
230
-409
-1323
-289
1633
0
-773
303
-1404
-1004
194
-555
172
221
1296
-111
163
0
184
-37
43
-36
682
0
215
410
378
-301
-125
0
130
10
-337
-120
25
0
73
-35
-114
-16
42
9
121
63
-195
-294
-101
0
635
46
-1901
-867
554
0
164
-63
-2000
265
-29
0
370
-61
-1646
-267
166
87
-128
1339
-307
-560
-147
0
-624
-416
500
52
-669
320
1476
-120
922
-1481
300
1885
293
164
685
893
39
-365
112
-360
835
-668
-1217
0
-171
-128
-180
9
347
0
256
-462
-269
-536
-363
637
-26
116
261
172
70
0
-185
65
235
408
148
0
-15
64
-417
-116
-14
606
-447
52
-791
-288
-778
0
-647
26
365
73
119
-310
5
-558
1808
-814
1718
8
-439
-79
-24
-125
298
0
-284
-1284
-861
-128
-395
0
-157
-120
133
-278
-608
0
-111
-103
444
-416
-278
0
-119
122
-490
-4
-1272
29
141
-19
-1808
-78
-142
0
64
79
-58
-173
254
5
-35
25
509
110
-271
-46
251
-83
-87
133
56
-411
-304
431
57
25
-435
-520
509
-99
-549
-82
979
0
425
14
371
-73
1960
0
-364
-180
319
-119
404
0
73
-3
-1751
78
1845
0
-409
419
-695
-408
-518
0
-122
-129
269
-310
-585
0
29
129
358
-756
-104
0
-34
765
-1603
-704
-368
0
184
705
-233
-773
309
0
-328
25
-492
-198
117
0
-1735
1604
-123
-95
-1744
0
-303
243
361
172
-649
0
-269
211
25
67
-165
0
-56
-88
1187
-1064
701
0
-386
88
43
-92
384
0
230
-409
-1323
-289
1633
0
-773
303
-1404
-1004
194
-555
172
221
1296
-111
163
0
184
-37
43
-36
682
0
215
410
378
-301
-125
0
130
10
-337
-120
25
0
73
-35
-114
-16
42
9
121
63
-195
-294
-101
0
635
46
-1901
-867
554
0
164
-63
-2000
265
-29
0
370
-61
-1646
-267
166
87
-128
1339
-307
-560
-147
0
-624
-416
500
52
-669
320
1476
-120
922
-1481
300
1885
293
164
685
893
39
-365
112
-360
835
-668
-1217
0
-171
-128
-180
9
347
0
256
-462
-269
-536
-363
637
-26
116
261
172
70
0
-185
65
235
408
148
0
-15
64
-417
-116
-14
606
-447
52
-791
-288
-778
0
-647
26
365
73
119
-310
5
-558
1808
-814
1718
8
-439
-79
-24
-125
298
0
-284
-1284
-861
-128
-395
0
-157
-120
133
-278
-608
0
-111
-103
444
-416
-278
0
-119
122
-490
-4
-1272
29
141
-19
-1808
-78
-142
0
64
79
-58
-173
254
5
-35
25
509
110
-271
-46
251
-83
-87
133
56
-411
-304
431
57
25
-435
-520
509
-99
-549
-82
979
0
425
14
371
-73
1960
0
-364
-180
319
-119
404
0
73
-3
-1751
78
1845
0
-409
419
-695
-408
-518
0
-122
-129
269
-310
-585
0
29
129
358
-756
-104
0
-34
765
-1603
-704
-368
0
184
705
-233
-773
309
0
-328
25
-492
-198
117
0
-1735
1604
-123
-95
-1744
0
-303
243
361
172
-649
0
-269
211
25
67
-165
0
-56
-88
1187
-1064
701
0
-386
88
43
-92
384
0
230
-409
-1323
-289
1633
0
-773
303
-1404
-1004
194
-555
172
221
1296
-111
163
0
184
-37
43
-36
682
0
215
410
378
-301
-125
0
130
10
-337
-120
25
0
73
-35
-114
-16
42
9
121
63
-195
-294
-101
0
635
46
-1901
-867
554
0
164
-63
-2000
265
-29
0
370
-61
-1646
-267
166
87
-128
1339
-307
-560
-147
0
-624
-416
500
52
-669
320
1476
-120
922
-1481
300
1885
293
164
685
893
39
-365
112
-360
835
-668
-1217
0
-171
-128
-180
9
347
0
256
-462
-269
-536
-363
637
-26
116
261
172
70
0
-185
65
235
408
148
0
-15
64
-417
-116
-14
606
-447
52
-791
-288
-778
0
-647
26
365
73
119
-310
5
-558
1808
-814
1718
8
-439
-79
-24
-125
298
0
-284
-1284
-861
-128
-395
0
-157
-120
133
-278
-608
0
-111
-103
444
-416
-278
0
-119
122
-490
-4
-1272
29
141
-19
-1808
-78
-142
0
64
79
-58
-173
254
5
-35
25
509
110
-271
-46
251
-83
-87
133
56
-411
-304
431
57
25
-435
-520
509
-99
-549
-82
979
0
425
14
371
-73
1960
0
-364
-180
319
-119
404
0
73
-3
-1751
78
1845
0
-409
419
-695
-408
-518
0
-122
-129
269
-310
-585
0
29
129
358
-756
-104
0
-34
765
-1603
-704
-368
0
184
705
-233
-773
309
0
-328
25
-492
-198
117
0
-1735
1604
-123
-95
-1744
0
-303
243
361
172
-649
0
-269
211
25
67
-165
0
-56
-88
1187
-1064
701
0
-386
88
43
-92
384
0
230
-409
-1323
-289
1633
0
-773
303
-1404
-1004
194
-555
172
221
1296
-111
163
0
184
-37
43
-36
682
0
215
410
378
-301
-125
0
130
10
-337
-120
25
0
73
-35
-114
-16
42
9
121
63
-195
-294
-101
0
635
46
-1901
-867
554
0
164
-63
-2000
265
-29
0
370
-61
-1646
-267
166
87
-128
1339
-307
-560
-147
0
-624
-416
500
52
-669
320
1476
-120
922
-1481
300
1885
293
164
685
893
39
-365
112
-360
835
-668
-1217
0
-171
-128
-180
9
347
0
256
-462
-269
-536
-363
637
-26
116
261
172
70
0
-185
65
235
408
148
0
-15
64
-417
-116
-14
606
-447
52
-791
-288
-778
0
-647
26
365
73
119
-310
5
-558
1808
-814
1718
8
-439
-79
-24
-125
298
0
-284
-1284
-861
-128
-395
0
-157
-120
133
-278
-608
0
-111
-103
444
-416
-278
0
-119
122
-490
-4
-1272
29
141
-19
-1808
-78
-142
0
64
79
-58
-173
254
5
-35
25
509
110
-271
-46
251
-83
-87
133
56
-411
-304
431
57
25
-435
-520
509
-99
-549
-82
979
0
425
14
371
-73
1960
0
-364
-180
319
-119
404
0
73
-3
-1751
78
1845
0
-409
419
-695
-408
-518
0
-122
-129
269
-310
-585
0
29
129
358
-756
-104
0
-34
765
-1603
-704
-368
0
184
705
-233
-773
309
0
-328
25
-492
-198
117
0
-1735
1604
-123
-95
-1744
0
-303
243
361
172
-649
0
-269
211
25
67
-165
0
-56
-88
1187
-1064
701
0
-386
88
43
-92
384
0
230
-409
-1323
-289
1633
0
-773
303
-1404
-1004
194
-555
172
221
1296
-111
163
0
184
-37
43
-36
682
0
215
410
378
-301
-125
0
130
10
-337
-120
25
0
73
-35
-114
-16
42
9
121
63
-195
-294
-101
0
635
46
-1901
-867
554
0
164
-63
-2000
265
-29
0
370
-61
-1646
-267
166
87
-128
1339
-307
-560
-147
0
-624
-416
500
52
-669
320
1476
-120
922
-1481
300
1885
293
164
685
893
39
-365
112
-360
835
-668
-1217
0
-171
-128
-180
9
347
0
256
-462
-269
-536
-363
637
-26
116
261
172
70
0
-185
65
235
408
148
0
-15
64
-417
-116
-14
606
-447
52
-791
-288
-778
0
-647
26
365
73
119
-310
5
-558
1808
-814
1718
8
-439
-79
-24
-125
298
0
-284
-1284
-861
-128
-395
0
-157
-120
133
-278
-608
0
-111
-103
444
-416
-278
0
-119
122
-490
-4
-1272
29
141
-19
-1808
-78
-142
0
64
79
-58
-173
254
5
-35
25
509
110
-271
-46
251
-83
-87
133
56
-411
-304
431
57
25
-435
-520
509
-99
-549
-82
979
0
425
14
371
-73
1960
0
-364
-180
319
-119
404
0
73
-3
-1751
78
1845
0
-409
419
-695
-408
-518
0
-122
-129
269
-310
-585
0
29
130
358
-754
-103
0
-34
765
-1603
-704
-368
0
184
705
-233
-773
309
0
-328
25
-492
-198
117
0
-1735
1604
-123
-95
-1744
0
-303
243
361
172
-649
0
-269
211
25
67
-165
0
-56
-88
1187
-1064
701
0
-386
88
43
-92
384
0
230
-409
-1323
-289
1633
0
-773
303
-1404
-1004
194
-555
172
221
1296
-111
163
0
184
-37
43
-36
682
0
215
410
378
-301
-125
0
130
10
-337
-120
25
0
73
-35
-114
-16
42
9
121
63
-195
-294
-101
0
635
46
-1901
-867
554
0
164
-63
-2000
265
-29
0
370
-61
-1646
-267
166
87
-128
1339
-307
-560
-147
0
-624
-416
500
52
-669
320
1476
-120
922
-1481
300
1885
293
164
685
893
39
-365
112
-360
835
-668
-1217
0
-171
-128
-180
9
347
0
256
-462
-269
-536
-363
637
-26
116
261
172
70
0
-185
65
235
408
148
0
-15
64
-417
-116
-14
606
-447
52
-791
-288
-778
0
-647
26
365
73
119
-310
5
-558
1808
-814
1718
8
-439
-79
-24
-125
298
0
-284
-1284
-861
-128
-395
0
-157
-120
133
-278
-608
0
-111
-103
444
-416
-278
0
-119
122
-490
-4
-1272
29
141
-19
-1808
-78
-142
0
64
79
-58
-173
254
5
-35
25
509
110
-271
-46
251
-83
-87
133
56
-411
-304
431
57
25
-435
-520
509
-99
-549
-82
979
0
425
14
371
-73
1960
0
-364
-180
319
-119
404
0
73
-3
-1751
78
1845
0
-409
419
-695
-408
-518
0
-122
-129
269
-310
-585
0
29
129
358
-756
-104
0
-34
765
-1603
-704
-368
0
184
705
-233
-773
309
0
-328
25
-492
-198
117
0
-1735
1604
-123
-95
-1744
0
-303
243
361
172
-649
0
-269
211
25
67
-165
0
-56
-88
1187
-1064
701
0
-386
88
43
-92
384
0
230
-409
-1323
-289
1633
0
-773
303
-1404
-1004
194
-555
172
221
1296
-111
163
0
184
-37
43
-36
682
0
215
410
378
-301
-125
0
130
10
-337
-120
25
0
73
-35
-114
-16
42
9
121
63
-195
-294
-101
0
635
46
-1901
-867
554
0
164
-63
-2000
265
-29
0
370
-61
-1646
-267
166
87
-128
1339
-307
-560
-147
0
-624
-416
500
52
-669
320
1476
-120
922
-1481
300
1885
293
164
685
893
39
-365
112
-360
835
-668
-1217
0
-171
-128
-180
9
347
0
256
-462
-269
-536
-363
637
-26
116
261
172
70
0
-185
65
235
408
148
0
-15
64
-417
-116
-14
606
-447
52
-791
-288
-778
0
-647
26
365
73
119
-310
5
-558
1808
-814
1718
8
-439
-79
-24
-125
298
0
-284
-1284
-861
-128
-395
0
-157
-120
133
-278
-608
0
-111
-103
444
-416
-278
0
-119
122
-490
-4
-1272
29
141
-19
-1808
-78
-142
0
64
79
-58
-173
254
5
-35
25
509
110
-271
-46
251
-83
-87
133
56
-411
-304
431
57
25
-435
-520
509
-99
-549
-82
979
0
425
14
371
-73
1960
0
-364
-180
319
-119
404
0
73
-3
-1751
78
1845
0
-409
419
-695
-408
-518
0
-122
-129
269
-310
-585
0
29
129
358
-756
-104
0
-34
765
-1603
-704
-368
0
184
705
-233
-773
309
0
-328
25
-492
-198
117
0
-1735
1604
-123
-95
-1744
0
-303
243
361
172
-649
0
-269
211
25
67
-165
0
-56
-88
1187
-1064
701
0
-386
88
43
-92
384
0
230
-409
-1323
-289
1633
0
-773
303
-1404
-1004
194
-555
172
221
1296
-111
163
0
184
-37
43
-36
682
0
215
410
378
-301
-125
0
130
10
-337
-120
25
0
73
-35
-114
-16
42
9
121
63
-195
-294
-101
0
635
46
-1901
-867
554
0
164
-63
-2000
265
-29
0
370
-61
-1646
-267
166
87
-128
1339
-307
-560
-147
0
-624
-416
500
52
-669
320
1476
-120
922
-1481
300
1885
293
164
685
893
39
-365
112
-360
835
-668
-1217
0
-171
-128
-180
9
347
0
256
-462
-269
-536
-363
637
-26
116
261
172
70
0
-185
65
235
408
148
0
-15
64
-417
-116
-14
606
-447
52
-791
-288
-778
0
-647
26
365
73
119
-310
5
-558
1808
-814
1718
8
-439
-79
-24
-125
298
0
-284
-1284
-861
-128
-395
0
-157
-120
133
-278
-608
0
-111
-103
444
-416
-278
0
-119
122
-490
-4
-1272
29
141
-19
-1808
-78
-142
0
64
79
-58
-173
254
5
-35
25
509
110
-271
-46
251
-83
-87
133
56
-411
-304
431
57
25
-435
-520
509
-99
-549
-82
979
0
425
14
371
-73
1960
0
-364
-180
319
-119
404
0
73
-3
-1751
78
1845
0
-409
419
-695
-408
-518
0
-122
-129
269
-310
-585
0
29
130
358
-754
-103
0
-34
765
-1603
-704
-368
0
184
705
-233
-773
309
0
-328
25
-492
-198
117
0
-1735
1604
-123
-95
-1744
0
-303
243
361
172
-649
0
-269
211
25
67
-165
0
-56
-88
1187
-1064
701
0
-386
88
43
-92
384
0
230
-409
-1323
-289
1633
0
-773
303
-1404
-1004
194
-555
172
221
1296
-111
163
0
184
-37
43
-36
682
0
215
410
378
-301
-125
0
130
10
-337
-120
25
0
73
-35
-114
-16
42
9
121
63
-195
-294
-101
0
635
46
-1901
-867
554
0
164
-63
-2000
265
-29
0
370
-61
-1646
-267
166
87
-128
1339
-307
-560
-147
0
-624
-416
500
52
-669
320
1476
-120
922
-1481
300
1885
293
164
685
893
39
-365
112
-360
835
-668
-1217
0
-171
-128
-180
9
347
0
256
-462
-269
-536
-363
637
-26
116
261
172
70
0
-185
65
235
408
148
0
-15
64
-417
-116
-14
606
-447
52
-791
-288
-778
0
-647
26
365
73
119
-310
5
-558
1808
-814
1718
8
-439
-79
-24
-125
298
0
-284
-1284
-861
-128
-395
0
-157
-120
133
-278
-608
0
-111
-103
444
-416
-278
0
-119
122
-490
-4
-1272
29
141
-19
-1808
-78
-142
0
64
79
-58
-173
254
5
-35
25
509
110
-271
-46
251
-83
-87
133
56
-411
-304
431
57
25
-435
-520
509
-99
-549
-82
979
0
425
14
371
-73
1960
0
-364
-180
319
-119
404
0
73
-3
-1751
78
1845
0
-409
419
-695
-408
-518
0
-122
-129
269
-310
-585
0
29
130
358
-754
-103
0
-34
765
-1603
-704
-368
0
184
705
-233
-773
309
0
-328
25
-492
-198
117
0
-1735
1604
-123
-95
-1744
0
-303
243
361
172
-649
0
-269
211
25
67
-165
0
-56
-88
1187
-1064
701
0
-386
88
43
-92
384
0
230
-409
-1323
-289
1633
0
-773
303
-1404
-1004
194
-555
172
221
1296
-111
163
0
184
-37
43
-36
682
0
215
410
378
-301
-125
0
130
10
-337
-120
25
0
73
-35
-114
-16
42
9
121
63
-195
-294
-101
0
635
46
-1901
-867
554
0
164
-63
-2000
265
-29
0
370
-61
-1646
-267
166
87
-128
1339
-307
-560
-147
0
-624
-416
500
52
-669
320
1476
-120
922
-1481
300
1885
293
164
685
893
39
-365
112
-360
835
-668
-1217
0
-171
-128
-180
9
347
0
256
-462
-269
-536
-363
637
-26
116
261
172
70
0
-185
65
235
408
148
0
-15
64
-417
-116
-14
606
-447
52
-791
-288
-778
0
-647
26
365
73
119
-310
5
-558
1808
-814
1718
8
-439
-79
-24
-125
298
0
-284
-1284
-861
-128
-395
0
-157
-120
133
-278
-608
0
-113
-105
453
-424
-284
0
-119
122
-490
-3
-1272
29
141
-19
-1808
-77
-142
0
64
79
-58
-173
254
5
-35
25
509
110
-271
-46
251
-83
-87
133
56
-411
-304
431
57
25
-435
-519
509
-99
-549
-82
979
0
426
14
371
-73
1960
0
-364
-180
319
-119
404
0
75
-3
-1786
80
1882
0
-409
419
-694
-408
-518
0
-122
-129
269
-309
-585
0
29
129
358
-756
-104
0
-35
780
-1635
-718
-375
0
184
705
-233
-773
309
0
-335
26
-502
-202
119
1
-1735
1604
-123
-95
-1744
0
-303
243
361
172
-649
0
-274
215
26
68
-168
0
-56
-88
1187
-1063
701
0
-386
89
43
-92
384
1
230
-409
-1322
-289
1633
0
-773
303
-1404
-1004
194
-555
172
222
1296
-111
163
0
188
-38
44
-37
696
0
215
410
378
-301
-125
0
130
10
-337
-120
25
0
73
-35
-114
-16
42
10
123
64
-199
-300
-103
1
648
47
-1939
-883
565
1
164
-63
-2000
265
-29
0
370
-61
-1646
-267
166
87
-128
1339
-307
-560
-147
1
-624
-415
501
52
-669
320
1477
-120
922
-1481
300
1886
299
167
685
893
39
-372
112
-360
835
-668
-1216
0
-171
-128
-180
9
347
0
256
-462
-269
-536
-363
637
-29
120
272
179
71
0
-184
65
236
408
148
0
-15
64
-417
-116
-14
607
-447
52
-791
-288
-778
0
-647
26
365
73
119
-310
6
-569
1844
-830
1752
8
-439
-79
-24
-125
298
0
-284
-1284
-861
-128
-395
0
-157
-120
133
-278
-608
0
-111
-103
444
-416
-278
0
-119
122
-490
-4
-1272
29
139
-19
-1787
-77
-140
0
64
79
-58
-173
254
5
-35
25
509
110
-271
-46
251
-83
-87
133
56
-411
-304
431
57
25
-435
-520
509
-99
-549
-82
979
0
425
14
371
-73
1960
0
-364
-180
319
-119
404
0
73
-3
-1751
78
1845
0
-409
419
-695
-408
-518
0
-122
-129
269
-310
-585
0
29
129
358
-756
-104
0
-34
765
-1602
-704
-368
0
184
705
-233
-773
309
0
-328
25
-492
-198
117
0
-1735
1604
-123
-95
-1744
0
-303
243
361
172
-649
0
-269
211
25
67
-165
0
-56
-88
1187
-1064
701
0
-386
88
43
-92
384
0
230
-409
-1323
-289
1633
0
-773
303
-1404
-1004
194
-555
172
221
1296
-111
163
0
184
-37
43
-36
682
0
215
410
378
-301
-125
0
130
10
-336
-119
25
0
73
-35
-114
-16
42
9
121
63
-195
-294
-101
0
635
46
-1901
-867
554
0
164
-63
-2000
265
-29
0
370
-61
-1646
-267
166
87
-128
1339
-307
-560
-147
0
-624
-416
500
52
-669
320
1476
-120
922
-1481
300
1885
293
164
672
875
38
-365
112
-360
835
-668
-1217
0
-171
-128
-180
9
347
0
256
-462
-269
-536
-363
637
-26
116
261
172
70
0
-185
65
235
408
148
0
-15
64
-417
-116
-14
606
-447
52
-791
-288
-778
0
-647
26
367
74
119
-310
5
-558
1808
-814
1718
8
-439
-79
-24
-125
298
0
-279
-1260
-844
-125
-387
0
-154
-118
130
-272
-596
0
-109
-101
435
-407
-272
0
-119
122
-490
-4
-1272
29
138
-19
-1772
-75
-139
0
64
79
-58
-173
254
5
-34
25
543
117
-273
-46
247
-82
-86
131
56
-407
-304
431
57
25
-435
-520
509
-99
-549
-82
979
0
425
14
371
-72
1960
0
-364
-180
319
-119
404
0
73
-3
-1751
78
1845
0
-409
419
-695
-408
-518
0
-122
-129
269
-310
-585
0
29
129
358
-755
-104
0
-33
750
-1571
-690
-361
0
184
705
-233
-773
309
0
-321
25
-482
-194
115
0
-1735
1604
-123
-95
-1744
0
-303
243
361
172
-649
0
-269
211
25
67
-165
0
-56
-88
1187
-1064
701
0
-378
86
42
-90
376
0
230
-409
-1323
-289
1633
0
-772
303
-1404
-1004
195
-554
172
221
1297
-111
164
0
184
-37
43
-36
682
0
215
410
378
-301
-125
0
130
10
-336
-120
25
0
73
-35
-111
-16
42
9
121
63
-195
-294
-101
0
635
46
-1901
-867
554
1
164
-63
-2000
265
-29
0
370
-61
-1646
-267
166
87
-128
1339
-307
-560
-146
1
-623
-416
500
53
-669
320
1534
-120
922
-1481
300
1885
293
164
672
875
38
-365
112
-360
835
-668
-1217
0
-168
-124
-176
10
340
1
251
-453
-264
-525
-356
624
-25
115
259
171
70
0
-185
65
235
408
148
0
-15
64
-417
-116
-14
606
-438
52
-775
-282
-762
0
-634
25
359
73
117
-304
5
-547
1772
-798
1684
9
-445
-80
-23
-127
302
1
-285
-1286
-861
-127
-395
0
-154
-118
131
-271
-596
0
-111
-103
445
-416
-278
0
-119
122
-490
-4
-1272
29
138
-18
-1772
-77
-139
0
65
79
-58
-173
254
5
-35
25
519
112
-271
-46
256
-85
-89
136
57
-419
-304
431
57
25
-435
-519
510
-99
-549
-82
979
0
425
14
371
-73
1960
0
-371
-184
325
-121
412
0
73
-3
-1751
78
1845
0
-409
419
-695
-408
-518
1
-122
-129
269
-310
-585
0
29
129
358
-756
-103
0
-34
765
-1602
-704
-368
0
184
705
-233
-773
309
0
-335
27
-502
-201
119
0
-1735
1604
-123
-95
-1743
0
-303
243
361
172
-648
0
-264
207
25
66
-162
1
-56
-88
1187
-1064
701
0
-386
88
43
-92
384
0
230
-409
-1323
-289
1632
0
-758
297
-1404
-1004
195
-544
172
221
1296
-111
163
0
184
-37
43
-36
682
0
215
410
378
-301
-125
0
130
10
-336
-120
25
0
74
-36
-116
-16
43
9
121
63
-195
-294
-100
0
635
46
-1901
-867
554
0
164
-63
-2000
265
-29
0
370
-61
-1646
-267
166
87
-128
1339
-307
-560
-147
0
-624
-415
500
52
-669
320
1534
-120
922
-1481
300
1885
293
164
672
875
38
-365
112
-360
835
-668
-1217
0
-171
-128
-180
10
347
0
251
-453
-264
-525
-356
624
-27
116
261
172
69
0
-185
65
235
408
148
0
-14
64
-417
-116
-14
606
-438
51
-775
-281
-762
0
-647
26
365
73
119
-310
5
-558
1807
-814
1719
8
-445
-80
-24
-127
303
1
-285
-1286
-861
-127
-395
0
-154
-118
131
-271
-596
0
-111
-103
446
-416
-278
0
-119
122
-489
-4
-1272
29
135
-18
-1737
-74
-136
0
65
79
-58
-173
254
5
-35
26
519
112
-271
-45
251
-83
-86
134
56
-411
-304
431
57
25
-435
-519
510
-99
-549
-82
979
0
417
14
365
-72
1921
0
-364
-180
319
-119
404
0
73
-3
-1751
78
1845
0
-401
411
-681
-400
-508
1
-120
-126
264
-304
-573
0
29
129
358
-756
-103
0
-34
765
-1603
-704
-368
0
184
705
-232
-773
309
1
-321
25
-482
-193
115
0
-1734
1604
-123
-95
-1743
0
-303
243
361
172
-648
0
-264
207
25
66
-162
1
-55
-86
1163
-1042
687
0
-386
88
43
-92
384
0
225
-401
-1297
-283
1599
0
-758
297
-1404
-1004
195
-544
172
221
1296
-111
163
0
185
-37
43
-35
682
0
211
402
370
-295
-122
0
130
10
-336
-120
25
0
73
-35
-114
-15
42
9
119
62
-191
-288
-98
0
635
47
-1901
-867
554
0
165
-63
-2000
266
-29
0
363
-60
-1613
-262
163
85
-128
1339
-307
-560
-147
0
-624
-415
501
52
-669
320
1534
-120
923
-1481
300
1885
293
165
672
876
38
-365
112
-360
835
-668
-1217
0
-171
-128
-180
10
347
0
252
-453
-264
-525
-356
624
-27
116
261
172
69
0
-185
65
235
408
148
0
-14
64
-417
-116
-14
606
-438
51
-774
-281
-762
0
-621
25
351
72
115
-298
5
-547
1772
-798
1686
8
-445
-80
-24
-127
303
1
-284
-1284
-861
-128
-395
0
-157
-120
133
-278
-608
0
-111
-103
444
-416
-278
0
-119
122
-490
-4
-1272
29
139
-19
-1787
-77
-140
0
64
79
-58
-173
254
5
-35
25
509
110
-271
-46
251
-83
-87
133
56
-411
-304
431
57
25
-435
-520
509
-99
-549
-82
979
0
425
14
371
-73
1960
0
-364
-180
319
-119
404
0
73
-3
-1751
78
1845
0
-409
419
-695
-408
-518
0
-122
-129
269
-310
-585
0
29
129
358
-756
-104
0
-34
765
-1602
-704
-368
0
184
705
-233
-773
309
0
-328
25
-492
-198
117
0
-1735
1604
-123
-95
-1744
0
-303
243
361
172
-649
0
-269
211
25
67
-165
0
-56
-88
1187
-1064
701
0
-386
88
43
-92
384
0
230
-409
-1323
-289
1633
0
-773
303
-1404
-1004
194
-555
172
221
1296
-111
163
0
184
-37
43
-36
682
0
215
410
378
-301
-125
0
130
10
-336
-119
25
0
73
-35
-114
-16
42
9
121
63
-195
-294
-101
0
635
46
-1901
-867
554
0
164
-63
-2000
265
-29
0
370
-61
-1646
-267
166
87
-128
1339
-307
-560
-147
0
-624
-416
500
52
-669
320
1476
-120
922
-1481
300
1885
293
164
672
875
38
-365
112
-360
835
-668
-1217
0
-171
-128
-180
9
347
0
256
-462
-269
-536
-363
637
-26
116
261
172
70
0
-185
65
235
408
148
0
-15
64
-417
-116
-14
606
-447
52
-791
-288
-778
0
-647
26
367
74
119
-310
5
-558
1808
-814
1718
8
-439
-79
-24
-125
298
0
-285
-1286
-861
-128
-395
0
-154
-117
130
-272
-596
0
-111
-103
444
-416
-278
0
-118
122
-490
-4
-1272
29
138
-19
-1772
-76
-139
1
64
80
-58
-173
254
5
-35
25
519
112
-271
-46
251
-83
-87
133
56
-411
-304
431
57
25
-435
-520
509
-99
-549
-81
979
0
425
14
371
-72
1960
0
-364
-180
319
-119
404
0
73
-3
-1750
78
1845
0
-409
419
-694
-408
-518
0
-122
-129
269
-310
-585
0
29
129
358
-756
-104
0
-34
765
-1603
-704
-368
0
184
705
-233
-773
309
0
-328
25
-492
-198
118
0
-1735
1604
-123
-95
-1744
0
-303
243
361
172
-649
0
-264
207
26
67
-162
0
-56
-87
1187
-1064
701
0
-386
89
43
-92
384
1
230
-409
-1323
-289
1634
0
-758
297
-1376
-1002
190
-544
172
221
1296
-111
163
0
184
-37
43
-36
682
0
215
410
378
-300
-125
0
130
10
-337
-120
25
0
73
-35
-114
-15
42
9
121
63
-195
-294
-101
0
635
46
-1901
-866
554
0
164
-63
-1999
265
-28
0
370
-61
-1646
-267
166
87
-128
1339
-307
-560
-147
0
-624
-416
500
52
-669
320
1534
-120
922
-1480
300
1885
293
164
672
875
38
-365
112
-360
835
-668
-1217
0
-171
-128
-180
9
347
0
251
-453
-264
-525
-356
624
-27
116
261
172
69
0
-185
65
235
408
148
0
-15
64
-417
-116
-14
606
-438
51
-775
-281
-762
0
-633
25
358
72
117
-304
5
-547
1772
-798
1684
8
-445
-80
-23
-127
302
0
-284
-1284
-861
-128
-395
0
-157
-120
133
-278
-608
0
-111
-103
444
-416
-278
0
-119
122
-490
-4
-1272
29
141
-19
-1808
-78
-142
0
64
79
-58
-173
254
5
-35
25
509
110
-271
-46
251
-83
-87
133
56
-411
-304
431
57
25
-435
-520
509
-99
-549
-82
979
0
425
14
371
-73
1960
0
-364
-180
319
-119
404
0
73
-3
-1751
78
1845
0
-409
419
-695
-408
-518
0
-122
-129
269
-310
-585
0
29
129
358
-756
-104
0
-34
765
-1603
-704
-368
0
184
705
-233
-773
309
0
-328
25
-492
-198
117
0
-1735
1604
-123
-95
-1744
0
-303
243
361
172
-649
0
-269
211
25
67
-165
0
-56
-88
1187
-1064
701
0
-386
88
43
-92
384
0
230
-409
-1323
-289
1633
0
-773
303
-1404
-1004
194
-555
172
221
1296
-111
163
0
184
-37
43
-36
682
0
215
410
378
-301
-125
0
130
10
-337
-120
25
0
73
-35
-114
-16
42
9
121
63
-195
-294
-101
0
635
46
-1901
-867
554
0
164
-63
-2000
265
-29
0
370
-61
-1646
-267
166
87
-128
1339
-307
-560
-147
0
-624
-416
500
52
-669
320
1476
-120
922
-1481
300
1885
299
167
685
893
39
-372
112
-360
835
-668
-1217
0
-171
-128
-180
9
347
0
256
-462
-269
-536
-363
637
-27
118
266
175
71
0
-185
65
235
408
148
0
-15
64
-417
-116
-14
606
-447
52
-791
-288
-778
0
-660
27
372
74
121
-316
5
-558
1808
-814
1718
8
-439
-79
-24
-125
298
0
-284
-1284
-861
-128
-394
1
-157
-120
133
-272
-596
0
-111
-102
444
-416
-278
0
-118
122
-490
-4
-1272
29
141
-19
-1807
-78
-141
0
64
80
-58
-172
254
5
-35
25
509
110
-271
-46
251
-83
-86
133
56
-411
-304
431
57
25
-435
-520
509
-99
-549
-82
979
0
425
14
371
-73
1960
0
-364
-180
319
-119
404
0
73
-3
-1751
78
1845
0
-409
419
-695
-408
-518
0
-122
-129
269
-309
-585
0
29
129
358
-756
-104
0
-34
765
-1603
-704
-368
1
184
705
-233
-773
309
0
-328
26
-492
-198
117
1
-1735
1604
-123
-95
-1743
0
-303
243
361
172
-649
0
-269
211
25
67
-165
0
-56
-87
1187
-1064
702
0
-386
89
43
-92
384
0
230
-409
-1323
-289
1633
0
-773
303
-1404
-1004
194
-555
172
222
1296
-111
163
0
184
-37
43
-36
682
0
215
410
378
-300
-125
0
130
11
-337
-120
26
0
73
-35
-114
-16
42
9
121
63
-195
-294
-101
0
635
46
-1901
-867
554
0
164
-63
-2000
265
-29
0
370
-61
-1646
-267
166
87
-128
1339
-307
-560
-147
0
-624
-416
500
52
-669
320
1476
-120
922
-1481
300
1885
293
164
672
875
38
-365
112
-360
835
-667
-1217
0
-171
-128
-176
10
347
0
256
-462
-269
-536
-362
638
-26
116
261
172
70
0
-185
65
235
408
148
0
-14
64
-417
-116
-14
607
-447
52
-791
-288
-778
0
-647
26
365
73
120
-310
5
-558
1808
-814
1718
8
-439
-79
-24
-125
298
1
-283
-1284
-861
-128
-395
1
-157
-120
133
-272
-595
0
-111
-102
444
-416
-278
0
-119
122
-490
-4
-1272
29
141
-19
-1808
-78
-142
1
64
79
-58
-173
256
5
-34
25
510
110
-271
-45
256
-85
-89
136
58
-419
-304
431
57
25
-434
-520
509
-99
-549
-82
979
0
425
14
372
-73
1960
0
-364
-180
320
-119
404
0
74
-3
-1786
80
1882
1
-417
427
-708
-415
-528
0
-122
-129
269
-310
-585
0
30
132
365
-771
-106
0
-34
765
-1602
-704
-368
0
184
705
-233
-773
309
0
-334
26
-501
-202
119
0
-1735
1604
-123
-95
-1744
0
-309
248
369
175
-662
0
-279
219
27
69
-171
0
-56
-87
1187
-1064
701
0
-394
90
44
-94
392
0
235
-417
-1349
-295
1666
0
-773
303
-1403
-1004
194
-555
172
221
1296
-111
164
0
184
-37
43
-36
683
0
216
410
378
-300
-124
0
130
10
-337
-120
25
0
73
-34
-114
-16
42
9
121
63
-195
-294
-101
0
648
48
-1939
-884
565
0
167
-64
-2000
270
-30
0
370
-59
-1645
-266
167
87
-128
1340
-307
-560
-146
0
-635
-424
510
53
-682
326
1476
-119
922
-1481
300
1885
293
165
672
876
39
-365
112
-360
836
-668
-1217
0
-171
-128
-180
9
347
0
256
-462
-269
-536
-363
638
-26
116
261
172
70
1
-189
66
240
416
151
0
-14
66
-433
-120
-14
630
-447
52
-791
-288
-777
0
-646
26
365
73
119
-310
5
-558
1808
-814
1718
8
-439
-79
-24
-125
298
0
-284
-1284
-861
-128
-395
1
-157
-120
133
-277
-608
0
-111
-103
444
-416
-278
1
-117
120
-480
-3
-1247
28
138
-19
-1772
-76
-139
0
64
79
-58
-173
255
5
-35
26
509
110
-271
-46
251
-82
-85
133
56
-411
-303
431
57
25
-435
-520
509
-99
-549
-82
979
1
425
14
371
-73
1960
1
-364
-180
319
-119
404
0
73
-3
-1751
78
1846
0
-408
419
-695
-408
-518
0
-120
-126
265
-304
-573
1
28
126
351
-741
-101
0
-33
765
-1602
-704
-368
1
184
705
-232
-773
309
0
-328
25
-492
-198
117
0
-1735
1604
-123
-95
-1743
0
-302
244
361
172
-649
0
-263
208
25
66
-161
0
-56
-88
1187
-1064
701
1
-386
88
43
-92
384
0
225
-401
-1297
-283
1600
0
-758
297
-1376
-983
190
-544
172
221
1297
-110
163
0
184
-37
43
-36
682
0
215
411
378
-300
-125
0
131
10
-336
-120
25
1
74
-35
-114
-16
42
9
122
63
-195
-294
-101
0
635
46
-1901
-867
555
0
164
-63
-2000
265
-29
0
370
-61
-1646
-267
166
87
-128
1339
-307
-559
-147
0
-623
-416
500
53
-668
320
1476
-120
922
-1481
300
1885
293
164
673
875
38
-365
112
-360
835
-668
-1217
0
-166
-125
-176
9
340
0
256
-462
-268
-536
-363
638
-28
118
259
172
70
0
-185
65
235
408
148
0
-14
64
-417
-116
-14
606
-446
52
-791
-288
-778
0
-647
27
365
73
119
-310
4
-576
1861
-838
1770
8
-430
-76
-24
-122
292
0
-284
-1284
-860
-128
-395
0
-157
-120
133
-272
-595
0
-111
-103
445
-416
-278
0
-119
123
-490
-2
-1272
29
141
-19
-1807
-77
-142
0
64
79
-58
-173
254
6
-35
25
509
110
-271
-46
251
-83
-87
133
56
-410
-304
432
57
25
-435
-520
510
-99
-549
-82
981
0
425
14
371
-73
1960
0
-364
-180
319
-119
404
0
73
-3
-1751
79
1845
0
-409
419
-695
-408
-518
0
-122
-129
269
-310
-585
0
29
130
358
-756
-104
1
-34
765
-1603
-703
-368
0
184
705
-233
-773
309
0
-328
25
-492
-198
119
0
-1734
1605
-123
-95
-1744
0
-303
243
361
172
-648
1
-269
212
26
67
-165
1
-56
-88
1187
-1064
702
1
-386
88
43
-92
384
1
230
-409
-1323
-289
1634
0
-773
303
-1404
-1004
194
-555
172
221
1296
-111
163
0
184
-37
43
-36
682
1
215
410
378
-300
-125
0
130
10
-337
-120
25
0
73
-35
-114
-16
42
9
121
63
-195
-294
-101
1
635
46
-1901
-866
555
1
164
-63
-2000
265
-29
0
370
-61
-1646
-267
166
88
-128
1340
-307
-560
-146
0
-624
-416
500
52
-669
320
1476
-119
923
-1481
300
1885
293
164
672
875
38
-365
112
-360
835
-668
-1217
1
-171
-128
-180
9
347
0
256
-461
-269
-536
-363
637
-26
116
261
172
70
1
-185
65
236
409
148
0
-14
64
-417
-116
-14
606
-447
52
-791
-288
-777
0
-647
26
365
73
119
-310
5
-558
1808
-814
1718
9
-439
-79
-24
-125
298
0
-284
-1284
-861
-128
-395
0
-157
-120
133
-278
-608
0
-111
-103
444
-416
-278
0
-119
122
-490
-4
-1272
29
141
-19
-1808
-78
-142
0
64
79
-58
-173
254
5
-35
25
509
110
-271
-46
251
-83
-87
133
56
-411
-304
431
57
25
-435
-520
509
-99
-549
-82
979
0
425
14
371
-73
1960
0
-364
-180
319
-119
404
0
73
-3
-1751
78
1845
0
-409
419
-695
-408
-518
0
-122
-129
269
-310
-585
0
29
129
358
-756
-104
0
-34
765
-1603
-704
-368
0
184
705
-233
-773
309
0
-328
25
-492
-198
117
0
-1735
1604
-123
-95
-1744
0
-303
243
361
172
-649
0
-269
211
25
67
-165
0
-56
-88
1187
-1064
701
0
-386
88
43
-92
384
0
230
-409
-1323
-289
1633
0
-773
303
-1404
-1004
194
-555
172
221
1296
-111
163
0
184
-37
43
-36
682
0
215
410
378
-301
-125
0
130
10
-337
-120
25
0
73
-35
-114
-16
42
9
121
63
-195
-294
-101
0
635
46
-1901
-867
554
0
164
-63
-2000
265
-29
0
370
-61
-1646
-267
166
87
-128
1339
-307
-560
-147
0
-624
-416
500
52
-669
320
1476
-120
922
-1481
300
1885
293
164
672
875
38
-365
112
-360
835
-668
-1217
0
-171
-128
-180
9
347
0
256
-462
-269
-536
-363
637
-28
118
266
175
70
0
-185
65
235
408
148
0
-15
64
-417
-116
-14
606
-447
52
-791
-288
-778
0
-647
26
365
73
119
-310
5
-558
1808
-814
1718
8
-439
-79
-24
-125
298
0
-284
-1284
-861
-128
-395
0
-157
-120
133
-272
-596
0
-111
-103
444
-416
-278
0
-119
122
-490
-4
-1272
29
141
-19
-1808
-78
-142
0
64
79
-58
-173
254
5
-35
25
509
110
-271
-46
251
-83
-87
133
56
-411
-304
431
57
25
-435
-520
509
-99
-549
-82
979
0
425
14
371
-73
1960
0
-364
-180
319
-119
404
0
73
-3
-1751
78
1845
0
-409
419
-695
-408
-518
0
-122
-129
269
-310
-585
0
29
129
358
-756
-104
0
-34
765
-1603
-704
-368
0
184
705
-233
-773
309
0
-328
25
-492
-198
117
0
-1735
1604
-123
-95
-1744
0
-303
243
361
172
-649
0
-269
211
25
67
-165
0
-56
-88
1187
-1064
701
0
-386
88
43
-92
384
0
230
-409
-1323
-289
1633
0
-773
303
-1404
-1004
194
-555
172
221
1296
-111
163
0
184
-37
43
-36
682
0
215
410
378
-300
-125
0
130
10
-337
-120
25
0
73
-35
-114
-16
42
9
121
63
-195
-294
-101
0
635
46
-1901
-867
554
0
164
-63
-2000
265
-29
0
370
-61
-1646
-267
166
87
-128
1339
-307
-560
-147
0
-624
-416
500
52
-669
320
1476
-120
922
-1481
300
1885
293
164
672
875
38
-365
112
-360
835
-668
-1217
0
-171
-128
-180
9
347
0
256
-462
-269
-536
-363
637
-26
116
261
172
70
0
-185
65
235
408
148
0
-15
64
-417
-116
-14
606
-447
52
-791
-288
-778
0
-647
26
365
73
119
-310
5
-558
1808
-814
1718
8
-439
-79
-24
-125
298
0
-279
-1259
-843
-124
-386
1
-151
-114
127
-266
-584
1
-108
-101
435
-407
-272
0
-116
120
-480
-3
-1246
29
136
-19
-1737
-74
-136
2
63
78
-57
-170
250
5
-34
25
510
110
-266
-45
247
-81
-85
130
56
-403
-298
422
56
25
-425
-510
500
-97
-537
-79
959
1
417
14
364
-71
1922
0
-357
-176
314
-117
396
0
73
-2
-1715
76
1809
1
-401
411
-680
-400
-508
0
-120
-126
264
-304
-572
0
29
128
351
-740
-102
1
-32
750
-1571
-689
-361
1
180
691
-228
-758
303
0
-321
25
-481
-194
116
0
-1700
1572
-120
-92
-1709
0
-297
238
354
170
-635
0
-259
204
27
66
-158
1
-55
-85
1164
-1043
687
0
-377
86
43
-90
376
1
226
-401
-1297
-283
1601
0
-743
291
-1348
-982
187
-532
169
217
1270
-108
160
0
180
-36
42
-34
668
1
212
402
371
-294
-122
0
127
10
-330
-118
25
0
73
-34
-112
-14
41
9
120
63
-190
-288
-98
0
622
46
-1862
-848
543
0
161
-61
-1959
261
-27
0
364
-59
-1613
-262
163
86
-125
1312
-300
-548
-144
1
-612
-408
490
52
-656
314
1504
-118
904
-1450
294
1848
287
161
659
858
39
-357
111
-353
818
-655
-1193
0
-167
-124
-176
10
340
0
246
-444
-259
-514
-349
613
-26
115
256
169
68
0
-181
64
230
400
145
0
-14
63
-409
-113
-14
596
-429
50
-1080
-275
-747
-611
-634
25
359
73
117
-297
6
-535
1737
-781
1651
9
-435
-78
-23
-124
296
0
-284
-1283
-861
-128
-395
0
-157
-120
133
-278
-608
0
-110
-102
445
-416
-278
0
-118
122
-490
-4
-1272
29
141
-19
-1808
-78
-142
0
64
79
-58
-173
254
5
-36
27
519
113
-276
-47
251
-82
-87
133
56
-410
-304
431
57
25
-435
-520
510
-99
-548
-82
979
0
425
14
371
-73
1960
0
-364
-179
319
-119
404
1
73
-3
-1751
78
1845
0
-409
419
-695
-407
-518
0
-122
-129
269
-310
-585
0
30
133
365
-771
-106
0
-34
766
-1603
-704
-368
1
184
705
-233
-773
309
0
-328
25
-492
-198
117
0
-1735
1604
-123
-95
-1744
0
-309
248
368
175
-662
0
-268
211
25
67
-165
0
-57
-90
1211
-1085
715
0
-386
88
43
-92
384
0
230
-409
-1323
-289
1633
0
-772
303
-1404
-1004
194
-555
175
225
1322
-113
166
0
188
-38
44
-37
696
0
215
410
379
-301
-125
0
130
10
-337
-120
25
0
74
-36
-115
-16
43
9
121
63
-195
-293
-101
0
635
46
-1901
-867
554
0
164
-63
-2000
265
-29
0
377
-62
-1679
-272
169
90
-131
1366
-312
-571
-149
0
-636
-424
510
54
-682
326
1506
-122
940
-1511
306
1923
299
167
686
893
40
-372
112
-360
835
-668
-1217
0
-171
-128
-180
9
347
0
256
-462
-269
-536
-363
637
-28
118
266
175
70
1
-185
65
235
408
148
0
-15
64
-417
-116
-14
606
-452
54
-799
-291
-785
0
-647
26
365
73
119
-310
5
-557
1808
-814
1719
9
-439
-78
-24
-124
298
0
-284
-1283
-861
-128
-395
0
-157
-120
134
-278
-608
0
-111
-103
444
-416
-278
0
-119
122
-490
-4
-1272
29
141
-19
-1808
-77
-141
0
64
79
-58
-173
254
5
-35
25
509
110
-271
-46
251
-83
-87
133
56
-411
-304
431
57
25
-434
-519
510
-99
-549
-82
979
0
425
14
371
-73
1960
0
-364
-180
319
-119
404
0
73
-3
-1751
78
1846
0
-409
419
-695
-408
-518
1
-121
-129
269
-310
-585
0
29
129
358
-755
-104
0
-34
765
-1603
-704
-368
0
184
705
-233
-773
309
0
-328
25
-492
-198
117
0
-1735
1604
-123
-95
-1743
0
-303
243
361
173
-649
0
-269
211
25
67
-165
0
-56
-88
1187
-1064
701
0
-386
88
43
-91
384
0
230
-408
-1323
-289
1633
0
-773
303
-1404
-1004
194
-555
172
221
1297
-111
163
1
184
-37
43
-36
682
0
215
410
378
-301
-125
0
130
11
-337
-119
25
0
73
-35
-114
-16
43
9
121
63
-195
-294
-101
0
635
46
-1901
-867
554
0
164
-63
-2000
265
-29
0
371
-61
-1646
-267
166
87
-128
1339
-307
-560
-146
0
-624
-416
500
52
-669
320
1476
-120
922
-1481
300
1885
293
164
672
875
38
-364
112
-360
835
-668
-1217
1
-171
-128
-179
9
347
0
256
-461
-269
-536
-363
637
-28
118
266
175
71
1
-185
65
235
408
148
0
-15
65
-417
-116
-14
606
-447
52
-791
-288
-778
0
-647
27
365
73
120
-310
5
-557
1808
-814
1718
8
-439
-79
-24
-125
298
0
-284
-1284
-861
-128
-395
0
-157
-120
133
-278
-608
0
-111
-103
444
-416
-278
0
-119
122
-490
-4
-1272
29
141
-19
-1808
-78
-142
0
64
79
-58
-173
254
5
-35
25
509
110
-271
-46
251
-83
-87
133
56
-411
-304
431
57
25
-435
-520
509
-99
-549
-82
979
0
425
14
371
-73
1960
0
-364
-180
319
-119
404
0
73
-3
-1751
78
1845
0
-409
419
-695
-408
-518
0
-122
-129
269
-310
-585
0
29
129
358
-756
-104
0
-34
765
-1603
-704
-368
0
184
705
-233
-773
309
0
-328
25
-492
-198
117
0
-1735
1604
-123
-95
-1744
0
-303
243
361
172
-649
0
-269
211
25
67
-165
0
-56
-88
1187
-1064
701
0
-386
88
43
-92
384
0
230
-409
-1323
-289
1633
0
-773
303
-1404
-1004
194
-555
172
221
1296
-111
163
0
184
-37
43
-36
682
0
215
410
378
-301
-125
0
130
10
-337
-120
25
0
73
-35
-114
-16
42
9
121
63
-195
-294
-101
0
635
46
-1901
-867
554
0
164
-63
-2000
265
-29
0
370
-61
-1646
-267
166
87
-128
1339
-307
-560
-147
0
-624
-416
500
52
-669
320
1476
-120
922
-1481
300
1885
293
164
672
875
38
-365
112
-360
835
-668
-1217
0
-171
-128
-180
9
347
0
256
-462
-269
-536
-363
637
-28
118
266
175
70
0
-185
65
235
408
148
0
-15
64
-417
-116
-14
606
-447
52
-791
-288
-778
0
-647
26
365
73
119
-310
5
-558
1808
-814
1718
8
-439
-79
-24
-125
298
0
-285
-1286
-861
-127
-395
0
-154
-118
131
-271
-596
0
-111
-103
445
-416
-278
0
-119
122
-490
-4
-1272
29
138
-18
-1772
-76
-139
0
65
79
-58
-173
254
5
-35
25
519
112
-271
-46
251
-83
-87
133
56
-411
-304
431
57
25
-435
-519
510
-99
-549
-82
979
0
425
14
371
-73
1960
0
-364
-180
319
-119
404
0
73
-3
-1751
78
1845
0
-409
419
-695
-408
-518
1
-122
-129
269
-310
-585
0
29
129
358
-756
-103
0
-34
765
-1603
-704
-368
0
184
705
-233
-773
309
0
-328
26
-492
-197
117
0
-1735
1604
-123
-95
-1743
0
-303
243
361
172
-648
0
-264
207
25
66
-162
1
-56
-88
1187
-1064
701
0
-386
88
43
-92
384
0
230
-409
-1323
-289
1632
0
-758
297
-1404
-1004
195
-544
172
221
1296
-111
163
0
184
-37
43
-36
682
0
215
410
378
-301
-125
0
130
10
-336
-120
25
0
73
-35
-114
-16
42
9
121
63
-195
-294
-100
0
635
46
-1901
-867
554
0
164
-63
-2000
265
-29
0
370
-61
-1646
-267
166
87
-128
1339
-307
-560
-147
0
-624
-415
500
52
-669
320
1534
-120
922
-1481
300
1885
293
164
672
875
38
-365
112
-360
835
-668
-1217
0
-171
-128
-180
10
347
0
251
-453
-264
-525
-356
624
-27
116
261
172
69
0
-185
65
235
408
148
0
-14
64
-417
-116
-14
606
-438
51
-775
-281
-762
0
-634
25
358
72
117
-304
5
-547
1772
-798
1685
8
-445
-80
-24
-127
303
1
-278
-1257
-844
-125
-387
0
-154
-118
130
-272
-596
0
-111
-103
444
-416
-278
0
-119
122
-490
-4
-1272
29
141
-19
-1808
-78
-142
1
63
77
-57
-170
249
5
-35
25
509
110
-270
-46
251
-83
-87
133
56
-411
-297
422
56
25
-426
-509
509
-98
-549
-82
979
0
425
14
371
-73
1960
0
-356
-176
313
-117
396
0
73
-3
-1751
78
1845
0
-409
419
-695
-408
-518
1
-119
-126
264
-304
-573
0
29
129
358
-756
-104
0
-34
765
-1603
-703
-368
0
184
705
-233
-773
309
0
-327
25
-492
-198
117
0
-1735
1604
-123
-95
-1744
0
-303
243
361
172
-649
0
-264
207
25
66
-162
1
-55
-87
1187
-1064
701
0
-378
86
42
-90
376
0
225
-401
-1297
-283
1600
0
-758
297
-1376
-984
191
-544
169
217
1270
-108
160
1
184
-37
43
-36
682
0
211
402
370
-295
-122
0
130
10
-337
-120
25
0
73
-34
-114
-16
42
9
121
64
-195
-294
-101
0
622
45
-1863
-850
543
0
161
-62
-1960
260
-28
0
370
-61
-1646
-267
166
87
-128
1339
-307
-560
-147
0
-624
-416
500
52
-668
321
1476
-120
922
-1481
300
1885
293
164
672
875
38
-365
110
-352
818
-655
-1193
0
-168
-125
-176
9
340
0
256
-462
-269
-536
-363
637
-28
118
266
175
70
0
-181
65
230
400
145
0
-14
64
-417
-116
-14
606
-438
51
-775
-282
-762
0
-646
26
365
73
120
-310
5
-547
1772
-797
1684
8
-439
-79
-24
-124
298
0
-284
-1284
-861
-127
-395
0
-157
-120
134
-278
-607
0
-111
-103
444
-416
-278
0
-119
123
-489
-4
-1271
29
139
-19
-1787
-77
-140
0
64
79
-58
-173
254
5
-35
25
509
110
-271
-46
251
-83
-86
133
56
-411
-304
432
57
25
-435
-520
509
-98
-549
-82
979
0
425
14
371
-73
1960
0
-364
-180
319
-119
404
0
73
-3
-1751
78
1846
0
-409
420
-695
-408
-518
0
-122
-129
269
-310
-585
0
29
129
358
-756
-104
0
-34
765
-1602
-704
-368
0
184
705
-233
-773
309
0
-327
25
-492
-198
117
0
-1735
1604
-122
-95
-1744
0
-303
243
361
172
-649
0
-269
211
25
67
-165
0
-56
-87
1187
-1064
701
0
-386
88
43
-92
384
1
230
-409
-1323
-288
1633
0
-773
303
-1404
-1004
194
-555
172
221
1296
-111
163
0
184
-36
43
-36
682
0
215
410
378
-301
-125
0
130
10
-336
-119
25
0
73
-35
-114
-16
42
9
121
63
-193
-292
-101
0
635
46
-1901
-867
554
0
164
-63
-2000
265
-29
0
370
-61
-1646
-266
166
88
-128
1339
-307
-560
-147
0
-624
-416
500
53
-668
320
1476
-119
923
-1481
300
1885
293
164
672
875
38
-365
112
-360
835
-668
-1217
0
-171
-128
-180
9
347
0
256
-462
-269
-536
-363
637
-26
117
261
172
70
0
-185
66
235
408
148
0
-15
64
-417
-116
-14
606
-447
52
-791
-288
-778
0
-647
26
368
74
119
-310
5
-558
1808
-814
1718
8
-439
-79
-24
-124
298
0
-279
-1260
-844
-124
-386
0
-157
-119
133
-278
-608
0
-110
-103
445
-415
-278
0
-119
122
-490
-4
-1272
29
142
-19
-1808
-77
-142
0
63
77
-57
-170
249
5
-33
25
543
117
-273
-46
252
-84
-88
134
58
-415
-298
422
56
25
-426
-510
499
-97
-538
-80
959
0
417
14
364
-71
1922
0
-364
-180
319
-119
404
0
73
-3
-1751
78
1845
0
-409
420
-695
-408
-518
1
-122
-129
269
-310
-585
0
29
129
358
-755
-104
0
-33
750
-1571
-690
-360
0
184
705
-233
-773
309
0
-321
25
-482
-194
115
0
-1735
1604
-122
-95
-1743
0
-303
244
361
172
-648
0
-269
211
25
67
-165
0
-56
-88
1187
-1064
701
0
-386
88
44
-92
384
0
230
-409
-1323
-289
1633
0
-772
303
-1404
-1003
195
-554
172
221
1297
-111
164
0
184
-37
43
-36
683
0
215
410
378
-301
-125
0
130
10
-336
-120
25
0
72
-34
-112
-16
41
9
121
63
-195
-294
-101
0
635
46
-1901
-867
554
1
164
-63
-2000
265
-29
0
370
-60
-1646
-266
166
87
-128
1339
-307
-560
-146
1
-623
-416
500
53
-669
320
1534
-120
922
-1481
300
1885
293
164
672
875
38
-365
113
-360
835
-667
-1217
0
-172
-129
-181
9
348
0
246
-444
-259
-514
-348
612
-24
113
254
168
69
0
-181
64
230
400
145
0
-15
64
-417
-116
-14
606
-438
52
-775
-282
-762
0
-647
27
366
74
120
-310
5
-558
1808
-814
1718
9
-436
-78
-23
-124
296
1
-284
-1284
-861
-128
-395
0
-154
-118
133
-278
-608
0
-111
-103
444
-416
-278
0
-119
122
-490
-4
-1272
29
141
-19
-1808
-78
-142
0
64
79
-58
-173
254
5
-35
25
509
110
-271
-46
251
-83
-87
133
56
-411
-304
431
57
25
-435
-520
509
-99
-549
-82
979
0
425
14
371
-73
1960
0
-364
-180
319
-119
404
0
73
-3
-1751
78
1845
0
-409
419
-695
-408
-518
0
-122
-129
269
-310
-585
0
29
129
358
-756
-104
0
-34
765
-1603
-704
-368
0
184
705
-233
-773
309
0
-328
25
-492
-198
117
0
-1735
1604
-123
-95
-1744
0
-303
243
361
172
-649
0
-269
211
25
67
-165
0
-56
-88
1187
-1064
701
0
-386
88
43
-92
384
0
230
-409
-1323
-289
1633
0
-773
303
-1404
-1004
194
-555
172
221
1296
-111
163
0
184
-37
43
-36
682
0
215
410
378
-301
-125
0
130
10
-337
-120
25
0
73
-35
-114
-16
42
9
121
63
-195
-294
-101
0
635
46
-1901
-867
554
0
164
-63
-2000
265
-29
0
370
-61
-1646
-267
166
87
-128
1339
-307
-560
-147
0
-624
-416
500
52
-669
320
1476
-120
922
-1481
300
1885
293
164
672
875
38
-365
112
-360
835
-668
-1217
0
-171
-128
-180
9
347
0
256
-462
-269
-536
-363
637
-26
116
261
172
70
0
-185
65
235
408
148
0
-15
64
-417
-116
-14
606
-447
52
-791
-288
-778
0
-647
26
365
73
119
-310
5
-558
1808
-814
1718
8
-439
-80
-24
-125
298
0
-284
-1283
-861
-127
-395
0
-160
-121
136
-277
-607
1
-111
-103
444
-416
-277
0
-119
122
-490
-4
-1272
29
141
-19
-1808
-78
-142
1
64
80
-58
-173
254
5
-34
25
509
110
-271
-46
251
-83
-87
133
56
-411
-310
440
58
26
-443
-530
510
-99
-548
-82
979
0
425
15
372
-73
1961
0
-364
-180
320
-119
404
0
73
-3
-1751
79
1845
0
-409
419
-695
-408
-518
0
-122
-129
269
-310
-585
0
29
129
358
-756
-104
0
-34
765
-1603
-703
-368
0
188
720
-238
-787
315
1
-328
26
-492
-198
117
1
-1735
1605
-123
-95
-1744
1
-303
243
361
173
-649
0
-269
211
25
67
-165
0
-55
-88
1187
-1064
701
0
-386
88
43
-92
385
1
230
-409
-1323
-289
1633
0
-773
303
-1404
-1004
194
-555
172
222
1296
-111
163
0
184
-37
44
-35
682
0
215
410
378
-299
-125
0
131
11
-337
-119
25
0
77
-36
-117
-16
44
9
121
63
-195
-294
-101
0
635
46
-1901
-867
554
0
164
-63
-1999
265
-28
0
370
-60
-1646
-266
166
88
-128
1339
-307
-560
-146
0
-624
-416
501
52
-669
320
1477
-120
922
-1481
300
1885
299
167
685
893
39
-372
113
-360
835
-668
-1217
1
-171
-128
-180
9
347
0
257
-462
-268
-536
-363
638
-25
118
266
175
71
0
-185
65
235
408
149
0
-15
64
-417
-116
-12
607
-446
52
-791
-286
-778
0
-647
26
365
73
119
-310
6
-558
1808
-814
1719
8
-448
-81
-24
-127
305
0
-279
-1260
-844
-125
-387
0
-156
-120
133
-278
-608
0
-111
-103
444
-415
-278
0
-119
122
-490
-4
-1272
30
141
-19
-1808
-77
-141
0
64
79
-58
-173
254
6
-34
25
499
108
-266
-45
252
-84
-88
135
57
-415
-304
431
57
25
-435
-520
509
-99
-549
-82
979
0
426
14
371
-73
1960
0
-364
-180
319
-119
404
0
73
-3
-1751
78
1845
0
-409
419
-695
-407
-517
0
-122
-128
269
-310
-585
0
29
129
358
-755
-104
0
-34
765
-1603
-704
-368
0
184
705
-232
-773
309
0
-328
26
-492
-198
118
0
-1734
1604
-123
-94
-1744
0
-303
243
361
172
-649
0
-268
211
25
67
-165
1
-56
-87
1187
-1064
701
0
-386
89
43
-92
385
0
230
-409
-1323
-289
1633
0
-772
303
-1404
-1004
195
-554
172
221
1297
-111
164
0
184
-37
43
-36
682
0
215
410
378
-301
-125
0
130
10
-336
-120
25
0
73
-35
-114
-16
42
9
121
63
-195
-294
-101
0
635
46
-1901
-867
554
1
164
-63
-2000
266
-29
0
370
-61
-1646
-267
166
87
-128
1339
-307
-559
-146
1
-623
-416
500
53
-669
320
1534
-120
922
-1481
300
1885
293
164
672
875
39
-365
112
-360
835
-668
-1217
0
-168
-124
-175
11
340
1
251
-453
-264
-525
-356
624
-25
115
260
171
70
0
-185
65
235
408
148
0
-15
64
-417
-116
-14
606
-447
54
-791
-288
-778
0
-647
27
366
74
119
-309
5
-558
1808
-814
1719
9
-445
-80
-23
-126
302
1
-279
-1284
-844
-125
-387
0
-157
-120
133
-278
-608
0
-111
-103
444
-415
-278
0
-118
122
-489
-3
-1272
29
141
-19
-1808
-77
-142
0
64
79
-58
-173
254
6
-34
26
499
108
-266
-45
251
-82
-87
134
57
-415
-304
431
57
25
-434
-519
510
-99
-549
-82
979
0
425
14
371
-72
1960
0
-364
-180
320
-119
404
0
73
-3
-1751
78
1845
0
-409
419
-695
-408
-518
0
-122
-129
269
-310
-585
0
29
129
358
-755
-103
0
-34
765
-1603
-704
-368
0
184
705
-233
-773
310
0
-328
26
-492
-198
117
1
-1735
1605
-122
-95
-1744
0
-303
243
361
172
-649
0
-269
211
26
67
-165
0
-56
-88
1187
-1064
701
0
-385
88
43
-92
384
0
230
-409
-1323
-289
1633
0
-772
303
-1403
-1003
195
-554
172
221
1297
-111
164
0
184
-37
43
-36
683
0
215
410
378
-301
-125
0
131
10
-336
-120
25
0
74
-35
-113
-16
42
9
121
63
-195
-293
-101
0
635
46
-1901
-867
554
1
164
-63
-2000
265
-29
0
370
-61
-1646
-267
166
87
-128
1339
-306
-560
-146
1
-623
-415
500
53
-669
320
1534
-120
922
-1481
300
1886
293
164
672
875
38
-365
112
-360
835
-668
-1217
0
-168
-124
-176
10
340
1
251
-453
-264
-525
-356
624
-25
115
259
171
70
1
-185
65
235
408
148
0
-15
64
-417
-116
-14
607
-447
53
-791
-288
-778
0
-647
26
366
75
119
-310
5
-558
1808
-813
1718
9
-445
-80
-23
-127
302
1
-285
-1286
-861
-127
-395
0
-154
-118
131
-271
-596
0
-111
-103
445
-416
-278
0
-119
122
-490
-4
-1272
29
138
-18
-1807
-76
-139
0
65
79
-58
-173
254
5
-35
25
519
112
-271
-46
251
-83
-87
133
56
-411
-304
431
57
25
-435
-519
510
-99
-549
-82
979
0
425
14
371
-73
1960
0
-364
-180
319
-119
404
0
73
-3
-1751
78
1845
0
-409
419
-695
-408
-518
1
-122
-129
269
-310
-585
0
29
129
358
-756
-103
0
-34
765
-1602
-704
-368
0
184
705
-233
-773
309
0
-328
26
-492
-197
117
0
-1735
1604
-123
-95
-1743
0
-303
243
361
172
-648
0
-264
207
25
66
-162
1
-56
-88
1187
-1064
701
0
-386
88
43
-92
384
0
230
-409
-1323
-289
1632
0
-758
297
-1404
-1004
195
-544
172
221
1296
-111
163
0
184
-37
43
-36
682
0
215
410
378
-301
-125
0
130
10
-336
-120
25
0
73
-35
-114
-16
42
9
121
63
-195
-294
-100
0
635
46
-1901
-867
554
0
164
-63
-2000
265
-29
0
370
-61
-1646
-267
166
87
-128
1339
-307
-560
-147
0
-624
-415
500
52
-669
320
1534
-120
922
-1481
300
1885
293
164
672
875
38
-365
112
-360
835
-668
-1217
0
-171
-128
-180
10
347
0
251
-453
-264
-525
-356
624
-27
116
261
172
69
0
-185
65
235
408
148
0
-14
64
-417
-116
-14
606
-438
51
-775
-281
-762
0
-634
25
358
72
117
-304
5
-547
1772
-798
1685
8
-445
-80
-24
-127
303
1
-283
-1284
-860
-128
-395
0
-156
-119
133
-278
-608
0
-110
-103
444
-416
-277
0
-115
118
-470
-3
-1222
27
141
-19
-1808
-78
-142
0
64
79
-58
-173
254
5
-34
25
499
108
-266
-45
251
-83
-86
133
56
-411
-310
441
58
26
-444
-530
509
-99
-549
-81
979
0
425
15
371
-73
1961
0
-357
-176
313
-116
396
1
73
-3
-1750
78
1845
0
-409
419
-695
-408
-518
0
-121
-129
269
-310
-585
0
29
129
358
-756
-104
0
-34
765
-1602
-703
-368
0
184
705
-233
-773
310
0
-327
26
-492
-198
117
0
-1735
1604
-122
-95
-1744
0
-303
243
361
172
-648
0
-269
212
26
67
-165
0
-56
-87
1188
-1064
701
0
-385
88
44
-91
384
0
225
-401
-1297
-282
1600
0
-773
304
-1404
-1004
194
-555
172
221
1296
-110
163
0
184
-35
43
-36
682
0
211
402
371
-295
-122
1
128
10
-329
-118
25
0
73
-35
-114
-16
43
9
121
63
-195
-294
-100
0
634
46
-1899
-867
554
1
164
-63
-2000
265
-28
0
356
-59
-1580
-257
160
83
-125
1311
-301
-548
-144
0
-611
-408
490
52
-656
315
1476
-120
922
-1481
300
1886
293
164
672
875
38
-365
112
-360
835
-668
-1218
0
-168
-124
-176
9
340
0
251
-453
-259
-525
-356
624
-29
120
272
179
71
0
-185
65
235
408
148
1
-14
63
-408
-114
-14
594
-447
52
-791
-288
-778
0
-647
26
365
73
119
-310
5
-547
1773
-798
1684
8
-439
-80
-24
-125
298
0
-284
-1284
-861
-128
-395
0
-157
-120
133
-278
-608
0
-111
-103
444
-416
-278
0
-119
122
-490
-4
-1272
29
141
-19
-1808
-78
-142
0
64
79
-58
-173
254
5
-35
25
509
110
-271
-46
251
-83
-87
133
56
-411
-304
431
57
25
-435
-520
509
-99
-549
-82
979
0
425
14
371
-73
1960
0
-364
-180
319
-119
404
0
73
-3
-1751
78
1845
0
-409
419
-695
-408
-518
0
-122
-129
269
-310
-585
0
29
129
358
-756
-104
0
-34
765
-1603
-704
-368
0
184
705
-233
-773
309
0
-328
25
-492
-198
117
0
-1735
1604
-123
-95
-1744
0
-303
243
361
172
-649
0
-269
211
25
67
-165
0
-56
-88
1187
-1064
701
0
-386
88
43
-92
384
0
230
-409
-1323
-289
1633
0
-773
303
-1404
-1004
194
-555
172
221
1296
-111
163
0
184
-37
43
-36
682
0
215
410
378
-301
-125
0
130
10
-336
-119
25
0
73
-35
-114
-16
42
9
121
63
-195
-294
-101
0
635
46
-1901
-867
554
0
164
-63
-2000
265
-29
0
370
-61
-1646
-267
166
87
-128
1339
-307
-560
-147
0
-624
-416
500
52
-669
320
1476
-120
922
-1481
300
1885
293
164
672
875
38
-365
112
-360
835
-668
-1217
0
-171
-128
-180
9
347
0
256
-462
-269
-536
-363
637
-26
116
261
172
70
0
-185
65
235
408
148
0
-15
64
-417
-116
-14
606
-447
52
-791
-288
-778
0
-647
26
365
73
119
-310
5
-558
1808
-814
1718
8
-439
-79
-24
-125
298
0
-278
-1258
-844
-125
-387
0
-154
-118
130
-267
-584
0
-111
-103
444
-416
-278
0
-119
122
-490
-4
-1272
29
139
-19
-1787
-77
-140
0
64
79
-58
-173
379
5
-35
25
55
110
-271
-46
251
-83
-87
133
56
-411
-298
422
56
25
-426
-510
509
-99
-549
-82
979
0
425
14
371
-73
1960
0
-364
-180
319
-119
404
0
72
-3
-1716
76
1808
0
-409
419
-695
-408
-518
0
-122
-129
269
-310
-585
0
28
126
351
-741
-102
0
-34
765
-1602
-704
-368
0
184
705
-233
-773
309
0
-328
25
-492
-198
117
0
-1735
1604
-123
-95
-1744
0
-303
243
361
172
-649
0
-269
211
25
67
-165
0
-56
-88
1187
-1064
701
0
-378
86
42
-90
376
0
230
-409
-1323
-289
1633
0
-773
303
-1404
-1004
194
-555
172
221
1296
-111
163
0
184
-37
43
-36
682
0
215
410
378
-301
-125
0
130
10
-336
-119
25
0
73
-35
-114
-16
42
9
121
63
-195
-294
-101
0
635
46
-1901
-867
554
0
164
-63
-2000
265
-29
0
370
-61
-1646
-267
166
87
-128
1339
-307
-560
-147
0
-54
-408
490
51
-656
314
1476
-120
922
-1481
300
1885
293
164
672
875
38
-365
112
-360
835
-668
-1217
0
-171
-128
-180
9
347
0
251
-453
-264
-525
-356
624
-26
116
261
172
70
0
-181
64
230
400
145
0
-15
64
-417
-116
-14
606
-447
52
-791
-288
-778
0
-647
26
367
74
119
-310
5
-558
1808
-814
1718
8
-439
-79
-24
-125
298
0
-284
-1284
-861
-128
-395
0
-157
-119
134
-278
-608
0
-111
-103
444
-416
-278
0
-119
122
-490
-4
-1272
29
139
-18
-1787
-77
-140
0
64
79
-58
-173
254
5
-35
25
509
110
-271
-46
251
-82
-87
133
56
-410
-304
431
58
25
-435
-520
509
-99
-549
-82
979
0
425
14
371
-73
1960
0
-364
-180
319
-119
404
0
73
-3
-1751
78
1846
0
-409
419
-695
-408
-518
1
-122
-129
269
-310
-585
0
29
129
358
-756
-104
0
-34
765
-1602
-704
-368
1
184
705
-233
-773
309
0
-328
25
-492
-198
117
0
-1734
1604
-123
-95
-1744
0
-303
243
361
172
-649
0
-269
211
26
68
-165
0
-55
-88
1187
-1064
701
0
-386
88
43
-92
384
0
230
-409
-1323
-288
1633
0
-773
303
-1404
-1004
195
-555
172
221
1296
-111
163
0
184
-37
44
-36
682
0
216
410
378
-300
-125
0
130
10
-336
-119
25
0
73
-35
-114
-16
42
9
121
63
-195
-294
-101
0
636
46
-1901
-867
554
0
164
-63
-2000
265
-29
0
371
-61
-1646
-267
166
87
-128
1339
-307
-560
-146
0
-624
-415
500
52
-669
320
1476
-120
922
-1481
300
1885
293
164
672
875
38
-365
113
-360
835
-668
-1217
0
-171
-128
-180
9
348
1
257
-462
-269
-536
-363
637
-26
116
261
172
70
0
-185
65
235
408
148
0
-15
64
-417
-115
-14
606
-446
52
-791
-288
-778
1
-647
26
367
74
119
-310
6
-558
1808
-814
1718
8
-439
-79
-24
-125
298
1
-284
-1284
-861
-128
-395
0
-157
-120
133
-272
-596
0
-111
-103
444
-416
-278
0
-119
122
-490
-4
-1272
29
141
-19
-1808
-78
-142
0
64
79
-58
-173
254
5
-35
25
519
112
-271
-46
251
-83
-87
133
56
-411
-304
431
57
25
-435
-520
509
-99
-549
-82
979
0
425
14
371
-73
1960
0
-364
-180
319
-119
404
0
73
-3
-1751
78
1845
0
-409
419
-695
-408
-518
0
-122
-129
269
-310
-585
0
29
129
358
-756
-104
0
-34
765
-1603
-704
-368
0
184
705
-233
-773
309
0
-328
25
-492
-198
117
0
-1735
1604
-123
-95
-1744
0
-303
243
361
172
-649
0
-269
211
25
67
-165
0
-56
-88
1187
-1064
701
0
-386
88
43
-92
384
0
230
-409
-1323
-289
1633
0
-773
303
-1404
-1004
194
-555
172
221
1296
-111
163
0
184
-37
43
-36
682
0
215
410
378
-300
-125
0
130
10
-336
-120
25
0
73
-35
-114
-16
42
9
121
63
-195
-294
-101
0
635
46
-1901
-867
554
0
164
-63
-2000
265
-29
0
370
-61
-1646
-267
166
87
-128
1339
-307
-560
-147
0
-624
-416
500
52
-669
320
1476
-120
922
-1481
300
1885
293
164
672
875
38
-365
112
-360
835
-668
-1217
0
-171
-128
-180
9
347
0
256
-462
-269
-536
-363
637
-26
116
261
172
70
0
-185
65
235
408
148
0
-15
64
-417
-116
-14
606
-447
52
-791
-288
-778
0
-647
26
365
73
119
-310
5
-547
1808
-814
1718
8
-439
-79
-24
-125
298
0
-285
-1286
-861
-128
-395
1
-154
-117
130
-272
-596
0
-111
-103
444
-416
-278
1
-119
122
-490
-4
-1272
29
138
-19
-1772
-76
-139
0
64
79
-58
-173
254
5
-35
26
519
112
-271
-46
251
-83
-87
133
56
-411
-304
431
57
25
-435
-520
509
-99
-549
-82
979
0
425
14
372
-73
1960
0
-364
-179
319
-119
404
0
73
-3
-1751
78
1845
0
-409
420
-695
-408
-518
0
-122
-128
269
-310
-585
0
29
129
358
-756
-104
0
-34
765
-1603
-703
-368
0
184
705
-233
-773
310
0
-328
25
-492
-197
117
0
-1735
1604
-123
-95
-1744
0
-303
243
362
172
-649
0
-264
207
25
66
-162
0
-56
-88
1187
-1064
701
0
-386
88
43
-92
384
0
230
-409
-1323
-289
1633
0
-757
297
-1376
-984
191
-544
172
221
1297
-110
163
0
184
-37
43
-36
682
0
215
411
378
-300
-125
0
130
10
-337
-120
25
0
73
-35
-114
-16
42
9
122
63
-194
-294
-101
0
635
46
-1901
-867
554
1
164
-63
-2000
265
-29
0
371
-61
-1646
-267
166
87
-128
1339
-307
-560
-147
0
-624
-416
500
52
-669
320
1534
-120
923
-1481
300
1885
293
164
672
875
38
-364
112
-360
835
-668
-1217
0
-171
-128
-179
9
347
0
251
-453
-264
-525
-356
624
-27
116
261
172
69
0
-185
65
235
408
148
0
-14
64
-417
-116
-14
606
-438
51
-775
-282
-762
0
-634
25
358
72
117
-304
6
-547
1772
-798
1684
9
-445
-80
-24
-126
302
0
-284
-1284
-861
-128
-395
0
-157
-120
133
-278
-608
0
-111
-103
444
-416
-278
0
-119
122
-490
-4
-1272
29
141
-19
-1808
-78
-142
0
64
79
-58
-173
254
5
-35
25
509
110
-271
-46
251
-83
-87
133
56
-411
-304
431
57
25
-435
-520
509
-99
-549
-82
979
0
425
14
371
-73
1960
0
-364
-180
319
-119
404
0
73
-3
-1751
78
1845
0
-409
419
-695
-408
-518
0
-122
-129
269
-310
-585
0
29
129
358
-756
-104
0
-34
765
-1603
-704
-368
0
184
705
-233
-773
309
0
-328
25
-492
-198
117
0
-1735
1604
-123
-95
-1744
0
-303
243
361
172
-649
0
-269
211
25
67
-165
0
-56
-88
1187
-1064
701
0
-386
88
43
-92
384
0
230
-409
-1323
-289
1633
0
-773
303
-1404
-1004
194
-555
172
221
1296
-111
163
0
184
-37
43
-36
682
0
215
410
378
-301
-125
0
130
10
-337
-120
25
0
73
-35
-114
-16
42
9
121
63
-195
-294
-101
0
635
46
-1901
-867
554
0
164
-63
-2000
265
-29
0
370
-61
-1646
-267
166
87
-128
1339
-307
-560
-147
0
-624
-416
500
52
-669
320
1476
-120
922
-1481
300
1885
293
164
685
893
39
-365
112
-360
835
-668
-1217
0
-171
-128
-180
9
347
0
256
-462
-269
-536
-363
637
-26
116
261
172
70
0
-185
65
235
408
148
0
-15
64
-417
-116
-14
606
-447
52
-791
-288
-778
0
-647
26
365
73
119
-310
5
-558
1808
-814
1718
8
-439
-79
-24
-125
298
0
-285
-1286
-861
-127
-394
0
-153
-118
130
-272
-596
0
-111
-103
444
-416
-278
0
-119
122
-490
-4
-1272
29
138
-19
-1772
-76
-222
0
64
79
-58
-173
254
5
-34
25
519
112
-271
-46
251
-83
-87
133
56
-411
-304
431
57
25
-435
-520
509
-99
-549
-81
979
0
425
14
371
-73
1960
0
-364
-180
319
-119
404
0
73
-3
-1751
78
1845
0
-409
419
-695
-408
-518
0
-122
-129
269
-310
-585
0
29
129
358
-756
-104
0
-34
765
-1603
-704
-368
0
184
705
-233
-773
309
0
-328
26
-492
-197
-1500
-1804
-1735
1604
-123
-95
-1744
0
-303
243
361
172
-649
0
-270
212
25
67
-166
0
-56
-88
1187
-1064
701
0
-386
88
43
-92
384
0
230
-409
-1323
-289
1633
0
-758
297
-1376
-1597
190
-544
172
221
1297
-111
163
0
184
-37
43
-36
682
0
215
410
378
-301
-125
0
130
10
-337
-120
25
1
73
-35
-114
-16
42
9
121
63
-194
-294
-101
0
635
46
-1901
-867
554
0
164
-63
-2000
265
-29
0
370
-61
-1646
-267
166
87
-128
1339
-307
-559
-147
0
-624
-416
500
52
-669
320
1534
-120
922
-1481
300
1885
293
164
672
875
38
-365
112
-360
835
-668
-1217
0
-171
-128
-180
9
347
0
251
-453
-264
-525
-356
624
-27
116
261
172
69
0
-185
65
235
408
148
0
-15
64
-417
-116
1090
606
-438
51
-775
-282
-762
0
-634
25
358
72
117
-304
5
-547
1773
-798
1685
8
-445
-80
-24
-126
302
0
-284
-1284
-861
-128
-395
0
-157
-120
133
-272
-596
0
-111
-103
445
-415
-277
0
-119
122
-490
-4
-1272
29
141
-19
-1808
-78
-142
0
64
79
-58
-173
254
5
-35
25
509
110
-271
-46
251
-83
-87
133
57
-410
-303
431
57
25
-435
-520
509
-99
-549
-82
979
0
425
14
372
-73
1960
0
-362
-180
320
-119
404
0
73
-3
-1751
78
1845
1
-417
427
-709
-416
-528
0
-124
-132
274
-316
-597
0
30
130
358
-756
-103
0
-34
765
-1603
-704
-368
0
184
705
-232
-773
309
0
-335
26
-502
-202
121
1
-1735
1604
-123
-95
-1744
0
-303
243
361
172
-649
0
-269
211
25
67
-165
1
-57
-90
1211
-1085
716
1
-386
88
43
-92
384
0
230
-409
-1322
-289
1633
0
-773
303
-1403
-1004
194
-554
173
221
1296
-111
163
0
184
-36
43
-36
682
0
215
410
378
-300
-125
0
130
10
-336
-120
26
0
73
-35
-113
-16
42
9
121
63
-195
-293
-101
1
635
47
-1901
-867
555
0
164
-63
-2000
265
-28
0
370
-61
-1646
-267
167
88
-131
1367
-313
-571
-150
0
-636
-424
510
53
-682
326
1476
-120
922
-1481
301
1885
294
164
672
875
38
-364
112
-360
835
-668
-1217
0
-174
-131
-184
9
356
0
261
-471
-272
-547
-370
650
-26
116
261
172
70
0
-183
66
235
409
148
0
-14
64
-416
-116
-14
606
-456
53
-807
-294
-793
1
-659
27
372
74
121
-316
5
-568
1844
-829
1752
8
-438
-79
-24
-125
298
0
-284
-1284
-861
-128
-395
0
-156
-120
133
-278
-608
0
-111
-103
444
-415
-277
0
-119
122
-490
-4
-1272
29
141
-19
-1808
-79
-142
-1
65
79
-58
-173
254
5
-34
25
509
110
-271
-46
251
-83
-87
133
56
-411
-303
431
57
25
-434
-519
509
-99
-549
-82
979
0
425
14
371
-73
1960
0
-364
-180
320
-119
404
0
73
-3
-1751
78
1845
0
-409
419
-695
-408
-518
0
-122
-129
269
-310
-584
0
29
129
358
-756
-104
1
-34
765
-1603
-704
-368
0
184
706
-233
-773
309
0
-328
26
-492
-198
117
1
-1735
1604
-123
-95
-1744
1
-303
243
361
172
-649
0
-269
211
25
67
-165
0
-56
-88
1187
-1063
701
1
-386
88
43
-92
384
1
230
-409
-1322
-289
1634
0
-773
303
-1404
-1004
194
-555
172
221
1296
-111
163
0
184
-36
43
-36
682
0
215
411
378
-300
-124
1
130
11
-337
-120
25
0
74
-35
-114
-16
42
9
121
63
-195
-294
-101
0
635
46
-1901
-867
554
0
164
-63
-2000
266
-29
0
370
-61
-1646
-267
166
88
-127
1339
-306
-560
-147
0
-624
-424
501
52
-668
320
1476
-120
922
-1481
300
1885
293
164
672
875
38
-365
113
-360
835
-668
-1217
0
-171
-128
-179
9
347
0
256
-461
-269
-536
-363
637
-28
118
266
175
70
0
-185
65
235
408
148
0
-15
64
-417
-116
-14
606
-447
52
-790
-288
-778
0
-647
26
365
74
119
-310
5
-558
1808
-814
1718
9
-439
-79
-24
-125
298
0
-284
-1280
-857
-127
-393
0
-157
-120
133
-278
-608
0
-111
-103
444
-416
-278
0
-119
122
-490
-4
-1272
29
139
-19
-1787
-77
-140
0
64
79
-58
-173
254
5
-35
25
509
110
-271
-46
251
-83
-87
133
56
-411
-304
431
57
25
-435
-520
509
-99
-549
-82
979
0
425
14
371
-73
1960
0
-364
-180
319
-119
404
0
73
-3
-1751
78
1845
0
-409
419
-695
-408
-518
0
-122
-129
269
-310
-585
0
29
129
358
-756
-104
0
-34
765
-1602
-704
-368
0
184
705
-233
-773
309
0
-328
25
-492
-198
117
0
-1735
1604
-123
-95
-1744
0
-303
243
361
172
-649
0
-269
211
25
67
-165
0
-56
-88
1187
-1064
701
0
-386
88
43
-92
384
0
230
-409
-1323
-289
1633
0
-773
303
-1404
-1004
194
-555
172
221
1296
-111
163
0
184
-37
43
-36
682
0
215
410
378
-301
-125
0
130
10
-336
-119
25
0
73
-35
-114
-16
42
9
121
63
-195
-295
-101
0
635
46
-1901
-867
554
0
164
-63
-2000
265
-29
0
370
-61
-1646
-267
166
87
-128
1339
-307
-560
-147
0
-624
-416
500
52
-669
320
1476
-120
922
-1481
300
1885
293
164
672
875
38
-365
112
-360
835
-668
-1217
0
-171
-128
-180
9
347
0
256
-462
-269
-536
-363
637
-26
116
261
172
70
0
-185
65
235
408
148
0
-15
64
-417
-116
-14
606
-447
52
-791
-288
-778
0
-647
26
367
74
119
-310
5
-558
1808
-814
1718
8
-439
-79
-24
-125
298
0
-284
-1284
-861
-128
-395
0
-157
-120
133
-278
-608
0
-111
-103
444
-416
-278
0
-119
122
-490
-4
-1272
29
141
-19
-1808
-78
-142
0
64
79
-58
-173
254
5
-35
25
509
110
-271
-46
251
-83
-87
133
56
-411
-304
431
57
25
-435
-520
509
-99
-549
-82
979
0
425
14
371
-73
1960
0
-364
-180
319
-119
404
0
73
-3
-1751
78
1845
0
-409
419
-695
-408
-518
0
-122
-129
269
-310
-585
0
29
129
358
-756
-104
0
-34
765
-1603
-704
-368
0
184
705
-233
-773
309
0
-328
25
-492
-198
117
0
-1735
1604
-123
-95
-1744
0
-303
243
361
172
-649
0
-269
211
25
67
-165
0
-56
-88
1187
-1064
701
0
-386
88
43
-92
384
0
230
-409
-1323
-289
1633
0
-773
303
-1404
-1004
194
-555
172
221
1296
-111
163
0
184
-37
43
-36
682
0
215
410
378
-301
-125
0
130
10
-337
-120
25
0
73
-35
-114
-16
42
9
121
63
-195
-294
-101
0
635
46
-1901
-867
554
0
164
-63
-2000
265
-29
0
370
-61
-1646
-267
166
87
-128
1339
-307
-560
-147
0
-624
-416
500
52
-669
320
1476
-120
922
-1481
300
1885
293
164
672
875
38
-365
112
-360
835
-668
-1217
0
-171
-128
-180
9
347
0
256
-462
-269
-536
-363
637
-26
116
261
172
70
0
-185
65
235
408
148
0
-15
64
-417
-115
-14
606
-447
52
-791
-288
-778
0
-647
26
365
73
119
-310
5
-558
1809
-814
1718
8
-439
-79
-24
-125
298
0
-279
-1260
-844
-125
-387
0
-157
-120
133
-278
-608
0
-111
-103
444
-415
-278
0
-119
122
-490
-4
-1272
29
141
-19
-1808
-77
-142
0
64
79
-58
-173
254
5
-33
25
559
120
-274
-46
252
-84
-88
134
57
-415
-304
431
57
25
-435
-520
509
-99
-549
-82
979
0
425
14
371
-73
1960
0
-364
-180
319
-119
404
0
73
-3
-1751
78
1845
0
-409
419
-695
-408
-518
0
-122
-129
269
-310
-585
0
29
129
358
-755
-104
0
-34
765
-1603
-704
-368
0
184
705
-233
-773
309
0
-328
26
-492
-198
117
0
-1735
1604
-123
-95
-1744
0
-303
243
361
172
-649
0
-269
211
25
67
-165
0
-56
-88
1187
-1064
701
0
-386
88
43
-92
384
0
230
-409
-1323
-289
1633
0
-772
303
-1404
-1004
195
-554
172
221
1297
-111
164
0
184
-37
43
-36
682
0
215
410
378
-301
-125
0
130
10
-336
-120
25
0
73
-35
-114
-16
42
9
121
63
-195
-294
-101
0
635
46
-1901
-867
554
1
164
-63
-2000
265
-29
0
370
-61
-1646
-267
166
87
-128
1339
-307
-560
-146
1
-623
-416
500
53
-669
320
1534
-120
922
-1481
300
1885
293
164
672
875
38
-365
112
-360
835
-668
-1217
0
-172
-129
-181
9
348
0
251
-453
-264
-525
-356
624
-25
115
259
171
70
0
-185
65
235
408
148
0
-15
64
-417
-116
-14
606
-447
53
-791
-288
-778
0
-647
26
366
74
119
-310
5
-558
1808
-814
1718
9
-445
-80
-23
-127
302
1
-284
-1284
-861
-128
-395
0
-154
-118
130
-267
-584
0
-111
-103
444
-416
-278
0
-119
122
-490
-4
-1272
29
141
-19
-1808
-78
-142
0
63
77
-57
-170
249
5
-35
25
509
110
-271
-46
251
-83
-87
133
56
-411
-304
431
57
25
-435
-520
509
-99
-549
-82
979
0
425
14
371
-73
1960
0
-364
-180
319
-119
404
0
73
-3
-1751
78
1845
0
-401
411
-681
-400
-508
0
-122
-129
269
-310
-585
0
28
126
351
-741
-102
0
-34
765
-1603
-704
-368
0
184
705
-233
-773
309
0
-321
25
-482
-194
115
0
-1735
1604
-123
-95
-1744
0
-303
243
361
172
-649
0
-269
211
25
67
-165
0
-56
-88
1187
-1064
701
0
-386
88
43
-92
384
0
230
-409
-1323
-289
1633
0
-773
303
-1404
-1004
194
-555
172
221
1296
-111
163
0
184
-37
43
-36
682
0
215
410
378
-300
-125
0
130
10
-337
-120
25
0
73
-35
-114
-16
42
9
121
63
-195
-294
-101
0
622
45
-1863
-850
543
0
164
-63
-2000
265
-29
0
370
-61
-1646
-267
166
87
-128
1339
-307
-560
-147
0
-612
-408
490
51
-656
314
1476
-120
922
-1481
300
1885
293
164
672
875
38
-365
112
-360
835
-668
-1217
0
-171
-128
-180
9
347
0
256
-462
-269
-536
-363
637
-26
116
261
172
70
0
-185
65
235
408
148
0
-15
64
-417
-116
-14
606
-447
52
-791
-288
-778
0
-634
25
358
72
117
-304
5
-547
1772
-798
1684
8
-430
-78
-23
-122
292
0
-284
-1284
-861
-128
-395
0
-157
-120
133
-272
-596
0
-111
-103
444
-416
-278
0
-119
122
-490
-4
-1272
29
138
-18
-1808
-78
-142
0
64
79
-58
-173
254
5
-35
25
509
110
-271
-46
251
-83
-87
133
56
-411
-304
431
57
25
-435
-520
509
-99
-549
-82
979
0
425
14
371
-73
1960
0
-364
-180
319
-119
404
0
73
-3
-1751
78
1845
0
-409
419
-695
-408
-518
0
-122
-129
269
-310
-585
0
29
129
358
-756
-104
0
-34
765
-1603
-704
-368
0
184
705
-233
-773
309
0
-328
25
-492
-198
117
0
-1735
1604
-123
-95
-1744
0
-303
243
361
172
-649
0
-269
211
25
67
-165
0
-56
-88
1187
-1064
701
0
-386
88
43
-92
384
0
230
-409
-1323
-289
1633
0
-773
303
-1404
-1004
194
-555
172
221
1296
-111
163
0
184
-37
43
-36
683
0
215
410
378
-300
-125
0
130
10
-337
-120
25
0
73
-35
-114
-16
42
9
121
63
-195
-294
-101
0
635
46
-1901
-867
554
0
164
-63
-2000
265
-29
0
370
-61
-1646
-267
166
87
-128
1339
-307
-560
-147
0
-624
-416
500
52
-669
320
1476
-120
922
-1481
300
1885
293
164
672
875
38
-365
112
-360
835
-668
-1217
0
-171
-128
-180
9
347
0
256
-462
-269
-536
-363
637
-26
116
261
172
70
0
-185
65
235
408
148
0
-15
64
-417
-116
-14
606
-447
52
-791
-288
-778
0
-647
26
365
73
119
-310
5
-558
1808
-814
1718
8
-439
-79
-24
-125
298
0
-279
-1260
-844
-124
-387
0
-156
-120
133
-277
-608
1
-110
-103
444
-415
-278
0
-119
122
-490
-4
-1272
29
141
-19
-1808
-77
-142
0
64
79
-58
-173
254
5
-34
25
544
117
-273
-46
253
-84
-87
134
57
-415
-304
432
57
25
-435
-520
509
-99
-549
-82
979
0
425
14
371
-73
1961
0
-364
-180
319
-119
404
0
73
-3
-1751
78
1845
0
-408
419
-695
-407
-518
0
-122
-129
269
-310
-585
0
29
129
358
-755
-104
1
-34
765
-1603
-704
-368
0
184
705
-232
-773
309
0
-328
26
-492
-198
117
0
-1735
1604
-123
-95
-1744
0
-303
243
361
172
-649
0
-269
211
25
67
-165
0
-56
-88
1187
-1064
701
0
-386
88
43
-92
384
0
230
-409
-1323
-289
1633
0
-772
303
-1404
-1004
195
-554
172
221
1297
-111
164
0
184
-37
43
-36
682
0
215
410
378
-301
-124
0
130
10
-336
-120
25
0
73
-35
-114
-16
42
9
121
63
-195
-294
-101
0
635
46
-1901
-867
554
1
164
-63
-2000
265
-29
0
370
-61
-1646
-267
166
87
-128
1339
-307
-560
-146
1
-623
-416
500
53
-669
320
1534
-120
922
-1481
300
1885
293
164
672
875
38
-365
112
-360
835
-668
-1217
0
-172
-129
-180
9
348
0
251
-452
-264
-525
-356
624
-25
115
259
171
70
0
-185
65
235
408
149
0
-15
64
-417
-116
-14
606
-446
53
-791
-288
-778
0
-647
27
366
74
119
-310
5
-558
1809
-814
1718
9
-445
-79
-22
-127
302
1
-284
-1284
-861
-128
-395
0
-157
-120
133
-278
-608
0
-111
-103
444
-416
-278
0
-119
122
-490
-4
-1272
29
139
-19
-1787
-77
-140
0
64
79
-58
-173
254
5
-35
25
509
110
-271
-46
251
-83
-87
133
56
-411
-304
431
57
25
-435
-520
509
-99
-549
-82
979
0
425
14
371
-73
1960
0
-364
-180
319
-119
404
0
73
-3
-1751
78
1845
0
-409
419
-695
-408
-518
0
-122
-129
269
-310
-585
0
29
129
358
-756
-104
0
-34
765
-1602
-704
-368
0
184
705
-233
-773
309
0
-328
25
-492
-198
117
0
-1735
1604
-123
-95
-1744
0
-303
243
361
172
-649
0
-269
211
25
67
-165
0
-56
-88
1187
-1064
701
0
-386
88
43
-92
384
0
230
-409
-1323
-289
1633
0
-773
303
-1404
-1004
194
-555
172
221
1296
-111
163
0
184
-37
43
-36
682
0
215
410
378
-301
-125
0
130
10
-336
-119
25
0
73
-35
-114
-16
42
9
121
63
-195
-294
-101
0
635
46
-1901
-867
554
0
164
-63
-2000
265
-29
0
370
-61
-1646
-267
166
87
-128
1339
-307
-560
-147
0
-624
-416
500
52
-669
320
1476
-120
922
-1481
300
1885
293
164
672
875
38
-365
112
-360
835
-668
-1217
0
-171
-128
-180
9
347
0
256
-462
-269
-536
-363
637
-26
116
261
172
70
0
-185
65
235
408
148
0
-15
64
-417
-116
-14
606
-447
52
-791
-288
-778
0
-647
26
367
74
119
-310
5
-558
1808
-814
1718
8
-439
-79
-24
-125
298
0
-284
-1283
-861
-128
-394
0
-157
-120
134
-278
-608
0
-111
-103
445
-416
-278
0
-119
122
-489
-4
-1272
29
141
-19
-1808
-78
-142
0
64
79
-57
-173
254
5
-35
25
509
110
-271
-46
251
-82
-87
133
57
-411
-304
432
57
25
-435
-520
509
-99
-549
-82
979
0
425
14
371
-73
1960
0
-364
-180
319
-118
404
0
73
-3
-1751
78
1845
0
-409
419
-695
-408
-518
1
-122
-128
269
-310
-585
0
29
129
358
-756
-104
0
-34
765
-1603
-704
-368
0
184
705
-233
-773
310
1
-328
26
-492
-198
118
0
-1735
1604
-122
-95
-1744
0
-303
243
362
172
-649
0
-269
211
25
67
-165
0
-56
-88
1187
-1064
701
0
-386
88
43
-92
384
0
230
-409
-1323
-289
1633
0
-773
303
-1403
-1004
195
-555
172
221
1296
-110
164
0
184
-37
43
-36
682
0
215
410
378
-301
-125
0
130
10
-337
-119
25
0
73
-35
-114
-16
42
9
121
64
-195
-294
-101
0
635
46
-1900
-867
554
1
164
-63
-2000
266
-29
0
370
-61
-1645
-267
166
87
-128
1340
-307
-560
-147
1
-624
-416
500
52
-669
320
1476
-120
922
-1481
300
1885
293
165
672
875
38
-365
112
-360
835
-667
-1217
0
-171
-128
-180
9
348
0
256
-462
-269
-535
-363
638
-26
116
261
172
70
0
-185
65
235
408
148
0
-15
64
-417
-116
-14
606
-447
52
-791
-288
-778
0
-647
26
366
73
120
-310
5
-558
1808
-814
1718
8
-439
-79
-24
-125
299
0
-285
-1286
-861
-127
-395
1
-153
-118
131
-271
-596
0
-113
-105
455
-425
-286
-1
-119
122
-490
-4
-1272
29
138
-18
-1772
-76
-138
0
65
79
-58
-173
255
5
-35
26
520
112
-271
-46
256
-85
-89
136
57
-419
-303
431
57
25
-435
-519
510
-99
-549
-82
979
0
425
14
372
-73
1960
0
-371
-184
325
-121
412
0
74
-3
-1751
78
1845
0
-417
427
-709
-415
-528
1
-122
-129
269
-310
-585
0
30
129
358
-756
-103
0
-34
765
-1603
-704
-367
0
184
705
-233
-773
309
0
-328
26
-492
-196
117
0
-1735
1604
-123
-95
-1743
0
-303
243
361
172
-648
0
-264
207
26
66
-162
1
-57
-90
1211
-1085
715
0
-394
90
44
-94
392
0
230
-409
-1323
-289
1632
1
-758
297
-1404
-1004
195
-544
172
221
1296
-111
163
0
184
-37
43
-36
682
0
215
410
378
-300
-125
0
130
10
-335
-120
26
0
73
-35
-114
-16
42
10
121
64
-195
-294
-100
0
635
46
-1901
-867
554
0
167
-64
-1999
270
-29
0
370
-60
-1646
-267
167
88
-131
1366
-313
-571
-150
0
-624
-415
500
52
-668
320
1534
-120
922
-1481
300
1886
293
164
672
875
38
-365
112
-360
836
-668
-1217
0
-173
-131
-184
10
354
0
251
-453
-264
-525
-356
624
-27
116
261
172
69
1
-185
65
235
408
148
0
-14
65
-417
-116
-14
606
-447
52
-790
-287
-777
0
-634
25
358
72
117
-304
5
-546
1772
-798
1685
8
-444
-80
-24
-126
303
1
-285
-1286
-861
-128
-395
0
-154
-118
815
-272
-596
0
-111
-103
444
-416
-278
0
-119
122
-490
-4
-1272
29
138
-19
-1808
-78
-142
0
64
79
-58
-173
254
6
-35
25
509
111
-270
-46
252
-84
-88
134
57
-415
-304
431
57
25
-435
-519
509
-99
-549
-82
979
0
425
14
371
-73
1960
0
-364
-180
319
-119
404
0
73
-3
-1751
78
1845
0
-401
411
-681
-400
-508
0
244
-129
269
-310
-585
0
30
129
358
-756
-104
0
-34
765
-1603
-704
-368
0
184
705
-233
-773
309
0
-328
25
-492
-198
117
0
-1735
1604
-122
-95
-1744
0
-303
243
362
173
-650
0
-269
211
25
67
-165
1
-56
-88
1188
-1064
701
0
-386
88
43
-92
384
0
230
-409
-1323
-289
1633
0
-758
297
-1403
-1004
190
-544
172
221
1296
-111
163
1
184
-36
44
-36
682
0
215
410
378
-301
-125
0
130
10
-344
-122
25
0
72
-34
-112
-16
41
9
121
63
-195
-294
-101
0
635
46
-1901
-867
555
0
164
-63
-2000
265
-29
0
371
-61
-1646
-267
166
87
-128
1339
-307
-560
-147
0
-624
-416
501
52
-669
320
1534
-120
923
-1481
300
1885
293
164
672
875
39
-365
112
-360
835
-668
-1217
0
-171
-128
-180
9
348
0
256
-462
-269
-536
-363
637
-28
118
266
175
71
0
-185
65
235
408
148
0
-14
63
-409
-114
-14
594
-447
52
-791
-288
-779
0
-647
26
366
73
119
-310
5
-558
1808
-814
1718
8
-444
-80
-24
-127
302
0
-284
-1284
-861
-128
-395
0
-157
-120
133
-278
-608
0
-111
-103
444
-416
-278
0
-119
122
-490
-4
-1271
29
141
-19
-1808
-78
-141
0
64
79
-58
-173
254
5
-35
25
509
110
-270
-46
251
-83
-86
133
56
-411
-303
432
57
25
-435
-520
509
-98
-549
-82
979
1
425
14
371
-73
1960
0
-364
-180
320
-119
404
0
73
-3
-1751
78
1845
0
-409
419
-695
-408
-518
0
-121
-129
269
-310
-585
0
29
129
359
-756
-104
0
-34
765
-1603
-704
-367
0
184
706
-233
-773
309
0
-328
25
-492
-198
117
0
-1735
1604
-123
-95
-1744
0
-303
243
361
172
-649
0
-269
211
25
67
-165
0
-55
-88
1187
-1064
701
0
-386
88
43
-92
384
0
230
-409
-1323
-289
1633
0
-773
304
-1404
-1004
194
-555
172
221
1296
-111
163
0
184
-37
43
-36
682
0
215
411
378
-301
-125
0
131
11
-337
-120
25
0
73
-35
-114
-15
42
9
121
63
-195
-294
-100
1
635
47
-1901
-867
554
0
164
-63
-1999
265
-29
1
370
-61
-1646
-267
166
87
-128
1339
-307
-560
-147
0
-624
-416
500
52
-669
320
1476
-120
922
-1481
300
1885
293
164
672
875
38
-365
112
-360
835
-668
-1216
0
-171
-128
-180
9
347
1
256
-462
-269
-536
-363
638
-27
118
266
175
70
1
-185
65
235
408
149
0
-15
64
-417
-116
-14
606
-447
52
-791
-288
-778
0
-647
26
365
73
119
-310
5
-558
1808
-814
1718
8
-439
-78
-24
-125
298
1
-284
-1284
-861
-128
-395
0
-157
-120
133
-278
-608
0
-111
-103
444
-416
-278
0
-119
122
-490
-4
-1272
29
141
-19
-1808
-78
-142
0
64
79
-58
-173
254
5
-35
25
509
110
-271
-46
251
-83
-87
133
56
-411
-304
431
57
25
-435
-520
509
-99
-549
-82
979
0
425
14
371
-73
1960
0
-364
-180
319
-119
404
0
73
-3
-1751
78
1845
0
-409
419
-695
-408
-518
0
-122
-129
269
-310
-585
0
29
129
358
-756
-104
0
-34
765
-1603
-704
-368
0
184
705
-233
-773
309
0
-328
25
-492
-198
117
0
-1735
1604
-123
-95
-1744
0
-303
243
361
172
-649
0
-269
211
25
67
-165
0
-56
-88
1187
-1064
701
0
-386
88
43
-92
384
0
230
-409
-1323
-289
1633
0
-773
303
-1404
-1004
194
-555
172
221
1296
-111
163
0
184
-37
43
-36
682
0
215
410
378
-301
-125
0
130
10
-337
-120
25
0
73
-35
-114
-16
42
9
121
63
-195
-294
-101
0
635
46
-1901
-867
554
0
164
-63
-2000
265
-29
0
370
-61
-1646
-267
166
87
-128
1339
-307
-560
-147
0
-624
-416
500
52
-669
320
1476
-120
922
-1481
300
1885
293
164
672
875
38
-365
112
-360
835
-668
-1217
0
-171
-128
-180
9
347
0
256
-462
-269
-536
-363
637
-28
118
266
175
70
0
-185
65
235
408
148
0
-15
64
-417
-116
-14
606
-447
52
-791
-288
-778
0
-647
26
365
73
119
-310
5
-558
1808
-814
1718
8
-439
-79
-24
-125
298
0
-284
-1284
-861
-128
-395
0
-157
-120
133
-278
-608
0
-111
-103
444
-416
-278
0
-119
122
-490
-4
-1272
29
141
-19
-1808
-78
-142
0
64
79
-58
-173
254
5
-35
25
509
110
-271
-46
251
-83
-87
133
56
-411
-304
431
57
25
-435
-520
509
-99
-549
-82
979
0
425
14
371
-73
1960
0
-364
-180
319
-119
404
0
73
-3
-1751
78
1845
0
-409
419
-695
-408
-518
0
-122
-129
269
-310
-585
0
29
129
358
-756
-104
0
-34
765
-1603
-704
-368
0
184
705
-233
-773
309
0
-328
25
-492
-198
117
0
-1735
1604
-123
-95
-1744
0
-303
243
361
172
-649
0
-269
211
25
67
-165
0
-56
-88
1187
-1064
701
0
-386
88
43
-92
384
0
230
-409
-1323
-289
1633
0
-773
303
-1404
-1004
194
-555
172
221
1296
-111
163
0
184
-37
43
-36
682
0
215
410
378
-301
-125
0
130
10
-337
-120
25
0
73
-35
-114
-16
42
9
121
63
-195
-294
-101
0
635
46
-1901
-867
554
0
164
-63
-2000
265
-29
0
370
-61
-1646
-267
166
87
-128
1339
-307
-560
-147
0
-624
-416
500
52
-669
320
1476
-120
922
-1481
300
1885
293
164
672
875
38
-365
112
-360
835
-668
-1217
0
-171
-128
-180
9
347
0
256
-462
-269
-536
-363
637
-27
118
266
175
70
0
-185
65
235
408
148
0
-15
64
-417
-116
-14
606
-447
52
-791
-288
-778
0
-647
26
365
73
119
-310
5
-558
1808
-814
1718
8
-439
-79
-24
-125
298
0
-284
-1284
-861
-128
-395
0
-157
-120
133
-278
-608
0
-111
-103
444
-416
-278
0
-119
122
-490
-4
-1272
29
141
-19
-1808
-78
-142
0
64
79
-58
-173
254
5
-35
25
509
110
-271
-46
251
-83
-87
133
56
-411
-304
431
57
25
-435
-520
509
-99
-549
-82
979
0
425
14
371
-73
1960
0
-364
-180
319
-119
404
0
73
-3
-1751
78
1845
0
-409
419
-695
-408
-518
0
-122
-129
269
-310
-585
0
29
129
358
-756
-104
0
-34
765
-1603
-704
-368
0
184
705
-233
-773
309
0
-328
25
-492
-198
117
0
-1735
1604
-123
-95
-1744
0
-303
243
361
172
-649
0
-269
211
25
67
-165
0
-56
-88
1187
-1064
701
0
-386
88
43
-92
384
0
230
-409
-1323
-289
1633
0
-773
303
-1404
-1004
194
-555
172
221
1296
-111
163
0
184
-37
43
-36
682
0
215
410
378
-301
-125
0
130
10
-337
-120
25
0
73
-35
-114
-16
42
9
121
63
-195
-294
-101
0
635
46
-1901
-867
554
0
164
-63
-2000
265
-29
0
370
-61
-1646
-267
166
87
-128
1339
-307
-560
-147
0
-624
-416
500
52
-669
320
1476
-120
922
-1481
300
1885
293
164
672
875
38
-365
112
-360
835
-668
-1217
0
-171
-128
-180
9
347
0
256
-462
-269
-536
-363
637
-28
118
259
171
70
0
-185
65
235
408
148
0
-15
64
-417
-116
-14
606
-447
52
-791
-288
-778
0
-647
26
365
73
119
-310
5
-568
1839
-828
1748
8
-439
-79
-24
-125
298
0
-284
-1284
-861
-128
-395
0
-157
-119
134
-278
-608
0
-111
-103
444
-416
-278
0
-119
122
-490
-4
-1272
29
139
-18
-1787
-77
-140
0
64
79
-58
-173
254
5
-35
25
509
110
-271
-46
251
-82
-87
133
56
-410
-304
431
58
25
-435
-520
509
-99
-549
-82
979
0
425
14
371
-73
1960
0
-364
-180
319
-119
404
0
73
-3
-1751
78
1846
0
-409
419
-695
-408
-518
1
-122
-129
269
-310
-585
0
29
129
358
-756
-104
0
-34
765
-1602
-704
-368
1
184
705
-233
-773
309
0
-328
25
-492
-198
117
0
-1734
1604
-123
-95
-1744
0
-303
243
361
172
-649
0
-269
211
26
68
-165
0
-55
-88
1187
-1064
701
0
-386
88
43
-92
384
0
230
-409
-1323
-288
1633
0
-773
303
-1404
-1004
195
-555
172
221
1296
-111
163
0
184
-37
44
-36
682
0
216
410
378
-300
-125
0
130
10
-336
-119
25
0
73
-35
-114
-16
42
9
121
63
-195
-294
-101
0
636
46
-1901
-867
554
0
164
-63
-2000
265
-29
0
371
-61
-1646
-267
166
87
-128
1339
-307
-560
-146
0
-624
-415
500
52
-669
320
1476
-120
922
-1481
300
1885
293
164
672
875
38
-365
113
-360
835
-668
-1217
0
-171
-128
-180
9
348
1
257
-462
-269
-536
-363
637
-26
116
261
172
70
0
-185
65
235
408
148
0
-15
64
-417
-115
-14
606
-446
52
-791
-288
-778
1
-647
26
367
74
119
-310
6
-558
1808
-814
1718
8
-439
-79
-24
-125
298
1
-284
-1284
-861
-128
-395
0
-157
-120
133
-278
-608
0
-111
-103
444
-416
-278
0
-119
122
-490
-4
-1272
29
141
-19
-1808
-78
-142
0
64
79
-58
-173
254
5
-35
25
509
110
-271
-46
251
-83
-87
133
56
-411
-304
431
57
25
-435
-520
509
-99
-549
-82
979
0
425
14
371
-73
1960
0
-364
-180
319
-119
404
0
73
-3
-1751
78
1845
0
-409
419
-695
-408
-518
0
-122
-129
269
-310
-585
0
29
129
358
-756
-104
0
-34
765
-1603
-704
-368
0
184
705
-233
-773
309
0
-328
25
-492
-198
117
0
-1735
1604
-123
-95
-1744
0
-303
243
361
172
-649
0
-269
211
25
67
-165
0
-56
-88
1187
-1064
701
0
-386
88
43
-92
384
0
230
-409
-1323
-289
1633
0
-773
303
-1404
-1004
194
-555
172
221
1296
-111
163
0
184
-37
43
-36
682
0
215
410
378
-301
-125
0
130
10
-337
-120
25
0
73
-35
-114
-16
42
9
121
63
-195
-294
-101
0
635
46
-1901
-867
554
0
164
-63
-2000
265
-29
0
370
-61
-1646
-267
166
87
-128
1339
-307
-560
-147
0
-624
-416
500
52
-669
320
1476
-120
922
-1481
300
1885
293
164
672
875
38
-365
112
-360
835
-668
-1217
0
-171
-128
-180
9
347
0
256
-462
-269
-536
-363
637
-28
118
266
175
70
0
-185
65
235
408
148
0
-15
64
-417
-116
-14
606
-447
52
-791
-288
-778
0
-647
26
365
73
119
-310
5
-558
1808
-814
1718
8
-439
-79
-24
-125
298
0
-284
-1284
-861
-128
-395
0
-157
-120
133
-278
-608
0
-111
-103
444
-416
-278
0
-119
122
-490
-4
-1272
29
141
-19
-1808
-78
-142
0
64
79
-58
-173
254
5
-35
25
509
110
-271
-46
251
-83
-87
133
56
-411
-304
431
57
25
-435
-520
509
-99
-549
-82
979
0
425
14
371
-73
1960
0
-364
-180
319
-119
404
0
73
-3
-1751
78
1845
0
-409
419
-695
-408
-518
0
-122
-129
269
-310
-585
0
29
129
358
-756
-104
0
-34
765
-1603
-704
-368
0
184
705
-233
-773
309
0
-328
25
-492
-198
117
0
-1735
1604
-123
-95
-1744
0
-303
243
361
172
-649
0
-269
211
25
67
-165
0
-56
-88
1187
-1064
701
0
-386
88
43
-92
384
0
230
-409
-1323
-289
1633
0
-773
303
-1404
-1004
194
-555
172
221
1296
-111
163
0
184
-37
43
-36
682
0
215
410
378
-301
-125
0
130
10
-337
-120
25
0
73
-35
-114
-16
42
9
121
63
-195
-294
-101
0
635
46
-1901
-867
554
0
164
-63
-2000
265
-29
0
370
-61
-1646
-267
166
87
-128
1339
-307
-560
-147
0
-624
-416
500
52
-669
320
1476
-120
922
-1481
300
1885
293
164
672
875
38
-365
112
-360
835
-668
-1217
0
-171
-128
-180
9
347
0
256
-462
-269
-536
-363
637
-28
118
259
171
70
0
-185
65
235
408
148
0
-15
64
-417
-116
-14
606
-447
52
-791
-288
-778
0
-647
26
365
73
119
-310
5
-568
1839
-828
1748
8
-439
-79
-24
-125
298
0
-284
-1284
-861
-128
-395
0
-157
-120
133
-272
-596
0
-111
-103
444
-416
-278
0
-119
122
-490
-4
-1272
29
138
-18
-1808
-78
-142
0
64
79
-58
-173
254
5
-35
25
509
110
-271
-46
251
-83
-87
133
56
-411
-304
431
57
25
-435
-520
509
-99
-549
-82
979
0
425
14
371
-73
1960
0
-364
-180
319
-119
404
0
73
-3
-1751
78
1845
0
-409
419
-695
-408
-518
0
-122
-129
269
-310
-585
0
29
129
358
-756
-104
0
-34
765
-1603
-704
-368
0
184
705
-233
-773
309
0
-328
25
-492
-198
117
0
-1735
1604
-123
-95
-1744
0
-303
243
361
172
-649
0
-269
211
25
67
-165
0
-56
-88
1187
-1064
701
0
-386
88
43
-92
384
0
230
-409
-1323
-289
1633
0
-773
303
-1404
-1004
194
-555
172
221
1296
-111
163
0
184
-37
43
-36
683
0
215
410
378
-300
-125
0
130
10
-337
-120
25
0
73
-35
-114
-16
42
9
121
63
-195
-294
-101
0
635
46
-1901
-867
554
0
164
-63
-2000
265
-29
0
370
-61
-1646
-267
166
87
-128
1339
-307
-560
-147
0
-624
-416
500
52
-669
320
1476
-120
922
-1481
300
1885
293
164
672
875
38
-365
112
-360
835
-668
-1217
0
-171
-128
-180
9
347
0
256
-462
-269
-536
-363
637
-26
116
261
172
70
0
-185
65
235
408
148
0
-15
64
-417
-116
-14
606
-447
52
-791
-288
-778
0
-647
26
365
73
119
-310
5
-558
1808
-814
1718
8
-439
-79
-24
-125
298
0
-284
-1284
-861
-128
-395
0
-157
-120
133
-278
-608
0
-111
-103
444
-416
-278
0
-119
122
-490
-4
-1272
29
141
-19
-1808
-78
-142
0
64
79
-58
-173
254
5
-35
25
509
110
-271
-46
251
-83
-87
133
56
-411
-304
431
57
25
-435
-520
509
-99
-549
-82
979
0
425
14
371
-73
1960
0
-364
-180
319
-119
404
0
73
-3
-1751
78
1845
0
-409
419
-695
-408
-518
0
-122
-129
269
-310
-585
0
29
129
358
-756
-104
0
-34
765
-1603
-704
-368
0
184
705
-233
-773
309
0
-328
25
-492
-198
117
0
-1735
1604
-123
-95
-1744
0
-303
243
361
172
-649
0
-269
211
25
67
-165
0
-56
-88
1187
-1064
701
0
-386
88
43
-92
384
0
230
-409
-1323
-289
1633
0
-773
303
-1404
-1004
194
-555
172
221
1296
-111
163
0
184
-37
43
-36
682
0
215
410
378
-301
-125
0
130
10
-337
-120
25
0
73
-35
-114
-16
42
9
121
63
-195
-294
-101
0
635
46
-1901
-866
554
0
164
-62
-2000
265
-29
0
370
-61
-1646
-267
166
87
-128
1339
-307
-560
-147
0
-624
-416
500
52
-669
320
1476
-120
922
-1481
300
1885
294
164
672
875
38
-365
112
-360
835
-668
-1217
0
-171
-128
-180
9
347
0
256
-462
-269
-525
-363
637
-28
118
266
175
70
0
-185
65
235
408
148
0
-15
64
-417
-116
-14
606
-447
52
-791
-288
-778
0
-647
26
365
73
119
-310
5
-558
1808
-814
1718
8
-439
-79
-24
-125
298
0
-285
-1286
-861
-128
-395
1
-154
-117
131
-272
-596
0
-111
-103
444
-416
-278
1
-119
122
-490
-4
-1272
29
138
-19
-1772
-76
-139
0
64
79
-57
-173
255
5
-35
26
520
112
-271
-46
251
-83
-87
133
56
-411
-304
432
57
25
-435
-520
509
-99
-549
-81
979
0
425
15
372
-73
1961
0
-364
-179
319
-119
404
1
73
-3
-1751
78
1846
0
-409
420
-695
-407
-518
0
-121
-128
269
-309
-585
0
29
129
358
-756
-104
0
-34
765
-1603
-702
-367
0
185
706
-233
-773
310
0
-321
25
-482
-194
117
0
-1735
1604
-123
-94
-1744
0
-303
243
362
172
-649
0
-264
207
25
66
-162
0
-56
-88
1187
-1064
702
0
-386
88
43
-92
385
0
230
-409
-1323
-289
1633
1
-756
297
-1376
-984
191
-544
172
221
1297
-110
164
0
184
-37
43
-36
683
0
215
411
378
-300
-125
0
131
10
-337
-119
25
0
73
-35
-114
-16
42
9
122
63
-194
-294
-101
0
635
46
-1901
-867
554
1
164
-63
-2000
265
-29
0
371
-61
-1646
-267
166
87
-127
1339
-306
-560
-147
0
-623
-416
501
52
-669
320
1534
-120
923
-1481
300
1885
293
164
672
875
38
-364
112
-360
835
-668
-1217
0
-171
-128
-179
9
347
0
251
-453
-264
-525
-356
624
-27
116
261
172
69
1
-185
65
235
408
148
0
-14
64
-417
-116
-14
606
-438
51
-775
-282
-762
0
-634
25
359
72
117
-304
6
-547
1772
-798
1684
9
-444
-80
-24
-126
302
0
-279
-1260
-844
-125
-387
0
-157
-120
133
-277
-608
0
-111
-103
444
-415
-278
0
-118
122
-490
-3
-1271
29
141
-19
-1808
-77
-142
0
64
79
-58
-173
254
5
-34
25
544
117
-273
-46
252
-84
-88
134
57
-415
-304
431
57
25
-435
-519
509
-99
-549
-82
979
0
425
14
371
-73
1960
0
-364
-180
319
-119
404
0
73
-3
-1751
78
1845
0
-409
419
-695
-408
-518
0
-122
-129
269
-310
-584
0
29
129
358
-755
-104
0
-34
765
-1603
-704
-368
0
184
705
-233
-773
309
0
-328
26
-492
-198
117
0
-1735
1604
-123
-95
-1744
0
-303
243
361
172
-649
0
-269
211
25
67
-165
0
-56
-88
1187
-1064
701
0
-386
88
43
-92
384
0
230
-409
-1323
-289
1633
0
-772
303
-1404
-1004
195
-554
172
221
1297
-111
164
0
184
-37
43
-36
682
1
215
411
378
-301
-125
0
130
10
-335
-120
25
0
74
-35
-114
-16
43
9
121
63
-195
-294
-101
0
635
46
-1900
-867
554
2
164
-63
-2000
265
-29
0
370
-61
-1645
-267
166
87
-128
1339
-307
-560
-146
1
-623
-416
500
54
-669
321
1534
-120
923
-1481
300
1885
293
164
672
875
38
-365
113
-360
835
-668
-1217
0
-172
-128
-181
9
348
0
252
-454
-265
-527
-357
626
-25
115
259
171
70
0
-185
65
235
408
148
0
-15
64
-417
-116
-14
606
-447
54
-791
-288
-778
0
-647
26
366
74
119
-310
5
-558
1808
-814
1718
9
-445
-80
-23
-127
302
1
-284
-1283
-861
-128
-395
0
-157
-120
133
-277
-608
0
-111
-103
445
-416
-278
0
-119
122
-489
-4
-1272
30
140
-19
-1786
-77
-139
0
64
79
-57
-172
255
5
-35
25
509
110
-271
-45
252
-83
-87
133
56
-411
-304
431
57
26
-435
-520
509
-99
-549
-82
980
0
426
14
372
-73
1960
0
-363
-180
319
-119
404
0
73
-3
-1751
78
1845
0
-409
420
-695
-408
-518
0
-122
-129
269
-310
-584
1
29
129
358
-756
-103
0
-33
766
-1601
-703
-368
0
185
705
-233
-772
309
0
-327
25
-491
-198
117
2
-1735
1604
-123
-95
-1744
0
-303
243
362
172
-649
0
-269
211
25
67
-165
0
-56
-88
1187
-1064
701
0
-386
89
43
-92
384
0
230
-409
-1323
-289
1633
0
-773
303
-1404
-1004
194
-554
172
221
1296
-111
164
0
184
-37
43
-36
682
0
216
410
378
-300
-125
0
130
10
-336
-119
25
0
73
-35
-114
-16
43
9
122
63
-195
-294
-101
0
635
46
-1901
-867
554
0
165
-62
-2000
265
-29
0
370
-59
-1646
-267
166
87
-127
1339
-307
-560
-147
0
-624
-416
500
52
-668
321
1476
-120
922
-1481
300
1885
293
164
673
875
39
-365
112
-359
835
-668
-1217
1
-170
-128
-180
9
347
0
256
-462
-269
-535
-362
637
-26
116
261
172
70
0
-185
66
235
408
149
0
-15
64
-417
-116
-14
606
-447
52
-790
-287
-778
0
-647
26
367
74
121
-310
6
-557
1808
-814
1718
8
-439
-79
-24
-124
298
0
-284
-1284
-861
-128
-395
0
-157
-120
133
-278
-608
0
-111
-103
444
-416
-278
0
-119
122
-490
-4
-1272
29
139
-19
-1787
-77
-140
0
64
79
-58
-173
254
5
-35
25
509
110
-271
-46
251
-83
-87
133
56
-411
-304
431
57
25
-435
-520
509
-99
-549
-82
979
0
425
14
371
-73
1960
0
-364
-180
319
-119
404
0
73
-3
-1751
78
1845
0
-409
419
-695
-408
-518
0
-122
-129
269
-310
-585
0
29
129
358
-756
-104
0
-34
765
-1602
-704
-368
0
184
705
-233
-773
309
0
-328
25
-492
-198
117
0
-1735
1604
-123
-95
-1744
0
-303
243
361
172
-649
0
-269
211
25
67
-165
0
-56
-88
1187
-1064
701
0
-386
88
43
-92
384
0
230
-409
-1323
-289
1633
0
-773
303
-1404
-1004
194
-555
172
221
1296
-111
163
0
184
-37
43
-36
682
0
215
410
378
-301
-125
0
130
10
-336
-119
25
0
73
-35
-114
-16
42
9
121
63
-195
-294
-101
0
635
46
-1901
-867
554
0
164
-63
-2000
265
-29
0
370
-61
-1646
-267
166
87
-128
1339
-307
-560
-147
0
-624
-416
500
52
-669
320
1476
-120
922
-1481
300
1885
293
164
672
875
38
-365
112
-360
835
-668
-1217
0
-171
-128
-180
9
347
0
256
-462
-269
-536
-363
637
-26
116
261
172
70
0
-185
65
235
408
148
0
-15
64
-417
-116
-14
606
-447
52
-791
-288
-778
0
-647
26
367
74
119
-310
5
-558
1808
-814
1718
8
-439
-79
-24
-125
298
0
-284
-1284
-861
-128
-394
0
-157
-120
133
-277
-608
0
-111
-103
444
-416
-278
0
-119
122
-490
-4
-1272
29
141
-19
-1808
-78
-142
0
64
79
-58
-173
254
5
-35
26
509
110
-271
-45
251
-83
-87
134
56
-411
-304
431
57
25
-435
-520
509
-99
-549
-82
979
0
425
14
371
-73
1960
0
-364
-180
319
-119
404
1
73
-3
-1751
78
1845
0
-409
420
-695
-408
-518
1
-122
-128
269
-310
-584
0
29
129
358
-756
-104
1
-34
765
-1603
-704
-368
0
184
705
-232
-773
309
0
-328
25
-492
-198
117
0
-1735
1604
-123
-95
-1744
0
-303
243
361
172
-648
0
-269
212
25
68
-165
0
-55
-88
1187
-1063
701
0
-386
88
43
-92
384
0
230
-409
-1323
-289
1633
0
-773
303
-1403
-1004
194
-555
172
221
1296
-111
163
0
184
-37
43
-36
682
0
215
410
378
-301
-125
0
130
10
-337
-120
25
0
73
-35
-114
-15
42
9
121
63
-195
-294
-101
0
635
46
-1901
-867
555
0
164
-63
-2000
265
-29
0
370
-61
-1646
-267
166
87
-128
1339
-307
-560
-147
0
-624
-415
500
52
-669
320
1476
-120
923
-1481
300
1885
293
164
672
875
39
-365
112
-360
835
-668
-1216
0
-171
-128
-179
9
347
0
256
-462
-269
-536
-363
638
-28
118
266
175
70
0
-185
65
235
409
148
0
-14
64
-417
-116
-14
606
-447
52
-791
-287
-778
0
-647
26
365
73
119
-310
5
-558
1808
-813
1718
8
-439
-79
-24
-125
298
0
-279
-1260
-844
-125
-387
0
-157
-120
133
-278
-608
0
-111
-103
444
-415
-278
0
-119
122
-490
-4
-1272
29
141
-19
-1808
-77
-142
0
64
79
-58
-173
254
5
-33
25
559
120
-274
-46
252
-84
-88
134
57
-415
-304
431
57
25
-435
-520
509
-99
-549
-82
979
0
425
14
371
-73
1960
0
-364
-180
319
-119
404
0
73
-3
-1751
78
1845
0
-409
419
-695
-408
-518
0
-122
-129
269
-310
-585
0
29
129
358
-755
-104
0
-34
765
-1603
-704
-368
0
184
705
-233
-773
309
0
-328
26
-492
-198
117
0
-1735
1604
-123
-95
-1744
0
-303
243
361
172
-649
0
-269
211
25
67
-165
0
-56
-88
1187
-1064
701
0
-386
88
43
-92
384
0
230
-409
-1323
-289
1633
0
-772
303
-1404
-1004
195
-554
172
221
1297
-111
164
0
184
-37
43
-36
682
0
215
410
378
-301
-125
0
130
10
-336
-120
25
0
73
-35
-114
-16
42
9
121
63
-195
-294
-101
0
635
46
-1901
-867
554
1
164
-63
-2000
265
-29
0
370
-61
-1646
-267
166
87
-128
1339
-307
-560
-146
1
-623
-416
500
53
-669
320
1534
-120
922
-1481
300
1885
293
164
672
875
38
-365
112
-360
835
-668
-1217
0
-172
-129
-181
9
348
0
251
-453
-264
-525
-356
624
-25
115
259
171
70
0
-185
65
235
408
148
0
-15
64
-417
-116
-14
606
-447
53
-791
-288
-778
0
-647
26
366
74
119
-310
5
-558
1808
-814
1718
9
-445
-80
-23
-127
302
1
-284
-1284
-861
-128
-395
0
-159
-120
133
-272
-596
2
-111
-103
444
-416
-278
0
-119
122
-490
-4
-1272
29
141
-19
-1808
-78
-142
0
64
79
-58
-173
254
5
-35
25
509
110
-271
-46
251
-83
-87
133
56
-411
-304
431
57
25
-435
-520
509
-99
-549
-82
979
0
425
14
371
-73
1960
0
-364
-180
319
-119
404
0
73
-3
-1751
78
1845
0
-409
419
-695
-408
-518
0
-122
-129
269
-310
-585
0
29
129
358
-756
-104
0
-34
765
-1603
-704
-368
0
184
705
-233
-773
309
0
-328
25
-492
-198
117
0
-1735
1604
-123
-95
-1744
0
-303
243
361
172
-649
0
-269
211
25
67
-165
0
-56
-88
1187
-1064
701
0
-386
88
43
-92
384
0
230
-409
-1323
-289
1633
0
-773
303
-1404
-1004
194
-555
172
221
1296
-111
163
0
184
-37
43
-36
682
0
215
410
378
-300
-125
0
130
10
-337
-120
25
0
73
-35
-114
-16
42
9
121
63
-195
-294
-101
0
635
46
-1901
-867
554
0
164
-63
-2000
265
-29
0
370
-61
-1646
-267
166
87
-128
1339
-307
-560
-147
0
-624
-416
500
52
-669
320
1476
-120
922
-1481
300
1885
293
164
672
875
38
-365
112
-360
835
-668
-1217
0
-171
-128
-180
9
347
0
256
-462
-269
-536
-363
637
-26
116
261
172
70
0
-185
65
235
408
148
0
-15
64
-417
-116
-14
606
-447
52
-791
-288
-778
0
-647
26
365
73
119
-310
5
-558
1808
-814
1718
8
-435
-78
-23
-124
295
1
-284
-1284
-861
-128
-395
0
-157
-120
133
-272
-596
0
-111
-103
444
-416
-278
0
-119
122
-490
-4
-1272
29
141
-19
-1808
-78
-142
0
64
79
-58
-173
254
5
-35
25
509
110
-271
-46
251
-83
-87
133
56
-411
-304
431
57
25
-435
-520
509
-99
-549
-82
979
0
425
14
371
-73
1960
0
-364
-180
319
-119
404
0
73
-3
-1751
78
1845
0
-409
419
-695
-408
-518
0
-122
-129
269
-310
-585
0
29
129
358
-756
-104
0
-34
765
-1603
-704
-368
0
184
705
-233
-773
309
0
-328
25
-492
-198
117
0
-1735
1604
-123
-95
-1744
0
-303
243
361
172
-649
0
-269
211
25
67
-165
0
-56
-88
1187
-1064
701
0
-386
88
43
-92
384
0
230
-409
-1323
-289
1633
0
-773
303
-1404
-1004
194
-555
172
221
1296
-111
163
0
184
-37
43
-36
682
0
215
410
378
-300
-125
0
130
10
-337
-120
25
0
73
-35
-114
-16
42
9
121
63
-195
-294
-101
0
635
46
-1901
-867
554
0
164
-63
-2000
265
-29
0
370
-61
-1646
-267
166
87
-128
1339
-307
-560
-147
0
-624
-416
500
52
-669
320
1476
-120
922
-1481
300
1885
293
164
672
875
38
-365
112
-360
835
-668
-1217
0
-171
-128
-180
9
347
0
256
-462
-269
-536
-363
637
-26
116
261
172
70
0
-185
65
235
408
148
0
-15
64
-417
-116
-14
606
-447
52
-791
-288
-778
0
-647
26
365
73
119
-310
5
-558
1808
-814
1718
8
-439
-79
-24
-125
298
0
-284
-1284
-861
-128
-394
0
-157
-120
134
-272
-596
1
-111
-103
444
-416
-278
0
-119
122
-490
-4
-1272
29
138
-18
-1808
-78
-142
1
64
79
-58
-173
255
5
-35
25
509
110
-270
-46
252
-83
-87
133
56
-411
-303
431
57
25
-435
-520
510
-99
-549
-82
979
0
425
14
371
-73
1961
0
-363
-179
319
-119
404
0
73
-3
-1751
78
1845
0
-409
419
-695
-407
-518
0
-122
-129
269
-310
-585
0
29
130
358
-756
-104
0
-34
766
-1603
-704
-368
0
184
705
-232
-773
309
0
-328
25
-492
-198
117
0
-1735
1604
-123
-95
-1744
0
-303
243
361
172
-649
1
-269
211
26
67
-165
0
-56
-88
1187
-1064
701
0
-386
88
44
-92
384
0
230
-409
-1323
-289
1633
0
-773
303
-1404
-1004
194
-555
172
221
1297
-111
163
0
184
-37
43
-36
683
0
215
410
377
-300
-125
0
130
10
-337
-120
25
0
74
-35
-114
-16
43
9
122
63
-194
-293
-101
0
635
47
-1901
-867
554
0
164
-63
-2000
265
-29
0
370
-61
-1646
-266
167
87
-128
1339
-307
-560
-147
0
-623
-416
500
52
-669
320
1476
-120
922
-1481
300
1885
293
164
672
875
38
-365
112
-360
835
-668
-1217
0
-170
-128
-180
9
347
0
256
-462
-269
-536
-363
637
-26
116
261
172
70
0
-185
65
235
408
148
0
-15
64
-417
-116
-13
606
-447
52
-791
-287
-778
1
-647
26
365
73
119
-310
5
-558
1808
-814
1719
8
-439
-79
-24
-125
298
0
-285
-1286
-861
-127
-395
0
-154
-118
131
-271
-596
0
-111
-103
445
-416
-278
0
-119
122
-490
-4
-1272
29
138
-18
-1772
-76
-139
0
65
79
-58
-173
254
5
-35
25
519
112
-271
-46
251
-83
-87
133
56
-411
-304
431
57
25
-435
-519
510
-99
-549
-82
979
0
425
14
371
-73
1960
0
-364
-180
319
-119
404
0
73
-3
-1751
78
1845
0
-409
419
-695
-408
-518
1
-122
-129
269
-310
-585
0
29
129
358
-756
-103
0
-34
765
-1602
-704
-368
0
184
705
-233
-773
309
0
-328
26
-492
-197
117
0
-1735
1604
-123
-95
-1743
0
-303
243
361
172
-648
0
-264
207
25
66
-162
1
-56
-88
1187
-1064
701
0
-386
88
43
-92
384
0
230
-409
-1323
-289
1632
0
-758
297
-1404
-1004
195
-544
172
221
1296
-111
163
0
184
-37
43
-36
682
0
215
410
378
-301
-125
0
130
10
-336
-120
25
0
73
-35
-114
-16
42
9
121
63
-195
-294
-100
0
635
46
-1901
-867
554
0
164
-63
-2000
265
-29
0
370
-61
-1646
-267
166
87
-128
1339
-307
-560
-147
0
-624
-415
500
52
-669
320
1534
-120
922
-1481
300
1885
293
164
672
875
38
-365
112
-360
835
-668
-1217
0
-171
-128
-180
10
347
0
251
-453
-264
-525
-356
624
-27
116
261
172
69
0
-185
65
235
408
148
0
-14
64
-417
-116
-14
606
-438
51
-775
-281
-762
0
-634
25
358
72
117
-304
5
-547
1772
-798
1685
8
-445
-80
-24
-127
303
1
-284
-1284
-861
-128
-395
0
-157
-120
133
-272
-596
0
-110
-103
445
-415
-278
0
-119
122
-490
-4
-1272
29
141
-19
-1808
-78
-142
0
64
79
-58
-173
254
5
-35
26
509
110
-270
-45
251
-82
-87
133
56
-411
-304
431
58
25
-435
-520
509
-99
-549
-82
979
0
425
14
371
-73
1960
1
-364
-180
319
-119
404
0
73
-3
-1751
79
1845
0
-409
419
-695
-407
-518
0
-122
-129
270
-310
-585
0
29
129
359
-756
-104
0
-34
765
-1603
-704
-368
0
184
705
-233
-773
309
0
-328
25
-492
-198
117
0
-1735
1604
-123
-95
-1744
0
-303
244
361
173
-649
1
-269
212
26
67
-165
0
-56
-88
1187
-1064
701
0
-385
88
43
-92
384
0
230
-409
-1323
-288
1634
0
-773
303
-1404
-1004
194
-555
172
221
1296
-111
163
0
184
-37
44
-36
682
0
215
410
378
-300
-125
1
130
10
-337
-120
25
0
73
-34
-114
-16
42
9
121
63
-194
-294
-101
0
635
46
-1900
-867
554
0
164
-63
-1999
265
-29
0
370
-61
-1646
-267
166
87
-128
1339
-307
-560
-146
0
-624
-416
501
52
-669
320
1476
-120
922
-1481
300
1885
294
164
672
875
38
-365
112
-360
835
-668
-1217
0
-171
-128
-179
9
347
0
257
-462
-269
-535
-363
638
-26
117
261
172
70
0
-185
65
235
408
148
0
-15
64
-417
-116
-14
606
-447
52
-791
-288
-777
0
-647
26
365
73
119
-310
5
-558
1808
-814
1718
9
-439
-79
-24
-125
298
0
-278
-1258
-843
-125
-385
0
-157
-119
133
-277
-608
0
-109
-101
436
-408
-272
1
-117
122
-489
-4
-1271
30
141
-19
-1807
-77
-142
0
64
77
-56
-170
249
5
-34
25
500
108
-266
-45
251
-83
-86
133
58
-410
-298
423
56
25
-426
-510
499
-96
-537
-80
959
0
417
14
364
-72
1921
0
-357
-175
313
-117
396
1
74
-3
-1750
78
1845
0
-401
411
-681
-400
-508
0
-120
-125
265
-303
-573
1
29
127
351
-741
-102
0
-33
750
-1569
-688
-360
2
180
691
-227
-758
303
0
-315
25
-480
-194
114
0
-1700
1572
-121
-93
-1708
0
-296
239
354
169
-636
0
-264
207
25
68
-161
1
-55
-86
1163
-1041
687
1
-378
86
43
-90
376
0
225
-401
-1297
-283
1601
0
-743
291
-1347
-964
187
-533
169
217
1270
-109
160
0
180
-36
42
-35
668
1
211
402
370
-295
-122
0
131
11
-337
-120
25
1
73
-33
-112
-16
42
9
119
63
-191
-287
-99
0
622
45
-1863
-850
543
0
162
-61
-1960
260
-28
1
369
-60
-1645
-267
166
87
-122
1287
-295
-538
-141
1
-612
-408
492
51
-656
314
1448
-117
904
-1449
294
1848
293
166
671
875
38
-365
111
-351
819
-654
-1191
0
-168
-124
-176
9
340
1
251
-453
-264
-524
-356
624
-24
114
256
169
70
1
-177
63
225
392
142
0
-15
63
-409
-114
-13
594
-438
51
-775
-281
-761
0
-647
26
365
73
119
-310
5
-547
1772
-797
1685
8
-430
-77
-23
-122
292
1
-273
-1237
-829
-123
-380
0
-154
-118
130
-272
-596
0
-111
-103
444
-415
-278
0
-119
123
-490
-4
-1272
29
138
-19
-1772
-76
-139
1
64
79
-58
-173
254
6
-34
25
519
112
-271
-46
251
-83
-86
133
56
-411
-304
431
57
25
-435
-520
509
-99
-549
-82
979
0
425
14
371
-73
1960
0
-364
-180
319
-118
404
1
73
-3
-1750
78
1845
0
-409
419
-695
-408
-517
0
-121
-129
269
-310
-585
0
29
129
358
-756
-103
1
-34
765
-1603
-704
-368
0
184
705
-233
-773
309
0
-328
25
-492
-198
117
0
-1735
1604
-123
-95
-1744
0
-303
243
361
172
-649
0
-264
207
25
66
-162
0
-55
-88
1188
-1063
701
0
-386
88
43
-92
384
0
231
-409
-1323
-289
1634
0
-758
297
-1376
-984
190
-544
172
221
1296
-111
163
0
184
-37
43
-36
682
0
215
410
378
-301
-125
0
130
11
-337
-120
25
0
73
-35
-114
-16
42
9
121
63
-195
-293
-101
0
635
46
-1901
-866
554
1
164
-63
-2000
265
-29
0
370
-61
-1646
-266
166
87
-128
1339
-307
-560
-147
0
-624
-416
500
53
-669
320
1534
-120
922
-1481
300
1885
293
165
672
875
38
-364
112
-360
835
-668
-1217
0
-171
-128
-180
9
347
0
251
-453
-264
-525
-356
624
-26
116
261
172
69
0
-185
65
236
408
149
0
-15
64
-417
-116
-14
606
-438
51
-775
-282
-762
0
-634
25
358
72
117
-304
6
-547
1772
-798
1685
8
-445
-80
-24
-127
302
0
-284
-1284
-861
-128
-395
0
-157
-120
133
-278
-608
0
-111
-103
444
-416
-278
0
-119
122
-490
-4
-1272
29
139
-19
-1787
-77
-140
0
64
79
-58
-173
254
5
-35
25
509
110
-271
-46
251
-83
-87
133
56
-411
-304
431
57
25
-435
-520
509
-99
-549
-82
979
0
425
14
371
-73
1960
0
-364
-180
319
-119
404
0
73
-3
-1751
78
1845
0
-409
419
-695
-408
-518
0
-122
-129
269
-310
-585
0
29
129
358
-756
-104
0
-34
765
-1602
-704
-368
0
184
705
-233
-773
309
0
-328
25
-492
-198
117
0
-1735
1604
-123
-95
-1744
0
-303
243
361
172
-649
0
-269
211
25
67
-165
0
-56
-88
1187
-1064
701
0
-386
88
43
-92
384
0
230
-409
-1323
-289
1633
0
-773
303
-1404
-1004
194
-555
172
221
1296
-111
163
0
184
-37
43
-36
682
0
215
410
378
-300
-125
0
130
10
-336
-119
25
0
73
-35
-114
-16
42
9
121
63
-195
-294
-101
0
635
46
-1901
-867
554
0
164
-63
-2000
265
-29
0
370
-61
-1646
-267
166
87
-128
1339
-307
-560
-147
0
-624
-416
500
52
-669
320
1476
-120
922
-1481
300
1885
293
164
672
875
38
-365
112
-360
835
-668
-1217
0
-171
-128
-180
9
347
0
256
-462
-269
-536
-363
637
-26
116
261
172
70
0
-185
65
235
408
148
0
-15
64
-417
-116
-14
606
-447
52
-791
-288
-778
0
-647
26
367
74
119
-310
5
-558
1808
-814
1718
8
-439
-79
-24
-125
298
0
-284
-1284
-861
-128
-395
0
-157
-120
133
-278
-608
0
-111
-103
444
-416
-278
0
-119
122
-490
-4
-1272
29
141
-19
-1808
-78
-142
0
64
79
-58
-173
254
5
-35
25
509
110
-271
-46
251
-83
-87
133
56
-411
-304
431
57
25
-435
-520
509
-99
-549
-82
979
0
425
14
371
-73
1960
0
-364
-180
319
-119
404
0
73
-3
-1751
78
1845
0
-409
419
-695
-408
-518
0
-122
-129
269
-310
-585
0
29
129
358
-756
-104
0
-34
765
-1603
-704
-368
0
184
705
-233
-773
309
0
-328
25
-492
-198
117
0
-1735
1604
-123
-95
-1744
0
-303
243
361
172
-649
0
-269
211
25
67
-165
0
-56
-88
1187
-1064
701
0
-386
88
43
-92
384
0
230
-409
-1323
-289
1633
0
-773
303
-1404
-1004
194
-555
172
221
1296
-111
163
0
184
-37
43
-36
682
0
215
410
378
-301
-125
0
130
10
-337
-120
25
0
73
-35
-114
-16
42
9
121
63
-195
-294
-101
0
635
46
-1901
-867
554
0
164
-63
-2000
265
-29
0
370
-61
-1646
-267
166
87
-128
1339
-307
-560
-147
0
-624
-416
500
52
-669
320
1476
-120
922
-1481
300
1885
293
164
672
875
38
-365
112
-360
835
-668
-1217
0
-171
-128
-180
9
347
0
256
-462
-269
-536
-363
637
-28
118
266
175
70
0
-185
65
235
408
148
0
-15
64
-417
-116
-14
606
-447
52
-791
-288
-778
0
-647
26
365
73
119
-310
5
-558
1808
-814
1718
8
-439
-79
-24
-125
298
0
-284
-1284
-861
-128
-395
0
-157
-120
133
-278
-608
0
-111
-103
444
-416
-278
0
-119
122
-490
-4
-1272
29
139
-19
-1787
-77
-140
0
64
79
-58
-173
254
5
-35
25
509
110
-271
-46
251
-83
-87
133
56
-411
-304
431
57
25
-435
-520
509
-99
-549
-82
979
0
425
14
371
-73
1960
0
-364
-180
319
-119
404
0
73
-3
-1751
78
1845
0
-409
419
-695
-408
-518
0
-122
-129
269
-310
-585
0
29
129
358
-756
-104
0
-34
765
-1602
-704
-368
0
184
705
-233
-773
309
0
-328
25
-492
-198
117
0
-1735
1604
-123
-95
-1744
0
-303
243
361
172
-649
0
-269
211
25
67
-165
0
-56
-88
1187
-1064
701
0
-386
88
43
-92
384
0
230
-409
-1323
-289
1633
0
-773
303
-1404
-1004
194
-555
172
221
1296
-111
163
0
184
-37
43
-36
682
0
215
410
378
-301
-125
0
130
10
-336
-119
25
0
73
-35
-114
-16
42
9
121
63
-195
-294
-101
0
635
46
-1901
-867
554
0
164
-63
-2000
265
-29
0
370
-61
-1646
-267
166
87
-128
1339
-307
-560
-147
0
-624
-416
500
52
-669
320
1476
-120
922
-1481
300
1885
293
164
672
875
38
-365
112
-360
835
-668
-1217
0
-171
-128
-180
9
347
0
256
-462
-269
-536
-363
637
-26
116
261
172
70
0
-185
65
235
408
148
0
-15
64
-417
-116
-14
606
-447
52
-791
-288
-778
0
-647
26
367
74
119
-310
5
-558
1808
-814
1718
8
-439
-79
-24
-125
298
0
-279
-1260
-844
-125
-387
0
-157
-120
133
-278
-608
0
-111
-103
444
-415
-278
0
-120
122
-490
-4
-1272
29
141
-19
-1808
-77
-142
0
64
79
-58
-173
254
5
-34
25
543
117
-273
-46
252
-84
-88
134
57
-415
-304
431
57
25
-435
-520
509
-99
-549
-82
979
0
425
14
371
-73
1960
0
-364
-180
319
-119
404
0
73
-3
-1751
78
1845
0
-409
419
-695
-408
-518
0
-122
-129
269
-310
-585
0
29
129
358
-755
-104
0
-34
765
-1603
-704
-368
0
184
705
-233
-773
309
0
-328
26
-492
-198
117
0
-1735
1604
-123
-95
-1744
0
-303
243
361
172
-649
0
-269
211
25
67
-165
0
-56
-88
1187
-1064
701
0
-386
88
43
-92
384
0
230
-409
-1323
-289
1633
0
-772
303
-1404
-1004
195
-554
172
221
1297
-111
164
0
184
-37
43
-36
682
0
215
410
378
-301
-125
0
130
10
-336
-120
25
0
73
-35
-114
-16
42
9
121
63
-195
-294
-101
0
635
46
-1901
-867
554
1
164
-63
-2000
265
-29
0
370
-61
-1646
-267
166
87
-128
1339
-307
-560
-146
1
-623
-416
500
53
-669
320
1534
-120
922
-1481
300
1885
293
164
672
875
38
-365
112
-360
835
-668
-1217
0
-168
-124
-176
10
340
1
251
-453
-264
-525
-356
624
-25
115
259
171
70
0
-185
65
235
408
148
0
-15
64
-417
-116
-14
606
-447
53
-791
-288
-778
0
-647
26
366
74
119
-310
5
-558
1808
-814
1718
9
-445
-80
-23
-127
302
1
-291
-1312
-878
-130
-403
0
-157
-120
134
-276
-608
0
-111
-103
445
-416
-278
0
-119
122
-490
-4
-1272
29
138
-18
-1772
-76
-139
0
65
79
-58
-173
254
5
-35
25
519
112
-271
-46
251
-83
-87
133
56
-411
-304
431
57
25
-435
-519
520
-101
-560
-84
999
0
425
14
371
-73
1960
0
-364
-180
319
-119
404
0
73
-3
