-193
685
0
22
46
0
0
425
0
0
429
0
-127
163
456
0
-23
-334
-272
0
-410
0
-765
-322
585
-281
0
623
-52
-459
720
680
0
0
0
0
-536
941
718
-116
0
-177
-74
0
0
0
614
146
-286
-370
0
-997
0
275
-29
-322
-154
505
-949
1000
273
0
117
1000
-779
0
385
172
0
184
-974
-564
-160
-860
0
148
108
0
683
0
730
232
-376
0
534
0
0
0
413
716
-942
-311
-199
1000
-213
-111
-149
1000
0
0
143
350
-210
-514
303
0
0
547
43
0
-227
0
-88
500
222
61
0
-319
0
0
89
-181
1000
301
656
-50
0
0
39
819
0
-664
0
-553
-402
0
-323
0
0
0
-1000
470
-76
759
0
0
-347
-668
0
-242
-24
-111
-628
0
-642
-401
0
-989
139
-56
0
0
0
0
0
0
-38
60
-117
-23
920
0
0
-290
0
0
925
0
542
0
1000
-341
836
0
0
0
0
0
608
582
-369
0
-111
0
324
0
-193
685
0
218
382
0
0
0
0
0
429
0
-127
163
0
0
-23
238
-272
0
-410
0
158
-322
861
0
0
623
335
0
720
-26
0
0
0
0
-536
941
718
-116
0
0
0
0
0
0
0
0
-286
-438
0
0
0
275
-29
-322
-154
505
-949
1000
273
0
49
586
-779
0
0
0
0
-330
0
-564
-160
-860
0
148
108
0
0
0
0
0
0
0
534
0
0
0
413
716
-942
-311
64
324
-213
-111
-149
1000
0
0
0
350
-210
-514
0
0
0
0
0
0
0
0
719
500
0
61
0
-319
0
0
158
-46
1000
148
-244
-50
0
0
39
-324
0
160
0
0
-544
0
-630
0
0
0
-835
-500
0
807
0
0
0
-668
0
-274
-27
-111
-628
0
-642
-401
0
-998
140
-60
0
0
0
0
0
0
0
0
406
0
63
0
-153
-470
0
0
0
0
0
0
1000
-341
836
0
0
0
0
0
-293
-14
-369
0
-111
0
324
0
0
866
42
0
71
0
0
0
0
0
429
0
-421
-560
-98
0
0
0
0
0
-374
0
133
0
286
0
0
85
-275
-74
-293
0
-156
314
0
0
464
-996
-668
817
0
0
0
293
0
0
0
0
189
0
0
0
16
104
0
0
-184
0
0
-442
0
0
0
0
0
0
0
1000
216
-120
183
304
0
149
-284
582
-383
-37
-679
-110
0
-798
-188
299
-104
68
0
-118
-743
37
324
-290
-297
0
992
0
330
0
98
138
0
265
0
0
594
0
0
-1000
489
949
0
71
613
0
0
205
0
0
0
0
-703
-363
0
519
443
0
0
294
0
0
0
0
0
0
0
0
0
0
0
0
0
0
0
0
-310
0
0
0
0
0
0
0
0
-587
0
0
1000
160
285
0
-29
230
-164
104
0
0
8
0
0
0
0
0
0
0
637
0
1
-127
-191
0
0
-349
27
1000
0
0
0
0
-100
0
68
-914
0
0
0
0
0
685
0
0
382
0
0
0
0
0
429
0
-127
1000
0
401
-23
238
-272
0
-410
0
158
410
318
0
0
0
0
0
981
-26
0
0
0
0
0
0
0
-116
0
0
0
0
0
0
443
0
0
-161
-56
272
0
-106
61
124
-339
505
-1000
394
273
0
49
586
-779
0
0
0
0
-535
0
206
-160
-524
0
-119
0
0
0
0
0
0
0
0
534
0
0
0
413
716
-942
-311
64
324
-213
-111
0
0
0
0
0
84
-50
-123
0
0
0
0
0
0
0
0
719
500
0
61
0
-319
0
0
158
-46
1000
148
0
-50
0
0
39
-1000
0
160
0
0
-544
0
-630
0
0
0
-213
0
0
0
0
0
0
-668
0
0
0
-111
0
0
0
-401
0
0
0
193
0
0
0
0
1000
309
-610
0
406
0
63
0
0
-290
0
0
0
0
0
0
0
-341
702
0
0
0
0
0
-1000
-14
4
107
-132
0
-840
0
0
685
0
0
382
0
0
0
0
0
429
0
-127
1000
0
0
-23
238
-272
0
-410
0
158
410
720
414
531
0
0
0
981
-26
0
0
0
0
-568
996
760
-116
0
0
0
0
0
0
0
0
0
-161
-56
272
0
275
-159
-322
-339
505
-1000
394
273
0
49
586
-779
0
0
0
0
-535
0
206
-160
-524
0
-119
0
0
0
0
0
0
0
0
534
0
0
0
413
716
-942
-311
64
324
-213
-111
0
0
0
0
0
350
-210
-514
0
0
0
0
0
0
0
0
719
500
0
61
0
-319
0
0
158
-46
1000
148
0
-50
0
0
39
-1000
0
160
0
0
-544
0
-630
0
0
0
-213
0
0
0
0
0
0
-668
0
0
0
-111
0
0
0
-401
0
0
0
193
0
0
0
0
1000
309
-610
0
406
0
63
0
0
-290
0
0
0
0
0
0
0
-341
702
0
0
0
0
0
0
-14
0
0
-132
0
-840
0
0
814
0
1000
523
264
-105
0
0
0
429
135
0
0
0
0
0
0
-233
0
-394
67
0
0
318
0
0
0
0
-555
0
0
0
0
0
0
0
0
0
0
0
0
0
0
0
0
0
0
0
-438
0
0
0
0
0
0
-963
672
576
88
577
0
0
0
-779
0
0
0
0
-330
0
-1000
-396
-1000
0
0
1000
0
0
-266
0
0
0
0
0
0
0
0
0
0
-942
640
32
387
-254
-149
0
-319
0
0
0
350
-210
-514
0
0
0
0
0
0
0
0
-114
118
0
0
0
0
0
0
0
591
965
0
0
0
0
0
39
-1000
0
160
0
0
0
0
-630
0
293
0
0
0
0
0
0
0
0
0
0
0
0
-111
0
-447
0
0
0
0
0
193
0
0
0
0
0
0
0
0
0
0
0
-13
0
0
0
0
0
0
0
0
0
0
0
0
0
0
0
0
-642
86
0
-319
-87
805
255
0
-193
685
367
218
382
0
-85
0
0
0
429
0
-127
163
0
0
-23
238
-272
0
-126
0
158
-322
861
0
0
-42
1000
40
1000
509
0
-176
-437
0
-1000
396
1000
-116
0
0
0
0
0
0
0
0
-286
-438
0
0
0
275
90
-322
-154
505
-949
1000
273
0
49
221
-779
0
365
290
260
-56
0
14
-160
-860
0
148
108
166
0
0
832
0
0
0
534
-352
785
-343
-511
665
-1000
-855
253
-47
31
114
-149
1000
0
0
0
350
-210
3
0
0
0
0
0
0
0
0
390
628
0
237
0
290
-788
0
158
-46
1000
148
0
-50
0
-157
328
-483
-570
160
-647
0
-544
108
-630
0
0
0
-835
-294
346
807
0
0
0
-668
0
-274
23
-111
-628
0
-642
-401
662
-989
139
-56
0
621
-43
0
-598
-66
-188
0
268
0
-178
429
0
-290
0
-85
490
-85
0
-214
1000
-341
836
-423
-535
0
-115
0
-620
-14
-545
0
-111
0
324
0
-193
685
367
218
382
0
-85
0
0
0
429
0
-127
163
0
0
-23
238
-272
0
-126
0
158
-322
861
0
0
-42
1000
40
1000
509
0
0
-437
0
-1000
396
1000
-116
0
0
0
0
0
0
0
0
-286
-438
0
0
0
275
90
-322
-154
505
-949
1000
273
0
49
221
-779
0
365
290
260
-56
0
14
-160
-860
0
148
108
166
0
0
832
0
0
0
534
-352
0
0
-511
665
-1000
-855
253
-47
31
114
-149
1000
0
0
0
350
-210
3
0
0
0
0
0
0
0
0
390
628
0
237
0
290
-788
0
158
-46
1000
148
0
-50
0
-157
39
-324
321
160
-647
0
-544
108
-630
0
0
0
-835
-388
188
807
0
0
0
-668
0
-274
23
-111
-628
0
-642
-401
662
-989
139
-56
0
621
-43
0
-598
-66
-188
0
268
0
-178
429
0
-290
0
-85
490
0
0
-214
1000
-341
836
-423
-535
0
-115
0
-620
-14
-545
0
-111
0
324
0
-193
685
0
218
382
0
0
0
0
0
429
0
-127
163
0
0
-23
238
-272
0
-410
0
158
-322
694
42
0
467
335
0
720
-26
0
0
0
0
-536
941
718
-116
0
0
0
0
0
0
0
0
-286
-438
0
0
0
275
-29
-322
-154
505
-949
1000
273
0
49
586
-779
0
0
0
0
-330
0
-564
-160
-860
0
148
108
0
0
0
0
0
0
0
534
0
0
0
413
716
-942
-311
64
324
-213
-111
-149
1000
0
0
0
350
-210
-514
0
0
0
0
0
0
0
0
719
500
0
61
0
-319
0
0
158
-46
1000
148
0
-50
0
0
39
-324
0
160
0
0
-544
0
-730
0
0
0
-835
-500
0
807
0
0
0
-668
0
-274
-27
-111
-628
0
-642
-401
0
-989
139
-56
0
0
0
0
0
0
0
0
406
0
63
0
0
-290
0
0
0
0
0
0
1000
-341
836
0
0
0
0
0
-884
-14
-369
0
-111
0
324
0
-120
742
0
390
46
0
0
425
0
0
429
0
-127
163
861
0
-23
238
-272
0
-410
0
-765
-322
51
281
0
-623
635
-459
720
680
0
0
0
0
-536
941
718
-116
0
-177
-74
0
0
0
614
146
-286
-370
0
-997
0
275
-29
-322
-154
505
-949
1000
-343
109
117
1000
-779
0
-14
172
0
184
-974
-564
-160
-860
0
148
108
0
0
0
730
232
-376
0
534
0
0
0
413
716
-942
-311
-199
1000
-213
-111
-149
1000
0
0
864
-262
157
385
303
0
0
547
43
0
-227
238
14
500
222
61
0
-122
215
0
89
-181
1000
301
-1
116
0
-314
39
51
0
-316
0
-553
-402
0
-630
0
0
0
-1000
470
-76
759
0
0
-347
-668
0
-274
-27
-111
-628
-446
-642
-401
0
-989
139
-56
0
0
0
0
0
-456
24
60
406
-183
920
0
0
-290
37
0
756
0
542
0
1000
-341
836
0
0
0
0
-836
608
582
-369
0
-111
0
324
0
0
836
0
1000
523
264
-105
0
0
0
429
135
0
1000
0
293
0
0
0
0
-394
619
0
0
583
273
350
0
0
-441
-566
461
463
-145
-1000
0
0
410
40
-975
0
0
178
-543
-499
0
0
-243
0
-149
-72
351
0
0
0
0
-963
310
576
-97
0
0
0
0
607
-251
453
-415
0
-330
0
-1000
-1000
-1000
335
0
0
0
0
0
0
0
0
0
-840
0
0
228
-95
-693
-942
847
229
0
0
86
407
-351
0
433
0
350
-277
-514
0
0
0
0
339
26
-235
0
-114
-533
0
0
0
0
303
-89
0
0
965
0
0
-50
-841
-860
39
-1000
138
-355
349
-150
217
606
-194
0
1000
0
-231
220
459
0
413
-85
1000
0
0
0
0
-111
0
-447
0
0
234
878
41
902
0
-112
629
0
-432
421
-27
18
127
0
316
-64
-813
42
-1000
-82
-636
-1000
-219
652
-92
0
67
0
0
-381
190
431
0
0
1000
-805
0
-12
-355
0
187
685
0
0
136
0
0
-248
0
0
429
0
-127
163
0
-365
-1000
238
-272
-707
-870
71
90
-79
318
0
0
0
0
-400
981
427
0
0
0
0
0
-26
0
-116
0
0
0
0
0
0
0
0
-105
-663
851
0
0
275
-159
-726
-339
505
-1000
394
273
-299
49
586
-779
-91
0
0
0
-330
0
-1000
-160
-524
0
-119
0
0
428
0
0
0
0
0
534
0
0
-662
413
716
-942
-311
64
324
-213
-111
0
0
-252
-394
0
350
-210
-514
0
0
0
0
0
0
0
0
719
500
0
61
29
23
0
0
158
-46
1000
148
0
-50
0
52
-295
-1000
65
-368
0
0
-544
-849
-630
0
755
0
-213
-324
786
0
0
0
0
-668
707
-15
0
402
-589
0
884
-401
-290
0
-815
344
0
0
0
0
0
0
0
0
406
0
63
306
0
-290
0
0
192
0
0
-605
0
-341
702
0
0
0
0
0
0
-14
0
0
-111
0
324
0
29
685
0
90
136
0
0
-248
0
0
429
0
-127
163
0
-365
-1000
238
-272
-707
-870
0
158
-140
318
0
0
0
0
-400
981
132
0
0
0
0
0
-26
0
-116
0
0
0
0
0
0
0
0
-105
-663
851
0
0
275
-159
-726
-339
505
-1000
394
273
-299
49
586
-779
-91
0
0
0
-330
0
-906
-160
-524
0
-119
0
0
428
0
0
122
0
0
534
0
0
-662
413
716
-942
-311
112
45
214
-172
0
0
171
-394
0
350
-210
-514
0
0
0
0
0
0
0
0
719
500
0
61
29
23
0
0
158
-46
1000
148
0
-359
0
52
-295
-1000
65
-368
0
0
-544
-849
-630
0
0
0
-213
-324
786
0
0
0
0
-668
433
-79
-43
-414
-589
0
884
-401
-290
0
-815
344
0
0
0
0
0
0
0
0
406
0
63
306
0
-290
0
0
192
0
0
-605
0
-341
702
0
-108
0
-50
0
0
-14
0
377
-111
0
324
0
-193
685
0
218
382
0
0
0
0
0
429
0
-127
163
0
0
-23
238
-272
0
-410
0
158
-322
861
0
0
623
335
0
720
-26
0
0
0
0
-536
941
718
-116
0
0
0
0
0
0
0
0
-286
-438
0
0
0
275
-29
-322
-154
505
-949
1000
273
0
60
586
-779
0
0
0
0
-330
0
-564
-160
-860
0
148
108
0
0
0
0
0
0
0
534
0
0
0
413
716
-942
-311
64
324
-213
-111
-149
1000
0
0
0
350
-210
-514
-358
0
0
0
0
0
0
0
719
500
0
61
0
-319
0
0
158
-46
1000
148
0
-50
0
0
39
-324
0
160
0
0
-544
0
-630
0
0
0
-835
-500
0
807
0
0
0
-668
0
-274
-27
-111
-628
-45
-642
-401
0
-989
139
-56
0
0
0
0
0
0
0
0
406
0
63
0
0
-290
0
0
0
0
0
0
1000
-341
836
0
0
-651
341
737
-293
-14
-369
0
-111
0
324
0
170
685
0
-192
382
0
0
0
0
0
429
0
-127
163
0
0
-23
238
-272
0
-410
0
158
-322
861
0
0
623
335
0
720
-26
0
0
0
0
-26
-47
11
360
0
0
0
0
0
0
0
0
-286
-438
0
0
0
275
-29
-322
-154
505
-949
1000
273
-78
842
586
-779
0
0
0
0
-330
0
-564
-160
-860
0
148
108
0
0
0
0
0
0
0
534
0
0
0
413
716
-942
-311
-302
927
-213
-111
-149
1000
0
0
0
350
-210
-514
0
0
0
0
0
0
0
0
719
500
0
61
0
-319
0
0
158
-46
1000
148
0
-50
0
0
39
-324
0
160
0
0
-544
0
-630
0
0
0
-835
-500
0
807
0
0
0
-336
0
-274
-27
-111
-628
0
-642
-401
0
-989
139
-56
0
0
0
0
0
0
0
0
406
0
63
0
0
-290
0
0
0
0
0
-450
1000
-341
836
0
0
0
0
0
-293
-14
-369
0
-111
251
324
0
0
781
-23
-536
382
0
0
0
0
0
429
0
-127
163
0
0
-23
238
-272
0
-410
0
158
410
318
0
0
0
0
0
981
-26
0
0
0
0
0
0
0
-116
0
0
0
0
0
0
0
0
169
-438
0
0
0
275
-159
-322
-339
505
-1000
394
273
0
49
586
-779
0
-26
320
0
-330
0
-564
-160
-524
0
-119
0
0
0
0
0
0
0
0
534
0
0
0
413
716
-942
-311
64
324
-213
-111
0
0
0
0
0
350
-210
-514
0
0
0
0
0
0
0
0
719
500
0
61
0
-319
0
0
158
-46
1000
148
0
-50
0
0
39
-1000
0
160
0
0
-544
0
-630
0
0
642
-213
0
0
0
0
0
0
-668
0
0
0
-111
-178
0
268
-401
0
0
-119
405
0
0
0
0
0
0
0
0
406
0
63
-300
0
-290
0
0
0
0
0
0
0
-341
702
0
-628
0
0
-64
0
-14
0
0
584
0
-840
0
-193
685
0
218
382
0
0
0
0
0
429
0
-127
163
0
0
-23
238
-272
0
-410
0
158
-322
861
0
0
623
335
0
720
-26
0
0
0
0
-536
941
718
-116
0
0
0
0
0
0
0
0
-286
-438
0
0
0
275
-29
-322
-154
449
-949
1000
273
0
49
586
-779
0
0
0
0
-330
0
-445
-160
-860
0
148
108
0
0
0
0
0
0
0
534
0
0
0
413
716
-942
-311
64
324
-213
-111
-149
1000
0
0
0
350
-210
-514
0
0
0
0
0
0
0
0
719
500
0
61
0
-319
0
0
158
-46
1000
148
0
-50
0
0
39
-324
0
160
0
0
-544
0
-630
0
0
0
-835
-500
0
807
0
0
0
-668
0
312
-27
-111
-628
0
-642
-401
0
-989
139
-56
12
-94
67
-42
0
0
0
0
420
0
65
0
0
-290
0
0
0
0
0
0
1000
-341
836
0
0
0
0
0
-293
-14
-369
0
-111
0
324
0
0
836
0
1000
523
264
-105
0
0
0
429
135
0
1000
0
293
0
0
0
0
-394
619
0
0
583
273
350
0
0
-441
-566
461
463
-145
-1000
0
0
410
40
-975
0
0
178
-543
-499
0
0
-243
0
-149
-72
351
0
0
0
0
-963
310
576
-97
0
0
0
0
607
-251
453
-415
0
-330
0
-1000
-1000
-1000
335
0
0
0
0
0
0
0
0
0
-840
0
0
228
-95
-693
-942
847
229
0
0
86
407
-351
0
433
0
350
-277
-514
0
0
0
0
339
26
-235
0
-114
-533
0
0
0
0
303
175
0
0
555
0
0
-50
-841
-860
39
-1000
138
-355
349
-150
217
606
-194
0
1000
0
-231
220
459
0
413
-85
1000
0
0
0
0
-111
0
-447
0
0
234
878
41
902
0
-112
629
0
-432
411
-27
-183
127
0
316
-64
-813
42
-1000
-82
-636
-1000
-219
652
-92
0
67
0
0
-381
190
431
0
0
1000
-805
0
-12
-355
0
0
836
0
1000
523
-68
-105
0
0
0
345
884
906
850
0
293
0
0
0
0
-394
619
0
0
583
273
350
0
0
-441
-566
461
463
-145
-1000
0
0
410
40
-975
0
592
-234
635
-499
0
0
-243
0
-149
-72
351
0
0
0
0
-963
310
576
-97
0
0
0
0
607
-251
453
-415
0
-330
0
-1000
-1000
-1000
335
0
0
0
0
0
0
0
0
0
-840
0
0
228
-95
-693
-942
847
273
-86
56
138
407
-351
0
433
0
350
-1000
-514
0
-202
0
0
297
22
-234
0
-112
-533
4
1
0
130
0
-273
0
2
965
0
0
-50
-841
-860
39
-1000
102
-345
349
-150
217
-250
-194
0
1000
0
-231
145
459
0
413
-85
1000
0
0
-27
-3
-111
0
-447
0
0
0
0
333
193
-204
-112
629
0
-432
421
-27
18
127
0
316
-64
-813
42
-1000
-82
-636
-1000
-219
652
-92
0
67
0
0
-362
190
410
0
0
1000
-805
0
-12
-355
0
0
1000
108
0
71
0
-171
0
0
0
429
0
-6
0
202
-50
0
723
-581
370
224
657
0
0
286
144
-1000
85
-275
573
-56
256
-31
62
0
-21
231
-996
-668
817
0
473
0
293
0
0
0
0
189
0
0
0
16
104
0
0
0
-560
0
-282
0
0
0
0
-106
0
0
532
216
0
57
0
0
0
0
0
79
0
-969
-35
0
-794
245
-503
200
-95
0
522
511
554
-317
-519
-297
0
992
0
330
0
98
138
0
-207
0
0
594
0
0
-1000
814
1000
-80
0
276
282
125
428
0
0
592
0
0
-493
85
448
0
0
0
737
0
0
0
0
0
0
0
0
0
0
581
0
0
0
0
0
0
-552
0
0
0
0
0
0
0
294
0
0
474
-229
0
0
89
-711
941
-323
264
0
8
6
580
112
0
0
0
0
0
0
0
126
0
0
0
-349
27
634
0
0
-1000
0
-100
0
115
-914
0
0
0
0
0
685
0
0
382
0
0
0
0
0
429
0
-127
1000
0
0
-23
238
-272
0
-410
0
158
410
318
0
0
0
0
0
981
-26
0
0
0
0
0
0
0
-116
0
0
0
0
0
0
0
0
0
-161
-56
272
0
275
-159
-322
-339
505
-1000
394
273
0
49
586
-779
0
0
0
0
-535
0
206
-160
-524
0
-119
0
0
0
0
0
0
0
0
534
0
0
0
413
716
-942
-311
64
324
-213
-111
0
0
0
0
0
350
-210
-514
0
0
0
0
0
0
0
0
719
500
0
61
0
-319
0
0
158
-46
1000
148
0
-50
0
0
39
-1000
0
160
0
0
-544
0
-630
0
0
0
-213
0
0
0
0
0
0
-668
0
0
0
-111
0
-227
0
-197
0
0
0
193
0
0
0
0
1000
309
-610
0
406
0
63
0
0
-290
0
0
0
0
0
0
0
-341
702
0
0
0
0
0
0
-14
0
0
-132
0
-840
0
0
685
0
0
382
0
0
0
0
0
429
0
-127
1000
0
0
-23
238
-272
0
-410
0
158
410
318
0
0
0
0
0
981
-26
0
0
0
0
0
0
0
-116
0
0
0
0
0
0
0
0
0
-161
-56
272
0
275
-159
-322
-339
505
-1000
394
273
0
49
586
-779
0
0
0
0
-535
0
206
-160
-524
0
-119
0
0
0
0
0
0
0
0
534
0
0
0
413
716
-942
-311
64
324
-213
-111
0
0
0
0
0
350
-210
-514
0
0
0
0
0
0
0
0
719
500
0
61
0
-319
0
0
158
-46
1000
148
0
-50
0
0
39
-1000
0
160
0
0
-544
0
-630
0
0
0
-213
0
0
0
0
0
0
-668
0
0
0
-111
0
-227
0
-197
0
0
0
193
0
0
0
0
1000
309
-610
0
406
0
63
0
0
-290
0
0
0
0
0
0
0
-341
702
0
0
0
0
0
0
-14
0
0
-132
0
-840
0
-193
685
0
218
382
0
0
0
0
0
429
0
-127
163
0
0
-23
238
-272
0
-410
0
158
-322
861
0
0
623
335
0
720
-26
0
0
0
0
-536
941
718
-116
0
0
0
0
0
0
0
0
-286
-438
0
0
0
275
-29
-322
-154
505
-949
1000
444
0
49
586
-779
0
0
0
0
-330
0
-564
-160
-860
0
148
108
0
0
0
0
0
0
0
534
0
0
0
413
716
-942
-311
64
324
-213
-111
-149
1000
0
0
0
350
-210
-514
0
0
0
0
0
0
0
0
719
500
0
61
0
-319
0
0
158
-46
1000
148
0
-63
0
0
39
-324
0
160
0
0
-544
0
430
779
0
0
-835
-500
0
807
0
0
0
-668
0
-274
-27
-111
-628
0
-642
-401
0
-989
139
-56
0
0
0
0
0
0
0
0
420
0
63
0
0
-290
0
0
0
-208
0
0
1000
-341
836
0
0
0
0
0
-293
-14
-369
0
-111
0
324
0
0
866
42
0
71
0
0
0
0
0
429
0
37
565
55
-568
0
0
0
0
-374
0
133
0
286
0
0
85
-275
-74
-293
0
-156
314
0
0
464
-996
-668
817
0
0
0
293
0
0
0
0
189
0
0
0
16
104
0
-55
-184
0
-158
-442
0
0
0
0
0
0
0
1000
216
-120
183
304
0
149
-284
582
-383
-37
-679
-110
0
-798
-188
299
-104
68
0
-118
-743
37
324
-290
-297
0
992
0
330
0
98
138
0
265
0
0
594
0
0
-1000
489
949
0
71
613
0
0
205
0
0
0
0
-703
-363
0
519
443
0
0
294
0
0
0
0
0
904
0
281
0
0
0
0
0
0
0
0
-310
0
0
0
0
0
0
0
0
-587
0
0
1000
160
285
0
-29
230
-164
79
0
0
8
0
0
0
0
0
0
0
637
0
1
-127
-191
0
0
-349
27
1000
0
0
0
0
-100
0
68
-914
0
0
0
0
0
685
0
0
382
0
0
0
0
0
429
0
-127
1000
0
0
-23
238
-272
0
-410
0
158
410
720
414
531
0
0
0
981
-26
0
0
0
0
-568
996
760
-116
0
0
0
0
0
0
0
0
0
-161
-56
272
0
275
-159
-322
-339
505
-1000
394
273
0
49
586
-779
0
0
0
0
-535
0
206
-160
-524
0
-119
0
0
0
0
0
0
0
0
534
0
0
0
413
716
-942
-311
64
324
-213
-111
0
0
0
0
0
350
-210
-514
0
0
0
0
0
0
0
0
719
500
0
61
0
-319
0
0
158
-46
1000
148
0
-50
0
0
39
-1000
0
160
0
0
-544
0
-630
0
0
0
-213
0
0
0
0
0
0
-668
0
0
0
-111
0
0
0
-401
0
0
0
193
0
0
0
0
1000
309
-610
0
406
0
63
0
0
-290
0
0
0
0
0
0
0
-341
702
0
0
0
0
0
0
-14
0
0
-132
0
-840
0
0
345
770
0
-236
428
0
-269
865
0
429
-582
45
0
0
0
0
0
0
0
-410
0
0
0
93
467
783
-558
118
0
661
0
-518
-154
715
0
0
0
922
67
-139
143
-917
0
0
0
0
0
-503
-368
-849
-681
-617
0
-190
0
239
-46
0
155
0
0
0
0
-1000
-811
0
0
-656
-330
0
-564
-441
-1000
0
24
0
406
0
261
-641
-687
-587
0
0
0
0
0
0
-441
-1000
-116
229
-647
0
86
-80
101
0
299
0
416
-372
-514
0
0
0
0
0
0
498
0
-379
118
0
0
0
-643
621
612
0
-434
751
214
0
-50
0
0
39
-1000
-287
160
0
0
0
0
-1000
-187
0
612
-891
-505
-270
0
207
0
0
0
0
0
0
-111
-972
0
1000
496
-24
0
0
193
0
0
0
0
-540
0
0
34
0
0
-74
0
-184
-60
-716
-122
0
0
0
0
0
168
0
420
0
252
-132
-286
364
1000
-765
-340
0
0
0
0
89
558
0
-192
382
0
0
0
0
0
429
0
-127
163
0
0
-23
238
-272
0
-410
0
700
-322
861
0
0
623
335
0
720
-26
0
0
0
0
-536
941
718
-116
0
0
0
0
0
0
0
0
-286
-438
0
0
0
275
-29
-322
-154
505
-949
1000
273
0
49
586
-779
0
0
0
0
-330
0
-564
-160
-860
0
148
108
0
0
0
0
0
0
0
534
0
0
0
413
748
-942
-311
64
324
-213
-111
-149
1000
0
0
0
350
-210
-514
0
0
0
0
0
0
0
0
719
500
0
61
0
-319
0
0
158
-46
1000
148
0
-50
0
0
39
-324
0
160
0
0
-544
0
-813
-93
0
303
-835
-500
0
807
0
347
0
-668
0
-274
-27
-111
-628
0
-642
-401
0
-989
139
-56
0
0
0
0
0
0
0
0
406
0
63
0
0
-290
0
0
0
0
0
0
1000
-341
836
0
0
0
0
0
-157
-14
-198
0
-111
0
324
0
0
814
0
1000
523
264
-105
0
0
0
429
135
0
0
0
0
0
0
-233
0
-394
67
0
334
318
0
0
0
0
-555
0
0
0
0
0
0
0
0
0
0
0
0
0
0
0
0
0
0
0
-438
0
0
0
0
0
0
-963
672
576
88
135
-435
71
852
-779
0
0
0
0
-330
0
-1000
47
-1000
0
-236
1000
0
0
-266
0
0
0
0
0
0
0
0
0
0
-942
640
32
387
-254
-149
0
-319
0
0
0
350
-210
-514
0
0
0
0
0
0
0
0
-114
118
0
0
0
0
0
0
0
591
965
0
0
0
0
0
39
-1000
0
160
0
0
0
0
-630
0
293
0
0
0
-22
0
0
0
0
0
0
0
0
-111
0
-447
0
0
0
0
0
193
0
0
0
0
0
0
0
0
701
0
109
9
0
0
0
0
0
0
0
0
0
0
0
0
0
0
0
0
-642
86
0
-319
0
805
0
0
-193
685
367
218
89
0
-5
0
0
0
429
0
-127
163
0
0
-23
238
-272
0
-126
0
158
-322
861
0
0
-42
1000
40
1000
509
0
0
-437
0
-1000
396
1000
-116
0
0
0
0
0
0
0
0
-286
-438
0
0
0
275
90
-322
-154
505
-949
1000
273
0
49
221
-779
0
365
290
260
-56
0
14
-160
-860
0
148
108
166
0
0
832
0
0
0
534
-352
0
0
-46
1000
-957
-840
253
-47
31
114
-149
1000
0
0
0
350
-210
3
0
0
0
0
0
0
0
0
390
628
0
237
0
803
-788
0
158
-46
1000
148
0
-50
0
-157
39
-324
321
160
-647
0
-544
108
-630
0
0
0
-835
-388
188
807
0
0
0
-668
0
-274
23
-111
-628
0
-642
-401
662
-989
139
-56
0
872
-60
0
-598
-66
-188
0
415
0
63
0
0
-290
0
-85
490
0
0
-214
1000
-341
836
-423
-248
0
-115
0
-620
-14
-545
0
-111
0
324
0
0
685
0
0
382
0
0
0
0
0
429
0
-127
163
0
0
-23
238
-272
0
-410
0
158
410
318
0
0
0
0
0
281
-26
0
0
0
0
0
0
0
-116
0
0
0
0
-807
0
637
-393
0
-438
0
0
0
275
-159
-322
-339
505
-1000
394
273
0
49
586
-779
0
0
0
0
-330
0
-564
-160
-524
0
-119
0
0
0
0
0
0
0
0
534
-284
0
0
413
716
-942
-311
64
324
-213
-111
0
0
0
0
0
350
-210
-514
0
0
0
0
0
0
0
0
719
500
0
61
0
-319
0
0
158
-46
1000
148
0
-50
0
0
39
-1000
0
160
0
0
-544
0
-630
0
0
0
-213
0
0
0
0
0
0
-668
0
0
0
-111
0
0
0
-401
0
0
0
193
0
0
0
0
0
0
0
0
406
0
63
0
0
-290
0
0
0
0
0
0
0
-341
702
0
0
0
0
0
0
-14
0
0
584
0
-840
0
-193
685
367
218
382
0
-85
0
0
0
429
0
-127
163
0
0
-23
238
-272
0
-410
0
158
-322
861
0
0
-42
500
40
1000
509
0
0
-437
0
-1000
396
839
-116
0
0
0
0
0
0
0
0
-286
-438
0
0
0
275
-29
-322
-154
505
-949
1000
273
0
49
586
-779
0
365
290
260
-342
0
14
-160
-860
-459
148
108
166
0
0
832
0
0
0
534
-352
0
0
-574
1000
-794
-840
64
324
-213
-111
-149
1000
0
0
0
350
-210
-263
0
0
0
0
0
0
0
0
390
628
0
237
0
290
-788
0
158
-46
1000
148
0
-776
0
-157
39
-324
321
160
-647
0
-544
108
-630
0
0
0
-835
-500
0
807
0
0
0
-668
0
-274
23
-111
-628
0
-642
-401
613
-989
1000
-56
0
455
-31
0
-598
0
-188
0
415
0
63
0
61
-638
238
-153
490
0
0
-214
1000
-341
836
-423
-248
0
-115
0
-293
-14
-480
0
-111
0
324
0
-193
685
0
218
382
0
0
0
0
0
429
0
-127
163
0
0
-23
238
-272
0
-410
0
158
-322
861
0
0
623
335
0
720
-26
0
0
0
0
-536
941
718
-116
0
0
0
0
0
0
0
0
-286
-438
0
0
0
275
-29
-322
-154
505
-949
1000
273
0
60
586
-779
0
0
0
0
-330
0
-564
-160
-860
0
148
108
0
0
0
0
0
0
0
534
0
0
0
413
716
-942
-311
64
324
-213
-111
-149
1000
0
0
0
350
-210
-514
-358
0
0
0
0
0
0
0
719
500
0
61
0
-319
0
0
158
-46
1000
148
0
-50
0
0
39
-324
0
160
0
0
-544
0
-630
0
0
0
-835
-500
0
807
0
0
0
-668
0
-274
-27
-111
-628
-45
-642
-401
0
-989
139
-56
0
0
0
0
0
0
0
0
406
0
63
0
0
-290
0
0
0
0
0
0
1000
-341
836
0
0
-651
341
737
-293
-14
-369
0
-111
0
324
0
-193
685
0
218
382
0
0
0
0
0
429
0
-127
163
0
0
-23
238
-272
0
-410
0
158
-322
861
0
0
623
335
0
720
-26
0
0
0
0
-536
941
718
-116
0
0
0
0
0
0
0
0
-286
-438
0
0
0
275
-29
-322
-154
505
-949
1000
273
0
49
586
-779
0
0
0
0
-330
0
-564
-160
-860
0
148
108
0
0
0
0
0
0
0
534
0
0
0
413
716
-942
-311
64
324
-213
-111
-149
1000
0
0
0
350
-210
-514
0
0
0
0
0
0
0
0
719
500
0
61
0
-319
0
0
158
-46
1000
148
0
-50
0
0
39
-324
0
160
0
0
-544
0
-630
0
0
0
-835
-500
0
807
0
0
0
-668
0
-345
-34
-111
-628
0
-642
-401
0
-989
139
-56
0
0
0
0
0
0
0
0
406
0
63
0
0
-290
0
0
0
0
0
0
1000
-341
836
0
0
0
0
0
-293
-14
-369
0
-111
0
324
0
187
685
0
0
136
0
0
-248
0
0
429
0
-127
163
0
-365
-1000
238
-272
-707
-870
0
158
-140
318
0
0
0
0
-400
981
132
0
0
0
0
549
-26
-735
-116
0
0
0
0
0
0
0
0
-105
-663
851
0
0
275
-159
-726
-339
505
-1000
394
273
-299
49
586
-779
-91
0
0
0
-330
0
-1000
-160
-524
0
-119
0
0
428
0
0
0
0
0
534
0
0
-662
413
716
-942
-311
64
324
-213
-111
0
0
171
-394
0
350
-210
-514
0
0
0
0
0
0
0
0
719
500
0
61
29
23
0
0
158
-46
1000
148
0
-50
0
52
-295
-1000
65
-368
0
0
-544
-849
-630
0
0
0
-213
-324
786
0
0
0
0
-668
707
-15
0
402
-589
0
884
-401
-290
0
-815
344
0
0
0
0
0
0
0
0
406
0
63
306
0
-290
0
0
192
0
0
-605
0
-341
702
0
0
0
0
0
0
-14
0
0
-111
0
324
0
0
685
0
0
382
0
0
0
0
0
429
0
-127
1000
0
0
-23
238
-272
0
-410
0
158
410
318
0
0
0
0
0
981
-26
0
0
0
0
7
-12
-9
-116
0
0
0
0
0
0
0
0
0
-161
-56
272
0
275
-159
-322
-339
505
-1000
394
273
0
49
586
-779
0
0
0
0
-535
0
206
-160
-524
0
-119
0
0
0
0
0
0
0
0
534
0
0
0
413
716
-942
-311
64
324
-213
-111
-7
49
0
0
0
350
-210
-514
0
0
0
0
0
0
0
0
719
500
0
61
0
-319
0
0
67
-223
1000
349
0
-50
0
0
39
-1000
0
160
0
0
-544
0
-630
0
0
0
-213
0
0
0
0
0
0
-668
0
0
0
-111
0
-227
0
-197
0
0
0
193
0
0
0
0
1000
309
-610
0
406
0
63
0
0
-290
0
0
0
0
0
0
0
-341
702
0
0
0
0
0
0
-14
0
0
-132
0
-840
0
-193
685
0
22
46
0
0
425
0
0
429
0
-127
163
861
0
-23
238
-272
0
-410
0
-765
-322
585
-281
0
623
-52
-459
720
680
0
0
0
0
-536
941
718
-116
0
548
-74
0
0
0
614
146
-286
-370
0
-997
0
275
-29
-322
-99
518
-949
1000
273
0
117
1000
-779
0
-14
172
0
184
-974
-564
-160
-860
0
148
108
0
0
0
730
232
-376
0
534
0
0
0
413
716
-942
-311
-199
757
-213
-111
-149
1000
0
936
0
350
-210
-514
303
0
0
547
43
0
-227
0
14
500
222
61
0
-319
0
0
89
-181
1000
301
520
-50
0
-377
39
51
0
-316
0
-553
-402
0
-630
0
0
0
-1000
470
-76
759
0
0
-347
-668
0
-274
-27
-111
-628
59
-642
-401
0
-989
139
-56
1000
592
0
0
0
0
24
60
406
-158
920
0
0
-290
0
0
925
0
542
0
1000
-341
836
0
0
0
0
0
608
582
-369
0
-111
0
324
0
0
836
0
1000
523
264
-105
0
0
0
429
135
0
1000
0
293
0
0
0
0
-394
619
0
0
583
273
350
0
0
-441
-566
461
463
-145
-1000
0
0
410
40
-975
0
0
178
-543
-499
0
0
-243
0
-149
-72
351
0
0
0
0
-963
310
576
-97
0
0
0
0
607
-513
925
-415
0
-330
0
-1000
-1000
-1000
335
0
0
0
0
0
0
0
0
0
-840
0
0
228
-95
-693
-942
847
229
0
0
86
407
-351
0
433
0
350
-277
-514
0
0
0
0
339
26
-235
0
-114
-533
0
0
0
0
303
-89
0
0
965
0
0
-50
-841
-860
39
-1000
138
-355
349
-150
217
606
-194
0
1000
0
-231
220
459
0
413
-85
1000
0
0
0
0
-111
0
-447
0
0
234
878
41
902
0
-112
629
0
-432
421
-27
18
127
0
316
-64
-813
42
-1000
-82
-636
-1000
-219
652
-92
0
67
0
0
-381
190
431
0
0
1000
-805
0
-12
-355
0
0
510
42
976
71
0
0
0
0
0
429
0
0
0
309
-135
789
0
-219
0
-183
0
-825
-165
286
0
0
85
-275
-74
-293
0
-156
314
0
273
231
-996
-668
222
0
-258
0
293
0
-557
0
107
189
0
0
0
16
104
0
-83
0
-70
0
677
-1000
0
0
0
0
0
0
302
216
0
57
-745
0
0
0
-27
16
201
-969
-1000
0
-459
-188
133
0
0
277
0
-158
1000
-317
-306
120
0
284
-182
330
-193
79
351
-1
-162
443
-914
487
484
0
-820
489
795
0
0
613
0
0
205
0
92
0
656
0
-363
0
330
0
0
0
294
65
0
0
0
0
0
0
0
0
0
0
0
0
0
0
0
0
0
0
0
0
-97
0
-183
0
0
0
1000
282
-229
0
0
43
-344
941
-156
358
-1000
-995
0
0
0
0
0
0
473
0
-102
0
0
0
517
0
-349
27
-761
0
0
0
0
794
311
327
-914
0
0
0
0
0
685
0
0
382
0
0
0
0
0
429
0
-127
1000
0
0
-23
238
-272
0
-410
0
158
410
720
414
1000
0
0
0
981
-26
0
0
0
0
0
0
0
-116
0
0
0
0
0
0
0
0
0
-161
-56
272
0
275
-159
-322
-339
505
-1000
394
273
0
49
586
-779
0
0
0
0
-535
0
206
-160
-524
0
-119
0
0
0
0
0
0
0
0
534
0
0
0
413
716
-942
-311
64
324
-213
-111
0
0
0
0
0
350
-210
-514
0
0
0
0
0
0
849
0
719
500
0
61
0
-319
345
0
89
-181
1000
301
0
-50
0
0
39
-1000
0
160
0
0
-544
0
-630
0
0
0
-213
0
0
0
0
0
0
-668
0
288
28
-111
0
0
0
-401
0
0
0
193
0
0
0
0
1000
309
-610
0
406
0
63
0
0
-290
0
0
0
0
0
0
0
-341
606
0
0
0
0
0
0
-14
0
0
-132
0
-840
0
-193
685
0
22
46
0
0
425
0
0
429
0
-127
163
934
210
-23
-334
-272
0
-410
0
-765
-322
585
-281
0
623
-89
-501
533
680
0
0
0
0
-536
941
718
-116
0
-177
-74
0
0
0
614
146
-286
-370
0
-997
0
275
-29
-322
-154
505
-949
1000
273
0
117
1000
-779
0
385
172
0
184
-974
-564
-160
-860
0
148
108
0
410
0
730
232
-376
0
534
0
0
0
413
716
-942
-311
-199
1000
-213
-111
-149
1000
0
0
450
350
-210
-514
303
0
0
547
43
0
-227
0
-88
500
222
61
0
-319
0
0
89
-181
1000
301
656
-50
0
0
39
819
0
-664
0
-553
-402
0
-323
0
0
0
-1000
470
-76
759
0
0
-347
-668
0
-242
-24
-111
-628
0
-642
-401
0
-989
139
-56
0
0
0
0
0
0
-38
60
406
78
920
0
0
-290
0
0
925
0
-286
203
1000
-341
836
0
0
0
0
0
608
582
-369
0
-111
0
324
0
0
814
0
1000
523
264
-105
0
0
0
429
135
0
0
0
0
0
0
-233
0
-394
67
0
0
318
0
0
0
0
-555
0
0
0
0
0
0
0
0
0
0
0
0
0
0
0
0
0
0
0
-438
0
0
0
0
0
0
-963
672
576
88
577
0
0
0
-779
0
0
0
0
-330
0
-1000
-396
-1000
0
0
1000
0
0
-266
0
0
0
0
0
0
0
0
0
0
-942
640
32
387
-254
-149
0
-319
0
0
0
350
-210
-514
0
0
0
0
0
0
0
0
-114
118
0
0
0
0
0
0
0
591
965
0
0
0
0
0
39
-1000
0
160
0
0
0
0
-630
0
293
0
0
0
0
0
0
0
0
0
0
0
0
-111
0
-447
0
0
0
0
0
193
0
0
0
0
0
0
0
0
0
0
0
-13
0
0
0
0
0
0
0
0
0
0
0
0
0
0
0
0
-642
86
0
-319
0
805
0
0
0
866
42
0
71
0
0
0
0
0
429
0
-421
-560
-98
0
0
0
0
0
-374
0
133
0
286
0
0
85
-275
-74
-293
0
-156
314
0
0
464
-996
-668
817
0
0
0
293
0
0
0
0
189
0
0
0
16
104
0
0
-184
0
0
-442
0
0
0
0
0
0
0
1000
216
-120
183
304
0
149
-284
582
-383
-37
-679
-110
0
-798
-188
299
-104
68
0
-118
-743
37
324
-290
-297
0
992
0
330
0
98
138
0
265
0
0
594
0
0
-1000
489
949
0
71
613
0
0
205
0
0
0
0
-703
-363
0
519
443
0
0
294
0
0
0
0
0
0
0
0
0
0
0
0
0
0
0
0
-310
0
0
0
0
0
0
0
0
-587
0
0
1000
160
285
0
-29
230
-164
104
0
0
8
0
0
0
0
0
0
0
637
0
1
-127
-191
0
0
-349
27
1000
0
0
0
0
-100
0
68
-914
0
0
0
0
-193
685
0
218
382
0
0
0
0
0
429
0
-127
163
0
0
-23
238
-272
0
-410
0
158
-322
861
0
0
623
335
0
720
-26
0
0
0
0
-536
941
718
-116
0
0
0
0
0
0
0
0
-286
-438
0
0
0
275
-29
-322
-154
505
-949
1000
273
0
49
586
-779
0
0
0
0
-330
0
-564
-160
-860
0
148
108
0
0
0
0
0
0
0
534
0
0
0
413
716
-942
-311
64
324
-213
-111
-149
1000
0
0
0
350
-210
-514
0
0
0
0
0
0
0
0
719
500
0
61
0
-319
0
0
158
-46
1000
148
-244
-50
0
0
39
-324
0
160
0
0
-544
0
-630
0
0
0
-835
-500
0
807
0
0
0
-668
0
-274
-27
-111
-628
0
-642
-401
0
-998
140
-60
0
0
0
0
0
0
0
0
406
0
63
0
-153
-470
0
0
0
0
0
0
1000
-341
836
0
0
0
0
0
-293
-14
-369
0
-111
0
324
0
0
1000
108
0
71
0
-171
0
0
0
429
0
-6
0
202
-50
0
723
-581
370
224
657
0
0
286
144
-1000
85
-275
573
-56
256
-31
62
0
-21
231
-996
-668
817
0
473
0
293
0
0
0
0
189
0
0
0
16
104
0
0
0
-560
0
-282
0
0
0
0
-106
0
0
532
216
0
57
0
0
0
0
0
79
0
-969
-35
0
-794
245
-503
200
-95
0
522
511
554
-317
-519
-297
0
992
0
330
0
98
138
0
-207
0
0
594
0
0
-1000
814
1000
-80
0
276
282
125
428
0
0
592
0
0
-493
85
448
0
0
0
737
0
0
0
0
0
0
0
0
0
0
581
0
0
0
0
0
0
-552
0
0
0
0
0
0
0
294
0
0
474
-229
0
0
89
-711
941
-323
264
0
8
6
580
112
0
0
0
0
0
0
0
126
0
0
0
-349
27
634
0
0
-1000
0
-100
0
115
-914
0
0
0
0
0
836
0
1000
523
264
-105
0
0
0
429
49
906
850
0
-312
0
0
0
0
-394
619
0
0
583
273
350
0
0
-441
-566
461
463
-145
-1000
0
0
410
40
-975
0
592
-234
635
-952
0
0
-464
0
-149
-72
351
0
0
0
0
-963
310
576
-97
0
0
0
0
607
-251
453
-415
0
-330
0
-1000
-1000
-1000
335
0
0
0
0
0
0
0
0
0
-840
0
0
228
-95
-693
-942
847
229
0
0
86
407
-351
0
433
0
350
-277
-514
0
-202
0
0
297
22
-234
0
-111
-533
5
1
0
130
0
-273
0
0
965
0
0
-50
-841
-860
39
-1000
102
-345
349
-150
217
606
-194
0
1000
0
-231
145
459
0
413
-85
1000
0
0
0
499
-111
493
-821
-739
335
0
0
333
193
0
-112
629
0
-432
421
-27
18
127
0
316
-64
-813
42
-1000
-82
-636
-1000
-219
652
-92
0
67
0
0
-362
190
410
0
0
1000
-805
0
-12
-355
0
0
836
0
1000
523
264
-105
0
0
0
429
135
0
1000
0
293
0
0
0
0
-394
619
0
0
583
273
350
0
0
-441
-566
461
463
-145
-1000
0
0
410
40
-975
0
0
178
-543
-499
0
0
-243
0
-149
-72
351
0
0
0
0
-963
310
576
-97
0
0
0
0
607
-513
925
-415
0
-330
0
-1000
-1000
-1000
335
0
0
0
0
0
0
0
0
0
-840
0
0
228
-95
-693
-942
847
229
0
0
86
407
-351
0
433
0
350
-277
-514
0
0
0
0
339
26
-235
0
-114
-533
0
0
0
0
303
-89
0
0
965
0
0
-50
-841
-860
39
-1000
138
-355
349
-150
217
606
-194
0
1000
0
-231
220
459
0
413
-85
1000
0
0
0
0
-111
0
-447
0
0
234
878
41
902
0
-112
629
0
-432
421
-27
18
127
0
316
-64
-813
42
-1000
-82
-636
-1000
-219
652
-92
0
67
0
0
-381
190
431
0
0
1000
-805
0
-12
-355
0
-193
-232
0
218
382
0
0
0
0
0
429
0
-127
163
0
0
-23
238
-272
0
-410
0
158
-322
861
0
0
623
335
0
720
-26
0
0
0
0
-536
941
718
-116
0
0
0
0
0
0
0
0
-286
-438
0
0
0
275
-29
-322
-154
505
-949
1000
-31
0
49
586
-779
0
0
0
0
-330
0
-564
-160
-860
0
148
108
0
0
0
-174
0
0
0
534
0
0
0
413
716
-942
-311
64
324
-213
-111
-149
1000
0
0
0
350
-210
-514
0
0
0
0
0
0
0
0
719
500
0
61
0
-319
0
0
158
-46
1000
148
0
-63
0
0
39
-324
0
160
0
0
-544
0
430
779
0
0
-835
-500
0
807
0
0
0
-668
0
-274
-27
-111
-628
0
-642
-401
0
-989
139
-56
0
0
0
0
0
0
0
0
406
0
63
0
0
-290
0
0
0
-208
0
0
1000
-341
836
0
0
0
0
0
-293
-14
-369
0
-111
0
324
0
-193
685
0
22
46
0
0
425
0
0
429
0
-127
163
861
0
-23
238
-272
0
-410
0
-765
-322
51
281
0
-623
635
-459
720
680
0
0
0
0
-536
941
718
-116
0
-177
-74
0
0
0
614
146
-286
-370
0
-997
0
275
-29
-322
-154
505
-949
1000
-343
109
117
1000
-779
0
-14
172
0
184
-974
-564
-160
-860
0
148
108
0
0
0
730
232
-376
0
534
0
0
0
413
716
-942
-311
-199
1000
-213
-111
-149
1000
0
0
864
-262
157
385
303
0
0
547
43
0
-227
238
14
500
222
61
0
-122
215
0
89
-181
1000
301
228
56
0
0
39
51
0
-316
0
-553
-402
0
-630
0
0
0
-1000
470
-76
759
0
0
-347
-668
0
-274
-27
-111
-628
-446
-642
-401
0
-989
139
-56
0
0
0
0
0
-456
24
60
406
-183
920
0
0
-290
0
0
925
0
542
0
1000
-341
836
0
0
0
0
-836
608
582
-369
0
-111
0
324
0
0
685
0
0
382
0
0
0
0
0
429
0
-127
163
0
0
-23
238
-272
0
-410
0
158
410
318
0
0
0
0
0
281
-26
0
0
0
0
0
0
0
-116
0
0
0
0
-807
0
637
-393
0
-438
0
0
0
275
-159
-322
-339
505
-1000
394
273
0
49
586
-779
0
0
0
0
-330
0
-564
-160
-524
0
-119
0
0
0
0
0
0
0
0
534
-284
0
0
413
716
-942
-311
64
324
-213
-111
0
0
0
0
0
350
-210
-514
0
0
0
0
0
0
0
0
719
500
0
61
0
-319
0
0
158
-46
1000
148
0
-50
0
0
39
-1000
0
160
0
0
-544
0
-630
0
0
0
-213
0
0
0
0
0
0
-668
0
0
0
-111
0
0
0
-401
0
0
0
193
0
0
0
0
0
0
0
0
406
0
63
0
0
-290
0
0
0
0
0
0
0
-341
702
0
0
0
0
0
0
-14
0
0
584
0
-840
0
-193
685
367
218
382
0
-85
0
0
0
429
0
-127
163
0
0
-23
238
-272
0
-410
0
158
-322
861
0
0
-42
500
40
1000
509
0
0
-437
0
-1000
396
839
-116
0
0
0
0
0
0
0
0
-286
-438
0
0
0
275
-29
-322
-154
505
-949
1000
273
0
49
586
-779
0
365
290
260
-342
0
14
-160
-860
-459
148
108
166
0
0
832
0
0
0
534
-352
0
0
-574
1000
-794
-840
64
324
-213
-111
-149
1000
0
0
0
350
-210
-263
0
0
0
0
0
0
0
0
390
628
0
237
0
290
-788
0
158
-46
1000
148
0
-776
0
-157
39
-324
321
160
-647
0
-544
108
-630
0
0
0
-835
-500
0
807
0
0
0
-668
0
-274
23
-111
-628
0
-642
-401
613
-989
1000
-56
0
455
-31
0
-598
0
-188
0
415
0
63
0
0
-494
0
-145
490
0
0
-214
1000
-341
836
-423
-248
0
-115
0
-293
-14
-480
0
-111
0
324
0
-288
685
0
28
46
0
0
425
0
0
429
0
-127
163
861
0
-23
238
-272
0
-410
0
-765
-322
51
281
0
-623
635
-459
720
680
0
0
0
0
-536
941
718
-116
0
-177
-74
0
0
0
614
146
-286
-370
0
-997
0
275
-29
-322
-154
505
-949
1000
-343
109
117
1000
-779
0
-14
172
0
-695
692
-564
-160
-860
0
148
108
0
0
0
730
232
-376
0
534
0
0
0
413
716
-942
-311
-199
1000
-213
-111
-149
1000
0
0
864
-262
157
385
303
0
0
547
43
0
-227
238
14
500
222
61
0
-82
144
0
89
-181
1000
301
228
56
0
0
39
51
0
-316
0
-553
-402
0
-630
0
0
0
-1000
470
-76
759
0
0
-347
-668
0
-274
-27
-111
-628
-446
-642
-401
0
-989
139
-56
0
0
0
0
0
-456
24
60
406
-183
920
0
0
-290
0
0
925
0
542
0
1000
-341
836
0
0
0
0
-836
608
582
-369
0
-111
0
324
0
0
836
0
1000
523
264
-105
0
0
0
429
884
906
850
0
293
0
0
0
0
-394
619
0
0
583
273
350
0
0
-441
-566
461
463
-145
-1000
0
0
410
40
-975
0
592
-234
635
-499
0
0
-243
0
-149
-72
351
0
0
0
0
-963
310
576
-97
0
0
0
0
607
-251
453
-415
0
-330
0
-1000
-1000
-1000
335
0
0
0
0
0
0
0
0
0
-840
0
0
228
-95
-693
-942
847
273
-86
56
138
456
-452
-51
486
0
350
-277
-514
0
-202
0
0
297
22
-234
0
-111
-533
5
1
0
130
0
-273
0
0
965
0
0
-50
-841
-860
39
-1000
102
-345
349
-150
217
606
-194
0
1000
0
-231
145
459
0
413
-85
1000
0
0
-27
-3
-111
0
-447
0
0
0
0
333
193
-204
-112
629
0
-432
421
-27
18
127
0
316
-64
-813
42
-1000
-82
-636
-1000
-219
652
-92
0
67
0
0
-362
190
410
0
0
1000
-805
0
-12
-355
0
0
685
0
0
382
0
0
0
0
0
429
0
-127
163
0
0
-23
238
-272
0
-410
0
158
410
318
0
0
0
0
0
981
-26
0
0
0
0
0
0
0
-116
0
0
0
0
0
0
0
0
169
-438
0
0
0
275
-159
-322
-339
505
-1000
394
273
0
49
586
-779
0
-26
320
0
-330
0
-564
-160
-524
0
-119
0
0
0
0
0
0
0
0
534
0
0
0
413
716
-942
-311
64
324
-213
-111
0
0
0
0
0
350
-210
-514
0
0
0
0
0
0
0
0
719
500
0
61
0
-319
0
0
158
-46
1000
148
0
-50
0
0
39
-1000
0
160
0
0
-544
0
-630
0
0
642
-213
0
0
0
0
0
0
-668
0
0
0
-111
0
0
0
-401
0
0
0
193
0
0
0
0
0
0
0
0
406
0
63
0
0
-290
0
0
0
0
0
0
0
-341
702
0
-628
0
0
-64
0
-14
0
0
584
0
-840
0
0
685
0
0
382
0
0
0
0
0
429
0
-127
1000
0
0
-23
238
-272
0
-410
0
158
410
318
0
0
0
0
0
981
-26
0
0
0
0
0
0
0
-116
0
0
0
0
0
0
0
0
0
-161
-56
272
0
275
-159
-322
-339
505
-1000
394
273
0
49
586
-779
0
0
0
0
-535
0
206
-160
-524
0
-119
0
0
0
0
0
0
0
0
534
0
0
0
413
716
-942
-311
64
324
-213
-111
0
0
0
0
0
350
-210
-514
0
0
0
0
0
0
0
0
719
500
0
61
0
-319
0
0
158
-46
1000
148
0
-50
0
0
39
-1000
0
160
0
0
-544
0
-630
0
0
0
-213
0
0
0
0
0
0
-668
0
0
0
-111
0
-227
0
-197
0
0
0
193
66
-529
0
-240
1000
309
-610
0
406
0
63
153
0
-290
0
0
0
0
0
0
0
-341
702
0
0
0
0
0
0
-14
0
0
-132
0
-840
0
-193
685
367
218
382
0
-85
0
0
0
429
0
-127
163
0
0
-23
238
-272
0
-126
0
158
-322
861
0
0
-42
1000
40
1000
509
0
0
-437
0
-1000
396
1000
-116
0
0
0
0
0
0
0
0
-286
-438
0
0
0
275
90
-322
-154
505
-949
1000
273
0
49
221
-779
0
365
290
260
-56
0
14
-160
-860
0
148
108
166
0
0
832
0
0
0
534
-352
0
0
-511
665
-1000
-855
253
-47
31
114
-149
1000
0
0
0
350
-210
3
0
0
0
0
0
0
0
0
390
628
0
237
0
290
-788
0
158
-46
1000
148
0
-50
0
-157
39
-324
321
160
-647
0
-544
108
-630
0
0
0
-835
-388
188
807
0
0
0
-668
0
-274
23
-111
-628
0
-642
-401
662
-989
139
-56
0
621
-43
0
-598
-66
-188
0
268
0
-178
429
0
-290
0
-85
490
0
0
-214
1000
-341
836
-423
-535
0
-115
0
-620
-14
-545
0
-111
0
324
0
-193
685
0
218
382
0
0
0
0
0
429
0
-127
163
0
0
-23
238
-272
0
-410
0
158
-322
861
0
0
623
335
0
720
-26
0
0
0
0
-536
941
718
-116
0
0
0
0
0
0
0
0
-286
-438
0
0
0
275
-29
-322
-154
505
-949
1000
273
0
49
586
-779
0
0
0
0
-330
0
-564
-160
-860
0
148
108
0
0
0
0
0
0
0
534
0
0
0
413
716
-942
-311
64
324
-213
-111
-149
1000
0
0
0
350
-210
-514
0
0
0
0
0
0
0
0
719
500
0
61
0
-319
0
0
158
-46
1000
148
-244
-50
0
0
39
-324
0
160
0
0
-544
0
-630
0
0
0
-835
-500
0
807
0
0
0
-668
0
-274
-396
-111
-628
0
-642
-401
0
-998
140
-60
0
0
0
0
0
0
0
0
406
0
63
0
-153
-470
0
0
0
0
0
0
1000
-341
836
0
0
0
0
0
-293
-14
-369
0
-111
0
324
0
0
345
770
92
-236
428
0
-269
865
0
429
-582
45
0
0
0
0
0
0
0
-410
0
0
0
93
467
783
-558
118
0
661
0
-518
-154
715
0
-842
0
922
67
-139
143
-917
0
0
0
0
0
112
-567
-849
-681
-617
-245
-190
0
239
-46
0
155
0
0
0
0
-1000
-811
0
0
-656
-330
0
-564
-83
-1000
0
-167
0
406
0
261
-641
-687
-622
0
0
0
0
0
0
-441
-1000
-116
229
-647
0
86
-80
101
0
299
0
350
-210
-514
0
0
0
0
0
0
498
0
-379
118
0
0
0
0
-612
-603
0
-434
751
214
0
-50
0
0
39
-1000
-287
160
0
0
0
0
-1000
-187
0
612
-891
-505
-270
0
137
0
0
0
0
0
0
-111
-972
0
1000
496
-24
0
0
193
0
0
0
0
-540
0
0
34
0
0
-74
0
-210
0
-816
-119
0
0
0
0
0
168
0
420
0
0
0
0
364
1000
-765
-340
0
0
0
0
-193
685
0
218
382
0
0
0
0
0
429
0
-127
163
0
0
-23
238
-272
0
-410
0
158
-322
694
42
0
467
335
0
720
-26
0
0
0
0
-536
941
718
-116
0
0
0
0
0
0
0
0
-286
-438
0
0
0
275
-29
-322
-154
505
-949
1000
273
0
49
586
-779
0
0
0
0
-330
0
-564
-160
-860
0
148
108
0
0
0
0
0
0
0
534
0
0
0
413
716
-942
-311
64
324
-213
-111
-149
1000
0
0
0
350
-210
-514
0
0
0
0
0
0
0
0
719
500
0
61
0
-319
0
0
158
-46
1000
148
0
-50
0
0
39
-324
0
160
0
461
-544
224
-730
0
0
0
-835
-500
0
807
0
0
0
-668
0
-274
-27
-111
-628
0
-642
-401
0
-989
139
-56
0
0
0
0
0
0
0
0
406
0
63
0
0
-290
0
0
0
0
0
0
1000
-341
876
0
0
0
0
0
-884
-14
-369
0
-111
0
324
0
187
685
0
0
136
0
0
-248
0
0
429
0
-127
163
0
-365
-1000
238
-272
-707
-870
0
158
-140
318
0
0
0
0
-400
981
132
0
0
0
0
0
-26
0
-116
0
0
0
0
0
0
0
0
-105
-663
851
0
430
275
-159
-726
-339
505
-1000
394
273
-299
49
586
-967
-91
0
0
0
-330
0
-1000
-160
-524
0
-119
0
0
639
131
0
-273
0
0
534
0
0
-662
413
716
-942
-311
64
324
-213
-111
0
0
171
-394
0
350
-210
-349
219
0
0
395
0
0
0
0
719
500
0
61
29
23
0
0
158
-46
1000
148
0
-50
0
52
200
-1000
173
-349
0
0
-544
-849
-630
0
0
0
-722
-460
786
0
0
0
0
-668
707
-15
0
402
215
-610
-323
146
-290
0
-815
344
0
0
0
0
0
0
0
0
406
0
63
306
0
-290
0
0
192
0
0
-605
0
-341
702
0
0
0
0
0
0
-14
0
0
-111
0
324
0
-193
685
0
22
46
0
0
425
0
0
429
0
-127
163
861
0
-23
238
-272
0
-392
712
115
48
570
139
-13
642
-71
-480
720
879
0
0
0
0
-536
941
718
-116
0
548
-74
0
0
0
614
146
-286
-370
0
-997
0
275
-29
-322
-154
505
-949
1000
273
0
117
1000
-779
-52
-14
172
0
184
-974
-564
-160
-838
0
148
108
0
0
0
730
232
-376
0
534
0
0
0
413
716
-942
-311
-199
757
-213
-111
794
1000
193
-635
-393
221
-210
-514
303
0
0
547
154
237
-134
18
14
500
222
61
0
-319
0
0
89
-181
1000
301
-6
-50
0
5
39
51
0
-316
0
-553
-402
0
-630
0
0
0
-1000
470
-76
759
0
0
-347
-668
0
-274
-27
-111
-628
59
-642
-401
0
-989
139
-56
1000
592
0
0
0
0
24
60
406
-158
920
0
0
-290
0
0
925
0
542
0
1000
-341
1000
0
0
0
0
0
608
582
-369
0
-80
0
235
0
-193
685
0
22
46
0
0
425
0
0
429
0
-127
163
456
0
-23
-334
-272
0
-410
0
-765
-322
585
-281
0
623
-52
-459
720
680
0
0
0
0
-536
941
718
-116
0
-177
-74
0
0
0
614
146
-286
-370
0
-997
0
275
-29
-322
-154
505
-949
1000
273
0
117
1000
-779
0
385
172
0
184
-974
-564
-160
-860
0
148
108
0
683
0
730
232
-376
0
534
0
0
0
413
716
-942
-311
-199
1000
-213
-111
-149
1000
0
0
143
350
-210
-514
303
0
0
547
43
0
-227
0
-88
500
222
61
0
-319
0
0
89
-181
1000
301
656
-50
0
0
39
819
0
-664
0
-553
-402
0
-323
0
0
0
-1000
470
-76
759
0
0
-347
-668
0
-242
-24
-111
-628
0
-642
-401
0
-989
139
-56
0
0
0
0
0
0
-38
60
-117
-23
920
0
-177
-46
-686
-100
925
0
542
0
1000
-341
836
0
0
0
0
0
608
582
-369
0
-111
0
324
0
-193
685
0
218
382
0
0
0
0
0
429
0
-127
163
0
0
-23
238
-272
0
-410
0
158
-322
861
0
0
623
335
0
720
-26
0
0
0
0
-536
941
718
-116
0
0
0
0
0
0
0
0
-286
-438
0
0
0
275
-29
-322
-154
505
-949
1000
273
0
49
586
-779
0
0
0
0
-330
0
-564
-160
-860
0
148
108
0
0
0
0
0
0
0
534
0
0
0
413
716
-942
-311
64
324
-213
-111
-149
1000
0
0
0
350
-210
-514
0
0
0
0
0
0
0
0
719
500
0
61
0
-319
0
0
158
-46
1000
148
-244
-50
0
0
39
-324
0
160
0
0
-544
0
-630
0
0
0
-835
-500
0
807
0
0
0
-668
0
-274
-27
-111
-628
0
-642
-401
0
-998
140
-60
0
0
0
0
0
0
0
0
406
0
63
0
-153
-470
0
0
0
0
0
0
1000
-341
836
0
0
0
0
0
-293
-14
-369
0
-111
0
324
0
0
866
42
0
71
0
0
0
0
0
429
0
-421
-560
-98
0
0
0
0
0
-374
0
133
0
286
0
0
85
-275
-74
-293
0
-156
314
0
0
464
-996
-668
817
0
0
0
293
0
0
0
0
189
0
0
0
16
104
0
0
-184
0
0
-442
0
0
0
0
0
0
0
1000
216
-120
183
304
0
149
-284
582
-383
-37
-679
-110
0
-798
-188
299
-104
68
0
-118
-743
37
324
-290
-297
0
992
0
330
0
98
138
0
265
0
0
594
0
0
-1000
489
949
0
71
613
0
0
205
0
0
0
0
-703
-363
0
519
443
0
0
294
0
0
0
0
0
0
0
0
0
0
0
0
0
0
0
0
-310
0
0
0
0
0
0
0
0
-587
0
0
1000
160
285
0
-29
230
-164
104
0
0
8
0
0
0
0
0
0
0
637
0
1
-127
-191
0
0
-349
27
1000
0
0
0
0
-100
0
68
-914
0
0
0
0
0
685
0
0
382
0
0
0
0
0
429
0
-127
1000
0
401
-23
238
-272
0
-410
0
158
410
318
0
0
0
0
0
981
-26
0
0
0
0
0
0
0
-116
0
0
0
0
0
0
443
0
0
-161
-56
272
0
-106
61
124
-339
505
-1000
394
273
0
49
586
-779
0
0
0
0
-295
0
206
-160
-524
0
-119
0
0
0
0
0
0
0
0
534
0
0
0
413
716
-942
-311
64
324
-213
-111
0
0
0
0
0
84
-50
-123
0
0
0
0
0
0
-235
0
719
500
0
61
0
-319
0
0
158
-46
1000
148
0
-50
0
-170
39
-1000
0
160
0
0
-544
0
-630
0
0
0
-213
0
0
0
0
0
0
-668
0
0
0
-111
0
0
0
-401
0
0
0
193
0
0
0
0
1000
309
-610
0
406
0
63
0
0
-290
0
0
0
0
0
0
0
-341
702
0
0
0
0
0
-1000
-14
4
107
-132
0
-840
0
0
685
0
0
382
0
0
0
0
0
429
0
-127
1000
0
0
-23
238
-272
0
-410
0
158
410
720
414
531
0
0
0
981
-26
0
0
0
0
-568
996
760
-116
0
0
0
0
0
0
0
0
0
-161
-56
272
0
275
-159
-322
-339
505
-1000
394
273
0
49
586
-779
0
0
0
0
-535
0
206
-160
-524
0
-119
0
0
0
0
0
0
0
0
534
0
0
0
413
716
-942
-311
64
324
-213
-111
0
0
0
0
0
350
-210
-514
0
0
0
0
0
0
0
0
719
500
0
61
0
-319
0
0
158
-46
1000
148
0
-50
0
0
39
-1000
0
160
0
0
-544
0
-630
0
0
0
-213
448
-72
723
0
0
0
-668
0
0
0
-111
0
0
0
-401
0
0
0
193
0
0
0
0
1000
309
-610
0
406
0
63
0
0
-290
0
0
0
0
0
0
0
-341
702
0
0
0
0
0
0
-14
0
0
-132
0
-840
0
170
685
0
-192
382
0
0
0
0
0
429
0
-127
163
0
0
-23
238
-272
0
-789
-640
158
-322
861
0
0
623
335
0
720
-26
0
0
0
0
-26
-47
11
360
0
0
0
0
0
0
0
0
-286
-438
0
0
0
275
-29
-322
-154
505
-949
1000
273
0
49
1000
-779
0
0
0
0
-330
0
-597
-160
-860
0
148
108
0
0
0
0
0
0
0
534
0
0
0
413
716
-942
-311
64
324
-213
-111
-149
1000
0
0
0
350
-210
-514
0
0
-528
0
0
0
0
0
719
500
0
61
0
-403
0
0
158
-46
1000
148
0
-50
0
0
39
-324
0
160
0
0
-544
0
-630
0
0
0
-835
-500
0
807
0
0
0
-668
0
-274
-27
-111
-628
0
-642
-401
0
-989
139
-56
0
0
0
0
0
0
0
0
406
0
63
0
0
-290
0
0
0
0
0
0
1000
-341
836
0
0
0
0
0
-293
-14
-369
0
-111
0
324
0
0
866
42
0
71
0
0
0
0
0
429
0
-421
-560
-98
0
0
0
0
0
-374
0
133
0
286
0
0
85
-275
-74
-293
0
-156
314
-89
0
464
-996
-668
817
0
0
0
293
0
0
0
0
189
0
0
0
16
104
0
0
-184
0
0
-442
0
0
0
0
0
0
0
1000
216
-120
183
304
0
149
-284
582
-383
-37
-679
-110
0
-798
-188
299
-104
68
0
-118
-743
37
324
-290
-297
0
992
0
330
0
98
138
-319
205
149
364
594
0
0
-1000
489
949
0
71
613
0
0
205
0
0
0
0
49
115
0
519
490
-12
0
358
0
0
0
0
0
0
0
0
0
0
0
0
0
0
0
0
-310
0
0
0
0
0
0
0
0
-587
0
0
1000
160
285
0
-29
230
-164
104
0
0
8
0
0
0
0
0
0
0
637
0
1
-127
-191
0
0
-349
27
1000
0
0
0
0
-100
0
68
-914
0
0
0
0
-193
685
0
218
382
0
0
0
0
0
429
0
-127
163
0
0
-23
238
-272
0
-410
0
158
-322
861
0
0
623
335
0
720
-26
0
0
0
0
-536
941
718
-116
0
0
0
0
0
0
0
0
-286
-438
0
0
0
275
-29
-322
-154
505
-949
1000
273
0
49
586
-779
0
0
0
0
-330
0
-564
-160
-860
0
148
108
0
0
0
0
0
0
0
534
0
0
0
413
716
-942
-311
64
324
-213
-111
-149
1000
0
0
0
350
-210
-514
0
0
0
0
0
0
0
0
719
500
0
61
0
-319
0
0
158
-46
1000
148
-244
-50
0
0
39
-324
0
160
0
0
-544
0
-630
0
0
0
-835
-500
0
807
0
0
0
-668
0
-274
-27
-111
-628
0
-642
-401
0
-998
140
-60
0
0
0
0
0
0
0
0
406
0
63
0
-153
-470
0
0
0
0
0
0
1000
-341
836
0
0
0
0
0
-293
-14
-369
0
-111
0
324
0
170
685
0
-192
382
0
0
0
0
0
429
0
-127
163
0
0
-23
238
-272
0
-410
0
158
-322
861
0
0
623
335
0
720
-26
-34
68
0
-23
-536
941
718
-116
0
0
0
0
0
0
0
0
-286
-438
0
0
0
275
-29
-322
-154
505
-949
1000
273
0
49
586
-779
0
0
0
0
-330
0
-564
-160
-860
0
148
108
0
0
0
0
0
0
0
534
0
0
0
413
716
-942
-311
64
324
-213
-111
-149
1000
0
0
0
350
-210
-514
0
0
0
0
0
0
0
0
719
500
0
61
0
-319
0
0
155
-53
1000
149
0
-50
0
0
39
-324
0
160
0
0
-544
0
-630
0
0
0
-835
-500
0
807
0
0
0
-668
0
-426
-43
-411
-628
0
-642
-401
0
-989
139
-56
0
0
0
0
0
0
0
0
406
0
63
0
0
-290
0
0
0
0
0
0
1000
-341
836
0
0
0
0
0
-293
-14
-369
0
-111
0
324
0
0
814
0
1000
358
-46
18
0
0
0
429
135
0
0
0
0
0
0
-233
0
-394
67
0
334
318
0
0
0
0
-555
0
0
0
0
0
0
0
0
0
0
0
0
0
0
0
0
0
0
0
-438
0
0
0
0
0
0
-963
672
576
88
135
-435
71
852
-779
0
0
0
0
-330
0
-1000
47
-1000
0
-236
1000
0
0
-266
0
0
0
0
0
0
0
0
0
0
-942
640
32
387
-254
-149
0
-319
0
0
0
350
-210
-514
0
0
0
0
0
0
0
0
-114
118
0
0
0
0
0
0
0
591
965
0
0
0
0
0
39
-1000
0
160
0
0
0
0
-630
0
293
0
0
0
-22
0
0
0
0
0
0
0
0
-111
0
-447
0
0
0
0
0
193
0
0
0
0
0
0
0
0
701
0
109
9
0
0
0
0
0
0
0
0
0
0
0
0
0
0
0
0
-642
86
0
-319
0
805
0
0
0
685
0
0
382
0
0
0
0
0
429
0
-127
1000
0
0
-23
238
-272
0
-410
0
158
410
720
414
531
0
0
0
981
-26
0
0
0
0
-568
996
760
-116
0
0
0
0
0
0
0
0
0
-161
-56
272
0
275
-159
-322
-339
505
-1000
394
273
0
49
586
-779
0
0
0
0
-535
0
206
-160
-524
0
-119
39
0
0
0
0
0
0
0
534
0
0
0
413
716
-942
-311
64
324
-213
-111
0
0
0
0
0
350
-210
-514
0
0
0
0
0
0
0
0
719
500
0
61
0
-319
0
0
158
-46
1000
148
0
-50
0
0
39
-1000
0
160
0
0
-544
0
-630
0
0
0
-213
0
0
0
0
0
0
-668
0
0
0
-111
0
0
0
-401
0
0
0
193
0
0
0
0
1000
309
-610
0
406
0
63
0
0
-290
0
0
0
0
0
0
0
-341
702
0
0
0
0
0
0
-14
0
0
-132
0
-840
0
0
814
0
1000
523
264
-105
0
0
0
429
135
0
0
0
0
0
0
-233
0
-394
67
0
0
318
0
0
0
0
-555
0
0
0
0
0
0
175
0
0
0
0
0
0
0
0
0
0
0
0
-438
0
0
0
0
0
0
-963
672
576
88
748
0
0
0
-779
0
0
0
0
-330
0
-1000
-396
-1000
0
0
1000
0
0
-266
0
0
0
0
405
0
0
0
0
0
-942
-125
229
0
0
86
0
0
-50
116
0
350
-210
-514
0
0
0
0
0
0
0
0
-114
118
0
0
0
0
0
0
0
591
965
0
0
0
0
0
39
-1000
0
160
0
0
0
0
-630
0
293
0
0
0
0
0
0
0
0
0
0
0
0
-111
0
-447
0
0
0
0
0
193
0
0
0
0
0
0
0
0
0
0
0
-13
0
0
0
0
0
0
0
0
0
0
0
0
0
0
0
0
-642
86
0
-319
0
805
0
0
187
685
0
0
136
0
0
-248
0
0
429
0
-127
163
0
-365
-1000
238
-272
-707
-870
0
158
-140
318
0
0
0
0
-400
981
132
0
0
0
0
0
-26
0
-116
0
0
0
0
0
0
0
0
-105
-663
851
0
0
275
-159
-726
-339
505
-1000
394
273
-299
49
586
-779
-91
0
0
0
-605
0
-1000
-160
-524
0
-119
0
0
428
0
0
0
-170
0
534
0
0
-662
413
716
-1000
-311
112
45
214
-172
0
0
171
-394
0
350
-210
-514
0
0
0
0
0
0
0
0
719
500
0
61
29
23
0
0
72
-21
1000
68
0
-359
0
52
-295
-1000
65
-368
0
0
-544
-849
-630
0
0
0
-213
-324
786
0
0
0
0
-668
433
-79
-43
-414
-589
0
884
-401
-290
0
-815
344
0
0
0
0
0
0
0
0
406
0
63
597
0
-290
0
142
192
0
0
-605
0
-341
702
0
-66
0
-30
0
0
-14
0
377
-111
0
324
0
-193
685
0
22
46
0
0
425
0
0
429
0
-127
163
456
0
-23
-334
-272
0
-410
0
-765
-322
585
-281
0
623
-52
-459
720
680
0
0
0
0
-536
941
718
-116
0
-177
-74
0
0
0
614
146
-286
-370
0
-997
0
275
-29
-322
-154
505
-949
1000
273
0
117
1000
-779
0
385
172
0
184
-974
-564
-160
-860
0
148
108
0
38
0
730
232
-376
0
534
0
0
0
413
716
-942
-311
-199
1000
-213
-111
-149
1000
0
0
143
350
-210
-514
303
0
0
547
43
0
-227
0
-88
500
222
61
0
-319
0
0
89
-181
1000
301
656
-50
0
0
39
819
0
-664
0
-553
-402
0
-323
0
0
0
-1000
470
-76
759
0
0
-347
-668
0
-242
-24
-111
-628
0
-642
-401
0
-989
139
-56
0
0
0
0
0
0
-38
60
-117
-23
920
0
0
-290
0
0
925
0
542
0
1000
-341
836
0
0
0
0
0
608
582
-369
0
-111
0
324
0
-193
685
0
218
382
0
0
0
0
0
429
0
-127
163
0
0
-23
238
-272
0
-410
0
158
-322
861
0
0
623
335
0
720
-26
0
0
0
0
-536
941
718
-116
0
0
0
0
0
0
0
0
-286
-438
0
0
0
275
-29
-322
-154
505
-949
1000
273
0
60
586
-779
0
0
0
0
-330
0
-564
-160
-860
0
148
108
0
0
0
0
0
0
0
534
0
0
0
413
716
-942
-311
64
324
-213
-111
-149
1000
0
0
0
350
-210
-514
-358
0
0
0
0
0
0
0
719
500
0
61
0
-319
0
0
158
-46
1000
148
0
-50
0
0
39
-324
0
160
0
0
-544
0
-630
0
0
0
-835
-500
0
807
0
0
0
-668
0
-274
-27
-111
-628
-45
-642
-401
0
-989
139
-56
0
0
0
0
0
0
0
0
406
0
63
0
0
-290
0
0
0
0
0
0
1000
-341
836
0
0
-651
341
737
-293
-14
-369
0
-111
0
324
0
-193
685
0
218
382
0
0
0
0
0
429
0
-127
163
0
0
-23
238
-272
0
-410
0
158
-322
861
0
0
623
335
0
720
-26
0
0
0
0
-536
941
718
-116
0
0
0
0
0
0
0
0
-286
-438
0
0
0
275
-29
-322
-154
505
-949
1000
273
0
60
586
-779
0
0
0
0
-330
0
-564
-160
-860
0
148
108
0
0
0
0
0
0
0
534
0
0
0
413
716
-942
-311
64
324
-213
-111
-149
1000
0
0
0
350
-210
-514
-358
0
0
0
3
0
-16
0
719
500
0
61
0
-319
0
0
158
-46
1000
148
0
-50
0
0
39
-324
0
160
0
0
-544
0
-630
0
0
0
-835
-500
0
807
0
0
0
-668
0
-274
-27
-111
-628
-45
-642
-401
0
-989
139
-56
0
0
0
0
0
0
0
0
406
0
63
0
29
-330
112
16
0
0
0
0
1000
-341
836
0
0
-651
341
737
-293
-14
-369
0
-111
0
324
0
170
685
0
-192
382
0
0
0
0
0
429
0
-127
163
0
0
-23
238
-272
0
-410
0
158
-322
861
0
0
623
335
0
720
-26
0
0
0
0
-26
-47
11
360
0
0
0
0
0
0
0
0
-286
-438
0
0
0
275
-29
-322
-154
505
-949
1000
273
0
49
586
-779
0
0
0
0
-330
0
-564
-160
-860
0
148
108
0
0
0
0
0
0
0
534
0
0
0
413
716
-942
-311
64
324
-213
-111
-149
1000
0
0
18
350
-210
-514
0
0
0
0
0
0
0
0
719
500
0
61
0
-319
0
0
158
-46
1000
148
0
32
0
483
39
-324
0
160
0
0
-544
0
-630
0
0
0
-835
-500
0
807
0
0
0
-668
0
-274
-27
-111
-628
0
-642
-401
0
-989
139
-56
0
0
0
0
0
0
0
0
406
0
63
0
0
-290
0
0
0
0
0
0
1000
-341
836
0
0
0
0
0
-293
-14
-369
0
-111
0
324
0
170
685
0
-192
382
0
0
0
0
0
429
0
-127
163
0
0
-23
238
-272
0
-410
0
158
-322
861
0
0
623
335
0
720
-26
0
0
0
0
-26
-47
11
360
0
0
0
0
0
0
0
0
-286
-438
0
0
0
275
-29
-322
-154
505
-949
1000
273
0
49
586
-779
0
0
0
-121
-514
-32
-463
-160
-860
0
148
108
0
0
0
0
0
0
0
534
0
0
0
413
716
-942
-311
64
324
-213
-111
-149
1000
0
0
0
350
-210
-514
0
0
0
0
0
0
0
0
719
500
0
61
0
-319
0
0
158
-46
1000
148
0
-50
0
0
39
-324
0
160
0
0
-544
0
-630
0
0
0
-835
-500
0
807
0
0
0
-668
0
-274
-27
-111
-628
0
-642
-401
0
-989
139
-56
0
0
0
0
0
0
0
0
406
0
63
0
0
-290
0
0
0
0
0
0
1000
-341
836
0
0
0
0
0
-293
-14
-369
0
-111
0
324
0
0
345
770
92
-236
428
0
-269
865
0
429
-582
45
0
0
0
0
0
0
0
-410
0
0
0
93
467
783
-558
118
0
661
0
-518
-154
715
0
-842
0
922
67
-139
143
-917
0
0
0
0
0
112
-567
-849
-681
-617
-245
-190
0
239
-46
0
155
0
0
0
0
-1000
-811
0
0
-656
-330
0
-564
-83
-1000
0
-167
0
406
0
261
-641
-687
-622
0
0
0
0
0
0
-441
-1000
-116
229
-647
0
86
-80
101
0
299
0
350
-210
-514
0
0
0
0
0
0
498
0
-379
118
0
0
0
0
-612
-603
0
-434
751
214
0
-50
0
0
39
-1000
-287
160
0
0
0
0
-1000
-187
0
612
-891
-505
-270
0
137
0
0
0
0
0
0
-111
-972
0
1000
496
-24
0
0
193
0
0
0
0
-540
0
0
34
0
0
-74
0
-210
0
-816
-119
0
0
0
0
0
168
0
420
0
0
0
0
364
1000
-765
-340
0
0
0
0
-193
685
0
218
382
0
0
0
0
0
429
0
-127
163
0
0
-23
238
-272
0
-410
0
158
-322
861
0
0
623
335
0
720
-26
0
0
0
0
-536
941
718
-116
0
0
0
0
0
0
0
0
-286
-438
0
0
0
275
-29
-322
-154
505
-949
1000
273
0
60
586
-779
0
0
0
0
-330
0
-564
-160
-860
0
148
108
0
0
0
0
0
0
0
534
0
0
0
413
716
-942
-311
64
324
-213
-111
-149
1000
0
0
0
350
-210
-514
-358
0
0
0
0
0
0
0
719
500
0
61
0
-319
0
0
158
-46
1000
148
0
-50
0
0
39
-324
0
160
0
0
-544
0
-630
0
0
0
-835
-500
0
807
0
0
0
-668
0
-274
-27
-111
-628
-45
-642
-401
0
-989
139
-56
0
0
0
0
0
0
0
0
406
0
63
0
0
-290
0
0
0
0
0
0
1000
-341
836
0
0
-651
341
737
-293
-14
-369
0
-111
0
324
0
-193
685
367
218
553
0
-85
0
0
0
502
0
-127
163
180
-559
-23
238
-272
0
372
0
158
-322
861
0
0
-42
500
40
1000
509
0
0
-437
0
-1000
396
839
-116
0
0
0
0
0
0
0
0
-286
-438
0
0
0
275
-29
-322
-154
505
-949
1000
273
0
49
586
-779
0
365
290
260
-342
0
14
-160
-860
-459
148
108
166
0
880
832
0
0
0
534
-25
0
0
-574
1000
-794
-840
183
90
-59
31
-149
1000
136
0
0
350
-84
-263
0
0
0
0
0
0
0
-218
390
628
0
237
0
290
-788
0
158
-46
1000
148
0
-857
0
-294
39
-324
321
160
-647
0
-544
108
-630
0
0
0
-835
-500
0
807
-105
0
0
-668
0
-274
23
-111
-628
0
-642
-401
613
-989
1000
-56
0
455
-31
0
-598
0
-188
0
415
0
63
-898
0
-494
0
-145
490
0
0
-214
1000
-341
836
-423
-248
0
-115
0
-293
260
-480
0
-111
0
324
0
0
866
42
0
71
0
0
0
0
0
429
0
-421
-560
-98
0
0
0
0
0
-374
0
133
0
286
0
0
85
-275
-74
-293
0
-156
314
0
0
464
-996
-668
817
0
0
0
293
0
0
0
0
189
0
0
0
16
104
0
0
-184
0
0
-442
0
0
0
0
0
0
0
1000
216
-120
183
304
0
149
-284
582
-383
-37
-679
-110
0
-798
-188
299
-104
68
0
-118
-743
37
324
-290
-297
0
992
0
330
0
98
138
0
265
0
0
594
0
-431
-306
489
949
0
71
613
0
0
-668
0
0
0
0
-703
-363
0
519
443
0
0
294
0
0
0
0
0
0
0
0
498
0
0
0
0
0
0
0
-310
0
0
0
0
0
0
0
0
-587
0
0
1000
160
285
0
-29
230
-164
104
0
0
8
0
0
0
0
0
0
0
637
0
1
-127
-191
0
0
-349
27
1000
0
0
0
0
-100
0
68
-914
0
0
0
0
0
814
0
1000
523
264
-105
0
0
0
429
135
0
0
0
0
0
0
-233
0
-394
67
0
0
318
0
0
0
0
-555
0
0
0
0
0
0
0
0
0
0
0
0
0
0
0
0
0
0
0
-438
0
0
0
0
0
0
-963
672
576
88
577
0
0
0
-779
0
0
0
0
-330
0
-1000
-396
-1000
0
0
1000
0
0
-266
0
0
0
0
0
0
0
0
0
0
-942
640
32
387
-254
-149
0
-319
0
0
0
350
-210
-514
0
0
0
0
0
0
0
0
-114
118
0
0
0
0
0
0
0
591
965
0
0
0
0
0
39
-1000
0
160
0
0
0
0
-630
0
293
0
0
0
0
0
0
0
0
0
0
0
0
-111
0
-447
0
0
0
0
0
193
0
0
0
0
0
0
0
0
0
0
0
-13
0
0
0
0
0
0
0
0
0
0
0
0
0
0
0
0
-642
86
0
-319
-87
805
255
0
-193
685
367
218
382
0
-85
0
0
0
429
0
-127
163
0
0
-23
238
-272
0
-126
0
158
-322
861
0
0
-42
1000
40
1000
509
0
0
-437
0
-1000
396
1000
-116
0
0
0
0
0
0
0
0
-286
-438
0
0
0
275
90
-322
-154
505
-949
1000
273
0
49
221
-779
0
365
290
260
-56
0
14
-160
-860
0
148
108
166
0
0
832
0
0
0
534
-352
0
0
-511
665
-1000
-855
253
-118
31
-72
-149
1000
0
0
0
350
-210
372
0
0
0
0
0
0
0
0
390
449
0
237
0
290
-788
0
158
-46
1000
148
0
-50
0
-157
39
-324
321
160
-647
0
-544
108
-630
0
0
0
-835
-388
188
924
0
0
0
-668
0
-274
23
-111
-628
0
-642
-401
662
-989
139
-56
0
621
-43
0
-598
-66
-188
0
268
0
-178
429
0
-290
0
-85
490
0
0
-214
1000
-341
836
-423
-535
0
-115
0
-620
-14
-545
0
-111
0
324
0
-193
685
0
22
46
0
0
425
0
0
429
0
-127
163
861
0
-741
238
-272
0
-410
0
-765
-322
51
281
0
-623
635
-459
720
501
0
0
0
0
-536
941
718
-116
0
-177
-74
0
0
0
614
146
-286
-370
0
-997
0
275
-29
-322
-154
505
-949
1000
-343
109
117
1000
-779
0
-14
172
0
184
-974
-564
-160
-860
0
148
108
0
0
0
730
232
-376
0
534
0
0
0
413
716
-942
-311
-199
1000
-213
-111
-149
1000
0
0
864
-148
157
385
303
0
0
547
43
0
-227
238
14
500
222
61
0
-82
144
0
89
-181
1000
301
228
56
0
0
39
51
0
-316
0
-553
-402
0
-630
0
0
0
-1000
470
-76
759
0
0
-347
-668
0
-274
-27
-111
-628
-446
-642
-401
0
-989
139
-56
0
0
0
0
0
-456
24
60
406
-183
920
0
0
-290
0
0
925
0
542
0
1000
-341
836
0
0
0
0
-836
608
582
-369
0
-111
0
324
0
0
685
0
0
382
0
0
0
0
0
429
0
-127
1000
0
0
-23
238
-272
0
-410
0
158
410
720
414
531
0
0
0
981
-26
0
0
0
0
-568
996
760
-116
0
0
0
0
0
0
0
0
0
-161
-56
272
0
275
-159
-322
-339
505
-1000
394
273
0
49
586
-779
0
0
0
0
-535
0
206
-160
-524
0
-119
0
0
0
0
0
0
0
0
534
0
0
0
413
716
-942
-311
64
324
-213
-111
0
0
0
0
0
350
-210
-514
0
0
0
0
0
0
0
0
719
500
0
61
0
-319
0
0
158
-46
1000
148
0
-50
0
0
39
-1000
0
160
0
0
-544
0
-630
0
0
0
-213
0
0
0
0
0
0
-668
0
0
0
-111
0
0
0
-401
0
0
0
193
0
0
0
0
1000
309
-610
0
406
0
63
0
0
-290
0
0
0
0
0
0
0
-341
702
0
0
0
0
0
0
-14
0
0
-132
0
-840
0
0
685
0
0
382
0
0
0
0
0
429
0
-127
163
0
0
-23
238
-272
0
-410
0
158
410
600
0
0
323
0
0
981
-26
0
0
0
0
0
0
0
-116
0
0
0
0
0
0
0
0
169
-438
0
0
0
275
-159
-322
-339
505
-1000
394
273
0
49
586
-779
0
-26
320
0
-330
0
-564
-160
-524
0
-119
0
0
0
0
0
0
0
0
534
0
0
0
413
716
-942
-311
64
324
-213
-111
0
0
0
0
0
350
-210
-514
0
0
0
0
0
0
0
0
719
500
0
61
0
-319
0
0
158
-46
1000
148
0
-50
0
0
39
-1000
0
160
0
0
-544
0
-630
0
0
642
-213
0
0
0
0
0
0
-668
0
0
0
-111
0
0
0
-401
0
0
0
193
0
0
0
0
0
0
0
0
406
0
63
0
0
-290
0
0
0
0
0
0
0
-341
702
0
-628
0
0
-64
0
-14
0
0
584
0
-840
0
-193
685
0
22
46
0
0
425
0
0
429
0
-127
163
456
0
-23
-334
-272
0
-410
0
-765
-322
585
-281
0
623
-52
-459
720
680
0
0
0
0
-536
941
718
-116
0
-177
-74
0
0
0
614
146
-286
-370
0
-997
0
275
-29
-322
-154
505
-949
1000
273
0
117
1000
-779
0
385
172
0
184
-974
-564
-160
-860
0
148
108
0
683
0
730
232
-376
0
534
0
0
0
413
716
-942
-311
-199
1000
-213
-111
-149
1000
0
0
143
350
-210
-514
303
0
0
547
43
0
-227
0
-88
500
222
61
0
-319
0
0
89
-181
1000
301
656
-50
0
0
39
819
0
-664
0
-553
-402
0
-323
0
0
0
-1000
470
-76
759
0
0
-347
-668
0
-242
-24
-111
-628
0
-642
-401
0
-989
139
-56
0
0
0
0
0
0
-38
60
-117
-23
920
0
0
-290
0
0
925
0
542
0
1000
-341
836
0
0
0
0
0
608
582
-369
0
-111
0
324
0
-193
685
0
218
668
535
-213
0
0
0
429
0
-127
163
0
0
-23
238
-272
0
-410
0
158
-322
861
0
0
623
335
0
720
-26
0
0
0
0
-536
941
718
-116
0
0
0
0
0
0
0
0
-286
-438
0
0
0
275
-29
-322
-154
505
-949
1000
124
0
73
873
-779
0
0
0
0
-330
0
-564
-160
-860
0
-380
108
0
0
0
0
0
0
0
1000
0
0
0
413
716
-942
-311
249
-40
26
110
-149
1000
0
0
0
348
-210
-514
-358
0
0
0
0
0
0
0
719
500
0
61
0
-319
0
0
158
-46
1000
148
0
-50
0
0
39
-324
0
160
0
0
-544
0
-630
0
0
0
-835
-500
0
807
0
0
0
-668
0
-274
-27
-111
-620
-36
-642
-68
0
-989
139
-56
0
0
0
0
0
0
0
0
406
0
63
0
0
-290
0
0
0
0
0
0
1000
-341
836
0
0
-651
341
737
-293
-14
-369
0
-111
0
324
0
-193
685
0
22
46
0
0
425
0
0
429
0
-127
163
456
0
-23
-334
-272
0
-410
0
-765
-322
585
-281
0
623
-52
-459
720
680
0
0
0
0
-536
941
718
-116
0
-177
-74
0
0
0
614
146
-286
-370
0
-997
0
275
-29
-322
-154
505
-949
1000
273
0
117
1000
-779
0
385
172
0
184
-974
-564
-160
-860
0
148
108
0
683
0
730
232
-376
0
534
0
0
0
413
716
-942
-311
-199
1000
-213
-111
-149
1000
0
0
125
350
-210
-514
303
0
0
547
43
0
-227
0
-88
500
222
61
0
-120
-381
-376
89
-181
1000
301
656
-50
0
0
39
819
0
-664
0
-553
-402
0
-323
0
0
0
-1000
470
-76
759
0
0
-347
-668
0
-242
-24
-111
-628
0
-642
-401
0
-989
139
-56
0
0
0
0
0
0
-38
60
-117
-23
920
0
0
-290
0
0
925
0
542
0
1000
-341
836
0
0
0
0
0
608
582
-369
0
-111
0
324
0
187
685
0
0
136
0
0
-248
0
0
429
0
-127
163
0
-365
-1000
238
-272
-707
-870
71
90
-79
318
0
0
0
637
361
484
-169
0
0
0
0
0
-26
0
-116
0
0
0
0
0
0
0
0
-105
-663
851
0
0
275
-159
-726
-339
505
-1000
394
273
-299
49
586
-779
-91
0
0
0
-330
0
-1000
-160
-524
0
-119
0
0
428
0
0
0
0
0
534
0
0
-662
413
716
-942
-311
64
324
-213
-111
-292
0
-164
379
0
350
-210
-514
0
0
0
0
0
0
0
0
719
500
0
61
29
23
0
0
158
-46
1000
148
0
-50
0
52
-295
-1000
65
-368
0
0
-544
-849
-630
0
0
0
-213
-324
786
0
0
0
0
-668
707
-15
0
402
-589
0
884
-401
-290
0
-815
344
0
0
0
0
0
0
0
0
406
0
63
306
0
-290
0
0
527
0
0
-166
0
-341
702
0
0
0
-4
0
0
-14
0
0
-111
0
324
0
0
814
0
1000
523
264
-105
0
0
0
429
135
0
0
0
0
0
0
-233
0
-394
67
0
334
318
0
0
0
0
-555
0
0
0
0
0
0
0
0
0
0
0
0
0
0
0
0
0
0
0
-438
0
0
0
0
0
0
-963
672
576
88
135
-435
71
852
-779
0
0
0
0
-330
0
-1000
47
-1000
0
-236
1000
0
0
-266
0
0
0
0
0
0
0
0
0
0
-942
640
32
387
-254
-149
0
-319
0
0
0
350
-210
-514
0
0
0
0
0
0
0
0
-114
118
0
0
0
0
0
0
0
591
965
0
0
0
0
0
39
-1000
0
160
0
0
0
0
-630
0
293
0
0
0
-22
0
0
0
0
0
0
0
0
-111
0
-447
0
0
0
0
0
193
0
0
0
0
0
0
0
0
701
0
109
9
0
0
0
0
0
0
0
0
0
0
0
0
0
0
0
0
-642
86
0
-319
0
805
0
0
-193
685
0
218
382
0
0
0
0
0
429
0
-127
163
0
0
-23
238
-272
0
-410
0
158
-322
861
0
0
623
335
0
720
-26
0
0
0
0
-536
941
718
-116
0
0
0
0
0
0
0
0
-286
-438
0
0
0
275
-29
-322
-154
505
-949
1000
273
0
49
586
-779
0
0
0
0
-330
0
-564
-160
-860
0
148
108
0
0
0
0
0
0
0
534
0
0
0
413
716
-942
-311
64
324
-213
-111
-149
1000
0
0
0
350
-210
-514
0
0
0
0
0
0
0
0
719
500
0
61
0
-319
0
0
158
-46
1000
148
-244
-50
0
0
39
-324
0
160
0
0
-544
0
-630
0
0
0
-835
-500
0
807
0
0
0
-668
0
-274
-396
-111
-628
0
-642
-401
0
-998
140
-60
0
0
0
0
0
0
0
0
406
0
63
0
-153
-470
0
0
0
0
0
0
1000
-341
836
0
0
0
0
0
-293
-14
-369
0
-111
0
324
0
-193
685
0
22
46
0
0
425
0
0
429
0
-127
163
861
0
-23
238
-272
0
-392
712
115
48
570
139
-13
642
-71
-480
720
879
0
0
0
0
-536
941
718
-116
0
548
-74
0
0
0
614
146
-286
-370
0
-997
0
275
-29
-322
-154
505
-949
1000
273
0
117
1000
-779
-52
-14
172
0
184
-974
-564
-160
-838
0
148
108
0
0
0
730
232
-376
0
534
0
0
0
413
716
-942
-311
-199
757
-213
-111
794
1000
193
-635
-393
221
-210
-514
303
0
0
547
154
237
-134
18
14
500
222
61
0
-319
0
0
89
-181
1000
301
-6
-50
0
5
39
51
-90
-166
0
-553
-402
0
-630
0
0
0
-1000
470
-76
759
0
0
-347
-668
0
-274
-27
-111
-628
59
-642
-401
0
-989
139
-56
1000
592
0
0
0
0
24
60
406
-158
920
0
0
-290
0
0
925
0
542
0
1000
-341
1000
0
0
0
0
0
608
582
-369
0
-80
0
235
0
-193
685
0
218
382
0
0
0
0
0
429
0
-127
163
0
0
-23
238
-272
0
-410
0
158
-322
895
0
-175
623
335
0
720
-26
0
0
0
0
-536
941
718
-116
0
0
0
0
0
0
0
0
-286
-438
0
0
0
275
-29
-322
-154
505
-949
1000
444
0
49
586
-779
0
0
0
0
-330
0
-564
-160
-860
0
148
108
0
0
0
0
0
0
0
534
0
0
0
413
716
-942
-311
64
324
-213
-111
-149
1000
0
0
0
350
-210
-514
0
0
0
0
0
0
0
0
719
500
0
61
0
-319
0
0
158
-46
1000
148
0
-63
0
0
39
-324
0
160
0
0
-544
0
430
779
0
0
-835
-500
0
807
0
0
0
-668
0
-274
-27
-111
-628
0
-642
-401
0
-989
139
-56
0
0
0
0
0
0
0
0
406
0
63
0
0
-290
0
0
0
-208
0
0
1000
-341
836
0
0
0
0
0
-293
-14
-369
0
-111
0
324
0
187
685
0
0
136
0
0
-248
0
0
429
0
-127
163
0
-365
-1000
238
-272
-707
-870
71
90
-79
318
0
0
0
637
361
484
-169
0
0
0
0
0
-26
0
-116
0
0
0
0
0
0
0
0
-105
-663
851
0
0
275
-159
-726
-339
505
-1000
394
273
-299
49
586
-779
-91
0
0
0
-330
0
-1000
-160
-524
0
-119
0
0
428
0
0
0
0
0
534
0
0
-662
413
716
-942
-311
64
324
-213
-111
0
0
171
-394
0
350
-210
-514
0
0
0
0
0
0
0
0
719
500
0
61
29
23
0
0
158
-46
1000
148
0
-50
0
52
-295
-1000
65
-368
0
0
-544
-849
-630
0
0
0
-213
-324
786
0
0
0
0
-668
707
-15
0
402
-589
0
884
-401
-290
0
-815
344
0
0
0
0
0
0
0
0
406
0
63
306
0
-290
0
0
527
0
0
-166
0
-341
702
0
0
0
0
0
0
-14
0
0
-111
0
324
0
89
558
0
-192
382
0
0
0
0
0
429
0
-127
163
0
0
-23
238
-272
0
-410
0
700
-322
861
0
0
623
335
0
720
-26
0
0
0
0
-536
941
718
-116
0
0
0
0
0
0
0
0
-286
-438
0
0
0
275
-29
-322
-154
505
-949
1000
273
0
49
586
-779
0
0
0
0
-330
0
-564
-160
-860
0
148
108
0
0
0
0
0
0
0
534
0
0
0
413
748
-942
-311
64
324
-213
-111
-149
1000
0
0
0
350
-210
-514
0
0
0
0
0
0
0
0
719
500
0
61
0
-319
0
0
158
-46
1000
148
0
-50
0
0
39
-324
0
160
0
0
-544
0
-813
-93
0
303
-835
-500
0
807
0
347
0
-668
0
-274
-27
-111
-628
0
-642
-401
0
-989
139
-56
0
0
0
0
0
0
0
0
406
0
63
0
0
-290
0
0
0
0
0
0
1000
-341
836
0
114
0
53
0
-157
-14
-198
0
-111
0
324
0
0
345
770
92
-236
428
0
-269
865
0
429
-582
45
0
0
0
0
0
0
0
-410
0
0
0
93
467
783
-558
118
0
661
0
-518
-154
715
0
-842
0
922
67
-139
143
-917
0
0
0
0
0
112
-567
-849
-681
-617
-245
-190
0
239
-46
0
155
0
0
0
0
-1000
-811
0
0
-656
-330
0
-564
-83
-1000
0
-167
0
406
0
261
-641
-687
-622
0
0
0
0
0
0
-441
-1000
-116
229
-647
0
86
-80
101
0
299
0
350
-210
-514
0
0
0
0
0
0
498
0
-379
118
0
0
0
0
-612
-603
0
-434
751
214
0
-50
0
0
479
-1000
-717
160
0
0
0
0
-1000
-187
0
612
-891
-505
-270
0
137
0
0
0
0
0
0
-111
-972
0
1000
496
-24
0
0
193
0
0
0
0
-540
0
0
34
0
0
-74
0
-210
0
-816
-119
0
0
0
0
0
168
0
420
0
0
0
0
364
1000
-765
-340
0
0
0
0
0
345
770
0
-236
428
0
-269
865
0
429
-582
45
0
0
0
0
0
0
0
-410
0
0
0
93
467
783
-558
-407
0
-297
342
-518
-154
715
0
0
0
922
67
-139
143
-917
0
0
0
0
0
-503
-368
-849
-681
-617
0
-190
0
239
-46
-589
155
0
0
0
0
-1000
-811
0
0
-656
-330
0
-564
-441
-1000
0
24
0
406
0
261
-641
-687
-587
0
0
0
0
0
725
-757
-1000
58
229
-1000
0
86
-80
101
0
299
0
435
-420
-514
0
0
0
0
0
-393
498
0
-379
118
0
0
0
0
-612
-603
0
-434
751
214
0
-50
0
0
39
-1000
-287
160
0
0
0
0
-1000
-187
0
612
-891
-505
-270
0
207
0
0
0
0
0
0
-111
-972
0
1000
496
-24
0
0
193
0
0
0
0
-540
0
0
34
0
0
-74
0
-210
0
-816
-119
0
0
0
0
0
168
0
420
0
0
0
0
364
1000
-765
-340
0
0
0
0
0
1000
108
0
71
0
-171
0
0
0
429
0
-6
0
202
-50
0
0
-581
370
224
657
0
0
286
144
-1000
85
-275
573
-56
256
-44
87
0
-30
231
-996
-668
817
0
473
0
293
0
0
0
0
189
0
0
0
16
104
0
0
0
-560
0
-282
0
0
0
0
-106
0
0
532
216
0
57
0
0
0
0
0
79
0
-969
-35
0
-794
245
-503
200
-95
0
522
511
554
-317
-519
-297
0
992
0
330
0
98
138
0
0
0
0
594
0
0
-1000
814
1000
-80
0
276
282
125
428
0
0
592
0
0
-493
85
448
0
0
0
737
0
0
0
0
0
0
0
0
0
0
0
0
0
0
0
0
0
-552
0
0
0
0
0
0
0
294
0
0
474
-229
0
0
89
-711
941
-323
264
0
8
0
580
112
0
0
0
0
0
0
0
126
0
0
0
-349
27
634
0
0
-1000
0
-100
0
115
-914
0
0
0
0
0
685
0
0
382
0
0
0
0
0
429
0
-127
1000
0
0
-23
238
-272
0
-410
0
158
410
318
0
0
0
0
0
981
-26
0
0
0
0
0
0
0
-116
0
0
0
0
0
0
0
0
0
-161
-56
272
0
275
-159
-322
-339
505
-1000
394
273
0
49
586
-779
0
0
0
0
-535
0
206
-160
-524
0
-119
0
0
0
0
0
0
0
0
534
0
0
0
413
716
-942
-311
64
324
-213
-111
0
0
0
0
0
350
-210
-514
0
0
0
0
0
0
0
0
719
500
0
61
0
-319
0
0
158
-46
1000
148
0
-50
0
0
39
-1000
0
160
0
0
-544
0
-630
0
0
0
-213
0
0
0
0
0
0
-668
0
0
0
-111
0
-227
0
-197
0
0
0
193
0
0
0
0
1000
309
-610
0
406
0
63
0
0
-290
0
0
0
0
0
0
0
-341
702
0
0
0
0
0
0
-14
0
0
-132
0
-840
0
0
866
42
0
71
0
0
0
0
0
429
0
-421
-560
-98
0
0
0
0
0
-374
0
133
0
286
0
0
85
-275
-74
-293
0
-156
314
0
0
464
-996
-668
817
0
0
0
293
0
0
0
0
189
0
0
0
16
104
0
0
-184
0
0
-442
101
-32
-35
-296
0
0
0
1000
216
-120
183
304
0
149
-284
582
-383
-37
-679
-110
0
-798
-188
299
-104
68
0
-118
-743
37
324
-302
-297
0
992
0
721
-817
178
251
0
265
0
0
594
0
0
-1000
489
949
0
71
613
0
0
205
0
0
0
0
-703
-363
0
519
443
0
0
294
0
0
0
0
0
0
0
0
0
0
0
0
0
0
0
0
-310
0
0
0
0
0
0
0
344
-587
0
93
1000
160
285
0
-29
230
-164
104
0
0
8
0
0
0
0
0
0
0
637
0
1
-127
-191
0
0
-349
27
1000
0
0
0
0
-100
0
68
-914
0
0
0
0
0
866
42
0
71
0
0
0
0
0
429
0
-421
-560
-98
0
0
0
0
0
-374
0
133
0
286
0
0
85
-275
-74
-293
0
-156
314
0
0
464
-996
-668
817
0
0
0
293
0
0
0
0
189
0
0
0
16
104
0
0
-184
0
0
-442
0
0
0
0
0
0
0
1000
216
-120
183
304
0
149
-284
582
-383
-37
-679
-110
0
-798
-188
299
-104
68
0
-118
-743
37
324
-290
-297
0
992
0
330
0
98
138
0
265
0
0
594
0
0
-1000
489
949
0
71
613
0
0
205
0
0
0
0
-703
-363
0
519
443
0
0
294
0
0
0
0
0
0
0
0
0
0
0
0
0
0
0
0
-310
0
0
0
0
0
0
0
0
-587
0
0
1000
160
285
0
-29
230
-164
104
0
0
8
0
0
0
0
0
0
0
637
0
1
-127
-191
0
0
-349
27
1000
0
0
0
0
-100
0
68
-914
0
0
0
0
-193
685
0
218
382
0
0
0
0
0
429
0
-127
163
0
0
-23
238
-272
0
-410
0
158
-322
861
0
0
623
335
0
720
-26
0
0
0
0
-536
941
718
-116
0
0
0
0
0
0
0
0
-286
-438
0
0
0
275
-29
-322
-154
505
-949
1000
273
0
49
586
-779
0
0
0
0
-330
0
-564
-160
-860
0
148
108
0
0
0
0
0
0
0
534
-98
0
0
413
716
-942
-311
64
324
-213
-111
-149
1000
0
0
0
350
-210
-514
0
0
0
0
0
0
0
0
719
500
0
61
0
-319
0
0
158
-46
1000
148
-244
-50
0
0
39
-324
0
160
0
0
-544
0
-630
0
0
0
-835
-500
0
807
183
0
0
-668
0
-274
-27
-111
-628
0
-642
-401
0
-998
140
-60
0
0
0
0
0
0
0
0
406
0
63
0
-153
-470
0
0
0
0
0
0
1000
-341
836
0
0
161
-80
-182
-293
-14
-369
0
-111
0
324
0
-193
685
0
218
382
0
0
0
0
0
429
0
-127
163
0
0
-23
238
-272
0
-410
0
158
-322
861
0
0
623
335
0
720
-26
27
-53
0
18
-536
1000
718
-116
0
0
0
0
0
0
0
0
-286
-438
0
0
0
275
-29
-322
-154
505
-949
1000
124
0
73
873
-779
0
0
0
0
-330
0
-564
-160
-860
0
-380
108
0
0
0
0
0
0
0
770
0
0
0
413
716
-942
-311
249
-40
26
110
-149
1000
0
0
0
348
-210
-514
-358
0
0
0
0
0
0
0
719
500
0
61
0
-319
0
0
158
-46
1000
148
0
-50
0
0
39
-324
0
160
0
0
-544
0
-630
0
0
0
-835
-500
0
807
0
0
0
-668
0
-274
-27
-111
-620
-36
-642
-68
0
-989
139
-56
0
0
0
0
0
0
0
0
406
0
63
0
0
-290
0
0
0
0
0
0
1000
-341
836
0
0
-651
341
737
-215
-8
-174
-368
-111
0
324
0
0
814
0
1000
523
264
-105
0
0
0
429
135
0
0
0
0
0
0
-233
0
-394
67
0
0
318
0
0
0
0
-555
0
0
0
0
0
0
0
0
0
0
0
0
0
0
0
0
0
0
0
-438
0
0
0
0
0
0
-963
672
576
88
577
0
0
0
-779
0
0
0
0
-330
0
-1000
-396
-1000
0
0
1000
0
0
-266
0
0
0
0
0
0
0
0
0
0
-942
640
32
387
-254
-149
0
-319
0
0
0
350
-210
-514
0
0
0
0
0
0
0
0
-114
118
0
0
0
0
0
0
0
591
965
0
0
0
0
0
39
-1000
0
160
0
0
0
0
-630
0
293
0
0
0
0
0
0
0
0
0
0
0
0
-111
0
-447
0
0
0
0
0
193
0
0
0
0
0
0
0
0
0
0
0
-13
0
0
0
0
0
0
0
0
0
0
0
0
0
0
0
0
-642
86
0
-319
-87
805
255
0
0
866
42
0
71
0
0
0
0
0
429
0
-421
-560
-98
0
0
0
0
0
-374
0
133
0
286
0
0
85
-275
-74
-293
0
-156
314
0
0
464
-996
-668
817
0
0
0
293
0
0
0
0
189
0
0
0
16
104
0
0
-184
0
0
-442
101
-32
-35
-296
0
0
0
1000
216
-120
183
304
0
149
-284
582
-383
-37
-679
-110
0
-798
-188
299
-104
68
0
-118
-743
37
324
-302
-297
0
992
0
721
-817
178
251
0
265
0
0
594
0
0
-1000
489
949
0
71
613
0
0
205
0
0
0
0
-703
-363
0
519
443
0
0
294
0
0
0
0
0
0
0
0
0
0
0
0
0
0
0
0
-310
0
0
0
0
0
0
0
0
-587
0
0
1000
160
285
0
-29
230
-164
104
0
0
8
0
0
0
0
0
0
0
637
0
1
-127
-191
0
0
-349
27
1000
0
0
0
0
-100
0
68
-914
0
0
0
0
-193
685
0
22
46
0
0
425
0
0
429
0
-127
163
934
210
-23
-334
-272
0
-410
0
-765
-322
585
-281
0
623
-89
-501
533
680
0
0
0
0
-536
941
718
-116
0
-177
-74
0
0
0
614
146
-286
-370
0
-997
0
275
-29
-322
-154
505
-949
1000
273
0
117
1000
-779
0
385
172
0
184
-974
-564
-160
-860
0
148
108
0
410
0
730
232
-376
0
534
0
0
0
413
716
-942
-311
-199
1000
-213
-111
-149
1000
0
0
450
350
-210
-514
303
0
0
547
43
0
-227
0
-88
500
222
61
0
-319
0
0
89
-181
1000
301
656
-50
0
0
39
819
0
-664
0
-553
-402
0
-323
0
0
0
-1000
470
-76
759
0
0
-347
-668
0
-242
-24
-111
-628
0
-642
-401
0
-989
139
-56
0
0
0
0
0
0
-38
60
406
78
920
0
0
-290
0
0
925
0
-286
203
1000
-341
765
0
0
0
0
0
608
582
-369
0
-111
0
324
0
0
685
0
0
382
0
0
0
0
0
429
0
-127
163
0
0
-23
238
-272
0
-410
0
158
410
318
0
0
0
0
-268
-233
270
0
0
0
0
0
0
0
-116
0
0
0
0
-807
0
637
-393
0
-438
0
0
0
275
-159
-322
-339
505
-1000
394
273
0
49
586
-779
0
0
0
0
-330
0
-564
-160
-524
0
-119
0
0
0
0
0
0
0
0
534
-284
0
0
413
716
-942
-311
64
324
-213
-111
0
0
0
0
0
350
-210
-514
0
0
0
0
0
0
0
0
719
500
0
61
0
-319
0
0
158
-46
1000
148
0
-50
0
0
39
-1000
0
160
0
0
-544
0
-630
0
0
0
-213
0
0
0
0
0
0
-668
0
0
0
-111
0
0
0
-401
0
0
0
193
0
0
0
0
0
0
0
0
406
0
63
0
0
-290
0
0
0
0
0
0
0
-341
702
0
0
0
0
0
0
-14
0
0
584
0
-840
0
-193
685
0
22
46
0
0
425
0
0
429
0
-127
163
934
210
-23
-334
-272
0
-410
0
-765
-322
585
-281
0
623
-89
-501
533
680
0
0
0
0
-536
941
718
-116
0
-177
-74
0
0
0
614
146
-286
-370
0
-997
0
275
-29
-322
-154
505
-949
1000
273
0
117
1000
-779
0
385
172
0
184
-974
-564
-160
-860
0
148
108
0
410
0
730
232
-376
0
534
0
0
0
413
716
-942
-311
-199
1000
-213
-111
-149
1000
0
0
450
350
-210
-514
303
0
0
547
43
0
-227
0
-88
500
222
61
0
-319
0
0
89
-181
1000
301
656
-50
0
0
39
819
0
-664
0
-553
-402
0
-323
0
0
0
-1000
470
-76
759
0
0
-347
-668
0
-242
-24
-111
-628
0
-642
-401
0
-989
139
-56
0
0
0
0
0
0
-38
60
406
78
920
0
0
-290
0
0
925
0
-286
203
1000
-341
836
0
0
0
0
0
608
582
-369
0
-111
0
324
0
0
866
42
0
71
0
0
0
0
0
429
0
-421
-560
-98
0
0
0
0
0
-374
0
133
0
286
0
0
85
-275
-74
-293
0
-156
314
0
0
464
-996
-668
817
0
0
0
293
0
0
0
0
189
0
0
0
16
104
0
0
-184
0
0
-442
101
-32
-35
-296
0
0
0
1000
216
-120
183
304
0
149
-284
582
-383
-37
-679
-110
0
-798
-188
299
-104
68
0
-118
-743
37
324
-302
-297
0
992
0
721
-817
178
251
0
265
0
0
594
0
0
-1000
489
949
0
71
613
0
0
205
0
0
0
0
-703
-363
0
519
443
0
0
294
0
0
0
0
0
0
0
0
0
0
0
0
0
0
0
0
-310
0
0
0
0
0
0
0
0
-587
0
0
1000
160
285
0
-29
230
-164
104
0
0
8
0
0
0
0
0
0
0
637
0
1
-127
-191
0
0
-349
27
1000
0
0
0
0
-100
0
68
-914
0
0
0
0
29
685
0
90
136
0
0
-248
0
0
429
0
-127
163
0
-365
-1000
238
-272
-707
-870
0
158
-140
318
0
0
0
0
-400
981
132
0
0
0
0
0
-26
0
-116
0
0
0
0
0
0
0
0
-105
-663
851
0
0
275
-159
-726
-339
505
-1000
394
273
-299
49
586
-779
-91
0
0
0
-330
0
-906
-160
-524
0
-119
0
0
428
0
0
122
0
0
534
0
0
-662
413
716
-942
-311
112
45
214
-172
0
0
171
-394
0
350
-210
-514
0
0
0
0
0
0
0
0
719
500
0
61
29
23
0
0
158
-46
1000
148
0
-359
0
52
-295
-1000
65
-368
0
0
-544
-849
-630
0
0
0
-213
-324
786
0
0
0
0
-668
433
-79
-43
-414
-589
0
884
-401
-290
0
-815
344
0
0
0
0
0
0
0
0
406
0
63
306
0
-290
0
0
192
0
0
-605
0
-341
702
0
-108
0
-50
0
0
-14
0
377
-111
0
324
0
0
685
0
0
382
0
0
0
0
0
429
0
-127
163
0
0
-23
238
-272
0
-410
0
158
410
318
0
0
0
0
0
981
-26
0
0
0
0
0
0
0
-116
0
0
0
0
0
0
0
0
169
-438
0
0
0
275
-159
-322
-339
505
-1000
394
273
0
49
586
-779
0
-26
320
0
-330
0
-564
-160
-524
0
-119
0
0
0
0
0
0
0
0
534
0
0
0
413
716
-942
-311
64
324
-213
-111
0
0
0
0
0
350
-210
-514
0
0
0
0
0
0
0
0
719
500
0
61
0
-319
0
0
158
-46
1000
148
-5
-50
0
4
39
-1000
0
160
0
0
-544
0
-630
0
0
642
-213
0
0
0
0
0
0
-668
0
0
0
-111
0
0
0
-401
0
0
-119
405
0
0
0
0
0
0
0
0
406
0
63
-300
0
-290
0
0
0
0
0
0
0
-341
702
0
-628
0
0
-64
0
-14
0
0
584
0
-840
0
0
510
42
976
11
0
16
0
0
0
429
0
0
0
309
-135
789
0
-219
0
-183
0
-825
-165
286
0
0
85
-275
-74
-293
0
-156
314
0
273
231
-996
-668
222
0
98
0
-111
0
-557
0
107
189
0
0
0
16
104
0
-83
0
-70
0
677
-1000
0
0
0
0
0
0
302
216
0
57
-745
0
0
0
-27
16
201
-969
-1000
0
-459
-188
133
0
0
277
0
-158
1000
-317
-306
120
0
284
-182
415
-368
-9
442
-1
-162
443
-914
487
484
0
-820
489
795
0
0
613
0
0
205
0
92
0
656
0
-363
0
330
0
0
0
294
65
0
0
0
0
0
0
0
0
0
0
0
0
0
0
0
0
0
0
0
0
-97
0
-183
0
0
0
1000
282
-229
0
0
43
-344
941
-156
358
-1000
-995
0
0
0
0
0
0
473
0
-102
0
0
0
517
0
-349
27
-761
0
0
0
0
794
311
327
-914
0
0
0
0
0
836
0
1000
523
264
-105
0
0
0
429
135
906
850
0
293
-32
153
-176
-662
-394
619
0
0
583
273
350
0
0
-441
-566
461
463
-145
-1000
0
0
410
40
-975
0
592
-234
635
-499
0
0
-243
0
-149
-72
351
434
0
0
0
-963
310
576
-97
0
-403
0
0
607
-251
453
-415
0
53
0
-1000
-1000
-1000
335
0
-559
111
0
0
0
0
0
0
-840
0
-209
228
-95
-1000
-942
847
229
0
0
86
407
-351
0
433
0
350
-277
-514
0
-202
0
0
339
26
-235
0
-114
-533
284
0
0
0
0
-152
0
0
965
0
1000
146
-841
-860
945
-1000
138
-355
1000
140
217
606
-132
0
1000
0
-231
145
459
0
413
-85
1000
0
0
0
0
-111
0
-447
0
0
0
0
333
193
0
-112
629
0
-432
421
-27
18
127
0
294
-64
-813
42
-1000
-82
-636
-1000
-219
652
279
-918
67
0
0
-362
470
410
0
0
1000
-805
0
-12
-355
0
0
836
0
1000
523
264
-105
0
0
0
429
49
906
850
0
-312
0
0
0
0
-394
619
0
0
583
273
350
0
0
-441
-566
461
463
-145
-1000
0
0
410
40
-975
0
592
-234
635
-952
0
0
-464
0
-149
-72
351
0
0
0
0
-963
310
576
-97
0
0
0
0
607
-251
453
-415
0
-330
0
-1000
-1000
-1000
335
0
0
0
0
0
0
0
0
0
-840
0
0
228
-95
-693
-942
847
229
0
0
86
407
-351
0
433
0
350
-277
-514
0
-202
0
0
297
22
-234
0
-111
-533
5
1
0
130
0
-273
0
0
965
0
0
-50
-841
-860
39
-1000
102
-345
349
-150
217
606
-194
0
1000
0
-231
145
459
0
413
-85
1000
0
0
0
499
-111
493
-821
-739
335
0
0
333
193
0
-112
629
0
-432
421
-27
18
127
0
316
-64
-813
42
-1000
-82
-636
-1000
-219
652
-92
0
67
0
0
-362
190
410
0
0
1000
-805
0
-12
-355
0
0
345
770
0
-236
428
0
-269
865
0
429
-582
45
0
0
0
0
0
0
0
-410
0
0
0
93
467
783
-558
-270
0
661
0
-518
-154
715
0
0
0
922
67
-139
143
-917
0
0
0
0
0
-503
-368
-849
-681
-617
0
-190
0
239
-46
0
155
0
0
0
0
-1000
-811
0
0
-656
-330
0
-564
-441
-1000
0
24
0
406
0
261
-641
-687
-587
0
0
0
0
0
0
-441
-1000
-116
229
-647
0
86
-80
101
0
299
0
435
-420
-514
0
0
0
0
0
0
744
0
-379
118
0
0
0
-643
621
612
0
-434
751
214
0
-50
0
0
39
-1000
-287
160
0
0
0
0
-1000
-187
0
612
-891
-505
-270
0
207
0
0
0
0
0
0
-111
-972
0
1000
496
-24
0
0
193
0
-65
0
0
-540
0
0
34
0
0
-74
0
-210
0
-816
-119
0
0
0
0
0
168
0
420
0
252
-132
-286
364
1000
-765
-340
0
0
0
0
0
510
42
976
71
0
0
0
0
0
429
0
0
0
309
-135
789
0
-219
0
-183
0
-825
-165
286
0
0
85
-275
-74
-293
0
-156
314
0
273
231
-996
-668
222
0
-258
0
293
0
-557
0
107
189
0
0
0
16
104
0
-83
0
-70
0
677
-1000
0
0
0
0
0
0
302
216
0
57
-745
0
0
0
-27
16
201
-969
-1000
0
-459
-188
133
0
0
277
0
-158
1000
-317
-306
120
0
284
-182
330
-193
79
351
-1
-162
443
-914
487
484
0
-820
489
795
0
0
613
0
0
205
0
92
0
656
0
-363
0
330
0
0
0
294
65
0
0
0
0
0
0
0
0
0
0
0
0
0
0
0
0
0
0
0
0
-97
0
-183
0
0
0
1000
282
-229
0
0
43
-344
941
-156
358
-1000
-995
0
0
0
0
0
0
473
0
-102
0
0
0
517
0
-349
27
-761
0
0
0
0
794
311
327
-914
0
0
0
0
-193
685
0
22
46
0
0
425
0
0
429
0
-127
163
456
0
-23
-334
-272
0
-410
0
-765
-322
585
-281
0
623
-52
-459
720
680
0
0
0
0
-536
941
718
-116
0
-177
-74
0
0
0
614
146
-286
-370
0
-997
0
275
-29
-322
-154
505
-949
1000
273
0
117
1000
-779
0
385
172
0
184
-974
-564
-160
-860
0
148
108
0
683
0
730
232
-376
0
534
0
0
0
413
716
-942
-311
-199
1000
-213
-111
-149
1000
0
0
143
350
-210
-514
303
0
0
547
43
0
-227
0
-88
500
222
61
0
-319
0
0
89
-181
1000
301
656
-50
0
0
39
819
0
-664
0
-553
-402
0
-323
0
0
0
-1000
470
-76
759
0
0
-347
-668
0
-242
-24
-111
-628
0
-642
-401
0
-989
139
-56
0
0
0
0
0
0
-38
60
-117
-23
920
0
0
-290
0
0
925
0
542
0
1000
-341
836
0
0
0
0
0
608
582
-369
0
-111
0
324
0
-193
685
0
218
382
0
0
0
0
0
429
0
-127
163
0
0
-23
238
-272
0
-410
0
158
-322
861
0
0
623
335
0
720
-26
0
0
0
0
-536
941
718
-116
0
0
0
0
0
0
0
0
-286
-438
0
0
0
275
-29
-322
-154
505
-949
1000
273
0
60
586
-779
0
0
0
0
-330
0
-564
-160
-860
0
148
108
0
0
0
0
0
0
0
534
0
0
0
413
716
-942
-311
64
324
-213
-111
-206
1000
-12
-16
0
350
-210
-514
-358
0
0
0
0
0
0
0
719
500
0
61
0
-319
0
0
158
-46
1000
148
0
-50
0
0
39
-324
0
160
0
0
-544
0
-630
0
0
0
-835
-500
0
807
0
0
0
-668
0
-274
-27
-111
-628
-45
-642
-401
0
-989
139
-56
0
0
0
0
0
0
0
0
406
0
63
0
0
-290
0
0
0
0
0
0
1000
-341
836
0
0
-651
380
737
-293
-14
-369
0
-111
0
324
0
0
345
770
0
-236
428
0
-269
902
0
429
-607
45
0
0
0
0
0
0
0
-410
0
0
0
93
467
783
-558
118
0
661
0
-518
-154
715
0
0
0
922
67
-139
143
-917
0
0
0
0
0
-503
-368
-849
-681
-617
0
-190
0
239
-46
0
155
0
0
0
0
-1000
-811
0
0
-656
-330
0
-564
-441
-1000
0
24
0
406
0
261
-641
-687
-587
0
0
0
0
0
0
-441
-1000
-116
229
-647
0
86
-80
101
0
299
0
435
-420
-514
0
0
0
0
0
0
498
0
-379
118
0
0
0
-643
621
612
0
-434
751
214
0
-50
0
0
39
-1000
-287
160
0
0
0
0
-1000
-187
0
612
-891
-505
-270
0
207
0
0
0
0
0
0
-111
-972
0
1000
496
-24
0
0
193
0
0
0
0
-540
0
0
34
0
0
-74
0
-210
0
-816
-119
0
0
0
0
0
168
0
420
0
252
-132
-286
364
1000
-765
-340
0
0
0
0
-193
685
0
218
382
0
0
0
0
0
429
0
-127
163
0
0
-23
238
-272
0
-410
0
158
-322
861
0
0
623
335
0
720
-26
0
0
0
0
-536
941
718
-116
0
0
0
0
0
0
0
0
-286
-438
0
0
0
275
-29
-322
-154
505
-949
1000
273
0
49
586
-779
0
0
0
0
-330
0
-564
-160
-860
0
148
108
0
0
0
0
0
0
0
534
0
0
0
413
716
-942
-311
64
324
-213
-111
-149
1000
0
0
0
350
-210
-514
0
0
0
0
0
0
0
0
719
500
0
61
0
-319
0
0
158
-46
1000
148
-244
-50
0
0
39
-324
0
160
0
0
-544
0
-630
0
0
0
-835
-500
0
807
0
0
0
-668
0
-274
-396
-111
-628
0
-642
-401
0
-998
140
-60
0
0
0
0
0
0
0
0
406
0
63
0
-153
-470
0
0
0
0
0
0
1000
-341
836
0
0
0
0
0
-293
-14
-369
0
-111
0
324
0
0
685
0
0
382
0
0
0
0
0
429
0
-127
1000
0
0
-23
238
-272
0
-410
0
158
410
720
414
1000
0
0
0
981
-26
0
0
0
0
0
0
0
-116
0
0
0
0
0
0
0
0
0
-161
-56
272
0
548
-317
-642
-339
505
-1000
394
273
0
-554
586
-779
0
0
0
0
-535
0
206
-160
-524
0
-119
0
0
0
0
0
0
0
0
534
0
0
352
413
716
-942
-311
64
324
-213
-111
0
0
0
0
0
350
-210
-514
0
238
0
-454
0
0
849
0
719
500
0
61
0
-319
345
0
89
-181
1000
301
0
-50
0
0
39
-1000
0
160
0
0
-544
0
-630
0
0
0
-213
0
0
0
0
0
0
-668
0
288
28
-111
0
0
0
-401
0
0
0
193
0
0
0
0
1000
309
-610
0
406
0
63
0
0
-290
0
0
0
0
0
0
0
-341
606
0
0
0
0
0
0
-14
0
0
-132
0
-840
0
-193
685
367
218
382
0
-85
0
0
0
429
0
-127
163
0
0
-23
238
-272
0
-410
0
158
-322
861
0
0
-42
500
40
1000
509
0
0
-437
0
-1000
396
839
-116
0
0
0
0
0
0
0
0
-286
-438
0
0
0
275
-29
-322
-154
505
-949
1000
273
0
49
586
-779
0
365
290
260
-342
0
14
-160
-860
-459
148
108
166
0
0
832
0
0
0
534
-352
0
0
-574
1000
-794
-840
64
324
-213
-111
-149
1000
0
0
0
350
-210
-263
0
0
0
0
0
0
0
0
390
628
0
237
0
290
-788
0
158
-46
1000
148
0
-776
0
-157
39
-324
321
160
-647
0
-544
108
-630
0
0
0
-835
-500
0
807
0
0
0
-668
0
-274
23
-111
-628
0
-642
-401
613
-989
1000
-56
0
455
-31
0
-598
0
-188
0
415
0
63
0
0
-494
0
-145
490
0
0
-214
1000
-341
836
-423
-248
0
-115
0
-293
-14
-480
0
-111
0
324
0
187
685
0
0
136
0
0
-248
0
0
429
0
-127
163
0
-365
-1000
238
-272
-707
-870
0
158
-140
318
0
0
0
0
-400
981
132
0
0
0
0
549
-26
-735
-116
0
0
0
0
0
0
0
0
-105
-663
851
0
0
275
-58
-414
-339
505
-1000
394
273
-299
49
586
-779
-91
0
0
0
-330
0
-1000
-160
-524
0
-542
0
0
428
0
0
0
0
0
534
0
0
-662
413
716
-942
-311
64
324
-213
-111
0
0
171
-394
0
350
-210
-514
0
0
0
0
0
0
0
0
719
500
0
61
29
23
0
0
244
-46
383
-375
0
-50
0
52
-295
-1000
65
-368
0
0
-718
-849
-630
0
0
0
-213
-324
786
0
0
0
-427
-668
707
-15
0
402
-589
0
884
-401
-290
0
-815
344
0
0
0
0
0
0
0
0
406
0
63
306
0
-290
0
0
192
0
0
-605
0
-341
702
0
0
0
0
0
-583
-14
-734
0
-111
0
324
0
0
685
0
0
382
0
0
0
0
0
429
0
-127
1000
0
401
-23
238
-272
0
-410
0
158
410
318
0
0
0
0
0
981
-26
0
0
0
0
0
0
0
-116
0
0
0
0
0
0
443
0
0
-161
-56
272
0
-106
61
124
-339
505
-1000
394
273
0
49
586
-779
0
0
0
0
-535
0
206
-160
-524
0
-119
0
0
0
0
0
0
0
0
534
0
0
0
413
716
-942
-311
64
324
-213
-111
0
0
0
0
0
84
-50
-123
0
0
0
0
0
0
0
0
719
500
0
61
0
-319
0
0
158
-46
1000
148
0
-50
0
0
39
-1000
0
160
0
0
-544
0
-630
0
0
0
-213
0
0
0
0
0
0
-668
0
0
0
-111
0
0
0
-401
0
0
0
193
0
0
0
0
1000
309
-610
0
406
0
63
0
0
-290
0
0
0
0
0
0
0
-341
702
0
0
0
0
0
-1000
-14
4
107
-132
0
-840
0
-193
685
0
22
46
0
0
425
0
0
429
0
-127
163
861
0
-23
238
-272
0
-410
0
-765
-322
585
-281
0
623
-52
-459
720
680
0
0
0
0
-536
941
718
-116
0
548
-74
0
0
0
614
146
-286
-370
0
-997
0
275
-29
-322
-99
518
-949
1000
273
0
117
1000
-779
0
-14
172
0
184
-974
-564
-160
-860
0
148
108
0
0
0
730
232
-376
0
875
0
0
0
413
716
-942
-311
-199
757
-213
-111
-149
1000
0
936
0
350
-210
-514
303
0
0
547
43
0
-227
0
14
500
222
61
0
-319
0
0
89
-181
1000
301
520
-50
0
-377
39
51
0
-316
0
-553
-402
0
-630
0
0
0
-1000
470
-76
759
0
0
-347
-668
0
-274
-27
-111
-628
59
-642
-401
0
-989
139
-56
1000
592
0
0
0
0
24
60
406
-158
920
0
0
-290
0
0
925
0
542
0
1000
-341
836
0
0
0
0
0
608
582
-369
0
-111
0
324
0
-193
685
0
218
382
0
0
0
0
0
429
0
-127
163
0
0
-23
238
-272
0
-410
0
158
-322
952
112
-10
639
335
0
720
-26
0
0
0
0
-536
941
718
-116
0
0
0
0
0
0
0
0
-286
-438
0
0
0
275
-29
-322
-154
505
-949
1000
444
0
49
586
-779
0
0
0
0
-330
0
-564
-160
-860
0
148
108
0
0
0
0
0
0
0
534
0
0
0
413
716
-942
-311
64
324
-213
-111
-149
1000
0
0
0
350
-210
-514
0
0
0
0
0
0
0
0
719
500
0
61
0
-319
0
0
158
-46
1000
148
0
-63
0
0
39
-324
0
160
0
0
-544
0
430
779
0
0
-835
-500
0
807
0
0
0
-668
0
-274
-27
-111
-628
0
-642
-401
0
-989
139
-56
0
0
0
0
0
0
0
0
420
0
63
0
0
-290
0
0
0
-208
0
0
1000
-341
836
0
0
0
0
0
-293
-14
-369
0
-111
0
324
0
0
685
0
0
382
0
0
0
0
0
429
0
-127
1000
0
0
-23
238
-272
0
-410
0
158
410
720
414
531
0
0
0
981
-26
0
0
0
0
-568
996
760
-116
0
0
0
0
0
0
0
0
0
-161
-56
272
0
275
-159
-322
-339
505
-1000
394
273
0
49
586
-779
0
0
0
0
-535
0
206
-160
-524
0
-119
0
0
0
0
0
0
0
0
534
0
0
0
413
716
-942
-311
64
324
-213
-111
0
0
0
0
0
350
-210
-514
0
0
0
0
0
0
0
0
719
500
0
61
0
-319
0
0
158
-46
1000
148
0
-50
0
0
39
-1000
0
160
0
0
-544
0
-630
0
0
0
-213
0
0
0
0
0
0
-668
0
0
0
-111
0
0
0
-401
0
0
0
193
0
0
0
0
1000
309
-610
0
406
0
63
0
0
-290
0
0
0
0
0
0
0
-341
702
0
0
0
0
0
0
-14
0
0
-132
0
-840
0
0
345
770
92
-236
428
0
-269
865
0
429
-582
45
0
0
0
0
0
458
0
-410
0
0
0
93
467
783
-558
118
145
661
0
-518
-154
715
0
-842
0
922
67
-139
143
-917
0
0
0
0
0
112
-567
-849
-681
-617
-245
-190
0
239
-46
0
155
0
0
0
0
-1000
-811
0
0
-656
-330
0
-564
-83
-1000
0
-167
0
406
0
261
-641
-687
-622
0
0
0
0
0
0
-441
-1000
-116
229
-647
0
86
-80
101
0
299
0
350
-210
-514
0
0
0
0
0
0
498
0
-379
118
0
0
0
0
-612
-603
0
-434
751
214
0
-50
0
0
39
-1000
-287
160
0
0
0
0
-1000
-187
0
612
-891
-505
-270
0
137
0
0
0
0
0
0
-111
-972
0
1000
496
-24
0
0
193
0
0
0
0
-540
0
0
34
0
0
-74
0
-210
0
-816
-119
0
0
0
0
0
168
-442
420
0
0
0
0
364
1000
-765
-340
0
0
0
0
89
558
0
-192
382
0
0
0
0
0
429
0
-127
163
0
0
-23
238
-272
0
-410
0
700
-322
861
0
0
623
335
0
720
-26
0
0
0
0
-536
941
718
-116
0
0
0
0
0
0
0
0
-286
-511
0
0
0
275
-29
-322
-154
505
-949
1000
273
0
49
586
-779
0
0
0
0
-330
0
-564
-160
-860
0
148
108
0
0
0
0
0
0
0
534
0
0
0
413
748
-942
-311
64
324
-213
-111
-149
1000
0
0
0
350
-210
-514
0
0
0
0
0
0
0
0
719
500
0
61
0
-319
0
0
158
-46
1000
148
0
-50
0
0
39
-324
0
160
0
0
-544
0
-813
-93
0
303
-835
-500
0
807
0
347
0
-668
0
-274
-27
-111
-628
0
-642
-401
0
-989
139
-56
0
0
0
0
0
0
0
0
406
0
63
0
0
-290
0
0
0
0
0
0
1000
-341
836
0
0
0
0
0
-157
-14
-198
0
-111
0
324
0
0
1000
108
0
71
0
-171
0
0
0
429
0
-6
0
202
-50
0
0
-581
370
224
657
0
0
286
144
-1000
85
-275
573
-56
256
-44
87
0
-30
231
-996
-668
817
0
473
0
293
0
0
0
0
189
0
0
0
16
104
0
0
0
-560
0
-282
0
0
0
0
-106
0
0
532
216
0
57
0
0
0
0
0
79
0
-969
-35
0
-794
245
-503
200
-95
0
522
511
554
-317
-519
-297
0
992
0
330
0
98
138
0
0
0
0
594
0
0
-1000
814
1000
-80
0
276
282
125
428
0
0
592
0
0
-493
85
448
0
0
0
737
0
0
0
0
0
0
0
0
0
0
0
0
0
0
0
0
0
-552
0
0
0
0
0
0
0
294
0
0
474
-229
0
0
43
-344
941
-156
264
0
8
0
580
112
0
0
0
0
0
0
0
126
0
0
0
-349
27
634
0
0
-1000
0
-195
-7
-124
-463
-190
0
554
0
-193
685
0
22
46
0
0
425
0
0
429
0
-127
163
861
0
-23
238
-272
0
-410
0
-765
-322
51
281
0
-623
635
-459
720
680
0
0
0
0
-536
941
718
-116
0
-177
-74
0
0
0
614
146
-286
-370
0
-997
0
275
-29
-322
-154
505
-949
1000
-343
109
117
1000
-779
0
-14
172
0
184
-974
-564
-160
-860
0
148
108
0
0
0
730
232
-376
618
534
0
0
0
413
716
-942
-311
27
1000
-213
-628
-149
1000
0
0
864
-262
157
385
303
0
0
547
43
0
-227
238
14
500
222
61
0
-82
144
0
89
-181
1000
301
228
56
0
0
39
51
0
-316
0
-553
-402
0
-630
0
0
0
-1000
470
-76
759
0
0
-347
-668
0
-274
-27
-111
-628
-446
-642
-401
0
-989
139
-56
0
0
0
0
0
-456
24
60
406
-183
920
0
0
-290
0
0
925
0
542
0
1000
-917
836
0
0
0
0
-836
608
582
-369
0
-111
0
324
0
0
836
0
1000
523
264
-105
0
0
0
429
135
0
1000
0
293
0
0
-468
298
-394
619
0
0
583
273
350
0
0
-441
-566
461
463
-145
-1000
0
0
410
40
-975
0
0
178
-543
-499
0
0
-243
0
-149
-72
351
0
-187
20
219
-963
310
576
-97
59
0
25
214
607
-251
453
-415
0
-330
0
-1000
-1000
-1000
335
0
0
0
0
0
0
0
0
0
-840
0
0
228
-95
-693
-942
847
406
-347
228
297
816
-351
0
628
0
350
-277
-514
0
0
0
0
339
26
-235
0
-114
-533
0
0
0
0
303
-89
0
0
965
0
0
-50
-841
-860
39
-1000
138
-355
349
-150
217
606
-194
0
1000
0
-231
220
459
0
413
-85
1000
0
0
0
0
-111
0
-447
0
0
234
878
41
902
0
-112
629
0
-432
421
-27
18
127
0
316
-64
-813
42
-1000
-82
-636
-1000
-219
652
-92
0
67
0
0
-419
209
474
0
0
1000
-805
0
-12
-355
0
0
345
770
92
-236
428
0
-269
865
0
429
-582
45
0
0
0
0
0
0
0
-410
0
0
0
93
467
783
-558
118
0
661
0
-518
-154
715
0
-842
0
922
67
-139
143
-917
0
0
0
0
0
112
-567
-849
-681
-617
-245
-190
0
239
-46
0
155
0
0
0
0
-1000
-811
0
0
-656
-330
0
-564
-83
-1000
0
-167
0
406
0
261
-641
-687
-622
0
0
0
0
0
0
-441
-1000
-116
229
-647
0
86
-80
101
0
299
0
350
-210
-514
0
0
0
0
0
0
498
0
-379
118
0
0
0
0
-612
-603
0
-434
751
214
0
-50
0
0
39
-1000
-287
160
0
0
0
0
-1000
-187
0
612
-891
-505
-270
0
137
0
0
0
0
0
0
-111
-972
0
1000
496
-24
0
0
193
0
0
0
0
-540
0
0
34
0
0
-74
0
-210
0
-816
-119
0
0
0
0
0
168
0
420
0
0
0
0
364
1000
-765
-340
0
0
0
0
0
685
0
0
382
0
0
0
0
0
429
0
-127
163
0
0
-23
238
-272
0
-410
0
158
410
318
0
0
0
0
0
981
-26
0
0
0
0
0
0
0
-116
0
0
0
0
0
0
0
0
169
-438
0
0
0
275
-159
-322
-339
505
-1000
394
273
0
49
586
-779
0
-26
320
0
-330
0
-564
-160
-524
0
-119
0
0
0
0
0
0
0
0
534
0
0
0
413
716
-942
-311
64
324
-213
-111
0
0
0
0
0
350
-210
-514
0
0
0
0
0
0
0
0
719
500
0
61
0
-319
0
0
158
-46
1000
148
0
-50
0
0
39
-1000
0
160
0
0
-544
0
-630
0
0
642
-213
0
0
0
0
0
0
-668
0
0
0
-111
-178
0
268
-401
0
0
-119
405
0
0
0
0
0
0
0
0
406
0
63
-300
0
-290
0
0
0
0
0
0
0
-341
702
0
-628
0
0
-64
0
-14
0
0
584
0
-840
0
0
836
0
1000
523
264
-105
0
0
0
429
884
906
850
0
293
0
0
0
0
-394
619
0
0
583
273
350
0
0
-441
-566
461
463
-145
-1000
0
0
410
40
-975
0
592
-234
635
-499
0
0
-243
0
-149
-72
351
0
0
0
0
-963
310
576
-97
0
0
0
0
607
-251
453
-415
0
-330
0
-1000
-1000
-1000
335
0
0
0
0
0
0
0
0
0
-840
0
0
228
-95
-693
-942
847
273
-86
56
138
407
-351
0
433
0
350
-277
-514
0
-202
0
0
297
22
-234
0
-111
-533
5
1
0
130
0
-273
0
0
965
0
0
-50
-841
-860
39
-1000
102
-345
349
-150
217
606
-194
0
1000
0
-231
145
459
0
413
-85
1000
0
0
-27
-3
-111
0
-447
0
0
0
0
333
193
-204
-112
629
0
-432
421
-27
18
127
0
316
-64
-813
42
-1000
-82
-636
-1000
-219
652
-92
0
67
0
0
-362
190
410
0
0
1000
-805
0
-12
-355
0
0
836
0
1000
523
264
-105
0
0
0
429
135
0
1000
0
293
0
0
0
0
-394
619
0
0
583
273
350
0
0
-441
-566
461
463
-145
-1000
0
0
410
40
-975
0
0
178
-543
-499
0
0
-243
0
-149
-72
351
0
0
0
0
-963
310
576
-97
0
0
0
0
607
-251
453
-415
0
-330
0
-1000
-1000
-1000
335
0
0
0
0
0
0
0
0
0
-840
0
0
228
-95
-693
-942
847
229
0
0
86
407
-351
0
433
0
350
-277
-514
0
0
0
0
339
26
-235
0
-114
-533
0
0
0
0
303
175
0
0
555
0
0
-50
-841
-860
39
-1000
138
-355
349
-150
217
606
-194
0
1000
0
-231
220
459
0
413
-85
1000
0
0
0
0
-111
0
-447
0
0
234
878
41
902
0
-112
629
0
-432
411
-27
-183
127
0
316
-64
-813
42
-1000
-82
-636
-1000
-219
652
-92
0
67
0
0
-381
190
431
0
0
1000
-805
0
-12
-355
0
0
345
770
92
-236
428
0
-269
865
0
429
-582
45
0
0
0
0
0
0
0
-410
0
0
0
93
467
783
-558
118
0
661
0
-518
-154
715
0
-842
0
922
67
-139
143
-917
0
0
0
0
0
112
-567
-849
-681
-617
-245
-190
0
239
-46
0
155
0
0
0
0
-1000
-811
0
0
-656
-330
0
-564
-83
-1000
0
-167
0
406
0
261
-641
-687
-622
0
0
0
0
0
0
-441
-1000
-116
229
-647
0
86
-80
101
0
299
0
350
-210
-514
0
0
0
0
0
0
498
0
-379
118
0
0
0
0
-612
-603
0
-434
751
214
0
-50
0
0
39
-1000
-287
160
0
0
0
0
-1000
-187
0
612
-891
-505
-270
0
137
0
0
0
0
0
0
-111
-972
0
1000
496
-24
0
0
193
0
0
0
0
-540
0
0
34
0
0
-74
0
46
-353
177
26
0
0
0
0
0
168
0
420
0
0
0
0
364
1000
-765
-340
0
0
0
0
-193
685
0
218
382
0
0
0
0
0
429
0
-127
163
0
0
-23
238
-272
0
-410
0
158
-322
861
0
0
623
335
0
720
-26
0
0
0
0
-536
941
718
-116
0
0
0
0
0
0
0
0
-286
-438
0
0
0
275
-29
-322
-154
449
-949
1000
273
0
49
586
-779
0
0
0
0
-330
0
-445
-160
-860
0
148
108
0
0
0
0
0
0
0
534
0
0
0
413
716
-942
-311
64
324
-213
-111
-149
1000
0
0
0
350
-210
-514
0
0
0
0
0
0
0
0
719
500
0
61
0
-319
0
0
158
-46
1000
148
0
-50
0
0
39
-324
0
160
0
0
-544
0
-630
0
0
0
-835
-500
0
807
0
0
0
-668
0
312
-27
-111
-628
0
-642
-401
0
-989
139
-56
12
-94
67
-42
0
0
0
0
420
0
65
0
0
-290
0
0
0
0
0
0
1000
-341
836
0
0
0
0
0
-293
-14
-369
0
-111
0
324
0
187
685
0
0
136
0
0
-248
0
0
429
0
-127
163
0
-365
-1000
238
-272
-707
-870
0
158
-140
318
0
0
0
0
-400
981
132
0
0
0
0
0
-26
0
-116
0
0
0
0
0
0
0
0
-105
-663
851
0
0
275
-159
-726
-339
505
-1000
394
273
-299
49
586
-779
-91
0
0
0
-330
0
-1000
-160
-524
0
-119
0
0
428
0
0
0
-170
0
534
0
0
-662
413
716
-1000
-311
112
45
214
-172
0
0
171
-394
0
350
-210
-514
0
0
0
0
0
0
0
0
719
500
0
61
29
23
0
0
72
-21
1000
68
0
-359
0
52
-295
-1000
65
-368
0
0
-544
-849
-630
0
0
0
-213
-324
786
0
0
0
0
-668
433
-79
-43
-414
-589
0
884
-401
-290
0
-815
344
0
0
0
0
0
0
0
0
406
0
63
597
0
-290
0
142
192
0
0
-605
0
-341
896
0
-108
0
-50
0
0
-14
0
377
-111
0
324
0
-193
685
367
218
382
0
-85
0
0
0
429
0
-127
163
0
0
-23
238
-272
0
-126
0
158
-322
861
0
0
-42
1000
40
1000
509
0
-176
-437
0
-1000
396
1000
-116
0
0
0
0
0
0
0
0
-286
-438
0
0
0
275
90
-322
-154
505
-949
1000
273
0
49
221
-779
0
365
290
260
-56
0
14
-160
-860
0
148
108
166
0
0
832
0
0
0
534
-352
785
-343
-511
665
-1000
-855
253
-47
31
114
-149
1000
0
0
0
350
-210
3
0
0
0
0
0
0
0
0
390
628
0
237
0
290
-788
0
158
-46
1000
148
0
-50
0
-157
-583
-483
321
160
-647
0
-544
108
-630
0
0
0
-835
-294
346
807
0
0
0
-668
0
-274
23
-111
-628
0
-642
-401
662
-989
139
-56
0
621
-43
0
-598
-66
-188
0
268
0
-178
429
0
-290
0
-85
490
-85
0
-214
1000
-341
836
-423
-535
0
-115
0
-620
-14
-545
0
-111
0
324
0
-193
685
0
218
382
0
0
0
0
0
429
0
-127
163
0
0
-23
238
-272
0
-410
0
158
-322
861
0
0
623
335
0
720
-26
0
0
0
0
-536
941
718
-116
0
0
0
0
0
0
0
0
-286
-438
0
0
0
275
-29
-322
-154
505
-949
1000
-587
0
-205
586
-779
0
0
0
0
-330
0
-564
-160
-860
0
148
108
0
0
0
0
0
0
0
534
0
0
0
413
716
-942
-311
64
324
-213
-111
-149
1000
0
0
0
350
-210
-514
-358
0
0
0
0
0
0
0
719
500
0
61
0
-319
0
0
158
-46
1000
148
0
-50
0
0
39
-324
0
160
0
0
-544
0
-630
0
0
0
-835
-500
0
807
0
0
0
-668
0
-274
-27
-111
-628
-45
-642
-401
0
-989
139
-56
0
0
0
0
0
0
0
0
406
0
63
0
0
-290
0
0
0
0
0
0
1000
-341
836
0
0
-651
341
737
-293
-14
-369
0
-111
0
324
0
-193
685
0
218
382
0
0
0
0
0
429
0
-127
163
0
0
-23
238
-272
0
-410
0
158
-322
861
0
0
623
335
0
720
-26
0
0
0
0
-536
941
718
-116
0
0
0
0
0
0
0
0
-286
-438
0
0
0
275
-29
-322
-154
505
-949
1000
273
0
60
586
-779
0
0
0
0
-330
0
-564
-160
-860
0
148
108
0
0
0
0
0
0
0
534
0
0
0
413
716
-942
-311
64
324
-213
-111
-149
1000
0
0
0
350
-210
-514
-358
0
0
0
0
0
0
0
719
500
0
61
0
-319
0
0
158
-46
1000
148
0
-50
0
0
39
-324
0
160
0
0
-544
0
-630
0
0
0
-835
-500
0
807
0
0
0
-668
0
-274
-27
-111
-628
-45
-642
-401
0
-989
139
-56
0
0
0
0
0
0
0
0
406
0
63
0
0
-290
0
0
0
0
0
0
1000
-341
836
0
0
-651
341
737
-293
-14
-369
0
-111
0
324
0
187
685
0
0
136
0
0
-248
0
0
429
0
-127
163
0
-365
-1000
238
-272
-707
-870
0
158
-140
318
0
0
0
0
-400
981
132
0
0
0
0
549
-26
-735
-116
0
0
0
0
0
0
0
0
-105
-663
851
0
0
275
-159
-726
-339
505
-1000
394
273
-299
49
586
-779
-91
0
0
0
-330
0
-1000
-160
-524
0
-119
0
0
428
0
0
0
0
0
534
0
0
-662
413
716
-942
-311
64
324
-213
-111
0
0
171
-394
0
350
-210
-514
0
0
0
0
0
0
0
0
719
500
0
61
29
23
0
0
158
-46
1000
148
0
-50
0
52
-295
-1000
65
-368
0
0
-544
-849
-630
0
0
0
-213
-324
786
0
0
0
0
-668
707
-15
0
402
-589
0
884
-401
-290
0
-815
344
0
0
0
0
0
0
0
0
406
0
63
306
0
-290
0
0
192
0
0
-605
0
-341
702
0
0
0
0
0
-583
-14
-734
0
-111
0
324
0
0
836
0
1000
523
264
-105
0
0
0
429
135
0
0
0
0
0
0
0
0
-394
164
0
0
318
0
0
0
0
0
-520
0
0
0
923
-168
0
0
0
0
54
0
0
0
0
0
423
0
0
-438
0
0
-276
-74
0
0
-1000
595
576
88
0
0
0
0
-901
-517
933
-855
0
-330
0
-1000
-396
-1000
0
0
0
0
0
0
0
0
0
0
0
-345
0
0
708
0
-942
54
229
0
0
86
0
0
0
0
0
350
-210
-514
0
0
-271
0
0
0
0
0
-114
118
0
268
0
-125
219
0
0
0
965
0
0
-50
0
474
39
-1000
0
160
0
0
-360
0
-630
0
293
-414
0
0
0
0
0
0
0
0
0
0
0
-111
0
-447
0
0
0
0
-205
193
0
0
0
439
0
0
0
0
0
0
0
-13
0
0
0
0
-426
0
0
0
0
0
0
0
0
0
0
0
0
0
0
0
0
0
0
0
-193
685
0
218
382
0
0
0
0
0
429
0
-127
163
0
0
-23
238
-272
0
-410
0
158
-322
932
0
-366
623
335
0
720
-26
0
0
0
0
-536
941
718
-116
0
0
0
0
0
0
0
0
-286
-438
0
0
0
275
-29
-322
-154
505
-949
1000
273
0
49
586
-779
382
0
0
0
-330
0
-564
-160
-860
0
148
108
0
391
0
0
0
0
0
534
0
0
0
413
716
-942
-311
64
324
-213
-111
-149
1000
0
0
0
350
-210
-514
0
0
0
0
0
0
0
-910
719
500
0
61
0
-319
0
0
158
-46
1000
148
0
-50
0
0
39
-324
0
160
0
0
-544
0
-630
0
0
0
-835
-500
0
807
0
0
0
-668
0
-274
-27
-111
-628
0
-642
-401
0
-989
290
24
0
0
0
145
0
0
0
0
406
0
63
0
0
-290
0
0
0
0
0
0
1000
-341
836
0
0
0
0
0
-293
-14
-369
0
-111
0
324
0
-193
685
367
218
89
0
-5
0
0
0
429
0
-127
163
0
0
-23
238
-272
0
-126
0
158
-322
861
0
0
-42
1000
40
1000
509
0
0
-437
0
-1000
396
1000
-116
0
0
0
0
0
0
0
0
-286
-438
0
0
0
275
90
-322
-154
505
-949
1000
273
0
49
221
-779
0
365
290
260
-56
0
14
-160
-860
0
148
108
166
0
0
832
0
0
0
534
-352
0
0
-46
1000
-957
-840
253
-47
31
114
-149
1000
0
0
0
350
-210
3
0
0
0
0
0
0
0
0
390
628
0
237
0
803
-788
0
158
-46
1000
148
0
-50
0
-157
39
-324
321
160
-647
0
-544
108
-630
0
0
0
-835
-388
188
807
0
0
0
-668
0
-274
23
-111
-628
0
-642
-401
662
-989
139
-56
0
872
-60
0
-598
-66
-188
0
415
0
63
0
0
-290
0
-85
490
0
0
-214
1000
-341
836
-423
-248
0
-115
0
-620
-14
-545
0
-111
0
324
0
0
345
770
0
-236
428
0
-269
865
0
429
-582
45
0
0
0
0
0
0
0
-410
0
0
0
93
467
783
-558
-270
0
661
0
-518
-154
715
0
0
0
922
67
-139
143
-917
0
0
0
0
0
-503
-368
-849
-681
-617
0
-190
0
239
-46
0
155
0
0
0
0
-1000
-811
0
0
-656
-330
0
-564
-441
-1000
0
24
0
406
0
261
-641
-687
-587
0
0
0
0
0
0
-441
-1000
-116
229
-647
0
86
-80
101
0
299
0
435
-420
-514
0
0
0
0
0
0
498
0
-379
118
0
0
0
-643
621
612
0
-434
751
214
0
-50
0
0
39
-1000
-597
674
0
0
0
0
-1000
-187
0
612
-891
-505
-270
0
207
0
0
0
0
0
0
-111
-972
0
1000
496
-24
0
0
193
0
-65
0
0
-540
0
0
34
0
0
-74
0
-210
0
-816
-119
0
0
0
0
0
168
0
420
0
252
-132
-286
364
1000
-765
-340
0
0
0
0
-193
685
0
22
46
0
0
425
0
0
429
0
-127
163
861
0
3
-27
31
0
-392
712
115
48
570
-356
33
573
-71
-480
720
879
0
0
0
0
-536
941
718
-116
0
548
-74
0
0
0
614
146
-286
-370
0
-997
0
275
-29
-322
-154
505
-949
1000
273
0
117
1000
-779
-52
-14
172
0
184
-974
-564
-160
-838
0
148
108
0
0
0
730
232
-376
0
534
0
0
0
413
716
-942
-311
-199
757
-213
-111
794
1000
193
-635
-393
221
-210
-514
303
0
0
547
154
237
-134
18
14
500
222
61
0
-319
0
0
150
-62
1000
166
8
-50
0
-6
39
51
0
-316
0
-553
-402
0
-630
0
0
0
-1000
470
-76
759
0
0
-347
-668
0
-274
-27
-111
-628
59
-642
-401
0
-989
139
-56
1000
592
0
0
0
0
24
60
406
-158
920
0
0
-290
0
0
925
0
542
0
1000
-341
1000
0
0
0
0
0
608
582
-369
0
-80
0
235
0
0
345
770
92
-236
428
0
-269
865
0
429
-582
45
0
0
0
0
0
0
0
-410
0
0
0
93
467
783
-558
118
0
661
0
-518
-154
715
0
-842
0
922
67
-139
143
-917
0
0
0
0
0
112
-567
-849
-681
-617
-245
-190
0
239
-46
0
155
0
0
0
0
-1000
-811
0
0
-656
-330
0
-564
-83
-1000
0
-167
0
406
0
261
-641
-687
-622
0
0
0
0
0
0
-441
-1000
-116
229
-647
0
86
-80
101
0
299
0
350
-210
-514
0
0
0
0
0
0
498
0
-379
118
0
0
0
-185
-258
-254
0
-434
751
214
0
-50
0
0
39
-1000
-287
160
0
0
0
0
-1000
-187
0
612
-891
-505
-270
0
137
0
0
0
0
0
0
-111
-972
0
1000
496
-24
0
0
193
0
0
0
0
-540
0
0
34
0
0
-74
0
-210
0
-816
-119
0
0
0
0
0
168
0
420
0
0
0
0
364
1000
-765
-340
0
0
0
0
0
1000
108
0
71
0
-171
0
0
0
429
0
-6
0
202
-50
0
723
-581
370
224
657
0
0
286
144
-1000
85
-275
573
-56
256
-31
62
0
-21
231
-996
-668
817
0
473
0
293
0
0
0
0
189
0
0
0
16
104
0
0
0
-560
0
-282
0
0
0
0
-106
0
0
532
216
0
57
0
0
0
0
0
79
0
-969
-35
0
-794
245
-503
200
-95
0
522
511
554
-317
-519
-297
0
992
0
330
0
98
138
0
-207
0
0
594
0
0
-1000
814
1000
-80
0
276
282
125
428
0
0
592
0
0
205
-126
448
0
0
0
737
0
0
0
0
0
0
0
0
0
0
581
0
0
0
0
0
0
-552
0
0
0
0
0
0
0
294
0
0
474
-229
0
0
89
-711
941
-323
264
0
8
6
580
112
0
0
0
0
0
0
0
126
0
0
0
-349
27
634
0
0
-1000
0
-100
0
115
-914
0
0
0
0
-193
685
0
22
46
0
0
425
0
0
429
0
-127
163
934
210
-23
-334
-272
0
-410
0
-765
-322
585
-281
0
623
-89
-501
533
680
0
0
0
0
-536
941
718
-116
0
-177
-74
0
0
0
614
146
-286
-370
0
-997
0
275
-29
-322
-154
505
-949
1000
273
0
117
1000
-779
0
385
172
0
184
-974
-564
-160
-860
0
148
108
0
410
0
730
232
-376
0
534
0
0
0
413
716
-942
-311
-199
1000
-213
-111
-149
1000
0
0
450
350
-210
-514
303
0
0
547
43
0
-227
0
-88
500
222
61
0
-319
0
0
89
-181
1000
301
656
-50
0
0
39
819
0
-664
0
-553
-402
0
-323
0
0
0
-1000
470
-76
759
0
0
-347
-668
0
-242
-24
-111
-628
0
-642
-401
0
-989
139
-56
0
0
0
0
0
0
-38
60
406
78
920
0
0
-290
0
0
925
0
-286
203
1000
-341
836
0
0
0
0
0
608
582
-369
0
-111
0
324
0
0
685
0
0
382
0
0
0
0
0
429
0
-127
1000
0
0
-23
81
-272
0
-410
0
158
410
318
0
0
0
0
0
981
-26
0
0
0
0
0
0
0
-116
0
0
0
0
0
0
0
0
0
-161
-666
272
-4
275
-159
-322
-339
505
-1000
394
273
0
49
586
-774
17
0
0
0
-535
0
206
-160
-524
0
-119
0
0
0
0
0
0
0
0
534
0
0
0
413
716
-942
-311
64
324
-213
-111
0
0
0
0
0
350
-210
-514
0
0
0
0
0
0
0
0
719
500
0
61
0
-319
0
0
158
-413
1000
148
0
-174
-405
0
39
-1000
0
160
0
0
-544
0
-630
0
0
0
-213
0
0
0
0
0
0
-668
0
0
0
-111
0
-227
0
-197
0
0
0
193
0
0
0
0
1000
309
-610
0
406
0
63
0
0
-290
0
0
0
0
0
0
0
-341
702
0
0
0
0
0
0
-14
0
0
-132
0
-840
0
-193
685
0
218
382
0
0
0
0
0
429
0
-127
163
0
0
-23
238
-272
0
-410
0
158
-322
861
0
0
623
335
0
720
-26
0
0
0
0
-536
941
718
-116
0
0
0
0
0
0
0
0
-286
-438
0
0
0
275
-29
-322
-154
505
-949
1000
273
0
49
586
-779
0
0
0
0
-330
0
-564
-160
-860
0
148
108
0
0
0
0
0
0
0
534
0
0
0
413
716
-942
-311
64
324
-213
-111
-149
1000
0
0
0
350
-210
-514
0
0
0
0
0
0
0
0
719
500
0
61
0
-319
0
0
158
-46
1000
148
-244
-50
0
0
39
-324
0
160
0
0
-544
0
-630
0
0
0
-835
-500
0
807
0
0
0
-668
0
-274
-396
-111
-628
0
-642
-401
0
-998
140
-60
0
0
0
0
0
0
0
0
406
0
63
0
-153
-470
0
0
0
0
0
0
1000
-341
836
0
0
0
0
0
-293
-14
-369
0
-111
0
324
0
0
685
-499
-75
382
0
0
0
0
0
429
0
-127
1000
0
0
-23
238
-272
0
-410
0
158
410
720
414
531
0
0
0
981
-26
0
0
0
0
0
0
0
-116
0
0
0
-406
0
0
0
0
0
-161
-56
272
0
275
-159
-322
-339
505
-1000
394
273
0
49
586
-779
0
0
0
0
-535
0
206
-160
-524
0
-119
0
0
0
0
0
0
0
0
534
0
0
-632
413
716
-942
-311
64
324
-213
-111
0
0
0
0
0
350
-210
-514
0
0
0
0
0
0
0
0
719
500
0
61
0
-319
0
0
158
-46
1000
148
0
-50
0
0
39
-1000
0
160
0
0
-544
0
-630
0
0
0
-213
0
0
0
0
0
0
-668
0
288
28
-111
0
0
0
-401
0
0
0
193
0
0
0
0
1000
317
-701
0
406
0
63
0
0
-290
0
0
0
0
0
0
0
-341
702
0
0
0
0
0
0
-14
0
0
-132
-547
-840
0
-193
685
0
402
46
0
0
425
0
0
429
0
-127
163
861
0
-23
238
-272
0
-410
0
-765
-322
585
-281
0
623
-52
-459
720
680
0
0
0
0
-536
941
718
-116
0
548
-74
0
0
0
614
146
-286
-370
0
-997
0
275
-29
-322
-154
505
-949
1000
273
0
117
1000
-779
0
-14
172
82
184
-974
-564
-160
-860
0
148
108
0
0
0
730
232
-376
0
534
0
0
0
413
716
-942
-311
-199
757
-213
-111
-149
1000
0
936
0
350
-210
-514
303
0
0
547
43
0
-227
0
14
500
222
61
0
-319
0
0
89
-181
1000
301
656
-50
0
-476
39
51
-133
-279
0
-553
-402
0
-630
0
0
0
-1000
470
-76
759
0
0
-347
-668
0
-274
-27
-111
-628
59
-642
-401
0
-989
139
-56
1000
592
0
0
0
0
24
60
406
-158
920
0
0
-290
0
0
925
0
542
0
1000
-341
836
0
0
0
0
0
608
582
-369
0
-111
0
324
0
0
685
0
0
382
0
0
0
0
0
429
0
-127
1000
0
401
-23
238
-272
0
-410
0
158
410
318
0
0
0
0
0
981
-26
0
0
0
0
0
0
0
-116
0
0
0
0
0
0
443
0
0
-161
-56
272
0
-106
61
124
-339
505
-1000
394
273
0
49
586
-779
0
0
0
0
-535
0
206
-160
-524
0
-119
0
0
0
0
0
0
0
0
534
0
0
0
413
716
-942
-311
64
324
-213
-111
0
0
0
0
0
84
-50
-123
0
0
0
0
0
0
0
0
719
-140
0
61
0
-319
0
0
158
-46
1000
148
0
-50
0
0
39
-1000
0
160
0
0
-544
0
-630
0
0
0
-213
0
0
0
0
0
0
-668
0
0
0
-111
0
0
0
-401
0
0
0
193
0
0
0
0
1000
309
-610
0
406
0
63
0
0
-290
0
0
0
0
0
0
0
-341
702
0
0
0
164
0
-1000
-14
4
107
-132
0
-840
0
0
836
0
1000
523
264
-105
0
0
0
429
135
906
850
0
293
-32
153
-176
0
-394
619
0
0
583
273
350
0
0
326
908
-386
463
-145
-1000
0
0
410
40
-975
0
592
-234
635
-499
0
0
-243
0
-149
-72
351
434
0
0
0
