-1344703263
-1466620942
-1458533976
500054030
1549365749
-746365847
-561897029
869441297
-1991371475
62468400
-1879085436
1865084432
-1418903845
-1477671339
-108614308
573836487
1624282373
-1365856262
1420685300
-1482593200
174444671
1267615887
-20782824
-530216297
309507069
9737311
-32690839
1498164818
1188097269
-1887254337
1745839428
2050545331
1126453190
1845441224
-955595490
-849619997
1636777905
700581799
1740879690
1099019811
-780768811
-1649517131
175694609
1276651810
2095544820
336748447
1209374324
1645105110
1203416993
1763444694
-230855113
-1349633394
35737153
1354057693
-1085978617
-224781717
-1168837796
749596707
43859773
834197508
-697578218
1616523903
131644264
-1494896417
-716984482
1918967673
-1601619226
2089231594
1354151829
-130604793
-1739929385
1435327038
285370187
1051859682
361138107
1292600796
-1377031451
566350382
494186013
-1414997699
765318095
-1525742812
1211353318
1720147830
108759407
-1738402982
-1529836589
-1440449251
156230648
674923490
-1761666093
417698106
-1734554194
406350585
1850057775
1947112590
-97791947
-261044492
66073287
-1482373789
-994150883
1833977520
2142629379
808485063
1902399797
-525845042
1910767160
1324040681
-1970436256
-180345140
-1300782778
-805519931
-1428534161
669879162
-1886037023
-442196247
384926112
-797552361
-1032219284
1957632142
-147331174
-1773207995
-281033926
-1304603332
693552428
1347643032
1652162141
1089344727
-533939102
1649137856
795850697
-1961591350
796328171
-1131400605
-1845887716
1079559215
-1664340533
1458303163
-317172933
577728250
38549634
1441285798
-601949695
-2012031357
-847716255
-726852547
1158988331
1289218847
550751438
882470957
14379056
1565969098
-1003278127
-983128473
1902843930
-979856307
-422604476
-1106585635
-1894478283
1141119417
1147309738
2049057554
-1981715456
-463176780
1979729491
543372247
-837151554
213278852
585729112
-1770861820
2120238379
1535673821
-338722075
-1861643998
-1847245862
-106736851
-1899324834
-1850735498
-1362547368
-1898518552
1216604620
-209100253
-9615463
252400693
-355413948
-2026994741
-477375174
2087269588
-1514296263
-1004582550
2121111869
1397700841
1173913288
1923188392
-1339882485
-2139005387
1711564806
-484262584
-779288426
120755279
-326267276
403989982
-558963136
-1310257349
337946420
-353660823
-902757212
1297385472
98372044
-757069606
-67914119
931572600
-234901138
1769999528
-2034412987
634653250
-552951764
1291598345
-713625951
-1417104422
956890631
1007019952
937551676
-1028721815
1651997521
-1067036223
-694860220
1111403543
-801056082
-1064038187
-1141781089
-508346182
-408799241
1125995176
138614322
-1804410457
-792582314
1816996805
-1285072143
1342841769
-577068764
-2038585271
399225784
-529450838
-606902703
201429510
-2003622218
1281092233
99256923
112559305
-1868249551
1214722306
-1757547395
-1583856339
1290957325
860610802
-1913752039
-866715342
-1002064559
1542218587
311906164
1308870982
695784376
2093167816
843544851
1729507203
85649331
663600056
-1922490570
935426588
1173655573
-2113608851
870395867
89874884
-804080859
-1909580276
-2085941278
299949673
1100040435
-1654615681
1443607443
1012309683
-52548867
-1629746403
-1129221905
-557820793
-1977509718
359563533
1171569107
-1546179592
115021310
-325362850
-412404391
2038013573
-1449684540
1173986706
112897444
-1169202561
1665834327
-1711170572
959008264
-759183623
-599476675
589113696
717399654
975094494
-563990062
903108807
-1632249540
-407962115
1230870177
1172984381
2005941486
-845109995
776152290
-1033132493
-1301610078
1323213103
1199267268
-1085851789
553206305
-31939085
-948369815
1721054851
1453037961
360857383
302957641
1394887258
-868085854
477155840
1796868600
1722445097
-1653041441
674582702
-1906008738
-1811845269
1782340443
-1732786386
-991738684
-183924960
1184270404
-1027666112
-2044495693
-671375206
1582681565
989108248
926144597
-50703690
-2063341867
-814001098
1902939566
-340874190
1934650011
1247048995
559971180
-2003064246
1599581811
-365499026
-2014454047
1874727348
71360520
421951996
-1774690418
-2050830778
1542160886
-2101879638
-431184244
1694615038
-75950325
2084238964
-1465640762
-1073602996
489115115
1201197996
-224656469
1660970956
1562217082
1608145347
-663290012
497988312
1830339740
-153000593
252534976
511824117
-646270314
-860070704
-1579889861
-588778898
-2140894635
-1516757468
762873360
-964443193
-785177113
-1059022810
1001433514
-1039642031
1993147198
-623952431
-317617761
-1133406910
1536662207
-475784761
-423760058
-1038083042
-2089761985
-1266871608
-1852567809
-1670675542
-2011578431
-374859171
1505921757
-182529350
-2025520875
-1963886141
-56059092
-617940657
1146158577
-860655144
-1352876511
-971592429
-1189755930
-1132365838
-1360814737
-372323640
-422518129
-998247679
631893842
-1963124083
811901864
1766858801
1714387896
482408751
-2057538456
-1707306837
1219751965
-344899197
-285542715
756528209
2139887396
-546631021
2066074404
-1509156255
-1587463252
747760931
-225137994
-1474063774
-704428577
210344355
-883108301
-1992613643
1743287552
2049290143
772861259
-2079595134
734303733
-1590506009
-872202810
215901044
-264923351
-1751582725
-1621930786
-1451160010
1833925470
1148620788
267207319
-1768336141
-15943622
-71000555
271239158
1709960232
-1578419406
-435115767
-123452926
-2017766872
-6014238
840377510
-353258756
-63610732
416840833
-130120882
-1158311577
1496695794
1925992101
-475309268
334990656
-1553499494
-133838708
455944574
-592709940
-1353135351
1243220395
1103681958
313171044
-567588987
440931068
-1418117918
2062365048
1248787007
-78585328
972102595
2099389569
1221696516
-971480982
2066183055
1538887708
819761735
731202954
348441101
133819426
44816746
-163751858
-1579104037
1612673994
947951291
1869855065
1798850618
35612096
1899546794
-334528835
1595486090
-1697088349
755495526
-1154818704
-998524464
-8349169
-1482296633
-1469393845
-426859954
-890377018
-11468643
-2044348641
-957993361
-93946223
-1326673854
-503515954
1929956094
1815857926
1654632739
-314271879
1945479010
-1040283935
-727363291
-314578106
783199215
1953584266
-338368069
-628674426
1633984570
1801907687
650734087
-2043936249
924347007
-1223916404
155288466
-1867546091
1744306058
-1398117727
-1925737707
-1869318682
873176233
1266077947
-440881507
2129164200
924744843
783179010
-302799288
-1372070879
1489478095
377684364
-1405870383
-913203987
-1304038010
1292909890
-867293018
-23400866
-569418571
-2082941856
880828671
479995749
368814043
2045203796
-499966923
690270795
-829284495
-1291251325
-643210324
450255299
1739625877
1325025298
986419931
915297988
1471276745
-699135374
-1785148422
-121679193
-966996922
-356590822
-53967724
-1710661571
-11322457
-525811574
455769566
-881745410
2087998911
2068664403
-1525966990
2045286945
343578138
-1440016115
2079436136
1873280623
-2045542322
1210232729
-494809995
-2108636346
773672064
-1402921122
-1940351721
-1865495062
-342356178
1793067102
1657026332
-567718026
-51343422
-497710562
514041203
-731191571
517217274
-1521728957
728435079
-1712156336
693502315
2043650906
1368090072
-1311996672
-1725409042
-25525554
199385144
1259087151
471523641
-1924618389
-636469714
-2077258390
-912343763
-705090699
347571574
230494175
-1303733531
655404863
2048038899
1839227648
615947439
-854750674
-1095542435
572878746
865773072
1430818511
1447682902
-1469110994
-2093178982
970864045
-1452846815
-360449163
-214433296
-167207652
1676839129
-2073734949
-1098950629
-566591482
806292552
697276268
164013558
-215768334
-2107870579
-60330859
423555721
1068764661
-603557630
298147821
-736198825
-663883992
-369789076
198142241
-1743821560
183969706
-2102160780
1020829223
751350966
1382218031
392044800
188214982
657983702
529236175
99904199
-379512001
-287926310
-1683368627
1256929251
-589235794
878617740
-402393433
-1575663780
-738218153
1865299981
-582994346
899357906
-617552269
1863787881
-163118823
-630756112
-1603605739
1520408486
318705982
927222004
97598651
-302207696
-1349332872
-1840106356
-729607344
-817840384
-1612701144
-439592424
-1836349812
-294221195
-845994810
-2134154247
1429374350
-1758924413
-1594349409
-2026085467
-1804563433
-465383552
1972706724
-1119863862
-950557992
-601273275
583202477
-1032616221
-1680956531
1840800500
697974255
-1351196985
928651922
1224110016
535717662
1464192012
-89213070
1947647376
1456059428
-1594413649
224758206
340886394
1722380690
-187442301
1844423163
498037307
-1511063439
1803361629
-1293561644
-2049730195
540694723
-331543819
-205824207
1153781091
-1849924411
-417104606
292270312
-1653993350
-1451017538
78504261
-1253898312
-716110362
-324595961
-1060146150
643633970
-681959081
617195497
-1502986874
71669098
1627078089
626608193
-247262329
-655923778
-794281865
810386444
187191527
780282669
313833027
1480014281
-2076115613
594753196
-238799394
-1550004036
-1893188536
-343268536
-188985094
250329906
-622164592
2020655057
1503076561
-1192798590
-1928286421
907315982
400847781
-72561690
120637123
1896598674
1167642029
629514499
525561624
1129926244
-2096231799
-859813304
-870445091
416153690
-13902965
-1922411967
268648038
543623008
-170786315
1854073392
1076877301
-229713287
-1836882725
-190902513
-83492115
-362081095
-959665843
588563034
137365169
-1314244270
-276996485
-1464581184
451371225
-822057985
1251687568
489622124
-689432454
198911206
257126829
-459525685
-1536062849
934666395
-1368201622
-1324343068
426990391
-369293932
-536438662
-267851677
-202932714
-1520802323
1824762470
-1626413704
1872282824
-1902684398
1884399778
-262622181
-1672949300
-471771011
-256637890
364559969
1407384077
-1396838664
550375932
1659785231
1128481339
-1112725716
-101490814
1799471920
21834885
-667175331
91506376
-1593428053
154537284
-431552093
790125565
2030967699
1541544180
-242995350
-547792516
396535315
-1822421656
-1023732778
276902428
-376359235
-165903509
-1254899557
-759063195
818880860
-768447051
-1732701519
-1440830697
-730391882
85378481
1765516896
-1877698080
-393175692
916396956
-976613973
1511161448
-392873657
1089383474
-1818703802
2060145441
-864989982
-1111654339
-1052222582
-1131071188
1635938753
903767262
525762375
-1247983885
2119035641
-889259672
1646908366
1292095752
1492701082
1244531203
2020314635
997328190
-441345264
-1686222891
637997024
126723937
-416779561
-655085859
1444000595
-1014944164
-149949269
-951524014
-1628164640
964194486
-1254864448
-1366833683
-229219384
-1346115077
1672006362
-20305183
-1194508457
-1800294350
-1978628864
-148661799
-1998417053
-918114822
-1774980296
1558810788
351946316
-1182869902
1179917502
-419423496
-101424697
1641950432
1821391095
-783836911
515032086
-49307396
-962759624
-1861025542
1926883611
-259439968
525042750
-1701874295
313016479
-1306621577
1455628289
-527801440
85463169
1542135157
1685106279
133049942
201685868
-896670874
184345090
1752933314
-203450765
613052462
-1470634518
398937263
-1646160358
1580702516
1397268253
-2104558071
1344967313
727057955
1167953081
-2103014520
2081226044
-751132346
1751124946
1318386793
1810443499
235460594
-1560623837
-882580478
397297153
1271083633
1137715270
220516250
2086138294
317265234
1201300212
-692972546
-174247387
1350212503
1503513870
826965366
550222326
1616712353
927460995
161878618
1375722500
1757760204
476303244
1423272939
1524114285
-1701127809
983444260
-1341907885
-1167563937
-2110999757
1662985995
1608305442
-95689537
2073110795
932283774
-1143365089
356702144
-925820346
1394616850
960090224
-1272624380
-893061200
349237067
216279097
1178864630
-1821474141
-1749166389
-442123467
1891253332
-1281473141
31146516
-1701938667
-1594067242
-468063854
782166102
-1601736167
-334690895
-1041517725
1197117149
-2006582987
-1791872806
1169251751
-1050790456
-1087697559
745547458
1399700003
296179299
542510911
1051509353
1501364615
-353308644
882364110
-548262287
1812690984
147364663
326181950
1050158103
1499000260
1735317958
-1969616930
703610569
-1309850619
25000688
347126555
-1534151199
1830981932
182948070
361957117
-1387695560
-1707785509
993903127
1162703458
411102509
-999166341
-646067680
271281347
1217974816
1362402149
-1943013387
591999659
-945459377
410234605
-126013531
-1199457806
736957110
2110415354
2135058475
1741188916
1644676389
1661571382
803171116
-343320328
557283720
-208290840
1404358037
260165048
-391112050
-887716557
-1427073539
290022244
-1280885236
932050645
143186257
-1892380745
-159574320
1621266585
-1852780501
2084362788
56053720
1945186807
752514906
-1402641349
-1018270315
-11313575
29963127
1115041683
968277036
308034956
-46635706
-1082139634
1752240356
-521981883
327085397
-1682565018
1334099757
712684145
2058942710
-83389429
-474111901
-1612988691
528084768
2145964732
1197699563
-1239065826
539175164
1879797769
509786328
308077508
-724813681
-2145666781
1692804346
-1696862279
-1844669906
1654870225
-1386270108
-474820077
1728497435
-1007837487
-466812628
-491436924
-1614345911
729924104
-917880348
-585782536
356914935
586500739
-2145405128
-503615049
-1633883971
-845212149
-707567113
-480897980
-1891412005
547563701
-22342492
-256012541
433877071
736935355
-1463485805
-1481605688
-1857015284
-1876246602
-1742464943
698286037
-1784107589
-1997033145
-1494466738
-484925056
2142167602
-1560842376
-1775658695
-458418707
-666352188
56411835
-842195237
-262798799
923067661
-1525356155
-1147519516
461162689
-1156207977
22016832
76597382
-1775808088
-1030306935
-756960258
527269916
-1951521305
-625227202
-994674764
1649812816
-177333408
1338678020
631126231
925892508
-355470757
-56362861
-1727996939
-1734151601
-894788894
1697833709
-1944039497
-1081618836
164877566
-1461460614
820214110
-1304670036
1848269822
-167047478
-1748132496
-485078632
-1408920809
-227621832
776596485
1327166060
-1800857592
-665648890
217812766
2125496096
325163753
810215331
867927958
1121262025
841784965
-1797504731
-797302208
1762631026
-64362080
1392807393
-1272206928
-729205827
-33706208
-750955507
-1162950659
-881991182
740806
-234408447
101695308
1278502869
438769160
1262065140
-1442732481
-239659635
-1292105140
-729609635
1900023010
1794785705
-1441432792
-825928550
448739428
-1972996457
-1483887906
-750550072
825552505
166906098
1064457875
1688270424
727931787
-708323252
839085736
1205023782
-1666459107
1226011864
549949476
1618132290
1613214956
-556497680
-1350233639
1516627131
755817577
2028777440
542340342
1208243352
1215632044
2078804749
-946419650
29701620
1513131290
1547556345
-1021944746
751378399
1222226392
568229964
690465980
-691082161
92301582
126149150
929819922
-491244174
1674694773
1398604203
-1496227946
52248526
-449792514
-1434010344
437951478
1196126724
1635235342
-532135067
992008080
163979348
693547588
1645537047
-1333546270
1891233690
-1307270617
-939214872
903877622
-1171324834
1357914753
1281288104
-1373842529
1270814060
27082021
-107690525
-675697696
69942932
1019400019
-1709928894
1304001408
1716615577
819753442
980880841
-1961857250
-21046797
717214543
-2019139332
-2023384396
-144718939
-938619106
795599949
-2006990862
-1529895977
1998473375
-514510037
-727236870
-744435858
-1246207067
-1935224539
-1836847159
1470353954
-1554045169
-1261106223
455476045
-1974207619
-1255776682
-1380792515
1351653373
708660424
704815772
-1369361951
1543718445
2127793926
-1961724648
1149778904
1464586441
-202115992
831795512
1352657966
1923031938
-2132995301
1493604170
-1429838663
469073929
1020412016
-1306301763
117581104
-58213320
1276542805
-1885511564
145499443
-248761009
89480170
-1670259492
-981503288
-711439658
-982400470
-848225082
659052886
-1309638898
-1619269719
-1639907680
-1165947129
-1199886185
-1267508887
232854014
1848512267
242260183
-1447023986
372475647
58310709
861196774
1201156838
-243833537
-1617666707
1268702064
-1473707897
-148276150
-872243182
910495295
-1994219602
-227975758
-612186855
-54961096
-1234197152
1189135829
1400831557
1226206696
2072390978
1444108602
580845342
1892122362
-936054414
916220173
-367910399
-1921352337
-1052676607
-316421109
1187569807
955717917
1721318821
-1645168382
98902763
-799951353
592529694
761445158
589582835
-709457092
1977500073
1615039944
1379021442
-1935987938
-146767411
-1575543544
-1663750353
-1767594863
-277175004
459331144
-1897079239
489166733
1486705519
-769896662
-1322908626
533716628
1866853605
-1546850471
-915900896
2054906883
-1667352165
-574894257
1149721372
-1977022031
1970126202
-797527580
62192184
1285726776
-1552488295
-647513175
1962607422
-75540007
-302663857
-453425791
-851699999
1705250699
2039937038
126935734
380879605
-143271761
-202675896
434583464
936058486
-419099416
-2066718836
1771421719
-787466828
-1688272348
1175774498
-418624681
-461710635
-634178941
-1928245230
-93278237
-2040247675
515207248
-330110217
-1294330518
1965270493
404918836
-2002005063
-840292541
259874062
-1882710081
23742009
-1203390471
1785293345
1349334147
-261578993
-641467628
1819871510
-438919976
-113540315
-639793159
1035395465
-1887040218
-1760468547
-1045344741
-1824439825
637929923
-897168716
-1265992410
1320855429
1464179467
963430695
1424425229
-237349377
1585830880
-125929368
1411756785
-1255677469
149381366
-883365126
-1980968345
-775620706
1075615468
-1944866646
2145498872
-1616071052
-2078180242
-1915709647
1838060753
-1328428077
1488037078
-864558438
-1932896332
2021170441
1176304366
1923198745
-1063878090
-100022065
-1620271996
