-1336504791
1001686800
2110160577
-958310709
-2147483648
-1632252705
-176684396
-1039319099
-2090188459
-379260823
1714758450
-785080049
-1082754605
16567987
-484685754
-1505965659
1044720540
276363100
-289900069
-404829535
-596230545
1110852558
1105855846
-2147483648
-215592862
-1643362939
226272843
265570474
1203701087
-2147483648
-2103767761
431167937
-1708867650
1758364436
1347439156
-829105763
-92650263
-2147483648
-204417220
723138957
1759778862
1812490487
-1399233159
1279804294
-1440470213
1496466876
2147483647
845716665
-779752756
289143321
1090504494
-2120167325
-898286602
1354057693
204311946
-235446256
330618291
-687677917
43859773
-1461161465
-2108554900
1923124649
1204476404
-1414745047
1340016566
-312552634
-1073234453
789633185
-1795505052
-1811090861
-1739929385
1435327038
1925436564
-2006790783
-999884498
2147483647
1451218305
-470445563
-1847412699
302367024
-898139480
-1525742812
301151551
-2029654864
-1191082035
-767478497
1517506728
-2046542316
754062639
-1069183541
-57851562
1142825432
790599705
-236600979
675243350
-250996271
-783715312
-1696686298
1485989805
289962681
-2012688066
-1688487631
426225342
1450744455
1235268
276422564
-1763355519
-1466284686
515182036
1657050258
-113592093
-1408578185
-1898488489
-1737953384
1744989496
853035457
-177391903
-1991521535
-2095094074
1183848734
-75979287
1185656454
-1434517168
-654235049
693552428
1830770932
-2009945144
-210783745
1419295971
1344631882
79786942
-957333217
-555144710
-1678413027
-1365925999
-744671951
-1036827569
1370019199
1447914742
-641358079
-755566411
541691530
-1049446563
3619597
-797119320
1496552447
-1555771156
202695230
2046368460
1037785565
-1578424814
1785686453
-1565639332
-1072368939
-1037371330
-148225224
-302745557
-397452707
-1680991290
-126733440
-1430048489
632545925
164208698
1568552337
2058700468
904688810
1008861224
1228853156
-838493617
-1317272055
989485279
189838476
-771214160
-296102981
1931919237
-812418809
249970770
-1736371208
2065289785
-283499127
-619692997
292943858
568147742
-623001932
-165540857
2128855418
1883805326
260627748
2147483647
1406856508
-1660737972
-2147483648
2147483647
274393829
-664482004
-80170533
355054331
-2030668723
115012222
-1684118650
-2010011490
715694899
983433442
1195992867
178896043
-732594033
-1995610114
1737881834
802124637
1378560908
-1243498924
-1066637356
-294756931
731867555
11791494
-541107868
-473776801
1862809946
-1440121326
-838491800
1713291453
419029765
585671193
-2147483648
-880983445
-300757536
1239577107
925703480
-856320546
-1748282691
-597845480
-177404927
1646274212
-689755699
1984762581
-2147483648
-1710865158
-39744304
-467681264
-53491387
1300829400
703477260
959107690
-1370364315
194151238
133322213
2123926229
69552716
-203742523
1273913309
-2002210648
1497502318
51185980
2101094433
-1737799770
-2082285775
-625052746
-934719794
1831735740
-836910211
-2147483648
-551370636
475970877
-1414232838
-881278516
-986469114
556125058
-407973073
-335976471
-570075168
-1094069877
401579671
-1224280939
573796965
-10498165
-307396865
2147483647
-88325198
495555875
1523860972
1699451850
353546659
451778064
805502405
1589276623
1190906383
-1924738203
1323294123
2147483647
-1715359203
1186239681
-325362850
-855759672
284712011
1376250340
-695440778
1165873906
1845503470
2147483647
1096650301
-1370939409
-1503516995
898738703
422110928
-1788978505
753929762
-667780271
801110819
903271023
-633939906
347442899
950417540
-1291141294
-1367146832
-1135602419
1275380830
-1715023582
1944239445
-1236217619
1728321044
-2147483648
966096669
1908546707
549828818
-1330982504
1100696022
-2131284569
-1410922592
-350457309
-955330443
-805086455
-2070051068
988753962
621362571
-1131391979
48664048
-427735017
-790774431
-2147483648
1770450866
1634955908
377194491
448441109
1715032748
929666683
1969747806
-523242580
-129419036
-1150624129
2147483647
1074152580
1536168843
-967398920
2147483647
962976736
-330387044
-1966751590
1358472074
1114689696
-2062291867
791640698
1075843991
1999530519
1851219989
-2013588512
-2101879638
-1728532580
1491393671
630618617
178219614
2147483647
2147483647
-2004207263
1487651489
-734773734
1875117189
-1998480890
-44320888
1672667656
-771042907
2147483647
397264024
563853945
-1627374570
-1910314485
-2147483648
-425763758
-588778898
-68226047
-372433122
-1856881718
158902589
-658954387
2147483647
-1655079104
-1151682130
-2147483648
-79441738
687299620
-759927990
-258972491
573454620
-2147483648
1531324199
707038390
-1025464253
2143532547
1794069342
-520122830
459324450
-960166853
-2038951365
-790071690
-1087719319
757642835
944902706
1956233959
-1164911795
-1291945797
1568505045
-1189755930
1140961357
1702625865
-2147483648
-2065840637
-1038803810
-2028617190
-271872015
-1310167081
-1123834339
343465668
440084261
2147483647
1000836893
1868681252
-974767659
-800791811
903900735
758629554
2014827510
755523962
1690035052
105744627
101010564
477253909
-1560871767
-704428577
-1773707177
551891552
-1267468731
403628946
1414409412
-1700025036
1152720475
-1101865533
839357841
1173009629
2106600831
1213342944
-1030281610
-1701637064
-1978775428
-559638402
-1819213600
-686492994
-2061502418
1469100832
177547576
65615950
-1890699674
1023168996
46275527
-1302382485
953209552
-732265527
145489724
-783959152
633918840
-814824340
-2050523063
415410673
251639895
1328453337
427366754
123194940
64033900
-952978266
185130531
-786749196
-911794340
1906396449
2147483647
-817022448
-1934540286
76381970
-1516115575
-972973538
1067208941
1124150944
1762785778
8581907
-544600063
-217579773
1294332374
201530419
-234707250
1111982986
-1816103263
-673191544
1995632128
-996871622
1097351702
-1676069703
-1484428145
541885927
-2136714081
2126993442
-585370446
1533690958
767053520
360490931
1621602539
-953479618
-2129402396
-1864793261
-128922636
1154794416
2130954539
-351030040
-150718340
233666670
-1166797898
198625032
887767081
393285656
-477582231
608937728
2147483647
1794573157
-1319327895
-859914270
203455134
944144553
-1533946571
1657882258
-839327821
2147483647
1120900806
-1549047583
-1422239709
-1917378197
102982773
-1224693271
2147483647
299660026
1275091366
-802664725
-425229300
-859898856
1817185967
-869821116
808002823
-2020090235
434955993
675366760
512860835
1338849656
1494714974
331015770
-32407251
1696575160
-1930512802
-1780031241
1061956028
695833060
280852195
-658785691
-1083534795
-676595650
1963682487
-943336390
-671829027
-1600648031
-612370152
-892641269
-1207269457
-2088063799
1468782164
225019771
527376132
-8885719
1186019540
-1530252230
-1479813658
1967038811
-279593346
1787840287
1959678429
-637083339
-1103316793
1526611534
-566316553
1240540678
-263243944
-1214827513
-793364632
1701428780
-40624026
2083875392
387910072
1746373300
1695291675
505738956
963727511
-1891980563
430255402
1934677234
1760382978
-173990847
1904564057
-1668601802
843644282
-1450268425
-1143015004
-696108815
-474019234
1217229335
-910048361
1243530463
235156684
190010446
-227569931
39698056
1516083904
-1833021127
-256699924
-556066997
-155993035
-1980316402
-1604319707
377252734
-2095990458
-486699704
-531420839
1748598072
-1079925876
-1774233068
113137069
-1762427870
-382494809
1568753363
815046595
646120444
461146584
-544596219
-1473849090
1328170594
-406814228
2127880879
-297995708
-492820629
317430673
877418609
-1099319808
-719286407
1074652991
1066639340
-1914122452
2147483647
-1979696103
-557384892
153121848
1123787992
573593271
377191555
-565541600
1408277287
-254224547
-1599557489
731149780
-185334241
-2139044845
-120985848
-1452876063
901092755
1679631505
-1740312414
340396744
-1445625399
120259619
-672715272
-2142790520
1478917496
-2042403909
931121358
347674425
368957170
1013899686
-1192497628
-1074144232
-1109217343
-470065855
1282324726
259473406
1865707397
-1150436368
257502383
233555943
-1679695358
-1078482552
-1211455427
-1502492457
1275979313
-1591826692
505684702
-1431217189
577736406
-252422171
1861474726
-1444835551
86285461
-180151759
466648199
-809305735
-1906932774
-2056043587
674075350
-1228143341
-381715072
763979107
-1816641080
1336411723
-1360342778
2147483647
314541711
-39575984
-1101486177
-625012704
372698376
212769000
1936836103
-1097774200
-412897545
444816477
1492699897
76512706
-501286187
580071515
-513997527
-1444235393
-1763777519
4355067
394725493
169595218
1856752849
-9543977
-249079218
1094555086
1959385589
973880234
1830244184
281142623
-2147483648
1441345185
1787319340
-1022649318
-19620975
1978906712
-333484156
-732079734
-1201489982
1001789564
1056439997
150352871
428470160
-155190257
1719603163
-1893362096
-23720588
-256887749
1823089367
-1472120610
1920679534
399847398
5393217
-1739706796
-103049258
-1947571112
-1611343357
-923250746
1492884413
-668595387
1047480206
289697453
-1380983887
370739500
-2118710692
673564385
-1826326793
397539000
1310300621
-154222337
1190922468
520250802
-1635263302
390960975
-1416840703
-1855875694
-34725697
401820274
-426881013
-1742856635
-416288675
-596695044
-77924165
-773404551
1660276921
-303138077
1144178857
-904275594
-367121938
47315960
-657067783
1954425783
-1107150629
-2023330165
35500278
-755570978
-344152626
1499090862
2123658424
938656150
1795336940
1997738276
-1049231855
1879756359
1451758753
110103531
1798338055
-40450500
2129677564
-120805700
2084005624
1727139411
1350114854
-1092391810
701355501
1419161888
558960528
1241030531
-1825220521
-1427868053
1435210914
1544651930
-1195059672
-2025727116
1273150622
115899399
-652134223
1325767683
1515114025
-953832242
-173204719
-544627298
-1085634308
-380473933
1521896977
212672974
-634143528
-705112276
587121902
-1991158306
-1122529360
-1469551112
1778836017
519367957
-1150058162
-1558896784
1195822427
-1421142177
-1538307199
-2038245878
-2090685181
-1749201608
509228000
718341104
2135561446
882096700
260214730
-89699550
517086361
-1735467917
-1587831824
1860258787
1231228875
-2016763087
-567639085
-696732189
800986403
-965761008
115067583
810534936
1133985592
631828907
-547657334
968599905
248975171
-2147483648
-1552074216
2147483647
-1946638670
634525271
-1911372303
-2098191820
-2147483648
-1354324370
-108703469
1028711553
2077628418
563082991
-1403591142
2128453615
1414209255
-1688721314
649056798
1491534838
-1800533554
1579499050
2130331820
-1682492390
1289295199
1853198147
-139629656
-1644467551
978275981
456939306
1831860082
229313804
386195595
-526730395
-1978628864
-148661799
1377610888
1571353114
613152192
1761532571
1094835338
-1354318217
-1803711332
-899956021
1097750950
-3442039
1199050742
424028738
-1933348015
990381467
2137285631
-1269077353
-64837678
1278180323
822507897
694666411
-532075926
-1592363111
-1308757347
1981679473
-460038928
-1260498346
-570848824
-1791797548
-1198639707
1308472545
970684859
205234457
333456083
-2076128022
1889752750
1755128165
-699990221
-42172356
-2147483648
715126231
-1657629833
-1390210618
393510473
1881710286
-1597884126
1506978815
1298318477
2100164626
339622397
1433690034
67756616
-1619948086
62660990
1765767256
-680507747
1182985562
-1591934049
1323728937
1337365040
538173704
947980400
-1337651584
1503513870
1121421456
138593141
1914461061
-584534652
1908651902
313277905
-130780658
448875627
7203249
152443192
-153498211
-1815244588
-952397757
-1644880274
796481599
2147483647
-1273927245
-311527874
-1767887451
639654733
2147483647
1464711867
1517434466
1158905094
1468056959
-1530197834
25187774
-482533560
-1609749582
1063312733
2147483647
-1981531185
-1338166617
-1121428267
-1243314827
-1015647696
-184839764
-745933231
337800249
-1000849784
932664470
-1783546913
-2023769703
1753624686
-1658947456
366987522
-1317951660
1319065850
-1997000870
-1416177499
575189773
-1928704790
-477293639
1519442097
-1077384991
345038147
-59000759
-873345241
-754747202
-655564591
1100011588
-413788291
2023372174
-1945634247
686478452
909078567
1321981266
1022368770
-971733562
1161690327
1349519220
-428805367
-82953399
-793420891
-2087041650
-254964658
519613424
-71869868
-2082987401
215672804
540891655
-1626171651
-2098042580
986194872
-1823275360
-1823104318
1915296897
12529111
-1036815055
1458073940
-506677373
1079562507
-1877415052
1472029614
-1290986939
-107575649
-375884052
-1178413085
512311139
-1925123650
-546783040
-1219644267
-559666626
-1750257915
-1213144986
-1837761294
-1958578674
-1626234591
1304193853
-1485092450
-1580489905
456122424
-1657967378
1097962520
-1419706679
-1374317476
930214729
-323658849
-1930964389
1052567182
-416971986
776184505
1404552440
1253883026
770181396
-1768309660
-1546587095
1715438814
-905283769
-365482866
-1832727442
-1632492521
-2132419313
-1223955296
2012464758
-342855511
-853563316
-15541265
1503130235
833152290
1564448111
-488063959
1534211345
-886863491
298238784
-1201654577
-1582425366
-1754198411
-285943695
-1054890087
1543962079
1546043855
902494745
-1460955672
393854600
-1609252700
-119899765
-280994044
-1575346555
924838337
-1067117659
367806153
1297114577
1031103035
1092077984
499495780
1383374942
2006439279
1437121763
-985026677
-588793462
-1945388551
-1782716022
883649434
1587232358
360434779
663997799
172033855
1171888169
-457631421
1463202795
-168560379
-69256940
484939662
579962565
-946516607
1441384047
212341372
892982768
1548296329
-1349089726
-1521778400
-1217093812
-1418934281
741584463
-1025847551
-1279889975
-725495738
-201295128
-794479390
113845801
-1066291034
-366253164
1958981624
1967131380
-1590283512
-1901832530
-512703413
1226682904
-1466391538
-1131537000
-866335689
107340692
-1448563997
-1424156737
-656455204
1794844659
1925936693
755027495
1210241453
-1062935952
-67648720
-728429453
-1381765530
1301583837
-1493361608
-1140135715
-396837155
1869678162
-31290023
848063773
1515699244
-743497610
2050549385
54796300
674881122
-698569793
1160547006
-2103466349
-206715498
-688888388
-879390175
-255138002
1434085300
1832426940
1652783662
-491820894
-522794333
1180713622
-963239359
1380483916
-1525083701
-1340066397
1037710912
-536557377
1525976419
1287208156
219354861
1553326601
-1259940736
1813161377
-2081260267
1997827285
-1393341877
151120649
-265077702
1476120999
-1674684352
-1785535305
-676263328
-1605124688
-603392461
2052342081
647245040
-783151177
1338932367
-1468123034
-1761067676
695052285
1095787440
-1266253298
1976177419
756678787
583369701
633323731
-243020751
1068267412
-207067747
1830470286
-821150297
-1698994672
935167062
1815491288
-150273435
-1585773460
-1541474031
627588121
1390727793
-1901241858
-1391853570
2147483647
-693162895
947957240
-1300300662
-1771748416
-1405851552
-1968685348
-464628232
1211964037
1625197312
1863791365
-865438888
139252579
2120246182
-375137839
-596065710
-374801616
-1687099536
1270424335
913808536
1475384029
-2065763546
-1137011034
-2015079879
171623463
1085054229
-1907560650
-2030291800
-606435464
367836375
-2047725263
1332541198
-918188733
2000342162
-1769583245
-414847921
-1155038280
554309496
-1291736459
-2147483648
-981796010
224625586
2085981631
-2147483648
-1796761070
288971364
-1647608883
2147483647
-1666940809
173100495
1089603370
863441270
1058471879
-946238657
-864599052
-1131983363
1455074176
-1705536933
518116656
1528486820
1735237238
-505704937
440442532
610754663
2106296089
2071009253
740553519
-2147483648
-1453207113
-772025135
219310461
1627885872
1163561551
-1351395516
1092076459
-942561902
-700409880
-1990351248
-1131664696
1506569433
1836975832
1849474115
400142161
-2147483648
-1888886185
990256183
-515401879
-449826021
-1286817034
2147483647
217227847
1858906486
-1836096480
-661341902
-218892435
-983849694
180328452
2147483647
-1533378745
-1838096517
2138122196
-1130931101
1417411435
-279056014
-1651915916
1194803881
-668742945
307730072
-1967527870
1156779036
-340815872
-608623107
1428370891
708714348
1538537505
1723978834
310579431
1873426625
366357501
2037997555
1372735574
241814103
-325327071
-516233821
-220632933
1048956814
-653907948
549573406
10864543
2147483647
-1413807266
-450293646
-523232209
354771816
356961165
1375150312
2064593885
1213698410
-950435480
1514277513
781087300
1018787738
470428571
1966425223
-1639671918
540128243
-1489778972
-793444142
1057332625
1351954309
2059854538
171041568
-532866571
-1547000837
-238228306
446466867
1544682639
910765355
-664
-1940968771
-515300459
2076323222
1783992325
-710207017
120273659
245919271
-217165264
1136724165
-1443000032
540750618
1210349360
1263854597
-303610861
510539947
1469301532
-1318430560
-332772590
-1379224476
892481973
360628508
810537715
490092189
-1566723194
-159114731
1418529970
-765086116
1327634715
715211776
-2142421539
474675137
-884165344
1587293114
1081721926
-786120971
-1739100655
117718811
1595262684
-1677811581
-347176363
1110576403
-1304325447
-1309603192
-1578485895
1874159486
925316241
-1331740032
-91469698
-828435003
-1816998060
-803496672
-746080979
-1432835739
1468030930
-1280478366
1526238627
118899126
1700387691
-612982796
-1275841922
-748446636
-1401061886
-613333311
-2064938884
-978896805
-677115640
-468428473
1901258701
702087311
-1380945048
567358537
-1436277169
1086052596
16638513
457348242
1946082938
1350459170
1731691071
-173376978
1210032478
-669101686
1489321203
-1898346193
-2078180242
1828809684
1494834545
35328545
87953248
-974356564
-111887475
1020141925
-1243664634
1650177580
-1366738968
-89568773
570130195
