132
532
83
175787012
1099684499
-1442601353
728
57
-1224754904
2124736190
919300903
1801643680
2033784503
-322154988
-307
186558370
764
536
1489617933
317
177467913
-892
996864446
1235479575
1570303111
-74
980183666
753861275
-628909646
1113500949
675990110
410
-902658861
-315
-212
-1746525306
-303776180
-984
-1491276070
-642001706
537
-753543642
2147483647
159462799
611
-723
653
-906
-775114047
-920774961
342
-363
-869055120
1094444304
852
-12
836
-1923785737
539
2147483647
-174
932
702
104
-563
12
567
-291
158
344
-34
-415
21
-932
622
384
694
756
451
-817
617
-849
-742
-924
193
-791
730
43
181
859
-58256371
435653411
-714
-601
-1657637652
-991019227
-1352401923
1539692375
772
-1873151255
467
-2147483648
247238261
1912040921
519721695
-959568398
-1685021460
667074609
-636072161
-991
-296933492
925102957
-388
-704364808
225
16
301266231
331596226
58
972175807
988153472
798061354
91
293142240
516742113
-1410795231
1482566775
510797617
-1257329034
-702
186
-141151756
-758
263527765
1731295223
-1644587701
304
282
-645
153
682
-410
-314192654
1131710219
665
1138101283
-663401194
-672
1509943726
323359481
809261678
922
-644
89
647066647
1469641285
3
-1128610997
639
592896509
-50538374
1520365572
-594
-589
235371920
274
-235294817
-1074728603
-802650612
-558
-708
-392
-1036261529
989
-325895458
-660487245
910
1481788907
195600677
856
1413299364
240
368
768813962
1442390262
-1000768609
-691474740
341269411
-2067399301
-534319327
-38
14963722
-354560749
719732279
590
258
1703584671
-424734301
-970780777
1931983388
-1143545711
1456606334
-1194434141
543402291
-1299536516
-15294472
-2105978151
1645044699
593
1249590239
-475
569
-117
-437
550
-417
60
-304
634
-321
-983
976
211
395
465
234
-278
683
-180
-914
-337
-387
522
-845
-297
814
-564
805
-680
307
664
272732692
707658812
-901320200
223298063
2133176213
-1426725369
-809
-1350460106
853773943
1324202838
2147483647
970
247841682
-589
1095129627
1737408
-81429860
-405
864
1980281850
1517129406
2067927267
138203763
731166995
511650563
-913979953
1979750487
922
-1009705828
-42176374
-1472850200
-562
-94
1473490395
-1647518918
-152
454
931
-336
360
-303229680
782196753
-866
-269
1892020333
1182540461
-756488840
-370
2099745018
-972
371
-934
1349876279
440015719
-963458384
-461
1648878757
914
-331
-691474366
734492559
583
-926637133
-78286485
284
-722
912805014
312883107
1580851759
-383
-564404613
-2147483648
-75725943
-2046798046
329863466
-1195173290
-1099492869
989782927
455575862
-1856106339
2040160562
187578809
859752182
1099537074
624
506917902
-887283041
-282
2121062498
-131
-435
465158364
685
1712191398
75
-1529172274
-560
-1547236235
-957
1097984676
-383
372241991
626
291
-810
-1781336285
-401
841
-986948387
-939924402
2146029831
-173260605
125
47
178
-396
-984304339
200
703
-553
879505405
1325150522
-395
346
-984
-685
-628
-727
520
-686610048
-821
-348862566
601
944
766
405
-671
922
254
-240
-232476191
-1145250597
-623747432
-111
259
-763
120200916
114
778
558
1012939880
-118238097
-976
54
1000672327
1296920476
-32
355
99
-286092003
-445828788
-1571735256
-812
104
346
1512551697
-1446293929
498285477
-78
290280215
-220
-703370882
-618198743
461
-1313544296
764
1940253468
632361131
636
657
-664
-814
-235
229
-269
298
650
143
-914
-7
348
957
-684
-131
-26
-193
-217
-342
-589
322
33
-977
769
-404
-508
-981
-258
-895
949
379596988
-949
1545391537
-925995015
332860486
2073852097
981638272
-1590160661
-2041722385
-1971994965
95
1230937781
1555442768
-1476924364
-464810198
-909
548
-333
75
799482967
-1800315184
475349087
-227
-121414529
-719
694
654002669
733
-703
300
156283092
-350
-643
1273337498
-378704501
896
-446
331
-808
852
-286671838
218
-658
657
-56
-429
-778
-299
-391
-219
-282184534
474
957
-966
208
1076889502
282
-355063272
-257
-599
-695242385
451
2147483647
764375090
1638924182
222820993
-744
808780228
987
-815105266
1609184193
334154808
-824816938
798
-307561233
648668401
-169444894
-348858380
-881
-217
-492
1558934273
1506960121
1753941855
-2045071675
-594468181
2142646701
-1290739580
869235404
-410641305
-1084479293
27590836
-1829565272
1374566106
1811840154
-2022798470
2066921007
-409488098
718127026
1803664138
827845317
632950050
-1063369741
2026544444
235857239
-348024283
955874027
-196
-71864317
-1084952633
-502793131
-1864531387
158616979
-1959856273
379132273
266
557
-346897846
-941231119
295883314
952881813
825715853
1679992998
2009322703
-213789023
1008930052
-1220900435
1358649299
-1631247633
291
-1181123060
-459554273
-282905646
847790772
1776135541
226726731
-464566160
-242998743
173770684
1194183098
-800996240
57253877
1490258037
-267714559
1486187955
123
659268158
-1287660526
-1714819562
-2147483648
-750
649
91
502
806
331
-54
1186928140
-1446217472
-843
-911
-920
359
-962
-290
322
849703994
-2147483648
134
-542
-443
553
503670704
-280
-924
-725
-925
-403
-55
-360
339156325
115
882
-1491845526
-535
815
1914106723
946
-232921563
-1288047924
970147713
238
-1558435476
-967226272
557
352
461509586
-1311786865
1241973602
-1508427967
-794642179
687
-333
578
1937444780
-543
1707802224
856
-293
309
-721
-1191377239
1313460063
-965337627
346505295
1737444968
-282919231
-192
-408
-2050696935
-522573335
146122883
-764
-1776202825
-173630270
-1284130062
-80616297
-796
1040852987
-519632686
-86
1404434807
443293551
-816255790
1960338005
579
1747747806
979
1409357940
-1884535210
-30424936
-1132918054
-2031816352
-1632702831
-87
347674425
-256
798
-365
-590
-1041163784
1554588512
-1369390159
-927827719
-78983698
1954646011
1269162901
323
-901978871
220241892
2046415686
62255741
-515211260
699
-1075517221
9811094
910354941
-1266145721
1544480389
1831591525
663
-568
-172
-18
667
1928650947
675
656
1280404820
2126236515
278
1013627001
-182
-15
1989485890
-733
-1521281762
694
2064378611
-377184987
-628546025
-452986341
-164681554
2126246742
195
160
414
-640
1955930444
292
-1734342370
1296715143
1784836045
925323383
835177805
-903712387
-172
268
-1699366325
489
-648
-1770849877
980
549
1013879673
-800074710
-279
-2044667732
970
-763503266
-1279733035
369698360
639631655
-1774676097
174
-3
333
1369664279
1796478917
573
995798782
448590123
1910064503
47303130
1298720661
-100544045
1105244783
-364
-2081673943
-578
-67822807
147016420
-1813106417
-1832694083
1786339453
349381492
707
-1965778787
-1425554976
1795442415
-192982695
-245
150804930
-498
432
-1309294106
-105
-784399077
2043345454
-127740719
1975000223
881994817
1009745506
-910
-1365679996
-851178234
-96
-267202058
-627410162
-1071941162
621704799
-569677677
-269
1136774401
-447825608
-21795921
-317
-1625829188
-562
1092476879
-1065964980
-1749357369
448
990233910
-100998536
-892321735
-2045467546
-998
-538
710602888
149
-296005507
-648
-322
-719206922
22
391
-1351021482
-1201649332
-817
105
1386090583
-1490629055
1247401780
-699
1613209638
2104389919
1191777687
-1070295899
-1521918617
183
-293
-505
-855
-694
-2108786725
-653
662
-461
260623756
-508
-391
563725965
-969
770317729
-897990217
882103267
-1554634072
-840
-869667072
1384885463
-150469401
-451
842
1339985209
-1136492630
-993916904
-1031102469
1596347311
811
-820
-251335194
470
-981657332
886142754
-1384998369
558038377
-854529665
998
1152449845
-1845160393
348754281
1151792201
978
1380345850
392229198
448154294
619334596
-1833236526
-2147483648
-1017978046
-590268888
-1561113289
-918
580
1299807884
-883676603
-271232119
6698115
374798158
232226822
21
193
-2078905866
1287726406
972880445
1216857366
1885815871
-396109619
-580479617
-1132227669
334015288
-1399841067
-102624077
-51349875
31957126
479508234
1744158886
-61
362
-1060929818
246963700
-1134330244
-924722709
150
2066439668
-877
-1548884893
-786
-1159721265
-1579503842
244
-1657788946
-117
1931324049
-220
-881349536
-765
-192
466
1433285908
650
372
1301697980
-639
-1859069392
-580
497
1213200773
-342762757
285
-73
937
1558296654
544
-1617072539
-122
969435011
-506
1884232706
-1944751154
-1712391577
-805
-1363221094
-628
345
-599
-683
1567950821
855
921
128
1280899473
99
45
257
-249
-432
603
-592
1896853208
-1926173935
-473
927
1077129437
565912204
388
655918002
-746
-637
349
-585
-13
-828
671
-85
1912892433
178
-890
1427032347
773
781
793
438
-567
870
120
311
-440
946
-891
-148
166
-929
-658
411
343
318
939
182
-731
-735
988
-669
539
-385
-886
618
-362
783
-416
-367
-103
-263502229
-393232695
-631
-1051334702
-95
-394
551
459
1018777646
-782
788
362
-58
173
-473
117
1480411009
-720
886
516
-22
-456
-911
576
-374
274
-575
29
-20
-749
878
478
-889
207
-971
-829
-685
-218
-167
-861
3
423
989
940
-640
-381
-639
207
-135
-613
-20
943
910
301
-703
-759
351
917
-827826572
-2116840288
632808821
1870841922
-292
-212
1533889119
925
2035125987
1539300125
-2027989557
258
-519
-382
138618725
398
393170023
-544
512
441830634
-762
-2057738918
-273162840
-897
50
-978897622
1352735176
-571
-199671821
1603518503
-278602112
1418512258
1556757289
1079286785
-1029087988
350275990
-1318881973
-420993201
-222812667
-421
401
599793032
-467962069
635001906
-323
1159513675
-542
-412081729
347385364
-2082590824
-1233226523
-1397085273
1397952173
976371552
1222892550
2114915366
1248464154
-1269987168
-1107557702
700645843
-1145059066
1487715180
-1293994171
-1012668309
1994696577
1028921330
1234428636
1639742777
1522660281
886
-1738813939
-390365175
-1018024862
22717738
1604081192
793482512
898883089
513044048
-507817897
-659325836
1442940092
-564777185
1412035917
-1226320254
872223073
1268818061
-1672050177
-294375590
820007393
-1675655235
188886595
286
639313361
524
11
358070968
-182
303858149
261
-738147734
742129935
1093484790
-532539191
-1424879123
338
-12
-791
-2147483648
-1195954797
-286
2147483647
156
2147483647
-2147483648
27
524
535
895
-220
-12884613
157279747
-104
362
-734
-678
-471
446497851
289
-473
-405
-441
-691
-883
-268
655859519
344
987
-836703971
794
163
-14
-555
199
-706
-657
345
177
946
-267374227
477152099
1012746827
428
984314677
-1883002253
1833335565
-80187184
-1433666315
1830888420
-820220062
1987399723
-987267695
1850078161
-805889725
-135365119
324
-606623594
490854506
1019581704
872518135
658062371
366
-660
574
1635722111
1861169530
938579147
-1202903288
-1134201746
-295
902425417
-1409135753
-694190776
410697411
1964458210
-636605482
4790138
788395508
474391155
-60463925
542014647
1940936618
-512169129
-735
2147483647
-314976974
2110212244
-940
885145035
-61207157
-1876046045
221360081
1593929856
286
-1423613123
869390589
2048973876
1449863616
-142068741
1511150
1844110277
-1128097251
-494783898
1644477198
-27612480
95941485
388
1753945774
977118618
-545096583
123968017
-244
-105110313
458958047
-732914660
797
312316483
252614436
-137
258
-107132695
474545122
412
1434326884
2029187374
1920933013
509225394
326992485
-1989940790
-2088447022
-987
-99
412
-631869068
-787132348
66362960
1470399491
-887848968
731133239
687
-1567264296
1040146585
-1344336873
456
-580633637
336711849
547
-836505008
-753
172591799
1158758531
761
1563129220
876165916
873454129
634619325
47
-216
1995333370
-121
993801816
1338007109
-2101692651
36603455
-685949277
-538
-1328822486
-1467751391
-168662748
-155
1894078724
617
-258
-439248793
-1261723639
-810589481
1673680058
1076396933
1652303235
-1796188310
-495161465
1035939297
735259428
-681431077
-1932773720
-395479616
-409584094
-1041410606
446025180
-652
33
717294695
-714
661409176
468
415
551
224624538
924
-356
744
1711489733
665
886
440
-953
-528
349
417
927
788680732
-403
-273
1657207407
-519005417
-144810231
-565
340
-656
731
-222
255
-519
-420
-788
-509
468
764
979
55
358
661
-218
-609
660
156
465
-576
162
-260
47
116
705
-664
993
-179
99
879
419
-243
1269149706
-1440032110
2128639369
1459274760
461409083
502163819
474
-483
90
747
-43475032
48
481818665
159
1537148749
1445820860
-1488460097
89608851
276953732
-744
-152
822
-1268223081
706
-842639878
-113
-795473995
4388502
550936580
1821653540
1462863722
448239952
-1821570830
1504451809
-1246141159
-1857158637
1598281266
555
598087032
-404
-330
1636667069
-813774373
-952635745
1674891319
49
1832355941
-434446123
-845
-346
-1221116390
-749
-857
1058315046
2007289522
1840296616
1737213671
-306265080
792
-182396726
-605000873
2075138488
-1649954840
816450819
-1763282518
1972419758
-1490684817
-147
50
698225451
928
103057477
403
1601801233
-685
1382981114
-897724314
1601585190
168
-1013435093
1473162912
-673
1753034737
-2088537452
-1475384115
-1997864425
-680667070
-1775368259
-1788483051
-1597724617
