10
-1
-4
-9
1
10
-8
-2
-9
7
-12
7
-113
-4
4
-178
-249
-8
-361
-243
-48
-202
303
602
837
478
-676
-40
206
72
-490
-256
277
-269
-802
-855
-1099
-564
-1000
274
358
-749
12
27
-332
-47
-302
687
-48
81
56
-179
-207
-7
36
-48
-766
-256
-750
443
-36
497
-153
-509
50
-45
208
-572
-9
219
1095
52
227
582
265
56
-150
217
927
-45
183
-903
-613
-719
-1338
104
-406
214
61
-1117
542
1103
-145
-12
1425
-165
97
-48
1037
1228
105
390
-397
509
-244
-45
-188
15
545
-44
-139
912
455
368
371
599
1217
-837
-859
13
-919
687
-456
669
-282
457
-241
86
-365
-9
1132
-109
539
-114
206
-563
186
661
105
-118
-110
423
-151
-9
1103
-452
-328
653
-50
948
137
-924
407
36
228
151
27
54
-420
-218
79
77
444
77
-409
1218
395
-803
-407
295
-96
-232
-316
-9
440
163
-911
-205
-145
851
1383
-70
-515
98
236
280
-48
250
19
666
43
-229
-574
-1118
-187
10
10
-19
456
-29
59
55
-437
-272
-86
-456
638
-51
1346
356
-489
-77
-77
-684
-1500
-382
-509
-661
265
-297
-958
197
372
-551
761
814
-363
631
-1050
17
657
-14
-589
-982
985
-191
287
-23
-112
55
144
-279
73
247
19
10
-1
-4
-9
1
10
-8
-2
-9
7
-12
7
-113
-4
4
-162
-227
-34
-265
428
-50
31
314
622
1073
28
425
-5
650
91
-634
-98
117
-348
-1036
-194
-885
1453
548
412
129
79
138
78
-1377
-859
35
-418
662
1500
83
-20
-309
-11
-13
-45
839
56
-240
918
-55
768
-225
-786
77
-47
215
-903
-9
314
918
56
420
-150
-89
78
-177
1048
1107
-58
-348
-103
-1411
321
1425
205
-4
-153
111
-748
628
1354
-174
404
652
-214
125
-54
-485
52
82
300
-306
392
-188
-48
-806
-921
580
-1419
-297
992
482
390
451
1000
245
459
-165
-231
-899
611
-344
-69
-173
-6
780
-484
431
-9
193
-115
865
-339
206
-533
78
626
-240
-1278
-112
289
-154
-9
1196
-457
-1451
218
-70
1286
16
163
897
78
498
875
-708
775
-932
466
1321
193
1160
82
-1330
1153
374
-217
-386
280
418
538
-313
-9
391
843
-926
-214
-697
-230
941
-360
-1262
58
270
52
-51
266
20
-5
289
-694
-636
644
-423
29
-262
-125
127
-545
372
-107
883
-389
-140
-622
613
61
136
589
-541
-123
-121
1011
930
-248
-977
63
217
-751
48
390
787
-153
-572
736
-657
1140
101
29
-79
-1015
-333
-359
-310
-100
100
-122
-145
70
-84
-263
111
386
33
10
-1
-4
-9
1
10
-8
-2
-9
7
-12
7
-113
-4
4
127
190
24
216
-585
-54
1
336
667
927
569
-996
-47
155
85
-516
-270
-538
-283
-844
-855
-263
-564
-1500
274
397
-829
14
29
-368
-67
-360
628
-68
113
59
-188
-218
-7
38
-51
-806
-269
-789
466
-42
580
-179
-594
59
-34
161
-667
-6
-631
1017
54
405
-145
-86
80
-185
266
1156
-60
193
-531
-645
-171
208
135
-407
194
77
-1236
520
1222
-161
-14
623
-203
119
99
1273
451
93
344
-351
450
-997
185
-846
17
604
-48
129
932
392
312
315
664
1348
-927
-952
15
-919
687
-456
669
-282
481
22
90
-384
-10
881
-138
807
-141
255
-624
206
733
117
-1052
-122
631
-167
-9
690
-476
-345
202
-53
998
160
-1078
474
42
266
151
27
54
-420
-218
92
89
518
89
-478
1349
438
-890
-451
327
-101
-796
69
-9
463
152
-941
-191
75
117
1147
-305
-654
93
286
327
-57
292
22
777
57
-297
-743
10
-241
23
10
-91
416
-79
68
64
-507
-316
-101
-415
744
-66
1168
577
-324
-73
-73
605
38
-200
-1024
64
243
-766
-1008
207
392
-580
83
557
-497
863
77
23
631
-36
-1126
-199
887
-188
354
-24
-119
58
168
-325
85
288
22
10
-1
-4
-9
1
10
-8
-2
-9
7
-12
7
-113
-4
4
134
200
25
227
-1078
-54
1
336
667
927
541
-946
-45
147
81
-516
-270
-538
-283
-844
-855
-263
-564
-1000
274
377
-788
13
28
-350
-64
-200
388
-65
107
59
-188
-218
-7
38
-48
-766
-256
-750
443
-42
580
-179
-594
59
-34
161
-667
-6
-631
1017
54
405
-145
-86
65
-175
253
1081
-52
193
-531
-645
-171
208
135
-407
194
77
-1236
570
1161
-153
-13
592
-193
113
-57
1209
407
86
316
-322
413
-198
-47
-198
16
574
-46
-152
1095
497
401
404
664
1348
-927
-952
15
-919
687
-456
669
-282
506
23
95
-404
-11
881
-138
807
-141
255
-624
206
733
117
-1052
-122
468
-167
-9
1222
-452
-328
653
-50
948
160
-1078
474
42
266
151
27
54
-420
-218
92
89
518
89
-478
1349
438
-890
-451
327
-106
621
-313
-9
131
-81
-511
-51
-471
849
1456
-268
-396
116
231
327
-57
292
22
777
57
-297
-743
10
-241
23
10
-91
416
-79
68
64
-507
-316
-101
-394
707
-63
1110
548
-324
-73
-73
605
38
-190
-973
61
231
-728
-1008
207
392
-580
83
557
-497
863
77
23
631
-36
-1126
-199
887
-188
354
-24
-119
58
168
-325
85
288
22
10
-1
-4
-9
1
10
-8
-2
-9
7
-12
7
-113
-4
4
-68
-91
-39
-144
-224
-459
41
1339
796
1374
634
-1109
-53
172
95
-639
1284
-180
-210
113
-797
-244
-506
-949
266
682
1129
707
223
773
-217
774
-571
-48
348
-255
274
544
-336
-43
934
-123
149
4
234
-48
674
-34
-650
82
-39
134
-777
172
355
939
57
429
-210
-92
52
-108
697
720
-69
-541
-350
-408
-152
177
314
-458
-119
-288
-7
561
1220
-161
-1042
-465
-260
-308
-51
209
-300
100
327
-375
344
-231
-1161
-168
11
153
318
1254
1239
586
472
476
1185
676
421
-176
-195
623
636
158
133
-409
164
-592
82
-544
-107
227
-134
967
-133
695
97
60
570
-297
388
-96
1191
-926
-9
1164
-333
262
44
-1161
1240
27
-1113
1121
190
88
846
23
44
-676
58
58
-136
317
55
-293
1068
393
-227
-405
295
-122
683
-398
-9
497
167
-943
-477
-156
-222
667
-340
-4
-253
26
494
-1108
201
-743
-321
394
-268
-296
186
-594
25
10
-101
103
-442
64
61
-472
-333
282
218
-1134
-622
473
568
1222
-90
170
440
375
-61
-1425
-890
394
-309
1354
184
785
-261
-510
529
-472
820
73
22
-138
-183
-95
-366
691
-273
142
1014
983
83
-93
-510
-214
749
-185
10
-1
-4
-9
1
10
-8
-2
-9
7
-12
7
-113
-4
4
-184
-258
-9
-371
-194
-56
35
347
689
1188
515
-1197
-43
130
-863
-567
-674
105
-313
-1203
-1385
111
-15
-163
196
-1378
-459
1300
36
820
79
-253
-414
-80
130
87
-21
-323
-12
-356
-42
23
41
-217
389
-55
768
-225
-786
77
-49
226
-951
-10
331
1126
-619
515
-184
-110
74
-168
996
1052
-55
-642
-423
-477
-187
233
492
-558
-145
105
-709
600
1222
-161
387
623
-225
132
-66
-511
55
97
356
-364
466
-207
57
-280
50
587
47
-203
897
604
439
402
921
905
-89
-604
-122
-197
328
-387
-8
-46
616
28
521
-425
-17
193
-236
865
-91
206
-529
77
621
-238
-307
-101
289
-137
-9
1045
-403
40
192
-70
1286
14
146
802
69
445
280
-210
222
-388
-172
69
127
233
-500
-190
1095
355
-206
-367
266
-101
535
-286
155
-9
107
-643
-171
-236
-28
947
-392
-613
-483
812
52
-51
266
20
-5
53
-178
-459
10
-149
30
10
-131
133
-572
58
55
-441
-274
-113
-345
387
62
502
592
-464
-105
-104
866
798
-3
-61
-704
255
-76
-65
164
863
-263
-1096
586
-523
908
81
24
639
-37
-1138
-201
1425
-247
128
-27
-139
76
-84
-263
111
386
33
10
-1
-4
-9
1
10
-8
-2
-9
7
-12
7
-113
-4
4
-141
-200
-136
-2
-158
-202
29
-423
623
1019
1362
-587
20
-1147
80
-1110
-1232
725
-259
-1107
-1010
-217
-564
-1000
274
220
-899
232
25
-300
-62
134
-1148
-63
102
553
-12
-731
-118
-7
-33
-77
-53
-268
1212
-43
592
-182
-606
60
-136
418
-1156
-248
1175
1425
751
364
-129
-965
64
-1305
865
1500
-47
-970
-1320
-1116
-65
105
159
-456
-118
86
-579
541
1055
-139
334
763
-175
443
-67
-564
304
1334
581
-327
622
1478
-39
-226
11
447
-38
-152
1054
481
372
361
861
700
-71
-566
-114
-544
659
-683
-104
-242
391
18
74
-313
-710
196
-115
807
-288
208
-224
55
588
-170
-298
-62
-245
-66
-9
919
-317
-295
153
-48
899
15
155
495
74
473
402
473
363
-186
-30
79
74
427
-152
-394
702
229
-131
-235
171
-133
703
676
580
-70
257
-861
-147
-158
-51
930
-300
-586
1155
287
36
-34
182
13
-423
74
-210
-413
10
-177
27
10
-113
115
-493
58
55
-428
-268
-85
-299
334
54
482
514
165
-26
-428
487
-390
-148
-681
48
181
-569
55
180
292
-109
-605
628
-608
761
96
-184
925
53
323
-33
1029
-387
133
-153
-158
255
-71
-217
95
327
28
10
-1
-4
-9
1
10
-8
-2
-9
7
-12
7
-113
-4
4
-168
-237
824
-275
-177
713
22
-1225
862
-1193
795
846
940
-773
117
-608
615
112
-333
-660
-552
-186
-347
-630
276
208
-650
1489
-1464
-687
-78
34
-408
-79
128
63
1
-236
-9
-9
-46
470
197
-73
425
-64
501
-280
527
-1012
-153
448
-1142
-303
1350
1088
66
497
-178
-106
22
-153
908
1220
-50
994
-285
-359
-204
304
11
-480
-124
90
465
538
1234
1010
366
516
-156
427
-62
-518
300
-367
-82
-309
397
-189
-54
-322
18
641
-52
-168
948
515
387
365
552
892
-107
-791
-358
-821
105
-480
147
-857
551
1
-45
251
-638
-1425
-131
928
-130
236
157
31
418
-311
377
-148
578
-1381
-9
-1476
-525
-484
252
-81
1266
-346
317
541
-1305
617
151
27
54
-419
-108
84
78
457
78
-422
1095
355
-206
-367
266
-114
590
-345
-9
239
169
-266
556
-152
-48
990
-365
-657
85
284
336
-424
-266
796
-1196
69
-364
-912
10
-296
27
10
626
113
-788
77
46
-249
-213
-165
-1093
-1246
197
-135
530
104
699
-82
-125
-998
1291
-946
59
228
-707
63
205
613
-56
-253
645
-576
-316
87
27
996
35
-560
-85
1226
-231
-64
-28
-249
1354
-495
-291
126
438
-312
10
-1
-4
-9
1
10
-8
-2
-9
7
-12
7
-113
-4
4
-60
-216
-32
-252
-162
-50
31
-181
622
1352
343
350
-26
-1026
51
-572
-88
105
162
-935
-845
393
1311
495
161
397
-1103
418
43
-546
-72
31
-377
598
119
79
-19
-294
-10
-12
-43
1158
-167
-472
394
-62
730
-265
-871
86
-46
208
-873
-8
303
918
56
420
-150
-89
78
-177
1048
1107
-58
-726
630
-1389
305
1425
195
-4
-145
105
-711
621
1354
-173
237
645
-214
462
-54
-485
52
82
300
-306
392
-188
-46
-766
1309
551
-1348
-282
942
135
1242
1500
789
641
-763
-519
-974
-854
580
-327
-66
-164
-6
780
-484
431
-9
95
-140
1057
547
206
-481
70
565
-217
-279
-106
275
-146
-9
1136
-457
-1451
218
-70
1286
861
163
897
78
498
831
-863
736
-885
443
1354
201
1178
82
-1354
859
220
-128
-229
166
377
485
-282
399
352
761
-836
-193
-629
673
894
-342
-1199
55
242
52
-51
266
20
-5
275
-659
-604
612
-402
16
55
-56
58
-176
-144
180
839
-258
580
-622
613
61
136
589
-514
-117
-115
960
884
-530
-921
749
196
-1384
46
371
748
-145
-543
736
-657
1140
101
951
-79
-1015
-333
-359
-310
-219
115
-744
-139
67
-76
-237
100
349
29
10
-1
-4
-9
1
10
-8
-2
-9
7
-12
7
-113
-4
4
-133
-356
-27
-218
-140
-353
430
465
668
-143
1500
792
-1500
-162
529
-731
647
134
-401
-189
402
-830
-1450
1500
333
270
-113
284
29
-159
444
33
-390
-76
124
71
1267
-272
-9
-9
-46
-914
-298
-823
430
-53
723
-223
501
513
-36
1063
-1011
-7
225
1017
127
465
98
-99
33
-36
736
16
-25
-166
283
-294
-165
528
50
-282
-153
111
-1382
-309
1087
-161
391
481
-134
367
-53
-444
257
137
190
-326
417
-199
-47
-276
965
462
877
-176
1350
491
401
398
1090
854
82
-898
-142
199
155
-317
-44
-220
493
23
-370
-555
-11
190
-113
785
-112
203
-504
74
593
-227
-1004
-106
117
-146
-9
-197
-401
-370
191
-62
996
14
144
791
68
439
100
19
36
-279
-145
86
857
427
79
-465
987
622
-186
-332
692
-1
638
-497
-9
612
153
618
-709
-709
-85
-1152
-436
-460
53
1323
-161
754
247
17
415
57
-322
-740
-236
-240
10
10
-1335
-1010
-935
272
62
1419
-234
-467
-310
349
56
701
534
-1057
1500
-107
418
899
-81
329
61
976
-756
66
322
8
-484
68
478
-426
221
66
20
822
451
-715
-191
883
-589
103
-23
-760
933
-193
-280
122
424
37
10
-1
-4
-9
1
10
-8
-2
-9
7
-12
7
-113
-4
4
1179
-292
-26
-695
-213
919
28
1168
567
979
346
-329
-64
-115
86
1061
-84
100
-298
-667
-812
112
418
-156
186
803
-1013
785
23
-351
-93
-170
-486
-94
-38
79
-19
-294
-10
-12
-45
666
-279
-237
411
184
828
-191
-1153
38
-247
-466
-1010
-9
270
1017
62
465
-166
-99
74
-168
996
1052
-55
-610
-402
-453
-178
221
-26
-488
-127
92
733
582
1126
-32
388
592
-95
1023
-32
-167
254
86
316
-322
413
-198
-46
-277
15
551
-45
-138
1239
455
367
370
1396
1095
1181
-503
57
-421
408
-383
-47
-285
1369
21
89
-378
-10
145
466
-174
-85
847
-557
922
654
-1420
-20
-145
900
-180
182
1242
-275
-502
243
-77
1401
4
147
810
70
449
168
518
60
-471
-244
89
33
188
89
-173
1048
340
-198
-351
232
-250
521
-291
18
-1400
184
-1030
-231
50
-53
998
-383
-627
61
286
1143
-61
-1062
21
351
502
-88
-973
10
-423
22
287
-85
86
-373
57
54
-432
-272
-85
-802
-484
339
874
249
-458
-104
-103
856
766
-195
-860
50
209
-549
62
172
304
-488
62
586
-523
908
81
24
548
-31
-1425
-172
1030
-256
134
-32
-162
1408
-88
-277
117
406
35
10
-1
-4
-9
1
10
-8
-2
-9
7
-12
7
-401
-4
4
247
365
1119
634
-1418
848
516
1126
713
819
495
-692
-44
179
78
-151
-66
162
-238
-709
-787
411
-523
1125
-1039
-163
-532
127
31
-178
190
-388
373
341
-306
71
-435
-266
-9
-10
-16
-7
17
427
293
-43
599
-537
-613
61
-27
588
-914
-8
175
1262
45
1498
-194
-82
84
-784
-699
1194
9
-468
-325
-372
-143
176
129
1345
-101
-1234
-71
700
1137
-207
447
1311
-149
393
-44
-284
35
-442
329
-682
435
-149
-668
155
113
514
-44
-135
1177
447
360
46
1210
737
-83
-617
-36
-882
1341
-387
822
-913
520
24
98
-414
-12
328
-27
562
-81
-1034
-520
158
390
-186
-416
-113
517
-1333
-5
1191
-395
-370
191
-291
1055
-180
91
508
46
981
136
25
48
-379
-197
46
43
123
43
-231
900
292
-170
-302
219
-1418
-192
-673
-1159
238
-490
-844
-190
-135
620
796
-304
-500
48
228
238
410
484
-907
-406
216
450
-687
-346
664
120
12
278
97
-290
62
58
-465
-291
-93
-34
-715
57
507
309
82
-1106
-353
474
-306
-151
-994
62
240
-743
58
189
499
-1067
517
586
-1020
908
81
24
-439
-757
-615
507
630
-198
104
-25
-125
61
27
-193
85
292
26
10
-1
-4
-9
1
10
-8
-2
-9
7
-12
7
-113
-4
4
-154
-216
-32
-253
-163
-198
40
839
1094
1425
488
-854
-41
133
73
-390
-111
146
-215
-640
-459
317
-923
793
76
140
-1056
1011
37
-384
-103
44
-527
-103
165
64
-15
-239
-9
-9
-35
19
0
607
-579
-48
677
-208
-693
68
-41
183
-770
-9
268
791
48
362
-241
-77
61
-112
820
866
-46
-626
1207
-431
179
-312
-158
-628
41
195
255
542
1103
-145
350
562
-165
97
-48
-375
764
328
119
-321
467
262
-33
-1090
105
599
-31
-124
1118
410
332
334
879
677
-127
-870
-120
-154
659
-322
-37
-223
1425
323
-1043
-1354
-344
191
-203
805
-205
-637
-363
53
427
-168
-258
-116
350
-160
-9
1316
-442
-1187
53
-1230
406
506
-1085
1455
64
406
-1220
-1286
-282
-173
-269
274
35
349
810
-322
892
289
-168
-299
217
961
488
-284
779
354
-246
-828
-187
-662
324
682
363
-428
42
196
58
-370
296
23
-517
-1281
-60
-671
255
58
20
10
-81
83
-192
221
69
300
844
-110
-265
-151
-237
428
457
-444
-112
-100
828
663
206
-338
-1092
186
-116
55
180
99
-247
-314
668
-598
-29
91
27
599
-35
-1067
-189
1124
-189
-197
-24
-120
59
82
-206
-657
322
-353
10
-1
-4
-9
1
10
-8
-2
-9
7
-12
7
-113
-4
4
-290
-118
-21
686
-94
980
33
-62
681
-156
471
-555
-794
257
26
-578
584
106
-149
-627
383
-1500
527
1303
1100
275
-200
289
-218
-291
-74
32
-388
1192
-8
48
-17
-181
-6
242
-294
-569
207
-147
1012
-595
755
-213
781
38
-24
215
-606
-3
742
828
50
379
-100
-81
62
33
594
758
-644
-1094
-1027
-1187
-285
273
118
-496
-20
-20
-569
542
1039
-145
350
562
-313
-450
-464
-414
-50
64
230
-332
-1306
-301
-55
1073
-1070
250
145
-452
634
254
180
204
1195
677
-185
-479
-110
-16
226
-438
353
-241
667
28
125
-532
-16
153
-89
688
-82
958
-616
80
412
-205
-813
-90
192
-123
1394
321
-474
-438
228
-726
1038
10
108
595
-511
-41
129
25
1131
-381
-408
76
70
412
1286
-283
1153
461
-217
-386
280
-130
693
-405
499
1052
189
91
732
-169
-54
949
-357
1173
68
273
39
-38
643
-433
-164
1030
-313
-782
10
-254
26
10
-109
111
-478
105
125
-970
-267
913
-331
1286
332
403
683
512
362
-48
-1183
452
-264
-945
59
212
-707
47
155
257
-371
52
529
-472
-202
73
22
605
-134
-421
-338
-145
-208
109
-26
-132
64
304
-350
67
220
15
10
-1
-4
-9
1
10
-8
-2
-9
7
-12
7
-113
-4
4
-141
-200
-136
-2
-158
-202
29
-423
623
1019
1362
-587
20
-1147
80
-1110
-1232
725
-259
-1107
-1010
-217
-564
-1000
274
220
-899
232
25
-300
-62
134
-1148
-63
102
553
-12
-731
-118
-7
-33
-77
-53
-268
1212
-43
592
-182
-606
60
-136
418
-1156
-248
1175
1425
751
364
-129
-965
64
-1305
865
1500
-47
-970
-1320
-1116
-65
105
159
-456
-118
86
-579
541
1055
-139
334
763
-175
443
-67
-564
304
1334
581
-327
622
1478
-39
-226
11
447
-38
-152
1054
481
372
361
861
700
-71
-566
-114
-544
659
-683
-104
-242
391
18
74
-313
-710
196
-115
807
-288
208
-224
55
588
-170
-298
-62
-245
-66
-9
919
-317
-295
153
-48
899
15
155
495
74
473
402
473
363
-186
-30
79
74
427
-152
-394
702
229
-131
-235
171
-133
703
676
580
-70
257
-861
-147
-158
-51
930
-300
-586
1155
287
36
-34
182
13
-423
74
-210
-413
10
-177
27
10
-113
115
-493
58
55
-428
-268
-85
-299
334
54
482
514
165
-26
-428
487
-390
-148
-681
48
181
-569
55
180
292
-109
-605
628
-608
761
96
-184
925
53
323
-33
1029
-387
133
-153
-158
255
-71
-217
95
327
28
10
-1
-4
-9
1
10
-8
-2
-9
7
-12
7
-113
-4
4
-168
-237
824
-275
-177
751
23
-1289
907
-1256
795
846
940
-773
117
500
647
118
-1252
-695
-720
-196
-365
-663
290
444
-332
12
16
-929
-231
36
-427
-1126
135
71
-17
-265
-9
-10
-44
447
187
-69
404
16
539
-301
1293
-1088
-55
250
-1054
-12
366
921
56
421
-647
47
81
-184
1094
1155
-60
-563
-300
-378
-215
272
11
-480
-124
71
465
538
1234
1010
389
-480
-173
473
-68
-574
-70
-367
-82
-309
397
-189
-57
-339
19
675
-55
271
224
-58
-65
7
524
847
-102
-751
-340
-864
-726
-505
597
-902
411
46
243
-1100
112
-1500
-131
928
-130
236
-364
53
428
-167
-88
-136
449
-871
-9
-1402
-553
-510
265
-85
1333
-295
246
539
-1180
752
167
17
28
-887
235
84
78
457
78
-422
1425
355
-206
-367
166
-114
590
-345
-9
239
189
91
732
-169
-54
990
-365
-1106
85
284
38
890
-47
-690
-157
73
-434
-1080
10
-351
27
10
626
65
-377
-678
89
658
-213
-86
-1093
-1246
197
-135
1425
104
699
-82
-125
-998
888
-817
51
349
663
63
205
613
-56
-253
645
-483
-316
87
27
852
31
-412
-77
683
-256
-71
-32
-276
1500
-323
-217
327
391
-103
10
-1
-4
-9
1
10
-8
-2
-9
7
-12
7
-113
-4
4
-82
-194
-352
-157
-40
-50
-27
314
622
1073
606
-1062
-51
165
1286
-654
308
100
-489
-686
-695
-214
-460
-814
-92
270
-1103
285
29
-370
-82
36
-428
-83
135
87
-219
-1500
-12
-32
-43
-818
-404
-698
375
-53
746
-222
-738
1
-36
156
-658
-8
229
1017
-108
470
-124
161
82
-186
127
1354
-61
-604
-335
-1358
-449
913
203
-584
-152
110
-741
540
1181
543
372
-59
-254
-345
-56
-394
300
86
370
-354
455
-372
-41
-247
13
490
-41
-260
923
552
475
880
990
689
-221
-627
-142
-219
389
-383
-43
-265
443
-267
100
-351
-9
231
-418
914
386
212
69
86
799
-21
-694
-62
497
-188
-131
1385
-440
-401
207
-66
1222
16
163
897
78
-447
129
563
46
-360
-187
82
612
416
75
-432
783
254
259
-231
191
-117
596
-348
-9
181
180
-1004
-226
-161
-51
908
-86
-571
57
-8
542
-49
263
8
-225
-1497
-298
-748
-495
-242
153
10
425
110
-471
-234
57
147
-313
441
-335
381
61
739
580
-467
-333
-113
883
55
-128
-851
51
288
-707
67
221
363
-543
78
604
-1156
1234
83
-8
577
-33
-1027
-181
1084
-502
104
-24
-124
60
-104
-315
137
469
41
10
-1
-4
-9
1
10
-8
-2
-9
7
-12
7
-113
-4
4
-168
-237
824
-275
-177
713
22
-1225
862
-1193
837
891
989
-814
123
-634
599
158
-363
-663
-581
-196
-365
-663
290
192
-350
190
19
-687
-78
34
-408
-79
128
67
-16
-252
-9
-9
-46
470
197
-73
425
-64
501
-280
527
-1012
-55
250
-1054
-12
366
1088
66
497
-178
-106
86
-195
1155
1220
-64
-550
-303
-383
-250
270
10
-456
-118
86
442
566
1299
1063
409
-505
-164
449
-65
-545
316
-386
-86
-325
418
-199
-57
-339
19
675
-55
-177
998
542
407
384
552
892
-107
-791
-358
-780
141
-576
131
-820
551
1
-45
251
-638
-1500
-138
977
-137
248
-625
91
734
-282
-990
-148
578
-1381
-9
-1476
-610
-615
89
-102
1203
-346
317
541
-1305
617
500
-108
125
-420
-274
84
78
457
78
-422
1153
374
-217
-386
280
-114
590
-345
-9
239
178
-280
585
-160
-51
917
-414
-760
25
299
43
-42
786
-726
-182
69
-860
-912
10
-296
27
10
626
113
-788
77
46
-249
-213
-165
-1237
-1246
368
-563
948
109
736
-86
-132
-1051
1226
-899
56
217
-672
63
205
613
-56
-253
524
-511
1307
73
21
520
35
-560
-85
1226
-256
-3
-32
-276
1500
-495
-291
126
438
-312
10
-1
-4
-9
1
10
-8
-2
-9
7
-12
7
-113
-4
4
-115
-161
-23
-45
-121
-703
-37
306
423
1123
464
-1118
-54
174
1354
-654
308
100
-489
-686
-732
-225
-484
-857
-97
284
-1161
300
30
-390
-82
36
-428
-83
135
87
-219
-325
-12
-14
-43
-818
-404
-698
375
-56
785
-234
-777
1
-36
156
-658
-313
229
1017
62
465
-166
-99
82
-186
127
1354
-61
-574
-318
-664
194
72
203
-584
-152
110
-741
540
1181
543
372
-59
-185
65
-53
319
-605
86
370
-354
455
-372
-41
-247
13
490
-41
-274
728
205
526
-1428
1042
725
-233
-660
-150
-208
370
-364
-41
-252
421
-254
95
-333
-9
231
-137
943
-136
285
-1286
96
672
-531
-1272
-62
497
-188
-131
1385
-440
-401
207
-66
1222
16
163
897
78
-447
136
25
48
-379
-197
70
40
388
67
-355
783
-634
259
-231
191
-117
596
-348
-9
181
180
-1004
-226
-161
-51
1247
-245
-404
257
256
752
-50
736
17
-214
-1422
-283
-711
-470
-230
27
10
447
116
-496
-234
57
147
-313
441
-353
401
64
778
610
-467
-333
-113
883
55
-128
-851
51
288
-707
51
230
496
-1005
-179
574
-1098
1172
79
-8
577
-33
-1027
-181
1084
-502
104
-24
-124
60
-99
-299
130
446
39
10
-1
-4
-9
1
10
-8
-2
-9
7
-12
7
-401
-4
4
247
365
1119
1500
-1418
766
466
1017
643
76
612
-520
-51
806
98
-252
-220
171
-251
-746
-711
371
-472
1016
-938
378
557
957
41
84
-47
22
-252
-48
80
67
-413
-253
-9
-9
-264
-300
-225
-368
423
-43
599
-537
-613
61
-16
74
-731
-9
110
1082
3
1284
-187
821
1303
-920
-993
1231
-65
-701
-373
-388
-153
205
162
370
-122
-877
-594
650
1078
57
214
328
-157
414
-46
-299
37
-172
469
-457
414
-155
409
-659
-61
1038
-695
-149
1046
482
385
208
428
732
-227
-98
-87
-412
882
-574
-82
-558
494
23
93
-393
-11
328
-27
562
-81
-1034
-469
143
352
-168
-375
-125
573
-1477
-5
1320
-15
-125
176
28
1189
-171
86
483
44
932
136
25
490
-379
-197
36
-306
42
35
-170
947
307
-179
-318
231
-1493
190
-108
-440
112
124
-769
-173
-515
-49
796
-304
-500
48
228
263
455
536
-1005
-449
64
400
-199
10
280
19
541
-73
74
504
59
55
-442
-276
-88
-299
-170
54
482
501
-472
-1164
-105
782
54
-136
-694
43
165
-518
48
25
173
-458
555
529
-921
820
73
22
-409
-767
-645
88
685
-503
109
-26
-132
64
27
-193
85
292
26
10
-1
-4
-9
1
10
-8
-2
-9
7
-12
7
-113
-4
4
134
200
25
227
-1078
-54
1
336
667
927
569
-996
-47
155
85
-516
-270
-538
-283
-844
-855
-263
-564
-1000
274
397
-829
14
29
-368
-67
-211
408
-68
113
62
-198
-230
-7
40
-51
-806
-269
-789
466
-44
611
-188
-625
62
-34
161
-667
-6
-631
425
54
405
-145
-187
68
-184
266
1138
-55
193
-531
-645
-171
208
135
-407
194
77
-1236
600
1222
-161
-14
623
-203
119
-60
1273
428
90
333
-339
435
-208
-50
-208
17
604
-48
-152
1095
497
401
404
664
1348
-927
-952
15
-919
687
-456
669
-282
506
23
95
-404
-11
881
-138
807
-141
255
-624
206
733
117
-1052
-122
468
-167
-9
1222
-476
-345
687
-53
998
160
-1078
474
42
266
151
27
54
-420
-218
92
89
518
89
-478
389
958
87
-870
-113
-106
-257
-351
-9
487
172
-653
-216
-153
896
1456
-74
-542
103
248
327
-57
292
22
777
57
-297
-743
10
-241
23
10
-91
416
-79
68
64
-507
-316
-101
-415
744
-66
1168
577
-341
-77
-77
637
40
-200
-1024
64
243
-766
-1008
207
392
-580
83
557
-497
863
77
23
631
-36
-1126
-199
887
-198
373
-25
-125
61
-280
-242
146
513
46
10
-1
-4
-9
1
10
-8
-2
-9
7
-12
7
-113
-4
4
-407
-145
577
-293
-115
873
27
1110
539
930
1084
986
-45
-626
78
-178
-63
142
-223
-665
-812
105
415
-156
187
-679
-1291
539
-199
-1297
-383
276
-366
-71
115
84
-31
-339
8
79
-33
-325
486
495
1498
-65
936
-251
-1392
-82
-43
194
-815
-9
283
966
59
442
-158
-94
74
-168
996
1052
-55
-671
-588
-1425
-1360
300
-25
-464
-121
87
696
-75
1161
542
368
592
-193
-315
-47
-368
-481
88
446
-331
441
203
-40
-237
12
472
-39
-131
558
1500
1500
352
1309
1099
731
-636
-144
-109
1005
-305
-33
-213
35
18
593
67
-149
153
-93
767
-90
892
-532
849
625
-1349
-331
-138
395
-190
-9
1425
1186
-376
161
-68
1152
4
147
810
70
449
142
26
51
-398
-206
81
29
170
81
-156
939
304
-177
-315
-453
-448
513
-311
-29
605
249
-1364
-286
268
-74
543
-279
-457
45
-769
-240
-39
1110
-156
305
979
-351
-1500
-175
-550
-8
-52
58
-56
239
48
46
-370
-233
190
-654
-394
193
713
507
-435
-83
-98
813
728
-78
-1097
78
260
-1075
-133
187
298
-435
510
339
-401
782
-1134
-179
-146
492
-416
-451
1209
-256
134
-32
-162
78
-80
-250
105
367
31
10
-1
-4
-9
1
10
-8
-2
-9
7
-12
7
-113
-4
4
-126
-338
-26
-207
-133
-335
409
442
635
-136
1500
792
-1500
298
952
-731
647
134
-401
-189
382
-788
-1377
1425
316
270
-113
284
29
-159
444
33
-390
-76
124
67
1204
-258
-9
-9
-46
-914
-298
-823
430
-53
723
-223
501
513
-34
1010
-960
-7
214
966
121
442
93
-94
55
-122
866
566
-41
-158
269
-279
-157
502
48
-268
-145
105
-1313
575
1023
-151
367
898
-127
349
-50
-422
244
130
181
-310
396
-189
-45
-262
917
439
833
-167
1283
466
381
378
1090
854
82
-898
-142
199
155
-317
-44
-220
493
23
-370
-555
-11
190
-113
785
-112
203
-504
74
593
-227
-1004
-106
117
-146
-9
-197
-468
-310
817
-46
946
14
144
791
68
439
90
17
32
-252
-131
-506
-1041
205
709
-477
987
231
-186
-332
238
-542
568
156
-9
124
145
587
-674
-674
-81
-1152
-436
-460
53
1323
2
282
-83
1
498
57
-322
-740
-236
-240
20
619
113
234
716
272
62
1419
-234
-467
-369
413
66
365
632
-1057
1500
-132
64
1447
-77
313
58
927
-718
77
565
384
-515
82
478
-426
221
66
20
781
428
-679
-181
839
-589
103
-23
-760
933
-193
-280
122
424
37
10
-1
-4
-9
1
10
-8
-2
-9
7
-12
7
-113
-4
4
-154
-216
-1500
-251
970
-52
33
248
580
1112
491
-1332
-1103
231
74
-161
904
-297
-270
-656
-695
-214
-460
-814
223
900
-1222
-681
287
-436
-105
44
-531
-103
167
67
-16
-252
-9
-9
-45
646
-288
-224
411
99
324
-301
-761
104
-15
239
-524
0
1044
1095
66
501
-440
-107
16
-167
773
531
-43
-496
-328
-369
-145
181
144
-404
531
-42
-512
-939
755
-965
441
1117
-234
131
-28
-416
-44
578
-323
-1247
840
-201
-1273
474
-998
275
-1360
-820
1283
460
371
1102
945
728
0
-409
-349
-630
746
-763
-133
-314
90
27
-258
-435
180
190
371
825
-111
-312
-591
377
583
477
30
-138
-717
-150
-9
1159
-401
-332
496
-53
1302
-1211
-130
92
-1297
643
66
22
-701
-434
-146
-331
-840
359
178
-564
884
690
-417
-654
114
-106
599
-350
-9
435
211
-1093
-656
-188
-61
794
-303
-499
-40
313
392
-1354
438
-66
-1189
51
-972
-671
10
-564
-161
10
-23
99
-456
1425
65
-515
-402
-535
-1216
-10
55
435
-214
-241
-129
-193
657
91
694
-906
-46
215
-678
53
332
723
-238
-8
478
-426
740
-522
20
-947
65
-939
1106
1286
1092
42
-27
-134
65
-73
-152
167
336
149
10
-1
-4
-9
1
10
-8
-2
-9
7
-12
7
-113
-4
4
-144
-203
707
-236
-152
612
19
-1225
1006
-1193
681
726
806
-662
100
-549
555
101
-300
-596
-498
-168
-313
-568
249
203
345
51
5
-843
-78
34
-408
-79
128
112
-28
-415
-13
-1112
-38
384
161
-60
347
-52
408
-228
429
-824
49
169
-482
-28
-881
982
60
448
-161
-96
74
-167
990
1046
-55
-535
-285
-359
-204
258
12
-505
-131
95
489
511
1172
960
370
-456
-131
560
-62
-532
434
-349
-78
-294
377
-180
-48
-291
16
579
-47
-1300
1500
150
-536
502
498
805
-97
-713
-323
-780
100
-456
140
-814
519
-3
127
-507
50
-1354
-124
882
-123
224
-346
99
800
-659
-1252
-127
197
-1184
-9
-1265
-498
-459
239
-77
1201
-165
243
618
-752
532
159
28
57
-441
-114
84
78
457
78
-422
799
238
-150
-268
227
-93
481
-281
-9
195
154
74
596
-138
-44
815
-488
-590
32
404
293
-51
267
14
694
63
-329
-823
10
-267
26
10
491
107
-607
69
42
-225
-192
-149
-605
-1312
-288
-142
674
99
664
-78
-119
-948
1165
-1139
71
268
-852
60
195
582
-53
-240
613
-547
-300
83
26
617
-33
-399
-168
1022
-219
587
-27
-148
183
-548
-322
140
485
-345
10
-1
-4
-9
1
10
-8
-2
-9
7
-12
7
-113
-4
4
-562
-216
-32
-252
-162
-917
31
626
533
1019
-84
-240
-61
-118
-144
-579
-57
106
-318
-903
-478
105
-228
-156
187
-73
-160
271
28
293
-64
-604
-339
-1286
105
-683
1309
-187
265
-1500
-22
-146
715
-177
196
632
305
-104
943
-812
-19
110
-847
11
265
865
72
556
-163
-119
64
-145
860
908
-47
-579
-382
-430
-169
210
534
-311
-55
-351
-270
176
1161
-153
368
592
-193
173
-60
-470
418
832
-337
561
373
804
-41
1500
-64
495
-41
-124
1118
410
332
334
940
762
-89
-1425
-123
-886
469
-1324
958
129
707
28
132
-562
-17
-238
-220
701
-225
986
-454
-34
62
-920
-263
-118
338
-162
-9
1222
-1286
-658
-269
-1286
1245
-244
-985
856
473
-1425
1053
-108
75
-404
-108
-392
756
934
64
-338
868
365
-163
-385
-473
58
548
-787
160
400
285
-1396
215
-453
-59
275
-325
-533
-271
579
43
-42
-89
16
-5
61
-268
-669
316
-574
23
125
-313
91
-1184
375
75
1020
-359
-85
-319
-676
58
619
1275
-507
-115
-114
948
848
-209
-526
-142
125
-1244
186
485
358
-535
77
557
-497
863
77
23
577
-33
-1027
-721
1084
-208
109
-26
-132
64
-105
-1354
50
416
-342
10
-1
-4
-9
1
10
-8
-2
-9
7
-12
7
-113
-4
4
-123
-144
-25
-200
-801
-45
28
283
561
968
768
893
942
-781
-122
-396
-6
-818
-111
-647
119
412
-144
548
114
-142
-899
958
1286
-300
-78
37
-420
-80
132
75
-18
-279
-9
-11
-551
-499
-400
-528
483
189
556
-178
-987
-200
-135
409
-1102
-235
-328
1313
50
378
-385
-9
1500
-35
719
761
-40
-590
-411
-451
-158
194
70
-1129
-601
623
968
710
1103
-191
457
722
-157
92
-46
-356
39
78
268
-274
257
-168
-42
259
-243
497
-41
-152
1283
586
-602
384
1109
860
95
-921
-143
-198
417
-411
-46
-284
521
23
-103
-1168
-11
191
253
774
-112
204
-307
69
561
-438
-277
-49
330
-158
-9
1188
-485
-478
134
-81
1461
-215
140
1004
67
137
-200
-449
-297
-411
-283
250
-1324
25
86
-441
988
320
-186
-332
240
735
500
-142
-63
364
143
-802
-180
-128
-41
679
1164
-427
735
-460
-303
-84
452
-145
-235
-651
-313
-23
10
-254
9
10
-20
22
-90
258
81
351
984
-128
651
443
-7
-28
820
114
1163
-59
-999
759
-149
-786
113
191
-588
56
183
237
-386
-57
505
-450
664
-398
21
170
-51
-1244
-274
1311
-239
128
-30
-155
74
-70
-214
93
323
28
10
-1
-4
-9
1
10
-8
-2
-9
7
-12
7
-113
-4
4
127
190
24
216
-585
-54
1
336
667
927
569
-996
-47
155
85
-516
-270
-538
-283
-844
-855
-263
-564
-1500
274
397
-829
14
29
-368
-67
-360
628
-68
113
59
-188
-218
-7
38
-51
-806
-269
-789
466
-42
580
-179
-594
59
-34
161
-667
-6
-631
1017
54
405
-145
-86
80
-185
266
1156
-60
193
-531
-645
-171
208
135
-407
194
77
-1236
520
1222
-161
-14
623
-203
119
99
1273
451
93
344
-351
450
-997
185
-846
17
604
-48
129
932
392
312
315
664
1348
-927
-952
15
-919
687
-456
669
-282
481
22
90
-384
-10
881
-138
807
-141
255
-624
206
733
117
-1052
-122
631
-167
-9
690
-476
-345
202
-53
998
160
-1078
474
42
266
151
27
54
-420
-218
92
89
518
89
-478
1349
438
-890
-451
327
-101
-796
69
-9
463
152
-941
-191
75
117
1147
-305
-654
93
286
327
-57
292
22
777
57
-297
-743
10
-241
23
10
-91
416
-79
68
64
-507
-316
-101
-415
744
-66
1168
577
-324
-73
-73
605
38
-200
-1024
64
243
-766
-1008
207
392
-580
83
557
-497
863
77
23
631
-36
-1126
-199
887
-188
354
-24
-119
58
168
-325
85
288
22
10
-1
-4
-9
1
10
-8
-2
-9
7
-12
7
-113
-4
4
-214
-211
-30
-272
-159
586
18
1055
861
884
698
-291
-44
-107
77
-602
-93
111
-378
-700
-780
394
1202
522
147
160
-333
183
66
-648
-66
1112
-521
-67
112
75
-18
-279
-9
-11
-43
633
98
-225
390
-66
-189
-264
-953
878
-243
834
-1318
432
388
1017
62
465
-166
-99
64
-144
854
922
-47
-642
-423
-477
-187
233
-24
-441
-115
83
661
-288
1135
380
360
964
-214
-350
-53
-407
-533
82
300
-306
392
-188
-42
-250
13
497
-41
-131
1177
432
349
352
1192
994
411
-647
-218
732
41
-698
-38
-351
35
18
593
67
-149
162
-978
694
-94
760
-1313
790
517
-1218
-277
-94
4
-20
-9
1008
-447
-981
316
-67
1102
4
147
810
70
449
129
24
46
-360
-187
185
33
241
89
-173
994
-35
943
-356
241
-448
513
-311
-29
605
194
-1084
-243
53
-56
849
-325
-533
52
244
840
-41
-316
14
132
-942
-21
-50
521
-129
40
38
-170
172
-68
36
52
-379
-265
-34
-45
844
225
830
592
-392
-89
-88
733
657
-75
-911
64
212
-897
59
163
-237
-464
59
478
-426
740
-100
20
548
-31
-976
-172
1030
276
-249
186
-336
65
-76
-210
100
308
429
10
-1
-4
-9
1
10
-8
-2
-9
7
-12
7
-113
-4
4
-32
-491
-80
-1210
-20
-298
67
1188
1385
1412
289
-941
-57
447
73
-460
-1425
-629
-223
-722
-660
-40
-1023
470
98
237
-788
-237
-1150
-191
-88
36
-443
-87
140
64
-15
-239
-9
-9
-44
230
36
-109
241
-51
713
-219
-729
72
-110
350
-1074
-179
923
674
42
308
-314
-66
58
-106
779
823
-44
-114
401
270
-153
242
-484
-312
1206
-187
1343
505
996
-131
316
507
-139
82
-41
-314
-433
70
257
-262
621
-161
-38
-853
80
565
-33
-177
915
535
397
371
1385
1068
-786
-1101
-131
10
795
-283
-83
-68
1500
519
-1500
-1500
1082
-1029
-114
789
-113
205
-446
65
524
-204
-258
1405
170
-146
-5
1124
-409
-378
-73
-531
861
481
126
694
61
386
-200
-464
404
-298
657
64
60
346
-233
-319
681
275
-160
-284
206
913
464
-270
740
336
70
-978
51
-453
-77
718
-620
-451
265
206
54
-386
267
22
-548
-530
-255
-637
139
-207
11
-55
-38
40
-170
304
76
397
741
-274
-279
-159
-250
451
481
-494
-225
-110
921
57
-243
-1218
10
284
-910
57
-490
1488
1217
-1035
603
-540
-27
82
25
544
-71
-730
586
1022
-94
159
-15
-230
945
82
-221
96
334
28
10
-1
-4
-9
1
10
-8
-2
-9
7
-12
7
-113
-4
4
-217
-303
-47
181
-227
-56
35
347
689
1188
462
350
-1170
-459
86
-543
-84
100
-298
-888
-773
-1500
484
285
110
225
-1115
273
834
-355
-76
33
-397
-77
125
-285
618
-250
122
-10
-62
1064
200
-294
568
124
808
-237
-1425
223
-45
-129
-858
-9
-523
1070
65
1297
473
-104
64
-146
191
913
-47
-1160
-402
-1354
-1354
221
228
-661
-172
111
-839
-162
1020
743
324
520
-193
113
-57
-438
450
832
197
-293
373
804
-65
-382
51
582
-32
-161
1445
531
427
431
620
678
-259
-432
-110
-185
462
-572
-1037
-315
312
60
-1286
-116
-1262
203
-121
911
-120
217
-529
77
621
-1073
-307
-98
580
-143
-9
1448
-273
156
295
-1118
795
17
514
1161
1268
436
129
24
46
-100
-187
99
-90
551
93
-491
914
296
-172
-306
222
-113
630
-23
-9
459
204
-1141
-256
56
-59
560
-717
-740
20
337
52
-51
-371
20
-5
57
-298
-746
10
-242
28
10
-118
120
-516
72
27
-49
-117
-181
725
-460
1304
1218
624
-585
902
-119
1193
490
-88
-1035
-334
246
-766
76
248
407
-243
86
617
-1013
265
84
26
608
-35
-1082
-191
1141
-231
121
-28
-146
70
-105
-763
119
416
-63
10
-1
-4
-9
1
10
-8
-2
-9
7
-12
7
-113
-4
4
-119
-167
-25
-196
-126
-314
71
1250
1458
1486
289
-941
-57
447
73
-460
-1425
-629
-223
-722
-660
-40
-1023
470
98
249
-829
-249
-1211
-201
-93
38
-466
-92
147
64
-15
-239
-9
-9
-42
219
34
-104
229
-51
713
-219
-729
72
-39
168
-856
5
254
709
44
324
-331
-69
58
-106
779
823
-44
-108
381
257
-145
230
-484
-312
1206
-187
1343
480
946
-124
300
482
-146
86
-43
-331
-456
74
271
-276
654
-170
-36
-1035
100
569
-29
-186
963
563
418
390
1088
901
-343
-1046
-130
-162
694
-339
-39
-235
1425
493
-1425
-1425
1028
-978
-92
737
-88
161
-446
65
524
-204
-258
1335
162
-139
-5
1068
-431
-398
-77
-559
906
481
126
694
61
386
-211
-488
425
-314
692
67
63
364
-245
-336
681
275
-160
-284
206
913
464
-270
740
336
196
-1392
-184
-621
-95
682
-589
-428
252
196
57
-406
281
23
-577
-503
-242
-605
132
-197
10
-52
-36
38
-161
-4
89
832
1467
-312
-279
-159
-250
451
481
-520
-237
-116
969
60
-256
-1282
10
299
-958
54
-465
1414
1156
-983
13
-198
797
-78
18
544
-71
-730
586
1022
-99
167
-16
-242
995
86
-233
101
352
29
10
-1
-4
-9
1
10
-8
-2
-9
7
-12
7
-113
-4
4
-157
-235
-114
-275
-248
-202
29
-423
623
1019
1362
-587
20
-1147
80
-1109
-1231
724
-259
-1107
-1010
-217
-564
-1000
274
220
-899
232
25
-300
-62
134
-1148
-63
102
553
-12
-731
-118
-7
-33
-77
-53
-268
1212
-53
592
-235
-782
28
-136
418
-1156
-248
1175
1425
751
364
-129
-965
64
-1305
865
1500
-47
-970
-1320
-1116
-65
105
159
-456
-118
86
-579
541
1055
-139
334
763
-175
443
-67
-564
304
664
321
-326
419
825
-39
-226
11
447
-38
-152
1054
481
372
361
861
700
-71
-566
-114
-544
659
-683
-104
-242
391
18
74
-313
-710
196
-115
807
-288
208
-224
55
588
-170
-298
-62
-245
-66
-9
919
-317
-295
153
-1350
899
15
155
495
74
473
402
473
363
-186
-30
79
74
427
-152
-394
702
229
-131
-235
171
-133
703
676
580
-70
257
-861
-147
1500
619
930
-250
-97
-551
337
36
-34
182
13
-423
74
-210
-413
10
-177
27
10
-113
115
-493
58
55
-428
-268
-85
-299
334
54
482
514
165
-26
-428
487
-390
-148
-681
48
181
-569
51
167
270
6
-779
539
-427
1074
64
258
925
-1311
323
-33
1029
-387
133
-153
-158
255
-71
-217
95
327
28
10
-1
-4
-9
1
10
-8
-2
-9
7
-12
7
-113
-4
4
-160
-225
783
-261
-168
713
22
-1225
862
-1193
755
804
893
-734
111
-608
615
112
-375
-660
-812
542
-542
-630
276
192
-350
190
19
-687
-70
30
-369
-71
116
70
98
-266
-10
-40
-44
-1198
-417
-946
398
-691
476
-266
1425
-961
-931
1021
-1001
-11
348
1034
63
472
-169
-101
86
-195
1155
1220
-64
-563
-300
-378
-215
272
11
-480
-124
1241
465
408
1293
539
408
-11
-164
449
-65
-545
316
-386
-86
-325
418
-199
-57
236
19
675
932
-177
998
542
407
384
552
892
-107
-791
-358
-864
111
-505
155
-902
551
1
-45
251
-638
-1500
-138
977
-137
248
-625
91
734
-282
-990
-148
578
-1381
-9
-1476
-499
-460
239
-77
1203
-662
663
241
-1240
643
112
21
40
-312
-160
80
74
434
74
-401
1095
355
-206
-367
266
-108
543
-780
-9
227
-175
-531
252
-150
307
990
-1181
-657
85
284
41
-40
747
-690
-173
20
-297
-654
-32
-209
26
-49
515
45
-1500
73
44
-237
-202
-157
-1093
-1246
197
-135
530
109
736
-86
-132
-1051
516
-946
59
228
-707
992
116
39
-685
262
645
-576
-316
87
27
899
31
-505
-77
1107
-256
-71
-32
-276
1500
-978
-306
133
461
-328
10
-1
-4
-9
1
10
-8
-2
-9
7
-12
7
-113
-4
4
-172
-241
-36
-281
-181
-56
35
347
689
1188
889
-1286
-75
526
132
-476
393
182
-261
-777
-812
-516
-536
79
277
332
-1354
350
36
-456
114
35
-418
-81
132
87
-21
-325
-12
-14
-52
27
-243
-586
471
-57
789
-981
-807
80
-49
227
-954
431
426
1070
65
489
-175
-104
73
-166
1486
-991
-54
-676
-445
-502
-197
245
219
-631
21
119
-800
917
1354
-178
-234
112
145
472
-68
-566
333
992
1164
373
420
-216
-47
-108
15
561
-46
-161
1445
531
427
431
979
795
-95
-642
-129
-161
342
-337
-37
-233
591
-299
111
-471
-373
252
-149
1035
-148
268
-1202
94
759
456
-376
-130
310
-179
468
1402
-48
-397
203
-66
1342
17
172
944
82
524
132
25
457
-433
-190
87
296
478
82
-465
113
681
1108
-1088
261
-97
775
-346
-9
711
180
-1004
-226
-161
-51
990
-379
-622
61
284
55
-54
280
21
-234
54
-283
-711
10
-230
30
10
-131
133
-572
43
93
-733
-457
506
-386
433
762
623
1464
-514
-117
-115
960
59
-200
-1024
64
243
-766
56
193
423
-435
90
649
-1444
233
89
26
574
-87
-698
-180
1078
-1202
765
-32
187
78
-106
-323
140
487
42
10
-1
-4
-9
1
10
-8
-2
-9
7
-12
7
-113
-4
4
-206
-288
-45
172
-216
-53
33
330
655
1129
462
350
-1170
-459
86
-424
-778
78
-233
-1029
-773
-1500
484
285
110
214
-1059
259
792
-337
-76
33
-397
-77
125
-285
618
-250
122
-10
-47
701
-294
-250
433
110
585
-256
-1354
168
-1134
250
-171
2
776
1126
68
1365
498
-110
57
-132
764
822
-210
-1121
-398
-1299
-1287
218
228
-661
-172
111
-839
-162
1020
743
324
520
-193
113
-57
-438
450
832
197
-293
373
804
-84
-638
-747
536
-16
-153
1373
1267
406
409
620
678
-259
-432
-110
-185
462
-572
-1037
-315
328
63
-1354
1500
-1273
-272
-121
911
-120
1500
-529
77
621
-1073
-307
-93
551
-136
-9
1376
-273
156
295
-1118
795
18
541
1222
1335
459
123
23
44
-95
-178
99
-90
551
93
-491
934
296
-267
-312
237
-113
640
-23
-9
459
204
-1141
-256
56
-59
560
-717
-740
20
337
52
-51
-1367
-991
-5
51
-269
-674
10
-218
28
10
-118
120
-516
72
27
-49
-117
-181
725
-460
1304
1218
624
-556
1500
-1072
1500
466
-88
-1035
-334
246
-766
72
236
387
-231
82
444
-1490
908
81
24
606
-36
-1081
-192
1138
671
121
-28
-146
70
-100
-725
113
395
-60
10
-1
-4
-9
1
10
-8
-2
-9
7
-12
7
-113
-4
4
-168
-237
824
-275
-177
713
22
-1225
862
-1193
795
846
940
-773
117
-640
647
118
-351
-695
-552
-186
-347
-630
276
182
-332
181
18
-653
-78
34
-408
-79
128
67
-16
-252
-9
-9
-46
470
197
-73
425
-33
505
-150
-1182
-961
-41
250
-790
-7
275
1034
63
472
-169
-101
86
-195
1155
1220
-64
-535
-285
-359
-204
258
11
-480
-124
90
465
538
1234
1010
389
-480
-164
449
-65
-545
316
-386
-86
-325
418
-199
6
-46
-38
573
54
-177
998
542
407
384
524
847
-102
-266
-340
-864
111
-505
155
-902
551
1
-45
251
-638
-1425
-131
928
-130
236
-625
91
734
-282
-990
-148
578
-1381
-9
-1476
-499
-460
239
-77
1203
-346
317
541
-1305
617
159
28
57
-441
-114
84
78
457
78
-422
1153
374
-217
-386
280
1137
456
-265
993
343
178
-280
585
-539
-51
1024
-368
-703
103
294
41
-40
747
-690
-173
66
-346
-866
10
-281
27
10
626
113
-788
77
46
-249
-213
-165
-1038
-1184
187
-128
504
109
736
-86
-132
-1051
1291
-946
59
228
-707
65
145
527
233
-245
645
-576
-316
87
27
996
925
-406
738
1226
-243
-67
-30
-262
1425
-521
-306
133
461
-328
10
-1
-4
-9
1
10
-8
-2
-9
7
-12
7
-113
-4
4
-60
-216
-32
-252
-162
-50
31
-181
622
1352
326
333
-25
-975
48
-543
-84
100
154
-888
-845
393
1311
495
161
377
-1048
397
41
-519
-68
29
-358
568
113
79
-19
-294
-10
-12
-43
1158
-167
-472
394
-60
211
-267
-871
86
-46
208
-873
-8
303
918
56
420
-150
-89
74
-168
996
1052
-55
-726
630
-1389
305
1425
185
-4
-138
100
-675
621
1354
-173
237
645
-214
462
-54
-485
52
82
300
-306
392
-188
-46
-766
1309
551
-1348
-282
942
135
1242
1500
789
641
-763
-519
-974
-854
580
-327
-66
-164
-6
780
-484
431
-9
95
-140
1057
547
206
-481
70
565
-217
-279
-106
275
-146
-9
1136
-457
-1451
218
-70
1286
818
155
852
74
473
91
-863
9
154
-221
1354
201
1178
82
-1354
859
220
-128
-229
166
377
485
-282
399
352
761
-836
-193
-629
673
849
-325
-1139
52
230
52
-51
266
20
-5
377
-806
-451
912
-455
16
55
-56
58
-176
-137
171
797
-245
551
-622
613
61
136
589
-514
-117
-115
960
884
-530
-921
749
196
-1384
46
371
748
-145
-543
736
-657
1140
101
951
-79
-1015
-333
-359
-310
-219
115
-744
-139
67
-72
-225
95
332
28
10
-1
-4
-9
1
10
-8
-2
-9
7
-12
7
-113
-4
4
-119
-167
-25
-196
-126
-314
71
1250
1458
1486
289
-941
-57
447
73
-460
-1425
-629
-223
-722
-660
-40
-1023
470
98
249
-829
-249
-1211
-201
-93
38
-466
-92
147
64
-15
-239
-9
-9
-42
219
34
-104
229
-51
713
-219
-729
72
-39
168
-856
5
254
709
44
324
-331
-69
58
-106
779
823
-44
-108
381
257
-145
230
-484
-312
1206
-187
1343
480
946
-124
300
482
-146
86
-43
-331
-456
74
271
-276
654
-170
-36
-1035
100
569
-29
-186
963
563
418
390
1088
901
-343
-1046
-130
-162
694
-339
-39
-235
1425
493
-1425
-1425
1028
-978
-92
737
-88
161
-446
65
524
-204
-258
1335
162
-139
-5
1068
-431
-398
-77
-559
906
481
126
694
61
386
-211
-488
425
-314
692
67
63
364
-245
-336
681
275
-160
-284
206
-28
500
-291
-325
308
196
-1392
-184
-621
-95
682
-589
-428
252
196
57
-406
281
23
-577
-503
-242
-605
132
-197
10
-52
-36
38
-161
-4
89
832
1467
-312
-279
-159
-250
451
481
-520
-237
-116
969
60
-256
-1282
10
299
-958
54
-465
1414
1156
-983
573
-513
-26
78
24
544
-71
-730
586
1022
-99
167
-16
-242
995
86
-233
101
352
29
10
-1
-4
-9
1
10
-8
-2
-9
7
-12
7
-113
-4
4
134
200
25
227
-1078
-54
1
336
667
927
569
-996
-47
155
85
-516
-270
-538
-283
-844
-855
-263
-564
-1000
274
397
-829
14
29
-368
-67
-211
408
-68
113
62
-198
-230
-7
40
-51
-806
-269
-789
466
-44
611
-188
-625
62
-49
223
-936
462
537
425
54
405
-145
-187
68
-184
266
1138
-55
193
-531
-645
-171
208
135
-407
194
77
-1236
600
1222
-161
-14
623
-203
119
-60
1273
428
90
333
-339
435
-208
-50
-208
17
604
-48
-164
1068
514
396
383
664
1348
-927
-952
15
-919
687
-456
669
-282
506
23
95
-404
-11
881
-138
807
-141
255
-624
206
733
117
-1052
-152
445
-170
-9
1213
-488
-329
824
-49
934
160
-1078
474
42
266
151
27
54
-420
-218
92
89
518
89
-478
1349
438
-890
-451
327
-106
-257
-351
-9
487
172
-959
-216
-153
896
1456
-74
-542
103
248
327
-57
292
22
777
57
-388
-943
10
-759
23
10
-91
416
-79
68
64
-507
-316
-101
-415
744
-66
1168
577
439
1236
-79
-703
40
-117
-1265
-508
334
-492
-1008
207
392
-580
83
557
-497
863
77
23
832
-47
-1487
-262
959
-198
373
-25
-125
61
168
-325
85
288
22
10
-1
-4
-9
1
10
-8
-2
-9
7
-12
7
-113
-4
4
-120
-321
-25
-197
-126
-335
409
442
635
-136
1425
752
-1425
-154
503
-731
647
134
-401
-189
402
-830
-1450
1500
333
257
-107
270
28
-151
422
31
-370
-72
118
67
1204
-258
-9
-9
-46
-914
-298
-823
430
-53
723
-223
501
513
-34
1010
-960
-7
214
966
121
442
93
-94
-718
-149
860
987
-47
-158
269
-279
-157
502
50
-282
-153
111
-1382
580
-164
-153
371
906
-127
349
-50
-422
244
130
181
-310
396
-189
-45
-262
917
439
833
-159
1219
443
362
359
1090
854
82
-898
-142
199
155
-317
-44
-220
468
22
-351
-527
-10
190
-113
785
-112
203
-504
74
593
-227
-1004
-106
117
-146
-9
-197
-381
-351
181
-59
946
14
460
787
67
437
90
17
32
-252
-131
82
814
406
75
-442
987
231
-186
-332
238
-571
598
164
-9
130
138
558
-640
-640
19
-1152
-436
-460
53
1323
2
297
-87
1
524
57
-322
-740
-236
-240
10
10
-1335
-1010
-935
272
62
1419
-234
-467
-310
349
56
701
534
-1057
1500
-107
418
899
-81
329
61
976
-756
77
565
384
-515
82
454
-405
631
63
19
781
428
-679
-181
839
-589
103
-23
-760
933
-193
-280
122
424
37
10
-1
-4
-9
1
10
-8
-2
-9
7
-12
7
-113
-4
4
-109
-153
-22
-43
-115
-1223
-35
84
256
1019
606
-1062
-51
165
1286
-590
278
424
-442
-445
-660
-203
-437
-773
-87
-517
-665
271
252
-220
-74
382
-380
75
120
83
-208
-309
-11
-615
-39
-738
-365
-630
338
-45
640
-190
-633
1
-108
-867
-952
878
-710
734
50
379
-135
-81
67
-152
104
1103
-49
-574
-318
-664
194
72
189
-465
-134
95
-627
617
1020
36
167
354
-229
-312
-50
-355
271
171
365
-124
741
-424
-39
-235
12
466
-39
-247
877
524
451
836
990
689
-221
-627
-142
-208
370
-364
-41
-252
421
-254
95
-333
-9
227
-134
956
-134
556
63
78
721
-19
-626
-95
424
-179
-67
1335
-465
-1215
297
-71
1060
12
133
731
64
-1500
117
22
42
-325
-169
67
498
338
61
-351
1276
-1302
1289
266
507
-98
591
-346
-9
99
186
-370
-160
156
-65
740
-70
-465
46
-8
46
-45
232
17
-193
-1283
-256
-641
-424
-207
24
10
384
100
-425
-211
51
133
-282
398
-318
362
58
702
551
-444
-316
-107
839
52
-122
-808
48
274
-672
58
190
312
-465
67
570
-1074
1160
52
-11
711
4
-683
-114
1026
-502
104
-747
187
60
218
-333
-145
498
-104
10
-1
-4
-9
1
10
-8
-2
-9
7
-12
7
-113
-4
4
-148
-208
-31
-243
-157
324
26
100
510
-130
1156
244
-36
-200
149
-452
-222
83
-248
-810
363
103
400
-187
177
1245
-102
200
60
-1001
-64
-579
-336
-65
1219
64
241
-237
565
-6
-40
-199
-202
126
570
-36
503
-154
-598
22
77
736
-980
-11
691
1500
52
391
-67
238
62
-44
751
612
-23
366
1224
1007
-1354
285
-1050
-474
721
-372
1152
592
946
-124
300
338
-198
-114
-45
-347
14
104
193
-279
356
198
-1354
-252
13
501
-548
-1013
838
648
577
1291
250
664
83
-915
-332
-383
281
-913
20
-431
456
28
-422
-364
-9
972
-71
822
-83
-180
-242
-917
1274
-181
-375
579
-240
-115
-9
-178
-408
-23
1082
-31
412
10
1051
491
-92
287
171
75
715
-371
-1500
-190
-904
364
62
-609
1352
390
-928
-447
400
136
561
-29
95
-329
1276
-316
521
-156
-50
849
710
-105
52
244
48
-174
145
19
-231
-725
-397
151
642
229
21
-262
-251
-200
-554
156
82
465
1062
-264
75
274
-66
1370
54
257
-65
-57
-562
-546
-278
-995
62
-168
-744
60
195
582
-53
-1498
531
-474
-275
73
22
102
-84
-348
-230
666
-417
102
826
-126
61
-90
-1500
119
413
35
10
-1
-4
-9
1
10
-8
-2
-9
7
-12
7
-113
-4
4
-169
-1043
-36
-276
-613
-44
-86
-160
556
982
1121
1500
-49
-482
88
-973
922
177
140
60
-709
-1244
-1067
-857
317
213
-474
755
-883
-231
-66
936
-238
-67
117
162
178
-717
612
-19
-9
-424
-1103
74
73
-79
-215
-332
636
-1131
1354
222
-933
-9
322
828
617
-76
-199
-801
74
-168
996
1052
-55
629
-816
-820
-187
195
136
-492
-199
-867
-1500
542
405
-145
350
562
-515
147
-54
-1249
-205
-711
273
-278
356
-171
-45
-465
-275
726
-58
37
1133
491
393
397
976
753
521
-966
-133
47
205
-542
583
170
485
-313
-14
-487
623
221
-454
912
-130
10
-94
34
255
106
68
-101
-1425
214
-9
1048
-395
-231
189
-495
1164
-311
64
367
34
315
129
1222
46
-360
-187
62
60
345
60
-316
471
154
-925
-157
115
-1500
488
-282
-9
406
-342
-882
-300
-210
40
525
-277
-479
55
-1021
276
-345
-25
459
-990
51
-373
-671
10
-218
25
240
-101
502
-40
44
41
885
-179
-479
-319
346
-1050
1286
1425
-341
-77
-77
637
40
-471
-613
-843
330
-351
-958
354
289
369
675
339
-1465
1399
-344
-151
411
-24
-731
-130
775
-202
621
-94
-522
-1135
-947
-237
871
346
422
10
-1
-4
-9
1
10
-8
-2
-9
7
-12
7
-113
-4
4
134
200
25
227
-1078
-54
1
336
667
927
541
-946
-45
147
81
-516
-270
-538
-283
-844
-855
-263
-564
-1000
274
889
-1163
-720
298
-404
-68
-216
418
-69
116
59
-188
-218
-7
38
-46
-728
-243
-712
421
224
186
-257
-1163
-22
-34
161
-667
-6
-631
1017
54
405
-145
-86
65
-175
253
1081
-52
193
-531
-645
-171
208
135
-407
194
77
-1236
570
1161
-153
-13
592
-183
107
-54
1149
387
86
316
-322
413
-198
-47
-198
16
574
-46
-152
1095
497
401
404
664
1348
-927
-952
15
-919
687
-456
669
-282
506
23
95
-404
-11
881
-138
807
-141
255
-624
206
733
117
-1052
-122
468
-167
-9
1222
-434
-199
834
-42
721
160
-1078
474
42
266
143
26
51
-399
-207
87
85
492
85
-454
1349
392
-571
-405
293
-106
621
-313
-9
131
-81
-511
-51
-471
849
1456
-268
-396
116
231
327
-57
292
22
777
54
-282
-706
10
-229
23
10
-91
416
-79
68
64
-507
-316
-101
-374
672
-60
1055
521
-324
-73
-73
605
38
-190
-973
61
231
-728
-958
197
372
-551
79
557
-497
863
77
23
599
-34
-1070
-189
843
-229
34
-28
-146
70
168
-325
85
288
22
10
-1
-4
-9
1
10
-8
-2
-9
7
-12
7
-113
-4
4
-163
-229
-34
-267
-172
-53
33
330
613
1129
803
-1161
-67
475
119
-452
373
173
-248
-738
-771
-490
-509
75
263
259
-860
268
27
-549
-162
40
-462
-861
145
97
-24
-363
-13
-16
-48
296
24
-274
443
-54
750
-932
-767
76
-45
205
-861
389
385
1017
62
465
-166
-99
69
-158
936
964
-51
-597
-393
-443
-174
217
219
-630
21
119
-799
632
1286
-169
407
656
145
472
-68
-566
333
992
1164
373
420
-216
-43
-25
14
520
-43
876
1445
531
427
63
979
795
-95
-642
-129
-153
325
-320
-35
-221
561
-284
105
-447
-354
227
-135
934
-134
-175
-1142
89
721
185
-357
-117
280
-161
-9
1265
-237
-1354
218
-70
1286
17
172
944
82
524
151
27
54
-420
-218
83
281
454
78
-442
-160
374
281
-386
280
-97
900
-365
485
880
154
-861
-194
-138
-44
1500
-302
-300
46
246
59
-900
286
24
-691
54
-330
-711
10
-230
30
10
-267
135
-528
51
80
-598
-388
325
-349
390
63
562
1321
-564
-111
-108
1160
516
690
-760
438
312
-40
-971
209
1486
235
-643
617
-551
221
1204
25
545
-83
-663
-171
1024
-725
913
-368
-152
77
-101
-307
133
463
40
10
-1
-4
-9
1
10
-8
-2
-9
7
-12
7
-113
-4
4
59
93
2
91
-766
3
133
349
617
937
634
-314
58
172
-36
-482
-1156
858
407
-788
-772
457
464
-106
-788
616
1264
693
292
1055
-67
29
792
-68
-169
436
-2
-286
-237
-45
934
-123
149
4
234
-45
619
-190
-634
63
-43
137
20
-131
282
1033
63
472
-169
-101
58
-131
784
827
-43
-917
-437
-740
-185
7
991
-572
-335
-1130
-276
554
1220
-161
-1042
-465
-193
113
-57
-438
47
90
295
-338
-601
-208
-43
-336
13
862
-445
197
1304
462
371
375
1435
828
199
-217
29
637
467
260
-42
-156
724
481
98
-270
62
239
-141
1018
-140
732
-219
60
570
-297
-280
-106
305
-146
-9
1103
-407
6
194
-1286
1286
25
-326
1124
100
-97
846
23
44
-1047
58
72
-63
393
68
-362
1183
436
-252
-448
327
-924
624
20
-59
-153
140
-928
-220
-143
-322
1034
386
-934
64
316
-219
-41
190
20
-586
51
-268
-671
10
-594
25
10
-1152
103
-441
66
63
-492
-345
266
-562
-1323
-726
552
662
1496
-100
-99
825
529
-61
-565
-890
394
-309
64
215
915
-304
-595
476
-370
616
105
133
547
-31
-974
-172
1021
-259
135
963
934
79
1039
-295
94
-96
333
10
-1
-4
-9
1
10
-8
-2
-9
7
-12
7
-113
-4
4
-168
-237
824
-275
-177
713
22
-1225
862
-1193
837
891
989
-814
123
-608
615
112
-333
-660
-524
-177
-330
-598
262
182
-332
181
18
-653
-78
34
-408
-79
128
64
-15
-239
-9
-9
-44
447
187
-69
404
-33
505
-150
-1182
-961
-41
250
-790
-7
275
1034
63
472
-169
-101
86
-195
1155
1220
-64
-535
-285
-359
-204
258
10
-456
-118
86
442
538
1234
1010
389
-480
-164
449
-65
-545
316
-386
-86
-325
418
-199
6
-44
-36
544
51
-177
998
542
407
384
524
847
-102
-266
-340
-864
111
-505
155
-902
551
1
-45
251
-638
-1500
-138
977
-137
248
-625
91
734
-282
-990
-148
578
-1381
-9
-1476
-499
-460
239
-77
1203
-346
317
541
-1305
617
159
28
57
-441
-114
84
78
457
78
-422
1095
355
-206
-367
266
251
489
-285
-9
316
178
-280
585
-539
-51
973
-350
-668
98
279
39
-38
710
-655
-164
69
-364
-912
10
-296
27
10
626
113
-788
77
46
-249
-213
-165
-1038
-1184
187
-128
504
109
736
-86
-132
-1051
1226
-899
56
217
-672
66
216
645
-59
-266
645
-576
-316
87
27
996
925
-406
738
1226
-243
-67
-30
-262
1425
-521
-306
133
461
-328
10
-1
-4
-9
1
10
-8
-2
-9
7
-12
7
-113
-4
4
-161
-991
-34
-262
-170
-53
33
331
656
1110
755
796
-49
-768
111
-924
1257
168
-503
101
-163
-296
-15
-947
-41
256
-840
235
28
-335
-67
60
-486
-68
69
-568
223
-187
-9
-90
-57
-8
64
-416
447
-30
432
-133
-442
44
1425
240
-1004
-8
345
711
529
-65
-171
-687
74
-168
996
1052
-55
-425
-281
-316
-124
155
129
-467
-189
-824
-1286
542
359
-145
350
562
265
-260
-54
-427
-1196
-711
273
-278
356
-171
-45
-465
-275
726
-58
35
1076
466
373
377
881
679
470
-1070
-120
292
152
-108
-33
-1377
455
353
86
-363
562
221
-454
912
-130
-92
329
-9
-103
440
-132
-96
-59
203
-9
996
-408
21
198
-1346
1293
-265
74
212
39
562
129
1222
476
-360
-817
49
49
279
49
-255
726
236
-137
-243
177
-268
488
363
-9
406
163
-880
-274
-145
-47
-418
-551
-456
558
-976
174
135
331
-61
-1429
871
-166
-671
-960
-408
24
6
-96
477
-38
-1302
39
-836
-232
-835
-288
313
-947
1161
1286
-88
-18
-20
156
40
-761
-699
-661
376
-437
-910
214
397
212
85
1181
-1286
1421
826
1291
277
-16
-491
-88
728
-202
621
-94
-522
-722
307
-357
-219
543
-144
10
-1
-4
-9
1
10
-8
-2
-9
7
-12
7
-113
-4
4
-133
-356
-27
-218
-140
-353
430
465
668
-143
1500
792
-1500
-162
529
-731
647
134
-401
-189
402
-830
-1450
1500
333
270
-113
284
29
-159
444
33
-390
-76
124
71
1267
-272
-9
-9
-47
-914
-296
-494
432
-53
723
-223
501
513
-27
1063
-1083
-5
159
1017
127
465
98
-99
58
-128
912
596
-43
-166
283
-294
-165
528
50
-282
-153
111
-1382
611
1087
-161
391
954
-134
367
-53
-444
257
137
190
-326
417
-199
-57
-338
472
631
385
-176
1350
491
401
398
1090
854
82
-898
-142
197
156
-317
-44
-220
493
23
-370
-555
-11
190
-113
785
-112
203
-412
61
485
-298
-1283
-106
117
-146
-9
-197
-401
-370
191
-62
996
14
144
791
68
439
100
19
36
-279
-145
86
857
427
79
-465
987
231
-186
-332
238
-571
598
164
-9
130
191
-500
-709
451
-8
-1152
-815
-252
48
1323
46
-45
333
17
-193
57
-322
-740
-236
-240
10
10
-1335
-1010
-935
272
62
1419
-234
-467
-310
349
56
701
534
-1057
1500
-107
418
899
-81
329
61
976
-756
77
565
384
-515
82
478
-426
221
66
20
822
451
-715
-191
883
-589
103
-23
-760
933
-193
-280
122
424
37
10
-1
-4
-9
1
10
-8
-2
-9
7
-12
7
-113
-4
4
-162
-227
-33
-264
1021
-313
1020
-664
-50
920
467
-1375
-768
-335
1410
-331
-401
-178
-61
-776
-663
-27
61
-636
215
270
-1103
285
-522
-370
-91
40
-370
-889
149
98
-24
-369
-13
34
-62
-155
-560
418
560
-61
1354
-257
-807
-35
-45
206
-865
-9
300
-835
61
454
1090
-97
-47
-108
641
579
-35
-610
-402
-453
-178
221
137
-384
-99
-40
-486
-163
996
-759
27
1103
-322
-935
-22
-239
-66
-1161
232
-237
-357
-145
-36
49
-733
484
268
-124
1118
410
332
334
744
594
-536
-289
-108
52
846
-365
-154
-1425
484
-578
-622
-452
-488
191
-133
775
-112
204
-316
46
371
-142
-183
-148
275
-208
-9
1078
-435
48
374
-60
1108
617
-166
-573
55
159
108
21
449
-398
-156
103
-136
544
-827
-562
988
320
359
-294
-126
-112
630
-368
-9
518
200
-1182
-96
75
-58
1039
492
-969
65
298
55
-354
22
20
-232
45
-1134
-603
10
225
33
32
-157
142
-233
56
53
-420
-261
753
-497
353
57
469
538
-303
-69
-69
575
36
531
-658
53
202
-1286
542
187
1283
219
-417
61
-206
648
-57
17
470
-27
-767
-961
1286
-679
84
-151
-640
235
-82
-250
108
377
68
10
-1
-4
-9
1
10
-8
-2
-9
7
-12
7
-113
-4
4
-123
-144
-25
-200
-801
-45
28
283
561
968
768
893
942
-781
-122
-396
-6
-818
-111
-647
119
412
-144
548
114
-142
-899
958
1286
-300
-78
37
-420
-80
132
75
-18
-279
-9
-11
-551
-499
-400
-528
483
189
556
-178
-987
-200
-135
409
-1102
-235
-328
1313
50
378
-385
-9
1500
-35
719
761
-40
-590
-411
-451
-158
194
70
-1129
-601
623
968
710
1103
-191
457
722
-157
92
-46
-356
39
78
268
-274
257
-168
-42
259
-243
497
-41
-152
1283
586
-602
384
1109
860
95
-921
-143
-198
417
-411
-46
-284
521
23
-103
-1168
-11
191
253
774
-112
204
-307
69
561
-438
-277
-49
330
-158
-9
1188
-485
-478
134
-81
1461
-215
140
1004
67
137
-200
-449
-297
-411
-283
250
-1324
25
86
-441
988
320
-186
-332
240
735
500
-142
-63
364
143
-802
-180
-128
-41
679
1164
-427
735
-460
-303
-84
452
-145
-235
-651
-313
-23
10
-254
9
10
-20
22
-90
258
81
351
984
-128
651
443
-7
-28
820
114
1163
-59
-999
759
-149
-786
113
191
-588
56
183
237
-386
-57
505
-450
664
-398
21
170
-51
-1244
-274
1311
-239
128
-30
-155
74
-70
-214
93
323
28
10
-1
-4
-9
1
10
-8
-2
-9
7
-12
7
-401
-4
4
235
347
1063
602
-1347
848
516
1126
713
819
437
-949
-34
73
-189
-159
-70
171
-251
-746
-748
390
-497
1069
-987
-163
-532
127
31
-178
-75
11
-222
-76
124
75
51
-277
-10
-11
-264
-300
-225
-368
559
-41
569
-510
-582
58
-72
82
-1222
-11
316
1262
40
1498
-350
-87
10
1143
-699
-326
-147
-199
77
-392
700
185
154
352
-116
-833
-564
737
1197
-218
470
1380
-149
393
-44
-284
35
-442
329
-682
435
-149
691
-815
-494
835
-65
-135
1177
447
360
46
8
1193
472
-153
-131
-720
1197
-370
695
-1038
520
24
98
-414
-12
328
-27
562
-81
-1034
-520
158
390
-186
-416
-113
517
-1333
-5
1191
-375
-351
181
-276
1002
-180
91
508
46
981
136
25
48
-379
-197
46
43
123
43
-231
900
292
-170
-302
219
-1418
181
-103
-418
106
-490
-844
-190
-135
620
756
-289
-475
46
217
238
410
484
-907
-406
-102
-731
-878
398
-749
114
11
264
92
-275
62
58
-465
-291
-93
-34
-715
57
507
309
86
-1164
-372
499
-322
-143
-731
45
174
-545
58
189
499
-1067
517
586
-1020
908
81
24
-389
-729
-613
534
651
-208
109
-26
-132
64
26
-183
81
277
25
10
-1
-4
-9
1
10
-8
-2
-9
7
-12
7
-113
-4
4
-157
-235
-114
-275
-248
-202
29
-423
623
1019
1362
-587
20
-1147
80
-1109
-1231
724
-259
-1107
-1010
-217
-564
-1000
274
220
-899
232
25
-300
-62
134
-1148
-63
102
553
-12
-731
-118
-7
-33
-77
-53
-268
1212
-53
592
-235
-782
28
-136
418
-1156
-248
1175
1425
751
364
-129
-965
64
-1305
865
1500
-47
-970
-1320
-1116
-65
105
159
-456
-118
86
-579
541
1055
-139
334
763
-175
443
-67
-564
304
664
321
-326
419
825
-39
-226
11
447
-38
-152
1054
481
372
361
861
700
-71
-566
-114
-544
659
-683
-104
-242
391
18
74
-313
-710
196
-115
807
-288
208
-224
55
588
-170
-298
-62
-245
-66
-9
919
-317
-295
153
-1350
899
15
155
495
74
473
402
473
363
-186
-30
79
74
427
-152
-394
702
229
-131
-235
171
-133
703
676
580
-70
257
-861
-147
1500
619
930
-250
-97
-551
337
36
-34
182
13
-423
74
-210
-413
10
-177
27
10
-113
115
-493
58
55
-428
-268
-85
-299
334
54
482
514
165
-26
-428
487
-390
-148
-681
48
181
-569
51
167
270
6
-779
539
-427
1074
64
258
925
-1311
323
-33
1029
-387
133
-153
-158
255
-71
-217
95
327
28
10
-1
-4
-9
1
10
-8
-2
-9
7
-12
7
-113
-4
4
134
200
25
227
-1078
-54
1
336
667
927
541
-946
-45
147
81
-516
-270
-538
-283
-844
-812
-250
-536
-950
260
397
-829
14
29
-368
-64
-200
388
-65
107
59
-188
-218
-7
38
-48
-766
-256
-750
443
-44
611
-188
-625
62
-38
111
-653
-8
-599
966
51
385
-138
-82
67
-86
180
1122
-49
-472
-476
-704
-179
103
135
-407
194
77
-1236
600
1222
-161
-14
623
-203
119
-60
1273
428
90
333
-339
435
-208
-50
-208
17
604
-48
-144
1040
472
381
384
631
1281
-881
-904
14
-919
687
-456
669
-282
481
22
90
-384
-10
837
-131
767
-134
242
-624
206
733
117
-1052
-116
445
-159
-9
1161
-476
-345
687
-53
998
160
-1078
474
42
266
143
26
51
-399
-207
92
89
518
89
-478
1349
438
-890
-451
327
-106
-257
-351
-9
487
172
-959
-216
-153
896
1456
-74
-542
103
248
311
-54
277
21
738
57
-297
-743
10
-241
23
10
-91
416
-79
68
64
-507
-316
-101
-415
744
-66
1168
577
-299
-302
-71
536
-97
948
-1263
-547
-193
-1112
-1008
207
392
-580
83
557
-344
863
77
23
631
-36
-1126
-199
887
-198
373
-25
-125
61
168
-325
85
288
22
10
-1
-4
-9
1
10
-8
-2
-9
7
-12
7
-113
-4
4
-119
-167
-25
-196
-126
-314
71
1250
1458
1486
289
-941
-57
447
73
-460
-1425
-629
-223
-722
-660
-40
-1023
470
98
249
-829
-249
-1211
-201
-93
38
-466
-92
147
64
-15
-239
-9
-9
-42
219
34
-104
229
-51
713
-219
-729
72
-39
168
-856
5
254
709
44
324
-331
-69
58
-106
779
823
-44
-108
381
257
-145
230
-484
-312
1206
-187
1343
480
946
-124
300
482
-146
86
-43
-331
-456
74
271
-276
654
-170
-36
-1035
100
569
-29
-186
963
563
418
390
1088
901
-343
-1046
-130
-162
694
-339
-39
-235
1425
493
-1425
-1425
1028
-978
-92
737
-88
161
-446
65
524
-204
-258
1335
162
-139
-5
1068
-431
-398
-77
-559
906
481
126
694
61
386
-211
-488
425
-314
692
67
63
364
-245
-336
681
275
-160
-284
206
-28
500
-291
-325
308
196
-1392
-184
-621
-95
682
-589
-428
252
196
57
-406
281
23
-577
-503
-242
-605
132
-197
10
-52
-36
38
-161
-4
89
832
1467
-312
-279
-159
-250
451
481
-520
-237
-116
969
60
-256
-1282
10
299
-958
54
-465
1414
1156
-983
573
-513
-26
78
24
544
-71
-730
586
1022
-99
167
-16
-242
995
86
-233
101
352
29
10
-1
-4
-9
1
10
-8
-2
-9
7
-12
7
-113
-4
4
-163
-229
-34
-267
-172
-53
33
330
655
1129
889
-1286
87
526
132
-476
393
182
-261
-777
-732
-465
-484
71
250
361
-1286
382
38
-497
114
35
1333
-81
132
87
-21
-325
-12
-14
-49
26
-231
-557
447
-57
789
-981
-807
80
-51
237
-954
872
536
1017
62
465
-166
-99
-39
-462
-105
447
-32
-676
-445
-502
-197
245
208
-599
20
113
-760
665
1354
-178
428
690
617
472
-42
141
831
1425
1164
715
413
-220
-47
-108
15
561
-46
-161
218
-272
546
431
979
795
-95
-642
-129
-161
342
-337
-37
-233
591
-299
111
-471
-373
239
-142
983
-141
255
-1202
94
759
456
-376
-130
310
-179
-9
1402
-230
-430
222
-72
1313
16
163
897
78
498
125
24
434
-411
-180
87
296
478
82
-465
-1228
647
1053
-1034
92
-97
775
-346
-9
711
171
-954
-215
-153
-48
866
-331
-543
53
249
55
-54
280
21
-234
54
-283
-711
10
-230
30
10
-131
133
-572
43
93
-733
-457
506
-386
433
762
623
1464
-488
-111
-109
912
56
-200
-1024
64
243
-470
79
258
423
-380
90
649
-580
233
89
26
574
-87
-698
-180
1078
-1142
727
-30
178
74
-101
-307
133
463
40
10
-1
-4
-9
1
10
-8
-2
-9
7
-12
7
-113
-4
4
1179
-292
-26
-695
-213
919
28
1168
567
979
346
-329
-64
-115
86
1061
-84
100
-298
-667
-812
112
418
-156
186
803
-1013
785
23
-351
-93
-170
-486
-94
-38
79
-19
-294
-10
-12
-45
666
-279
-237
411
184
828
-191
-1153
38
-247
-466
-1010
-9
270
1017
62
465
-166
-99
74
-168
996
1052
-55
-610
-402
-453
-178
221
-26
-488
-127
92
733
582
1126
-32
388
592
-95
1023
-32
-167
254
86
316
-322
413
-198
-46
-277
15
551
-45
-138
1239
455
367
370
1396
1095
1181
-503
57
-421
408
-383
-47
-285
1369
21
89
-378
-10
145
466
-174
-85
847
64
147
449
-1420
325
-145
900
-180
182
1242
-275
-502
243
-77
1401
4
147
810
70
449
168
518
60
-471
-244
89
33
188
89
-173
1048
340
-198
-351
232
-250
521
-291
18
-1400
184
-1030
-231
50
-53
998
-383
-627
61
286
1143
-61
-1062
21
351
502
-88
-973
10
-423
22
287
-85
86
-373
57
54
-432
-272
-85
-802
-484
339
874
249
-458
-104
-103
856
766
-195
-860
50
209
-549
62
172
304
-488
62
586
-523
908
81
24
548
-31
-1425
-172
1030
-256
134
-32
-162
1408
-88
-277
117
406
35
10
-1
-4
-9
1
10
-8
-2
-9
7
-12
7
-401
-4
4
247
365
1119
634
-1418
848
516
1126
713
819
495
-692
-44
179
78
-151
-66
162
-238
-709
-787
411
-523
1125
-1039
-163
-532
127
31
-178
190
-388
373
341
-306
71
-435
-266
-9
-10
-16
-7
17
427
293
-43
599
-537
-613
61
-27
588
-914
-8
175
1262
45
1498
-194
-82
84
-784
-699
1194
9
-468
-325
-372
-143
176
145
859
-110
-877
-220
700
1137
-207
447
1311
-149
393
-44
-284
35
-442
329
-682
435
-149
-635
147
107
488
-42
-128
1118
425
342
44
1210
737
-83
-617
-36
-882
1341
-387
822
-913
520
24
98
-414
-12
328
-27
562
-81
-1034
-520
158
390
-186
-416
-113
517
-1333
-5
1191
-395
-370
191
-291
1055
-180
91
508
46
981
136
25
48
-379
-197
46
43
123
43
-231
900
292
-170
-302
219
-1347
-182
-639
-1101
226
-490
-844
-190
-135
620
796
-304
-500
48
228
226
390
460
-862
-386
216
450
-687
-346
664
120
12
278
97
-290
62
58
-465
-291
-93
-34
-715
57
507
309
78
-1051
-335
450
-291
-143
-944
59
228
-706
58
189
499
-1067
517
586
-1020
908
81
24
-389
-729
-613
534
651
-198
104
-25
-125
61
26
-183
81
277
25
10
-1
-4
-9
1
10
-8
-2
-9
7
-12
7
-113
-4
4
-153
-941
-32
-249
-161
-53
33
331
656
1110
544
602
-45
-435
80
-834
1134
152
-454
91
-649
-1045
-881
-1343
392
219
-720
201
25
-287
200
51
-445
-70
86
-540
212
-178
-9
-85
-9
-383
-253
-7
66
-27
390
-120
-399
40
1425
240
-1004
-8
345
641
478
-59
-154
-620
74
-168
996
1052
-55
-404
-267
-300
-118
147
111
-401
-162
-707
-1103
522
816
-136
327
678
-744
524
-54
-416
45
-675
259
-264
338
-162
94
391
-69
383
-41
-378
974
404
322
340
927
715
495
-1126
-126
83
326
-200
29
-1206
410
318
78
-328
507
210
-431
866
-123
-87
-85
30
230
96
-198
-91
-56
193
-9
946
-407
13
196
-1313
1289
-252
70
201
37
534
117
1103
429
-325
-737
43
43
239
43
-218
656
213
-123
-219
160
-57
516
275
14
565
145
-730
-252
19
-34
-377
-497
-411
504
-881
157
122
298
-55
-1290
51
-373
-671
10
-218
22
6
-86
430
-34
52
49
-851
-251
-57
-303
329
-997
1222
1354
-106
-22
-24
189
42
-208
-553
-761
-71
-316
-910
278
439
-421
92
1122
-1222
1350
785
1226
411
-24
-731
-130
775
-26
784
-115
-640
-999
-900
-225
827
329
401
10
-1
-4
-9
1
10
-8
-2
-9
7
-12
7
-113
-4
4
-169
-1043
-36
-276
-179
-56
35
348
691
1168
475
439
-851
-227
68
-973
922
177
140
60
-674
-1182
-1014
-814
301
269
-308
232
29
-676
-66
936
-238
-67
117
205
-213
-7
-820
-621
-550
-424
-1103
74
73
783
347
-105
6
247
1286
-537
-776
-11
377
1252
1224
-76
-199
-801
74
-168
996
1052
-11
629
-659
-783
-187
225
41
-452
-146
-298
-157
542
405
-145
350
562
-489
140
-51
-391
-195
-675
259
-264
338
-162
-43
-442
-261
690
-55
35
1076
466
373
377
976
753
521
-966
-133
-682
1242
-138
527
-1101
479
372
91
-382
592
221
-454
912
-130
10
-89
32
242
101
-208
-101
-1425
214
-9
1048
-395
-231
189
-495
1164
-311
64
367
34
315
129
1222
46
-360
-187
59
57
328
57
-1500
471
154
-89
-157
115
-268
488
-818
164
406
158
-838
-285
-199
-45
525
-277
-479
55
-1021
276
-345
-25
459
-990
51
-494
-671
10
-218
31
-128
366
-104
-459
52
49
885
-242
-136
-617
420
-304
1500
1425
-324
-73
-73
605
38
-471
-613
-843
330
-351
-282
185
307
-237
72
339
-1465
1500
-344
-151
358
-22
-644
-116
681
-192
590
-89
-496
-1078
-947
-239
871
350
387
10
-1
-4
-9
1
10
-8
-2
-9
7
-12
7
-113
-4
4
-32
-491
-80
-1210
-20
-298
67
1188
1385
1412
289
-941
-57
447
73
-460
-1425
-629
-223
-722
-660
-40
-1023
470
98
237
-788
-237
-1150
-191
-88
36
-443
-87
140
64
-15
-239
-9
-9
-44
230
36
-109
241
-51
713
-219
-729
72
-110
350
-1074
-179
923
674
42
308
-314
-66
58
-106
779
823
-44
-114
401
270
-153
242
-484
-312
1206
-187
1343
505
996
-131
316
507
-139
82
-41
-314
-433
70
257
-262
621
-161
-38
-853
80
565
-33
-177
915
535
397
371
1385
1068
-786
-1101
-131
10
795
-283
-83
-68
1500
519
-1500
-1500
1082
-1029
-114
789
-113
205
-446
65
524
-204
-258
1405
170
-146
-5
1124
-409
-378
-73
-531
861
481
126
694
61
386
-200
-464
404
-298
657
64
60
346
-233
-319
681
275
-160
-284
206
913
464
-270
740
336
70
-978
51
-453
-77
718
-620
-451
265
206
54
-386
267
22
-548
-530
-255
-637
139
-207
11
-55
-38
40
-170
304
76
397
741
-274
-279
-159
-250
451
481
-494
-225
-110
921
57
-243
-1218
10
284
-910
57
-490
1488
1217
-1035
603
-540
-27
82
25
544
-71
-730
586
1022
-94
159
-15
-230
945
82
-221
96
334
28
10
-1
-4
-9
1
10
-8
-2
-9
7
-12
7
-113
-4
4
-76
-101
-43
-160
-248
-47
29
298
591
1019
667
-1167
-56
181
100
-482
-1156
858
407
-788
-768
425
419
-140
-739
682
1400
707
223
773
-67
29
792
-68
-169
459
-2
-301
-250
-47
934
-123
149
4
234
-47
652
-200
-667
66
-43
137
20
-131
282
1017
62
465
-166
-99
58
-131
784
827
-43
-1134
-508
-768
-455
-41
681
-524
-135
-685
-667
561
1220
-161
-1042
-465
-193
113
-57
-438
47
95
311
-356
327
-219
-43
-336
13
862
-445
-140
1304
462
371
375
969
787
251
-325
-128
895
453
408
-47
-170
202
-727
100
-668
-132
239
-141
1018
-140
732
-594
80
436
-214
-790
-118
338
-162
-9
1222
-407
6
194
-1286
1286
25
-326
1124
100
-97
1436
270
224
-850
239
67
-159
370
64
-341
1183
436
-252
-448
327
-122
683
-398
-9
497
202
557
1134
-173
-430
1040
-595
-653
63
498
48
-48
242
18
80
51
-268
-671
10
-594
26
10
-106
108
-465
67
64
-497
-351
297
-451
-449
-323
526
626
1354
-105
-104
868
53
-380
-552
-986
485
-258
66
147
969
-304
-860
586
-523
908
81
24
548
-31
-976
-172
1030
-273
142
1014
983
83
-103
-313
10
470
41
10
-1
-4
-9
1
10
-8
-2
-9
7
-12
7
-113
-4
4
-132
-185
-27
-217
-140
-943
66
135
1360
1440
289
-941
-57
447
73
-460
-1425
-629
-223
-722
-627
-38
-972
447
93
225
-749
-225
-1092
-181
-93
38
-466
-92
147
64
-15
-239
-9
-9
880
-1242
686
-109
377
-46
643
-198
-658
65
-37
160
-813
5
241
709
44
324
-331
-69
58
-106
779
823
-44
-646
-431
-811
248
45
1337
-170
-672
-825
-1472
505
996
-131
316
507
-139
82
-41
-314
-433
74
271
-276
654
-170
-38
-1090
105
599
-31
-186
963
563
418
390
1034
970
-326
-994
-123
-154
659
-322
-37
-223
1425
1187
-1425
-1425
1028
-1029
-114
789
-113
205
-580
88
-79
-212
-155
1268
154
-132
-5
1015
-431
-398
-77
-559
906
-595
133
731
1153
406
-211
-488
425
-314
692
67
63
364
-245
-336
647
261
-152
-270
196
913
464
-270
740
336
196
-1392
-184
-621
-95
718
-620
-451
-591
206
51
-367
254
21
-521
546
-110
-492
-96
-103
11
-55
-38
40
-170
458
81
397
1467
-384
-279
824
-250
451
481
-520
-237
-116
969
60
-256
-1282
-1342
299
-758
57
-490
1488
1217
-1035
1071
-540
-27
82
-808
36
-75
-255
617
1076
-99
167
-16
-242
995
86
-233
101
352
29
10
-1
-4
-9
1
10
-8
-2
-9
7
-12
7
-113
-4
4
-157
-235
-114
-275
-248
-202
29
-423
623
1019
1362
-587
20
-1147
80
-1109
-1231
724
-259
-1107
-1010
-217
-564
-1000
274
220
-899
232
25
-300
-62
134
-1148
-63
102
553
-12
-731
-118
-7
-33
-77
-53
-268
1212
-53
592
-235
-782
28
-136
418
-1156
-248
1175
1425
751
364
-129
-965
64
-1305
865
1500
-47
-970
-1320
-1116
-65
105
159
-456
-118
86
-579
541
1055
-139
334
763
-175
443
-67
-564
304
664
321
-326
419
825
-39
-226
11
447
-38
-152
1054
481
372
361
861
700
-71
-566
-114
-544
659
-683
-104
-242
391
18
74
-313
-710
196
-115
807
-288
208
-224
55
588
-170
-298
-62
-245
-66
-9
919
-317
-295
153
-48
899
15
155
495
74
473
402
473
363
-186
-30
79
74
427
-152
-394
702
229
-131
-235
171
-133
703
676
580
-70
257
-861
-147
-158
-51
930
-250
-97
-551
337
36
-34
182
13
-423
74
-210
-413
10
-177
27
10
-113
115
-493
58
55
-428
-268
-85
-299
334
54
482
514
165
-26
-428
487
-390
-148
-681
48
181
-569
51
167
270
6
-779
539
-427
1074
64
258
925
53
323
-33
1029
-387
133
-153
-158
255
-71
-217
95
327
28
10
-1
-4
-9
1
10
-8
-2
-9
7
-12
7
-113
-4
4
-180
-254
-38
-308
-190
-50
31
314
622
1073
439
333
-1111
-436
82
-572
-746
105
-314
-935
-734
-1425
460
271
105
279
-1084
284
-769
-369
-72
31
-377
-73
119
433
668
-993
536
319
-47
731
-310
-247
427
124
808
-237
-1425
223
-37
493
-420
-9
1112
1070
65
489
-175
-104
64
-694
-1425
902
-47
-1221
-423
-1386
-1425
233
195
-560
-145
-233
-711
195
1286
-169
407
656
-183
1070
-54
-416
428
1485
46
-240
301
804
-294
106
-176
1022
-17
-153
1373
504
406
409
1166
716
-214
-723
-160
-178
355
-324
266
-476
312
60
-1286
-116
-1262
205
-295
1177
-121
2
-503
73
590
-1019
-292
-99
279
-134
-9
1286
-259
148
280
-1062
755
-399
488
1103
1205
414
117
22
42
-90
-169
84
370
443
77
-435
868
281
-163
-480
211
-124
692
150
-9
505
184
-1030
-231
50
-53
532
-681
-703
19
320
47
-46
-99
18
-5
54
-282
-706
10
-229
26
10
-106
108
-465
72
27
-49
-117
-181
689
-437
1239
1157
593
-307
392
15
1133
216
-56
-1024
-437
243
-1196
76
-333
407
-243
86
557
-497
862
77
23
577
-33
-1027
-181
1097
-219
115
-27
-139
67
-105
-763
119
416
-63
10
-1
-4
-9
1
10
-8
-2
-9
7
-12
7
-113
-4
4
-85
-118
-98
85
-89
-50
-27
314
622
1073
638
-1118
-54
174
1354
-654
308
100
-489
-686
-732
-225
-484
-857
-97
284
-1161
300
30
-390
-82
36
-428
-83
135
87
-219
-325
-12
-14
-43
-818
-404
-698
375
-56
785
-234
-777
1
-36
156
-658
-8
229
1017
62
465
-166
-99
82
-186
127
1354
-61
-604
-335
-699
204
76
193
-555
-144
105
-704
540
1181
543
372
-59
-195
68
-56
336
-637
104
347
-371
473
-96
-41
-247
13
490
-41
-274
972
581
500
926
494
1312
-233
-660
-150
-219
389
-383
-43
-265
443
-267
100
-351
470
1052
-137
943
-291
285
-1286
96
672
-531
-1272
-62
497
-188
-131
1385
-440
-401
207
-66
1222
195
-294
1101
73
-135
136
25
48
-379
-197
82
612
416
75
-432
783
254
259
-231
191
-117
596
-348
-9
181
-226
-1004
-523
-161
-51
1247
-245
-404
257
256
54
-53
271
20
-792
-1497
-298
-748
-495
-242
27
10
447
116
-496
133
21
-88
-78
-305
-353
401
64
778
610
-599
-565
-149
1131
70
-122
-808
48
274
-672
71
233
382
-572
82
604
-1156
1234
83
-8
577
-33
-1027
-181
685
-502
104
-24
-124
60
-104
-315
137
469
41
10
-1
-4
-9
1
10
-8
-2
-9
7
-12
7
-113
-4
4
-153
-941
-32
-249
-161
-53
33
331
656
1110
573
634
-47
-458
84
-878
1194
160
-478
96
-621
-1244
-1067
-1454
428
256
-840
235
28
-335
-64
57
-462
-65
66
-568
223
-187
-9
-90
-9
-383
-253
-7
66
-27
390
-120
-399
40
1425
240
-1004
-8
345
711
529
-65
-171
-687
74
-168
996
1052
-55
-425
-281
-316
-124
155
117
-422
-171
-744
-1161
522
816
-136
327
678
-744
524
-54
-416
45
-711
273
-278
356
-171
94
391
-69
383
-41
35
1076
466
373
377
927
715
495
-1126
-126
-1017
78
249
-795
-770
410
318
78
-328
507
221
-454
912
-130
-92
-89
32
242
101
-208
-96
-59
203
-9
996
-407
13
196
-1313
1289
-252
70
201
37
534
123
1161
452
-342
-776
45
45
252
45
-230
656
213
-123
-219
160
-255
464
345
-9
386
163
-880
-274
-145
-47
-397
-523
-433
530
-927
166
107
313
21
-1429
51
-373
-671
10
-218
23
6
-91
453
-36
52
49
-851
-251
-57
-303
329
-997
1222
1354
-106
-22
-24
189
42
-219
-582
-801
-75
-333
-958
225
418
223
89
1181
-1286
1421
826
1291
411
-24
-731
-130
775
-182
561
-85
-471
-652
-900
-225
827
329
401
10
-1
-4
-9
1
10
-8
-2
-9
7
-12
7
-159
-4
4
-194
-272
-9
-391
-204
-59
37
323
725
1251
515
-1197
-43
130
-863
-567
-674
105
-313
-1203
-1385
111
-24
-163
196
19
-829
-544
1088
-122
79
-253
-414
-80
130
88
-21
-328
-12
-378
-39
545
216
-2
500
-58
808
-237
-827
81
-49
226
-951
-10
331
1126
-619
515
-184
-110
74
-168
996
1052
-55
-642
-423
-477
-187
233
492
-558
-145
105
-709
600
1222
-161
387
623
-225
132
-66
-511
55
97
356
-364
466
-207
57
-280
50
587
47
-203
897
604
439
402
921
905
-89
-604
-122
-207
345
-407
-8
-48
648
29
548
-447
-18
203
-248
911
-96
217
-529
77
621
-238
-307
-106
304
-144
-9
1100
-403
40
192
-70
1286
14
146
802
69
445
280
1002
222
-388
-172
69
127
233
-500
-190
1153
374
-217
-386
280
-101
535
-286
155
-9
107
-643
-171
-236
-28
947
-392
-613
-483
812
52
-51
266
20
-5
56
-187
-483
10
-157
30
-517
-131
-1203
-572
61
58
-464
-288
-119
-345
387
62
502
592
-475
-108
-106
888
829
-3
-61
-704
255
-76
-65
164
863
-263
-1096
586
-523
908
81
24
639
-37
-1138
-201
1425
-247
128
-27
-139
76
-88
-277
117
406
35
10
-1
-4
-9
1
10
-8
-2
-9
7
-12
7
-113
-4
4
-171
-239
-35
-278
1075
-45
756
-812
206
968
497
-1005
-560
-384
1130
679
-444
-197
-67
-860
-771
-237
-509
-902
247
257
-1048
271
-496
-351
-86
38
-351
-845
142
87
-21
-325
-12
-347
-42
-36
0
453
382
-54
1286
-231
-767
48
-58
265
-981
-17
351
981
60
449
-202
-96
-47
-108
641
579
-35
-676
-445
-502
-197
245
144
-404
-104
-42
-512
-172
1048
-799
28
1161
345
-104
-22
-239
-66
-1222
244
-249
-376
-153
-34
47
-696
460
255
-131
1177
432
349
352
744
594
-271
-289
-108
-171
595
-425
-95
-1425
561
25
105
-447
-13
482
-163
818
-125
229
-300
44
352
-135
-174
-62
-227
-189
-9
1286
-596
-579
156
-98
1391
-860
414
691
78
666
120
23
498
-441
-173
75
-57
409
70
-378
1095
355
398
-325
-140
-112
630
-368
-9
518
194
-1087
-232
54
-56
1094
518
-1020
830
314
55
-354
22
20
310
66
-1257
-866
10
-967
23
10
-155
-839
-476
72
68
-542
-338
974
-546
371
63
562
599
-465
-105
-104
867
-87
504
-625
50
192
-1222
741
-626
1283
219
-165
67
-228
718
-63
19
521
-29
-850
-163
1425
-715
88
-159
-102
247
-86
-263
114
397
72
10
-1
-4
-9
1
10
-8
-2
-9
7
-12
7
-113
-4
4
-180
-252
-37
-296
-198
-39
25
-118
400
830
488
-854
-1103
-332
73
-664
-106
110
-307
-1027
-961
-225
-484
-857
235
-210
-996
1169
-471
-333
-80
36
-421
-81
345
-201
358
-281
92
-12
-42
-97
0
453
382
163
1116
-219
-727
51
-39
144
-491
170
81
146
69
525
-233
-159
-162
-63
224
574
-11
-579
-382
-430
191
-323
137
-384
-99
-1286
-486
-1095
1138
22
354
716
-234
131
-28
607
-44
-98
294
-298
383
-183
986
609
-676
380
357
-131
1177
432
349
1102
1354
631
-93
-1089
42
-259
224
-390
58
773
19
26
-733
-446
415
-28
-114
765
-109
199
-349
50
410
-99
-203
-124
341
-173
-9
996
-377
-309
352
-50
940
14
-673
775
-403
272
89
17
-1133
708
287
57
-260
332
678
28
1323
401
-1500
-416
359
-571
646
-321
-9
-441
-25
-1150
-230
-208
-855
983
-376
-617
-210
282
37
165
237
593
183
54
-1023
-706
10
-594
865
-137
-1306
404
-392
100
66
-983
-90
-104
-1054
-880
154
569
606
-421
-97
-68
768
530
659
217
-44
204
-800
58
393
773
-1425
99
454
-405
703
-496
19
41
180
-296
-294
1303
985
444
-24
1082
55
-79
-326
43
380
-82
10
-1
-4
-9
1
10
-8
-2
-9
7
-12
7
-113
-4
4
-268
-164
-49
-254
-141
873
27
1110
539
930
466
262
446
-453
104
-572
-88
105
-314
-935
-855
111
437
-164
197
313
-570
330
14
-142
-80
35
-418
-81
132
71
-1197
54
-9
613
-47
701
-503
-250
433
-58
900
-237
-827
-410
-41
202
-772
-8
269
931
57
425
-153
-91
70
185
946
999
-52
-676
-445
-502
-197
245
-21
-378
-99
71
-288
-412
1207
924
381
616
-181
-69
-66
-34
-62
86
316
-322
413
-198
-67
-395
23
786
-64
199
981
461
709
346
1297
1095
982
-560
-98
-343
802
-313
-39
-232
406
18
77
-324
-9
138
-84
693
-81
805
-633
1095
577
-568
-143
-66
180
117
-972
1217
-430
-737
228
-66
1131
-7
132
727
62
402
160
29
57
-447
-232
1083
226
153
-215
-17
1031
334
-194
-347
250
-61
792
-470
777
-1400
175
-978
-219
48
-50
807
-309
-506
49
232
3
-46
-85
18
-11
545
-246
-614
10
-345
11
3
-103
105
-451
-283
270
-370
-255
-168
-688
-358
203
750
432
-521
-311
-67
1219
111
-70
-990
70
235
-970
56
155
275
-441
56
478
-1161
740
66
20
577
-33
-1027
-181
1084
-465
115
-27
-139
67
-84
-263
111
386
33
10
-1
-4
-9
1
10
-8
-2
-9
7
-12
7
-113
-4
4
-189
-265
-40
-309
-199
-59
37
365
725
1251
600
-1020
-50
152
-1006
-451
333
470
-348
-737
-1425
992
16
-441
207
315
-1286
333
34
-433
-80
35
-418
-81
132
92
-22
-342
-13
-15
-43
585
-241
-225
392
-61
851
-250
-871
85
-52
238
-1001
-11
348
1126
68
515
-184
-110
82
-186
1103
1165
-61
-676
-445
-502
-197
245
216
-620
-161
117
-787
559
1354
-150
361
581
-225
132
-66
-511
55
100
369
-376
482
-231
11
-32
15
667
-44
-161
1445
168
-486
431
960
794
-95
-350
-1112
-159
413
-259
-57
-230
715
-804
-63
351
-15
145
-127
959
94
-805
-529
77
621
-238
-307
-47
124
247
-1468
1308
-481
-444
229
-74
1354
17
171
935
81
519
295
-221
234
-408
-181
92
86
503
86
-464
1214
394
-228
-406
295
-125
698
-1387
-9
508
233
-410
-165
-313
594
940
-466
-655
57
378
52
-51
266
20
-5
60
-313
-782
10
-254
35
10
-165
-427
-1295
87
84
-656
-734
-1125
-363
407
65
528
623
-541
-123
-121
1011
930
-211
-1078
67
256
-1437
232
230
377
-563
81
709
-634
1099
96
29
1174
144
-1198
145
1500
-243
127
-30
-154
74
-88
-277
117
406
35
10
-1
-4
-9
1
10
-8
-2
-9
7
-12
7
-113
-4
4
-162
-227
-34
-265
428
-50
26
314
815
1073
28
425
-5
650
91
-602
-93
111
-331
-984
-889
414
1380
521
169
284
-395
300
30
-390
-859
35
-418
662
1500
747
-20
-309
-11
-13
-45
-182
299
-240
126
-55
768
-225
-892
77
-47
215
-903
-9
314
872
53
399
-142
-85
-91
-84
497
1107
-27
-348
-103
-1411
321
1425
205
-4
-153
111
-748
597
1286
-165
384
619
-203
119
-51
-461
49
78
285
-291
372
-179
160
-1500
1500
1410
1375
-297
992
482
390
451
1000
245
459
-165
-231
-899
611
-344
-69
-173
-6
741
-460
409
-9
193
-115
865
-339
206
-533
78
626
-240
-1278
-112
289
-154
-9
1196
-434
-1378
207
-1216
1222
-183
249
706
-681
568
875
-708
775
-932
466
1354
201
1178
82
-1354
1153
374
-217
-386
280
418
538
-313
-9
391
1015
-888
-214
-525
-173
941
-360
-1262
58
270
52
-51
266
20
-5
-1286
-15
-751
-401
-756
16
55
-56
58
-176
-94
-67
-779
-1156
-77
-622
613
61
136
589
-541
-123
-121
1011
930
-464
-977
63
217
-1472
46
371
712
-431
-543
699
-624
1083
96
28
-79
-1015
-333
-359
-310
1143
159
-23
-118
57
-57
-169
78
265
23
10
-1
-4
-9
1
10
-8
-2
-9
7
-12
7
-113
-4
4
-155
-218
-32
-254
-163
-53
33
330
655
1129
845
-1222
-71
500
125
-452
373
173
-248
-738
-845
683
1186
75
143
332
-1354
350
36
-456
114
35
-418
985
132
79
-19
-294
-10
-12
-52
27
-243
-586
471
-57
789
-981
-807
80
-47
240
-1004
-6
345
1017
62
465
-166
-99
69
-158
936
988
-51
-642
-423
-477
-187
233
1500
-1500
979
-416
-1055
632
1286
-169
407
656
138
448
-65
-538
316
942
1106
354
399
-205
-43
-98
292
506
-165
-157
1478
517
416
420
1168
753
-64
-601
-39
-153
325
-320
-35
-221
514
-275
20
-423
-4
239
-142
983
-141
255
-1085
85
685
411
-339
-123
295
-170
-9
1332
-276
-492
254
-82
1500
1012
119
650
57
361
151
27
54
-420
-218
84
-298
13
88
17
-152
313
267
-322
181
-92
736
-329
-9
675
171
-954
-215
-153
-48
894
-342
-561
55
257
52
-51
266
20
-222
51
-269
-675
10
-218
29
10
-124
126
-543
41
88
-696
-434
481
-246
812
6
561
1464
-488
-111
-109
912
56
-113
-814
570
298
-694
79
258
423
-380
1201
557
-497
200
77
23
574
-68
-698
-180
1078
-211
839
-26
-133
64
-106
-323
140
487
42
10
-1
-4
-9
1
10
-8
-2
-9
7
-12
7
-113
-4
4
-144
-203
707
-236
-152
581
18
-1164
956
-1133
681
726
806
-662
100
-522
527
96
-285
-566
-966
-290
-644
-1136
266
214
363
54
5
-887
-78
34
-408
-79
128
64
-15
-239
-9
-9
-40
404
169
-63
365
-52
408
-228
429
-824
52
178
-507
-29
-927
982
60
448
-161
-96
74
-167
990
1046
-55
-535
-285
-359
-204
258
11
-480
-124
90
465
511
1172
960
370
-456
-124
532
-59
-505
412
-349
-78
-294
377
-180
-48
-291
16
579
-570
-200
1477
150
-536
502
498
805
-97
-713
-323
-741
95
152
133
-773
546
-3
-804
-1500
53
-1286
-118
838
-117
213
-346
99
800
-659
-1252
-127
496
-1184
-9
-1265
-498
-459
239
-77
1201
-174
256
651
-792
560
159
28
57
-441
-114
80
74
434
74
-401
1046
368
-213
-380
222
-98
506
-296
-9
205
154
74
596
-138
-44
858
-514
-621
34
425
293
-51
267
14
694
63
-329
-823
10
-267
25
10
466
102
-577
69
42
-225
-192
-149
-1151
-1312
-288
-142
674
104
699
-82
-125
-998
1165
-1139
71
268
-852
63
205
613
-56
-253
613
-547
-300
83
26
996
35
-560
-85
1226
-231
618
-28
-156
193
-548
-322
140
485
-345
10
-1
-4
-9
1
10
-8
-2
-9
7
-12
7
-113
-4
4
-125
-176
-125
32
-132
-41
26
256
506
874
541
-946
-45
147
81
-390
-111
146
-215
-640
-771
412
-509
548
114
930
974
576
-946
428
125
57
-636
-133
217
71
-17
-265
-9
-10
-45
871
0
-281
413
-54
747
-228
-764
121
-41
182
-768
-9
267
933
57
427
-186
-91
59
-134
791
824
221
-524
-347
-391
-151
188
209
-1055
-893
822
1134
86
1109
294
352
566
-225
-142
-1333
-35
-161
922
424
-430
1203
386
74
273
-97
427
-43
-129
1173
415
336
-51
776
923
-275
-833
-274
461
396
-359
-384
-283
540
23
1145
-1263
-13
191
-114
789
-113
205
-913
71
-483
-1150
100
-152
298
-171
-9
1242
-506
35
285
-79
1424
14
207
952
101
535
-211
-473
-313
-433
-298
79
74
431
74
-398
1346
337
-196
-349
253
-83
464
830
-9
757
148
-1036
-187
-154
54
838
445
-712
809
240
-61
-60
300
24
-251
-558
-297
-744
10
-241
49
10
-234
236
-176
1161
66
285
537
-104
-151
491
171
343
275
-1006
-151
-156
969
-408
-174
-917
132
223
-686
55
181
296
-442
64
550
-490
945
72
114
630
-37
-1123
-199
1183
-218
114
-125
-138
67
-74
-225
98
340
29
10
-1
-4
-9
1
10
-8
-2
-9
7
-12
7
-113
-4
4
-117
-137
-24
-190
-761
-47
29
298
591
1019
479
-839
-40
130
-54
-397
-3
-843
-108
-648
113
391
-137
521
108
1078
-899
-891
1286
715
-74
35
-399
-76
125
53
-12
-200
-9
-7
-2
471
211
-28
356
189
556
-178
-987
-200
-58
256
-1054
-252
-328
1382
-279
165
-405
-10
1425
-33
683
102
-38
-590
-411
-451
-158
194
78
-1251
-666
690
1073
489
996
-131
316
507
-165
97
-48
-375
41
78
285
-291
688
-179
-44
273
-256
523
-43
-137
1158
529
-543
347
1500
860
95
-921
-143
-208
439
-433
-48
-299
495
202
-98
-1110
-10
172
228
698
-101
184
-307
69
561
-438
-277
-49
330
-231
-9
1188
-473
-436
249
-73
1331
506
133
731
64
406
-180
-406
-268
-370
-256
78
1411
399
72
-410
1040
337
-196
-349
-444
555
498
-291
587
363
159
-888
-200
-142
-45
679
1164
-427
735
-460
-596
-111
916
-281
-425
-651
-313
-23
10
-254
9
10
-21
23
-95
258
81
351
984
-128
-262
443
-7
140
456
130
954
-141
-720
542
-149
-786
113
191
-588
55
181
296
-442
64
586
-523
908
81
24
179
-54
-1309
-288
1380
-265
127
-20
-101
638
-74
-225
98
340
29
10
-1
-4
-9
1
10
-8
-2
-9
7
-12
7
-113
-4
4
-76
-101
-43
-160
-248
-47
29
298
591
1019
667
-1167
-56
181
100
-482
-1156
858
407
-788
-768
425
419
-140
-739
682
1400
707
223
773
-67
29
792
-68
-169
459
-2
-301
-250
-47
934
-123
149
4
234
-47
652
-200
-667
66
-43
137
20
-131
282
1017
62
465
-166
-99
58
-131
784
827
-43
-917
-437
-740
-185
7
681
-524
-135
-685
-667
561
1220
-161
-1042
-465
-193
113
-57
-438
47
95
311
-356
327
-219
-43
-336
13
862
-445
-140
1304
462
371
375
969
787
251
-325
-128
895
453
408
-47
-170
202
-727
100
-668
-132
239
-141
1018
-140
732
-594
80
436
-214
-790
-118
338
-162
-9
1222
-407
6
194
-1286
1286
25
-326
1124
100
-97
1436
270
224
-850
239
67
-159
370
64
-341
1183
436
-252
-448
327
-122
683
-398
-9
497
202
557
1134
-173
-430
1040
-578
-661
-20
516
48
-48
242
18
80
51
-268
-671
10
-594
26
10
-106
108
-465
67
64
-497
-351
297
-451
-449
-323
526
626
1354
-105
-104
868
53
-380
-552
-986
485
-258
66
147
969
-304
-860
586
-523
908
81
24
548
-31
-976
-172
1030
-273
142
1014
983
83
-103
-313
10
470
41
10
-1
-4
-9
1
10
-8
-2
-9
7
-12
7
-1325
-4
4
-141
-208
-89
-244
-322
-52
33
248
580
1112
460
-1265
-1048
268
138
-693
-82
77
-279
-938
-596
-183
-394
-536
191
812
-1103
-615
259
-393
-100
42
-504
-98
159
71
-17
-265
-9
-10
-42
1281
-1335
-666
379
36
888
-272
-687
94
-39
240
-1011
-9
348
988
49
452
-397
1354
16
-167
773
531
-43
-244
-312
595
363
172
144
-404
-104
-42
-512
-892
717
-917
419
1061
-211
118
-26
-375
286
262
265
-787
346
-165
-1397
450
63
-731
-725
-728
1219
397
352
1047
901
843
87
-723
146
-203
309
-356
7
31
522
50
-26
-333
-14
-706
174
769
-140
615
-28
-105
32
-290
636
-137
-1279
-131
-9
839
-452
-345
562
-55
1396
-1092
-117
-117
-1170
737
31
18
-847
-384
-139
-298
-758
324
161
-509
1040
-740
336
596
253
-106
599
-350
-9
435
177
-992
-224
-286
-50
754
314
-474
-38
-504
1005
-1286
450
-679
-1130
61
-1023
-762
432
-973
-153
10
-639
94
-433
1286
59
-465
-290
-483
-1216
-10
55
435
-214
-705
378
-145
478
-325
626
-1143
-373
-79
-974
-891
336
662
-218
-712
431
-385
668
-471
18
-1153
382
-969
1046
1286
1092
-1320
-27
-134
65
-469
-288
982
404
-397
10
-1
-4
-9
1
10
-8
-2
-9
7
-12
7
-113
-4
4
-148
-208
-31
-243
-157
341
27
105
537
-137
1281
271
-40
-222
165
-452
-222
83
-248
-810
363
103
400
-187
177
198
-107
210
63
-1054
-428
-1026
-999
-61
1365
64
241
-237
565
-6
-53
-199
-45
-333
-223
-38
529
-162
-630
23
-451
134
-1082
-167
691
856
52
391
-67
238
59
-42
713
581
-22
366
1224
1007
-1354
285
-1050
-474
721
940
1152
592
946
-124
300
338
-198
-114
-45
-347
14
104
193
-279
356
198
-1354
-252
13
501
-642
-1013
838
648
577
1291
-104
508
167
-633
-423
-364
267
-867
19
-409
480
29
-444
-383
-10
142
-75
865
-87
-189
-348
89
-107
-164
-55
609
-253
-121
-9
-187
-497
-642
212
-70
1500
10
1106
517
-97
302
171
75
85
-371
-1073
-190
-904
364
62
-609
1319
380
-905
-436
390
118
504
-696
89
-262
1276
-659
-84
-122
-39
849
710
-105
52
244
48
-146
169
19
-235
-725
-397
-763
642
229
23
-206
-96
-133
-556
1425
68
-957
-290
1432
-435
-106
83
586
176
257
-65
-57
-562
295
-293
-1047
65
-641
-783
-659
208
475
-389
-1326
520
-464
-1227
72
21
97
-80
-331
-218
633
-417
102
-26
-126
61
-90
-1500
119
413
35
10
-1
-4
-9
1
10
-8
-2
-9
7
-12
7
-113
-4
4
-282
-173
-52
-267
-148
919
28
1168
567
979
-448
262
446
-453
-23
-572
-88
105
-314
-935
-855
111
437
-164
197
329
-600
347
15
-149
-80
43
-500
-97
158
75
-1260
57
-9
645
-47
701
-503
-250
433
-52
812
-945
-747
-370
-556
-1425
-1412
-9
257
753
46
345
-124
-73
78
205
1048
1107
-58
-642
-423
-477
-187
233
-24
-441
-115
83
-336
-434
1271
973
401
648
-181
-69
-66
-34
-62
90
333
-339
435
-208
-51
-306
17
609
-49
-135
1118
447
8
390
1365
1153
1034
-589
-103
-343
802
-313
-39
-232
427
19
81
-341
-9
153
-93
767
-90
892
-309
1095
577
-772
-143
-69
189
123
-1023
1281
-408
-682
217
-63
1074
-7
132
727
62
402
160
29
57
-447
-232
1200
400
91
78
188
988
320
-186
-332
240
-61
792
-470
777
-1400
164
-978
-381
-210
-61
807
-309
-506
49
232
3
-51
-95
20
-13
574
-259
-646
10
-363
554
273
-81
82
-170
51
48
-389
-245
-77
-654
-394
193
713
507
-388
-81
-73
936
117
-70
-990
70
235
-970
62
172
304
-488
62
557
-1354
863
77
23
577
-33
-1027
-181
1084
-421
136
-27
-174
281
-88
-277
117
406
35
10
-1
-4
-9
1
10
-8
-2
-9
7
-12
7
-113
-4
4
-72
-96
-41
-152
-236
-45
28
283
561
968
667
-1167
-56
181
100
-482
-1156
858
407
-788
-746
586
421
-132
-1204
682
1400
707
223
773
-64
28
752
-65
-161
459
-2
-301
-250
-47
934
-123
149
4
234
-47
652
-200
-667
66
-91
281
-581
-191
739
1017
62
465
-166
-99
58
-131
784
827
-43
1415
-493
-306
-276
487
647
-498
-128
-651
-634
561
1220
-161
-1042
-465
-193
113
-57
-438
47
95
311
-356
327
-219
-43
-336
13
862
-445
-140
1304
462
371
375
969
787
251
-325
-128
895
453
408
-47
-170
1085
771
987
-230
94
239
-141
1018
-140
732
-231
63
600
-313
-295
-112
321
-154
-9
1161
-450
-284
216
-489
1191
25
-326
1124
100
-97
1364
22
41
-899
169
64
-151
352
61
-324
1183
436
-252
-448
327
-122
683
-398
-9
497
140
-928
-220
-143
-322
1040
-595
-653
63
498
47
-63
72
17
-11
53
-644
-447
311
-628
25
10
-101
103
-442
64
61
-472
-333
282
-562
-1323
-726
552
662
1354
-105
-104
868
53
-67
-626
-986
437
-342
64
215
915
-304
-595
557
-497
863
77
23
577
-33
-1027
-181
1084
-273
142
1014
983
83
-108
-329
10
495
43
10
-1
-4
-9
1
10
-8
-2
-9
7
-12
7
-113
-4
4
-172
-241
-36
-281
-181
-53
33
330
655
1129
845
-1222
-71
500
125
-476
1379
256
-261
-484
-785
467
-522
1188
-1118
377
-788
13
28
-350
114
35
-418
-81
132
97
-24
-363
-13
-16
-52
27
-243
-586
471
-57
789
-981
-807
80
-45
205
-861
389
385
966
59
442
-158
-94
66
-148
878
906
-48
-642
-423
-477
-187
233
219
-630
21
119
-799
665
1354
-178
428
690
145
472
-68
-566
333
992
1164
373
420
-216
-47
-108
15
561
-46
-153
1373
504
406
409
309
484
-286
-173
-92
-161
342
-337
-37
-233
591
-299
111
-471
-373
239
-142
983
-141
255
-1085
85
685
176
-339
-117
280
-161
-9
1265
-262
-467
241
-78
1425
17
172
944
82
524
151
27
54
-420
-218
83
281
454
78
-442
-160
374
281
-386
280
-97
775
-346
-9
711
171
-954
-215
-153
-48
990
-379
-622
61
284
55
-54
280
21
-234
48
-297
-641
10
-207
30
10
-131
133
-572
32
105
-828
-516
770
-338
390
62
976
-221
-488
-111
-109
912
56
-90
-760
44
312
-676
71
233
382
-343
82
617
-551
221
85
25
574
-87
-698
-180
1078
-725
913
-368
-152
77
-106
-323
140
487
42
10
-1
-4
-9
1
10
-8
-2
-9
7
-12
7
-113
-4
4
-139
-196
645
-228
-154
51
26
-497
511
-845
957
-163
-95
209
91
258
-111
-263
421
-974
-849
-1481
1229
664
-1161
260
-587
909
28
-37
-258
23
-265
-51
84
66
-16
-245
-9
-9
-757
-1113
271
-283
65
-54
750
-231
-977
76
-55
269
-867
-9
374
779
48
356
-128
-140
72
-673
-599
1023
-54
356
-321
-593
-231
51
234
1048
-387
-1500
-594
542
1103
-145
350
562
-267
90
-28
-472
-62
82
300
-306
392
-188
-28
-734
12
773
-181
-321
847
614
538
-9
850
675
1302
-820
-110
-556
608
-503
52
-942
1152
569
93
-318
-11
662
-120
832
-120
217
-1
-28
535
-205
-225
-832
266
-112
-9
1472
-434
-401
207
-66
1222
-397
784
577
53
1495
-1081
323
51
1500
-205
46
43
123
43
-231
855
277
-161
-287
208
400
541
-315
-9
393
-501
-938
-229
458
597
1082
182
140
-715
-962
117
128
272
-332
-239
62
-175
-460
10
-150
-358
197
-85
86
587
168
84
326
-410
300
-1313
-178
-1233
507
1107
-1295
-1196
-94
793
57
-126
-642
40
153
-480
55
611
1257
-677
-145
627
-731
465
691
25
421
-213
-748
-81
791
-256
133
-27
-139
78
-457
-203
89
1148
-409
10
-1
-4
-9
1
10
-8
-2
-9
7
-12
7
-113
-4
4
-189
-265
-40
-309
-199
-59
37
365
725
1251
600
-1020
-50
152
-1006
-451
333
470
-348
-737
-1500
1044
17
-182
218
299
-1222
316
32
-411
-80
35
-418
-81
132
87
-21
-325
-12
-14
-45
616
-254
-237
413
-58
808
-237
-827
81
-52
238
-1001
-11
348
1126
68
515
-184
-110
82
-186
1103
1165
-61
-676
-445
-502
-197
245
205
-589
-153
111
-748
559
1354
-150
361
581
-225
132
-66
-511
55
100
369
-376
482
-231
-48
-292
16
580
-46
-153
1373
160
-462
409
1011
836
-100
-675
-247
-151
392
-246
-54
-218
155
21
522
-44
-128
145
-127
959
94
-805
-529
77
621
-238
-307
-118
337
-160
-9
1219
-481
-444
229
-74
1354
17
171
935
81
519
311
-233
246
-430
-191
122
-255
690
114
-604
1214
394
-228
-406
295
-125
698
-1387
-9
508
132
-791
-209
-290
-35
893
-443
-622
54
359
55
-54
280
21
-5
63
-329
-823
10
-267
37
10
-174
-449
-1363
84
81
-635
-396
-171
-382
428
68
556
656
-541
-123
-121
1011
930
-211
-1078
67
256
-1437
70
230
377
-563
81
668
-597
1035
91
27
673
-39
-1198
-212
1500
-256
134
-32
-162
78
-93
-292
123
427
37
10
-1
-4
-9
1
10
-8
-2
-9
7
-12
7
-1286
-4
4
-141
-208
-89
-244
-322
-52
33
248
580
1112
493
-1402
-1103
513
170
-1354
-101
23
-292
-1354
-627
-193
-415
-734
201
812
-1103
-615
259
-393
-105
44
-531
-103
167
64
-15
-239
-9
-9
-42
-564
-1335
-666
957
40
984
-301
-761
104
-824
176
-738
-193
256
1040
52
476
-418
1425
123
-35
1469
694
-64
-271
-345
659
402
190
501
-402
-297
222
-657
-988
795
-1016
464
1176
-211
118
-26
-375
286
107
290
-763
378
171
-1327
428
60
-694
-689
-779
1219
437
352
1047
1024
741
-291
-553
-644
-203
309
-356
7
31
549
-22
8
-351
-16
181
850
830
-106
-68
-327
-49
465
-34
-274
-146
-1279
-125
-9
678
-429
-328
534
-52
1326
-465
-111
-111
-1111
700
37
21
-988
-447
-162
-314
-798
341
169
-536
988
-703
319
566
240
-96
541
-315
-9
392
196
-1099
-248
-317
-56
192
-1256
-431
-36
-479
385
-1354
474
17
-1189
1265
-1134
-844
479
-1078
-153
10
-639
94
-433
1425
65
-515
-321
-535
-1216
-10
55
435
-214
-781
419
-161
529
-360
729
-899
-329
586
-673
948
414
898
58
-617
431
-385
668
-471
18
331
26
-773
115
1142
1037
-1254
-26
-127
62
-69
-144
159
319
-116
10
-1
-4
-9
1
10
-8
-2
-9
7
-12
7
-113
-4
4
1179
-292
-26
-695
-213
919
28
1168
567
979
329
-313
-61
-109
82
1117
-88
105
-314
-702
-812
112
418
-156
186
803
-1013
785
23
-351
-93
-170
-486
-94
-38
79
-19
-294
-10
-12
-47
701
-294
-250
433
184
828
-191
-1153
38
-260
-491
-1063
-10
284
1017
62
465
-166
-99
70
-160
946
999
-52
-642
-423
-477
-187
233
-25
-464
-121
87
696
582
1126
-32
388
592
-95
1023
-32
-167
254
82
300
-306
392
-188
-46
-277
15
551
-45
-138
1239
455
367
370
1326
1040
1122
-478
54
-443
429
-403
-49
-300
1369
21
89
-378
-10
145
466
-174
-85
847
-557
922
654
-1420
-20
-145
900
-180
182
1242
-275
-502
243
-77
1401
4
147
810
70
449
168
518
60
-471
-244
85
31
179
85
-164
1048
340
-198
-351
232
-250
521
-291
18
-1400
184
-1030
-231
50
-53
998
-383
-627
61
286
1086
-58
-1009
20
333
477
-84
-924
10
-402
21
273
-81
82
-354
54
51
-410
-258
-81
-590
-661
448
1057
477
-458
-104
-103
856
766
-195
-860
50
209
-549
62
172
304
-488
62
586
-523
908
81
24
548
-31
-1425
-172
1030
-256
134
-32
-162
1408
-84
-263
111
386
33
10
-1
-4
-9
1
10
-8
-2
-9
7
-12
7
-113
-4
4
-321
-457
-66
-530
324
-891
1
336
667
1500
1425
-302
-45
588
86
-465
-243
-485
-256
-762
-812
-250
-536
213
260
340
-712
11
26
-315
-67
-211
408
-68
113
-802
-207
-136
-5
32
-38
-657
207
11
343
-40
551
-170
-564
56
-8
112
-685
79
-401
901
49
848
-85
-78
13
-292
228
988
-49
183
-504
-613
-162
198
122
-368
175
69
-1115
636
927
-39
-771
659
-310
-766
-55
1209
202
-795
415
-423
304
-1137
777
-179
14
518
-42
-135
1209
428
389
349
664
1348
-927
-952
15
-829
620
-411
604
-255
448
22
88
-358
-8
881
-117
791
-116
211
-624
-5
782
1038
221
-199
371
-139
-9
1048
-429
-312
620
350
901
144
-973
428
38
240
136
25
48
-379
-197
87
85
492
85
-454
352
672
197
-168
-744
-91
-220
-300
-9
418
147
-822
-185
-131
768
1248
-63
-465
88
213
311
-54
277
21
738
280
263
-640
-508
428
20
10
-78
326
-161
420
65
-252
-65
122
-415
744
-66
1168
577
-719
338
-159
1198
361
-199
-1013
-297
239
-757
838
214
846
-1472
-268
454
-405
703
63
19
569
-32
-1016
-180
801
-538
702
-257
-130
65
9
-241
81
276
364
10
-1
-4
-9
1
10
-8
-2
-9
7
-12
7
-113
-4
4
127
190
24
216
-585
-54
1
336
667
927
569
-996
-47
155
85
-516
-270
-538
-283
-844
-855
-263
-564
-1500
274
397
-829
14
29
-368
-67
-360
628
-68
113
59
-188
-218
-7
38
-51
-806
-269
-789
466
-42
580
-179
-594
59
-34
161
-667
-6
-631
1017
54
405
-145
-86
80
-185
266
1156
-60
193
-531
-645
-171
208
135
-407
194
77
-1236
520
1222
-161
-14
623
-203
119
99
1273
451
97
360
-367
471
-731
185
-846
17
604
-48
129
932
392
312
315
664
1348
-927
-952
15
-919
687
-456
669
-282
481
22
90
-384
-10
881
-138
807
-141
255
-624
206
733
117
-1052
-122
631
-167
-9
690
-476
-345
202
-53
998
160
-1078
474
42
266
151
27
54
-420
-218
92
89
518
89
-478
1349
438
-890
-451
327
-101
-796
69
-9
463
152
-941
-191
75
117
1147
-305
-654
93
286
327
-57
292
22
777
57
-297
-743
10
-241
23
10
-91
416
-79
68
64
-507
-316
-101
-415
744
-66
1168
577
-324
-73
-73
605
38
-200
-1024
64
243
-766
-1008
207
392
-580
83
557
-497
863
77
23
631
-36
-1126
-199
887
-188
354
-24
-119
58
168
-325
85
288
22
10
-1
-4
-9
1
10
-8
-2
-9
7
-12
7
-113
-4
4
-157
-235
-114
-275
-248
-202
29
-423
623
1019
1362
-587
20
-1147
80
-1054
-1170
689
-246
-1052
-1010
-217
-564
-1000
274
210
-839
222
25
-310
-62
134
-1148
-63
102
553
-12
-731
-118
-7
-31
-73
-50
-255
1151
-43
592
-182
-606
60
-136
418
-1156
-248
1175
1425
751
364
-129
-965
64
-1305
865
1500
-47
-970
-1320
-1116
-65
105
151
-433
-112
82
-550
-808
1091
-1418
-240
725
-175
443
-67
824
862
664
321
-326
419
825
-37
-215
10
425
-36
-137
951
434
335
326
861
700
-71
-566
-114
-517
626
-649
-99
-230
391
18
74
-313
-710
196
-115
807
-288
208
-224
55
588
-170
-298
-62
-245
-66
-9
919
-317
-295
153
-48
899
14
147
470
70
449
402
473
363
-186
-30
79
74
427
-152
-394
667
218
-124
-223
162
-133
703
676
580
-70
257
-861
-147
-158
-51
930
-300
-586
1155
287
36
-34
182
13
-423
70
-199
-392
10
-168
26
10
-107
109
-468
58
55
-428
-268
-85
-284
317
51
-1036
488
165
-26
-428
487
-390
-226
-629
48
166
-569
52
171
277
-104
-575
539
-427
1074
64
258
835
48
292
-29
929
-387
133
-153
-158
255
-67
-206
90
311
27
10
-1
-4
-9
1
10
-8
-2
-9
7
-12
7
-113
-4
4
-109
-153
-22
-43
-115
-1223
-35
84
256
1019
606
-1062
-51
165
1286
-590
278
424
-442
-445
-660
-203
-437
-773
-87
-517
-665
271
252
-220
-74
382
-380
75
120
83
-208
-309
-11
-615
-39
-738
-365
-630
338
-45
640
-190
-633
1
-108
-867
-952
878
-710
734
50
379
-135
-81
67
-152
104
1103
-49
-574
-318
-664
194
72
189
-465
-134
95
-627
617
1020
36
167
354
-229
-312
-50
-355
271
171
365
-124
741
-424
-39
-235
12
466
-39
-247
877
524
451
836
990
689
-221
-627
-142
-208
370
-364
-41
-252
421
-254
95
-333
-9
227
-134
956
-134
556
63
78
721
-19
-626
-95
424
-179
-67
1335
-465
-1215
297
-71
1060
12
133
731
64
-1500
117
22
42
-325
-169
67
498
338
61
-351
1276
-1302
1289
266
507
-98
591
-346
-9
99
186
-370
-160
156
-65
740
-70
-465
46
-8
46
-45
232
17
-193
-1283
-256
-641
-424
-207
24
10
384
100
-425
-211
51
133
-282
398
-318
362
58
702
551
-444
-316
-107
839
52
-122
-808
48
274
-672
58
190
312
-465
67
570
-1074
1160
52
-11
711
4
-683
-114
1026
-502
104
-747
187
60
218
-333
-145
498
-104
10
-1
-4
-9
1
10
-8
-2
-9
7
-12
7
-113
-4
4
-338
-481
-69
-558
341
-846
1
319
634
1425
1085
580
-47
619
90
-465
-243
-485
-256
-762
-855
-263
-564
224
274
358
-749
12
27
-332
-64
-200
388
-65
107
-844
-237
-132
-5
38
-43
-692
-208
-1115
387
-40
551
-170
-564
56
-8
112
-685
79
-401
944
67
497
-252
-107
13
-292
228
988
-49
183
-504
-613
-162
198
-1445
-368
-276
69
-1115
667
1161
-108
-205
692
-310
-766
-55
1209
202
-795
415
-423
304
-1137
777
-179
14
518
-42
-142
1273
451
409
367
664
1348
-927
-952
15
-829
620
-411
604
-255
428
20
82
-342
-9
837
-131
767
-134
242
-624
-5
782
755
221
-199
371
-139
-9
1048
-429
-312
620
350
901
144
-973
428
38
240
143
26
51
-399
-207
83
81
467
81
-431
334
638
187
-160
-707
-91
-220
-300
-9
418
155
-865
-195
-138
808
1314
-66
-489
93
224
295
-51
263
20
701
266
250
-608
-483
407
21
10
-82
343
-170
420
65
-252
-65
122
-930
-694
-221
252
617
-719
338
-159
1198
361
-210
-1066
47
252
-797
838
214
846
-1472
-268
454
-405
703
63
19
599
-34
-1070
-189
843
-538
702
-257
-130
65
160
-309
81
274
21
10
-1
-4
-9
1
10
-8
-2
-9
7
-12
7
-113
-4
4
-407
-145
77
-293
-115
873
27
1110
539
930
1084
986
-45
-626
78
-187
-66
149
-235
-700
-812
105
415
-156
187
920
-1226
-320
315
264
-128
142
-344
-66
108
84
-31
-339
8
79
-33
245
-785
-149
-388
-65
936
-251
-1392
-82
-43
196
-823
-9
286
966
59
442
-158
-94
74
-168
996
1052
-55
-671
-588
-377
-348
300
-26
-488
-127
92
733
-75
1161
542
368
592
-203
-332
-50
-387
-506
84
424
-314
419
-189
-40
-237
12
472
-39
-131
1177
432
349
352
1182
992
659
-574
-130
-115
1058
-321
-35
-224
37
19
624
71
-157
145
-88
729
-85
847
-532
807
571
-1282
-366
-131
375
-180
-9
1354
-473
-981
277
-72
1152
4
140
770
67
427
142
26
51
-398
-206
77
28
162
77
-148
939
304
-177
-315
228
-472
540
-327
-31
637
184
-1030
-231
50
-53
543
-279
-457
45
-769
1100
-47
-460
17
199
930
-333
-1425
-166
-522
-8
-58
64
-62
265
46
44
-351
-221
181
-688
-415
203
750
534
-435
-83
-98
813
728
-78
-1097
78
260
-1075
-120
169
269
-392
461
339
-401
782
-1134
-179
548
-1063
-976
441
1030
-193
101
-153
-122
60
-80
-250
105
367
31
10
-1
-4
-9
1
10
-8
-2
-9
7
-12
7
-113
-4
4
-99
-138
-20
-39
-104
-208
-5
84
591
1019
576
-1009
-48
157
1222
-654
308
469
-489
-493
-660
-203
-437
-773
-87
-517
-665
271
252
-220
-71
29
-364
-72
115
83
-208
-309
-11
-13
-39
-738
-365
-630
338
40
859
-263
-655
96
-32
141
-594
-8
207
828
50
379
-135
-81
70
-160
109
1161
-52
-589
-323
-672
185
66
189
-465
-134
95
-627
649
1074
38
176
373
-241
-328
-53
-374
285
171
365
-124
741
-424
-39
-235
12
466
-39
-247
877
524
451
836
990
689
-221
-627
-142
-208
370
-364
-41
-252
380
-229
86
-300
-9
227
-134
956
-134
556
66
82
759
-20
-659
-59
472
-179
-124
1316
-418
-381
197
-63
1161
12
133
731
64
-1500
117
22
42
-325
-169
67
498
338
61
-351
1212
-1237
390
-208
295
-58
594
-348
-9
156
186
-370
-160
156
-65
779
-74
-489
48
-8
48
-47
244
18
-203
-1219
-243
-609
-403
-197
24
10
384
100
-425
-211
51
133
-282
398
-302
344
55
667
523
-444
-316
-107
839
52
-110
-730
44
247
-606
74
243
398
-365
85
542
-1020
1102
49
-10
711
4
-683
-114
1026
-477
99
-23
-118
57
218
-333
-145
498
-104
10
-1
-4
-9
1
10
-8
-2
-9
7
-12
7
-113
-4
4
-162
-227
-34
-265
428
-50
31
314
622
1073
28
425
-5
650
91
-634
-98
117
-348
-1036
-194
-885
1453
548
412
129
79
138
78
-1377
-859
35
-418
662
1500
83
-20
-309
-11
-13
-45
839
56
-240
918
-55
768
-225
-786
77
-47
215
-903
-9
314
918
56
420
-150
-89
78
-177
1048
1107
-58
-348
-103
-1411
321
1425
205
-4
-153
111
-748
628
1354
-174
404
652
-214
125
-54
-485
52
82
300
-306
392
-188
-48
-806
-921
580
-1419
-297
992
482
390
451
1000
245
459
-165
-231
-899
611
-344
-69
-173
-6
780
-484
431
-9
193
-115
865
-339
206
-745
78
626
-283
-1278
-112
289
-154
-9
1196
-457
-1451
218
-70
1286
16
163
897
78
498
875
-708
775
-932
466
1321
193
1160
82
-1330
1153
374
-217
-386
280
418
538
-313
-9
391
843
-926
-214
-697
-230
941
-360
-1262
58
270
52
-51
266
20
-5
289
-694
-636
644
-423
29
-262
-125
127
-545
372
-107
883
-389
-140
-622
613
61
136
589
-541
-123
-121
1011
930
-248
-977
63
217
-751
48
390
787
-153
-572
736
-657
1140
101
29
-79
-1015
-333
-359
-310
-100
100
-122
-145
70
-84
-263
111
386
33
10
-1
-4
-9
1
10
-8
-2
-9
7
-12
7
-113
-4
4
-172
-241
-36
-281
-181
-50
206
314
622
1073
1500
-1222
-312
500
125
-408
1212
156
309
-666
-695
224
-460
504
238
691
-1161
714
240
945
108
33
-397
-77
125
261
-159
-174
-205
-275
-47
25
-219
-529
425
-54
750
-932
-767
76
-30
722
-560
-140
216
1017
62
251
-166
-99
73
-166
985
1040
-54
-579
-382
-585
-169
-611
188
-541
18
