754
-804
252
566
-644
-571
-942
-382
578
385
-740
-745
142
608
-901
745
-690
423
631
865
16
380
50
-620
825
736
-672
-461
276
-154
288
533
-843
-315
-904
284
-864
883
-427
-978
-756
155
366
117
411
-723
-286
525
-317
-44
-890
705
-323
-372
-884
62
132
-652
539
-745
546
932
-949
104
811
-813
-164
-291
656
344
230
-207
600
556
-463
955
807
-805
-921
-340
446
722
434
787
-793
952
730
177
-515
605
273
823
117
-583
-481
730
-97
-201
772
510
-604
-201
831
-549
-196
-395
600
98
971
-168
-334
-894
-388
222
910
16
892
-900
-930
866
-304
-236
-700
-141
-4
66
29
-826
660
-44
-287
525
753
-680
-981
-687
870
-91
-951
-886
-563
-195
-776
-835
-344
987
-873
-166
138
388
855
922
-868
-195
102
-640
-605
-581
858
273
624
654
-576
542
-349
-788
-286
157
440
863
2
-366
289
-285
-996
722
156
-936
416
-76
-54
-645
368
-9
624
427
-697
468
-11
48
667
994
-56
-998
43
258
-366
-830
858
244
-606
-550
-832
45
-264
-899
-153
355
-944
-576
716
629
897
-417
550
59
-465
-204
-335
-321
845
976
-944
-473
465
-95
-278
-622
128
-914
804
-387
743
-213
-223
218
-258
-253
357
4
-839
-663
-45
611
823
-152
-542
-917
-759
853
70
53
993
565
751
-354
-501
303
-162
-980
888
-603
-7
-944
420
-176
-407
675
978
267
-258
-888
840
-94
449
391
-73
860
-672
-756
360
170
992
150
-269
532
-791
-374
697
914
-6
309
105
576
-859
979
345
-653
916
235
-107
-688
125
-257
52
284
683
230
-642
-923
-918
-562
-13
-54
-926
291
900
250
-698
327
-983
845
-155
620
-41
604
544
-787
242
996
354
257
-713
685
-545
-831
-23
295
783
954
793
147
-494
-933
747
542
-262
132
-560
-422
322
-850
-298
-341
-484
-896
702
-655
-548
-376
-448
-885
537
105
875
-194
652
475
-727
520
261
-709
71
-460
228
766
-502
-776
922
254
-424
242
-193
498
-836
-181
-556
-966
-122
-364
658
15
-96
316
830
233
-421
155
-845
-884
-480
-979
600
-326
-688
973
811
-559
815
-472
-285
426
-492
-384
-348
-170
174
-19
444
-435
-679
826
872
209
674
-269
-178
-395
-667
848
-212
-988
-121
924
-324
-26
793
-112
-545
454
-676
-699
-667
769
911
-750
-916
717
668
949
-596
-710
144
681
54
179
-727
-72
-659
-650
-330
100
-135
-818
568
51
514
789
-25
338
815
507
547
83
191
995
-316
-772
-703
-247
686
844
-459
-877
437
-20
-358
-397
383
-799
385
390
726
-893
-700
202
617
-285
-346
-663
-424
-785
-830
-476
-803
-763
325
800
779
-302
-461
-96
472
-169
142
785
-269
688
-438
-248
560
702
238
808
-930
355
-668
-372
-748
270
-492
-145
89
-904
816
-349
-887
-224
424
263
888
558
855
-679
161
-59
-515
-235
957
-341
-863
838
566
961
-376
108
-532
-703
-52
78
-559
-153
869
-189
-4
140
1
588
-782
210
-190
-917
-648
716
461
-51
522
998
223
565
891
-389
-167
-365
878
345
740
181
158
-87
708
-43
-633
-62
-770
831
-590
631
909
-27
-541
24
-763
-752
204
780
-677
-814
-490
-966
564
-537
786
932
-290
728
-873
826
-424
-542
-811
940
887
-280
-820
544
-457
751
-209
-491
120
406
-369
-818
-535
815
-751
698
823
765
-856
722
962
114
116
824
-182
-899
945
-814
-652
687
718
578
19
543
515
856
427
389
-721
-972
509
-908
553
667
908
723
-150
-85
883
307
-381
-381
879
-103
710
36
-161
-458
913
-920
162
692
681
-674
261
-313
-42
855
257
-574
-380
-918
-954
941
639
808
-218
-68
738
10
-348
-285
-928
141
-424
445
632
-582
-905
-164
-141
673
-807
-632
386
274
520
-824
150
-373
850
74
933
641
713
656
261
372
225
-479
-687
-988
-456
-733
-918
-935
-926
-154
-578
572
-312
-909
744
-148
386
70
-505
923
409
-380
-173
193
735
666
650
965
-478
-482
-463
219
980
201
175
-827
600
17
970
-151
932
109
-125
573
61
172
333
-736
-178
-492
351
238
-121
767
47
-554
-435
79
602
-47
-135
676
796
819
-890
223
12
-545
965
81
-183
-26
979
-498
-960
823
-105
767
789
427
-468
-204
116
-532
-719
601
709
132
-620
469
-691
808
859
79
370
-147
51
-490
-327
-2
-433
-473
-427
850
739
795
461
247
312
201
408
306
787
-94
-801
-77
-238
-50
-872
73
-959
904
-477
151
-699
-752
-177
-160
614
-698
441
-293
160
-891
-468
115
-193
-551
-574
-41
-664
282
77
874
143
-738
930
322
-362
-925
389
929
686
508
-179
805
-899
208
-262
-368
272
56
979
227
-620
-292
905
230
180
-460
230
211
-914
-749
-483
-328
-270
1000
731
403
-993
845
258
433
695
807
-917
17
678
498
477
622
-226
-920
-429
-882
895
876
907
873
-77
-59
731
730
949
-102
-416
469
-163
672
-526
291
-177
-236
-328
-743
-359
-939
-786
-384
-358
-687
74
819
-304
-438
-764
469
-420
466
766
284
795
597
69
-285
605
497
-587
508
285
164
937
-596
-49
-680
-658
760
-951
-934
482
91
568
-174
-837
345
323
-683
-913
855
-911
-878
580
677
769
-92
-516
677
-596
-50
840
-827
381
406
317
476
667
424
178
-223
749
-585
-835
-828
159
-583
-268
-61
422
238
344
-686
793
-760
591
398
657
-576
-887
354
668
-348
-470
-965
-637
-156
881
-858
845
-353
77
-823
988
2
-112
-385
50
-160
-774
-170
486
-474
-885
-968
-542
-244
712
-491
-572
461
-890
786
484
-467
-259
564
-641
480
-633
12
-737
-761
-612
595
269
0
564
467
-141
281
56
223
816
739
364
-884
-170
-511
-541
-360
590
-81
790
-119
655
-700
63
235
-381
-610
-240
-135
-40
594
-407
-846
-605
-932
577
662
-938
903
944
253
-402
849
608
225
-3
508
-867
-867
258
-76
-156
-702
398
-523
890
-639
-436
-63
906
-312
105
-306
889
-34
143
521
-845
-148
936
-265
-236
-644
-840
-989
-571
787
521
183
-484
779
519
984
-6
-73
452
-269
-366
970
716
-960
-962
307
-290
-628
-273
-213
-549
-261
-236
337
471
-843
-410
-857
-312
-347
937
130
241
623
14
-866
-367
508
436
-715
432
-126
-549
-627
457
585
-740
-188
-352
-411
904
-406
-886
-952
-540
858
-420
151
41
-737
-742
587
313
562
-312
338
-182
-170
-661
47
-273
-128
973
91
-180
-909
-159
-987
-561
946
-271
176
-762
47
-688
336
146
603
50
44
-804
-275
-636
-883
-18
325
-972
-905
827
671
458
-404
-123
47
969
-915
306
553
-394
-209
890
-226
925
-786
669
995
-958
702
-420
202
-404
-995
790
-270
-76
-204
615
-274
324
-863
550
391
462
965
707
-884
-728
-847
-964
967
-163
652
893
135
130
-532
-668
-961
-131
501
921
897
726
446
-311
249
934
-580
165
-879
-978
909
-616
-405
-806
-207
922
523
802
-222
-693
605
646
434
779
131
-157
-494
-928
-996
-182
-993
-392
-867
819
-494
-747
-689
-971
583
325
-125
483
-22
-94
487
409
-251
-869
-14
-79
779
-340
200
-516
-707
-494
627
-313
255
-224
-819
-500
110
-792
940
-637
536
-812
368
260
482
557
-377
669
627
585
-548
-342
460
106
-197
-786
527
121
761
931
-641
5
990
490
941
102
783
97
252
88
-266
-857
-256
-365
-243
-678
317
270
234
-927
-462
302
863
-607
-94
-11
988
-814
-146
-334
-665
545
-43
757
-224
-244
-843
-729
-143
235
569
-481
-686
932
516
102
-55
-990
-600
-621
340
-625
-341
600
-809
-794
199
-403
-8
-524
840
-86
-768
-560
-728
305
940
-322
23
886
-333
589
-281
-533
454
-337
342
-378
466
-134
394
-30
-444
253
-795
325
-639
-457
527
904
-59
-460
637
-344
-782
-643
-356
408
283
23
-652
870
-631
-244
-346
-534
-474
-485
-462
958
-359
-590
517
-922
862
707
978
-801
-634
259
692
250
-481
-811
-429
254
-180
-691
936
178
549
211
-298
213
-521
833
-595
-822
-886
734
-558
888
-806
-685
501
835
260
-265
295
163
422
282
-197
134
-226
-449
-256
939
-869
-510
587
177
-757
-76
482
-72
-476
-455
999
312
-932
362
404
