577
-804
530
-6
-644
443
-942
-382
578
385
-740
-295
142
-472
-901
745
-99
423
631
865
-939
-966
634
-620
829
-478
-274
844
-52
-154
288
533
-871
-315
-212
284
-864
883
893
-842
-756
-127
366
117
611
-723
-286
-554
-317
-44
342
799
-374
-372
578
62
132
-652
539
219
-174
932
257
104
811
-813
218
-291
369
344
6
323
600
556
-717
971
633
-805
451
293
446
722
-514
787
652
-680
730
177
181
859
273
-891
-714
632
-481
730
-97
-201
772
-184
-604
-964
-899
-575
-196
-542
265
98
971
-741
-334
-894
-388
-688
910
16
411
-997
58
866
-989
-565
-700
597
-4
-824
-951
582
-67
-44
-67
299
461
-680
575
-687
-839
-246
-951
-886
652
-195
-776
-835
665
-243
970
-166
-192
388
855
922
-868
-195
102
-546
-248
-581
858
653
-976
586
-576
-589
-351
-788
-286
1000
-291
-558
-708
-366
419
-285
-765
782
156
-936
416
-647
-746
435
368
-9
624
842
-717
468
-11
18
304
337
430
-998
590
258
307
-830
488
465
818
-299
629
45
-264
568
-153
355
-251
-383
716
629
-117
-417
550
763
-465
-204
-335
-321
-983
976
211
395
465
487
-278
683
-180
-914
-337
-387
522
-845
-104
814
-258
-247
-4
307
664
-663
-45
611
-645
-230
-54
-809
-759
944
70
-621
970
565
-240
905
-501
303
-871
864
102
-603
-919
-258
-706
-176
-407
439
-979
149
-258
-888
-562
-94
449
391
-152
17
796
-520
360
-858
881
150
-269
530
747
728
-370
914
-6
309
105
94
-270
-416
-361
261
-614
-44
-107
520
125
386
52
284
683
230
-642
-923
-918
-562
-13
-54
157
291
437
250
-698
-783
-983
845
309
620
630
624
-411
-847
365
136
354
257
-486
685
-71
-188
-332
295
-991
-926
793
-545
254
-933
747
542
134
-370
-560
292
-640
-850
742
-341
717
-135
947
-655
-548
-739
-237
-885
735
105
875
799
-685
475
-727
520
261
-709
929
700
228
766
-31
-671
922
254
-424
-454
451
447
978
259
-763
-966
-138
-364
-572
15
16
316
54
-365
-397
-32
4
990
-480
-750
600
-925
104
-830
811
885
-925
-500
-492
426
-492
-384
-348
-247
-37
665
444
636
-660
-546
-814
-574
281
-269
116
551
-667
16
-282
874
786
-444
172
-26
630
-112
-545
454
-676
33
-667
769
-404
-709
-360
717
-895
949
-596
311
144
681
54
179
-727
-72
-659
-650
-330
100
-930
-757
837
-909
514
-237
75
338
198
-409
-286
83
209
995
-569
-772
-703
-742
686
844
-459
-908
437
-20
-358
-660
333
974
-642
357
726
-893
-700
-765
-864
456
-346
494
-424
-785
-830
-476
-788
504
325
800
-69
-286
-461
-96
472
84
142
-622
-269
688
-438
-620
207
662
238
808
-389
-705
-668
-769
-748
-281
-492
-145
341
-904
816
-349
-887
-224
424
263
-394
558
855
-679
-67
-59
-512
-235
-667
44
-311
838
566
-583
-208
3
-957
-703
-220
-245
-559
593
-14
-817
-4
261
42
588
-782
-526
251
-917
35
907
461
171
522
-284
-66
565
173
-932
-712
379
-367
334
850
376
-182
-681
708
-43
-694
-220
946
123
-692
-263
909
340
-667
649
-763
479
204
-537
608
943
-490
272
-98
-537
786
-962
-290
728
861
826
-424
-542
-811
-997
887
-280
-964
544
-457
-781
-209
-491
120
406
231
-818
-535
815
-751
698
59
765
-856
238
-554
972
427
460
961
-899
945
33
29
687
718
578
19
543
137
856
-612
-825
-721
-936
-144
499
553
667
969
941
-408
-85
64
-225
298
-381
879
817
710
36
865
-458
913
941
162
999
681
-115
-837
-313
312
-573
257
-907
-778
-196
-954
941
639
730
-365
-590
884
10
-521
-285
-928
-428
-473
445
-280
611
-905
-688
-141
699
-594
-632
386
274
196
-572
710
-568
545
844
933
763
675
656
160
902
225
-575
393
-988
-813
-733
-623
-935
745
-305
-174
572
-312
-214
195
160
386
-309
57
-811
-105
884
547
193
629
666
903
412
-478
489
-648
219
980
-533
175
307
876
17
970
-151
-259
109
-125
-137
-407
172
333
-736
-178
887
385
604
-121
767
-797
320
-237
-364
-877
-47
-568
-873
634
819
46
223
707
-995
965
7
-803
-26
432
-498
-960
319
-105
767
789
427
-468
75
116
-532
-869
601
-537
132
-154
-872
-610
808
-127
79
370
-386
-587
-490
-86
-2
-204
-473
-851
-940
-421
196
461
247
730
-121
408
306
-264
-94
-148
-77
-238
-50
-177
394
-959
904
-477
151
-699
-853
-177
-826
614
-314
441
-293
160
-891
-522
-303
-193
662
-181
371
160
256
-780
145
143
-738
-553
322
-129
-635
389
929
686
508
-179
805
-899
208
-262
-368
-203
56
470
239
955
-292
671
308
998
-460
36
211
697
-70
980
-328
-70
423
731
-180
-223
-250
694
691
695
807
-917
-480
199
498
477
622
-226
-920
-429
-882
793
536
907
873
-858
-59
731
730
678
-196
828
-983
-163
-780
-983
-92
939
-236
880
-743
937
896
-786
204
374
-687
74
-813
-603
881
-646
-652
894
466
469
261
559
376
-257
864
-580
497
-133
508
285
164
937
149
-49
-680
-609
760
-506
-934
-325
91
-805
677
-837
345
323
-683
191
855
-911
128
580
99
769
-92
-249
677
-596
-50
459
-827
381
-367
317
120
667
28
178
721
-195
-585
503
-828
159
-663
-268
178
422
111
894
-686
793
-760
591
-989
803
-576
-887
347
668
-348
-470
-834
-637
-156
-482
-374
-201
-353
77
-820
988
680
18
-385
50
-160
334
-170
-416
-367
211
-664
-542
-32
712
850
677
838
-890
786
484
-467
849
-286
468
480
-633
350
-431
-761
86
713
269
-159
564
-579
624
281
56
223
83
47
364
-884
-813
-511
-715
513
590
-81
790
-119
655
882
-220
235
-381
-610
255
-135
53
572
943
-846
-605
-899
331
662
-938
903
944
253
-181
-749
-179
942
-3
-829
-581
-480
258
-905
-156
206
398
32
546
-639
-82
-63
-934
-312
-811
-306
889
-34
357
20
-845
-148
936
-265
-236
-644
-840
-561
-399
257
521
126
-604
779
519
-409
-6
-251
-786
26
890
970
-492
-960
-871
428
-317
-133
151
-926
519
-261
-23
337
419
597
675
-857
845
929
937
130
241
623
739
-866
-436
-420
-529
-715
-598
-121
-549
-627
457
585
-816
-188
-352
885
904
248
-886
-550
-540
858
-420
-335
41
261
-225
587
-626
562
-312
338
-182
-3
-661
47
-273
-128
156
-993
-816
-5
-159
-945
-561
946
-271
176
-762
337
-688
336
146
603
-643
-473
709
-275
-331
-883
-18
-120
-244
255
827
-923
458
842
-123
47
969
-915
306
901
-394
-209
890
-763
925
-786
-452
995
-958
702
735
-586
-643
-995
990
-270
-76
982
615
568
-698
-863
550
391
821
965
707
-884
653
-847
-964
-697
-909
-22
-528
712
130
985
161
-886
367
436
-658
-241
726
175
-942
249
-778
-580
165
975
-850
909
-616
-405
113
-334
-758
-212
802
346
-693
-249
593
-42
691
173
-302
-361
-928
-996
479
84
98
39
284
64
-747
627
-971
583
325
-125
-254
-256
-94
487
409
-251
-869
-14
-79
772
388
200
-516
-707
-494
627
-313
-882
-224
-468
-267
-896
93
394
862
-572
-812
938
260
-486
557
460
-563
-304
214
631
-342
-464
-678
541
518
527
121
761
723
-641
5
-652
-288
617
102
-310
955
-49
88
-266
-293
-256
-365
185
729
317
339
234
-927
-462
302
-262
-953
596
823
-611
83
116
493
-665
978
-43
-666
-538
-244
-132
359
-143
235
-796
-481
-686
932
-518
102
-55
-990
-775
-621
340
-625
-341
600
445
542
199
-341
-197
527
-502
-86
-768
-560
-728
305
940
-322
23
886
-333
565
770
944
454
-337
342
853
-596
-134
394
416
781
-858
-795
891
831
-804
527
904
-59
-460
637
154
-421
-410
-356
-798
-139
23
633
541
-631
965
822
-497
-474
647
-462
239
190
-636
529
-922
933
-437
-640
894
166
-658
-583
92
-481
899
223
254
-319
-691
-334
662
-790
211
258
-664
-618
833
-595
420
-220
-992
-335
888
-806
747
501
835
-516
973
295
163
422
-122
-197
-5
-226
762
-760
939
-367
-824
587
177
-757
499
-673
-72
345
76
999
-438
-932
362
-846
